svm_type epsilon_svr
kernel_type rbf
gamma 0.8219
nr_class 2
total_sv 766
rho 0.00284881
SV
-6.78045074223435e-05 1:1.68744 2:0.904613 3:0.466745 4:0.909947 5:0.725289 6:0.467634 7:0.91559 8:0.439096 9:0.416717 10:0.977547 11:0.249225 12:0.865213 13:0.609064 14:0.372746 15:2.68245 16:0.982794 17:0.370708 18:0.744248 19:0.792178 20:0.815848 21:0.201509 22:0.592084 23:0.702505 24:0.0834325 25:0.695524 26:3.17955 27:3.40921 28:0.370708 29:0.382824 30:0.192213 31:0.815848 32:0.0710946 33:0.546781 34:0.615697 35:0.00958179 36:0.969249 37:3.78789 38:3.77163 39:0.382824 40:0.744248 41:0.192213 42:0.792178 0:0 
-0.001912960637584537 1:1.57516 2:0.834659 3:0.411166 4:0.907238 5:0.770624 6:0.478533 7:0.882893 8:0.389295 9:0.0804092 10:0.113265 11:0.575746 12:0.640521 13:0.0487505 14:0.694977 15:3.47227 16:3.29048 17:0.10446 18:0.212674 19:0.180813 20:0.180813 21:0.0549447 22:0.530584 23:0.581535 24:0.0117852 25:0.995141 26:3.61894 27:3.62051 28:0.10446 29:0.108468 30:0 31:0.180813 32:0.0730178 33:0.530584 34:0.526343 35:0.0439417 36:0.531324 37:3.79829 38:3.62051 39:0.108468 40:0.212674 41:0 42:0.180813 0:0 
-0.0001374205526267667 1:1.24413 2:0.671834 3:0.335947 4:1.28357 5:0.893502 6:0.395838 7:0.657045 8:0.231677 9:0.08284 10:0.0585385 11:0.310347 12:0.363433 13:0.0233882 14:0.85368 15:1.35786 16:1.44247 17:0.15112 18:0.820985 19:0 20:0.727757 21:0.113555 22:0.310347 23:0.320196 24:0.114853 25:0.56157 26:1.79551 27:1.44247 28:0.15112 29:0.709611 30:0 31:0.727757 32:0.0764264 33:0.598171 34:0.668231 35:0.0153759 36:0.815675 37:3.62353 38:3.72067 39:0.709611 40:0.820985 41:0.727757 42:0.727757 0:0 
0.02114796937613065 1:0.934446 2:0.655152 3:0.131179 4:0.361908 5:0.865798 6:0.289282 7:0.671931 8:0.240204 9:0.158002 10:0.0596952 11:0.135315 12:0.143364 13:0.136217 14:0.617856 15:2.19105 16:2.50508 17:0.257493 18:0.424346 19:0.131239 20:0.131239 21:0.289358 22:0.220942 23:0.504351 24:0.055734 25:0.975788 26:3.12139 27:3.16598 28:0.341302 29:0.424346 30:0 31:0.131239 32:0.124954 33:0.220942 34:0.260433 35:0.158959 36:0.545778 37:3.6753 38:3.16598 39:0.257493 40:0.341302 41:0 42:0.131239 0:0 
0.007631312053608612 1:1.44264 2:1.08073 3:0.255391 4:0.615517 5:0.800744 6:0.207375 7:0.678941 8:0.259549 9:0.147397 10:0.328967 11:0.431206 12:0.74893 13:0.0478069 14:0.948996 15:3.23289 16:3.16568 17:0.280074 18:0.378891 19:0.155551 20:0.155551 21:0.0572136 22:0.465592 23:0.518481 24:0.0141379 25:0.972727 26:3.49364 27:3.50557 28:0.102437 29:0.280074 30:0 31:0.155551 32:0.0560104 33:0.465592 34:0.448118 35:0.0371048 36:0.478218 37:3.66487 38:3.50557 39:0.102437 40:0.378891 41:0 42:0.155551 0:0 
0.004382599449194913 1:1.62576 2:1.22887 3:0.31643 4:1.044 5:0.6135 6:0.21669 7:0.731428 8:0.562702 9:0.205345 10:0.0735305 11:0.188496 12:0.217992 13:0.10626 14:0.523815 15:2.14084 16:2.43798 17:0.779908 18:0.821572 19:0.486692 20:0.486692 21:0.227984 22:0.434522 23:0.658436 24:0.0255281 25:0.911054 26:3.95856 27:3.85022 28:0.256114 29:0.779908 30:0 31:0.486692 32:0.314522 33:0.434522 34:0.648081 35:0.13962 36:0.677378 37:4.2666 38:3.85022 39:0.256114 40:0.821572 41:0 42:0.486692 0:0 
-0.004049402221131682 1:1.35227 2:0.722823 3:0.276281 4:0.770277 5:0.808897 6:0.465363 7:0.957156 8:0.257339 9:0.123943 10:0.106203 11:0.27964 12:0.36147 13:0.0679064 14:0.807249 15:2.37158 16:2.2143 17:0.296247 18:0.390513 19:0.460048 20:0.460048 21:0.196517 22:0.541732 23:0.575564 24:0.110912 25:0.579292 26:2.9105 27:3.24126 28:0.14824 29:0.296247 30:0 31:0.460048 32:0.069109 33:0.541732 34:0.586473 35:0.0297554 36:0.80686 37:3.15608 38:3.24126 39:0.14824 40:0.390513 41:0 42:0.460048 0:0 
0.008215051040662565 1:1.47742 2:1.11669 3:0.243372 4:0.726732 5:0.595434 6:0.311414 7:0.738934 8:0.507447 9:0.121583 10:0.0656724 11:0.348697 12:0.381011 13:0.0499791 14:0.580085 15:3.62849 16:3.47633 17:0.306747 18:0.400566 19:0.307214 20:0.307214 21:0.136445 22:0.501668 23:0.613526 24:0.0448677 25:0.945631 26:4.13187 27:4.16437 28:0.230103 29:0.306747 30:0 31:0.307214 32:0.162632 33:0.501668 34:0.586472 35:0.0816603 36:0.720167 37:4.39339 38:4.16437 39:0.230103 40:0.400566 41:0 42:0.307214 0:0 
0.006729136391441864 1:1.45613 2:1.08209 3:0.250892 4:0.739554 5:0.599863 6:0.321572 7:0.759041 8:0.513692 9:0.148168 10:0.0526524 11:0.269221 12:0.253304 13:0.0612707 14:0.433643 15:2.40878 16:2.2143 17:0.689777 18:0.738682 19:0.591641 20:0.591641 21:0.171069 22:0.442527 23:0.604739 24:0.0334475 25:0.904297 26:4.13187 27:4.04919 28:0.214705 29:0.689777 30:0 31:0.591641 32:0.220783 33:0.442527 34:0.581142 35:0.108388 36:0.704145 37:4.37407 38:4.04919 39:0.214705 40:0.738682 41:0 42:0.591641 0:0 
0.009042038404266197 1:1.44545 2:1.08454 3:0.245414 4:0.749747 5:0.599099 6:0.320194 7:0.731076 8:0.519965 9:0.194531 10:0.234988 11:0.475105 12:0.332775 13:0.151099 14:0.381881 15:1.48175 16:0.91716 17:0.853948 18:0.873179 19:0.839862 20:0.839862 21:0.152023 22:0.461873 23:0.603421 24:0.0334506 25:0.967198 26:4.11939 27:4.09489 28:0.227823 29:0.853948 30:0 31:0.839862 32:0.196582 33:0.461873 34:0.577878 35:0.0981715 36:0.708428 37:4.38233 38:4.09489 39:0.227823 40:0.873179 41:0 42:0.839862 0:0 
0.002169536115409442 1:1.47155 2:1.10753 3:0.271545 4:0.744149 5:0.594534 6:0.307517 7:0.743983 8:0.513625 9:0.135029 10:0.094646 11:0.269462 12:0.237707 13:0.112725 14:0.399055 15:2.43934 16:2.07609 17:0.677257 18:0.724468 19:0.671893 20:0.671893 21:0.138141 22:0.502575 23:0.620747 24:0.0407993 25:0.975685 26:4.0849 27:4.09985 28:0.230017 29:0.677257 30:0 31:0.671893 32:0.172299 33:0.502575 34:0.592534 35:0.0859773 36:0.683904 37:4.37694 38:4.09985 39:0.230017 40:0.724468 41:0 42:0.671893 0:0 
-0.003270533336086988 1:1.03694 2:0.647762 3:0.124283 4:0.69101 5:0.766082 6:0.282272 7:0.815931 8:0.162538 9:0.0599588 10:0.0592267 11:0.43973 12:0.406321 13:0.0368479 14:0.420554 15:2.68775 16:2.92753 17:0.129766 18:0.132084 19:0.0275772 20:0.0275772 21:0.0587092 22:0.446467 23:0.503916 24:0.00812125 25:0.91714 26:3.14159 27:3.09995 28:0.0950038 29:0.132084 30:0 31:0.0275772 32:0.0619405 33:0.446467 34:0.425909 35:0.0426828 36:0.429496 37:3.3348 38:3.09995 39:0.0950038 40:0.129766 41:0 42:0.0275772 0:0 
0.0001035557708983943 1:1.59463 2:1.08056 3:0.246643 4:0.441298 5:0.693761 6:0.219513 7:0.705875 8:0.45576 9:0.208057 10:0.234621 11:0.440608 12:0.663846 13:0.042522 14:0.908803 15:2.37945 16:2.48279 17:0.441516 18:0.48647 19:0.259095 20:0.259095 21:0.304919 22:0.570309 23:0.826132 24:0.0771325 25:0.890006 26:2.81984 27:2.89915 28:0.352605 29:0.48647 30:0 31:0.259095 32:0.0846313 33:0.570309 34:0.551488 35:0.0468744 36:0.525243 37:3.06014 38:2.89915 39:0.352605 40:0.441516 41:0 42:0.259095 0:0 
0.001306095192111998 1:2.20545 2:1.29569 3:0.382955 4:0.668746 5:0.600616 6:0.210943 7:0.851827 8:0.546716 9:0.319124 10:0.33762 11:0.622808 12:0.81288 13:0.125643 14:0.803038 15:2.30299 16:2.47562 17:0.65977 18:0.846267 19:0.22226 20:0.22226 21:0.257908 22:0.733589 23:0.971606 24:0.0374686 25:0.842612 26:2.91213 27:2.75542 28:0.224343 29:0.65977 30:0 31:0.22226 32:0.361844 33:0.733589 34:0.982218 35:0.0989821 36:0.674469 37:3.1197 38:2.75542 39:0.224343 40:0.846267 41:0 42:0.22226 0:0 
0.007694289355266443 1:2.04058 2:1.26926 3:0.535021 4:0.983789 5:0.685326 6:0.206229 7:0.817932 8:0.603346 9:0.256211 10:0.260725 11:0.716271 12:0.905834 13:0.0708847 14:0.955775 15:2.26649 16:2.30514 17:0.671215 18:0.84154 19:0.338778 20:0.338778 21:0.204463 22:0.826664 23:1.01779 24:0.0252132 25:0.811004 26:2.69922 27:2.54784 28:0.21054 29:0.671215 30:0 31:0.338778 32:0.303447 33:0.826664 34:1.00146 35:0.0870482 36:0.507177 37:2.84165 38:2.54784 39:0.21054 40:0.84154 41:0 42:0.338778 0:0 
0.001693666955307383 1:2.01587 2:1.29092 3:0.32348 4:0.440128 5:0.733807 6:0.195099 7:0.797559 8:0.389502 9:0.210107 10:0.172707 11:0.801238 12:0.952749 13:0.030213 14:0.797755 15:2.55784 16:2.66982 17:0.0917731 18:0.312758 19:0.101178 20:0.101178 21:0.279916 22:0.762829 23:1.0038 24:0.0518699 25:0.850926 26:2.68759 27:2.80492 28:0.0917731 29:0.279466 30:0 31:0.101178 32:0.177697 33:0.762829 34:0.864273 35:0.0572712 36:0.685589 37:2.98584 38:2.80492 39:0.279466 40:0.312758 41:0 42:0.101178 0:0 
0.0019821605308767 1:2.04857 2:1.30139 3:0.446175 4:0.420709 5:0.722828 6:0.198041 7:0.797105 8:0.405375 9:0.203489 10:0.13207 11:0.814715 12:0.926586 13:0.0257234 14:0.746677 15:2.53024 16:2.66207 17:0.127979 18:0.333678 19:0.110177 20:0.110177 21:0.264114 22:0.763879 23:1.00262 24:0.0411099 25:0.865999 26:2.68744 27:2.79604 28:0.127979 29:0.268095 30:0 31:0.110177 32:0.214284 33:0.763879 34:0.900189 35:0.0635728 36:0.717985 37:2.97515 38:2.79604 39:0.268095 40:0.333678 41:0 42:0.110177 0:0 
0.007087728295755087 1:1.93218 2:1.2241 3:0.338192 4:1.01637 5:0.628909 6:0.185898 7:0.749339 8:0.2606 9:0.121406 10:0.114556 11:0.717015 12:0.786068 13:0.0387789 14:0.666723 15:2.79282 16:2.93957 17:0.21914 18:0.424949 19:0.252484 20:0.252484 21:0.123407 22:0.876127 23:0.897276 24:0.0436826 25:0.509667 26:3.08183 27:3.22833 28:0.211522 29:0.21914 30:0 31:0.252484 32:0.126254 33:0.876127 34:0.983738 35:0.0226446 36:0.897062 37:3.28552 38:3.22833 39:0.211522 40:0.424949 41:0 42:0.252484 0:0 
-5.574968256364688e-05 1:0.6064 2:0.33418 3:0.0831399 4:0.795211 5:0.747424 6:0.392208 7:0.809494 8:0.175898 9:0.17935 10:0.24888 11:0.176188 12:0.423071 13:0.0367008 14:0.922786 15:2.5329 16:2.39617 17:0.347547 18:0.427694 19:0 20:0.250157 21:0.217628 22:0.176188 23:0.236065 24:0.342906 25:0.446678 26:3.51593 27:2.39617 28:0.103021 29:0.347547 30:0 31:0.250157 32:0.0715414 33:0.138511 34:0.184113 35:0.11043 36:0.599496 37:4.21304 38:4.52417 39:0.103021 40:0.427694 41:0.250157 42:0.250157 0:0 
-0.006026941292676349 1:0.997081 2:0.546556 3:0.195419 4:0.951717 5:0.885491 6:0.37547 7:0.702429 8:0.223197 9:0.127189 10:0.134482 11:0.157484 12:0.281332 13:0.0794678 14:0.909049 15:1.81577 16:1.67567 17:0.410745 18:0.535152 19:0.430712 20:0.430712 21:0.147123 22:0.387022 23:0.45359 24:0.100087 25:0.67908 26:3.15945 27:3.40784 28:0.221081 29:0.410745 30:0 31:0.430712 32:0.0999629 33:0.387022 34:0.449807 35:0.0594291 36:0.732334 37:3.61305 38:3.40784 39:0.221081 40:0.535152 41:0 42:0.430712 0:0 
0.0007329037452045452 1:2.24331 2:1.36533 3:0.503337 4:0.364167 5:0.562487 6:0.170695 7:0.777303 8:0.627987 9:0.316977 10:0.285377 11:0.709566 12:0.99433 13:0.00708764 14:0.965608 15:2.50345 16:2.4684 17:0.208954 18:0.437341 19:0.102379 20:0.102379 21:0.329413 22:0.685942 23:1.00587 24:0.030092 25:0.892904 26:2.73758 27:2.61865 28:0.208954 29:0.268379 30:0 31:0.102379 32:0.33614 33:0.685942 34:0.897134 35:0.10661 36:0.667566 37:2.97644 38:2.61865 39:0.268379 40:0.437341 41:0 42:0.102379 0:0 
0.006504954002821442 1:1.43496 2:1.08569 3:0.493897 4:1.17137 5:0.579227 6:0.27333 7:0.869276 8:0.647352 9:0.329064 10:0.299117 11:0.229616 12:0.500004 13:0.120889 14:0.870357 15:2.34457 16:2.1045 17:0.191771 18:0.414371 19:0.120462 20:0.120462 21:0.349699 22:0.183848 23:0.525717 24:0.0755171 25:0.927971 26:2.81449 27:2.66719 28:0.191771 29:0.261659 30:0 31:0.120462 32:0.338378 33:0.183848 34:0.454768 35:0.228025 36:0.659577 37:3.38195 38:2.66719 39:0.261659 40:0.414371 41:0 42:0.120462 0:0 
0.004969307436332511 1:1.35317 2:1.04126 3:0.340608 4:1.22525 5:0.588436 6:0.295589 7:0.889938 8:0.616023 9:0.42618 10:0.29656 11:0.20443 12:0.483938 13:0.100722 14:0.865533 15:2.35619 16:2.09559 17:0.192619 18:0.437476 19:0.133293 20:0.389411 21:0.374603 22:0.14265 23:0.513733 24:0.0603286 25:0.999072 26:2.87454 27:2.87243 28:0.192619 29:0.288338 30:0.133293 31:0.338064 32:0.607379 33:0.203572 34:0.444469 35:0.754899 36:0.292492 37:3.60524 38:5.60266 39:0.288338 40:0.437476 41:0.338064 42:0.389411 0:0 
-9.331785104732306e-05 1:0.524147 2:0.30932 3:0.101131 4:1.47452 5:0.779367 6:0.290286 7:0.719751 8:0.250795 9:0.236734 10:0.116925 11:0.294747 12:0.408021 13:0.0266166 14:0.914628 15:2.46685 16:2.37945 17:0.272131 18:0.42087 19:0 20:0.615412 21:0.210935 22:0.294747 23:0.242974 24:0.249564 25:0.356395 26:3.36367 27:2.37945 28:0.179048 29:0.272131 30:0 31:0.615412 32:0.382343 33:0.334799 34:0.132287 35:0.559994 36:0.2827 37:4.13601 38:5.56021 39:0.179048 40:0.42087 41:0.615412 42:0.615412 0:0 
0.002139470285454024 1:1.35378 2:1.03472 3:0.330554 4:1.21631 5:0.584746 6:0.292879 7:0.884364 8:0.616079 9:0.418425 10:0.312003 11:0.197347 12:0.488048 13:0.116871 14:0.859227 15:2.36885 16:2.09559 17:0.193776 18:0.433345 19:0.131277 20:0.331901 21:0.373352 22:0.149448 23:0.518431 24:0.065242 25:0.984232 26:2.88565 27:2.85014 28:0.193776 29:0.283779 30:0.131277 31:0.297155 32:0.569921 33:0.15187 34:0.446094 35:0.773963 36:0.272471 37:3.5776 38:5.68314 39:0.283779 40:0.433345 41:0.297155 42:0.331901 0:0 
0.001438334754590693 1:1.90299 2:1.51214 3:0.317087 4:0.589025 5:0.718441 6:0.155623 7:0.780437 8:0.62943 9:0.160497 10:0.206686 11:0.514524 12:0.690788 13:0.0577079 14:0.835563 15:2.35619 16:2.52134 17:0.229424 18:0.342965 19:0.181593 20:0.181593 21:0.15912 22:0.651621 23:0.790643 24:0.0343445 25:0.900234 26:2.6168 27:2.68922 28:0.154172 29:0.229424 30:0 31:0.181593 32:0.115685 33:0.651621 34:0.750116 35:0.0276342 36:0.831569 37:2.782 38:2.68922 39:0.154172 40:0.342965 41:0 42:0.181593 0:0 
0.001401551467099489 1:1.17899 2:0.923004 3:0.24841 4:0.382709 5:0.798244 6:0.183344 7:0.729555 8:0.137402 9:0.151047 10:0.211293 11:0.343122 12:0.532238 13:0.0703325 14:0.86357 15:2.98623 16:3.18504 17:0.1968 18:0.272661 19:0.117893 20:0.117893 21:0.15835 22:0.409449 23:0.556837 24:0.0386173 25:0.856173 26:3.29048 27:3.47633 28:0.11494 29:0.1968 30:0 31:0.117893 32:0.0834974 33:0.409449 34:0.485938 35:0.0239015 36:0.901717 37:3.54856 38:3.47633 39:0.11494 40:0.272661 41:0 42:0.117893 0:0 
0.007035596776299525 1:1.61277 2:1.10407 3:0.342573 4:0.372025 5:0.599197 6:0.190148 7:0.742019 8:0.537738 9:0.23806 10:0.273094 11:0.536388 12:0.743766 13:0.089847 14:0.75997 15:1.94122 16:2.20638 17:0.315708 18:0.44549 19:0.148606 20:0.148606 21:0.285418 22:0.60115 23:0.864587 24:0.0485432 25:0.782346 26:2.18426 27:2.41595 28:0.238407 29:0.315708 30:0 31:0.148606 32:0.155667 33:0.60115 34:0.740256 35:0.0333538 36:0.910485 37:2.47722 38:2.41595 39:0.238407 40:0.44549 41:0 42:0.148606 0:0 
0.01191181504367412 1:1.77872 2:1.207 3:0.212049 4:0.478242 5:0.544273 6:0.180766 7:0.792951 8:0.725789 9:0.315654 10:0.300328 11:0.540968 12:0.760161 13:0.102351 14:0.685684 15:1.49753 16:1.86351 17:0.211762 18:0.438316 19:0.125084 20:0.125084 21:0.350103 22:0.568659 23:0.844358 24:0.0995284 25:0.712355 26:1.72529 27:2.08385 28:0.211762 29:0.254856 30:0 31:0.125084 32:0.296531 33:0.568659 34:0.864683 35:0.00787014 36:0.939105 37:2.01354 38:2.08385 39:0.254856 40:0.438316 41:0 42:0.125084 0:0 
-0.0005089930797739747 1:0.869345 2:0.42473 3:0.113821 4:0.236794 5:0.904602 6:0.6454 7:0.64522 8:0.185885 9:0.14907 10:0.195778 11:0.197968 12:0.330422 13:0.181895 14:0.734854 15:2.49809 16:2.11122 17:0.247396 18:0.40324 19:0.28879 20:0.28879 21:0.0687023 22:0.249144 23:0.315635 24:0.0196305 25:0.902844 26:3.62721 27:3.5221 28:0.238091 29:0.247396 30:0 31:0.28879 32:0.182728 33:0.249144 34:0.21285 35:0.25425 36:0.454071 37:4.26263 38:3.5221 39:0.238091 40:0.40324 41:0 42:0.28879 0:0 
0.001553083775533709 1:1.78161 2:1.21144 3:0.265572 4:0.493798 5:0.54475 6:0.171494 7:0.798373 8:0.68802 9:0.320384 10:0.337123 11:0.554871 12:0.815122 13:0.10186 14:0.701216 15:1.6824 16:2.04581 17:0.205375 18:0.472468 19:0.131213 20:0.131213 21:0.321472 22:0.614455 23:0.860214 24:0.0910436 25:0.748335 26:1.93797 27:2.21661 28:0.205375 29:0.274116 30:0 31:0.131213 32:0.302556 33:0.614455 34:0.915856 35:0.0112052 36:0.935893 37:2.14622 38:2.21661 39:0.274116 40:0.472468 41:0 42:0.131213 0:0 
0.001998450516119312 1:1.87476 2:1.28291 3:0.448644 4:0.640461 5:0.672756 6:0.158249 7:0.78385 8:0.618831 9:0.301703 10:0.298853 11:0.626095 12:0.904351 13:0.0461615 14:0.827626 15:2.1455 16:2.32342 17:0.138869 18:0.339629 19:0.102979 20:0.102979 21:0.324561 22:0.633638 23:0.933392 24:0.0515668 25:0.857174 26:2.34578 27:2.50945 28:0.138869 29:0.223855 30:0 31:0.102979 32:0.281696 33:0.633638 34:0.90702 35:0.0285331 36:0.936424 37:2.57486 38:2.50945 39:0.223855 40:0.339629 41:0 42:0.102979 0:0 
0.002966947262707157 1:1.56611 2:1.05571 3:0.156568 4:0.354876 5:0.787892 6:0.176285 7:0.746421 8:0.464007 9:0.174589 10:0.23664 11:0.525074 12:0.73265 13:0.0583946 14:0.809823 15:2.30219 16:2.49001 17:0.11156 18:0.199342 19:0.0744619 20:0.0744619 21:0.182335 22:0.558585 23:0.722548 24:0.0399907 25:0.84262 26:2.48702 27:2.62714 28:0.11156 29:0.114282 30:0 31:0.0744619 32:0.104792 33:0.558585 34:0.659015 35:0.0156978 36:0.938661 37:2.66425 38:2.62714 39:0.114282 40:0.199342 41:0 42:0.0744619 0:0 
0.001389644171024644 1:1.04529 2:0.787404 3:0.120307 4:0.326485 5:0.612514 6:0.232745 7:0.897164 8:0.360138 9:0.294975 10:0.272854 11:0.242935 12:0.505668 13:0.0669888 14:0.859248 15:3.6107 16:3.37415 17:0.211751 18:0.361408 19:0.162916 20:0.162916 21:0.30202 22:0.180879 23:0.478705 24:0.0543214 25:0.970732 26:3.99112 27:4.04834 28:0.163691 29:0.211751 30:0 31:0.162916 32:0.310052 33:0.180879 34:0.484393 35:0.0682381 36:0.894926 37:4.25991 38:4.04834 39:0.163691 40:0.361408 41:0 42:0.162916 0:0 
0.003987467910880262 1:1.19779 2:0.893439 3:0.168802 4:0.306389 5:0.725476 6:0.266243 7:0.853411 8:0.413354 9:0.322691 10:0.327913 11:0.222723 12:0.54975 13:0.0219162 14:0.981606 15:3.64005 16:3.60524 17:0.188449 18:0.369575 19:0.105398 20:0.105398 21:0.335281 22:0.215111 23:0.546778 24:0.045608 25:0.954833 26:3.9812 27:4.06889 28:0.188449 29:0.195259 30:0 31:0.105398 32:0.304878 33:0.215111 34:0.50978 35:0.075378 36:0.880446 37:4.29534 38:4.06889 39:0.195259 40:0.369575 41:0 42:0.105398 0:0 
0.0007916941140871411 1:1.21887 2:0.910006 3:0.176155 4:0.31514 5:0.712449 6:0.264564 7:0.848321 8:0.409533 9:0.318846 10:0.308643 11:0.248376 12:0.556204 13:0.0192079 14:0.997649 15:3.63479 16:3.63894 17:0.199252 18:0.376578 19:0.112173 20:0.112173 21:0.345722 22:0.214222 23:0.557063 24:0.0410701 25:0.958668 26:3.98752 27:4.06889 28:0.198599 29:0.199252 30:0 31:0.112173 32:0.302172 33:0.214222 34:0.505248 35:0.0788763 36:0.893749 37:4.26946 38:4.06889 39:0.198599 40:0.376578 41:0 42:0.112173 0:0 
-0.001238900594795516 1:0.884446 2:0.4351 3:0.119453 4:0.252431 5:0.841913 6:0.619171 7:0.844725 8:0.189166 9:0.272476 10:0.172713 11:0.203828 12:0.331868 13:0.143062 14:0.761445 15:2.49326 16:2.14717 17:0.274166 18:0.412851 19:0.0825163 20:0.0825163 21:0.324383 22:0.122262 23:0.326033 24:0.435592 25:0.489028 26:3.65782 27:2.35619 28:0.220991 29:0.274166 30:0 31:0.0825163 32:0.320333 33:0.122262 34:0.24461 35:0.654056 36:0.312833 37:4.21078 38:2.35619 39:0.220991 40:0.412851 41:0 42:0.0825163 0:0 
-0.0008512406428439591 1:0.88013 2:0.437184 3:0.12217 4:0.274301 5:0.832809 6:0.59214 7:0.935832 8:0.188959 9:0.275074 10:0.259247 11:0.194124 12:0.309014 13:0.314693 14:0.487994 15:3.63894 16:2.53931 17:0.236974 18:0.446085 19:0 20:0.308739 21:0.323882 22:0.194124 23:0.216912 24:0.576965 25:0.292771 26:4.27576 27:2.53931 28:0.236974 29:0.412727 30:0 31:0.308739 32:0.242092 33:0.126186 34:0.211822 35:0.486996 36:0.397099 37:1.22777 38:6.05639 39:0.412727 40:0.446085 41:0.308739 42:0.308739 0:0 
-0.0003104581276370973 1:0.888958 2:0.435317 3:0.129761 4:0.26387 5:0.837183 6:0.598195 7:0.808999 8:0.201514 9:0.223243 10:0.0760524 11:0.209861 12:0.242625 13:0.0971936 14:0.679934 15:1.84496 16:2.18152 17:0.403853 18:0.433528 19:0.0971975 20:0.0971975 21:0.296956 22:0.114759 23:0.322072 24:0.372999 25:0.557368 26:3.64869 27:2.57486 28:0.240515 29:0.403853 30:0 31:0.0971975 32:0.296721 33:0.114759 34:0.232485 35:0.627616 36:0.352988 37:4.26173 38:2.57486 39:0.240515 40:0.433528 41:0 42:0.0971975 0:0 
0.000643127652563707 1:1.41693 2:1.02656 3:0.188631 4:0.379757 5:0.658718 6:0.211647 7:0.768657 8:0.364652 9:0.348751 10:0.368563 11:0.423232 12:0.758096 13:0.0867884 14:0.907848 15:2.56369 16:2.67795 17:0.1663 18:0.547964 19:0.0656265 20:0.0656265 21:0.340099 22:0.442941 23:0.767211 24:0.0560664 25:0.982744 26:2.79979 27:2.81984 28:0.1663 29:0.415703 30:0 31:0.0656265 32:0.337593 33:0.442941 34:0.640621 35:0.165382 36:0.602416 37:3.36026 38:2.81984 39:0.415703 40:0.547964 41:0 42:0.0656265 0:0 
-0.0004091088343856411 1:1.93324 2:1.11177 3:0.540288 4:0.67729 5:0.762273 6:0.427723 7:0.988021 8:0.503622 9:0.574351 10:0.583736 11:0.774692 12:0.598448 13:0.268001 14:0.324486 15:1.65394 16:0.854255 17:0.134161 18:0.840715 19:1.03601 20:1.03601 21:0.680329 22:0.269405 23:0.540499 24:0.609396 25:0.32902 26:1.93136 27:3.65208 28:0.134161 29:0.710218 30:0 31:1.03601 32:0.458988 33:0.269405 34:0.645572 35:0.204223 36:0.673752 37:2.97416 38:3.65208 39:0.710218 40:0.840715 41:0 42:1.03601 0:0 
-0.0001708638790569129 1:0.88325 2:0.428735 3:0.126236 4:0.270294 5:0.85618 6:0.630781 7:0.851476 8:0.201441 9:0.243643 10:0.0608258 11:0.304728 12:0.345735 13:0.0440914 14:0.855066 15:3.07502 16:3.20212 17:0.189719 18:0.376253 19:0.265505 20:0.265505 21:0.341203 22:0.131533 23:0.326841 24:0.471433 25:0.428916 26:3.77039 27:2.30361 28:0.189719 29:0.239309 30:0 31:0.265505 32:0.328901 33:0.131533 34:0.231662 35:0.709051 36:0.25596 37:4.35362 38:2.30361 39:0.239309 40:0.376253 41:0 42:0.265505 0:0 
-9.422889178895581e-07 1:0.912403 2:0.450844 3:0.144255 4:0.294631 5:0.829665 6:0.580365 7:0.860787 8:0.214222 9:0.253109 10:0.0582148 11:0.333385 12:0.389714 13:0.0129793 14:0.96595 15:2.97644 16:3.00359 17:0.215451 18:0.403 19:0.257502 20:0.257502 21:0.341986 22:0.152598 23:0.333845 24:0.444154 25:0.437985 26:3.69014 27:2.31274 28:0.215451 29:0.23039 30:0 31:0.257502 32:0.359126 33:0.152598 34:0.259217 35:0.661745 36:0.28529 37:4.21304 38:2.31274 39:0.23039 40:0.403 41:0 42:0.257502 0:0 
5.009943931395056e-05 1:1.42095 2:1.08878 3:0.304123 4:0.330937 5:0.741294 6:0.207086 7:0.817855 8:0.559595 9:0.287623 10:0.24975 11:0.249988 12:0.472408 13:0.105706 14:0.870308 15:1.79211 16:2.00149 17:0.247257 18:0.372444 19:0.18232 20:0.18232 21:0.272 22:0.36804 23:0.592831 24:0.104833 25:0.798571 26:2.18642 27:2.46421 28:0.133188 29:0.247257 30:0 31:0.18232 32:0.341118 33:0.36804 34:0.658974 35:0.11575 36:0.918012 37:2.34337 38:2.46421 39:0.133188 40:0.372444 41:0 42:0.18232 0:0 
0.01216244927813106 1:0.83904 2:0.65913 3:0.112998 4:0.475811 5:0.791092 6:0.321472 7:0.870397 8:0.201732 9:0.188557 10:0.323309 11:0.27516 12:0.22589 13:0.442821 14:0.334195 15:2.194 16:3.40036 17:0.321141 18:0.373426 19:0 20:0.0853214 21:0.156137 22:0.27516 23:0.371725 24:0.122877 25:0.652484 26:2.90535 27:3.40036 28:0.18001 29:0.321141 30:0 31:0.0853214 32:0.0862253 33:0.349883 34:0.320044 35:0.0771408 36:0.455204 37:3.71293 38:3.30674 39:0.18001 40:0.373426 41:0.0853214 42:0.0853214 0:0 
0.01295193742359796 1:0.849753 2:0.689109 3:0.103831 4:0.45143 5:0.777598 6:0.286645 7:0.851291 8:0.186043 9:0.158929 10:0.340948 11:0.343416 12:0.226454 13:0.389381 14:0.262222 15:2.3017 16:3.40608 17:0.326318 18:0.3299 19:0.15988 20:0.15988 21:0.0649158 22:0.20013 23:0.264736 24:0.00876856 25:0.872208 26:3.82026 27:3.70019 28:0.116757 29:0.3299 30:0 31:0.15988 32:0.0709221 33:0.20013 34:0.18309 35:0.115107 36:0.490641 37:4.17743 38:3.70019 39:0.116757 40:0.326318 41:0 42:0.15988 0:0 
0.005119382122587604 1:1.60416 2:1.19222 3:0.336362 4:0.293543 5:0.603131 6:0.161454 7:0.721385 8:0.396213 9:0.300252 10:0.291993 11:0.42661 12:0.703723 13:0.0535235 14:0.904009 15:2.49809 16:2.62652 17:0.354036 18:0.573833 19:0.117095 20:0.117095 21:0.43131 22:0.323657 23:0.72831 24:0.0982584 25:0.873901 26:3.02991 27:2.79086 28:0.354036 29:0.515918 30:0 31:0.117095 32:0.177454 33:0.323657 34:0.238064 35:0.180671 36:0.323419 37:3.5221 38:2.79086 39:0.515918 40:0.573833 41:0 42:0.117095 0:0 
0.005334879167619913 1:2.13593 2:1.41428 3:0.308382 4:0.333178 5:0.665436 6:0.145635 7:0.751664 8:0.284705 9:0.285773 10:0.183579 11:0.69004 12:0.79825 13:0.0637086 14:0.673454 15:3.03819 16:3.24017 17:0.315087 18:0.439239 19:0.110824 20:0.110824 21:0.38035 22:0.681962 23:1.01571 24:0.0699065 25:0.827619 26:3.19085 27:3.40005 28:0.315087 29:0.319513 30:0 31:0.110824 32:0.293392 33:0.681962 34:0.959533 35:0.0374202 36:0.880133 37:3.52898 38:3.40005 39:0.319513 40:0.439239 41:0 42:0.110824 0:0 
0.007357968607317597 1:1.56998 2:0.929215 3:0.217673 4:0.414083 5:0.578126 6:0.268331 7:0.81176 8:0.441137 9:0.288417 10:0.603706 11:0.219386 12:0.725713 13:0.270331 14:0.495868 15:1.59352 16:2.91812 17:0.491406 18:0.669244 19:0.0351953 20:0.0351953 21:0.193474 22:0.216084 23:0.386136 24:0.102121 25:0.814994 26:2.78537 27:3.06176 28:0.198504 29:0.491406 30:0 31:0.0351953 32:0.0680727 33:0.216084 34:0.26748 35:0.0591843 36:0.89661 37:3.19033 38:3.06176 39:0.198504 40:0.669244 41:0 42:0.0351953 0:0 
0.00644873011093354 1:1.42563 2:1.05612 3:0.230804 4:0.42418 5:0.561263 6:0.216627 7:0.795811 8:0.434805 9:0.231516 10:0.286944 11:0.236778 12:0.469179 13:0.162493 14:0.679019 15:1.75172 16:2.33865 17:0.267027 18:0.362523 19:0.154441 20:0.154441 21:0.22472 22:0.37634 23:0.532965 24:0.11516 25:0.711662 26:2.21649 27:2.53213 28:0.234783 29:0.267027 30:0 31:0.154441 32:0.182884 33:0.37634 34:0.553006 35:0.0330072 36:0.943997 37:2.46685 38:2.53213 39:0.234783 40:0.362523 41:0 42:0.154441 0:0 
-0.001196709073970779 1:0.890483 2:0.456557 3:0.133613 4:0.282372 5:0.859392 6:0.54785 7:0.727034 8:0.189062 9:0.148316 10:0.159112 11:0.236851 12:0.213063 13:0.227748 14:0.506397 15:1.78189 16:2.48875 17:0.393225 18:0.431974 19:0.135161 20:0.217951 21:0.213541 22:0.304454 23:0.498931 24:0.0721849 25:0.96466 26:3.0025 27:3.04512 28:0.336032 29:0.431974 30:0.135161 31:0.158744 32:0.072294 33:0.229827 34:0.300689 35:0.0173416 36:0.852416 37:3.74388 38:3.54648 39:0.336032 40:0.393225 41:0.158744 42:0.217951 0:0 
-0.0005842178121629818 1:0.875379 2:0.432311 3:0.136009 4:0.223997 5:0.816733 6:0.607546 7:0.898415 8:0.211099 9:0.180937 10:0.284265 11:0.213325 12:0.348126 13:0.303719 14:0.416363 15:2.49809 16:3.71797 17:0.277403 18:0.438003 19:0.0226114 20:0.0226114 21:0.0752841 22:0.231954 23:0.305832 24:0.0173096 25:0.913755 26:3.75028 27:3.65604 28:0.231202 29:0.277403 30:0 31:0.0226114 32:0.183263 33:0.231954 34:0.241381 35:0.252796 36:0.516171 37:4.33712 38:3.65604 39:0.231202 40:0.438003 41:0 42:0.0226114 0:0 
0.01204538509433036 1:1.05045 2:0.865194 3:0.158959 4:0.711157 5:0.606481 6:0.338327 7:0.807813 8:0.354508 9:0.179454 10:0.226424 11:0.101024 12:0.319563 13:0.105415 14:0.828752 15:1.52735 16:1.90747 17:0.348255 18:0.536405 19:0 20:0.356569 21:0.252942 22:0.101024 23:0.308559 24:0.268593 25:0.734337 26:2.49809 27:1.90747 28:0.348255 29:0.449631 30:0 31:0.356569 32:0.0589974 33:0.269828 34:0.230575 35:0.0562803 36:0.466025 37:4.63935 38:4.90978 39:0.449631 40:0.536405 41:0.356569 42:0.356569 0:0 
0.008535396479682641 1:1.08048 2:0.88243 3:0.173899 4:0.63769 5:0.572841 6:0.251312 7:0.819132 8:0.358072 9:0.244329 10:0.222959 11:0.121952 12:0.340179 13:0.071563 14:0.992785 15:1.46164 16:1.44644 17:0.348663 18:0.779938 19:0.333681 20:0.333681 21:0.222671 22:0.274273 23:0.28627 24:0.259729 25:0.444086 26:2.46421 27:3.33899 28:0.348663 29:0.44286 30:0 31:0.333681 32:0.287357 33:0.274273 34:0.559681 35:0.0271519 36:0.977554 37:3.37674 38:3.33899 39:0.44286 40:0.779938 41:0 42:0.333681 0:0 
-0.0004618583217756162 1:0.887956 2:0.52282 3:0.140522 4:0.204751 5:0.88923 6:0.694316 7:0.654149 8:0.19206 9:0.135698 10:0.25201 11:0.108973 12:0.300263 13:0.29965 14:0.596562 15:2.50404 16:3.35269 17:0.2925 18:0.376775 19:0.123679 20:0.123679 21:0.100431 22:0.214576 23:0.283783 24:0.0942225 25:0.680181 26:3.68725 27:3.90136 28:0.127399 29:0.2925 30:0 31:0.123679 32:0.0546536 33:0.214576 34:0.252435 35:0.0539746 36:0.770698 37:4.10166 38:3.90136 39:0.127399 40:0.376775 41:0 42:0.123679 0:0 
0.0007225036983564257 1:1.46377 2:1.06895 3:0.34338 4:1.00926 5:0.67539 6:0.15939 7:0.719283 8:0.182385 9:0.219198 10:0.198459 11:0.44628 12:0.623331 13:0.0541758 14:0.903208 15:2.99147 16:3.10265 17:0.231248 18:0.428725 19:0.216414 20:0.216414 21:0.302869 22:0.251366 23:0.552951 24:0.023797 25:0.972515 26:3.30321 27:3.35453 28:0.231248 29:0.240211 30:0 31:0.216414 32:0.156268 33:0.251366 34:0.379555 35:0.0924237 36:0.627693 37:3.75721 38:3.35453 39:0.240211 40:0.428725 41:0 42:0.216414 0:0 
-0.003364802044391798 1:0.85535 2:0.427366 3:0.130073 4:0.217421 5:0.831347 6:0.634223 7:0.871893 8:0.201538 9:0.23132 10:0.324933 11:0.161588 12:0.244343 13:0.580536 14:0.275952 15:1.69142 16:3.554 17:0.263898 18:0.452217 19:0 20:0.073526 21:0.275513 22:0.161588 23:0.335229 24:0.303969 25:0.508253 26:2.46293 27:3.554 28:0.263898 29:0.307683 30:0 31:0.073526 32:0.0935144 33:0.231529 34:0.322114 35:0.0270736 36:0.950998 37:3.78992 38:3.7296 39:0.307683 40:0.452217 41:0.073526 42:0.073526 0:0 
-0.0007365369126182837 1:0.87509 2:0.497078 3:0.130573 4:0.242058 5:0.891175 6:0.676384 7:0.650198 8:0.20452 9:0.178828 10:0.251744 11:0.110102 12:0.292292 13:0.321788 14:0.576664 15:2.56252 16:3.41989 17:0.22849 18:0.406666 19:0 20:0.212947 21:0.155981 22:0.110102 23:0.263396 24:0.0539468 25:0.99357 26:3.42965 27:3.41989 28:0.22849 29:0.263864 30:0 31:0.212947 32:0.128759 33:0.16125 34:0.191348 35:0.231962 36:0.481197 37:4.74809 38:5.32311 39:0.263864 40:0.406666 41:0.212947 42:0.212947 0:0 
-0.0007958708006685104 1:0.978651 2:0.461988 3:0.196876 4:0.271522 5:0.927181 6:0.678015 7:0.647737 8:0.289147 9:0.109308 10:0.0641301 11:0.284911 12:0.336169 13:0.0396643 14:0.874796 15:2.23011 16:2.13753 17:0.251551 18:0.330921 19:0.226343 20:0.226343 21:0.142919 22:0.3058 23:0.445089 24:0.0276211 25:0.965577 26:3.00401 27:3.04434 28:0.200313 29:0.251551 30:0 31:0.226343 32:0.120877 33:0.3058 34:0.340655 35:0.114768 36:0.643652 37:3.40459 38:3.04434 39:0.200313 40:0.330921 41:0 42:0.226343 0:0 
-0.001463829090482959 1:0.984994 2:0.46688 3:0.317876 4:0.475117 5:0.921097 6:0.721415 7:0.714691 8:0.354866 9:0.120413 10:0.103448 11:0.354549 12:0.368762 13:0.0905082 14:0.604444 15:2.48796 16:2.81347 17:0.230742 18:0.315166 19:0.109828 20:0.109828 21:0.142449 22:0.343582 23:0.477506 24:0.0381675 25:0.918336 26:3.11343 27:3.20816 28:0.156959 29:0.230742 30:0 31:0.109828 32:0.115342 33:0.343582 34:0.424348 35:0.0687778 36:0.733912 37:3.49304 38:3.20816 39:0.156959 40:0.315166 41:0 42:0.109828 0:0 
-0.001804703461079807 1:0.892269 2:0.524595 3:0.157358 4:0.422628 5:0.837642 6:0.484965 7:0.818103 8:0.257092 9:0.208606 10:0.235785 11:0.25192 12:0.252516 13:0.309635 14:0.483238 15:1.73595 16:0.91972 17:0.510995 18:0.569773 19:0.447602 20:0.447602 21:0.232086 22:0.200226 23:0.370812 24:0.18649 25:0.660778 26:3.60524 27:4.16384 28:0.192051 29:0.510995 30:0 31:0.447602 32:0.157948 33:0.200226 34:0.357521 35:0.0170713 36:0.913637 37:4.03007 38:4.16384 39:0.192051 40:0.569773 41:0 42:0.447602 0:0 
-0.0004735886433661292 1:0.966611 2:0.670169 3:0.165879 4:0.766087 5:0.858751 6:0.373985 7:1.04753 8:0.336863 9:0.1799 10:0.126527 11:0.262218 12:0.370199 13:0.0675034 14:0.825827 15:2.47938 16:2.68729 17:0.121574 18:0.487409 19:0 20:0.222212 21:0.172753 22:0.262218 23:0.413281 24:0.0812547 25:0.888203 26:2.81984 27:2.68729 28:0.121574 29:0.47825 30:0 31:0.222212 32:0.24042 33:0.0478493 34:0.210853 35:0.684531 36:0.312833 37:4.54724 38:2.55359 39:0.47825 40:0.487409 41:0.222212 42:0.222212 0:0 
-0.0006424936714714535 1:2.45989 2:1.78523 3:0.400908 4:0.208001 5:0.803822 6:0.156089 7:0.746319 8:0.195212 9:0.150503 10:0.321646 11:0.20071 12:0.330203 13:0.387539 14:0.456176 15:2.12065 16:0.996491 17:1.01472 18:1.10949 19:1.35643 20:1.35643 21:0.0771745 22:1.23279 23:1.18443 24:0.0158446 25:0.306839 26:3.01119 27:3.08738 28:0.0949977 29:1.01472 30:0 31:1.35643 32:0.0526873 33:1.23279 34:1.27463 35:0.00813059 36:0.855841 37:3.05485 38:3.08738 39:0.0949977 40:1.10949 41:0 42:1.35643 0:0 
-0.001260048424571038 1:2.54949 2:1.80433 3:0.413145 4:0.156692 5:0.833951 6:0.16449 7:0.778803 8:0.194461 9:0.193328 10:0.108986 11:0.799012 12:0.738026 13:0.0374631 14:0.370295 15:2.75869 16:2.92028 17:0.220471 18:0.585213 19:0.328488 20:0.328488 21:0.263266 22:1.07839 23:0.948728 24:0.0722587 25:0.309243 26:2.84531 27:3.09737 28:0.220471 29:0.372864 30:0 31:0.328488 32:0.207732 33:1.07839 34:1.27354 35:0.0193446 36:0.85032 37:3.01 38:3.09737 39:0.372864 40:0.585213 41:0 42:0.328488 0:0 
-0.003469525283859463 1:2.34713 2:1.70515 3:0.336431 4:0.138744 5:0.796961 6:0.143126 7:0.828725 8:0.173409 9:0.0868397 10:0.0868726 11:0.562632 12:0.524623 13:0.045807 14:0.391569 15:2.71792 16:2.95416 17:0.578655 18:0.747079 19:0.601622 20:0.641359 21:0.1201 22:1.15482 23:1.08566 24:0.0279225 25:0.347944 26:2.98224 27:3.09122 28:0.191485 29:0.578655 30:0.0461211 31:0.601622 32:0.053547 33:1.19681 34:1.23407 35:0.010072 36:0.777751 37:3.10457 38:3.06363 39:0.191485 40:0.747079 41:0.0461211 42:0.641359 0:0 
0.006451959294952382 1:1.09718 2:0.759297 3:0.189049 4:0.879931 5:0.790196 6:0.19825 7:0.743223 8:0.524248 9:0.146735 10:0.0986061 11:0.662529 12:0.74545 13:0.024174 14:0.813872 15:2.62885 16:2.70408 17:0.132886 18:0.274679 19:0.222829 20:0.222829 21:0.229009 22:0.453551 23:0.677678 24:0.0270125 25:0.964239 26:2.79857 27:2.83571 28:0.132886 29:0.166623 30:0 31:0.222829 32:0.112589 33:0.453551 34:0.554049 35:0.0322441 36:0.871927 37:2.9305 38:2.83571 39:0.166623 40:0.274679 41:0 42:0.222829 0:0 
-0.002312961350459556 1:2.15284 2:1.581 3:0.269801 4:0.108902 5:0.802741 6:0.140077 7:0.806026 8:0.150333 9:0.248422 10:0.0548265 11:0.22941 12:0.237312 13:0.0741821 14:0.534903 15:2.23484 16:2.5128 17:0.0526927 18:0.681857 19:0.161697 20:0.161697 21:0.171646 22:0.345175 23:0.279968 24:0.164401 25:0.397584 26:2.43602 27:2.97644 28:0.0526927 29:0.629562 30:0 31:0.161697 32:0.518793 33:0.345175 34:0.863588 35:0.0115811 36:0.974589 37:2.92753 38:2.97644 39:0.629562 40:0.681857 41:0 42:0.161697 0:0 
-0.0004982002558054198 1:2.33544 2:1.70678 3:0.297216 4:0.110036 5:0.789887 6:0.131473 7:0.776385 8:0.149959 9:0.140271 10:0.0742083 11:0.108962 12:0.175768 13:0.074484 14:0.847007 15:1.69023 16:1.50838 17:0.927031 18:1.1825 19:1.11442 20:1.11442 21:0.218923 22:1.09802 23:0.962871 24:0.0533792 25:0.346881 26:2.93116 27:3.15898 28:0.265452 29:0.927031 30:0 31:1.11442 32:0.127682 33:1.09802 34:1.20318 35:0.0200553 36:0.711653 37:3.03265 38:3.15898 39:0.265452 40:1.1825 41:0 42:1.11442 0:0 
-0.003119074055120746 1:2.29113 2:1.7209 3:0.268861 4:0.0958126 5:0.796081 6:0.127202 7:0.826447 8:0.137046 9:0.107083 10:0.166513 11:0.932138 12:0.82559 13:0.0464726 14:0.332997 15:2.88833 16:3.1518 17:0.226693 18:0.36065 19:0.163883 20:0.163883 21:0.0908621 22:1.0958 23:1.03668 24:0.020609 25:0.396445 26:2.99451 27:3.1239 28:0.1349 29:0.226693 30:0 31:0.163883 32:0.0638737 33:1.0958 34:1.15805 35:0.00404247 36:0.8008 37:3.05382 38:3.1239 39:0.1349 40:0.36065 41:0 42:0.163883 0:0 
-0.000693585076910458 1:0.562672 2:0.34693 3:0.122517 4:0.513714 5:0.799567 6:0.48778 7:0.986052 8:0.298993 9:0.141867 10:0.0789001 11:0.193869 12:0.259942 13:0.0612407 14:0.521918 15:3.69014 16:3.85813 17:0.0789001 18:0.360255 19:0.114917 20:0.253115 21:0.114917 22:0.131932 23:0.193869 24:0.195725 25:0.462763 26:3.85813 27:2.8786 28:0.0789001 29:0.288167 30:0.114917 31:0.242034 32:0.231785 33:0.157703 34:0.204007 35:0.436431 36:0.52416 37:4.87488 38:5.84852 39:0.288167 40:0.360255 41:0.242034 42:0.253115 0:0 
0.01261576860835978 1:0.756327 2:0.490087 3:0.313737 4:0.617715 5:0.924344 6:0.413682 7:0.681825 8:0.838035 9:0.0986094 10:0.0988727 11:0.187645 12:0.284379 13:0.0281903 14:0.915892 15:2.69365 16:2.5948 17:0.373768 18:0.495199 19:0.343916 20:0.343916 21:0.0723933 22:0.323212 23:0.367278 24:0.0531259 25:0.742791 26:4.00376 27:4.165 28:0.140129 29:0.373768 30:0 31:0.343916 32:0.124562 33:0.323212 34:0.436336 35:0.0442321 36:0.889982 37:4.25683 38:4.165 39:0.140129 40:0.495199 41:0 42:0.343916 0:0 
0.003827720077425627 1:1.41073 2:1.03872 3:0.39298 4:0.342683 5:0.854257 6:0.250512 7:0.618778 8:1.51684 9:0.155196 10:0.0804507 11:0.361953 12:0.40586 13:0.0560582 14:0.672475 15:3.97797 16:4.17054 17:0.275589 18:0.437704 19:0 20:0.315982 21:0.248864 22:0.361953 23:0.576388 24:0.0882985 25:0.84691 26:4.36492 27:4.17054 28:0.191003 29:0.275589 30:0 31:0.315982 32:0.136274 33:0.508408 34:0.634281 35:0.0292787 36:0.936706 37:4.70354 38:4.74608 39:0.191003 40:0.437704 41:0.315982 42:0.315982 0:0 
-0.0007939186904714764 1:1.39852 2:1.14432 3:0.533716 4:1.85824 5:0.873503 6:0.361088 7:0.808458 8:0.91367 9:0.437604 10:0.260673 11:0.934968 12:1.1718 13:0.0331356 14:0.762718 15:3.4053 16:3.2048 17:0.560869 18:1.38541 19:0.600942 20:0.600942 21:0.252435 22:0.601567 23:0.808518 24:0.066094 25:0.719756 26:4.07588 27:4.41261 28:0.560869 29:0.870409 30:0 31:0.600942 32:0.799703 33:0.601567 34:1.18222 35:0.211417 36:0.698208 37:5.07258 38:4.41261 39:0.870409 40:1.38541 41:0 42:0.600942 0:0 
-0.001512057824364267 1:0.811087 2:0.425644 3:0.0945411 4:0.462775 5:0.881494 6:0.311529 7:0.754539 8:0.327745 9:0.0737469 10:0.0933331 11:0.284714 12:0.358095 13:0.057574 14:0.634599 15:1.35213 16:0.942 17:0.337996 18:0.352883 19:0.284074 20:0.284074 21:0.0537054 22:0.215284 23:0.261289 24:0.0372103 25:0.932015 26:2.61767 27:2.56084 28:0.100646 29:0.337996 30:0 31:0.284074 32:0.0742021 33:0.215284 34:0.1686 35:0.0967347 36:0.372389 37:2.85554 38:2.56084 39:0.100646 40:0.352883 41:0 42:0.284074 0:0 
-0.0003452098867709595 1:0.781931 2:0.476008 3:0.103699 4:0.579272 5:0.743408 6:0.507189 7:0.900432 8:0.198068 9:0.213141 10:0.203132 11:0.200769 12:0.385461 13:0.0971376 14:0.68542 15:2.3205 16:2.79282 17:0.1468 18:0.471788 19:0.236311 20:0.236311 21:0.294776 22:0.133828 23:0.270707 24:0.481103 25:0.432973 26:2.85904 27:4.09214 28:0.1468 29:0.326799 30:0 31:0.236311 32:0.141515 33:0.133828 34:0.265064 35:0.0897846 36:0.838895 37:3.8004 38:4.09214 39:0.326799 40:0.471788 41:0 42:0.236311 0:0 
-0.0008511822949528518 1:1.07451 2:0.579608 3:0.390579 4:1.17776 5:0.930331 6:0.601118 7:0.899753 8:0.955091 9:0.105483 10:0.173113 11:0.330264 12:0.434083 13:0.117116 14:0.665005 15:4.74055 16:4.3184 17:1.62542 18:1.75059 19:1.59339 20:1.59339 21:0.0791959 22:1.55479 23:1.63233 24:0.00321719 25:0.85555 26:1.59746 27:1.61971 28:0.140724 29:1.75059 30:0 31:1.59339 32:0.0641417 33:1.55479 34:1.49818 35:0.00628974 36:0.663153 37:1.6596 38:1.61971 39:0.140724 40:1.62542 41:0 42:1.59339 0:0 
-0.001368672935697206 1:1.28271 2:0.703625 3:0.538045 4:1.22762 5:0.934344 6:0.605848 7:0.830572 8:0.936569 9:0.20163 10:0.21343 11:0.394045 12:0.559572 13:0.0916482 14:0.683554 15:4.23813 16:3.8981 17:0.267876 18:0.407344 19:0.405176 20:0.405176 21:0.237708 22:0.247779 23:0.411807 24:0.173585 25:0.623607 26:4.75432 27:5.30342 28:0.140429 29:0.267876 30:0 31:0.405176 32:0.153752 33:0.247779 34:0.382725 35:0.0763455 36:0.806735 37:5.06 38:5.30342 39:0.140429 40:0.407344 41:0 42:0.405176 0:0 
-0.0003268083521036748 1:0.451267 2:0.307009 3:0.134271 4:0.479082 5:0.7869 6:0.459554 7:1.18794 8:0.272014 9:0.139512 10:0.220507 11:0.134403 12:0.149308 13:0.56603 14:0.291509 15:4.84792 16:0.321751 17:0.106259 18:0.191939 19:0.219084 20:0.219084 21:0.0938474 22:0.0909283 23:0.170922 24:0.126126 25:0.764772 26:3.60524 27:4.01765 28:0.127254 29:0.191939 30:0 31:0.219084 32:0.104181 33:0.0909283 34:0.182715 35:0.122458 36:0.922021 37:4.15955 38:4.01765 39:0.106259 40:0.127254 41:0 42:0.219084 0:0 
0.001496441584664565 1:0.900741 2:0.664583 3:0.400311 4:0.382615 5:0.807863 6:0.231995 7:0.748602 8:0.931181 9:0.273764 10:0.129765 11:0.373023 12:0.48209 13:0.0528367 14:0.951937 15:3.92699 16:3.96733 17:0.375384 18:0.476655 19:0.309237 20:0.309237 21:0.48807 22:0.0752099 23:0.562176 24:0.0508369 25:0.916299 26:4.16996 27:4.38129 28:0.375384 29:0.395068 30:0 31:0.309237 32:0.203456 33:0.0752099 34:0.258924 35:0.202837 36:0.742665 37:4.92045 38:4.38129 39:0.395068 40:0.476655 41:0 42:0.309237 0:0 
-0.003472395074773382 1:1.27653 2:0.812522 3:0.204094 4:0.400341 5:0.92135 6:0.233052 7:0.613091 8:0.630983 9:0.0715282 10:0.0978074 11:0.483663 12:0.567763 13:0.030343 14:0.855997 15:1.71836 16:1.7964 17:0.272899 18:0.374789 19:0.233119 20:0.233119 21:0.0574216 22:0.457414 23:0.493924 24:0.0296911 25:0.729923 26:2.11338 27:2.2006 28:0.107588 29:0.272899 30:0 31:0.233119 32:0.0593555 33:0.457414 34:0.470363 35:0.0397773 36:0.793246 37:2.27809 38:2.2006 39:0.107588 40:0.374789 41:0 42:0.233119 0:0 
0.00548013516523143 1:0.810414 2:0.598267 3:0.462657 4:0.4803 5:0.667677 6:0.235422 7:0.767414 8:0.929152 9:0.417487 10:0.348527 11:0.229624 12:0.566896 13:0.0777021 14:0.820821 15:5.01039 16:4.66071 17:0.0796624 18:0.619669 19:0.118754 20:0.118754 21:0.383116 22:0.162898 23:0.506289 24:0.191159 25:0.930546 26:3.93344 27:4.09214 28:0.619669 29:0.637057 30:0 31:0.118754 32:0.520818 33:0.162898 34:0.636084 35:0.219493 36:0.65047 37:4.85429 38:4.09214 39:0.0796624 40:0.637057 41:0 42:0.118754 0:0 
6.198197843827435e-05 1:0.849313 2:0.52605 3:0.215741 4:0.273103 5:0.864859 6:0.365876 7:0.73215 8:0.61257 9:0.228222 10:0.211002 11:0.359753 12:0.255195 13:0.195599 14:0.275912 15:2.63649 16:3.205 17:0.271862 18:0.30315 19:0.205254 20:0.205254 21:0.258217 22:0.180842 23:0.410843 24:0.138142 25:0.87664 26:3.38495 27:3.15746 28:0.178058 29:0.271862 30:0 31:0.205254 32:0.215447 33:0.180842 34:0.331995 35:0.202858 36:0.636091 37:3.79523 38:3.15746 39:0.178058 40:0.30315 41:0 42:0.205254 0:0 
-0.0006903370717573711 1:1.85166 2:1.27995 3:0.373613 4:0.458494 5:0.915274 6:0.17837 7:0.613429 8:0.974657 9:0.119374 10:0.183745 11:0.813425 12:0.924957 13:0.0536495 14:0.681715 15:1.80983 16:1.93797 17:0.241782 18:0.376397 19:0.142047 20:0.142047 21:0.098488 22:0.802623 23:0.872944 24:0.0262296 25:0.776607 26:1.97875 27:2.04581 28:0.136741 29:0.241782 30:0 31:0.142047 32:0.0758891 33:0.802623 34:0.846371 35:0.0239541 36:0.769259 37:2.14213 38:2.04581 39:0.136741 40:0.376397 41:0 42:0.142047 0:0 
0.002429597669605996 1:0.933458 2:0.713054 3:0.167111 4:0.325045 5:0.729434 6:0.211521 7:0.669205 8:0.82846 9:0.217848 10:0.0996511 11:0.528962 12:0.574584 13:0.0512077 14:0.486104 15:3.8331 16:3.91806 17:0.16826 18:0.347213 19:0 20:0.498561 21:0.0950849 22:0.528962 23:0.592158 24:0.0404333 25:0.985176 26:3.91161 27:3.91806 28:0.16826 29:0.2216 30:0 31:0.498561 32:0.458807 33:0.101137 34:0.479535 35:0.401017 36:0.650138 37:4.13601 38:5.06383 39:0.2216 40:0.347213 41:0.498561 42:0.498561 0:0 
0.003067922534610446 1:0.984773 2:0.676403 3:0.237104 4:0.439669 5:0.764533 6:0.239628 7:0.663485 8:0.897374 9:0.233897 10:0.148586 11:0.464244 12:0.5504 13:0.0764139 14:0.65175 15:3.90068 16:4.05254 17:0.215631 18:0.358405 19:0 20:0.462755 21:0.114076 22:0.464244 23:0.543682 24:0.0519298 25:0.991374 26:4.05802 27:4.05254 28:0.185363 29:0.215631 30:0 31:0.462755 32:0.43903 33:0.0876945 34:0.437344 35:0.474188 36:0.563436 37:4.29812 38:5.49779 39:0.185363 40:0.358405 41:0.462755 42:0.462755 0:0 
0.004236251916129176 1:0.986482 2:0.635469 3:0.428541 4:0.287539 5:0.9017 6:0.361596 7:0.666219 8:0.903421 9:0.103048 10:0.134037 11:0.364321 12:0.484732 13:0.0446377 14:0.865756 15:4.3983 16:4.50864 17:0.103119 18:0.462764 19:0.188004 20:0.364523 21:0.100292 22:0.169177 23:0.268581 24:0.0198818 25:1 26:3.14159 27:3.14159 28:0.461165 29:0.462764 30:0.364523 31:0.405138 32:0.0748147 33:0.475462 34:0.535941 35:0.0277794 36:0.884511 37:4.15786 38:4.11582 39:0.103119 40:0.461165 41:0.188004 42:0.405138 0:0 
-1.902470983135466e-06 1:0.918303 2:0.47979 3:0.388936 4:1.17213 5:0.895863 6:0.628837 7:0.763862 8:0.394843 9:0.0871277 10:0.0983042 11:0.360304 12:0.314906 13:0.0826287 14:0.299121 15:1.21609 16:1.32582 17:0.490955 18:0.624733 19:0.472032 20:0.490794 21:0.0822187 22:0.570367 23:0.528127 24:0.0409384 25:0.503717 26:2.24792 27:2.41108 28:0.150403 29:0.490955 30:0.0276293 31:0.490794 32:0.0808602 33:0.546856 34:0.608719 35:0.0287371 36:0.654885 37:2.57121 38:2.40615 39:0.150403 40:0.624733 41:0.0276293 42:0.472032 0:0 
0.006553950194037531 1:1.13352 2:0.913067 3:0.274355 4:0.616117 5:0.676821 6:0.199921 7:0.883673 8:1.02898 9:0.293653 10:0.165668 11:0.488709 12:0.596398 13:0.074396 14:0.747967 15:4.03145 16:4.1907 17:0.226054 18:0.596644 19:0.418202 20:0.418202 21:0.470911 22:0.0986501 23:0.550583 24:0.183271 25:0.762084 26:4.31215 27:4.92775 28:0.226054 29:0.433307 30:0 31:0.418202 32:0.24438 33:0.0986501 34:0.326835 35:0.156655 36:0.8996 37:5.12345 38:4.92775 39:0.433307 40:0.596644 41:0 42:0.418202 0:0 
-0.00155925079630069 1:1.06573 2:0.723277 3:0.163972 4:0.693803 5:0.879915 6:0.256926 7:0.710904 8:0.562326 9:0.124252 10:0.100159 11:0.190776 12:0.25277 13:0.114649 14:0.630026 15:2.8105 16:2.41169 17:0.491862 18:0.679915 19:0.585487 20:0.585487 21:0.14919 22:0.430777 23:0.365771 24:0.108201 25:0.427605 26:4.3961 27:4.81547 28:0.231534 29:0.491862 30:0 31:0.585487 32:0.123408 33:0.430777 34:0.544029 35:0.0322501 36:0.842854 37:4.69906 38:4.81547 39:0.231534 40:0.679915 41:0 42:0.585487 0:0 
-0.00411424264288046 1:1.0897 2:0.730484 3:0.180532 4:0.648465 5:0.885687 6:0.267919 7:0.719442 8:0.55131 9:0.174402 10:0.234699 11:0.290313 12:0.506818 13:0.0753623 14:0.873146 15:1.78098 16:1.96932 17:0.368633 18:0.801721 19:0.114752 20:0.675333 21:0.142729 22:0.203957 23:0.318863 24:0.10617 25:0.699207 26:2.6659 27:2.32917 28:0.368633 29:0.515767 30:0.114752 31:0.567987 32:0.145778 33:0.404559 34:0.313743 35:0.102324 36:0.345044 37:4.26628 38:4.62489 39:0.515767 40:0.801721 41:0.567987 42:0.675333 0:0 
-0.0007841158022822835 1:2.11152 2:1.48468 3:0.224059 4:0.747001 5:0.745331 6:0.0944824 7:0.904256 8:1.12608 9:0.316097 10:0.0876485 11:1.0959 12:1.18132 13:0.0054838 14:0.923127 15:1.97643 16:1.95809 17:0.136996 18:2.03874 19:0 20:1.15595 21:0.0560923 22:1.0959 23:1.05437 24:0.0111661 25:0.373279 26:1.99845 27:1.95809 28:0.136996 29:1.91479 30:0 31:1.15595 32:0.804552 33:0.0627016 34:0.863107 35:0.112194 36:0.869911 37:5.09165 38:4.71239 39:1.91479 40:2.03874 41:1.15595 42:1.15595 0:0 
-0.0007883375980225218 1:3.02609 2:2.13751 3:0.50394 4:1.029 5:0.841458 6:0.0932249 7:0.690572 8:1.69176 9:0.0815229 10:0.0680634 11:1.68316 12:1.74472 13:0.00539542 14:0.780586 15:1.91502 16:1.88555 17:0.106406 18:3.27397 19:0 20:3.09535 21:0.0555313 22:1.68316 23:1.65553 24:0.0091862 25:0.438776 26:1.92305 27:1.88555 28:0.106406 29:3.18355 30:0 31:3.09535 32:0.120974 33:1.41466 34:1.53107 35:0.00712049 36:0.847053 37:4.96528 38:4.91762 39:3.18355 40:3.27397 41:3.09535 42:3.09535 0:0 
-0.0008426295375323569 1:2.95589 2:2.08836 3:0.532648 4:1.08229 5:0.875179 6:0.10284 7:0.622628 8:1.64019 9:0.0921697 10:0.0839234 11:1.74427 12:1.81555 13:0.0079248 14:0.885267 15:1.91477 16:1.90509 17:0.16954 18:0.355129 19:0.184515 20:0.184515 21:0.101704 22:1.58705 23:1.67801 24:0.00887335 25:0.857109 26:1.92783 27:1.90729 28:0.16954 29:0.18583 30:0 31:0.184515 32:0.0908818 33:1.58705 34:1.52594 35:0.0137621 36:0.328251 37:1.93372 38:1.90729 39:0.18583 40:0.355129 41:0 42:0.184515 0:0 
-0.0007370147112798745 1:0.773755 2:0.474938 3:0.149527 4:0.37905 5:0.882938 6:0.4008 7:0.708894 8:0.407033 9:0.127545 10:0.14301 11:0.243234 12:0.337547 13:0.120136 14:0.8273 15:1.26412 16:1.45231 17:0.253225 18:0.358914 19:0.126106 20:0.126106 21:0.0705622 22:0.192175 23:0.243619 24:0.0711982 25:0.953247 26:1.97569 27:2.00913 28:0.233276 29:0.253225 30:0 31:0.126106 32:0.169064 33:0.192175 34:0.192957 35:0.289315 36:0.45236 37:2.67795 38:2.00913 39:0.233276 40:0.358914 41:0 42:0.126106 0:0 
-0.0008071445228797212 1:1.3474 2:1.0035 3:0.329833 4:0.98713 5:0.787033 6:0.260264 7:0.655542 8:0.937258 9:0.239938 10:0.110703 11:0.662335 12:0.623586 13:0.0514179 14:0.728218 15:2.1931 16:2.31397 17:0.371453 18:0.537129 19:0 20:0.46195 21:0.276741 22:0.662335 23:0.910139 24:0.0505629 25:0.915867 26:2.36197 27:2.31397 28:0.371453 29:0.612056 30:0 31:0.46195 32:0.332368 33:0.229862 34:0.524728 35:0.141739 36:0.664081 37:3.41617 38:2.69407 39:0.537129 40:0.612056 41:0.46195 42:0.46195 0:0 
-0.0006635259878646454 1:0.681352 2:0.473093 3:0.101455 4:1.17014 5:0.839573 6:0.196271 7:0.752804 8:0.444989 9:0.125351 10:0.0738837 11:0.342185 12:0.306697 13:0.0637802 14:0.432627 15:4.20116 16:4.41695 17:0.149935 18:0.227937 19:0.136679 20:0.136679 21:0.171212 22:0.28756 23:0.418018 24:0.102238 25:0.701626 26:4.47554 27:4.90978 28:0.118162 29:0.149935 30:0 31:0.136679 32:0.130958 33:0.28756 34:0.417162 35:0.0172791 36:0.996165 37:4.90601 38:4.90978 39:0.118162 40:0.227937 41:0 42:0.136679 0:0 
-0.0007200185737304661 1:0.512415 2:0.31534 3:0.109951 4:0.424972 5:0.833193 6:0.370475 7:0.814302 8:0.196633 9:0.138236 10:0.0915562 11:0.139126 12:0.209224 13:0.110436 14:0.873964 15:3.07502 16:3.2713 17:0.184799 18:0.190204 19:0.0615689 20:0.0615689 21:0.229469 22:0.0885104 23:0.295651 24:0.197434 25:0.72936 26:3.44448 27:2.9442 28:0.190204 29:0.241944 30:0 31:0.0615689 32:0.0936839 33:0.0885104 34:0.0875185 35:0.357259 36:0.408309 37:4.11234 38:2.9442 39:0.184799 40:0.241944 41:0 42:0.0615689 0:0 
-0.001332029382293077 1:0.872132 2:0.573407 3:0.151102 4:0.887851 5:0.700513 6:0.412935 7:1.26446 8:0.310655 9:0.197337 10:0.239761 11:0.418917 12:0.468017 13:0.170746 14:0.4722 15:2.25181 16:3.10457 17:0.214903 18:0.338625 19:0 20:0.160587 21:0.281666 22:0.418917 23:0.638817 24:0.108831 25:0.566594 26:2.48279 27:3.10457 28:0.214903 29:0.381111 30:0 31:0.160587 32:0.0705837 33:0.3503 34:0.402741 35:0.0400641 36:0.629284 37:3.46334 38:3.66273 39:0.338625 40:0.381111 41:0.160587 42:0.160587 0:0 
-0.002807118297654465 1:1.27239 2:0.729124 3:0.358693 4:0.931708 5:0.723745 6:0.404979 7:0.945458 8:0.526052 9:0.379043 10:0.376962 11:0.169037 12:0.475102 13:0.253844 14:0.774556 15:2.40678 16:2.9105 17:0.520475 18:0.784484 19:0.444098 20:0.444098 21:0.589787 22:0.517059 23:0.585087 24:0.357548 25:0.315231 26:2.79015 27:3.89843 28:0.520475 29:0.613176 30:0 31:0.444098 32:0.170379 33:0.517059 34:0.673428 35:0.0365171 36:0.834483 37:3.78032 38:3.89843 39:0.613176 40:0.784484 41:0 42:0.444098 0:0 
-0.003066803207483905 1:1.10131 2:0.548952 3:0.297065 4:0.578946 5:0.941688 6:0.566366 7:0.725372 8:0.973182 9:0.109016 10:0.0691982 11:0.468727 12:0.4738 13:0.0466558 14:0.628428 15:1.87127 16:1.98975 17:0.74553 18:0.91078 19:0.722243 20:0.722243 21:0.0793729 22:0.343145 23:0.391691 24:0.0545885 25:0.735674 26:4.04809 27:4.22455 28:0.20773 29:0.74553 30:0 31:0.722243 32:0.178478 33:0.343145 34:0.489273 35:0.0798154 36:0.80387 37:4.44402 38:4.22455 39:0.20773 40:0.91078 41:0 42:0.722243 0:0 
-0.001065173755701054 1:1.26215 2:0.863733 3:0.512966 4:1.76205 5:0.9456 6:0.42841 7:0.717124 8:0.389062 9:0.34312 10:0.0514114 11:0.322609 12:0.345156 13:0.044109 14:0.711604 15:1.86624 16:2.01317 17:0.0806585 18:0.926983 19:0.392561 20:0.392561 21:0.366791 22:0.472125 23:0.338494 24:0.281021 25:0.407415 26:2.12338 27:2.83871 28:0.0806585 29:0.893 30:0 31:0.392561 32:0.611159 33:0.472125 34:0.989036 35:0.153366 36:0.556828 37:2.51671 38:2.83871 39:0.893 40:0.926983 41:0 42:0.392561 0:0 
-0.0002120306728232449 1:0.581632 2:0.339994 3:0.0845926 4:1.45132 5:0.902461 6:0.421624 7:0.796939 8:0.438423 9:0.182789 10:0.245163 11:0.0704555 12:0.299005 13:0.197715 14:0.595836 15:2.93527 16:2.53784 17:0.339948 18:0.353685 19:0.418686 20:0.418686 21:0.187615 22:0.435254 23:0.59807 24:0.0582404 25:0.351318 26:4.72963 27:5.01434 28:0.0896571 29:0.353685 30:0 31:0.418686 32:0.115588 33:0.435254 34:0.547898 35:0.0168986 36:0.782767 37:4.92059 38:5.01434 39:0.0896571 40:0.339948 41:0 42:0.418686 0:0 
-0.001277498175398732 1:1.65567 2:1.20377 3:0.184712 4:0.236589 5:0.682912 6:0.212071 7:0.99127 8:0.410982 9:0.357065 10:0.502922 11:0.440029 12:0.942318 13:0.0124643 14:0.989603 15:3.86325 16:3.88087 17:0.496849 18:0.820523 19:0.298004 20:0.298004 21:0.382302 22:0.156971 23:0.538953 24:0.0171362 25:0.962121 26:4.33188 27:4.24874 28:0.337815 29:0.496849 30:0 31:0.298004 32:0.18597 33:0.156971 34:0.289717 35:0.197562 36:0.652264 37:4.91989 38:4.24874 39:0.337815 40:0.820523 41:0 42:0.298004 0:0 
-0.002856095445115998 1:1.66539 2:1.16254 3:0.161579 4:0.179747 5:0.741424 6:0.210935 7:0.963117 8:0.359283 9:0.235875 10:0.177948 11:0.581662 12:0.717504 13:0.0567112 14:0.679553 15:3.99356 16:3.70568 17:0.221437 18:0.534298 19:0.400891 20:0.400891 21:0.386194 22:0.187396 23:0.567295 24:0.0679257 25:0.893817 26:4.22716 27:3.9983 28:0.221437 29:0.344124 30:0 31:0.400891 32:0.143484 33:0.187396 34:0.254056 35:0.188083 36:0.60565 37:4.65363 38:3.9983 39:0.344124 40:0.534298 41:0 42:0.400891 0:0 
-0.001852662976892072 1:1.66514 2:1.15456 3:0.215144 4:0.228777 5:0.787941 6:0.26026 7:0.947633 8:0.375081 9:0.16724 10:0.364941 11:0.298177 12:0.644175 13:0.0845326 14:0.809499 15:4.03991 16:3.69325 17:0.0852042 18:0.194815 19:0.44202 20:0.44202 21:0.0509373 22:0.738233 23:0.789043 24:0.00149633 25:0.949837 26:3.80365 27:3.81833 28:0.114691 29:0.194815 30:0 31:0.44202 32:0.0858425 33:0.738233 34:0.717505 35:0.0364531 36:0.486601 37:3.95401 38:3.81833 39:0.0852042 40:0.114691 41:0 42:0.44202 0:0 
-0.001814973716846968 1:1.81865 2:1.21739 3:0.321005 4:0.296434 5:0.834498 6:0.324765 7:0.815593 8:0.397186 9:0.231124 10:0.0953439 11:0.662093 12:0.752191 13:0.0140696 14:0.995779 15:3.84889 16:3.84716 17:0.179995 18:0.478548 19:0 20:0.797478 21:0.102396 22:0.662093 23:0.633265 24:0.0483466 25:0.489735 26:4.055 27:3.84716 28:0.179995 29:0.302282 30:0 31:0.797478 32:0.495633 33:0.199744 34:0.445904 35:0.512377 36:0.415153 37:4.50392 38:5.94651 39:0.302282 40:0.478548 41:0.797478 42:0.797478 0:0 
-0.0008922642172020322 1:1.91525 2:1.31137 3:0.476422 4:0.525559 5:0.803639 6:0.327192 7:0.985956 8:0.475496 9:0.218707 10:0.146306 11:0.550901 12:0.691734 13:0.0204435 14:0.906342 15:4.11732 16:4.03765 17:0.292604 18:0.641021 19:0.523004 20:0.570979 21:0.155747 22:1.00514 23:1.15491 24:0.012631 25:0.820335 26:3.62805 27:3.53329 28:0.641021 29:0.928766 30:0.570979 31:1.08314 32:0.354068 33:0.33821 34:0.538903 35:0.221955 36:0.626165 37:4.52983 38:5.15223 39:0.292604 40:0.928766 41:0.523004 42:1.08314 0:0 
-0.001466097114844927 1:1.79009 2:1.16969 3:0.37184 4:0.502389 5:0.839592 6:0.359776 7:0.87877 8:0.444116 9:0.172798 10:0.135803 11:0.329569 12:0.460678 13:0.0289237 14:0.86236 15:4.74941 16:4.60173 17:0.552581 18:0.818916 19:0.710161 20:0.710161 21:0.0884487 22:0.826627 23:0.915051 24:0.00076791 25:0.945584 26:3.58302 27:3.55864 28:0.331581 29:0.818916 30:0 31:0.710161 32:0.294143 33:0.826627 34:0.79707 35:0.115394 36:0.462197 37:3.98205 38:3.55864 39:0.331581 40:0.552581 41:0 42:0.710161 0:0 
-0.002172637537292642 1:1.69867 2:1.12977 3:0.277552 4:0.245976 5:0.748526 6:0.300151 7:1.06538 8:0.497496 9:0.122031 10:0.163715 11:0.832389 12:0.921985 13:0.0498379 14:0.719776 15:2.18986 16:2.35619 17:0.184982 18:0.278361 19:0.023333 20:0.023333 21:0.0651725 22:0.85438 23:0.898242 24:0.0175173 25:0.83686 26:2.45586 27:2.4104 28:0.148405 29:0.184982 30:0 31:0.023333 32:0.137205 33:0.85438 34:0.76182 35:0.0399865 36:0.283993 37:2.5948 38:2.4104 39:0.148405 40:0.278361 41:0 42:0.023333 0:0 
-0.0003857230860301964 1:1.30825 2:0.971538 3:0.0904003 4:0.124006 5:0.702032 6:0.279727 7:0.952848 8:0.299103 9:0.179898 10:0.178321 11:0.126395 12:0.182485 13:0.376309 14:0.474589 15:1.33395 16:2.5128 17:0.373315 18:0.605492 19:0.284073 20:0.330109 21:0.0843 22:0.395967 23:0.451868 24:0.047527 25:0.58281 26:2.3417 27:2.1527 28:0.373315 29:0.900876 30:0.284073 31:0.593573 32:0.277071 33:0.204057 34:0.45492 35:0.123667 36:0.604877 37:5.03414 38:5.79871 39:0.605492 40:0.900876 41:0.330109 42:0.593573 0:0 
0.006814155625230574 1:0.801601 2:0.508012 3:0.171554 4:0.186129 5:0.653997 6:0.273268 7:0.926191 8:0.519058 9:0.361416 10:0.389362 11:0.066867 12:0.408118 13:0.384151 14:0.578654 15:3.39997 16:2.23909 17:0.228932 18:0.445704 19:0.134385 20:0.134385 21:0.409356 22:0.0830105 23:0.353544 24:0.708031 25:0.282904 26:4.01869 27:6.11804 28:0.228932 29:0.253052 30:0 31:0.134385 32:0.285532 33:0.0830105 34:0.281205 35:0.469692 36:0.461864 37:4.66388 38:6.11804 39:0.253052 40:0.445704 41:0 42:0.134385 0:0 
-0.001183937391642766 1:1.06215 2:0.733171 3:0.257229 4:0.900166 5:0.731732 6:0.187047 7:0.851915 8:0.306732 9:0.142146 10:0.221451 11:0.177378 12:0.395623 13:0.0451512 14:0.883401 15:4.28756 16:4.52704 17:0.10651 18:0.150839 19:0 20:0.189937 21:0.0751499 22:0.177378 23:0.252501 24:0.00298928 25:0.753835 26:4.83182 27:4.52704 28:0.150839 29:0.244389 30:0 31:0.189937 32:0.129837 33:0.364211 34:0.492846 35:0.0132448 36:0.947083 37:3.88535 38:3.94286 39:0.10651 40:0.244389 41:0.189937 42:0.189937 0:0 
-0.002488222297841528 1:1.13661 2:0.77236 3:0.169595 4:0.958248 5:0.77297 6:0.251448 7:1.00962 8:0.362476 9:0.179265 10:0.0795575 11:0.574134 12:0.64406 13:0.0198653 14:0.780464 15:3.94423 16:3.8253 17:0.212024 18:0.585402 19:0.44851 20:0.611052 21:0.300477 22:0.151571 23:0.435566 24:0.122342 25:0.850712 26:4.18162 27:4.49372 28:0.212024 29:0.377766 30:0.165447 31:0.44851 32:0.157761 33:0.0740328 34:0.195826 35:0.273421 36:0.702245 37:5.02443 38:5.72459 39:0.377766 40:0.585402 41:0.165447 42:0.611052 0:0 
-0.00104697630806482 1:1.20833 2:0.804706 3:0.262361 4:0.932386 5:0.819468 6:0.301819 7:0.930745 8:0.393778 9:0.0774184 10:0.0912834 11:0.550484 12:0.62069 13:0.0317833 14:0.772562 15:3.96146 16:3.8232 17:0.119631 18:0.55575 19:0.0639488 20:0.533561 21:0.0880997 22:0.606412 23:0.571452 24:0.0437607 25:0.378276 26:3.67062 27:3.88277 28:0.119631 29:0.561721 30:0.0639488 31:0.573136 32:0.052872 33:0.234994 34:0.283489 35:0.0259839 36:0.914163 37:5.01943 38:5.08172 39:0.55575 40:0.561721 41:0.533561 42:0.573136 0:0 
-0.0008158213822363622 1:2.1743 2:1.3707 3:0.548641 4:1.06772 5:0.730958 6:0.301544 7:1.05954 8:0.483651 9:0.497965 10:0.682884 11:0.271891 12:0.887331 13:0.194791 14:0.751864 15:3.83204 16:4.39949 17:0.704063 18:0.814027 19:0 20:0.293819 21:0.219588 22:0.271891 23:0.464858 24:0.0941744 25:0.837567 26:4.65448 27:4.39949 28:0.704063 29:0.926395 30:0 31:0.293819 32:0.591422 33:0.474013 34:0.634037 35:0.347603 36:0.39268 37:2.57101 38:3.73935 39:0.814027 40:0.926395 41:0.293819 42:0.293819 0:0 
-0.0004891544020606438 1:1.52703 2:0.983584 3:0.269404 4:0.537889 5:0.799923 6:0.298191 7:1.03654 8:0.559305 9:0.205782 10:0.0977825 11:0.503608 12:0.591577 13:0.0249058 14:0.997556 15:2.01637 16:2.01832 17:0.929133 18:1.32708 19:0.881386 20:0.881386 21:0.148302 22:0.455038 23:0.444743 24:0.105159 25:0.577821 26:4.21726 27:4.56758 28:0.457162 29:0.929133 30:0 31:0.881386 32:0.371263 33:0.455038 34:0.820811 35:0.0331457 36:0.996247 37:4.56236 38:4.56758 39:0.457162 40:1.32708 41:0 42:0.881386 0:0 
-0.001038148948332175 1:0.776745 2:0.502497 3:0.232685 4:1.04779 5:0.766535 6:0.446327 7:0.93258 8:0.57978 9:0.193837 10:0.392376 11:0.19897 12:0.414751 13:0.386423 14:0.525339 15:1.46014 16:0.516231 17:0.69976 18:0.802553 19:0.526594 20:0.620342 21:0.0711514 22:0.362235 23:0.351714 24:0.0628565 25:0.525574 26:4.04789 27:4.27328 28:0.213804 29:0.69976 30:0.165749 31:0.526594 32:0.117983 33:0.486889 34:0.493998 35:0.0766213 36:0.501829 37:4.33548 38:4.59177 39:0.213804 40:0.802553 41:0.165749 42:0.620342 0:0 
-0.0009642116877581002 1:0.462442 2:0.372448 3:0.135558 4:0.44729 5:0.851483 6:0.611335 7:0.796362 8:0.288708 9:0.20081 10:0.280142 11:0.0785362 12:0.330806 13:0.246695 14:0.89611 15:2.06862 16:2.25972 17:0.333077 18:0.361256 19:0.156059 20:0.156059 21:0.179583 22:0.088778 23:0.163923 24:0.472601 25:0.400696 26:3.86646 27:5.37836 28:0.120044 29:0.333077 30:0 31:0.156059 32:0.142706 33:0.088778 34:0.189084 35:0.256246 36:0.579814 37:4.44614 38:5.37836 39:0.120044 40:0.361256 41:0 42:0.156059 0:0 
-0.001369251599153894 1:0.862581 2:0.476428 3:0.257374 4:0.221186 5:0.846192 6:0.444363 7:0.707215 8:0.207307 9:0.198633 10:0.0929137 11:0.224041 12:0.313863 13:0.0285396 14:0.848438 15:2.66658 16:2.5128 17:0.33032 18:0.635575 19:0.345674 20:0.345674 21:0.269821 22:0.121889 23:0.225789 24:0.540392 25:0.38981 26:4.06889 27:5.55037 28:0.33032 29:0.36738 30:0 31:0.345674 32:0.233163 33:0.121889 34:0.343198 35:0.114848 36:0.756798 37:5.03414 38:5.55037 39:0.36738 40:0.635575 41:0 42:0.345674 0:0 
-0.0007014570771419172 1:1.45068 2:0.834016 3:0.514267 4:1.02562 5:0.887138 6:0.416624 7:0.784887 8:0.495441 9:0.198384 10:0.349288 11:0.605909 12:0.541867 13:0.193723 14:0.566374 15:1.5827 16:1.15257 17:1.11721 18:1.12359 19:1.11098 20:1.20561 21:0.128416 22:0.601654 23:0.644913 24:0.0618833 25:0.586576 26:4.19324 27:4.37383 28:0.325564 29:1.11721 30:0.30986 31:1.20561 32:0.117449 33:0.565478 34:0.585509 35:0.0641279 36:0.704986 37:4.60324 38:4.74315 39:0.325564 40:1.12359 41:0.30986 42:1.11098 0:0 
-0.0006465336063218606 1:1.27447 2:0.780991 3:0.210211 4:0.982124 5:0.893413 6:0.260712 7:0.730099 8:0.651105 9:0.313536 10:0.725331 11:0.15624 12:0.66657 13:0.588835 14:0.265923 15:1.89913 16:4.0125 17:0.775822 18:0.935905 19:0.127976 20:0.127976 21:0.108538 22:0.239139 23:0.235914 24:0.146686 25:0.469776 26:3.95924 27:4.48559 28:0.174705 29:0.775822 30:0 31:0.127976 32:0.106739 33:0.239139 34:0.345647 35:0.00775376 36:0.939067 37:4.42254 38:4.48559 39:0.174705 40:0.935905 41:0 42:0.127976 0:0 
-0.0008394138940863033 1:1.73609 2:1.15924 3:0.397996 4:1.98348 5:0.529297 6:0.24647 7:1.00317 8:0.769609 9:0.470374 10:0.16239 11:0.851782 12:0.993903 13:0.0271873 14:0.940003 15:4.28528 16:4.31287 17:0.402184 18:0.830628 19:0.756477 20:0.798939 21:0.942409 22:0.146376 23:0.938328 24:0.484059 25:0.797195 26:4.659 27:4.08359 28:0.402184 29:0.912734 30:0.147912 31:0.798939 32:0.306321 33:0.281777 34:0.38814 35:0.286017 36:0.808708 37:3.19283 38:3.50332 39:0.830628 40:0.912734 41:0.147912 42:0.756477 0:0 
-0.001126737512938714 1:0.967044 2:0.516069 3:0.158758 4:0.221138 5:0.777117 6:0.538607 7:1.0441 8:0.271893 9:0.227007 10:0.10441 11:0.313795 12:0.416475 13:0.0166683 14:0.862681 15:3.89843 16:3.76184 17:0.0678525 18:0.433263 19:0.351436 20:0.351436 21:0.388999 22:0.174189 23:0.395221 24:0.417659 25:0.439592 26:4.10684 27:5.46077 28:0.0678525 29:0.370094 30:0 31:0.351436 32:0.18761 33:0.174189 34:0.348899 35:0.0885604 36:0.810374 37:5.11426 38:5.46077 39:0.370094 40:0.433263 41:0 42:0.351436 0:0 
-0.001907664154314086 1:0.842961 2:0.580354 3:0.174394 4:1.29225 5:0.817542 6:0.31446 7:0.820205 8:0.385969 9:0.53693 10:0.49686 11:0.588644 12:0.533064 13:0.290547 14:0.70686 15:2.87763 16:3.48462 17:0.148256 18:0.710014 19:0 20:0.469182 21:0.374771 22:0.588644 23:0.572423 24:0.209053 25:0.767666 26:3.04699 27:3.48462 28:0.148256 29:0.566685 30:0 31:0.469182 32:0.739159 33:0.152447 34:0.854295 35:0.208212 36:0.598098 37:3.78023 38:2.9442 39:0.566685 40:0.710014 41:0.469182 42:0.469182 0:0 
-0.0006029885315775854 1:0.879243 2:0.625237 3:0.086434 4:1.18222 5:0.547332 6:0.181312 7:1.04615 8:0.62629 9:0.217048 10:0.318522 11:0.220392 12:0.523187 13:0.0929947 14:0.911035 15:1.36037 16:1.18564 17:0.0504045 18:1.10246 19:0.175661 20:0.623133 21:0.217908 22:0.406689 23:0.614693 24:0.041379 25:0.884401 26:4.48891 27:4.62489 28:1.07222 29:1.10246 30:0.623133 31:0.785592 32:0.114715 33:0.386908 34:0.486096 35:0.0423305 36:0.97239 37:1.54975 38:1.5708 39:0.0504045 40:1.07222 41:0.175661 42:0.785592 0:0 
-0.0001979499241357752 1:1.25157 2:0.729523 3:0.162174 4:0.525819 5:0.682891 6:0.363677 7:1.02981 8:0.398241 9:0.207158 10:0.217765 11:0.394781 12:0.604395 13:0.0384835 14:0.892712 15:1.20362 16:1.04839 17:0.37635 18:1.05712 19:0 20:0.827592 21:0.34473 22:0.394781 23:0.476889 24:0.25216 25:0.554856 26:1.66486 27:1.04839 28:0.37635 29:0.85831 30:0 31:0.827592 32:0.0589771 33:0.438795 34:0.461734 35:0.0384459 36:0.516063 37:3.78509 38:3.9533 39:0.85831 40:1.05712 41:0.827592 42:0.827592 0:0 
-0.0009625934703087657 1:1.54091 2:1.22165 3:0.145163 4:0.825857 5:0.606759 6:0.157469 7:0.898382 8:0.769577 9:0.239684 10:0.148281 11:0.838246 12:0.768599 13:0.0519706 14:0.412862 15:1.36097 16:1.13839 17:1.23637 18:1.39156 19:1.05641 20:1.27043 21:0.203341 22:0.616311 23:0.810834 24:0.0266788 25:0.935825 26:4.26263 27:4.3062 28:0.253543 29:1.39156 30:0.312828 31:1.27043 32:0.36743 33:0.308697 34:0.653548 35:0.0901726 36:0.856061 37:4.61891 38:4.42929 39:0.253543 40:1.23637 41:0.312828 42:1.05641 0:0 
-0.001061968097943551 1:1.97971 2:1.42406 3:0.502454 4:1.47539 5:0.58549 6:0.281781 7:1.14388 8:0.738071 9:0.570884 10:0.167809 11:0.796807 12:0.953323 13:0.022107 14:0.962991 15:4.18702 16:4.20317 17:0.0600558 18:0.454737 19:0.722063 20:0.722063 21:0.722439 22:0.120773 23:0.816218 24:0.201699 25:0.838797 26:3.6574 27:3.27866 28:0.415005 29:0.454737 30:0 31:0.722063 32:0.822404 33:0.120773 34:0.905179 35:0.243796 36:0.702957 37:4.05709 38:3.27866 39:0.0600558 40:0.415005 41:0 42:0.722063 0:0 
-0.0005657090640342676 1:2.0304 2:1.40129 3:0.412579 4:1.68394 5:0.433344 6:0.149825 7:0.922078 8:0.734962 9:0.131804 10:0.0791577 11:0.472779 12:0.519806 13:0.040913 14:0.689067 15:1.34677 16:1.15257 17:1.29346 18:1.41294 19:1.23061 20:1.23061 21:0.182111 22:0.829437 23:0.986977 24:0.0321526 25:0.995682 26:4.11285 27:4.11082 28:0.209635 29:1.41294 30:0 31:1.23061 32:0.134144 33:0.829437 34:0.847679 35:0.0505029 36:0.577218 37:4.26654 38:4.11082 39:0.209635 40:1.29346 41:0 42:1.23061 0:0 
-0.0006235914529444379 1:2.25784 2:1.82144 3:0.132264 4:1.51323 5:0.539903 6:0.138079 7:0.88967 8:0.478964 9:0.187732 10:0.0637811 11:0.381293 12:0.437426 13:0.0236092 14:0.935395 15:1.1925 16:1.21516 17:0.0809924 18:0.460069 19:0.239404 20:0.239404 21:0.228747 22:0.14401 23:0.370573 24:0.0434895 25:0.965073 26:1.28322 27:1.21609 28:0.0809924 29:0.38422 30:0 31:0.239404 32:0.270668 33:0.14401 34:0.304199 35:0.349027 36:0.424371 37:1.80765 38:1.21609 39:0.38422 40:0.460069 41:0 42:0.239404 0:0 
-0.000811417713290486 1:0.774294 2:0.433302 3:0.102826 4:0.543473 5:0.952247 6:0.405402 7:0.624472 8:0.373738 9:0.0695951 10:0.0500916 11:0.326333 12:0.375477 13:0.00882315 14:0.844736 15:4.74571 16:4.65124 17:0.627245 18:0.7186 19:0.620694 20:0.620694 21:0.0505187 22:0.2979 23:0.345691 24:0.0162454 25:0.98528 26:1.62432 27:1.61521 28:0.144582 29:0.7186 30:0 31:0.620694 32:0.108175 33:0.2979 34:0.274515 35:0.11824 36:0.432229 37:2.05424 38:1.61521 39:0.144582 40:0.627245 41:0 42:0.620694 0:0 
-0.001311019476008408 1:2.16538 2:1.49051 3:0.429334 4:1.16143 5:0.883679 6:0.154726 7:0.701261 8:1.21988 9:0.221879 10:0.0772006 11:1.34368 12:1.40876 13:0.00961095 14:0.638109 15:4.37957 16:4.30829 17:0.267257 18:0.728123 19:0.412509 20:0.922879 21:0.302312 22:0.946513 23:1.2309 24:0.0302559 25:0.865682 26:4.48828 27:4.42012 28:0.267257 29:0.550024 30:0.412509 31:0.511662 32:0.286125 33:0.461985 34:0.723741 35:0.0637135 36:0.97239 37:4.67395 38:4.71239 39:0.550024 40:0.728123 41:0.511662 42:0.922879 0:0 
-0.002911217457007479 1:1.26458 2:0.630587 3:0.505094 4:0.475168 5:0.917886 6:0.619466 7:0.736285 8:0.757941 9:0.12473 10:0.239243 11:0.516026 12:0.45194 13:0.153411 14:0.364607 15:3.49666 16:3.97457 17:0.256268 18:0.653367 19:0 20:0.552011 21:0.0696313 22:0.516026 23:0.580764 24:0.0149112 25:0.935006 26:3.95108 27:3.97457 28:0.256268 29:0.549216 30:0 31:0.552011 32:0.065315 33:0.519678 34:0.514706 35:0.040109 36:0.529795 37:4.91946 38:5.05541 39:0.549216 40:0.653367 41:0.552011 42:0.552011 0:0 
-0.0003363753347333871 1:0.74966 2:0.65705 3:0.46749 4:0.985226 5:0.743108 6:0.261319 7:0.922314 8:0.20542 9:0.140086 10:0.185527 11:0.193314 12:0.323151 13:0.170818 14:0.593824 15:2.1588 16:2.80686 17:0.281401 18:0.55314 19:0.159768 20:0.282166 21:0.117252 22:0.344865 23:0.45798 24:0.0247308 25:0.884574 26:2.85647 27:2.97249 28:0.281401 29:0.636806 30:0.159768 31:0.404587 32:0.11748 33:0.133478 34:0.232472 35:0.114936 36:0.7222 37:5.06383 38:4.58803 39:0.55314 40:0.636806 41:0.282166 42:0.404587 0:0 
-0.006201263666542258 1:1.97593 2:1.45963 3:0.369081 4:0.487927 5:0.830997 6:0.15782 7:0.660149 8:0.117146 9:0.0755806 10:0.0849337 11:0.764084 12:0.844532 13:0.010793 14:0.880548 15:3.27562 16:3.22997 17:0.0930831 18:0.183576 19:0.0847259 20:0.0847259 21:0.0858892 22:0.681767 23:0.759261 24:0.0163869 25:0.830286 26:3.34142 27:3.26946 28:0.0916174 29:0.0930831 30:0 31:0.0847259 32:0.0559187 33:0.681767 34:0.670085 35:0.0257605 36:0.540702 37:3.37984 38:3.26946 39:0.0916174 40:0.183576 41:0 42:0.0847259 0:0 
-0.009199311453277979 1:1.81356 2:1.30858 3:0.386043 4:0.536583 5:0.764553 6:0.155987 7:0.812763 8:0.139308 9:0.163311 10:0.127396 11:0.83014 12:0.957342 13:0.00250402 14:0.912961 15:2.97644 16:2.93472 17:0.376247 18:0.606567 19:0.239904 20:0.239904 21:0.113451 22:0.621564 23:0.68272 24:0.0467343 25:0.790196 26:3.30469 27:3.15722 28:0.252254 29:0.376247 30:0 31:0.239904 32:0.249087 33:0.621564 34:0.458936 35:0.113037 36:0.321507 37:3.5322 38:3.15722 39:0.252254 40:0.606567 41:0 42:0.239904 0:0 
-0.0001111531631445519 1:1.36144 2:0.773963 3:0.343354 4:0.651793 5:0.938586 6:0.468352 7:0.75721 8:0.926489 9:0.0868143 10:0.0724801 11:0.614358 12:0.585797 13:0.0353643 14:0.438111 15:1.62501 16:1.48702 17:1.23455 18:1.26148 19:1.22301 20:1.22301 21:0.0966772 22:0.616497 23:0.648949 24:0.0458692 25:0.649323 26:4.63285 27:4.7837 28:0.163094 29:1.23455 30:0 31:1.22301 32:0.0912857 33:0.616497 34:0.682708 35:0.0308455 36:0.809975 37:4.87642 38:4.7837 39:0.163094 40:1.26148 41:0 42:1.22301 0:0 
-0.0003562307248560573 1:1.41224 2:0.775753 3:0.36529 4:0.626207 5:0.921954 6:0.512916 7:0.802112 8:0.904536 9:0.0932637 10:0.0605535 11:0.639325 12:0.629852 13:0.0300113 14:0.446783 15:1.59253 16:1.45619 17:1.12559 18:1.29599 19:1.02737 20:1.26776 21:0.142699 22:0.486429 23:0.577326 24:0.0661938 25:0.757561 26:3.87941 27:3.72395 28:0.487892 29:1.12559 30:0.606169 31:1.02737 32:0.0765386 33:0.639002 34:0.666669 35:0.0348206 36:0.672552 37:4.69141 38:4.80305 39:0.487892 40:1.29599 41:0.606169 42:1.26776 0:0 
-0.0004241405383224377 1:1.41995 2:0.773184 3:0.375976 4:0.61569 5:0.931393 6:0.549885 7:0.776606 8:0.892105 9:0.113911 10:0.0598189 11:0.594155 12:0.635553 13:0.0223713 14:0.825108 15:1.5708 16:1.62629 17:0.711744 18:1.24573 19:0.852429 20:1.15314 21:0.221468 22:0.433457 23:0.386738 24:0.170329 25:0.395718 26:3.00824 27:3.53728 28:0.696381 29:0.711744 30:0.443667 31:0.852429 32:0.0604456 33:0.575132 34:0.615664 35:0.0239928 36:0.819604 37:4.45817 38:4.39064 39:0.696381 40:1.24573 41:0.443667 42:1.15314 0:0 
-0.000699232760894495 1:0.50479 2:0.308608 3:0.0878844 4:0.921488 5:0.701548 6:0.384064 7:1.00132 8:0.319992 9:0.21125 10:0.141666 11:0.221916 12:0.176458 13:0.22019 14:0.291286 15:1.74839 16:0.915101 17:0.398101 18:0.603254 19:0.397167 20:0.397167 21:0.370976 22:0.199237 23:0.538369 24:0.147467 25:0.670189 26:3.79444 27:4.41147 28:0.451903 29:0.603254 30:0 31:0.397167 32:0.121109 33:0.199237 34:0.228868 35:0.177327 36:0.744154 37:4.75318 38:4.41147 39:0.398101 40:0.451903 41:0 42:0.397167 0:0 
-0.001974681321663129 1:0.503197 2:0.302204 3:0.0885558 4:0.931722 5:0.681934 6:0.390441 7:0.834854 8:0.313705 9:0.220063 10:0.175106 11:0.0765924 12:0.185665 13:0.389506 14:0.532133 15:2.27942 16:3.35269 17:0.378301 18:0.534027 19:0.163847 20:0.163847 21:0.373828 22:0.209872 23:0.555908 24:0.132772 25:0.708114 26:3.85022 27:4.38033 28:0.435928 29:0.534027 30:0 31:0.163847 32:0.111255 33:0.209872 34:0.244722 35:0.149776 36:0.805717 37:4.63256 38:4.38033 39:0.378301 40:0.435928 41:0 42:0.163847 0:0 
-0.001190123819739967 1:1.52441 2:0.784751 3:0.411342 4:0.248886 5:0.955386 6:0.570934 7:0.680327 8:0.904526 9:0.191373 10:0.0620802 11:0.383811 12:0.394779 13:0.0500183 14:0.569604 15:3.09457 16:3.26595 17:0.232413 18:0.878999 19:0.0313838 20:0.677387 21:0.143789 22:0.385076 23:0.460095 24:0.0930963 25:0.638999 26:3.62367 27:3.34142 28:0.232413 29:0.721869 30:0.0313838 31:0.662293 32:0.368249 33:0.394245 34:0.68774 35:0.137018 36:0.744159 37:4.99161 38:5.3724 39:0.721869 40:0.878999 41:0.662293 42:0.677387 0:0 
-0.0008697633410382249 1:0.894367 2:0.590833 3:0.10941 4:0.607342 5:0.642155 6:0.367971 7:1.17287 8:0.309868 9:0.174216 10:0.122441 11:0.14248 12:0.237645 13:0.134261 14:0.923101 15:4.42634 16:4.31215 17:0.143917 18:0.413954 19:0.0580891 20:0.107469 21:0.292183 22:0.100849 23:0.275346 24:0.496473 25:0.42385 26:2.16855 27:3.7296 28:0.383813 29:0.413954 30:0.0580891 31:0.141901 32:0.108024 33:0.224421 34:0.312251 35:0.0757995 36:0.873606 37:3.79376 38:3.92699 39:0.143917 40:0.383813 41:0.107469 42:0.141901 0:0 
-0.0008270549892137014 1:1.37712 2:1.11073 3:0.337465 4:1.52707 5:0.509281 6:0.190638 7:1.04865 8:0.698214 9:0.905454 10:0.931361 11:0.37943 12:0.749606 13:0.591665 14:0.353007 15:1.58191 16:6.20004 17:0.891003 18:1.93846 19:0.435993 20:0.435993 21:0.894752 22:0.448756 23:0.649256 24:0.59862 25:0.30345 26:3.44899 27:4.97688 28:0.891003 29:1.25454 30:0 31:0.435993 32:0.890247 33:0.448756 34:1.23295 35:0.182831 36:0.750561 37:4.4532 38:4.97688 39:1.25454 40:1.93846 41:0 42:0.435993 0:0 
-0.0006671166399155439 1:1.85137 2:1.39305 3:0.49933 4:0.851351 5:0.844267 6:0.311538 7:0.721346 8:1.24197 9:0.193592 10:0.414346 11:0.724312 12:0.945616 13:0.135757 14:0.487127 15:1.8275 16:1.35645 17:0.294611 18:1.58962 19:0.383931 20:1.53782 21:0.0591673 22:1.05614 23:1.09902 24:0.0120461 25:0.800171 26:1.5708 27:1.61058 28:0.294611 29:1.81862 30:0.383931 31:1.82212 32:0.107263 33:0.859982 34:0.832867 35:0.0390571 36:0.365626 37:4.21533 38:4.34914 39:1.58962 40:1.81862 41:1.53782 42:1.82212 0:0 
-0.001021768660618066 1:1.22242 2:0.686016 3:0.50917 4:0.818193 5:0.793457 6:0.321226 7:0.749725 8:0.407057 9:0.119506 10:0.065367 11:0.391538 12:0.427848 13:0.0423035 14:0.706683 15:1.65225 16:1.52537 17:0.459548 18:0.560487 19:0.442306 20:0.442306 21:0.176344 22:0.152836 23:0.314723 24:0.101923 25:0.850922 26:3.1679 27:3.41254 28:0.264886 29:0.459548 30:0 31:0.442306 32:0.116807 33:0.152836 34:0.184425 35:0.21741 36:0.586245 37:3.95401 38:3.41254 39:0.264886 40:0.560487 41:0 42:0.442306 0:0 
-0.0003637616767625366 1:0.97655 2:0.565734 3:0.191464 4:0.288841 5:0.766949 6:0.401178 7:0.862426 8:0.347778 9:0.312098 10:0.382704 11:0.168768 12:0.522759 13:0.15746 14:0.770653 15:2.40162 16:1.90747 17:0.495222 18:0.881999 19:0.339907 20:0.339907 21:0.319396 22:0.173183 23:0.252156 24:0.530802 25:0.349897 26:3.59305 27:5.11091 28:0.42657 29:0.495222 30:0 31:0.339907 32:0.234194 33:0.173183 34:0.394954 35:0.0919197 36:0.863787 37:4.8437 38:5.11091 39:0.42657 40:0.881999 41:0 42:0.339907 0:0 
-0.008007056523382364 1:1.58488 2:0.945663 3:0.539893 4:0.312352 5:0.821337 6:0.36936 7:0.908251 8:0.541638 9:0.160691 10:0.176651 11:0.402416 12:0.509852 13:0.0989385 14:0.70686 15:3.20816 16:3.5221 17:0.294439 18:0.412328 19:0.160652 20:0.160652 21:0.129785 22:0.544466 23:0.670979 24:0.0152535 25:0.953003 26:3.6499 27:3.68776 28:0.148436 29:0.294439 30:0 31:0.160652 32:0.175638 33:0.544466 34:0.684823 35:0.0551092 36:0.772432 37:3.90091 38:3.68776 39:0.148436 40:0.412328 41:0 42:0.160652 0:0 
-0.001045822538340623 1:0.791904 2:0.425302 3:0.191688 4:0.222455 5:0.702188 6:0.507778 7:0.885264 8:0.264266 9:0.28739 10:0.274429 11:0.136282 12:0.309781 13:0.34621 14:0.5 15:1.98186 16:3.08901 17:0.354364 18:0.610027 19:0.222025 20:0.222025 21:0.391159 22:0.12122 23:0.326826 24:0.630123 25:0.353535 26:3.31378 27:5.05541 28:0.354364 29:0.468088 30:0 31:0.222025 32:0.196582 33:0.12122 34:0.307393 35:0.104552 36:0.83991 37:4.71239 38:5.05541 39:0.468088 40:0.610027 41:0 42:0.222025 0:0 
-0.002407658177288389 1:1.48694 2:0.904648 3:0.416786 4:1.21808 5:0.748971 6:0.238539 7:0.962322 8:0.672952 9:0.270395 10:0.299275 11:0.616228 12:0.912925 13:0.0166356 14:0.996491 15:4.31462 16:4.31852 17:0.483982 18:0.574923 19:0.115798 20:0.305828 21:0.316076 22:0.513073 23:0.567744 24:0.186249 25:0.626787 26:4.54724 27:4.20955 28:0.0912333 29:0.483982 30:0.115798 31:0.247039 32:0.195835 33:0.364126 34:0.521249 35:0.0856633 36:0.790642 37:4.685 38:4.4813 39:0.0912333 40:0.574923 41:0.247039 42:0.305828 0:0 
-0.0004684519984473769 1:1.11704 2:0.860312 3:0.483068 4:1.87108 5:0.889839 6:0.42253 7:0.926042 8:0.801435 9:0.438063 10:0.616102 11:0.592093 12:1.08243 13:0.149698 14:0.833194 15:1.53206 16:1.39553 17:1.17279 18:1.71882 19:0.952252 20:0.952252 21:0.356052 22:0.36911 23:0.438885 24:0.285611 25:0.416796 26:3.4939 27:4.26929 28:0.610288 29:1.17279 30:0 31:0.952252 32:0.342035 33:0.36911 34:0.690779 35:0.0734528 36:0.976386 37:4.23179 38:4.26929 39:0.610288 40:1.71882 41:0 42:0.952252 0:0 
-0.001152576773680045 1:1.30063 2:0.833966 3:0.410135 4:1.60454 5:0.698482 6:0.349705 7:0.710341 8:0.813114 9:0.508918 10:0.381334 11:0.314112 12:0.648492 13:0.130195 14:0.798228 15:2.7367 16:2.44895 17:0.894039 18:0.916378 19:0.194011 20:0.194011 21:0.464323 22:0.168939 23:0.559338 24:0.268146 25:0.92718 26:3.05943 27:2.9341 28:0.894039 29:0.964694 30:0 31:0.194011 32:0.681096 33:0.168939 34:0.611579 35:0.595905 36:0.351525 37:4.72637 38:2.9341 39:0.916378 40:0.964694 41:0 42:0.194011 0:0 
-0.002658683572956263 1:0.575464 2:0.471541 3:0.157609 4:0.895944 5:0.713244 6:0.376962 7:0.836923 8:0.279443 9:0.125341 10:0.15146 11:0.168183 12:0.304447 13:0.0933478 14:0.827076 15:1.64045 16:1.9614 17:0.223293 18:0.550681 19:0.0425145 20:0.354801 21:0.141974 22:0.128265 23:0.249514 24:0.132371 25:0.59181 26:2.96488 27:2.13753 28:0.223293 29:0.413456 30:0.0425145 31:0.313248 32:0.082589 33:0.209704 34:0.278844 35:0.0595482 36:0.850023 37:4.97451 38:5.0929 39:0.413456 40:0.550681 41:0.313248 42:0.354801 0:0 
-0.0004662344694638989 1:0.923282 2:0.444909 3:0.0937825 4:0.393566 5:0.69089 6:0.365208 7:1.0467 8:0.275519 9:0.176443 10:0.274126 11:0.028529 12:0.253395 13:0.746859 14:0.290588 15:4.93106 16:0.785398 17:0.433792 18:0.442778 19:0.251832 20:0.251832 21:0.14907 22:0.23021 23:0.242785 24:0.203439 25:0.444226 26:2.59594 27:3.36026 28:0.147133 29:0.433792 30:0 31:0.251832 32:0.106133 33:0.23021 34:0.315708 35:0.074416 36:0.711104 37:2.96174 38:3.36026 39:0.147133 40:0.442778 41:0 42:0.251832 0:0 
-0.0003825280810167402 1:1.20153 2:0.601234 3:0.498895 4:1.81743 5:0.919978 6:0.615873 7:0.780387 8:0.504794 9:0.130017 10:0.0684557 11:0.449278 12:0.462289 13:0.0469841 14:0.747462 15:1.20063 16:1.05572 17:0.981209 18:0.991924 19:0.856235 20:0.856235 21:0.112215 22:0.432119 23:0.523823 24:0.0433025 25:0.752071 26:4.50418 27:4.66243 28:0.24328 29:0.981209 30:0 31:0.856235 32:0.209381 33:0.432119 34:0.580243 35:0.0944181 36:0.861267 37:4.82066 38:4.66243 39:0.24328 40:0.991924 41:0 42:0.856235 0:0 
-0.0009163993144480043 1:0.71653 2:0.428655 3:0.101267 4:0.620661 5:0.890893 6:0.508901 7:0.660168 8:0.223175 9:0.119665 10:0.0621066 11:0.295826 12:0.35677 13:0.0117192 14:0.787927 15:3.3348 16:3.19418 17:0.28557 18:0.473789 19:0 20:0.476458 21:0.238856 22:0.295826 23:0.18059 24:0.299001 25:0.309878 26:4.09918 27:3.19418 28:0.19347 29:0.28557 30:0 31:0.476458 32:0.0580338 33:0.237677 34:0.202389 35:0.0669899 36:0.310773 37:4.97299 38:5.10947 39:0.19347 40:0.473789 41:0.476458 42:0.476458 0:0 
-0.001288818753007485 1:1.30382 2:0.961331 3:0.146324 4:0.84315 5:0.44112 6:0.178847 7:0.945683 8:0.328039 9:0.21332 10:0.317723 11:0.441927 12:0.716327 13:0.0909208 14:0.786353 15:2.90236 16:3.18004 17:0.373106 18:0.862865 19:0 20:0.681008 21:0.133893 22:0.441927 23:0.513913 24:0.0755838 25:0.65982 26:3.48257 27:3.18004 28:0.373106 29:0.566226 30:0 31:0.681008 32:0.188344 33:0.288688 34:0.278146 35:0.215319 36:0.441473 37:5.06538 38:5.71022 39:0.566226 40:0.862865 41:0.681008 42:0.681008 0:0 
-0.007341715484014156 1:0.792298 2:0.544144 3:0.115119 4:0.713095 5:0.84363 6:0.387748 7:0.688499 8:0.246464 9:0.207308 10:0.288436 11:0.328429 12:0.24814 13:0.32252 14:0.308075 15:1.99957 16:3.04664 17:0.361585 18:0.366658 19:0.0352918 20:0.0352918 21:0.102608 22:0.304871 23:0.405032 24:0.0201793 25:0.876157 26:3.35402 27:3.24647 28:0.314901 29:0.366658 30:0 31:0.0352918 32:0.230881 33:0.304871 34:0.18665 35:0.272913 36:0.305555 37:4.12439 38:3.24647 39:0.314901 40:0.361585 41:0 42:0.0352918 0:0 
-0.003038619422387759 1:0.843578 2:0.482943 3:0.102993 4:0.291445 5:0.730291 6:0.417962 7:0.73711 8:0.252546 9:0.198876 10:0.137959 11:0.222764 12:0.244092 13:0.188814 14:0.47239 15:1.97203 16:2.70918 17:0.268502 18:0.403875 19:0.0612973 20:0.0612973 21:0.214328 22:0.16618 23:0.379283 24:0.0290211 25:0.962164 26:2.973 27:2.90785 28:0.268502 29:0.346281 30:0 31:0.0612973 32:0.244341 33:0.16618 34:0.259315 35:0.366253 36:0.512867 37:3.87441 38:2.90785 39:0.346281 40:0.403875 41:0 42:0.0612973 0:0 
-0.0008511881511286955 1:1.90015 2:1.55274 3:0.208768 4:0.402309 5:0.745622 6:0.407489 7:1.32743 8:0.365398 9:0.524837 10:0.508661 11:0.0433934 12:0.486301 13:0.660276 14:0.262237 15:4.81408 16:0.785398 17:0.0796254 18:1.08881 19:0 20:0.0882554 21:0.492216 22:0.0433934 23:0.476042 24:0.608222 25:0.312833 26:4.98224 27:0.785398 28:0.0796254 29:1.08386 30:0 31:0.0882554 32:0.573633 33:0.131482 34:0.608107 35:0.381797 36:0.597156 37:1.74101 38:0.68573 39:1.08386 40:1.08881 41:0.0882554 42:0.0882554 0:0 
-0.0007918191909598255 1:1.64717 2:0.970117 3:0.190741 4:0.562632 5:0.741587 6:0.319941 7:1.28746 8:0.513958 9:0.233315 10:0.239709 11:0.567658 12:0.806971 13:0.00647492 14:0.956723 15:4.5939 16:4.54418 17:0.336701 18:1.44294 19:0 20:1.09686 21:0.35192 22:0.567658 23:0.794742 24:0.128276 25:0.733024 26:4.88149 27:4.54418 28:0.336701 29:1.41873 30:0 31:1.09686 32:0.108315 33:0.532056 34:0.639379 35:0.00797951 36:0.886366 37:1.58345 38:1.67046 39:1.41873 40:1.44294 41:1.09686 42:1.09686 0:0 
-0.0007883375993298239 1:3.41081 2:2.51849 3:0.470311 4:0.418576 5:0.905018 6:0.115275 7:0.572539 8:1.13595 9:0.0924364 10:0.067213 11:1.64979 12:1.71286 13:0.00440154 14:0.922021 15:1.5593 16:1.5708 17:0.0696147 18:3.51061 19:0.140017 20:3.47477 21:0.146982 22:1.52109 23:1.6647 24:0.0062561 25:0.989672 26:1.60037 27:1.59711 28:0.0696147 29:3.46114 30:0.140017 31:3.3454 32:0.0631144 33:1.82684 34:1.80031 35:0.0100516 36:0.421847 37:4.64069 38:4.67961 39:3.46114 40:3.51061 41:3.3454 42:3.47477 0:0 
-0.0008261841576995201 1:3.45657 2:2.53519 3:0.443649 4:0.404125 5:0.947742 6:0.100567 7:0.560911 8:1.1421 9:0.120881 10:0.0937714 11:1.65191 12:1.59569 13:0.0147155 14:0.423011 15:4.61949 16:4.688 17:0.0655275 18:0.311911 19:0.080322 20:0.080322 21:0.11608 22:1.72194 23:1.65616 24:0.0180301 25:0.471104 26:4.6415 27:4.74767 28:0.0655275 29:0.248595 30:0 31:0.080322 32:0.152792 33:1.72194 34:1.87212 35:0.0049873 36:0.970068 37:4.73912 38:4.74767 39:0.248595 40:0.311911 41:0 42:0.080322 0:0 
-0.0005695892429826963 1:2.03371 2:1.33112 3:0.48012 4:0.602067 5:0.825411 6:0.342631 7:0.939715 8:0.700119 9:0.242904 10:0.18332 11:0.922262 12:1.09216 13:0.0218428 14:0.831909 15:1.68989 16:1.5708 17:2.01714 18:2.05394 19:1.57517 20:1.70145 21:0.24385 22:0.794004 23:1.01436 24:0.0370622 25:0.84181 26:4.32857 27:4.46741 28:0.35193 29:2.05394 30:0.323546 31:1.70145 32:0.301541 33:0.656966 34:0.927255 35:0.0545862 36:0.822343 37:4.73162 38:4.93264 39:0.35193 40:2.01714 41:0.323546 42:1.57517 0:0 
-3.177227705921363e-05 1:1.79625 2:1.25842 3:0.335618 4:0.540333 5:0.800895 6:0.290877 7:1.01889 8:0.649707 9:0.147955 10:0.249035 11:0.744577 12:0.968908 13:0.0405537 14:0.890771 15:1.54168 16:1.45444 17:1.79148 18:1.92699 19:1.52635 20:1.58516 21:0.141782 22:0.848266 23:0.987858 24:0.00863166 25:0.961096 26:4.42366 27:4.40482 28:0.247021 29:1.92699 30:0.187868 31:1.58516 32:0.0530486 33:0.781901 34:0.827209 35:0.0109213 36:0.867563 37:4.62565 38:4.66481 39:0.247021 40:1.79148 41:0.187868 42:1.52635 0:0 
-1.136244993249198e-05 1:1.72088 2:1.20871 3:0.301242 4:0.524261 5:0.78775 6:0.288289 7:0.933129 8:0.638841 9:0.286572 10:0.35365 11:0.685885 12:1.00644 13:0.0573049 14:0.818866 15:1.64613 16:1.44293 17:1.84126 18:1.93327 19:1.36557 20:1.36557 21:0.311936 22:0.68198 23:0.973105 24:0.0438086 25:0.911139 26:4.34452 27:4.43606 28:0.29044 29:1.93327 30:0 31:1.36557 32:0.194129 33:0.68198 34:0.839828 35:0.0475743 36:0.831295 37:4.58542 38:4.43606 39:0.29044 40:1.84126 41:0 42:1.36557 0:0 
-0.000846421295833825 1:1.38607 2:0.913954 3:0.29589 4:1.26968 5:0.566197 6:0.307048 7:1.32397 8:0.629362 9:0.515015 10:0.776748 11:0.426448 12:1.04723 13:0.227169 14:0.630183 15:4.94895 16:4.24061 17:1.35007 18:1.59297 19:0.243486 20:0.768364 21:0.239278 22:0.451213 23:0.684474 24:0.0305517 25:0.983096 26:1.91544 27:1.8982 28:0.410223 29:1.59297 30:0.578148 31:0.768364 32:0.529018 33:0.189619 34:0.483435 35:0.517711 36:0.426613 37:2.66376 38:4.06889 39:0.410223 40:1.35007 41:0.243486 42:0.578148 0:0 
-0.0007082626796807435 1:1.41467 2:1.10217 3:0.134917 4:0.646893 5:0.539275 6:0.134775 7:1.13573 8:0.644283 9:0.223639 10:0.253267 11:0.0770505 12:0.2878 13:0.312658 14:0.905958 15:1.38382 16:1.5708 17:0.537866 18:0.954387 19:0.491273 20:0.720173 21:0.149812 22:0.781345 23:0.929844 24:0.00739048 25:0.986621 26:2.19347 27:2.20083 28:0.954387 29:1.17104 30:0.720173 31:1.20596 32:0.267837 33:0.424934 34:0.303271 35:0.215677 36:0.256617 37:4.7837 38:5.35851 39:0.537866 40:1.17104 41:0.491273 42:1.20596 0:0 
-0.001823772729549216 1:1.80804 2:1.19889 3:0.375264 4:1.11124 5:0.465185 6:0.125925 7:0.844048 8:0.491115 9:0.415659 10:0.0956806 11:0.223153 12:0.307989 13:0.0537838 14:0.901418 15:1.92379 16:2.07789 17:0.369759 18:0.618019 19:0 20:0.0089879 21:0.712779 22:0.223153 23:0.898626 24:0.163558 25:0.883401 26:2.3017 27:2.07789 28:0.45328 29:0.618019 30:0 31:0.0089879 32:0.438516 33:0.217224 34:0.568699 35:0.243366 36:0.438072 37:3.26857 38:2.1294 39:0.369759 40:0.45328 41:0.0089879 42:0.0089879 0:0 
-0.0001488313210353769 1:0.888761 2:0.583718 3:0.505695 4:0.968519 5:0.657272 6:0.201505 7:0.884514 8:0.261512 9:0.116893 10:0.163496 11:0.0601529 12:0.183102 13:0.343265 14:0.85677 15:2.05331 16:2.29378 17:0.166071 18:0.285771 19:0.144046 20:0.144046 21:0.130407 22:0.086193 23:0.189365 24:0.2021 25:0.420281 26:4.31387 27:5.03414 28:0.163403 29:0.285771 30:0 31:0.144046 32:0.0567766 33:0.086193 34:0.0963618 35:0.198288 36:0.986169 37:5.01527 38:5.03414 39:0.163403 40:0.166071 41:0 42:0.144046 0:0 
-0.000795388517155827 1:0.659842 2:0.506476 3:0.172994 4:1.29494 5:0.793865 6:0.455517 7:0.859665 8:0.42414 9:0.287128 10:0.348417 11:0.280646 12:0.474154 13:0.259991 14:0.436037 15:1.3452 16:0.523919 17:0.0990409 18:0.388382 19:0.185913 20:0.391475 21:0.341751 22:0.12152 23:0.343453 24:0.438864 25:0.382533 26:2.38649 27:0.628796 28:0.324283 29:0.388382 30:0.185913 31:0.29577 32:0.171216 33:0.352848 34:0.472787 35:0.095583 36:0.586756 37:1.73595 38:2.16455 39:0.0990409 40:0.324283 41:0.29577 42:0.391475 0:0 
-0.0004473405624589518 1:0.55365 2:0.466903 3:0.0981776 4:1.94436 5:0.759401 6:0.226673 7:0.944325 8:0.466947 9:0.18234 10:0.151959 11:0.64488 12:0.795787 13:0.00793313 14:0.96498 15:1.46969 16:1.49547 17:1.14437 18:1.42759 19:1.01158 20:1.01158 21:0.11621 22:0.369796 23:0.351466 24:0.101754 25:0.398213 26:4.14235 27:4.73366 28:0.29036 29:1.14437 30:0 31:1.01158 32:0.278851 33:0.369796 34:0.632249 35:0.0621185 36:0.755465 37:4.39877 38:4.73366 39:0.29036 40:1.42759 41:0 42:1.01158 0:0 
-0.0005826058377914023 1:1.33074 2:0.951715 3:0.283573 4:1.51695 5:0.574888 6:0.120131 7:0.780062 8:0.604478 9:0.312925 10:0.287303 11:0.444968 12:0.513835 13:0.188418 14:0.805098 15:1.24464 16:1.52205 17:0.652768 18:1.31265 19:0 20:1.12544 21:0.549798 22:0.444968 23:0.986995 24:0.044279 25:0.992265 26:1.5099 27:1.52205 28:0.652768 29:1.69465 30:0 31:1.12544 32:0.101674 33:0.722956 34:0.7991 35:0.0282258 36:0.986806 37:4.49174 38:4.48559 39:1.31265 40:1.69465 41:1.12544 42:1.12544 0:0 
-0.001122798035884815 1:1.45627 2:1.08398 3:0.256407 4:1.33195 5:0.698542 6:0.191332 7:0.734653 8:0.500334 9:0.244082 10:0.444304 11:0.206546 12:0.595898 13:0.197341 14:0.761133 15:1.99499 16:2.50657 17:0.509573 18:0.558255 19:0.610087 20:0.845198 21:0.0560532 22:1.04013 23:1.09404 24:0.00457982 25:0.99564 26:2.47982 27:2.48055 28:0.0623186 29:0.558255 30:0.237757 31:0.845198 32:0.23189 33:0.808461 34:1.03508 35:0.0171158 36:0.942079 37:2.49985 38:2.53816 39:0.0623186 40:0.509573 41:0.237757 42:0.610087 0:0 
-0.0008871690145170546 1:1.25576 2:0.768852 3:0.487324 4:1.02922 5:0.922459 6:0.307913 7:0.765099 8:1.00787 9:0.111641 10:0.0536135 11:0.507799 12:0.551508 13:0.0186766 14:0.889943 15:4.91384 16:4.96319 17:0.0562171 18:0.35103 19:0 20:0.144529 21:0.0524319 22:0.507799 23:0.552247 24:0.0167186 25:0.93225 26:4.98972 27:4.96319 28:0.0562171 29:0.404603 30:0 31:0.144529 32:0.228878 33:0.475894 34:0.565075 35:0.130294 36:0.608896 37:4.39064 38:4.72905 39:0.35103 40:0.404603 41:0.144529 42:0.144529 0:0 
-0.002150843372055683 1:1.07083 2:0.587916 3:0.187134 4:1.15205 5:0.853321 6:0.408936 7:1.01054 8:0.365288 9:0.31755 10:0.0890117 11:0.464968 12:0.512574 13:0.049088 14:0.809373 15:2.59403 16:2.68881 17:0.182103 18:0.565675 19:0.375666 20:0.375666 21:0.436965 22:0.147905 23:0.539147 24:0.223941 25:0.94017 26:2.9462 27:3.09401 28:0.182103 29:0.567754 30:0 31:0.375666 32:0.426674 33:0.147905 34:0.560107 35:0.122609 36:0.831783 37:3.47227 38:3.09401 39:0.565675 40:0.567754 41:0 42:0.375666 0:0 
-0.0007148990791296416 1:2.85303 2:2.65371 3:0.529974 4:0.825097 5:0.610243 6:0.115225 7:0.738137 8:0.37827 9:0.190967 10:0.0662113 11:0.789002 12:0.761693 13:0.0247723 14:0.493402 15:2.55078 16:2.65522 17:0.205742 18:0.478587 19:0.410672 20:0.410672 21:0.315992 22:1.053 23:0.935498 24:0.0944202 25:0.444967 26:2.67795 27:3.00086 28:0.205742 29:0.275841 30:0 31:0.410672 32:0.190698 33:1.053 34:1.16003 35:0.0454962 36:0.647212 37:2.81288 38:3.00086 39:0.275841 40:0.478587 41:0 42:0.410672 0:0 
-0.001143079019359659 1:1.34568 2:0.609077 3:0.216685 4:0.882505 5:0.803665 6:0.374356 7:1.30514 8:0.402898 9:0.370739 10:0.457852 11:0.337785 12:0.585262 13:0.285217 14:0.697858 15:2.61553 16:1.96559 17:0.144457 18:0.576382 19:0 20:0.680544 21:0.476578 22:0.337785 23:0.547156 24:0.33181 25:0.605547 26:2.82304 27:1.96559 28:0.144457 29:0.498855 30:0 31:0.680544 32:0.177788 33:0.413978 34:0.531024 35:0.0911631 36:0.767025 37:3.33899 38:3.67118 39:0.498855 40:0.576382 41:0.680544 42:0.680544 0:0 
-0.0006669995180424022 1:0.989095 2:0.596442 3:0.212343 4:0.842716 5:0.822571 6:0.464102 7:0.881417 8:0.304527 9:0.336825 10:0.17303 11:0.186453 12:0.276289 13:0.21125 14:0.672021 15:1.23606 16:0.785398 17:0.587818 18:0.743929 19:0.229686 20:0.229686 21:0.544373 22:0.0458399 23:0.563163 24:0.353639 25:0.729953 26:3.46756 27:4.24874 28:0.574814 29:0.743929 30:0 31:0.229686 32:0.293073 33:0.0458399 34:0.3233 35:0.253415 36:0.793865 37:4.81408 38:4.24874 39:0.574814 40:0.587818 41:0 42:0.229686 0:0 
-0.004858611601051059 1:0.820294 2:0.741501 3:0.0921538 4:0.766566 5:0.763801 6:0.440146 7:0.88369 8:0.238863 9:0.250087 10:0.069853 11:0.273986 12:0.343532 13:0.00678899 14:0.900832 15:2.51839 16:2.60117 17:0.140356 18:0.378274 19:0.250307 20:0.250307 21:0.430975 22:0.104751 23:0.476494 24:0.324548 25:0.579247 26:2.986 27:3.92699 28:0.140356 29:0.425496 30:0 31:0.250307 32:0.249432 33:0.104751 34:0.351481 35:0.0608283 36:0.855137 37:4.22455 38:3.92699 39:0.378274 40:0.425496 41:0 42:0.250307 0:0 
-0.002238712515718183 1:0.781367 2:0.385603 3:0.0900248 4:0.319121 5:0.823207 6:0.518845 7:0.873499 8:0.207695 9:0.112387 10:0.071097 11:0.148112 12:0.207581 13:0.07088 14:0.868134 15:4.48559 16:4.60751 17:0.0985299 18:0.291242 19:0.210662 20:0.210662 21:0.0593302 22:0.128264 23:0.18002 24:0.0608555 25:0.93415 26:2.62714 27:2.70497 28:0.247906 29:0.291242 30:0 31:0.210662 32:0.206733 33:0.128264 34:0.233589 35:0.343571 36:0.501829 37:3.60524 38:2.70497 39:0.0985299 40:0.247906 41:0 42:0.210662 0:0 
-0.001476987368202847 1:2.19172 2:1.38223 3:0.436142 4:0.474528 5:0.607195 6:0.21664 7:0.737921 8:1.33906 9:0.3141 10:0.182177 11:0.776273 12:0.881921 13:0.0571728 14:0.702996 15:2.50914 16:2.73941 17:0.111781 18:0.207523 19:0 20:0.555054 21:0.174063 22:0.776273 23:0.887462 24:0.0514149 25:0.819348 26:2.61431 27:2.73941 28:0.111781 29:0.139845 30:0 31:0.555054 32:0.586061 33:0.383174 34:0.804783 35:0.238909 36:0.60543 37:2.80994 38:2.02846 39:0.139845 40:0.207523 41:0.555054 42:0.555054 0:0 
-0.0007884459211839217 1:1.27312 2:0.718493 3:0.196863 4:0.390898 5:0.600495 6:0.286768 7:0.883991 8:0.729688 9:0.380794 10:0.744904 11:0.135921 12:0.778633 13:0.392932 14:0.509066 15:5.10584 16:0.244979 17:1.10278 18:1.11592 19:0.552325 20:0.552325 21:0.207258 22:0.421307 23:0.471697 24:0.144794 25:0.525815 26:2.77442 27:3.34561 28:0.136145 29:1.11592 30:0 31:0.552325 32:0.19022 33:0.421307 34:0.497264 35:0.122028 36:0.62781 37:2.95942 38:3.34561 39:0.136145 40:1.10278 41:0 42:0.552325 0:0 
-0.0004115430428168792 1:1.35932 2:0.92714 3:0.515133 4:1.72263 5:0.817326 6:0.422951 7:0.922976 8:0.654889 9:0.264291 10:0.440892 11:0.404083 12:0.80557 13:0.102084 14:0.913489 15:4.89825 16:5.04563 17:0 18:0.310158 19:0.348652 20:0.348652 21:0.112476 22:0.631135 23:0.679026 24:0.0495346 25:0.642641 26:4.54379 27:4.7009 28:0.310158 29:0.310158 30:0 31:0.348652 32:0.239505 33:0.631135 34:0.80557 35:0.0734278 36:0.809174 37:4.87338 38:4.7009 39:0 40:0.310158 41:0 42:0.348652 0:0 
-0.0004476972767282982 1:1.35718 2:0.950492 3:0.488449 4:1.63857 5:0.832866 6:0.409676 7:0.962497 8:0.686126 9:0.379054 10:0.169963 11:0.46354 12:0.609258 13:0.0524607 14:0.81587 15:3.68725 16:3.91004 17:0.599021 18:0.935678 19:0 20:0.608507 21:0.507624 22:0.46354 23:0.706429 24:0.254686 25:0.688193 26:4.52704 27:3.91004 28:0.372751 29:0.599021 30:0 31:0.608507 32:0.459575 33:0.394371 34:0.817122 35:0.101503 36:0.933886 37:4.9355 38:5.05168 39:0.372751 40:0.935678 41:0.608507 42:0.608507 0:0 
-0.0009793256417949209 1:1.27038 2:0.814722 3:0.469943 4:0.800971 5:0.905883 6:0.488062 7:0.923163 8:1.02656 9:0.451375 10:0.0710819 11:0.457148 12:0.449868 13:0.0496808 14:0.511363 15:3.7159 16:3.89129 17:0.355231 18:0.836504 19:0.336365 20:0.773067 21:0.784702 22:0.225817 23:0.960228 24:0.191831 25:0.847583 26:4.88933 27:4.62925 28:0.492085 29:0.836504 30:0.336365 31:0.784258 32:0.49834 33:0.957943 34:0.559319 35:0.130975 36:0.314421 37:4.45958 38:5.00643 39:0.355231 40:0.492085 41:0.773067 42:0.784258 0:0 
-0.000878365288387026 1:1.07272 2:0.819077 3:0.398128 4:1.28688 5:0.87922 6:0.353472 7:1.00775 8:0.932697 9:0.567505 10:0.309038 11:0.420996 12:0.3907 13:0.247575 14:0.607913 15:3.15883 16:3.74458 17:0.449322 18:1.14452 19:0.281555 20:0.281555 21:0.422819 22:0.155489 23:0.549458 24:0.169152 25:0.714686 26:3.99247 27:3.45521 28:0.449322 29:0.784713 30:0 31:0.281555 32:0.970659 33:0.155489 34:0.983525 35:0.448448 36:0.418824 37:5.08621 38:3.45521 39:0.784713 40:1.14452 41:0 42:0.281555 0:0 
-0.007109917479194207 1:0.976397 2:0.750895 3:0.359109 4:1.39171 5:0.882975 6:0.375682 7:0.843667 8:0.889194 9:0.248003 10:0.353705 11:0.396386 12:0.571007 13:0.209566 14:0.779566 15:2.57059 16:2.92525 17:0.30649 18:0.54606 19:0 20:0.219902 21:0.0528027 22:0.396386 23:0.426517 24:0.0335838 25:0.986955 26:2.91812 27:2.92525 28:0.241514 29:0.30649 30:0 31:0.219902 32:0.337501 33:0.181418 34:0.477921 35:0.17654 36:0.647092 37:3.33675 38:2.70764 39:0.241514 40:0.54606 41:0.219902 42:0.219902 0:0 
-0.0006675166820115947 1:0.547674 2:0.424605 3:0.406903 4:1.38918 5:0.820938 6:0.440328 7:0.703837 8:0.433117 9:0.108678 10:0.142868 11:0.654586 12:0.790057 13:0.0200891 14:0.798893 15:1.1879 16:1.04966 17:0.113641 18:0.17691 19:0.125743 20:0.125743 21:0.106344 22:0.669893 23:0.776037 24:0.00287271 25:0.988216 26:1.54004 27:1.53378 28:0.0736184 29:0.113641 30:0 31:0.125743 32:0.0768217 33:0.669893 34:0.729738 35:0.0219334 36:0.488216 37:1.75391 38:1.53378 39:0.0736184 40:0.17691 41:0 42:0.125743 0:0 
0.00386711318338314 1:0.724336 2:0.403731 3:0.258723 4:0.283805 5:0.68061 6:0.411875 7:0.717357 8:0.933242 9:0.201646 10:0.338854 11:0.0637979 12:0.393063 13:0.162654 14:0.852231 15:2.39824 16:2.78596 17:0.490578 18:0.540772 19:0.20225 20:0.20225 21:0.145093 22:0.208121 23:0.337579 24:0.0788817 25:0.802776 26:3.87071 27:4.11996 28:0.154925 29:0.490578 30:0 31:0.20225 32:0.12099 33:0.208121 34:0.282883 35:0.125608 36:0.802585 37:4.25447 38:4.11996 39:0.154925 40:0.540772 41:0 42:0.20225 0:0 
0.007012653275876768 1:0.709386 2:0.430973 3:0.194753 4:0.212868 5:0.539691 6:0.301081 7:0.754361 8:0.882763 9:0.256141 10:0.298669 11:0.121493 12:0.312761 13:0.400475 14:0.48516 15:1.96736 16:0.717322 17:0.513612 18:0.523034 19:0.254466 20:0.254466 21:0.298216 22:0.133958 23:0.419223 24:0.117432 25:0.782943 26:3.57342 27:4.04153 28:0.308706 29:0.523034 30:0 31:0.254466 32:0.171538 33:0.133958 34:0.254749 35:0.21387 36:0.823736 37:4.25578 38:4.04153 39:0.308706 40:0.513612 41:0 42:0.254466 0:0 
0.004097801261230504 1:0.82861 2:0.489705 3:0.281618 4:0.512221 5:0.730584 6:0.395603 7:1.06754 8:0.43954 9:0.324622 10:0.296302 11:0.0901681 12:0.357176 13:0.233018 14:0.761986 15:2.40743 16:3.01189 17:0.174123 18:0.276754 19:0.0883272 20:0.0883272 21:0.357789 22:0.158386 23:0.450763 24:0.252221 25:0.648911 26:2.75526 27:3.56226 28:0.132418 29:0.174123 30:0 31:0.0883272 32:0.319774 33:0.158386 34:0.449884 35:0.158401 36:0.734417 37:2.98456 38:3.56226 39:0.132418 40:0.276754 41:0 42:0.0883272 0:0 
-0.0007771380710209447 1:1.74555 2:1.21917 3:0.519944 4:1.02415 5:0.663465 6:0.293625 7:0.695256 8:0.900267 9:0.707364 10:0.558139 11:0.295122 12:0.847459 13:0.0511483 14:0.997968 15:2.19428 16:2.19843 17:1.09889 18:1.11959 19:0 20:0.442169 21:0.870684 22:0.295122 23:0.830217 24:0.488131 25:0.447491 26:3.61207 27:2.19843 28:0.340669 29:1.09889 30:0 31:0.442169 32:0.69327 33:0.183001 34:0.587046 35:0.658314 36:0.33846 37:4.0545 38:5.90791 39:0.340669 40:1.11959 41:0.442169 42:0.442169 0:0 
0.005345570615144786 1:1.00615 2:0.647163 3:0.169172 4:0.806835 5:0.603894 6:0.271158 7:0.842353 8:0.425123 9:0.284622 10:0.325774 11:0.235211 12:0.460388 13:0.232883 14:0.755787 15:1.94335 16:2.43297 17:0.619549 18:0.643045 19:0.230718 20:0.230718 21:0.371483 22:0.405344 23:0.746789 24:0.0849148 25:0.885666 26:2.97229 27:3.15883 28:0.44949 29:0.643045 30:0 31:0.230718 32:0.156608 33:0.405344 34:0.413419 35:0.122365 36:0.585878 37:3.59305 38:3.15883 39:0.44949 40:0.619549 41:0 42:0.230718 0:0 
-0.002739355675284546 1:1.14881 2:0.753738 3:0.198223 4:1.22738 5:0.724518 6:0.315688 7:0.79417 8:0.364005 9:0.191886 10:0.313921 11:0.304568 12:0.465973 13:0.232643 14:0.479132 15:2.92916 16:3.47015 17:0.612583 18:0.757001 19:0.342055 20:0.342055 21:0.128566 22:0.537887 23:0.614067 24:0.0574383 25:0.977741 26:3.7296 27:3.74325 28:0.233927 29:0.612583 30:0 31:0.342055 32:0.133171 33:0.537887 34:0.600022 35:0.0661148 36:0.691512 37:3.89623 38:3.74325 39:0.233927 40:0.757001 41:0 42:0.342055 0:0 
-0.002648819970718805 1:1.1749 2:0.852285 3:0.203321 4:1.13808 5:0.720204 6:0.252534 7:0.80654 8:0.375107 9:0.158147 10:0.168051 11:0.464877 12:0.373529 13:0.108269 14:0.295167 15:1.16067 16:0.762147 17:0.985387 18:1.02993 19:1.01746 20:1.01746 21:0.174679 22:0.553165 23:0.691127 24:0.0552267 25:0.945768 26:3.77179 27:3.7296 28:0.249657 29:1.02993 30:0 31:1.01746 32:0.131712 33:0.553165 34:0.619195 35:0.0620829 36:0.670429 37:3.91137 38:3.7296 39:0.249657 40:0.985387 41:0 42:1.01746 0:0 
-0.002025270752253052 1:0.756686 2:0.53489 3:0.170976 4:1.04772 5:0.846398 6:0.388614 7:0.833309 8:0.30419 9:0.208142 10:0.29974 11:0.185911 12:0.311074 13:0.383228 14:0.486288 15:1.68352 16:0.694738 17:0.555809 18:0.64332 19:0.442011 20:0.442011 21:0.235361 22:0.256184 23:0.486908 24:0.0419267 25:0.907926 26:3.67392 27:3.82391 28:0.208462 29:0.64332 30:0 31:0.442011 32:0.0893245 33:0.256184 34:0.320881 35:0.0685077 36:0.813599 37:3.9902 38:3.82391 39:0.208462 40:0.555809 41:0 42:0.442011 0:0 
0.005097417549627108 1:0.8866 2:0.576733 3:0.124579 4:0.505921 5:0.62678 6:0.267947 7:0.756719 8:0.363955 9:0.293906 10:0.0556773 11:0.465406 12:0.517209 13:0.0132398 14:0.842218 15:2.73796 16:2.7993 17:0.097015 18:0.524999 19:0.409047 20:0.409047 21:0.49094 22:0.058736 23:0.548996 24:0.0458017 25:0.89984 26:2.93231 27:3.20401 28:0.097015 29:0.506365 30:0 31:0.409047 32:0.335102 33:0.058736 34:0.36461 35:0.309801 36:0.708181 37:3.97534 38:3.20401 39:0.506365 40:0.524999 41:0 42:0.409047 0:0 
-0.0009133768912465384 1:1.48751 2:0.784407 3:0.347905 4:0.742013 5:0.702747 6:0.44416 7:0.755127 8:0.807392 9:0.580478 10:0.765666 11:0.147705 12:0.7587 13:0.48409 14:0.592847 15:1.36563 16:2.53931 17:1.12375 18:1.15556 19:0 20:0.373611 21:0.892851 22:0.147705 23:1.02649 24:0.129938 25:0.97733 26:2.47755 27:2.53931 28:0.997957 29:1.12375 30:0 31:0.373611 32:0.0829173 33:0.396464 34:0.433731 35:0.0569329 36:0.619928 37:4.10494 38:4.28304 39:0.997957 40:1.15556 41:0.373611 42:0.373611 0:0 
