svm_type epsilon_svr
kernel_type rbf
gamma 0.8219
nr_class 2
total_sv 949
rho 0.0025454
SV
-0.0006485590366110726 1:1.66431 2:0.903791 3:0.451894 4:0.904466 5:0.707097 6:0.467627 7:0.899543 8:0.45166 9:0.371297 10:1.04292 11:0.336101 12:0.846937 13:0.649342 14:0.303771 15:2.68708 16:0.805003 17:0.343916 18:1.29284 19:0.751549 20:0.878265 21:0.259161 22:0.55406 23:0.68043 24:0.117973 25:0.655744 26:3.14159 27:3.46334 28:0.310346 29:1.01877 30:0 31:0.878265 32:0.0875585 33:0.55406 34:0.615422 35:0.0340636 36:0.852416 37:3.53529 38:3.46334 39:0.310346 40:0.783871 41:0 42:0.878265 43:0.0955489 44:0.608835 45:0.552849 46:0.0425128 47:0.336414 48:5.03897 49:5.22631 50:0.783871 51:1.29284 52:0.751549 53:0.877268 0:0 
-0.002841556895818956 1:1.55048 2:0.827902 3:0.391786 4:0.90031 5:0.749745 6:0.468329 7:0.891451 8:0.398664 9:0.116043 10:0.0573738 11:0.631108 12:0.687252 13:0.00571231 14:0.990641 15:3.11562 16:3.11219 17:0.248614 18:0.564666 19:0 20:0.39972 21:0.228832 22:0.631108 23:0.632117 24:0.115962 25:0.478404 26:3.48556 27:3.11219 28:0.211699 29:0.359975 30:0 31:0.39972 32:0.057419 33:0.451652 34:0.507654 35:0.00842555 36:0.939342 37:3.84285 38:3.8132 39:0.148749 40:0.428315 41:0 42:0.39972 43:0.120546 44:0.451652 45:0.448637 46:0.0854718 47:0.538182 48:4.09862 49:3.8132 50:0.148749 51:0.564666 52:0 53:0.39972 0:0 
-0.0002452972496741297 1:1.22187 2:0.691646 3:0.200038 4:0.707947 5:0.767466 6:0.391874 7:0.906118 8:0.247946 9:0.0986996 10:0.0517154 11:0.502579 12:0.501279 13:0.0328009 14:0.616387 15:3.04355 16:3.19418 17:0.106533 18:0.609596 19:0 20:0.7912 21:0.0739093 22:0.502579 23:0.57224 24:0.0146599 25:0.869154 26:3.26043 27:3.19418 28:0.106533 29:0.625834 30:0 31:0.7912 32:0.0511458 33:0.324143 34:0.328313 35:0.04979 36:0.735206 37:4.51007 38:4.6821 39:0.0933937 40:0.535038 41:0.260574 42:0.539045 43:0.218028 44:0.441211 45:0.336782 46:0.159713 47:0.313237 48:4.81206 49:5.40978 50:0.0933937 51:0.625834 52:0.260574 53:0.7912 0:0 
-0.000595911307044004 1:1.66832 2:0.838321 3:0.514798 4:0.959129 5:0.852083 6:0.560868 7:0.99826 8:0.397247 9:0.181531 10:0.385292 11:0.281487 12:0.613837 13:0.150664 14:0.843509 15:1.37717 16:1.1659 17:1.07591 18:1.1301 19:0.824014 20:0.835109 21:0.0590095 22:0.577712 23:0.631171 24:0.0131719 25:0.861384 26:3.70944 27:3.65667 28:0.163857 29:1.1301 30:0 31:0.85156 32:0.154057 33:0.577712 34:0.547426 35:0.0857568 36:0.472239 37:3.97241 38:3.65667 39:0.163857 40:1.07591 41:0 42:0.85156 43:0.127766 44:0.638829 45:0.575781 46:0.0584058 47:0.48594 48:5.03875 49:5.27571 50:0.590492 51:1.08667 52:0.835109 53:0.85156 0:0 
-0.000254904972223779 1:1.65588 2:0.82257 3:0.509415 4:0.930155 5:0.841143 6:0.579821 7:1.02299 8:0.421554 9:0.229244 10:0.483334 11:0.29523 12:0.719111 13:0.162189 14:0.882959 15:1.15436 16:1.31824 17:0.449434 18:1.23815 19:0.255594 20:0.789698 21:0.138672 22:0.458864 23:0.590087 24:0.0274385 25:0.982313 26:1.89738 27:1.91241 28:0.227579 29:0.995949 30:0 31:0.786003 32:0.26147 33:0.458864 34:0.655046 35:0.10078 36:0.828516 37:2.11808 38:1.91241 39:0.227579 40:0.948259 41:0 42:0.786003 43:0.0901456 44:0.565176 45:0.638011 46:0.0281649 47:0.846443 48:3.63648 49:3.54425 50:0.138877 51:1.23815 52:0 53:0.789698 0:0 
-0.0005101103824229074 1:1.70293 2:0.857201 3:0.53788 4:1.0114 5:0.853594 6:0.540938 7:0.910579 8:0.409688 9:0.195467 10:0.54534 11:0.246659 12:0.723063 13:0.203484 14:0.939687 15:1.2723 16:1.18392 17:1.18377 18:1.27082 19:0.776883 20:0.817686 21:0.0896218 22:0.593462 23:0.665238 24:0.0271965 25:0.79413 26:3.68682 27:3.78835 28:0.137999 29:1.27082 30:0.124771 31:0.817686 32:0.0834585 33:0.539106 34:0.606108 35:0.0277175 36:0.825634 37:3.93752 38:4.01113 39:0.129527 40:1.23153 41:0 42:0.776883 43:0.063449 44:0.539106 45:0.548043 46:0.0368063 47:0.629198 48:4.14201 49:4.01113 50:0.129527 51:1.18377 52:0 53:0.776883 0:0 
-0.0005021715099144218 1:1.67811 2:0.812301 3:0.528679 4:0.990146 5:0.853607 6:0.647777 7:1.0084 8:0.417831 9:0.231465 10:0.504686 11:0.33748 12:0.774957 13:0.158251 14:0.914866 15:1.21203 16:1.31911 17:0.687203 18:1.33923 19:0.287493 20:0.932427 21:0.171988 22:0.47493 23:0.597667 24:0.0721357 25:0.821319 26:2.12338 27:1.96559 28:0.687203 29:1.07668 30:0.287493 31:1.13968 32:0.0718739 33:0.63982 34:0.701193 35:0.0177796 36:0.814148 37:3.64615 38:3.72546 39:0.108814 40:1.33923 41:0 42:0.923043 43:0.0569731 44:0.63982 45:0.649214 46:0.027762 47:0.623019 48:3.85779 49:3.72546 50:0.108814 51:1.30712 52:0 53:0.923043 0:0 
-0.001846046843190098 1:1.90236 2:1.0408 3:0.533144 4:0.959347 5:0.688458 6:0.45633 7:0.904146 8:0.431091 9:0.262029 10:0.673678 11:0.520859 12:0.912162 13:0.260448 14:0.614653 15:2.38358 16:3.10315 17:0.843676 18:1.14533 19:0.264153 20:0.396272 21:0.237964 22:0.526885 23:0.698558 24:0.0867286 25:0.754644 26:3.52449 27:3.75375 28:0.299503 29:0.843676 30:0.137745 31:0.264153 32:0.0501889 33:0.54633 34:0.573154 35:0.0241353 36:0.731297 37:3.90526 38:3.98575 39:0.110112 40:1.04331 41:0 42:0.396272 43:0.0862843 44:0.54633 45:0.606145 46:0.0344147 47:0.70587 48:4.04996 49:3.98575 50:0.110112 51:1.14533 52:0 53:0.396272 0:0 
0.0007762742642674838 1:2.17285 2:1.25655 3:0.414163 4:0.854003 5:0.614509 6:0.214024 7:0.876078 8:0.571928 9:0.206392 10:0.295534 11:0.618367 12:0.799471 13:0.10622 14:0.839691 15:2.25594 16:2.39617 17:0.661102 18:0.899704 19:0.272473 20:0.506197 21:0.239768 22:0.736309 23:0.957132 24:0.0354379 25:0.835168 26:2.85224 27:2.69183 28:0.212729 29:0.661102 30:0.245108 31:0.272473 32:0.157789 33:0.829194 34:0.969984 35:0.0252926 36:0.857443 37:3.06176 38:2.95434 39:0.178406 40:0.8374 41:0 42:0.506197 43:0.132476 44:0.829194 45:0.893274 46:0.042916 47:0.547562 48:3.1612 49:2.95434 50:0.178406 51:0.899704 52:0 53:0.506197 0:0 
0.0006226465550656358 1:2.08002 2:1.25091 3:0.428647 4:0.967354 5:0.652058 6:0.217416 7:0.898775 8:0.593925 9:0.26266 10:0.259395 11:0.679022 12:0.862967 13:0.0762337 14:0.96284 15:2.28888 16:2.31862 17:0.684967 18:0.901716 19:0.279615 20:0.416575 21:0.275693 22:0.756343 23:1.00345 24:0.0447013 25:0.794006 26:2.76675 27:2.56252 28:0.203291 29:0.684967 30:0.147586 31:0.279615 32:0.257283 33:0.771475 34:1.0023 35:0.0411651 36:0.784647 37:2.91349 38:2.71002 39:0.157012 40:0.847217 41:0 42:0.416575 43:0.25827 44:0.771475 45:0.915422 46:0.0814443 47:0.438017 48:3.06943 49:2.71002 50:0.157012 51:0.901716 52:0 53:0.416575 0:0 
0.002201247305910958 1:2.05744 2:1.27421 3:0.445251 4:0.927612 5:0.682717 6:0.2098 7:0.85416 8:0.597 9:0.252855 10:0.307723 11:0.690937 12:0.911618 13:0.0862783 14:0.937574 15:2.27615 16:2.33364 17:0.683468 18:0.892095 19:0.33072 20:0.373541 21:0.188984 22:0.8418 23:1.01939 24:0.0222163 25:0.822529 26:2.71944 27:2.58405 28:0.20668 29:0.683468 30:0.120344 31:0.33072 32:0.261743 33:0.769285 34:1.00199 35:0.0434773 36:0.754891 37:2.87368 38:2.67248 39:0.130871 40:0.847078 41:0 42:0.373541 43:0.252968 44:0.769285 45:0.920613 46:0.076861 47:0.498261 48:2.96488 49:2.67248 50:0.130871 51:0.892095 52:0 53:0.373541 0:0 
0.003499289361151846 1:2.08074 2:1.19277 3:0.36999 4:0.470963 5:0.520561 6:0.237487 7:0.909044 8:0.779362 9:0.366449 10:0.328352 11:0.481329 12:0.762192 13:0.089684 14:0.793418 15:1.44109 16:1.71269 17:0.594199 18:0.94201 19:0.281668 20:0.400915 21:0.275413 22:0.603209 23:0.876914 24:0.0134005 25:0.97858 26:2.20649 27:2.23184 28:0.227511 29:0.594199 30:0.110996 31:0.480963 32:0.330982 33:0.596586 34:0.923244 35:0.0228753 36:0.932415 37:2.54052 38:2.45677 39:0.227511 40:0.802702 41:0.110996 42:0.475949 43:0.349578 44:0.50498 45:0.841652 46:0.0459901 47:0.859265 48:2.87157 49:2.66376 50:0.256413 51:0.94201 52:0.132789 53:0.400915 0:0 
0.006093715558538701 1:2.20326 2:1.43508 3:0.409752 4:0.54136 5:0.569885 6:0.216475 7:0.917976 8:0.691079 9:0.311937 10:0.221486 11:0.594477 12:0.748866 13:0.0759425 14:0.691477 15:1.79827 16:2.09887 17:0.191603 18:0.790518 19:0.127357 20:0.39263 21:0.303211 22:0.67401 23:0.90229 24:0.0816794 25:0.698322 26:1.92342 27:2.24554 28:0.187701 29:0.784317 30:0.127357 31:0.351123 32:0.264382 33:0.783483 34:0.985879 35:0.0617026 36:0.745109 37:2.1229 38:2.34983 39:0.187701 40:0.707246 41:0.141655 42:0.367606 43:0.533241 44:0.538178 45:0.975777 46:0.134853 47:0.694854 48:2.31189 49:2.77442 50:0.196553 51:0.55335 52:0 53:0.39263 0:0 
0.002217155031878155 1:2.09925 2:1.34064 3:0.432085 4:0.356188 5:0.719827 6:0.186324 7:0.844727 8:0.392635 9:0.16542 10:0.217759 11:0.68884 12:0.879624 13:0.0429603 14:0.81931 15:2.56203 16:2.71921 17:0.194143 18:0.399136 19:0.0958352 20:0.290476 21:0.288684 22:0.742466 23:1.01449 24:0.0354667 25:0.86666 26:2.68996 27:2.81984 28:0.194143 29:0.299111 30:0.0958352 31:0.196406 32:0.0985458 33:0.88552 34:0.973623 35:0.0151364 36:0.864503 37:2.87913 38:2.93452 39:0.0919164 40:0.345506 41:0 42:0.290476 43:0.0566901 44:0.88552 45:0.925716 46:0.0140557 47:0.762066 48:2.99536 49:2.93452 50:0.0919164 51:0.399136 52:0 53:0.290476 0:0 
0.00199064877112093 1:2.19296 2:1.40172 3:0.370541 4:0.311569 5:0.621524 6:0.199256 7:0.853973 8:0.366509 9:0.375914 10:0.239713 11:0.742854 12:0.87236 13:0.0799726 14:0.689662 15:2.72709 16:2.97644 17:0.467685 18:0.7988 19:0.107252 20:0.278519 21:0.386992 22:0.711198 23:1.08677 24:0.0338112 25:0.970829 26:3.15409 27:3.12255 28:0.174615 29:0.689963 30:0.107252 31:0.204654 32:0.523696 33:0.524181 34:1.02841 35:0.0614301 36:0.988134 37:3.28916 38:3.30674 39:0.174615 40:0.565032 41:0 42:0.278519 43:0.353256 44:0.524181 45:0.642191 46:0.185276 47:0.518833 48:3.82956 49:3.30674 50:0.553491 51:0.7988 52:0 53:0.278519 0:0 
0.001850898432429821 1:2.10973 2:1.40889 3:0.490173 4:0.431297 5:0.600619 6:0.218021 7:0.909088 8:0.451108 9:0.365894 10:0.474508 11:0.113314 12:0.566139 13:0.18062 14:0.863718 15:3.95924 16:3.60524 17:0 18:0.875886 19:0.280597 20:0.534817 21:0.22096 22:0.585371 23:0.78181 24:0.047647 25:0.836281 26:2.51169 27:2.67314 28:0.246444 29:0.857422 30:0.106491 31:0.502901 32:0.325889 33:0.629566 34:0.946936 35:0.03053 36:0.927162 37:2.75987 38:2.84235 39:0.246444 40:0.875886 41:0.106491 42:0.534817 43:0.358043 44:0.588672 45:0.93978 46:0.0300239 47:0.981898 48:3.05398 49:3.03214 50:0.183448 51:0.709286 52:0.120958 53:0.483422 0:0 
0.004187273520000523 1:2.1129 2:1.41872 3:0.419689 4:0.448433 5:0.594386 6:0.220778 7:0.951 8:0.463641 9:0.384581 10:0.535226 11:0.0466212 12:0.574189 13:0.17781 14:0.954692 15:3.96634 16:3.83633 17:0 18:0.879005 19:0.357467 20:0.577877 21:0.225831 22:0.583104 23:0.789424 24:0.0431121 25:0.855861 26:2.50404 27:2.64911 28:0.232354 29:0.877863 30:0.11061 31:0.550739 32:0.324097 33:0.615805 34:0.931424 35:0.0309642 36:0.923222 37:2.75134 38:2.83932 39:0.232354 40:0.879005 41:0.100485 42:0.577877 43:0.394285 44:0.57288 45:0.953395 46:0.0445238 47:0.966781 48:3.02874 49:2.98727 50:0.199288 51:0.734786 52:0.100485 53:0.53118 0:0 
0.002057372438096238 1:2.48513 2:1.74335 3:0.4561 4:0.826035 5:0.560452 6:0.221025 7:1.02534 8:0.458186 9:0.334036 10:0.213794 11:0.533547 12:0.741226 13:0.0257049 14:0.894396 15:2.51546 16:2.6292 17:0.236737 18:0.798724 19:0.111653 20:0.369667 21:0.324646 22:0.563024 23:0.884921 24:0.019011 25:0.959518 26:2.78209 27:2.83309 28:0.184751 29:0.781663 30:0.111653 31:0.327752 32:0.305684 33:0.5996 34:0.897895 35:0.0289897 36:0.936575 37:2.9899 38:3.06255 39:0.184751 40:0.675056 41:0.141972 42:0.294263 43:0.514743 44:0.345098 45:0.843211 46:0.0767693 47:0.877123 48:3.16214 49:3.39056 50:0.191524 51:0.515458 52:0 53:0.369667 0:0 
0.000127502620199631 1:1.60118 2:1.14649 3:0.394939 4:0.304668 5:0.621209 6:0.236882 7:0.923656 8:0.363579 9:0.348918 10:0.302443 11:0.413465 12:0.709017 13:0.0377597 14:0.888912 15:2.4375 16:2.58299 17:0.155981 18:0.862619 19:0.0774524 20:0.325658 21:0.305238 22:0.431947 23:0.733712 24:0.0259657 25:0.944249 26:2.71045 27:2.79282 28:0.155981 29:0.812137 30:0.0774524 31:0.306723 32:0.34848 33:0.402126 34:0.748123 35:0.0241069 36:0.992463 37:3.04102 38:3.05254 39:0.187599 40:0.709083 41:0.111388 42:0.234415 43:0.479817 44:0.207156 45:0.676441 46:0.0852718 47:0.861017 48:3.28641 49:3.57822 50:0.187599 51:0.549607 52:0 53:0.325658 0:0 
-0.002559203546096254 1:0.984564 2:0.547418 3:0.185997 4:0.921643 5:0.86366 6:0.389474 7:0.690451 8:0.217008 9:0.128343 10:0.118345 11:0.16537 12:0.282677 13:0.0230233 14:0.983829 15:1.86734 16:1.89255 17:0.381316 18:0.524213 19:0.344907 20:0.369588 21:0.13694 22:0.366294 23:0.444441 24:0.0890046 25:0.709272 26:3.10525 27:3.35269 28:0.234987 29:0.381316 30:0 31:0.369588 32:0.13362 33:0.366294 34:0.448035 35:0.0832909 36:0.714777 37:3.62849 38:3.35269 39:0.147664 40:0.524213 41:0 42:0.369588 43:0.124468 44:0.231137 45:0.323662 46:0.0972687 47:0.68695 48:3.9983 49:4.27772 50:0.147664 51:0.464431 52:0.258194 53:0.344907 0:0 
0.0008684201175223909 1:2.21691 2:1.41884 3:0.335833 4:0.246447 5:0.564377 6:0.1593 7:0.853213 8:0.678199 9:0.259057 10:0.0794778 11:0.408069 12:0.478646 13:0.026328 14:0.784353 15:1.86225 16:1.72217 17:0.544182 18:0.662848 19:0.354982 20:0.412914 21:0.281504 22:0.666865 23:0.946421 24:0.0132459 25:0.957472 26:2.39539 27:2.34868 28:0.194117 29:0.544182 30:0.128978 31:0.354982 32:0.3475 33:0.657072 34:0.997014 35:0.0283555 36:0.964263 37:2.60815 38:2.56567 39:0.194117 40:0.660987 41:0.121507 42:0.412914 43:0.347401 44:0.566705 45:0.903879 46:0.037235 47:0.876811 48:2.86329 49:2.70106 50:0.221225 51:0.662848 52:0 53:0.393089 0:0 
0.001399749262856786 1:2.21086 2:1.43136 3:0.418403 4:0.2301 5:0.569634 6:0.158753 7:0.874396 8:0.678228 9:0.30061 10:0.286131 11:0.61719 12:0.900245 13:0.0178688 14:0.957752 15:2.37127 16:2.41861 17:0.207956 18:0.520483 19:0.0913089 20:0.189388 21:0.336354 22:0.629038 23:0.961169 24:0.0217546 25:0.962357 26:2.60468 27:2.55969 28:0.207956 29:0.425306 30:0.0913089 31:0.1335 32:0.346881 33:0.525874 34:0.863207 35:0.0382086 36:0.891698 37:2.86118 38:2.71386 39:0.221586 40:0.384317 41:0 42:0.189388 43:0.233075 44:0.525874 45:0.689729 46:0.0878865 47:0.693095 48:3.05609 49:2.71386 50:0.221586 51:0.520483 52:0 53:0.189388 0:0 
0.001883517971313199 1:1.58337 2:1.15962 3:0.332949 4:0.472375 5:0.681167 6:0.195512 7:0.777431 8:0.33646 9:0.265434 10:0.0505848 11:0.149972 12:0.184258 13:0.0713661 14:0.687167 15:1.76198 16:1.5708 17:0.681826 18:0.728048 19:0.434182 20:0.438342 21:0.32717 22:0.486119 23:0.806424 24:0.033909 25:0.903633 26:2.59444 27:2.72337 28:0.213826 29:0.681826 30:0.113572 31:0.434182 32:0.342516 33:0.453989 34:0.793676 35:0.0233035 36:0.967246 37:2.9461 38:2.99451 39:0.213826 40:0.712289 41:0 42:0.438342 43:0.341463 44:0.453989 45:0.761951 46:0.0800396 47:0.877034 48:3.16264 49:2.99451 50:0.234489 51:0.728048 52:0 53:0.438342 0:0 
-0.0003756586695567175 1:1.06608 2:0.639497 3:0.195568 4:1.05345 5:0.836757 6:0.263695 7:0.78935 8:0.226842 9:0.206511 10:0.0962059 11:0.0883795 12:0.184472 13:0.0116352 14:0.998279 15:1.28274 16:1.27934 17:0.183995 18:0.672564 19:0 20:0.351842 21:0.206295 22:0.0883795 23:0.261876 24:0.239102 25:0.754155 26:1.83705 27:1.27934 28:0.183995 29:0.493483 30:0 31:0.351842 32:0.472417 33:0.299268 34:0.668671 35:0.213523 36:0.636568 37:2.74574 38:3.42764 39:0.493483 40:0.672564 41:0 42:0.351842 43:0.0511249 44:0.299268 45:0.331095 46:0.0404859 47:0.819864 48:3.55528 49:3.42764 50:0.402358 51:0.497563 52:0 53:0.351842 0:0 
0.001334586295028939 1:1.0358 2:0.700041 3:0.34457 4:0.283266 5:0.746603 6:0.327094 7:0.874364 8:0.572474 9:0.292993 10:0.322438 11:0.150135 12:0.46386 13:0.0901034 14:0.919244 15:2.32842 16:2.50221 17:0.264107 18:0.658442 19:0.106191 20:0.280126 21:0.379319 22:0.138671 23:0.500188 24:0.139919 25:0.822593 26:2.79771 27:3.2129 28:0.257214 29:0.592818 30:0.106191 31:0.189958 32:0.389652 33:0.188166 34:0.427223 35:0.365141 36:0.52552 37:3.4146 38:4.51107 39:0.257214 40:0.455578 41:0 42:0.280126 43:0.0805639 44:0.188166 45:0.261314 46:0.0485115 47:0.898642 48:4.59177 49:4.51107 50:0.419915 51:0.658442 52:0 53:0.280126 0:0 
0.002892364579153091 1:0.985211 2:0.613344 3:0.427323 4:0.197827 5:0.734107 6:0.385511 7:0.907197 8:0.588225 9:0.285419 10:0.320656 11:0.126292 12:0.439475 13:0.0933267 14:0.963309 15:2.28963 16:2.37374 17:0.244109 18:0.653706 19:0.0943984 20:0.285471 21:0.360631 22:0.107 23:0.454696 24:0.139244 25:0.854071 26:2.87355 27:3.23225 28:0.244109 29:0.5852 30:0.0943984 31:0.207916 32:0.380427 33:0.191537 34:0.381964 35:0.416695 36:0.458164 37:3.47905 38:4.73125 39:0.254655 40:0.447236 41:0 42:0.285471 43:0.0799606 44:0.191537 45:0.261644 46:0.0547446 47:0.938395 48:4.68383 49:4.73125 50:0.404258 51:0.653706 52:0 53:0.285471 0:0 
0.00513673708283907 1:1.1628 2:0.918666 3:0.18032 4:0.382729 5:0.777882 6:0.159981 7:0.746378 8:0.127447 9:0.121668 10:0.0602121 11:0.368193 12:0.337639 13:0.0468831 14:0.4136 15:3.74267 16:3.51366 17:0.0872094 18:0.31801 19:0.0408882 20:0.105786 21:0.17348 22:0.374788 23:0.523961 24:0.0637189 25:0.827609 26:2.95848 27:3.18157 28:0.195231 29:0.31801 30:0.105786 31:0.11257 32:0.199218 33:0.408453 34:0.59559 35:0.0441271 36:0.865258 37:3.28023 38:3.45721 39:0.195231 40:0.289968 41:0 42:0.11257 43:0.0537595 44:0.408453 45:0.422394 46:0.0398145 47:0.635687 48:3.60524 49:3.45721 50:0.0872094 51:0.289188 52:0 53:0.11257 0:0 
0.006497367847865894 1:1.74515 2:1.18255 3:0.206573 4:0.479032 5:0.546573 6:0.176896 7:0.776858 8:0.719492 9:0.270892 10:0.299727 11:0.530845 12:0.752723 13:0.101907 14:0.675098 15:1.51478 16:1.89677 17:0.207571 18:0.831187 19:0.106315 20:0.666451 21:0.348716 22:0.556553 23:0.844986 24:0.0912806 25:0.752921 26:1.77454 27:2.07911 28:0.207571 29:0.8933 30:0 31:0.676657 32:0.305692 33:0.556553 34:0.861911 35:0.00655644 36:0.979943 37:2.05527 38:2.07911 39:0.257371 40:0.863367 41:0 42:0.676657 43:0.129431 44:0.164061 45:0.161702 46:0.260079 47:0.425024 48:3.58144 49:4.16254 50:0.831187 51:0.8933 52:0.666451 53:0.676657 0:0 
0.0009881593038530952 1:1.73227 2:1.23364 3:0.28101 4:0.29936 5:0.608703 6:0.219282 7:0.873213 8:0.379083 9:0.294221 10:0.274975 11:0.467572 12:0.736878 13:0.030134 14:0.946003 15:3.38657 16:3.32269 17:0.175628 18:0.543063 19:0.121672 20:0.22622 21:0.322894 22:0.433766 23:0.753143 24:0.026476 25:0.950561 26:3.65444 27:3.5847 28:0.169448 29:0.429598 30:0.119173 31:0.121672 32:0.336783 33:0.357414 34:0.692838 35:0.0193345 36:0.990403 37:3.82607 38:3.81064 39:0.169448 40:0.321356 41:0 42:0.22622 43:0.242233 44:0.357414 45:0.536192 46:0.119547 47:0.705386 48:4.20753 49:3.81064 50:0.289588 51:0.543063 52:0 53:0.22622 0:0 
0.001609620955008022 1:1.71179 2:1.22443 3:0.295299 4:0.31843 5:0.601164 6:0.222852 7:0.878719 8:0.394286 9:0.276734 10:0.251405 11:0.368366 12:0.521451 13:0.146116 14:0.661099 15:4.31215 16:3.86378 17:0.289176 18:0.559792 19:0.110038 20:0.179578 21:0.287751 22:0.465366 23:0.745633 24:0.0352506 25:0.985418 26:3.49036 27:3.47227 28:0.170258 29:0.559792 30:0.0882501 31:0.179578 32:0.301691 33:0.451036 34:0.747495 35:0.0306805 36:0.955456 37:3.72497 38:3.66438 39:0.170258 40:0.443523 41:0 42:0.110038 43:0.266089 44:0.451036 45:0.683224 46:0.0746967 47:0.793579 48:3.93336 49:3.66438 50:0.183715 51:0.336153 52:0 53:0.110038 0:0 
-0.0002903090477319723 1:0.869674 2:0.433605 3:0.112447 4:0.292124 5:0.78994 6:0.600368 7:0.912871 8:0.195387 9:0.222767 10:0.167119 11:0.274138 12:0.246367 13:0.20539 14:0.48565 15:1.88284 16:2.54317 17:0.204037 18:0.420953 19:0 20:0.194861 21:0.0569265 22:0.274138 23:0.330613 24:0.00757056 25:0.923745 26:2.46293 27:2.54317 28:0.204037 29:0.411131 30:0 31:0.194861 32:0.358368 33:0.115611 34:0.339377 35:0.499535 36:0.433505 37:3.73635 38:2.23184 39:0.239549 40:0.417209 41:0 42:0.194861 43:0.308655 44:0.115611 45:0.220878 46:0.72456 47:0.274818 48:4.24874 49:2.23184 50:0.239549 51:0.420953 52:0 53:0.194861 0:0 
0.0003244956082034533 1:1.66365 2:1.1882 3:0.281418 4:0.345667 5:0.600998 6:0.236251 7:0.874382 8:0.418741 9:0.282985 10:0.258423 11:0.297252 12:0.497337 13:0.13644 14:0.697521 15:4.50043 16:4.03427 17:0.306224 18:0.561746 19:0.114572 20:0.255302 21:0.224074 22:0.476873 23:0.696757 24:0.0238244 25:0.97055 26:3.60127 27:3.56822 28:0.185851 29:0.561746 30:0.144617 31:0.255302 32:0.339653 33:0.374642 34:0.709951 35:0.0334348 36:0.972733 37:3.85877 38:3.81633 39:0.181575 40:0.441234 41:0 42:0.144617 43:0.309789 44:0.374642 45:0.661327 46:0.075247 47:0.826836 48:4.07456 49:3.81633 50:0.181575 51:0.345425 52:0 53:0.144617 0:0 
0.006408528252745972 1:1.61573 2:1.14761 3:0.258227 4:0.341788 5:0.596919 6:0.240575 7:0.895175 8:0.431355 9:0.30984 10:0.353123 11:0.300761 12:0.65263 13:0.0213692 14:0.946002 15:4.14047 16:4.04761 17:0 18:0.347013 19:0 20:0.217254 21:0.247543 22:0.300761 23:0.479799 24:0.144479 25:0.667277 26:4.54514 27:4.04761 28:0.301144 29:0.552747 30:0 31:0.217254 32:0.252044 33:0.432015 34:0.681175 35:0.0223121 36:0.959674 37:3.62943 38:3.57822 39:0.176525 40:0.552747 41:0.145671 42:0.217254 43:0.358519 44:0.332052 45:0.688175 46:0.027569 47:0.991034 48:3.85792 49:3.87299 50:0.176525 51:0.434995 52:0 53:0.145671 0:0 
0.002266935237560393 1:1.55919 2:1.11443 3:0.265423 4:0.347618 5:0.612707 6:0.250282 7:0.899121 8:0.428151 9:0.292155 10:0.248563 11:0.252584 12:0.463324 13:0.123411 14:0.742161 15:4.60751 16:4.18066 17:0.267842 18:0.565639 19:0.105209 20:0.269262 21:0.220467 22:0.438168 23:0.656014 24:0.0201275 25:0.99439 26:3.60524 27:3.612 28:0.193202 29:0.565639 30:0.169 31:0.269262 32:0.372444 33:0.30057 34:0.67082 35:0.0286227 36:0.989415 37:3.90102 38:3.88224 39:0.193202 40:0.443914 41:0 42:0.169 43:0.327145 44:0.30057 45:0.602365 46:0.0948084 47:0.827448 48:4.17712 49:3.88224 50:0.209138 51:0.376402 52:0 53:0.169 0:0 
-0.0002350840507601217 1:0.873902 2:0.428327 3:0.119775 4:0.259655 5:0.829507 6:0.540297 7:0.845414 8:0.192137 9:0.18423 10:0.0623297 11:0.325964 12:0.318271 13:0.0612207 14:0.455141 15:2.48279 16:2.87763 17:0.109701 18:0.411785 19:0.0629845 20:0.215842 21:0.0718273 22:0.3026 23:0.367633 24:0.0291113 25:0.91008 26:2.99374 27:3.08106 28:0.109701 29:0.399399 30:0.0629845 31:0.214495 32:0.293317 33:0.136351 34:0.314299 35:0.380844 36:0.486881 37:3.73635 38:2.49809 39:0.210271 40:0.273723 41:0 42:0.215842 43:0.309447 44:0.136351 45:0.228975 46:0.629653 47:0.311069 48:4.28819 49:2.49809 50:0.230046 51:0.411785 52:0 53:0.215842 0:0 
0.002624796569362623 1:1.473 2:1.07726 3:0.236757 4:0.35583 5:0.604953 6:0.24305 7:0.923654 8:0.410283 9:0.31893 10:0.313353 11:0.33889 12:0.649746 13:0.0267864 14:0.963137 15:3.53783 16:3.48089 17:0.182182 18:0.551548 19:0.10218 20:0.209806 21:0.375507 22:0.325023 23:0.697241 24:0.0331743 25:0.987468 26:3.81356 27:3.79267 28:0.182182 29:0.455918 30:0.10218 31:0.120671 32:0.335434 33:0.273639 34:0.605334 35:0.0390888 36:0.946185 37:4.05908 38:4.15622 39:0.234505 40:0.364485 41:0 42:0.209806 43:0.251425 44:0.273639 45:0.4931 46:0.106813 47:0.78695 48:4.49372 49:4.15622 50:0.252582 51:0.551548 52:0 53:0.209806 0:0 
4.587018953735703e-05 1:1.42554 2:1.03309 3:0.264237 4:0.405137 5:0.556083 6:0.258878 7:0.913531 8:0.404832 9:0.310492 10:0.229469 11:0.351684 12:0.577061 13:0.0304946 14:0.984216 15:2.41861 16:2.39727 17:0.699719 18:0.814786 19:0.388061 20:0.418072 21:0.38013 22:0.381723 23:0.758616 24:0.0292872 25:0.985131 26:3.50036 27:3.47905 28:0.205773 29:0.699719 30:0.09794 31:0.388061 32:0.388275 33:0.330668 34:0.718277 35:0.0148487 36:0.953069 37:3.80756 38:3.7296 39:0.205773 40:0.814786 41:0 42:0.418072 43:0.244092 44:0.330668 45:0.520684 46:0.118214 47:0.735757 48:4.09073 49:3.7296 50:0.285438 51:0.805411 52:0 53:0.418072 0:0 
0.001763824833269784 1:1.44011 2:1.02931 3:0.2799 4:0.404198 5:0.549794 6:0.268278 7:0.930411 8:0.414098 9:0.307935 10:0.308836 11:0.342246 12:0.647044 13:0.0336843 14:0.924093 15:4.00376 16:3.88592 17:0 18:0.804719 19:0 20:0.338908 21:0.25473 22:0.342246 23:0.529782 24:0.129762 25:0.697343 26:4.29788 27:3.88592 28:0.216147 29:0.824317 30:0 31:0.338908 32:0.284017 33:0.293664 34:0.561621 35:0.0739632 36:0.836323 37:2.49809 38:2.74208 39:0.553443 40:0.824317 41:0.23308 42:0.338908 43:0.328867 44:0.381568 45:0.709457 46:0.0155124 47:0.976328 48:3.41604 49:3.38244 50:0.161277 51:0.553443 52:0.092379 53:0.23308 0:0 
-0.0006527417237506467 1:0.853691 2:0.406756 3:0.117472 4:0.261975 5:0.826577 6:0.664684 7:0.843781 8:0.207648 9:0.214762 10:0.0693839 11:0.196909 12:0.245278 13:0.0722051 14:0.775411 15:1.87368 16:2.11122 17:0.212863 18:0.451238 19:0 20:0.103277 21:0.167951 22:0.196909 23:0.299522 24:0.176523 25:0.721869 26:2.50327 27:2.11122 28:0.212863 29:0.421061 30:0 31:0.103277 32:0.311038 33:0.0943918 34:0.300344 35:0.486685 36:0.471142 37:3.76479 38:2.35619 39:0.245455 40:0.413503 41:0 42:0.103277 43:0.310673 44:0.0943918 45:0.237322 46:0.746064 47:0.273829 48:4.41815 49:2.35619 50:0.245455 51:0.451238 52:0 53:0.103277 0:0 
-0.0003854010044274229 1:0.884698 2:0.43285 3:0.127641 4:0.308212 5:0.83665 6:0.598976 7:0.880014 8:0.201563 9:0.187156 10:0.0722723 11:0.206124 12:0.241533 13:0.090182 14:0.690723 15:1.9797 16:2.29744 17:0.296835 18:0.426022 19:0.104911 20:0.227845 21:0.0600763 22:0.308499 23:0.351907 24:0.0401494 25:0.864975 26:3.05485 27:3.171 28:0.188527 29:0.382416 30:0.131944 31:0.227845 32:0.252266 33:0.257197 34:0.326021 35:0.275281 36:0.428229 37:3.73635 38:2.64517 39:0.188527 40:0.394569 41:0 42:0.131944 43:0.364011 44:0.257197 45:0.234196 46:0.530447 47:0.265671 48:4.32651 49:2.64517 50:0.239048 51:0.426022 52:0 53:0.131944 0:0 
0.003579820084597947 1:1.30313 2:0.913834 3:0.224339 4:0.417579 5:0.586766 6:0.321273 7:0.911187 8:0.500647 9:0.314109 10:0.361155 11:0.281297 12:0.640404 13:0.0288055 14:0.952654 15:4.65061 16:4.73677 17:0.216858 18:0.881951 19:0 20:0.387472 21:0.255548 22:0.281297 23:0.52129 24:0.0731414 25:0.860178 26:4.94793 27:4.73677 28:0.216858 29:0.868355 30:0 31:0.387472 32:0.295684 33:0.259868 34:0.546904 35:0.0600273 36:0.947382 37:2.93354 38:3.0231 39:0.577755 40:0.881951 41:0.269027 42:0.387472 43:0.3108 44:0.325076 45:0.635739 46:0.00646628 47:0.986926 48:3.94768 49:3.92699 50:0.223003 51:0.577755 52:0.137956 53:0.269027 0:0 
0.001428705550063562 1:1.30401 2:0.925507 3:0.220649 4:0.413155 5:0.572086 6:0.315336 7:0.922345 8:0.503738 9:0.318768 10:0.267394 11:0.27801 12:0.526678 13:0.0820019 14:0.829719 15:4.90978 16:4.64108 17:0.218515 18:0.880785 19:0.092194 20:0.405034 21:0.285861 22:0.274609 23:0.554973 24:0.0455271 25:0.984448 26:2.90988 27:2.93527 28:0.563761 29:0.880785 30:0.286007 31:0.405034 32:0.333877 33:0.314351 34:0.647857 35:0.0111058 36:0.996114 37:3.89299 38:3.89922 39:0.22685 40:0.574948 41:0.135382 42:0.286007 43:0.368945 44:0.314285 45:0.678454 46:0.040817 47:0.913814 48:4.20256 49:4.34664 50:0.22685 51:0.749493 52:0 53:0.383029 0:0 
-0.001017309634801257 1:1.92848 2:1.12826 3:0.532087 4:0.678531 5:0.75 6:0.417895 7:1.03117 8:0.513093 9:0.404867 10:0.721871 11:0.309636 12:0.523513 13:0.654396 14:0.275182 15:1.92771 16:3.79729 17:0.753523 18:1.34097 19:0 20:0.614717 21:0.487483 22:0.309636 23:0.675988 24:0.228636 25:0.617237 26:3.03094 27:3.79729 28:0.380428 29:0.776129 30:0 31:0.614717 32:0.279197 33:0.918772 34:0.850667 35:0.0978741 36:0.425597 37:3.53393 38:3.83898 39:0.380428 40:1.0823 41:0.287452 42:0.613071 43:0.130919 44:0.890179 45:0.947363 46:0.0408494 47:0.730361 48:4.11061 49:4.23367 50:0.451353 51:1.34097 52:0.287452 53:0.614717 0:0 
0.0009574945578181109 1:1.40176 2:1.03196 3:0.426573 4:0.422293 5:0.563587 6:0.242371 7:0.896022 8:0.435332 9:0.361936 10:0.408892 11:0.24332 12:0.561952 13:0.22526 14:0.670561 15:1.90322 16:2.50268 17:0.492469 18:0.891201 19:0.167456 20:0.257769 21:0.338131 22:0.37146 23:0.678383 24:0.0902704 25:0.89485 26:2.76822 27:2.90861 28:0.288465 29:0.570065 30:0.115579 31:0.167456 32:0.389771 33:0.407233 34:0.774965 35:0.0733719 36:0.914857 37:3.04864 38:3.17283 39:0.288465 40:0.758183 41:0 42:0.257769 43:0.310952 44:0.407233 45:0.626828 46:0.139824 47:0.6425 48:3.69709 49:3.17283 50:0.390879 51:0.891201 52:0 53:0.257769 0:0 
0.004293503861104835 1:0.99114 2:0.738815 3:0.117337 4:0.405612 5:0.676893 6:0.28718 7:0.840069 8:0.250415 9:0.130156 10:0.0722379 11:0.331108 12:0.345306 13:0.0667993 14:0.568378 15:2.71497 16:2.92678 17:0.209809 18:0.377486 19:0.0431935 20:0.259619 21:0.161157 22:0.316355 23:0.473132 24:0.0307163 25:0.886774 26:3.12909 27:3.01268 28:0.130103 29:0.390245 30:0.0431935 31:0.228572 32:0.166199 33:0.231931 34:0.396334 35:0.0255919 36:0.977125 37:3.38335 38:3.4165 39:0.12741 40:0.272374 41:0.0996021 42:0.174738 43:0.161065 44:0.171761 45:0.323708 46:0.0722703 47:0.858357 48:3.63553 49:3.84025 50:0.12741 51:0.306854 52:0 53:0.259619 0:0 
0.003725583129566879 1:0.830412 2:0.522955 3:0.0846567 4:0.187065 5:0.604909 6:0.324879 7:1.1182 8:0.344789 9:0.326716 10:0.270891 11:0.106337 12:0.35252 13:0.188574 14:0.76401 15:1.51026 16:0.968509 17:0.235267 18:0.554527 19:0.115842 20:0.220928 21:0.32949 22:0.0384993 23:0.364412 24:0.131054 25:0.826664 26:2.13864 27:2.62245 28:0.235267 29:0.385708 30:0.103881 31:0.16321 32:0.384621 33:0.101875 34:0.410418 35:0.379571 36:0.542347 37:2.7782 38:3.96401 39:0.157919 40:0.464908 41:0 42:0.207436 43:0.335791 44:0.101875 45:0.395472 46:0.26611 47:0.653922 48:3.11382 49:3.96401 50:0.11982 51:0.554527 52:0 53:0.207436 0:0 
0.003127840649310868 1:0.991266 2:0.601994 3:0.134505 4:0.314109 5:0.571877 6:0.376275 7:1.04138 8:0.485364 9:0.360768 10:0.254276 11:0.212811 12:0.464278 13:0.0381825 14:0.964523 15:1.33762 16:1.40102 17:0.224186 18:0.888589 19:0.114927 20:0.344911 21:0.338422 22:0.186625 23:0.518789 24:0.0663955 25:0.890684 26:1.75548 27:1.9797 28:0.224186 29:0.866801 30:0.101786 31:0.293122 32:0.398525 33:0.140387 34:0.531525 35:0.089288 36:0.87986 37:2.23909 38:2.5128 39:0.188172 40:0.738066 41:0.101786 42:0.206038 43:0.466133 44:0.149809 45:0.449207 46:0.483557 47:0.468179 48:2.59074 49:3.90261 50:0.188172 51:0.564681 52:0 53:0.344911 0:0 
0.001183551197717684 1:1.02486 2:0.623551 3:0.147742 4:0.347502 5:0.596251 6:0.384781 7:0.985505 8:0.526868 9:0.381311 10:0.340885 11:0.213597 12:0.551664 13:0.0405861 14:0.928752 15:1.53988 16:1.67849 17:0.248032 18:0.893253 19:0.124874 20:0.351384 21:0.370039 22:0.158826 23:0.519167 24:0.0936342 25:0.884672 26:2.02973 27:2.28315 28:0.176233 29:0.753707 30:0.124874 31:0.250002 32:0.503362 33:0.181769 34:0.458743 35:0.518884 36:0.427041 37:2.34793 38:3.77267 39:0.176233 40:0.607763 41:0 42:0.351384 43:0.310957 44:0.181769 45:0.484743 46:0.0752476 47:0.921406 48:3.62154 49:3.77267 50:0.607763 51:0.893253 52:0 53:0.351384 0:0 
0.003293868271399044 1:1.19067 2:0.858408 3:0.182297 4:0.375717 5:0.527556 6:0.269991 7:0.967732 8:0.663621 9:0.364482 10:0.269575 11:0.272074 12:0.52885 13:0.0690083 14:0.85783 15:1.14841 16:1.3816 17:0.219642 18:0.88858 19:0.135913 20:0.308799 21:0.335386 22:0.331864 23:0.638763 24:0.0938561 25:0.801256 26:1.49201 27:1.81164 28:0.219642 29:0.892245 30:0.110647 31:0.287009 32:0.393641 33:0.288776 34:0.665481 35:0.0831746 36:0.85957 37:1.87668 38:2.1274 39:0.214611 40:0.779164 41:0.110647 42:0.20304 43:0.449066 44:0.193128 45:0.585248 46:0.211067 47:0.690849 48:2.19754 49:2.85982 50:0.214611 51:0.592274 52:0 53:0.308799 0:0 
0.0009778164813445975 1:1.35194 2:0.986892 3:0.389643 4:0.355734 5:0.642136 6:0.26509 7:0.899374 8:0.426196 9:0.312839 10:0.258633 11:0.275854 12:0.514288 13:0.0849328 14:0.861606 15:2.23735 16:2.46029 17:0.203492 18:0.846837 19:0.115306 20:0.383227 21:0.30564 22:0.310918 23:0.590059 24:0.0928404 25:0.856199 26:2.6168 27:2.85554 28:0.203492 29:0.810215 30:0.115306 31:0.351181 32:0.207173 33:0.440698 34:0.63283 35:0.0467554 36:0.88013 37:2.96745 38:3.09995 39:0.152342 40:0.679055 41:0.158796 42:0.41041 43:0.509772 44:0.212629 45:0.570733 46:0.348685 47:0.541644 48:3.21079 49:4.31531 50:0.152342 51:0.565027 52:0 53:0.41041 0:0 
0.003291633177540756 1:1.55907 2:1.12571 3:0.377353 4:0.493574 5:0.688407 6:0.226824 7:0.834406 8:0.287674 9:0.286977 10:0.227676 11:0.383192 12:0.57413 13:0.084406 14:0.799221 15:2.7367 16:3.00188 17:0.253095 18:0.631842 19:0.0885663 20:0.435476 21:0.329695 22:0.419468 23:0.730792 24:0.062488 25:0.892845 26:3.03544 27:3.18504 28:0.253095 29:0.680051 30:0.0885663 31:0.419258 32:0.18083 33:0.623965 34:0.784713 35:0.0376977 36:0.816323 37:3.2438 38:3.38657 39:0.161642 40:0.630029 41:0.256925 42:0.53088 43:0.606562 44:0.249924 45:0.730721 46:0.284858 47:0.485517 48:3.46631 49:4.688 50:0.161642 51:0.556604 52:0 53:0.53088 0:0 
0.001057785335898859 1:1.62967 2:1.16766 3:0.324789 4:0.520746 5:0.681227 6:0.213614 7:0.798469 8:0.289805 9:0.172391 10:0.15896 11:0.524345 12:0.625244 13:0.0684174 14:0.811738 15:2.84761 16:3.01138 17:0.273571 18:0.526858 19:0.142206 20:0.33649 21:0.314139 22:0.47548 23:0.771749 24:0.0549481 25:0.875603 26:3.11035 27:3.27414 28:0.245684 29:0.331415 30:0.142206 31:0.254106 32:0.141899 33:0.679954 34:0.802473 35:0.0308598 36:0.774399 37:3.29424 38:3.4501 39:0.120577 40:0.48254 41:0 42:0.33649 43:0.074567 44:0.679954 45:0.741609 46:0.0188031 47:0.887784 48:3.48715 49:3.4501 50:0.120577 51:0.526858 52:0 53:0.33649 0:0 
0.0004718930164538699 1:1.68486 2:1.23706 3:0.46256 4:0.381279 5:0.598541 6:0.198672 7:0.878572 8:0.30809 9:0.263295 10:0.230315 11:0.356112 12:0.527 13:0.114065 14:0.69578 15:2.68255 16:3.07819 17:0.20322 18:0.500438 19:0.0540652 20:0.203231 21:0.298006 22:0.396227 23:0.658222 24:0.0888003 25:0.820582 26:2.90255 27:3.15588 28:0.19054 29:0.362628 30:0.0540652 31:0.152614 32:0.279015 33:0.484454 34:0.706335 35:0.0923773 36:0.756772 37:3.11779 38:3.38657 39:0.18638 40:0.366757 41:0 42:0.203231 43:0.245844 44:0.484454 45:0.708389 46:0.0551946 47:0.938759 48:3.32793 49:3.38657 50:0.18638 51:0.500438 52:0 53:0.203231 0:0 
0.003126368316283207 1:1.48787 2:1.06505 3:0.432471 4:0.449446 5:0.572634 6:0.234916 7:0.984205 8:0.389624 9:0.293067 10:0.24308 11:0.247368 12:0.428333 13:0.160396 14:0.691848 15:1.96071 16:2.49809 17:0.2321 18:0.51206 19:0.113018 20:0.189774 21:0.332037 22:0.318042 23:0.581766 24:0.15069 25:0.686707 26:2.29505 27:2.83759 28:0.181093 29:0.366378 30:0.0847515 31:0.113018 32:0.334477 33:0.352511 34:0.627326 35:0.129957 36:0.751257 37:2.65872 38:3.0739 39:0.181093 40:0.380906 41:0 42:0.189774 43:0.262673 44:0.352511 45:0.611082 46:0.0317248 47:0.919131 48:2.94931 49:3.0739 50:0.216994 51:0.51206 52:0 53:0.189774 0:0 
0.002224879874510631 1:1.41478 2:0.979197 3:0.440641 4:0.470594 5:0.567392 6:0.281358 7:0.987647 8:0.447205 9:0.372262 10:0.236681 11:0.196555 12:0.401981 13:0.134105 14:0.770119 15:1.35073 16:1.77384 17:0 18:0.892132 19:0.1208 20:0.415824 21:0.299804 22:0.255186 23:0.504135 24:0.149627 25:0.759739 26:1.80003 27:2.2381 28:0.219481 29:0.896856 30:0.1208 31:0.501651 32:0.339277 33:0.283615 34:0.570688 35:0.144302 36:0.763463 37:2.28048 38:2.70624 39:0.223669 40:0.79415 41:0.122347 42:0.531065 43:0.468855 44:0.265906 45:0.563422 46:0.310121 47:0.619294 48:2.69511 49:3.50877 50:0.223669 51:0.609172 52:0 53:0.433257 0:0 
0.002703850202478758 1:1.38575 2:0.95924 3:0.377121 4:0.452473 5:0.554004 6:0.288101 7:0.962715 8:0.456798 9:0.380879 10:0.311943 11:0.249428 12:0.504821 13:0.16243 14:0.744627 15:1.74484 16:2.21913 17:0.222006 18:0.889386 19:0.100019 20:0.399093 21:0.341045 22:0.277917 23:0.581962 24:0.123044 25:0.776053 26:2.19672 27:2.60117 28:0.204493 29:0.780469 30:0.100019 31:0.431334 32:0.422573 33:0.247193 34:0.553065 35:0.258009 36:0.636516 37:2.57486 38:3.32554 39:0.204493 40:0.598793 41:0 42:0.364058 43:0.362229 44:0.247193 45:0.585476 46:0.1089 47:0.902944 48:3.49304 49:3.32554 50:0.598793 51:0.889386 52:0 53:0.364058 0:0 
0.0006995544522447003 1:1.33902 2:0.910533 3:0.457593 4:0.420815 5:0.560037 6:0.324352 7:0.965539 8:0.49783 9:0.336656 10:0.18965 11:0.245394 12:0.422333 13:0.0676227 14:0.871384 15:1.19484 16:1.38685 17:0.209094 18:0.886757 19:0.142495 20:0.344991 21:0.318985 22:0.228953 23:0.511887 24:0.138047 25:0.778232 26:1.52915 27:1.95595 28:0.209094 29:0.901076 30:0.133901 31:0.243326 32:0.365932 33:0.250728 34:0.556652 35:0.173209 36:0.735821 37:1.97312 38:2.48875 39:0.236334 40:0.799533 41:0.133901 42:0.270463 43:0.420117 44:0.204683 45:0.545606 46:0.239446 47:0.643817 48:2.37777 49:3.14159 50:0.236334 51:0.610113 52:0 53:0.344991 0:0 
0.001708466301333292 1:1.3178 2:0.904007 3:0.375122 4:0.420916 5:0.55755 6:0.32377 7:0.935224 8:0.507216 9:0.37439 10:0.320448 11:0.231604 12:0.510631 13:0.147159 14:0.771681 15:1.40565 16:1.84571 17:0.245813 18:0.918592 19:0.110841 20:0.221491 21:0.349347 22:0.238133 23:0.540682 24:0.156514 25:0.782341 26:1.85459 27:2.28489 28:0.243195 29:0.816289 30:0.110841 31:0.138794 32:0.408754 33:0.190546 34:0.542109 35:0.210329 36:0.648194 37:2.26819 38:3.01077 39:0.243195 40:0.631261 41:0 42:0.221491 43:0.419012 44:0.190546 45:0.5678 46:0.178804 47:0.800166 48:3.41307 49:3.01077 50:0.631261 51:0.918592 52:0 53:0.221491 0:0 
-0.00614204776115236 1:0.883601 2:0.427057 3:0.135584 4:0.244699 5:0.872475 6:0.654371 7:0.814601 8:0.205235 9:0.199913 10:0.268222 11:0.134435 12:0.23799 13:0.486222 14:0.376371 15:1.85335 16:3.32694 17:0.24393 18:0.43179 19:0 20:0.102846 21:0.26495 22:0.134435 23:0.345822 24:0.241563 25:0.628169 26:2.52693 27:3.32694 28:0.24393 29:0.408839 30:0 31:0.102846 32:0.101901 33:0.236059 34:0.335757 35:0.0238338 36:0.938499 37:3.61544 38:3.53638 39:0.229219 40:0.401663 41:0 42:0.102846 43:0.164577 44:0.236059 45:0.255188 46:0.216123 47:0.554531 48:4.17658 49:3.53638 50:0.229219 51:0.43179 52:0 53:0.102846 0:0 
0.001488331078234045 1:1.28977 2:0.875593 3:0.272898 4:0.389859 5:0.566088 6:0.337301 7:0.913495 8:0.525699 9:0.373213 10:0.305115 11:0.235404 12:0.521212 13:0.0974453 14:0.833976 15:1.35759 16:1.66575 17:0.234195 18:0.924867 19:0.128069 20:0.308135 21:0.361269 22:0.211442 23:0.538104 24:0.146904 25:0.768436 26:1.75245 27:2.22488 28:0.208001 29:0.819747 30:0.128069 31:0.20329 32:0.459954 33:0.198595 34:0.513292 35:0.352109 36:0.551042 37:2.17897 38:3.16659 39:0.208001 40:0.648652 41:0 42:0.308135 43:0.366516 44:0.198595 45:0.559617 46:0.0604566 47:0.892555 48:3.37211 49:3.16659 50:0.648652 51:0.924867 52:0 53:0.308135 0:0 
0.0001925483266295604 1:1.29507 2:0.880018 3:0.240348 4:0.387331 5:0.565106 6:0.338303 7:0.915632 8:0.528848 9:0.378809 10:0.30874 11:0.231584 12:0.519232 13:0.103409 14:0.827721 15:1.36746 16:1.69215 17:0.232254 18:0.919292 19:0.14042 20:0.306066 21:0.363603 22:0.233892 23:0.545035 24:0.169734 25:0.730032 26:1.75065 27:2.28734 28:0.206439 29:0.826152 30:0.14042 31:0.207463 32:0.478884 33:0.203392 34:0.528087 35:0.360901 36:0.545234 37:2.15315 38:3.16659 39:0.206439 40:0.664336 41:0 42:0.306066 43:0.364008 44:0.203392 45:0.562578 46:0.0556407 47:0.89738 48:3.36242 49:3.16659 50:0.664336 51:0.919292 52:0 53:0.306066 0:0 
-0.0003747820978928693 1:0.902328 2:0.437586 3:0.135144 4:0.263452 5:0.884568 6:0.57955 7:0.676009 8:0.198487 9:0.13616 10:0.185393 11:0.197784 12:0.318183 13:0.181322 14:0.713779 15:2.40878 16:1.99742 17:0.135708 18:0.427751 19:0.255804 20:0.294322 21:0.101829 22:0.298562 23:0.390256 24:0.041329 25:0.907739 26:2.95624 27:3.05093 28:0.135708 29:0.424799 30:0.167296 31:0.255804 32:0.0916567 33:0.215878 34:0.303051 35:0.0352589 36:0.983387 37:3.68201 38:3.66074 39:0.220811 40:0.276878 41:0 42:0.294322 43:0.165761 44:0.215878 45:0.235457 46:0.23789 47:0.54413 48:4.32651 49:3.66074 50:0.232246 51:0.427751 52:0 53:0.294322 0:0 
0.0007697090521663081 1:1.34732 2:0.929284 3:0.431217 4:0.362424 5:0.565505 6:0.319637 7:0.954533 8:0.510144 9:0.340932 10:0.222919 11:0.227204 12:0.437064 13:0.0761193 14:0.850439 15:1.19928 16:1.44644 17:0.21769 18:0.883805 19:0.11982 20:0.377543 21:0.318632 22:0.233012 23:0.524954 24:0.116838 25:0.788471 26:1.5193 27:1.92379 28:0.212931 29:0.88277 30:0.106984 31:0.313966 32:0.346277 33:0.254439 34:0.56252 35:0.134003 36:0.805432 37:1.96034 38:2.32395 39:0.212931 40:0.787821 41:0.106984 42:0.247377 43:0.488478 44:0.234102 45:0.557228 46:0.338595 47:0.562168 48:2.32803 49:3.2869 50:0.231258 51:0.606653 52:0 53:0.377543 0:0 
-0.00109256307114066 1:0.904306 2:0.442672 3:0.139936 4:0.264268 5:0.832895 6:0.593459 7:0.862903 8:0.214085 9:0.192221 10:0.0774036 11:0.221187 12:0.25894 13:0.0901765 14:0.693939 15:1.82957 16:2.13753 17:0.221955 18:0.455332 19:0 20:0.229537 21:0.164847 22:0.221187 23:0.333087 24:0.143159 25:0.771449 26:2.42505 27:2.13753 28:0.101777 29:0.425952 30:0 31:0.229537 32:0.0619564 33:0.32071 34:0.374124 35:0.0288588 36:0.897584 37:2.91169 38:2.9997 39:0.101777 40:0.404136 41:0.133881 42:0.229537 43:0.275257 44:0.262752 45:0.330572 46:0.298998 47:0.402948 48:3.66967 49:2.4837 50:0.215679 51:0.420814 52:0 53:0.133881 0:0 
0.003018959580611508 1:1.44596 2:1.09166 3:0.214962 4:0.24426 5:0.519443 6:0.206231 7:0.850738 8:0.459686 9:0.247121 10:0.363997 11:0.263557 12:0.483953 13:0.265852 14:0.600201 15:1.54699 16:2.26272 17:0.606905 18:0.799688 19:0.168674 20:0.269352 21:0.303649 22:0.416954 23:0.714663 24:0.0348687 25:0.993172 26:2.57486 27:2.56583 28:0.205907 29:0.606905 30:0.128671 31:0.231757 32:0.210947 33:0.412613 34:0.610538 35:0.0463173 36:0.912607 37:2.80765 38:2.90376 39:0.193393 40:0.64528 41:0.112846 42:0.226295 43:0.172018 44:0.377558 45:0.544378 46:0.0294751 47:0.911266 48:3.11002 49:3.205 50:0.193393 51:0.699174 52:0 53:0.269352 0:0 
0.001573907914867882 1:1.55753 2:1.16512 3:0.334015 4:0.252296 5:0.539438 6:0.231606 7:0.939508 8:0.838812 9:0.408098 10:0.314834 11:0.328591 12:0.627776 13:0.068834 14:0.881242 15:1.34332 16:1.53445 17:0.233698 18:1.53973 19:0.119697 20:0.481877 21:0.335559 22:0.364608 23:0.685775 24:0.0619828 25:0.867534 26:1.64566 27:1.86064 28:0.204771 29:1.64114 30:0.103252 31:0.522902 32:0.340878 33:0.328323 34:0.659393 35:0.0556064 36:0.907154 37:2.01894 38:2.17403 39:0.204771 40:1.61613 41:0 42:0.481821 43:0.246723 44:0.328323 45:0.555932 46:0.0710899 47:0.845603 48:2.39903 49:2.17403 50:0.260794 51:1.46612 52:0 53:0.481821 0:0 
0.00224726975347114 1:1.57894 2:1.18927 3:0.388798 4:0.257136 5:0.55557 6:0.23149 7:0.915903 8:0.848259 9:0.419419 10:0.326193 11:0.321344 12:0.629906 13:0.0750192 14:0.872769 15:1.34332 16:1.55228 17:0.223756 18:1.57638 19:0.118762 20:0.465834 21:0.338495 22:0.365028 23:0.684776 24:0.0708698 25:0.857632 26:1.62906 27:1.86064 28:0.211866 29:1.66886 30:0.103734 31:0.513601 32:0.342467 33:0.328989 34:0.659236 35:0.0620721 36:0.89587 37:1.99957 38:2.17403 39:0.211866 40:1.64124 41:0 42:0.472527 43:0.249544 44:0.328989 45:0.562875 46:0.0644652 47:0.866308 48:2.37028 49:2.17403 50:0.258274 51:1.49252 52:0 53:0.472527 0:0 
0.00246782497337247 1:1.54178 2:1.15788 3:0.276617 4:0.265699 5:0.548112 6:0.232708 7:0.917013 8:0.838894 9:0.417747 10:0.327573 11:0.310245 12:0.622554 13:0.071733 14:0.87076 15:1.29499 16:1.51317 17:0.210661 18:1.56661 19:0.103464 20:0.467275 21:0.338302 22:0.349648 23:0.674389 24:0.0622574 25:0.89702 26:1.61314 27:1.78189 28:0.210661 29:1.65896 30:0.103464 31:0.510012 32:0.346926 33:0.324565 34:0.655679 35:0.0715973 36:0.87042 37:1.96425 38:2.18457 39:0.223902 40:1.64238 41:0 42:0.476496 43:0.244604 44:0.324565 45:0.556362 46:0.0585917 47:0.873177 48:2.37048 49:2.18457 50:0.264214 51:1.49202 52:0 53:0.476496 0:0 
0.0004505953825333441 1:1.56801 2:1.17512 3:0.360595 4:0.281806 5:0.551749 6:0.236393 7:0.92988 8:0.842037 9:0.410433 10:0.324355 11:0.315578 12:0.627255 13:0.0643542 14:0.893007 15:1.31712 16:1.49547 17:0.208718 18:1.52173 19:0.119639 20:0.473585 21:0.345672 22:0.352001 23:0.678818 24:0.0734903 25:0.876854 26:1.61279 27:1.81577 28:0.208718 29:1.61527 30:0.117309 31:0.514375 32:0.350441 33:0.32408 34:0.657812 35:0.0738751 36:0.881381 37:1.98371 38:2.18457 39:0.226384 40:1.59952 41:0 42:0.478304 43:0.249008 44:0.32408 45:0.562486 46:0.053658 47:0.884365 48:2.35619 49:2.18457 50:0.258884 51:1.45857 52:0 53:0.478304 0:0 
0.006908446377017379 1:1.532 2:1.15031 3:0.359454 4:0.299709 5:0.536107 6:0.224993 7:0.931538 8:0.829411 9:0.309335 10:0.316508 11:0.333657 12:0.639801 13:0.055416 14:0.90669 15:1.40275 16:1.55294 17:0.221433 18:0.557658 19:0.131458 20:0.198151 21:0.328384 22:0.380733 23:0.697453 24:0.0536473 25:0.855664 26:1.65258 27:1.88234 28:0.16811 29:0.416033 30:0.102442 31:0.131458 32:0.341465 33:0.334254 34:0.664239 35:0.0593986 36:0.888182 37:1.99248 38:2.1786 39:0.16811 40:0.359906 41:0 42:0.198151 43:0.250983 44:0.334254 45:0.566576 46:0.0696017 47:0.86549 48:2.37028 49:2.1786 50:0.260865 51:0.557658 52:0 53:0.198151 0:0 
0.003064554905298596 1:1.54182 2:1.17162 3:0.411521 4:0.328862 5:0.561836 6:0.213438 7:0.897791 8:0.807377 9:0.263221 10:0.20382 11:0.467041 12:0.663245 13:0.031583 14:0.857047 15:1.59688 16:1.75778 17:0.117501 18:0.47575 19:0.137768 20:0.266065 21:0.222581 22:0.54036 23:0.735592 24:0.0540341 25:0.799726 26:1.78688 27:1.99365 28:0.117501 29:0.459531 30:0.137768 31:0.271162 32:0.36958 33:0.316712 34:0.663179 35:0.0896453 36:0.837739 37:2.10519 38:2.3825 39:0.201023 40:0.265901 41:0 42:0.271162 43:0.256902 44:0.316712 45:0.56062 46:0.0610304 47:0.915601 48:2.50221 49:2.3825 50:0.265901 51:0.47575 52:0 53:0.271162 0:0 
0.001830021885691386 1:1.4796 2:1.10588 3:0.32503 4:0.298074 5:0.63062 6:0.209172 7:0.907783 8:0.697514 9:0.261882 10:0.266796 11:0.371929 12:0.617463 13:0.0694628 14:0.85611 15:1.86314 16:2.06363 17:0.138463 18:0.416301 19:0.183509 20:0.196569 21:0.161634 22:0.548724 23:0.688808 24:0.0417792 25:0.905699 26:2.09407 27:2.16797 28:0.138463 29:0.357485 30:0.196569 31:0.271936 32:0.384285 33:0.327095 34:0.677242 35:0.107599 36:0.814657 37:2.27562 38:2.58875 39:0.167181 40:0.2794 41:0 42:0.271936 43:0.234814 44:0.327095 45:0.551812 46:0.0510888 47:0.971609 48:2.62635 49:2.58875 50:0.23974 51:0.416301 52:0 53:0.271936 0:0 
0.002740454120821063 1:0.982179 2:0.781381 3:0.124835 4:0.662279 5:0.608956 6:0.282528 7:1.1031 8:0.296678 9:0.280654 10:0.151663 11:0.22881 12:0.346878 13:0.108072 14:0.693367 15:2.05527 16:2.42924 17:0.2163 18:0.538177 19:0.0486799 20:0.35175 21:0.185278 22:0.227743 23:0.411261 24:0.0265068 25:0.934464 26:2.74814 27:2.64765 28:0.122495 29:0.488615 30:0.0486799 31:0.338815 32:0.339886 33:0.148945 34:0.470947 35:0.131695 36:0.89862 37:3.11083 38:3.32145 39:0.122495 40:0.454009 41:0.141094 42:0.215344 43:0.453409 44:0.151484 45:0.446527 46:0.460477 47:0.505526 48:3.574 49:4.79913 50:0.225888 51:0.47223 52:0 53:0.35175 0:0 
-0.006039798930458256 1:0.879547 2:0.434449 3:0.146475 4:0.203753 5:0.83719 6:0.570646 7:0.854561 8:0.208141 9:0.157832 10:0.302732 11:0.153455 12:0.221349 13:0.590731 14:0.280586 15:1.85335 16:3.68201 17:0.230637 18:0.43845 19:0.0589654 20:0.237147 21:0.0848356 22:0.315789 23:0.321672 24:0.0847735 25:0.487611 26:2.45928 27:2.87763 28:0.142421 29:0.442022 30:0.0627452 31:0.237147 32:0.112681 33:0.287563 34:0.393623 35:0.036025 36:0.941289 37:3.01975 38:3.08106 39:0.142421 40:0.434992 41:0.0627452 42:0.185803 43:0.100535 44:0.208652 45:0.301836 46:0.0479101 47:0.810716 48:3.85813 49:3.58601 50:0.196125 51:0.426918 52:0 53:0.204294 0:0 
-0.0001411850533896924 1:0.84289 2:0.421836 3:0.128356 4:0.22826 5:0.838041 6:0.565387 7:0.713613 8:0.198708 9:0.195869 10:0.0623898 11:0.215353 12:0.233776 13:0.0848127 14:0.674892 15:2.02056 16:2.3007 17:0.180224 18:0.421183 19:0 20:0.0971537 21:0.133743 22:0.215353 23:0.319024 24:0.103062 25:0.801939 26:2.56021 27:2.3007 28:0.124431 29:0.417941 30:0 31:0.0971537 32:0.285744 33:0.119703 34:0.382514 35:0.168816 36:0.818138 37:3.1008 38:2.67795 39:0.124431 40:0.406794 41:0 42:0.0971537 43:0.301597 44:0.119703 45:0.244412 46:0.593233 47:0.360576 48:4.33712 49:2.67795 50:0.406794 51:0.421183 52:0 53:0.0971537 0:0 
0.2101476354085386 1:0.886274 2:0.435949 3:0.142597 4:0.262297 5:0.823217 6:0.563813 7:0.883373 8:0.208165 9:0.194678 10:0.302696 11:0.15711 12:0.245555 13:0.527444 14:0.336125 15:1.88284 16:3.5221 17:0.207909 18:0.44607 19:0 20:0.171728 21:0.267282 22:0.15711 23:0.322047 24:0.3097 25:0.530545 26:2.46293 27:3.5221 28:0.175409 29:0.428225 30:0 31:0.171728 32:0.15782 33:0.294736 34:0.441264 35:0.0518 36:0.918091 37:3.04387 38:3.14159 39:0.175409 40:0.456302 41:0.14632 42:0.171728 43:0.0742208 44:0.239034 45:0.30807 46:0.0319811 47:0.928901 48:3.73635 49:3.65604 50:0.222247 51:0.408896 52:0 53:0.14632 0:0 
0.007613784965973673 1:1.25056 2:0.938023 3:0.238194 4:0.316429 5:0.699296 6:0.189525 7:0.763244 8:0.352326 9:0.15276 10:0.0880913 11:0.28334 12:0.326659 13:0.0804685 14:0.604437 15:2.01894 16:2.37112 17:0.0548196 18:0.384856 19:0.12637 20:0.212354 21:0.160224 22:0.375277 23:0.373246 24:0.137322 25:0.509715 26:2.2143 27:2.61465 28:0.0548196 29:0.348395 30:0.0873247 31:0.12637 32:0.163095 33:0.455852 34:0.579429 35:0.0660403 36:0.812246 37:2.54281 38:2.70106 39:0.280624 40:0.329036 41:0 42:0.212354 43:0.199629 44:0.455852 45:0.570632 46:0.102377 47:0.832165 48:2.81984 49:2.70106 50:0.29168 51:0.384856 52:0 53:0.212354 0:0 
-0.02410027975028467 1:0.874177 2:0.431079 3:0.137364 4:0.230255 5:0.826994 6:0.597552 7:0.846616 8:0.20464 9:0.186594 10:0.308504 11:0.145538 12:0.244106 13:0.564985 14:0.302217 15:1.88284 16:3.66074 17:0.220312 18:0.428475 19:0 20:0.210868 21:0.302997 22:0.145538 23:0.341662 24:0.34655 25:0.482334 26:2.44369 27:3.66074 28:0.112972 29:0.431565 30:0 31:0.210868 32:0.0797745 33:0.304562 34:0.373252 35:0.0383207 36:0.91008 37:2.99374 38:3.08106 39:0.112972 40:0.405664 41:0.18042 42:0.210868 43:0.0906535 44:0.217481 45:0.298692 46:0.0503641 47:0.981783 48:3.69489 49:3.71797 50:0.21102 51:0.390255 52:0 53:0.18042 0:0 
0.007376497999156996 1:1.40657 2:1.04394 3:0.298277 4:0.384766 5:0.572647 6:0.213683 7:0.798144 8:0.440905 9:0.192902 10:0.273816 11:0.254682 12:0.487655 13:0.130867 14:0.696213 15:1.7635 16:2.28963 17:0.200265 18:0.67905 19:0.150031 20:0.469614 21:0.254224 22:0.383316 23:0.561815 24:0.124967 25:0.712789 26:2.16171 27:2.49809 28:0.200265 29:0.72208 30:0 31:0.564737 32:0.187294 33:0.383316 34:0.56896 35:0.0169116 36:0.954833 37:2.4444 38:2.49809 39:0.229388 40:0.688336 41:0 42:0.564737 43:0.0562727 44:0.244169 45:0.207107 46:0.0600274 47:0.299121 48:4.32723 49:4.55807 50:0.67905 51:0.72208 52:0.469614 53:0.564737 0:0 
-0.03100507128523289 1:0.88403 2:0.462597 3:0.140168 4:0.244367 5:0.795259 6:0.509519 7:0.85553 8:0.198364 9:0.213449 10:0.291006 11:0.132638 12:0.228177 13:0.579858 14:0.307214 15:1.93334 16:3.69325 17:0.238592 18:0.419255 19:0 20:0.225986 21:0.31037 22:0.132638 23:0.348413 24:0.347309 25:0.494957 26:2.49809 27:3.69325 28:0.184799 29:0.437785 30:0 31:0.225986 32:0.198186 33:0.306356 34:0.493492 35:0.0534799 36:0.957036 37:3.02672 38:3.07917 39:0.184799 40:0.510051 41:0.17408 42:0.225986 43:0.0996411 44:0.220685 45:0.317197 46:0.029818 47:0.960036 48:3.73635 49:3.68201 50:0.240679 51:0.39618 52:0 53:0.17408 0:0 
-0.09754248243928677 1:0.886174 2:0.444962 3:0.139781 4:0.250723 5:0.812144 6:0.534019 7:0.855069 8:0.201805 9:0.208191 10:0.319002 11:0.174233 12:0.232909 13:0.567807 14:0.286368 15:1.8314 16:3.60524 17:0.240252 18:0.437368 19:0 20:0.158993 21:0.264086 22:0.174233 23:0.320161 24:0.308583 25:0.471869 26:2.43013 27:3.60524 28:0.177578 29:0.436117 30:0 31:0.158993 32:0.179965 33:0.286642 34:0.447696 35:0.0715081 36:0.911414 37:3.02448 38:3.14159 39:0.177578 40:0.48648 41:0.137067 42:0.158993 43:0.0850849 44:0.215008 45:0.299612 46:0.0113285 47:0.884858 48:3.76479 49:3.60524 50:0.236331 51:0.413979 52:0 53:0.137067 0:0 
-0.03582997910573558 1:0.868012 2:0.437207 3:0.14044 4:0.276029 5:0.801292 6:0.611507 7:0.880675 8:0.212546 9:0.185678 10:0.318968 11:0.172187 12:0.25136 13:0.532823 14:0.312103 15:1.77982 16:3.48089 17:0.246617 18:0.442755 19:0 20:0.161588 21:0.288028 22:0.172187 23:0.357598 24:0.292976 25:0.5278 26:2.44074 27:3.48089 28:0.120651 29:0.441346 30:0 31:0.161588 32:0.0630607 33:0.300142 34:0.3417 35:0.0471859 36:0.883468 37:2.98382 38:3.08106 39:0.120651 40:0.366757 41:0.128686 42:0.161588 43:0.0793896 44:0.242996 45:0.321758 46:0.0113385 47:0.837736 48:3.70276 49:3.50036 50:0.198915 51:0.432117 52:0 53:0.128686 0:0 
-0.008360265272446113 1:0.881389 2:0.451085 3:0.139658 4:0.230319 5:0.839227 6:0.517638 7:0.732852 8:0.198511 9:0.137721 10:0.162088 11:0.23397 12:0.221428 13:0.231035 14:0.502768 15:1.90286 16:2.60117 17:0.216167 18:0.425978 19:0.125306 20:0.230696 21:0.0793429 22:0.333379 23:0.313532 24:0.0758131 25:0.479398 26:2.46685 27:2.86329 28:0.18976 29:0.435363 30:0.0479499 31:0.245104 32:0.158423 33:0.311996 34:0.462407 35:0.0417168 36:0.991581 37:3.04192 38:3.05093 39:0.18976 40:0.50715 41:0.0479499 42:0.201531 43:0.114796 44:0.206519 45:0.313791 46:0.0511635 47:0.998333 48:3.76479 49:3.76708 50:0.26438 51:0.399031 52:0 53:0.245104 0:0 
0.000631907309343511 1:1.4473 2:1.1262 3:0.360006 4:0.627508 5:0.537509 6:0.247204 7:0.911529 8:0.507081 9:0.322448 10:0.362519 11:0.165803 12:0.503705 13:0.145906 14:0.772432 15:1.52781 16:2.00742 17:0.67597 18:0.927272 19:0.232157 20:0.334532 21:0.299266 22:0.285989 23:0.581648 24:0.0361757 25:0.959953 26:2.92394 27:2.99374 28:0.181851 29:0.67597 30:0.113654 31:0.232157 32:0.342895 33:0.305997 34:0.640349 35:0.0547663 36:0.904789 37:3.22686 38:3.39596 39:0.181851 40:0.831096 41:0.113654 42:0.310924 43:0.357645 44:0.266446 45:0.598358 46:0.106692 47:0.835007 48:3.48883 49:3.79346 50:0.194267 51:0.896832 52:0 53:0.334532 0:0 
0.001759181545433748 1:1.43292 2:1.10939 3:0.323674 4:0.611644 5:0.542244 6:0.250689 7:0.911379 8:0.507052 9:0.314984 10:0.347718 11:0.164411 12:0.498766 13:0.10662 14:0.809811 15:1.5165 16:1.91178 17:0.67557 18:0.924055 19:0.259096 20:0.348524 21:0.300153 22:0.285786 23:0.581141 24:0.0417791 25:0.958508 26:2.94235 27:3.01462 28:0.179285 29:0.67557 30:0.118443 31:0.259096 32:0.330991 33:0.314008 34:0.633907 35:0.0607128 36:0.899156 37:3.2532 38:3.42764 39:0.179285 40:0.825031 41:0.104693 42:0.343493 43:0.34354 44:0.269006 45:0.593174 46:0.090934 47:0.854937 48:3.49191 49:3.75232 50:0.187156 51:0.889763 52:0 53:0.348524 0:0 
-0.01020138622110455 1:0.890847 2:0.438778 3:0.14761 4:0.279617 5:0.850501 6:0.562456 7:0.866262 8:0.207366 9:0.193749 10:0.301745 11:0.139993 12:0.246522 13:0.549447 14:0.313133 15:1.78615 16:3.54648 17:0.231182 18:0.437471 19:0 20:0.205238 21:0.281653 22:0.139993 23:0.333423 24:0.314235 25:0.5 26:2.35619 27:3.54648 28:0.166841 29:0.422224 30:0 31:0.205238 32:0.15983 33:0.301228 34:0.454627 35:0.0386301 36:0.987645 37:2.94797 38:2.96174 39:0.166841 40:0.461575 41:0.176187 42:0.205238 43:0.0650574 44:0.218352 45:0.281617 46:0.0194722 47:0.876854 48:3.7296 49:3.5877 50:0.177161 51:0.409525 52:0 53:0.176187 0:0 
-0.00134669117861398 1:0.931875 2:0.444343 3:0.35259 4:0.412226 5:0.850636 6:0.580632 7:0.783054 8:0.260863 9:0.141284 10:0.231431 11:0.282772 12:0.254717 13:0.281554 14:0.347996 15:1.19991 16:0.398522 17:0.404058 18:0.544024 19:0.445978 20:0.595967 21:0.0506825 22:0.359494 23:0.373015 24:0.0424899 25:0.635228 26:2.52134 27:2.71676 28:0.11494 29:0.439975 30:0.0866653 31:0.595967 32:0.0878639 33:0.316436 34:0.390432 35:0.0429377 36:0.942344 37:3.03672 38:3.09163 39:0.11494 40:0.483229 41:0.0866653 42:0.57387 43:0.197851 44:0.202531 45:0.307046 46:0.218711 47:0.660416 48:3.60524 49:4.13449 50:0.182678 51:0.470981 52:0 53:0.445978 0:0 
-0.0009443300998850027 1:0.728864 2:0.350732 3:0.0969345 4:0.37025 5:0.85615 6:0.608854 7:0.798355 8:0.245074 9:0.195843 10:0.283218 11:0.199784 12:0.252229 13:0.425672 14:0.347309 15:1.51821 16:0.236849 17:0.143204 18:0.451219 19:0.143509 20:0.318811 21:0.0748065 22:0.194796 23:0.267961 24:0.0217156 25:0.989457 26:2.39189 27:2.38183 28:0.143204 29:0.446124 30:0 31:0.348214 32:0.198809 33:0.194796 34:0.164636 35:0.369719 36:0.40016 37:3.26992 38:2.38183 39:0.248302 40:0.319393 41:0 42:0.348214 43:0.226537 44:0.167885 45:0.233845 46:0.368379 47:0.420735 48:4.73941 49:5.72459 50:0.248302 51:0.451219 52:0.143509 53:0.348214 0:0 
-0.006956541488021312 1:1.35555 2:0.938497 3:0.235253 4:0.558796 5:0.679576 6:0.366706 7:1.05215 8:0.337583 9:0.20795 10:0.345295 11:0.363699 12:0.427106 13:0.283396 14:0.408895 15:2.3225 16:3.278 17:0.255861 18:0.528405 19:0 20:0.232894 21:0.289019 22:0.363699 23:0.566823 24:0.1454 25:0.620068 26:2.72846 27:3.278 28:0.131224 29:0.475185 30:0 31:0.232894 32:0.0690379 33:0.57205 34:0.63379 35:0.016333 36:0.958426 37:3.0631 38:3.08685 39:0.131224 40:0.451891 41:0.182441 42:0.232894 43:0.125706 44:0.441651 45:0.563577 46:0.0195218 47:0.830551 48:3.47947 49:3.33223 50:0.22304 51:0.473492 52:0 53:0.182441 0:0 
-0.001092269921769752 1:1.55384 2:1.01906 3:0.318608 4:0.561191 5:0.72915 6:0.384088 7:0.869089 8:0.4 9:0.200977 10:0.203975 11:0.495062 12:0.460239 13:0.135034 14:0.451851 15:2.40666 16:2.87144 17:0.231216 18:0.538176 19:0 20:0.594746 21:0.128924 22:0.495062 23:0.612747 24:0.030437 25:0.788128 26:2.70358 27:2.87144 28:0.181771 29:0.526228 30:0 31:0.594746 32:0.111309 33:0.597657 34:0.702547 35:0.0183023 36:0.929591 37:3.06332 38:3.10546 39:0.181771 40:0.499586 41:0.147353 42:0.685929 43:0.102312 44:0.505164 45:0.564764 46:0.0496085 47:0.622933 48:3.57135 49:3.30432 50:0.227502 51:0.48884 52:0.147353 53:0.587322 0:0 
-0.000804275150302333 1:0.767886 2:0.458342 3:0.112545 4:0.325651 5:0.860199 6:0.438455 7:0.708133 8:0.34843 9:0.136196 10:0.107157 11:0.269976 12:0.373043 13:0.0294233 14:0.992464 15:1.36948 16:1.36177 17:0.284191 18:0.660278 19:0.224601 20:0.425446 21:0.0657633 22:0.210462 23:0.257184 24:0.0634235 25:0.847443 26:2.20482 27:2.29505 28:0.284191 29:0.603426 30:0.224601 31:0.422968 32:0.215134 33:0.237678 34:0.217597 35:0.312164 36:0.373606 37:4.07407 38:5.10947 39:0.309479 40:0.543033 41:0 42:0.425446 43:0.156731 44:0.237678 45:0.390359 46:0.0370116 47:0.965297 48:5.05977 49:5.10947 50:0.309479 51:0.660278 52:0 53:0.425446 0:0 
-0.002700752381535283 1:0.965095 2:0.501418 3:0.407546 4:0.508719 5:0.933488 6:0.710014 7:0.697581 8:0.314373 9:0.138103 10:0.0526922 11:0.274856 12:0.326581 13:0.0106772 14:0.859994 15:1.88641 16:2.01064 17:0.223164 18:0.533534 19:0 20:0.474735 21:0.221059 22:0.274856 23:0.398137 24:0.178907 25:0.664443 26:2.43297 27:2.01064 28:0.212808 29:0.430358 30:0 31:0.474735 32:0.146748 33:0.361531 34:0.487623 35:0.0569891 36:0.86236 37:3.09814 38:3.25225 39:0.198197 40:0.421414 41:0 42:0.35698 43:0.100639 44:0.361531 45:0.408671 46:0.0737975 47:0.690208 48:3.52847 49:3.25225 50:0.132013 51:0.481317 52:0 53:0.35698 0:0 
-0.0003879157814260948 1:0.966646 2:0.457142 3:0.309664 4:0.44366 5:0.930255 6:0.72129 7:0.656505 8:0.34551 9:0.113976 10:0.0613632 11:0.327771 12:0.38201 13:0.0258236 14:0.941248 15:1.2877 16:1.26187 17:0.153848 18:0.598016 19:0 20:0.490308 21:0.147785 22:0.327771 23:0.340199 24:0.141537 25:0.469802 26:1.72345 27:1.26187 28:0.153848 29:0.490246 30:0 31:0.490308 32:0.140508 33:0.334511 34:0.4609 35:0.0498159 36:0.887557 37:3.12731 38:3.24986 39:0.198918 40:0.581117 41:0 42:0.490308 43:0.106247 44:0.334511 45:0.372959 46:0.0895539 47:0.675276 48:3.55305 49:3.24986 50:0.198918 51:0.598016 52:0 53:0.490308 0:0 
-0.001152959927680307 1:0.998837 2:0.468144 3:0.314188 4:0.443732 5:0.939834 6:0.719984 7:0.672302 8:0.342302 9:0.112047 10:0.0530105 11:0.344425 12:0.371845 13:0.0403795 14:0.712691 15:2.22868 16:2.11463 17:0.353928 18:0.475017 19:0.325624 20:0.535927 21:0.12221 22:0.359572 23:0.481536 24:0.00592224 25:0.989048 26:3.21093 27:3.22142 28:0.152074 29:0.353928 30:0 31:0.33013 32:0.122828 33:0.359572 34:0.412804 35:0.0917728 36:0.666874 37:3.53638 38:3.22142 39:0.12554 40:0.417135 41:0 42:0.33013 43:0.150138 44:0.344958 45:0.379399 46:0.12947 47:0.52712 48:3.95138 49:4.37201 50:0.12554 51:0.475017 52:0.33013 53:0.535927 0:0 
0.002587516930500684 1:0.904886 2:0.766229 3:0.496593 4:0.806396 5:0.772085 6:0.235393 7:0.812302 8:0.511549 9:0.174441 10:0.233275 11:0.188225 12:0.375094 13:0.169261 14:0.773589 15:3.93271 16:4.28206 17:0.148203 18:0.450956 19:0 20:0.2487 21:0.140739 22:0.188225 23:0.22689 24:0.212353 25:0.734142 26:4.42706 27:4.28206 28:0.342091 29:0.457521 30:0 31:0.2487 32:0.206226 33:0.127513 34:0.321237 35:0.111789 36:0.978082 37:2.91332 38:2.87534 39:0.342091 40:0.473144 41:0.199542 42:0.329906 43:0.117522 44:0.380321 45:0.487642 46:0.0354174 47:0.897913 48:3.64869 49:3.74061 50:0.148203 51:0.473144 52:0.2487 53:0.329906 0:0 
-0.003941835077618971 1:0.824263 2:0.491326 3:0.13764 4:0.387898 5:0.734745 6:0.621114 7:1.0527 8:0.351326 9:0.188267 10:0.0880274 11:0.240061 12:0.274704 13:0.100727 14:0.601957 15:1.24905 16:0.963809 17:0.22396 18:0.56907 19:0.251627 20:0.385615 21:0.0921671 22:0.222365 23:0.312365 24:0.0240069 25:0.942522 26:2.1931 27:2.25847 28:0.22396 29:0.52801 30:0.199553 31:0.270379 32:0.327907 33:0.0452447 34:0.371484 35:0.0813017 36:0.865858 37:2.88852 38:3.24126 39:0.227429 40:0.455723 41:0.135069 42:0.265804 43:0.228163 44:0.166211 45:0.385637 46:0.0788288 47:0.988677 48:3.75839 49:3.73877 50:0.227429 51:0.56907 52:0 53:0.385615 0:0 
-0.00340112289849157 1:0.574654 2:0.336633 3:0.0853902 4:0.450959 5:0.848362 6:0.644919 7:1.01457 8:0.251621 9:0.0926366 10:0.050708 11:0.184797 12:0.21487 13:0.0653331 14:0.745357 15:2.26272 16:2.45392 17:0.0722059 18:0.370692 19:0.146652 20:0.251872 21:0.134096 22:0.12542 23:0.190249 24:0.248122 25:0.590633 26:2.69922 27:3.28349 28:0.0722059 29:0.323855 30:0.0454028 31:0.146652 32:0.0802755 33:0.12263 34:0.167946 35:0.148308 36:0.664176 37:3.21645 38:3.63802 39:0.0696143 40:0.208809 41:0.0454028 42:0.189837 43:0.0981577 44:0.135333 45:0.17602 46:0.186901 47:0.611567 48:3.54974 49:4.08359 50:0.0696143 51:0.244403 52:0 53:0.251872 0:0 
0.007032826871532925 1:1.11903 2:0.769591 3:0.239757 4:0.889787 5:0.789274 6:0.195479 7:0.755371 8:0.528896 9:0.235862 10:0.0842514 11:0.706315 12:0.760399 13:0.0280679 14:0.701816 15:2.62714 16:2.70497 17:0.137817 18:0.793506 19:0.222662 20:0.744891 21:0.192468 22:0.497809 23:0.6862 24:0.0214654 25:0.977081 26:2.80932 27:2.82844 28:0.137817 29:0.727556 30:0.222662 31:0.534437 32:0.564688 33:0.0947232 34:0.538274 35:0.563351 36:0.355498 37:2.98584 38:4.86899 39:0.202772 40:0.564837 41:0 42:0.744891 43:0.102041 44:0.0947232 45:0.187316 46:0.10292 47:0.863907 48:4.65839 49:4.86899 50:0.564837 51:0.793506 52:0 53:0.744891 0:0 
0.004079750217571725 1:1.10209 2:0.780811 3:0.148057 4:0.871769 5:0.787571 6:0.192348 7:0.725624 8:0.539873 9:0.117723 10:0.0587255 11:0.61035 12:0.664369 13:0.0115155 14:0.798927 15:2.5346 16:2.58299 17:0.120874 18:0.218906 19:0.126365 20:0.181597 21:0.0761529 22:0.702509 23:0.761152 24:0.0211521 25:0.788396 26:2.63875 27:2.69922 28:0.0983347 29:0.233897 30:0.126365 31:0.226763 32:0.231217 33:0.486503 34:0.713445 35:0.0239155 36:0.95688 37:2.78132 38:2.82276 39:0.0983347 40:0.15784 41:0 42:0.226763 43:0.104795 44:0.486503 45:0.587136 46:0.0174157 47:0.875814 48:2.90201 49:2.82276 50:0.151571 51:0.233897 52:0 53:0.226763 0:0 
-0.004632292451175017 1:0.761368 2:0.529583 3:0.111173 4:0.544529 5:0.793134 6:0.377593 7:0.627795 8:0.316332 9:0.104847 10:0.0678176 11:0.227003 12:0.23443 13:0.0933485 14:0.583976 15:2.43297 16:2.7729 17:0.117359 18:0.273891 19:0 20:0.0603592 21:0.243687 22:0.227003 23:0.319894 24:0.274547 25:0.969776 26:2.74925 27:2.7729 28:0.208833 29:0.273891 30:0 31:0.0603592 32:0.050051 33:0.272274 34:0.263466 35:0.0586381 36:0.755488 37:3.09163 38:3.12435 39:0.050051 40:0.208833 41:0.0578308 42:0.0603592 43:0.0578308 44:0.222449 45:0.272274 46:0.0379922 47:0.733114 48:3.12435 49:2.89115 50:0.050051 51:0.258568 52:0.0103583 53:0.0578308 0:0 
0.004776717209969867 1:0.693213 2:0.476323 3:0.244661 4:0.558089 5:0.893749 6:0.388687 7:0.947968 8:0.763068 9:0.164365 10:0.225947 11:0.12229 12:0.348144 13:0.0100247 14:0.996917 15:4.53386 16:4.5402 17:0.0447973 18:0.218929 19:0.140628 20:0.173018 21:0.0796268 22:0.265362 23:0.331336 24:0.0479061 25:0.799431 26:4.03158 27:4.19833 28:0.123341 29:0.350372 30:0 31:0.298436 32:0.12883 33:0.265362 34:0.381286 35:0.0563142 36:0.914348 37:4.29349 38:4.19833 39:0.123341 40:0.298967 41:0 42:0.298436 43:0.258835 44:0.183 45:0.351955 46:0.252508 47:0.684637 48:4.59663 49:5.22478 50:0.0447973 51:0.257594 52:0 53:0.298436 0:0 
0.004344917641157998 1:0.938488 2:0.627927 3:0.372662 4:0.44322 5:0.826997 6:0.300762 7:0.66936 8:1.10077 9:0.135894 10:0.255656 11:0.189832 12:0.42493 13:0.113168 14:0.848624 15:4.36362 16:4.65531 17:0.142124 18:0.36104 19:0.32664 20:0.350816 21:0.104149 22:0.422399 23:0.478649 24:0.0621498 25:0.470807 26:3.8039 27:3.9474 28:0.190334 29:0.36104 30:0.156151 31:0.350816 32:0.100924 33:0.459062 34:0.514027 35:0.0555353 36:0.61847 37:3.98707 38:4.12911 39:0.135612 40:0.229892 41:0 42:0.32664 43:0.0828477 44:0.459062 45:0.530064 46:0.0275559 47:0.978441 48:4.1402 49:4.12911 50:0.135612 51:0.315465 52:0 53:0.32664 0:0 
0.001296827794360438 1:1.01181 2:0.799852 3:0.337406 4:0.408199 5:0.798765 6:0.213056 7:0.668065 8:1.30719 9:0.124983 10:0.235643 11:0.308724 12:0.536581 13:0.0470229 14:0.923336 15:4.39506 16:4.48959 17:0.119309 18:0.304062 19:0.140255 20:0.274525 21:0.121243 22:0.562598 23:0.614752 24:0.0593273 25:0.488708 26:4.21118 27:4.28422 28:0.12085 29:0.449997 30:0 31:0.40836 32:0.0769875 33:0.562598 34:0.639277 35:0.00365415 36:0.997851 37:4.28509 38:4.28422 39:0.119309 40:0.422696 41:0 42:0.40836 43:0.0660602 44:0.246243 45:0.301109 46:0.0430434 47:0.81167 48:4.71985 49:4.85429 50:0.304062 51:0.449997 52:0.140255 53:0.40836 0:0 
-0.000713248085318372 1:1.54603 2:1.2615 3:0.48559 4:2.2208 5:0.802222 6:0.319643 7:0.897407 8:0.939481 9:0.61803 10:0.458411 11:1.12423 12:0.771005 13:0.100312 14:0.416286 15:3.30674 16:3.86823 17:0.523658 18:1.15616 19:0 20:0.509246 21:0.17796 22:1.12423 23:1.20621 24:0.0432087 25:0.860393 26:3.7465 27:3.86823 28:0.260061 29:1.058 30:0 31:0.509246 32:0.825389 33:0.627677 34:1.40353 35:0.0958786 36:0.805941 37:4.04143 38:3.64444 39:0.260061 40:1.02528 41:0 42:0.509246 43:1.01036 44:0.627677 45:1.19796 46:0.319387 47:0.450721 48:5.07493 49:3.64444 50:1.02528 51:1.15616 52:0 53:0.509246 0:0 
-0.0007689533045936965 1:1.55686 2:1.26969 3:0.51588 4:2.20324 5:0.794788 6:0.316688 7:0.878877 8:0.964501 9:0.633618 10:0.455991 11:1.04916 12:0.765882 13:0.127739 14:0.444086 15:3.18157 16:3.90526 17:0.644978 18:1.23813 19:0 20:0.430057 21:0.289561 22:1.04916 23:1.25746 24:0.0558132 25:0.952572 26:3.84716 27:3.90526 28:0.206598 29:1.06978 30:0 31:0.430057 32:0.825758 33:0.619733 34:1.40983 35:0.0819753 36:0.913072 37:4.07366 38:3.89474 39:0.206598 40:1.03963 41:0 42:0.430057 43:0.963162 44:0.619733 45:1.20505 46:0.29186 47:0.531535 48:5.0929 49:3.89474 50:1.03963 51:1.23813 52:0 53:0.430057 0:0 
-0.0008303357596790456 1:1.16774 2:0.740605 3:0.238467 4:1.2429 5:0.915079 6:0.280856 7:0.66781 8:0.751491 9:0.150522 10:0.141199 11:0.172354 12:0.210264 13:0.232565 14:0.544683 15:2.63449 16:3.36839 17:0.163857 18:0.923038 19:0 20:0.710645 21:0.0512938 22:0.172354 23:0.221863 24:0.0218371 25:0.906943 26:3.43583 27:3.36839 28:0.163857 29:0.761637 30:0 31:0.710645 32:0.13696 33:0.420211 34:0.54401 35:0.0390243 36:0.742098 37:4.23404 38:4.37844 39:0.257778 40:0.533735 41:0 42:0.404263 43:0.330434 44:0.420211 45:0.740435 46:0.0465529 47:0.88663 48:4.54379 49:4.37844 50:0.213869 51:0.772537 52:0 53:0.404263 0:0 
0.003053018463146834 1:0.986966 2:0.625886 3:0.442081 4:0.232919 5:0.905728 6:0.376552 7:0.666932 8:1.21317 9:0.146352 10:0.0535042 11:0.496499 12:0.540392 13:0.0188044 14:0.906537 15:4.42307 16:4.44741 17:0.0852837 18:0.441522 19:0.156176 20:0.388962 21:0.134332 22:0.364983 23:0.489244 24:0.0384652 25:0.884588 26:4.53938 27:4.63512 28:0.0852837 29:0.439005 30:0.156176 31:0.311881 32:0.111551 33:0.203193 34:0.305621 35:0.0565109 36:0.86372 37:3.47756 38:3.63088 39:0.332909 40:0.441522 41:0 42:0.388962 43:0.32956 44:0.203193 45:0.479913 46:0.185039 47:0.715324 48:4.17966 49:3.63088 50:0.117307 51:0.332909 52:0 53:0.388962 0:0 
0.002223899537233347 1:1.15171 2:0.755998 3:0.356477 4:0.259612 5:0.671293 6:0.297815 7:0.905477 8:0.953498 9:0.312672 10:0.265214 11:0.178414 12:0.426597 13:0.108411 14:0.839393 15:4.91778 16:4.61272 17:0.302073 18:0.634097 19:0.140185 20:0.210989 21:0.336741 22:0.210348 23:0.541649 24:0.056929 25:0.990337 26:3.61276 27:3.63155 28:0.253916 29:0.634097 30:0.124073 31:0.210989 32:0.347598 33:0.243575 34:0.59067 35:0.0156973 36:0.986221 37:4.05638 38:4.08094 39:0.217508 40:0.502613 41:0 42:0.140185 43:0.301133 44:0.243575 45:0.521696 46:0.103551 47:0.844169 48:4.35617 49:4.08094 50:0.217508 51:0.421586 52:0 53:0.140185 0:0 
0.000862959315288741 1:1.19624 2:0.726845 3:0.383714 4:0.18799 5:0.60805 6:0.358864 7:0.940731 8:1.01178 9:0.351686 10:0.377742 11:0.196764 12:0.57126 13:0.0469616 14:0.954272 15:2.49052 16:2.58299 17:0.75377 18:1.03142 19:0.267376 20:0.374177 21:0.343966 22:0.202055 23:0.544006 24:0.0357148 25:0.986074 26:3.95118 27:3.97745 28:0.190678 29:0.75377 30:0.0989608 31:0.267376 32:0.378433 33:0.213823 34:0.584228 35:0.0699698 36:0.919746 37:4.28745 38:4.44735 39:0.190678 40:0.910208 41:0.0989608 42:0.339543 43:0.365315 44:0.20015 45:0.550683 46:0.0990303 47:0.86263 48:4.6966 49:4.97485 50:0.232637 51:1.00439 52:0 53:0.374177 0:0 
0.001968535425739634 1:1.20173 2:0.727756 3:0.337548 4:0.16422 5:0.633015 6:0.362068 7:0.926052 8:0.999349 9:0.339263 10:0.364694 11:0.214055 12:0.576439 13:0.0371522 14:0.994123 15:2.53421 16:2.54539 17:0.726892 18:1.01206 19:0.258312 20:0.382835 21:0.346422 22:0.183355 23:0.529518 24:0.0136702 25:0.992928 26:3.91879 27:3.90477 28:0.211688 29:0.726892 30:0.129941 31:0.258312 32:0.319112 33:0.251566 34:0.56781 35:0.0359711 36:0.964538 37:4.33961 38:4.40179 39:0.196747 40:0.901366 41:0.129941 42:0.382835 43:0.373598 44:0.179018 45:0.528535 46:0.137625 47:0.818747 48:4.65809 49:5.04985 50:0.196747 51:0.975971 52:0 53:0.378592 0:0 
0.002641613744695719 1:0.898582 2:0.75344 3:0.224881 4:0.910666 5:0.804889 6:0.251515 7:1.01595 8:0.831478 9:0.24878 10:0.334517 11:0.288371 12:0.6021 13:0.0889673 14:0.860153 15:4.33452 16:4.58407 17:0.211827 18:0.403736 19:0 20:0.284507 21:0.256026 22:0.288371 23:0.539408 24:0.0406211 25:0.902623 26:4.70249 27:4.58407 28:0.238534 29:0.548207 30:0 31:0.284507 32:0.278091 33:0.28692 34:0.381784 35:0.258453 36:0.654279 37:3.76459 38:4.35362 39:0.181563 40:0.509059 41:0.0540066 42:0.232513 43:0.160486 44:0.42978 45:0.552768 46:0.0674571 47:0.930601 48:3.96543 49:4.03158 50:0.181563 51:0.548207 52:0 53:0.284507 0:0 
-0.0001366561371731577 1:2.08614 2:1.45689 3:0.450792 4:0.543917 5:0.898994 6:0.162998 7:0.615258 8:1.12623 9:0.0799667 10:0.119778 11:0.97362 12:1.04229 13:0.0310232 14:0.677194 15:1.79707 16:1.89018 17:0.183604 18:0.412397 19:0.138325 20:0.245533 21:0.0957101 22:0.934286 23:1.00817 24:0.0199555 25:0.841718 26:1.94876 27:1.99128 28:0.183604 29:0.244783 30:0.107269 31:0.138325 32:0.0521411 33:0.915064 34:0.962337 35:0.00746169 36:0.901689 37:2.12727 38:2.09992 39:0.0774714 40:0.379883 41:0 42:0.245533 43:0.0522378 44:0.915064 45:0.89168 46:0.0164618 47:0.418427 48:2.16086 49:2.09992 50:0.0774714 51:0.412397 52:0 53:0.245533 0:0 
0.003644122648446645 1:0.903183 2:0.565541 3:0.267122 4:0.411813 5:0.828036 6:0.357683 7:0.968041 8:0.709463 9:0.182266 10:0.0647791 11:0.335053 12:0.381443 13:0.0402844 14:0.790785 15:4.48679 16:4.35362 17:0.15822 18:0.508794 19:0.0747004 20:0.423239 21:0.193124 22:0.158912 23:0.318946 24:0.154351 25:0.708216 26:2.88156 27:2.36885 28:0.369761 29:0.524027 30:0.192692 31:0.423239 32:0.297394 33:0.162281 34:0.457851 35:0.0384314 36:0.922705 37:3.79604 38:3.63941 39:0.146586 40:0.369761 41:0.192692 42:0.234946 43:0.197844 44:0.332651 45:0.526604 46:0.0297038 47:0.945263 48:4.05669 49:4.12168 50:0.094632 51:0.504667 52:0 53:0.394113 0:0 
-0.001162127704063225 1:1.97132 2:1.34361 3:0.403813 4:0.905907 5:0.887285 6:0.15977 7:0.708304 8:1.09638 9:0.119535 10:0.146686 11:1.02289 12:1.10504 13:0.0364051 14:0.781449 15:2.14249 16:2.04049 17:0.0909921 18:0.445942 19:0 20:0.322075 21:0.153112 22:1.02289 23:1.02585 24:0.0476132 25:0.611492 26:2.19031 27:2.04049 28:0.0909921 29:0.357067 30:0 31:0.322075 32:0.0846223 33:0.75244 34:0.8344 35:0.00846137 36:0.86362 37:2.24436 38:2.194 39:0.151891 40:0.295217 41:0 42:0.322075 43:0.0937209 44:0.75244 45:0.693522 46:0.0321299 47:0.357318 48:2.29378 49:2.194 50:0.151891 51:0.445942 52:0 53:0.322075 0:0 
0.003724028745662632 1:0.797139 2:0.505183 3:0.22326 4:0.56892 5:0.766808 6:0.353856 7:0.83821 8:0.69487 9:0.209229 10:0.434477 11:0.0862207 12:0.395701 13:0.618189 14:0.332339 15:4.67604 16:0.308053 17:0.122095 18:0.320078 19:0.401123 20:0.435732 21:0.0730558 22:0.366989 23:0.389051 24:0.0587527 25:0.500988 26:4.03266 27:4.18121 28:0.138585 29:0.320078 30:0.0613644 31:0.435732 32:0.154219 33:0.335273 34:0.48328 35:0.0342807 36:0.988216 37:4.25961 38:4.24874 39:0.138585 40:0.27504 41:0 42:0.401123 43:0.175163 44:0.335273 45:0.46605 46:0.0941806 47:0.794596 48:4.48042 49:4.24874 50:0.122095 51:0.267205 52:0 53:0.401123 0:0 
-0.001407675562433404 1:0.658835 2:0.500318 3:0.14071 4:1.14259 5:0.871739 6:0.467978 7:0.829258 8:0.334962 9:0.261131 10:0.153888 11:0.155961 12:0.292092 13:0.107536 14:0.812833 15:1.2925 16:0.982794 17:0.37509 18:0.653232 19:0 20:0.524055 21:0.369807 22:0.155961 23:0.324747 24:0.52193 25:0.332701 26:2.44074 27:0.982794 28:0.03041 29:0.481452 30:0 31:0.524055 32:0.176 33:0.435024 34:0.348006 35:0.125974 36:0.412259 37:2.52134 38:3.32376 39:0.03041 40:0.483705 41:0.316644 42:0.524055 43:0.446381 44:0.315355 45:0.570054 46:0.284597 47:0.362388 48:3.07029 49:3.79523 50:0.257115 51:0.653232 52:0 53:0.465597 0:0 
0.004166635898029795 1:0.941687 2:0.635377 3:0.184593 4:0.633079 5:0.747938 6:0.32028 7:0.751782 8:0.816578 9:0.221654 10:0.480301 11:0.0808888 12:0.451343 13:0.590295 14:0.36236 15:4.44224 16:0 17:0.0843904 18:0.432614 19:0.446937 20:0.473926 21:0.115221 22:0.412077 23:0.482487 24:0.0652221 25:0.623146 26:3.86823 27:4.00376 28:0.216664 29:0.432614 30:0.1689 31:0.473926 32:0.147999 33:0.399029 34:0.516545 35:0.0631795 36:0.818613 37:4.08001 38:4.21304 39:0.206434 40:0.264739 41:0 42:0.446937 43:0.143097 44:0.399029 45:0.506765 46:0.066787 47:0.938417 48:4.26345 49:4.21304 50:0.0843904 51:0.400573 52:0 53:0.446937 0:0 
0.003593267525222098 1:1.19967 2:1.0045 3:0.319967 4:0.562003 5:0.690513 6:0.207151 7:0.855935 8:1.09455 9:0.249068 10:0.408141 11:0.117059 12:0.524212 13:0.0364775 14:0.895856 15:4.38347 16:4.63753 17:0.137951 18:0.364914 19:0 20:0.356186 21:0.239392 22:0.117059 23:0.314303 24:0.230098 25:0.748869 26:5.11301 27:4.63753 28:0.364914 29:0.611292 30:0 31:0.356186 32:0.185512 33:0.46049 34:0.621876 35:0.054484 36:0.865873 37:4.02853 38:4.12628 39:0.199024 40:0.611292 41:0 42:0.356186 43:0.163226 44:0.46049 45:0.601423 46:0.0498574 47:0.910518 48:4.20433 49:4.12628 50:0.137951 51:0.49269 52:0 53:0.356186 0:0 
0.001863587670452903 1:1.22345 2:0.995822 3:0.277346 4:0.595034 5:0.760781 6:0.23514 7:0.748384 8:1.09141 9:0.227602 10:0.146529 11:0.480502 12:0.547202 13:0.0812099 14:0.441477 15:3.85607 16:3.99142 17:0.250011 18:0.498727 19:0.149785 20:0.458337 21:0.154867 22:0.480962 23:0.607359 24:0.052762 25:0.79862 26:4.01765 27:4.14514 28:0.218604 29:0.329426 30:0 31:0.433434 32:0.165247 33:0.480962 34:0.600946 35:0.0673996 36:0.934413 37:4.1958 38:4.14514 39:0.146087 40:0.43843 41:0 42:0.433434 43:0.443765 44:0.0989125 45:0.520654 46:0.196773 47:0.758601 48:4.40159 49:5.03414 50:0.146087 51:0.498727 52:0.433434 53:0.458337 0:0 
0.004149309834487584 1:1.30317 2:1.05726 3:0.39108 4:0.58328 5:0.774525 6:0.218384 7:0.725085 8:1.13205 9:0.239497 10:0.152885 11:0.53701 12:0.648358 13:0.0565896 14:0.753011 15:4.08765 16:4.20899 17:0.220029 18:0.630898 19:0 20:0.458267 21:0.142803 22:0.53701 23:0.640844 24:0.0532572 25:0.953963 26:4.23979 27:4.20899 28:0.129497 29:0.515206 30:0 31:0.458267 32:0.45706 33:0.133833 34:0.56808 35:0.166507 36:0.813704 37:4.42356 38:4.88563 39:0.129497 40:0.396152 41:0 42:0.458267 43:0.205242 44:0.133833 45:0.330025 46:0.0916045 47:0.91485 48:5.04379 49:4.88563 50:0.396152 51:0.630898 52:0 53:0.458267 0:0 
-0.0004941867505212183 1:1.19932 2:0.881052 3:0.221962 4:0.939255 5:0.867619 6:0.331286 7:0.982848 8:0.601303 9:0.155465 10:0.173234 11:0.476749 12:0.574819 13:0.087102 14:0.751028 15:1.42005 16:1.60204 17:0.219764 18:0.903402 19:0.256102 20:0.792665 21:0.313652 22:0.423896 23:0.603387 24:0.163689 25:0.676403 26:1.81577 27:2.30361 28:0.219764 29:0.955219 30:0 31:0.657945 32:0.0738127 33:0.423896 34:0.494624 35:0.0146799 36:0.981514 37:2.29245 38:2.30361 39:0.30552 40:0.739865 41:0 42:0.657945 43:0.137727 44:0.358741 45:0.352482 46:0.123939 47:0.481941 48:4.05308 49:4.47767 50:0.138292 51:0.840022 52:0 53:0.792665 0:0 
-0.002087007809106916 1:1.60118 2:1.25894 3:0.36542 4:1.01559 5:0.802536 6:0.244595 7:1.08594 8:0.903101 9:0.298556 10:0.448027 11:0.44771 12:0.869203 13:0.0776979 14:0.849561 15:1.37684 16:1.60357 17:0.219699 18:1.11691 19:0.129264 20:0.773947 21:0.425158 22:0.515475 23:0.910534 24:0.0731651 25:0.852512 26:1.58014 27:1.78416 28:0.219699 29:1.06841 30:0 31:0.771564 32:0.195375 33:0.515475 34:0.66253 35:0.070206 36:0.794382 37:2.02973 38:1.78416 39:0.413036 40:0.827753 41:0 42:0.771564 43:0.125663 44:0.491271 45:0.496704 46:0.0811182 47:0.534966 48:3.85734 49:4.18431 50:0.827753 51:1.11691 52:0.771564 53:0.773947 0:0 
-0.001139958859250783 1:3.00294 2:2.11555 3:0.509287 4:1.0579 5:0.854533 6:0.0956054 7:0.652617 8:1.68863 9:0.12223 10:0.108957 11:1.41144 12:1.50535 13:0.0120679 14:0.831252 15:4.96633 16:4.93063 17:0.0335425 18:0.288813 19:0 20:0.0257749 21:0.211744 22:1.41144 23:1.25001 24:0.0328495 25:0.277276 26:5.07423 27:4.93063 28:0.203901 29:0.294617 30:0 31:0.0257749 32:0.0972661 33:1.43489 34:1.36127 35:0.0144804 36:0.307801 37:4.88217 38:4.93569 39:0.162853 40:0.203901 41:0 42:0.0257749 43:0.0709509 44:1.43489 45:1.50147 46:0.00531579 47:0.781336 48:4.89389 49:4.93569 50:0.0335425 51:0.294617 52:0 53:0.0257749 0:0 
-0.0007631624323255043 1:0.816148 2:0.660433 3:0.168976 4:0.968404 5:0.769866 6:0.335239 7:0.796178 8:0.541597 9:0.365171 10:0.204135 11:0.306528 12:0.275444 13:0.225714 14:0.643577 15:1.97159 16:2.43798 17:0.528493 18:0.865927 19:0 20:0.368922 21:0.365378 22:0.306528 23:0.656272 24:0.0752147 25:0.973967 26:2.40203 27:2.43798 28:0.528493 29:1.16162 30:0 31:0.368922 32:0.379199 33:0.0846448 34:0.405378 35:0.367726 36:0.608762 37:4.10684 38:5.0929 39:0.55433 40:0.643044 41:0 42:0.368922 43:0.511971 44:0.0846448 45:0.592913 46:0.0876089 47:0.993793 48:5.076 49:5.0929 50:0.643044 51:1.16162 52:0 53:0.368922 0:0 
-0.0008736153167747396 1:1.08079 2:0.800802 3:0.230462 4:0.941196 5:0.790127 6:0.299474 7:0.763408 8:0.705839 9:0.44418 10:0.275638 11:0.447682 12:0.405853 13:0.207084 14:0.621802 15:2.09719 16:2.60117 17:0.512927 18:1.17178 19:0 20:0.353098 21:0.351715 22:0.447682 23:0.784687 24:0.0541204 25:0.845271 26:2.39164 27:2.60117 28:0.512927 29:1.42485 30:0 31:0.353098 32:0.34974 33:0.119269 34:0.45891 35:0.114134 36:0.853421 37:3.7296 38:3.33899 39:0.546688 40:0.885944 41:0 42:0.353098 43:0.799628 44:0.119269 45:0.773755 46:0.545831 47:0.444354 48:5.01988 49:3.33899 50:0.885944 51:1.42485 52:0 53:0.353098 0:0 
-0.0007386074275863081 1:1.42833 2:1.06714 3:0.36363 4:1.01387 5:0.807092 6:0.263345 7:0.660954 8:0.998293 9:0.551391 10:0.22498 11:0.539639 12:0.671797 13:0.0966257 14:0.745887 15:2.19959 16:2.50552 17:0.386373 18:1.78653 19:0 20:0.395821 21:0.446375 22:0.539639 23:0.97327 24:0.0465537 25:0.889636 26:2.36683 27:2.50552 28:0.386373 29:1.96207 30:0 31:0.395821 32:0.329095 33:0.229883 34:0.547077 35:0.0789203 36:0.994069 37:3.47579 38:3.46334 39:0.590025 40:1.3151 41:0 42:0.395821 43:1.20511 44:0.229883 45:1.18377 46:0.49892 47:0.486366 48:4.96283 49:3.46334 50:1.3151 51:1.96207 52:0 53:0.395821 0:0 
-0.0008137314913396941 1:1.34494 2:1.0072 3:0.345182 4:1.01245 5:0.783206 6:0.257985 7:0.753546 8:0.963862 9:0.57345 10:0.23467 11:0.570774 12:0.682255 13:0.105819 14:0.716547 15:2.20582 16:2.55715 17:0.341744 18:1.78085 19:0 20:0.387202 21:0.400746 22:0.570774 23:0.95545 24:0.0484739 25:0.865083 26:2.38351 27:2.55715 28:0.341744 29:1.93108 30:0 31:0.387202 32:0.378138 33:0.187777 34:0.52878 35:0.166986 36:0.638155 37:3.55708 38:2.73147 39:0.593504 40:1.27544 41:0 42:0.387202 43:1.28025 44:0.187777 45:1.19231 46:0.63336 47:0.263623 48:4.96068 49:2.73147 50:1.27544 51:1.93108 52:0 53:0.387202 0:0 
-0.0006116224176748058 1:0.748686 2:0.636462 3:0.159058 4:0.989352 5:0.795793 6:0.356854 7:0.761413 8:0.516843 9:0.338576 10:0.186464 11:0.245701 12:0.287524 13:0.222096 14:0.678881 15:1.97777 16:2.52839 17:0.438284 18:0.838309 19:0 20:0.33685 21:0.361633 22:0.245701 23:0.599014 24:0.0640978 25:0.917339 26:2.38531 27:2.52839 28:0.438284 29:1.08951 30:0 31:0.33685 32:0.353492 33:0.101668 34:0.354391 35:0.451341 36:0.538662 37:4.17743 38:5.31468 39:0.525289 40:0.581905 41:0 42:0.33685 43:0.452716 44:0.101668 45:0.551931 46:0.0633474 47:0.907509 48:5.07323 49:5.31468 50:0.57473 51:1.08951 52:0 53:0.33685 0:0 
-0.000741530796072963 1:1.93877 2:2.04341 3:0.182411 4:0.967632 5:0.695467 6:0.104211 7:0.933278 8:1.01239 9:0.0951078 10:0.109856 11:0.448928 12:0.558382 13:0.00597204 14:0.949459 15:1.34156 16:1.3708 17:0.229213 18:1.08862 19:0.221653 20:0.889467 21:0.138797 22:0.659754 23:0.739611 24:0.0517872 25:0.589916 26:1.74547 27:1.46739 28:0 29:1.2727 30:0.116187 31:1.10223 32:0.0744426 33:0.755469 34:0.822599 35:0.0129926 36:0.9668 37:1.62912 38:1.61915 39:0.0997912 40:1.35586 41:0 42:1.2 43:0.0621186 44:0.755469 45:0.739611 46:0.0255826 47:0.412974 48:1.74547 49:1.61915 50:0 51:1.2727 52:0 53:1.2 0:0 
-0.0009785699482799009 1:1.3027 2:0.956034 3:0.264236 4:1.47769 5:0.665986 6:0.20282 7:1.52969 8:0.853302 9:0.336137 10:0.580034 11:0.0454817 12:0.615177 13:0.211334 14:0.775327 15:1.93276 16:2.58299 17:0.613199 18:1.50372 19:0.172564 20:0.797596 21:0.275205 22:0.151667 23:0.254376 24:0.450411 25:0.377843 26:2.97644 27:4.37914 28:0.26898 29:1.04976 30:0 31:0.627653 32:0.188215 33:0.151667 34:0.305301 35:0.162594 36:0.73833 37:3.90319 38:4.37914 39:0.26898 40:0.789295 41:0 42:0.627653 43:0.369465 44:0.771168 45:0.978009 46:0.112797 47:0.502546 48:4.49203 49:4.70439 50:0.182211 51:1.43331 52:0 53:0.797596 0:0 
-0.0021775320474271 1:1.11119 2:0.548676 3:0.43204 4:0.618284 5:0.961094 6:0.630153 7:0.618191 8:0.97892 9:0.144318 10:0.219758 11:0.386673 12:0.540225 13:0.110037 14:0.686516 15:2.07963 16:2.39572 17:0.245396 18:0.894946 19:0 20:0.514617 21:0.0910154 22:0.386673 23:0.459764 24:0.0409732 25:0.832186 26:2.48875 27:2.39572 28:0.245396 29:0.693201 30:0 31:0.514617 32:0.102125 33:0.369484 34:0.429449 35:0.0661769 36:0.706334 37:3.70981 38:3.89439 39:0.222905 40:0.711049 41:0 42:0.514617 43:0.164372 44:0.369484 45:0.489028 46:0.08473 47:0.744676 48:4.14907 49:3.89439 50:0.222905 51:0.894946 52:0 53:0.514617 0:0 
-0.001055232695916478 1:0.784616 2:0.550126 3:0.187659 4:1.0629 5:0.779464 6:0.412032 7:1.04786 8:0.567162 9:0.161697 10:0.117195 11:0.295011 12:0.367628 13:0.0892012 14:0.929979 15:1.97866 16:2.02187 17:0.653003 18:0.757034 19:0.411467 20:0.681523 21:0.0806551 22:0.439537 23:0.481184 24:0.0478524 25:0.637865 26:4.33983 27:4.51036 28:0.121973 29:0.730432 30:0 31:0.681523 32:0.0563069 33:0.439537 34:0.461381 35:0.0367036 36:0.981354 37:4.5013 38:4.51036 39:0.121973 40:0.757034 41:0 42:0.681523 43:0.392629 44:0.142578 45:0.466407 46:0.28331 47:0.442179 48:4.10864 49:5.49779 50:0.146771 51:0.653003 52:0.366009 53:0.411467 0:0 
-0.0003671581627834829 1:1.54934 2:0.830302 3:0.502145 4:0.379905 5:0.919423 6:0.502466 7:0.702532 8:1.36783 9:0.148501 10:0.16271 11:0.53051 12:0.669127 13:0.0455606 14:0.81917 15:2.05595 16:2.18053 17:0.235418 18:1.30146 19:0 20:0.892791 21:0.10282 22:0.53051 23:0.544946 24:0.0603577 25:0.604146 26:2.35224 27:2.18053 28:0.235418 29:1.09993 30:0 31:0.892791 32:0.0797763 33:0.50375 34:0.548252 35:0.0401296 36:0.706582 37:4.11119 38:4.24874 39:0.270908 40:1.05773 41:0 42:0.892791 43:0.248699 44:0.50375 45:0.71649 46:0.0683799 47:0.79807 48:4.46443 49:4.24874 50:0.270908 51:1.30146 52:0 53:0.892791 0:0 
-0.0008829208936331778 1:1.6027 2:0.807954 3:0.543026 4:1.00608 5:0.72985 6:0.45776 7:1.03699 8:0.670618 9:0.215478 10:0.170288 11:0.331878 12:0.417031 13:0.127017 14:0.988246 15:1.68853 16:1.7012 17:0.916231 18:1.06589 19:0.429792 20:0.964123 21:0.0653368 22:0.771829 23:0.811706 24:0.0208173 25:0.923806 26:3.85353 27:3.87491 28:0.140206 29:1.06589 30:0 31:0.964123 32:0.0750714 33:0.771829 34:0.726001 35:0.0252906 36:0.509885 37:3.98795 38:3.87491 39:0.140206 40:1.01117 41:0 42:0.964123 43:0.551217 44:0.13856 45:0.543781 46:0.476623 47:0.660552 48:4.97721 49:5.85342 50:0.668733 51:0.916231 52:0.429792 53:0.843146 0:0 
-0.0009974660561102397 1:1.50307 2:1.21556 3:0.25289 4:1.22714 5:0.605912 6:0.171413 7:1.04932 8:0.669697 9:0.453751 10:0.421086 11:0.415256 12:0.452942 13:0.321285 14:0.545167 15:1.43527 16:2.29744 17:0.482119 18:1.52862 19:0 20:0.822815 21:0.393446 22:0.415256 23:0.750564 24:0.118034 25:0.831536 26:1.98661 27:2.29744 28:0.462913 29:1.8331 30:0 31:0.822815 32:0.263262 33:0.609151 34:0.486018 35:0.137186 36:0.301336 37:2.89201 38:2.38915 39:0.462913 40:1.45009 41:0.22366 42:1.02383 43:0.73721 44:0.415841 45:1.10248 46:0.126994 47:0.78558 48:5.0582 49:5.49779 50:1.45009 51:1.8331 52:0.822815 53:1.02383 0:0 
-0.0002944228665543161 1:1.01956 2:0.668393 3:0.273042 4:1.45445 5:0.6997 6:0.556262 7:1.71438 8:0.460217 9:0.247245 10:0.437162 11:0.353433 12:0.699306 13:0.173317 14:0.623581 15:1.80335 16:2.41861 17:0.228387 18:1.18623 19:0.159894 20:0.59332 21:0.206793 22:0.508023 23:0.701724 24:0.0386285 25:0.940867 26:2.28071 27:2.33294 28:0.228387 29:1.17228 30:0 31:0.748703 32:0.228347 33:0.508023 34:0.617243 35:0.114608 36:0.681743 37:2.66164 38:2.33294 39:0.324491 40:1.01424 41:0 42:0.748703 43:0.0758974 44:0.503425 45:0.571387 46:0.020057 47:0.86446 48:3.43199 49:3.50499 50:0.316391 51:0.874276 52:0.062734 53:0.64394 0:0 
-0.0008349117715720657 1:0.588694 2:0.362839 3:0.121583 4:1.47884 5:0.94663 6:0.436429 7:0.697974 8:0.463362 9:0.132277 10:0.108683 11:0.16842 12:0.11081 13:0.219029 14:0.658947 15:2.28834 16:2.07014 17:0.660927 18:0.718065 19:0.631772 20:0.790384 21:0.107405 22:0.62825 23:0.616246 24:0.0546682 25:0.309299 26:3.7159 27:4.56454 28:0.120679 29:0.667508 30:0.175178 31:0.790384 32:0.194789 33:0.465553 34:0.650867 35:0.0347192 36:0.544937 37:4.54724 38:4.83182 39:0.120679 40:0.718065 41:0 42:0.631772 43:0.118229 44:0.465553 45:0.580697 46:0.0164288 47:0.963613 48:4.8661 49:4.83182 50:0.12107 51:0.660927 52:0 53:0.631772 0:0 
-0.001151141373130747 1:0.556068 2:0.382501 3:0.0915483 4:1.49571 5:0.728294 6:0.325249 7:1.17342 8:0.432073 9:0.307097 10:0.901255 11:0.295057 12:0.622098 13:0.872824 14:0.295301 15:4.81043 16:0.394791 17:0.168608 18:0.632709 19:0.293937 20:0.620745 21:0.0610935 22:0.103873 23:0.109609 24:0.183997 25:0.503302 26:2.40162 27:2.27591 28:0.216894 29:0.632709 30:0.0760306 31:0.437258 32:0.207327 33:0.0845345 34:0.265916 35:0.217409 36:0.647584 37:2.69549 38:2.35619 39:0.158145 40:0.44501 41:0.0760306 42:0.366236 43:0.17377 44:0.238906 45:0.412245 46:0.0124001 47:0.930764 48:2.95765 49:2.86858 50:0.158145 51:0.374736 52:0 53:0.533773 0:0 
-0.001466985133680675 1:1.89935 2:1.2457 3:0.34817 4:0.317401 5:0.829994 6:0.322079 7:0.831212 8:0.465995 9:0.299973 10:0.403299 11:0.478106 12:0.877165 13:0.0286784 14:0.957826 15:3.97957 16:4.0441 17:0.127248 18:0.423282 19:0 20:0.485324 21:0.200342 22:0.478106 23:0.577281 24:0.105958 25:0.63005 26:4.46741 27:4.0441 28:0 29:0.546776 30:0 31:0.485324 32:0.0752253 33:0.895891 34:0.964385 35:0.0106523 36:0.894647 37:3.82798 38:3.86736 39:0.127248 40:0.546776 41:0.4303 42:0.915504 43:0.521023 44:0.175105 45:0.577281 46:0.348821 47:0.586101 48:4.46741 49:5.46332 50:0 51:0.546776 52:0.485324 53:0.915504 0:0 
-0.001243163389302927 1:1.80089 2:1.30583 3:0.248501 4:0.279704 5:0.734449 6:0.262064 7:1.02355 8:0.434614 9:0.281261 10:0.704789 11:0.181023 12:0.842743 13:0.201032 14:0.750618 15:3.99142 16:4.61272 17:0.129838 18:0.692913 19:0 20:0.686809 21:0.219701 22:0.181023 23:0.384243 24:0.101189 25:0.839393 26:4.91778 27:4.61272 28:0.692913 29:0.804191 30:0 31:0.686809 32:0.0777055 33:0.799464 34:0.875155 35:0.00668971 36:0.921723 37:3.6839 38:3.70926 39:0.0757793 40:0.797068 41:0 42:0.686809 43:0.122847 44:0.799464 45:0.913923 46:0.0166162 47:0.811968 48:3.80988 49:3.70926 50:0.0757793 51:0.804191 52:0 53:0.686809 0:0 
-0.002304104881502998 1:1.49712 2:1.02938 3:0.142508 4:0.225628 5:0.692689 6:0.266557 7:1.0272 8:0.350296 9:0.173613 10:0.346517 11:0.229104 12:0.569548 13:0.0569931 14:0.854267 15:4.12439 16:3.83633 17:0.0748569 18:0.384982 19:0 20:0.365122 21:0.192357 22:0.229104 23:0.263377 24:0.251785 25:0.496895 26:4.68383 27:3.83633 28:0.384982 29:0.52652 30:0 31:0.365122 32:0.0821972 33:0.594204 34:0.675731 35:0.00526139 36:0.976022 37:3.85022 38:3.86042 39:0.0882506 40:0.52652 41:0 42:0.365122 43:0.0733805 44:0.594204 45:0.63198 46:0.0326918 47:0.702346 48:3.99619 49:3.86042 50:0.0748569 51:0.458186 52:0 53:0.365122 0:0 
-0.003611350657549773 1:1.67732 2:1.1647 3:0.200949 4:0.242341 5:0.765611 6:0.226354 7:1.0518 8:0.381343 9:0.202893 10:0.225252 11:0.360478 12:0.528161 13:0.11027 14:0.675024 15:4.15739 16:3.69145 17:0.18594 18:0.453033 19:0.12739 20:0.24362 21:0.0938591 22:0.310105 23:0.364895 24:0.0722681 25:0.639561 26:4.45027 27:4.09918 28:0.192517 29:0.637375 30:0.12739 31:0.336125 32:0.301072 33:0.603732 34:0.903971 35:0.00964572 36:0.908947 37:3.74119 38:3.64094 39:0.284188 40:0.637375 41:0 42:0.336125 43:0.191389 44:0.603732 45:0.699329 46:0.0814457 47:0.647584 48:3.96269 49:3.64094 50:0.18594 51:0.378446 52:0 53:0.336125 0:0 
-0.001838726710207422 1:1.93111 2:1.27204 3:0.494108 4:0.32146 5:0.873561 6:0.327916 7:0.84608 8:0.400369 9:0.122349 10:0.179836 11:0.265718 12:0.436917 13:0.0514968 14:0.872599 15:4.49156 16:4.31215 17:0.557379 18:0.779204 19:0.492904 20:0.711874 21:0.111792 22:0.902109 23:1.01288 24:0.00502753 25:0.820473 26:3.6939 27:3.62031 28:0.132521 29:0.779204 30:0.117975 31:0.711874 32:0.0765452 33:0.830457 34:0.905997 35:0.00453571 36:0.993938 37:3.79867 38:3.79729 39:0.0950637 40:0.649803 41:0.117975 42:0.620715 43:0.121224 44:0.715273 45:0.83392 46:0.0102471 47:0.941341 48:3.89252 49:3.86706 50:0.0950637 51:0.557379 52:0.133501 53:0.492904 0:0 
-0.0008218772651538477 1:1.08636 2:0.738365 3:0.119586 4:0.489561 5:0.6751 6:0.338681 7:1.09453 8:0.340252 9:0.258252 10:0.232999 11:0.344369 12:0.575293 13:0.0221914 14:0.943597 15:1.17 16:1.0951 17:0.266043 18:1.1528 19:0 20:0.526614 21:0.107081 22:0.344369 23:0.355805 24:0.0971942 25:0.585856 26:1.48214 27:1.0951 28:0.266043 29:0.902402 30:0 31:0.526614 32:0.284888 33:0.125465 34:0.379544 35:0.19081 36:0.730553 37:4.77481 38:5.39812 39:0 40:0.914868 41:0.125216 42:0.410103 43:0.484858 44:0.198796 45:0.592193 46:0.271047 47:0.615751 48:3.9508 49:4.80305 50:0.466663 51:1.1528 52:0 53:0.526614 0:0 
-0.001160634454916617 1:1.9704 2:1.27115 3:0.418962 4:0.295199 5:0.793422 6:0.283955 7:1.09105 8:0.572534 9:0.183293 10:0.394583 11:0.211957 12:0.586004 13:0.114082 14:0.849439 15:1.17158 16:0.847817 17:0.928449 18:1.05474 19:0.901046 20:0.973701 21:0.161165 22:0.927222 23:1.07481 24:0.0206471 25:0.765569 26:2.38119 27:2.52134 28:0.193596 29:1.05474 30:0.104027 31:0.973701 32:0.0858019 33:0.839838 34:0.925358 35:0.00250716 36:0.938356 37:2.62245 38:2.59916 39:0.164539 40:0.998005 41:0 42:0.901046 43:0.0916214 44:0.839838 45:0.780306 46:0.0273931 47:0.412089 48:2.73195 49:2.59916 50:0.164539 51:0.928449 52:0 53:0.901046 0:0 
-0.003055691502917844 1:1.55802 2:1.13996 3:0.176082 4:0.199739 5:0.716231 6:0.290934 7:1.20975 8:0.410236 9:0.277451 10:0.357174 11:0.227975 12:0.51221 13:0.205004 14:0.702109 15:1.43824 16:2.05331 17:0.254998 18:0.600992 19:0.1716 20:0.344081 21:0.387259 22:0.326213 23:0.573126 24:0.224231 25:0.565895 26:1.91178 27:2.72918 28:0.247939 29:0.350956 30:0 31:0.240722 32:0.386673 33:0.326213 34:0.677927 35:0.109286 36:0.722719 37:2.23064 38:2.72918 39:0.103783 40:0.499864 41:0 42:0.240722 43:0.179509 44:0.552091 45:0.731019 46:0.00723206 47:0.969339 48:2.38531 49:2.40494 50:0.103783 51:0.600992 52:0 53:0.344081 0:0 
-0.001154636061215628 1:1.29278 2:0.812421 3:0.107315 4:0.145835 5:0.625127 6:0.243882 7:1.0153 8:0.332019 9:0.331703 10:0.183512 11:0.381231 12:0.45527 13:0.129179 14:0.624048 15:1.97569 16:2.43013 17:0.0477814 18:0.276989 19:0 20:0.454248 21:0.153051 22:0.381231 23:0.529254 24:0.027581 25:0.976464 26:2.40267 27:2.43013 28:0.250477 29:0.518509 30:0 31:0.454248 32:0.462545 33:0.0737547 34:0.430219 35:0.620314 36:0.422021 37:1.31146 38:5.96143 39:0.239466 40:0.518509 41:0 42:0.454248 43:0.527702 44:0.0737547 45:0.467477 46:0.790061 47:0.312833 48:1.68567 49:5.96143 50:0.0477814 51:0.296936 52:0 53:0.454248 0:0 
0.001349496633754702 1:0.989174 2:0.626786 3:0.216363 4:0.191709 5:0.741233 6:0.353988 7:0.989802 8:0.66588 9:0.346293 10:0.343194 11:0.108319 12:0.432803 13:0.166198 14:0.802289 15:3.11016 16:2.632 17:0.195542 18:0.560127 19:0.105621 20:0.2089 21:0.382437 22:0.0724638 23:0.447803 24:0.130509 25:0.906691 26:3.57747 27:3.82211 28:0.195542 29:0.430961 30:0.105621 31:0.117778 32:0.382587 33:0.110615 34:0.417125 35:0.357843 36:0.599093 37:4.06231 38:5.06538 39:0.211691 40:0.381414 41:0 42:0.2089 43:0.276952 44:0.110615 45:0.368126 46:0.162554 47:0.798188 48:4.60905 49:5.06538 50:0.24168 51:0.560127 52:0 53:0.2089 0:0 
-0.003860564315350014 1:1.16955 2:0.761277 3:0.488267 4:0.591659 5:0.772198 6:0.378574 7:0.886506 8:0.274809 9:0.154652 10:0.176785 11:0.252497 12:0.42676 13:0.0288649 14:0.944239 15:4.03248 16:3.94921 17:0 18:0.283556 19:0.12742 20:0.260021 21:0.0862619 22:0.230946 23:0.316353 24:0.0142698 25:0.751436 26:4.73564 27:4.48316 28:0.205679 29:0.46811 30:0.12742 31:0.385945 32:0.103417 33:0.455014 34:0.55518 35:0.0162938 36:0.932031 37:3.47154 38:3.41254 39:0.283556 40:0.46811 41:0 42:0.385945 43:0.252143 44:0.455014 45:0.42676 46:0.183519 47:0.454971 48:4.00728 49:3.41254 50:0 51:0.283556 52:0 53:0.385945 0:0 
-0.0007055615927063966 1:1.43176 2:0.906248 3:0.289907 4:1.35375 5:0.864666 6:0.288395 7:0.806411 8:0.629261 9:0.200692 10:0.494581 11:0.308271 12:0.740624 13:0.161727 14:0.863202 15:1.18642 16:0.896055 17:0.222584 18:1.67194 19:0.410495 20:1.00811 21:0.117779 22:0.586246 23:0.691315 24:0.0266188 25:0.853655 26:1.61521 27:1.7088 28:0.191272 29:1.6271 30:0.024435 31:1.32136 32:0.0530607 33:0.564133 34:0.530659 35:0.0239567 36:0.385072 37:1.84095 38:1.72889 39:0.191272 40:1.45547 41:0.024435 42:1.29834 43:0.195721 44:0.741019 45:0.707596 46:0.0850245 47:0.387056 48:4.21407 49:4.47921 50:0.330237 51:1.44068 52:0 53:1.32136 0:0 
-0.001727791494918483 1:0.966548 2:0.539792 3:0.0952145 4:0.547591 5:0.664015 6:0.306311 7:1.1313 8:0.335072 9:0.166463 10:0.291169 11:0.268368 12:0.428554 13:0.233412 14:0.712723 15:1.21418 16:0.668289 17:0.542433 18:0.761576 19:0.501671 20:0.521993 21:0.196767 22:0.257031 23:0.193627 24:0.274177 25:0.297832 26:2.95041 27:3.98575 28:0.258659 29:0.542433 30:0.0462148 31:0.501671 32:0.117192 33:0.289549 34:0.346419 35:0.10344 36:0.675133 37:3.76623 38:4.04508 39:0.124844 40:0.749672 41:0 42:0.521993 43:0.0607232 44:0.289549 45:0.335338 46:0.0407687 47:0.854783 48:4.15955 49:4.04508 50:0.124844 51:0.761576 52:0 53:0.521993 0:0 
-0.001085601327556134 1:1.35884 2:0.950635 3:0.257492 4:1.49936 5:0.783179 6:0.244602 7:1.06309 8:0.635553 9:0.224322 10:0.104057 11:0.946844 12:1.04418 13:0.0117746 14:0.973956 15:4.57295 16:4.58311 17:0.0351766 18:1.69084 19:0.325375 20:1.50258 21:0.106084 22:0.556843 23:0.646936 24:0.0297145 25:0.804719 26:1.54727 27:1.6719 28:1.38686 29:1.70444 30:1.17814 31:1.50258 32:0.251549 33:0.623051 34:0.760647 35:0.0977513 36:0.614108 37:4.27576 38:4.62307 39:0.396114 40:1.38686 41:0 42:1.17814 43:0.435598 44:0.623051 45:1.05787 46:0.0102217 47:0.914229 48:4.50665 49:4.62307 50:0.0351766 51:1.70444 52:0 53:1.17814 0:0 
0.001650775972717202 1:1.34115 2:1.01905 3:0.49305 4:0.597343 5:0.607358 6:0.260485 7:0.930808 8:1.67879 9:0.261098 10:0.300796 11:0.175606 12:0.473777 13:0.0437897 14:0.931787 15:2.52866 16:2.66207 17:0.381879 18:0.821544 19:0.261789 20:0.369391 21:0.199685 22:0.294989 23:0.455288 24:0.103882 25:0.733623 26:3.32106 27:3.67722 28:0.252837 29:0.513975 30:0.0917193 31:0.261789 32:0.263222 33:0.312956 34:0.563409 35:0.0614876 36:0.901681 37:3.8359 38:3.98738 39:0.15303 40:0.632057 41:0.0917193 42:0.325979 43:0.30215 44:0.298759 45:0.577201 46:0.0902322 47:0.837257 48:4.09656 49:4.36008 50:0.15303 51:0.737681 52:0 53:0.369391 0:0 
-0.001418812278972299 1:1.13223 2:0.540266 3:0.424773 4:0.389323 5:0.919559 6:0.640654 7:0.707671 8:0.795497 9:0.160576 10:0.0551172 11:0.483616 12:0.536903 13:0.00879853 14:0.999573 15:1.40681 16:1.40699 17:0.200063 18:0.715963 19:0 20:0.364933 21:0.168148 22:0.483616 23:0.44993 24:0.113008 25:0.42403 26:1.73869 27:1.40699 28:0.180698 29:0.524626 30:0 31:0.364933 32:0.10736 33:0.327972 34:0.42764 35:0.0339347 36:0.933952 37:2.1931 38:2.24194 39:0.180698 40:0.380234 41:0 42:0.364933 43:0.311679 44:0.327972 45:0.467168 46:0.231868 47:0.53719 48:2.89863 49:2.24194 50:0.353048 51:0.715963 52:0 53:0.364933 0:0 
-0.001112462034001788 1:1.25762 2:0.923873 3:0.103882 4:0.610182 5:0.481136 6:0.162533 7:0.838045 8:0.377298 9:0.201732 10:0.332713 11:0.34868 12:0.598612 13:0.154527 14:0.610069 15:2.12322 16:2.81304 17:0.690773 18:0.856166 19:0.515091 20:0.740087 21:0.260871 22:0.396291 23:0.262862 24:0.225784 25:0.31798 26:5.07814 27:5.99513 28:0 29:0.856166 30:0.268255 31:0.740087 32:0.115738 33:0.17339 34:0.107666 35:0.226702 36:0.409424 37:4.61891 38:5.1213 39:0.185274 40:0.690773 41:0 42:0.515091 43:0.0976062 44:0.17339 45:0.262862 46:0.0582439 47:0.960894 48:5.07814 49:5.1213 50:0 51:0.856166 52:0 53:0.515091 0:0 
-0.001050147896047256 1:0.729967 2:0.458298 3:0.141583 4:1.41423 5:0.772895 6:0.327506 7:0.919025 8:0.348353 9:0.215516 10:0.135079 11:0.585923 12:0.718391 13:0.0129675 14:0.893127 15:1.24421 16:1.16848 17:0.970438 18:1.19348 19:0.621613 20:0.767117 21:0.220799 22:0.0979212 23:0.295881 24:0.185498 25:0.75 26:4.96283 27:5.49779 28:0 29:0.970438 30:0.147978 31:0.621613 32:0.392012 33:0.196884 34:0.500856 35:0.257913 36:0.524437 37:3.84209 38:4.95737 39:0.4359 40:1.19348 41:0 42:0.767117 43:0.114174 44:0.196884 45:0.295881 46:0.0751899 47:0.99607 48:4.96283 49:4.95737 50:0 51:0.970438 52:0 53:0.767117 0:0 
-0.001003542849471769 1:1.96972 2:1.19789 3:0.333831 4:1.24431 5:0.54832 6:0.270908 7:1.17883 8:0.613004 9:0.27888 10:0.949641 11:0.152458 12:1.05258 13:0.246596 14:0.612168 15:1.87921 16:2.91812 17:0.376574 18:1.39537 19:0.0298366 20:0.642833 21:0.150291 22:0.777876 23:0.927896 24:0.00338242 25:0.955694 26:2.30481 27:2.27942 28:0.320197 29:1.27265 30:0.169388 31:1.00962 32:0.0834429 33:0.634384 34:0.669852 35:0.0369015 36:0.686485 37:2.58191 38:2.41398 39:0.320197 40:0.995521 41:0.169388 42:0.869201 43:0.138043 44:0.372479 45:0.488596 46:0.0557719 47:0.823703 48:3.07839 49:2.90949 50:0.243056 51:0.933398 52:0.222702 53:0.594922 0:0 
-0.001122701325738078 1:1.65157 2:0.966137 3:0.363123 4:0.940262 5:0.632708 6:0.450628 7:0.985694 8:0.519899 9:0.507533 10:0.774643 11:0.115221 12:0.725655 13:0.617266 14:0.379617 15:4.73486 16:0.291457 17:0.43072 18:1.35589 19:0.251641 20:0.678569 21:0.348676 22:0.344317 23:0.667937 24:0.0864117 25:0.877338 26:1.21203 27:1.0122 28:0.820017 29:1.35589 30:0 31:0.85013 32:0.690546 33:0.344317 34:0.543839 35:0.553405 36:0.351492 37:2.44033 38:1.0122 39:0.401403 40:1.08575 41:0 42:0.85013 43:0.197872 44:0.56979 45:0.757295 46:0.0306411 47:0.932783 48:3.18442 49:3.23565 50:0.401403 51:1.2003 52:0 53:0.85013 0:0 
-0.0009529685985373587 1:1.64156 2:0.95162 3:0.317596 4:0.895811 5:0.631089 6:0.434982 7:1.0021 8:0.507543 9:0.314546 10:0.0538185 11:0.648942 12:0.6911 13:0.015902 14:0.966617 15:1.15629 16:1.14417 17:0.0524872 18:1.37481 19:0.492184 20:1.27339 21:0.502177 22:0.170211 23:0.663234 24:0.0907311 25:0.887746 26:1.26557 27:1.52321 28:0.0524872 29:1.35634 30:0 31:0.785593 32:0.528479 33:0.170211 34:0.553746 35:0.403432 36:0.611045 37:2.39321 38:1.52321 39:0.81772 40:1.09866 41:0 42:0.785593 43:0.656807 44:0.0893975 45:0.728504 46:0.191801 47:0.79399 48:4.78125 49:4.20529 50:0.349001 51:1.37481 52:0.254104 53:0.738029 0:0 
