svm_type epsilon_svr
kernel_type rbf
gamma 2.4603
nr_class 2
total_sv 576
rho 0.0810721
SV
0.3603 1:1.07159 2:0.831615 3:0.217652 4:0.496562 5:0.824506 6:0.24489 7:0.674882 8:0.145237 9:1 0:0 
0.3410236071417489 1:1.14698 2:0.920929 3:0.355181 4:0.836234 5:0.84032 6:0.289998 7:0.71103 8:0.136036 9:1 0:0 
0.3603 1:1.28697 2:0.98976 3:0.260426 4:0.629779 5:0.822298 6:0.218104 7:0.67732 8:0.132417 9:1 0:0 
0.3603 1:1.5531 2:1.06113 3:0.24349 4:0.369616 5:0.804795 6:0.253135 7:0.631508 8:0.124206 9:1 0:0 
0.1715840379445566 1:2.11659 2:1.99559 3:0.264612 4:0.653005 5:0.731704 6:0.1753 7:0.674345 8:0.189424 9:1 0:0 
0.3603 1:1.67817 2:1.23981 3:0.319067 4:0.736888 5:0.574208 6:0.256673 7:0.753536 8:0.242626 9:1 0:0 
0.3603 1:1.40255 2:1.22988 3:0.169688 4:0.483912 5:0.786092 6:0.357906 7:0.656962 8:0.149723 9:1 0:0 
0.3603 1:0.968543 2:0.750659 3:0.141479 4:0.384206 5:0.744751 6:0.291961 7:0.799969 8:0.124668 9:1 0:0 
0.3603 1:2.26193 2:1.63955 3:0.362497 4:0.359534 5:0.758657 6:0.171671 7:0.749912 8:0.257097 9:1 0:0 
0.3032284631411968 1:2.83444 2:2.23053 3:0.308823 4:0.624612 5:0.715121 6:0.207228 7:0.815447 8:0.287818 9:1 0:0 
0.3603 1:2.21727 2:1.72543 3:0.248276 4:0.647566 5:0.688695 6:0.224778 7:0.853297 8:0.292651 9:1 0:0 
0.06821056122299114 1:2.04339 2:1.54782 3:0.412911 4:0.378638 5:0.681387 6:0.138319 7:0.744298 8:0.356459 9:1 0:0 
0.1641553530065607 1:2.15867 2:1.77191 3:0.538958 4:1.20561 5:0.624676 6:0.195532 7:0.735294 8:0.140616 9:1 0:0 
0.01386032390875329 1:2.58878 2:2.05754 3:0.294738 4:1.29575 5:0.644626 6:0.194896 7:0.71287 8:0.126514 9:1 0:0 
0.3603 1:1.7413 2:1.12393 3:0.312293 4:1.25893 5:0.626276 6:0.185527 7:0.772947 8:0.12663 9:1 0:0 
0.3603 1:2.03832 2:1.44619 3:0.252576 4:1.02605 5:0.626116 6:0.14851 7:0.737337 8:0.111245 9:1 0:0 
0.1788758976616987 1:3.64155 2:2.78306 3:0.350285 4:0.375005 5:0.786693 6:0.159661 7:0.735096 8:0.173226 9:1 0:0 
-0.02505682012433967 1:1.92305 2:1.33952 3:0.40846 4:0.899361 5:0.673402 6:0.408096 7:0.719047 8:0.231313 9:1 0:0 
0.3603 1:1.37579 2:1.21433 3:0.245088 4:0.236313 5:0.837259 6:0.204702 7:0.710307 8:0.0932015 9:1 0:0 
0.3603 1:0.906295 2:0.670911 3:0.112986 4:0.475811 5:0.792044 6:0.322302 7:0.906882 8:0.100122 9:1 0:0 
0.05022049409774951 1:2.5179 2:2.24686 3:0.205771 4:0.234464 5:0.772923 6:0.167054 7:0.675335 8:0.103468 9:1 0:0 
0.1729287228429244 1:2.5058 2:2.10871 3:0.237392 4:0.193196 5:0.55881 6:0.175154 7:0.715717 8:0.182806 9:1 0:0 
0.01518887826282307 1:2.01049 2:1.72893 3:0.198371 4:0.280834 5:0.567664 6:0.264961 7:0.742122 8:0.198825 9:1 0:0 
0.3603 1:1.6633 2:1.44594 3:0.191857 4:0.324265 5:0.580003 6:0.282651 7:0.737977 8:0.198751 9:1 0:0 
0.3603 1:1.54099 2:1.31427 3:0.164812 4:0.405672 5:0.601194 6:0.315741 7:0.717148 8:0.206741 9:1 0:0 
0.3603 1:1.25804 2:1.05661 3:0.108905 4:0.369061 5:0.786205 6:0.329712 7:0.708439 8:0.190099 9:1 0:0 
0.3603 1:0.919124 2:0.665141 3:0.0965043 4:0.357499 5:0.78671 6:0.351769 7:0.688352 8:0.181048 9:1 0:0 
0.3585989543765974 1:1.78824 2:1.64576 3:0.250302 4:0.471753 5:0.697102 6:0.166224 7:0.723705 8:0.211954 9:1 0:0 
0.1342849409621098 1:1.52084 2:1.22184 3:0.193157 4:0.458264 5:0.766403 6:0.20262 7:0.677324 8:0.109431 9:1 0:0 
0.1409319012235432 1:2.05296 2:1.87933 3:0.217268 4:0.378862 5:0.522071 6:0.208382 7:0.779917 8:0.231255 9:1 0:0 
0.2215158838650033 1:1.64099 2:1.4647 3:0.373553 4:0.451075 5:0.588991 6:0.283336 7:0.849521 8:0.21948 9:1 0:0 
0.3603 1:1.0742 2:0.958821 3:0.250359 4:0.319812 5:0.593834 6:0.256735 7:0.800487 8:0.260479 9:1 0:0 
0.3603 1:1.28974 2:1.23199 3:0.174429 4:0.333655 5:0.696094 6:0.242703 7:0.741008 8:0.208382 9:1 0:0 
0.3603 1:1.22682 2:0.913889 3:0.226574 4:0.582738 5:0.711749 6:0.268248 7:0.687272 8:0.156617 9:1 0:0 
0.3603 1:1.17173 2:0.94029 3:0.1532 4:0.663658 5:0.77552 6:0.213863 7:0.685863 8:0.108501 9:1 0:0 
0.3603 1:1.42387 2:1.07682 3:0.18948 4:0.833272 5:0.616538 6:0.137069 7:0.70982 8:0.107813 9:1 0:0 
0.3603 1:1.64419 2:1.19299 3:0.232776 4:0.405541 5:0.80141 6:0.158436 7:0.653757 8:0.114415 9:1 0:0 
0.1533558364019726 1:1.84472 2:1.62524 3:0.228134 4:0.467297 5:0.815364 6:0.13337 7:0.622484 8:0.0891173 9:1 0:0 
0.3603 1:1.58605 2:1.27453 3:0.258282 4:0.587573 5:0.849809 6:0.165529 7:0.612126 8:0.117541 9:1 0:0 
0.3603 1:1.53137 2:1.4515 3:0.228528 4:0.709688 5:0.815162 6:0.205115 7:0.66336 8:0.187539 9:1 0:0 
0.3603 1:1.49955 2:1.3125 3:0.280626 4:0.68728 5:0.844778 6:0.179236 7:0.667509 8:0.167231 9:1 0:0 
0.3603 1:1.54517 2:1.32145 3:0.245193 4:0.644773 5:0.856072 6:0.154284 7:0.635214 8:0.14758 9:1 0:0 
0.3603 1:0.559618 2:0.452401 3:0.088573 4:0.882577 5:0.820975 6:0.231056 7:0.761965 8:0.12997 9:1 0:0 
0.3603 1:0.659165 2:0.514811 3:0.140635 4:0.883043 5:0.870078 6:0.253742 7:0.642928 8:0.158168 9:1 0:0 
-0.3603 1:0.710031 2:0.414085 3:0.424037 4:0.538883 5:0.987423 6:0.518828 7:0.638205 8:0.447465 9:1 0:0 
0.3603 1:0.862931 2:0.635719 3:0.370911 4:0.799693 5:0.877614 6:0.230736 7:0.636003 8:0.189269 9:1 0:0 
0.3603 1:0.967022 2:0.669306 3:0.336349 4:0.778114 5:0.845164 6:0.222095 7:0.632429 8:0.201841 9:1 0:0 
-0.3603 1:1.59159 2:1.05919 3:0.410682 4:0.768576 5:0.782658 6:0.246739 7:0.642858 8:0.448437 9:1 0:0 
-0.3603 1:0.500019 2:0.386912 3:0.0881456 4:0.238242 5:0.950242 6:0.37832 7:0.720811 8:0.322322 9:1 0:0 
0.1323788473938781 1:1.25398 2:0.925913 3:0.272844 4:0.348999 5:0.675566 6:0.198004 7:0.680328 8:0.415546 9:1 0:0 
-0.07259091972659079 1:3.33919 2:2.70066 3:0.49987 4:0.197821 5:0.818805 6:0.159694 7:0.791921 8:0.109353 9:1 0:0 
-0.05494393035020467 1:2.63959 2:2.03418 3:0.391044 4:0.176998 5:0.798746 6:0.14347 7:0.795284 8:0.0839689 9:1 0:0 
0.3603 1:1.3126 2:0.931377 3:0.413906 4:0.918003 5:0.806807 6:0.184825 7:0.706163 8:0.377902 9:1 0:0 
0.3603 1:1.12622 2:0.789491 3:0.158841 4:0.732559 5:0.802544 6:0.179634 7:0.68311 8:0.291531 9:1 0:0 
-0.1773351067451524 1:2.37263 2:1.88139 3:0.268527 4:0.104913 5:0.739883 6:0.138847 7:0.792989 8:0.0774502 9:1 0:0 
-0.02534737517844279 1:3.66729 2:2.94828 3:0.332948 4:0.111121 5:0.798738 6:0.15785 7:0.785015 8:0.0838817 9:1 0:0 
0.3603 1:0.8024 2:0.690625 3:0.163457 4:0.612444 5:0.819039 6:0.21345 7:0.811893 8:0.350491 9:1 0:0 
-0.3603 1:0.778324 2:0.592343 3:0.0978017 4:0.550527 5:0.840008 6:0.192889 7:0.685573 8:0.310867 9:1 0:0 
-0.3603 1:0.98154 2:0.844253 3:0.130006 4:0.552494 5:0.796525 6:0.427028 7:0.765342 8:0.135803 9:1 0:0 
-0.3603 1:1.25989 2:0.834467 3:0.191647 4:0.344362 5:0.745517 6:0.311649 7:0.637727 8:0.275891 9:1 0:0 
-0.3603 1:0.962676 2:0.577936 3:0.153456 4:0.318947 5:0.948879 6:0.321652 7:0.62721 8:0.302496 9:1 0:0 
-0.02630204406037269 1:0.98302 2:0.637674 3:0.132174 4:0.311171 5:0.944314 6:0.309058 7:0.613427 8:0.293218 9:1 0:0 
-0.3603 1:0.650502 2:0.354222 3:0.0811706 4:0.256801 5:0.935554 6:0.481254 7:0.606522 8:0.183605 9:1 0:0 
-0.3603 1:0.94061 2:0.607656 3:0.171413 4:0.390612 5:0.92909 6:0.428072 7:0.6211 8:0.242525 9:1 0:0 
-0.3603 1:0.807771 2:0.521553 3:0.0974015 4:0.313727 5:0.925335 6:0.286065 7:0.610671 8:0.30883 9:1 0:0 
-0.3603 1:0.686261 2:0.484702 3:0.0961505 4:0.312926 5:0.936102 6:0.476726 7:0.601726 8:0.202306 9:1 0:0 
-0.2573287283806224 1:0.696863 2:0.50054 3:0.0926469 4:0.309857 5:0.929278 6:0.47571 7:0.608815 8:0.202306 9:1 0:0 
-0.3603 1:0.697606 2:0.451593 3:0.103725 4:0.323225 5:0.933257 6:0.471112 7:0.61761 8:0.206906 9:1 0:0 
-0.3603 1:1.1634 2:0.837593 3:0.151742 4:0.507324 5:0.818535 6:0.220996 7:0.65609 8:0.42611 9:1 0:0 
-0.1050859470098512 1:1.98016 2:1.50839 3:0.414683 4:0.125632 5:0.906115 6:0.143693 7:0.616949 8:0.266813 9:1 0:0 
-0.08216912061163986 1:1.25942 2:0.882026 3:0.277211 4:0.117201 5:0.840386 6:0.139328 7:0.652595 8:0.237335 9:1 0:0 
-0.0111397944556472 1:3.05286 2:2.49303 3:0.373666 4:0.317751 5:0.880174 6:0.14667 7:0.648292 8:0.54185 9:1 0:0 
0.3603 1:0.807722 2:0.620179 3:0.142372 4:0.37281 5:0.91108 6:0.341128 7:0.619957 8:0.293355 9:1 0:0 
0.3603 1:0.850922 2:0.69474 3:0.147083 4:0.390452 5:0.905524 6:0.33787 7:0.622604 8:0.307531 9:1 0:0 
0.3603 1:0.822661 2:0.651078 3:0.148429 4:0.393638 5:0.904586 6:0.338518 7:0.617362 8:0.310706 9:1 0:0 
0.3603 1:0.824241 2:0.622116 3:0.152644 4:0.408545 5:0.906413 6:0.322844 7:0.626874 8:0.316023 9:1 0:0 
0.1388663374697104 1:0.889129 2:0.700558 3:0.192903 4:0.565709 5:0.898864 6:0.239768 7:0.610153 8:0.459967 9:1 0:0 
0.3603 1:0.912981 2:0.719485 3:0.204051 4:0.567699 5:0.900839 6:0.242264 7:0.610627 8:0.456862 9:1 0:0 
0.3603 1:0.919827 2:0.728903 3:0.189184 4:0.56853 5:0.900775 6:0.239573 7:0.603573 8:0.459988 9:1 0:0 
0.3603 1:0.985478 2:0.79544 3:0.204689 4:0.570165 5:0.901786 6:0.238335 7:0.606315 8:0.46312 9:1 0:0 
0.3603 1:1.10716 2:0.836537 3:0.139688 4:0.432473 5:0.812367 6:0.189195 7:0.651604 8:0.371767 9:1 0:0 
0.3603 1:0.944448 2:0.746431 3:0.127535 4:0.464305 5:0.821389 6:0.196359 7:0.615813 8:0.365508 9:1 0:0 
0.3603 1:0.930228 2:0.696839 3:0.134819 4:0.453662 5:0.822274 6:0.194654 7:0.628078 8:0.37023 9:1 0:0 
0.2576493960690151 1:0.707714 2:0.546178 3:0.145176 4:0.464046 5:0.72685 6:0.226655 7:0.747359 8:0.306118 9:1 0:0 
-0.185377094471137 1:1.48545 2:0.967832 3:0.456244 4:1.32052 5:0.949709 6:0.234939 7:0.671745 8:0.411546 9:1 0:0 
-0.01190966450023931 1:1.80579 2:1.60072 3:0.156152 4:1.02218 5:0.737373 6:0.163484 7:0.810269 8:0.144055 9:1 0:0 
-0.3209415864074733 1:1.02091 2:0.704803 3:0.163843 4:0.366899 5:0.860412 6:0.214409 7:0.584445 8:0.146875 9:1 0:0 
-0.3603 1:1.02347 2:0.751089 3:0.244749 4:1.08127 5:0.91826 6:0.289288 7:0.615685 8:0.349246 9:1 0:0 
-0.3603 1:1.05479 2:0.645885 3:0.210429 4:0.779739 5:0.842598 6:0.408267 7:0.616261 8:0.362645 9:1 0:0 
-0.3603 1:1.23011 2:0.955139 3:0.248368 4:0.747817 5:0.800635 6:0.398424 7:0.74488 8:0.365702 9:1 0:0 
-0.3603 1:1.28135 2:1.03425 3:0.253167 4:0.619081 5:0.779338 6:0.411286 7:0.644365 8:0.356363 9:1 0:0 
-0.3603 1:0.543831 2:0.371121 3:0.130544 4:0.278853 5:0.838766 6:0.419153 7:0.664988 8:0.148207 9:1 0:0 
-0.3603 1:0.807051 2:0.629921 3:0.29554 4:0.440935 5:0.874827 6:0.424345 7:0.669695 8:0.287691 9:1 0:0 
0.3603 1:1.26405 2:1.05952 3:0.219334 4:0.474996 5:0.835428 6:0.186848 7:0.710389 8:0.557274 9:1 0:0 
-0.3603 1:1.00387 2:0.698801 3:0.152318 4:0.503987 5:0.938482 6:0.264383 7:0.59426 8:0.246638 9:1 0:0 
-0.1760795032973804 1:2.73751 2:2.07762 3:0.203451 4:0.428518 5:0.825912 6:0.163779 7:0.636066 8:0.324677 9:1 0:0 
-0.3603 1:0.685844 2:0.446815 3:0.216939 4:0.559245 5:0.988706 6:0.481112 7:0.541318 8:0.337927 9:1 0:0 
-0.1307353690847334 1:1.77868 2:1.29009 3:0.127206 4:0.705369 5:0.774201 6:0.0754878 7:0.592735 8:0.0565746 9:1 0:0 
0.3603 1:1.11953 2:0.726442 3:0.171545 4:0.186129 5:0.655098 6:0.274372 7:0.952397 8:0.25813 9:1 0:0 
-0.05585163507355335 1:1.17518 2:1.03117 3:0.102879 4:0.288955 5:0.758006 6:0.282817 7:0.694213 8:0.149625 9:1 0:0 
-0.1616904146644599 1:1.93997 2:1.41987 3:0.177432 4:1.33013 5:0.703167 6:0.101742 7:0.692942 8:0.142325 9:1 0:0 
-0.05349239857785091 1:1.75189 2:1.47005 3:0.239491 4:0.827568 5:0.650276 6:0.156217 7:0.649858 8:0.382787 9:1 0:0 
-0.3603 1:1.60314 2:1.61767 3:0.271833 4:0.385884 5:0.791582 6:0.10272 7:0.579297 8:0.118616 9:1 0:0 
-0.3603 1:1.17732 2:0.886347 3:0.354607 4:0.92991 5:0.841118 6:0.421497 7:0.660036 8:0.240965 9:1 0:0 
-0.3603 1:0.547235 2:0.378273 3:0.0957623 4:1.04222 5:0.889806 6:0.277892 7:0.769744 8:0.232813 9:1 0:0 
-0.3603 1:1.37386 2:1.0178 3:0.217974 4:1.30041 5:0.888266 6:0.151216 7:0.654029 8:0.391776 9:1 0:0 
-0.2231297654742686 1:2.25599 2:2.00573 3:0.541942 4:0.924732 5:0.785509 6:0.268884 7:0.670667 8:0.283864 9:1 0:0 
-0.3603 1:0.991895 2:0.701117 3:0.30013 4:0.827021 5:0.800113 6:0.336409 7:0.672217 8:0.167589 9:1 0:0 
-0.3603 1:1.07459 2:0.738524 3:0.248702 4:0.886354 5:0.801972 6:0.348887 7:0.739103 8:0.176161 9:1 0:0 
-0.03735934666813892 1:3.00192 2:2.70059 3:0.373374 4:0.428868 5:0.867654 6:0.139091 7:0.653692 8:0.0550657 9:1 0:0 
-0.3603 1:1.78815 2:1.47567 3:0.386507 4:0.525245 5:0.83861 6:0.193099 7:0.737897 8:0.0600496 9:1 0:0 
-0.02517730059764649 1:1.45351 2:1.04206 3:0.328441 4:0.750379 5:0.829062 6:0.305273 7:0.632609 8:0.203101 9:1 0:0 
-0.3527763887241508 1:0.574162 2:0.332603 3:0.110521 4:0.837973 5:0.915412 6:0.54367 7:0.624072 8:0.166976 9:1 0:0 
-0.3603 1:1.1008 2:0.753126 3:0.189811 4:1.00396 5:0.720652 6:0.237151 7:0.703152 8:0.189082 9:1 0:0 
-0.3603 1:0.567437 2:0.295329 3:0.109483 4:1.12834 5:0.940497 6:0.360699 7:0.670739 8:0.169803 9:1 0:0 
-0.1435966576715584 1:1.3279 2:1.26078 3:0.221418 4:1.31555 5:0.825898 6:0.308437 7:0.690867 8:0.176265 9:1 0:0 
-0.3603 1:0.607975 2:0.312702 3:0.241579 4:0.341899 5:0.887891 6:0.567494 7:0.788799 8:0.218515 9:1 0:0 
-0.3603 1:0.848414 2:0.679488 3:0.139136 4:0.650016 5:0.880236 6:0.246217 7:0.628618 8:0.272637 9:1 0:0 
-0.2126251920502338 1:1.61183 2:1.19294 3:0.481212 4:0.808143 5:0.968595 6:0.285414 7:0.575631 8:0.666876 9:1 0:0 
-0.3603 1:0.857616 2:0.647957 3:0.201054 4:0.485799 5:0.938849 6:0.314402 7:0.701237 8:0.329717 9:1 0:0 
-0.3603 1:1.23934 2:1.0686 3:0.249394 4:0.749105 5:0.701866 6:0.393789 7:0.676728 8:0.253125 9:1 0:0 
-0.3603 1:1.33563 2:0.882253 3:0.335776 4:0.838481 5:0.710154 6:0.0749498 7:0.674339 8:0.285356 9:1 0:0 
-0.1212657286954726 1:0.600213 2:0.466529 3:0.110533 4:1.02834 5:0.81505 6:0.326768 7:0.773476 8:0.173423 9:1 0:0 
-0.3603 1:0.558478 2:0.455212 3:0.114509 4:0.365506 5:0.928363 6:0.272256 7:0.574413 8:0.191181 9:1 0:0 
-0.164061662992122 1:1.01758 2:0.646989 3:0.351556 4:0.155649 5:0.900632 6:0.507156 7:0.687037 8:0.104547 9:1 0:0 
-0.3603 1:0.801583 2:0.660699 3:0.157582 4:0.703109 5:0.916173 6:0.307072 7:0.564337 8:0.410807 9:1 0:0 
-0.2442008810781753 1:0.920783 2:0.765711 3:0.184548 4:0.724769 5:0.916892 6:0.308276 7:0.565842 8:0.432598 9:1 0:0 
-0.3603 1:0.851604 2:0.600534 3:0.199681 4:0.772728 5:0.917007 6:0.314237 7:0.572326 8:0.434105 9:1 0:0 
-0.149857154379182 1:0.784251 2:0.616716 3:0.171246 4:0.787951 5:0.921752 6:0.30329 7:0.55379 8:0.399915 9:1 0:0 
-0.3603 1:0.709733 2:0.561446 3:0.229328 4:0.652771 5:0.823306 6:0.400341 7:0.786445 8:0.241501 9:1 0:0 
-0.3603 1:0.916999 2:0.537022 3:0.11777 4:0.376923 5:0.881798 6:0.339579 7:0.657215 8:0.242308 9:1 0:0 
-0.07180398325184506 1:1.0347 2:0.886691 3:0.213614 4:1.03621 5:0.843633 6:0.450918 7:0.859392 8:0.173852 9:1 0:0 
-0.05327218987314244 1:0.871861 2:0.801369 3:0.298713 4:2.18327 5:0.90791 6:0.308872 7:0.717612 8:0.357417 9:1 0:0 
-0.1217058318466934 1:1.22669 2:0.912604 3:0.435909 4:1.4639 5:0.711709 6:0.372851 7:0.782989 8:0.1449 9:1 0:0 
-0.1021972740734126 1:1.69664 2:1.50263 3:0.283557 4:1.51695 5:0.576549 6:0.120593 7:0.795564 8:0.30136 9:1 0:0 
-0.3603 1:1.38863 2:1.10902 3:0.331444 4:0.929957 5:0.731102 6:0.0852266 7:0.622118 8:0.348276 9:1 0:0 
-0.3603 1:1.10602 2:0.948839 3:0.184915 4:0.559725 5:0.819731 6:0.223818 7:0.699398 8:0.177569 9:1 0:0 
-0.3603 1:0.721857 2:0.584492 3:0.135059 4:0.786442 5:0.806049 6:0.188927 7:0.713313 8:0.324361 9:1 0:0 
-0.04921294177737727 1:1.21823 2:0.926502 3:0.460792 4:1.50613 5:0.868165 6:0.333999 7:0.692612 8:0.262602 9:1 0:0 
-0.03110513566245257 1:1.31037 2:1.37676 3:0.151365 4:0.575707 5:0.359391 6:0.124727 7:0.684638 8:0.268913 9:1 0:0 
-0.07367162281254394 1:1.6688 2:1.85933 3:0.127366 4:0.678574 5:0.550692 6:0.0844399 7:0.622207 8:0.0748207 9:1 0:0 
-0.3603 1:0.787622 2:0.626046 3:0.192099 4:0.886467 5:0.818719 6:0.262789 7:0.594143 8:0.365625 9:1 0:0 
-0.35357201986301 1:1.43383 2:1.41754 3:0.0839396 4:0.741099 5:0.690584 6:0.0946127 7:0.601504 8:0.0764189 9:1 0:0 
-0.3603 1:1.14571 2:0.821816 3:0.227758 4:0.687441 5:0.854126 6:0.429423 7:0.669916 8:0.169335 9:1 0:0 
-0.1285268489997473 1:1.77925 2:1.56009 3:0.133915 4:0.572039 5:0.845653 6:0.143002 7:0.608632 8:0.10696 9:1 0:0 
-0.1823346038755333 1:2.13902 2:1.74463 3:0.31876 4:0.565603 5:0.584875 6:0.189025 7:0.736669 8:0.545312 9:1 0:0 
-0.3603 1:0.637067 2:0.330232 3:0.110008 4:0.360983 5:0.960241 6:0.621035 7:0.60966 8:0.183791 9:1 0:0 
-0.3603 1:0.958227 2:0.843663 3:0.25776 4:0.475318 5:0.84054 6:0.15611 7:0.763726 8:0.311718 9:1 0:0 
-0.3603 1:0.690812 2:0.482015 3:0.467095 4:0.546685 5:0.850999 6:0.211337 7:0.71382 8:0.275882 9:1 0:0 
-0.3603 1:0.400097 2:0.246624 3:0.252759 4:0.598944 5:0.910215 6:0.33877 7:0.650201 8:0.19956 9:1 0:0 
-0.0240056407671405 1:0.55092 2:0.414927 3:0.206458 4:1.32008 5:0.860545 6:0.42305 7:0.759546 8:0.199009 9:1 0:0 
-0.3603 1:0.443761 2:0.312749 3:0.0965442 4:0.927087 5:0.874282 6:0.378813 7:0.655199 8:0.173908 9:1 0:0 
-0.06286911553492891 1:1.33824 2:1.12209 3:0.430128 4:1.13699 5:0.95056 6:0.327803 7:0.576093 8:0.589063 9:1 0:0 
0.3603 1:0.425188 2:0.281501 3:0.105081 4:0.346013 5:0.818842 6:0.270118 7:0.665369 8:0.145824 9:1 0:0 
-0.1060794444939552 1:1.03102 2:0.767991 3:0.170362 4:1.40074 5:0.83132 6:0.20118 7:0.642196 8:0.204526 9:1 0:0 
-0.1644603872408572 1:0.857877 2:0.730024 3:0.199484 4:0.536955 5:0.917926 6:0.352677 7:0.620839 8:0.136 9:1 0:0 
-0.05833693226306427 1:1.5572 2:1.35903 3:0.239868 4:1.15201 5:0.630991 6:0.271667 7:0.636433 8:0.474496 9:1 0:0 
-0.3603 1:1.61488 2:1.262 3:0.294367 4:1.12286 5:0.639822 6:0.289217 7:0.652801 8:0.482403 9:1 0:0 
-0.1471267271779023 1:1.11489 2:0.955551 3:0.125673 4:0.611076 5:0.750552 6:0.160915 7:0.665802 8:0.12574 9:1 0:0 
-0.1546022532209352 1:1.92898 2:1.48252 3:0.372577 4:1.11307 5:0.669587 6:0.300447 7:0.654818 8:0.498232 9:1 0:0 
-0.02087242886016308 1:1.18674 2:0.900608 3:0.362764 4:0.936751 5:0.938487 6:0.3577 7:0.582444 8:0.253708 9:1 0:0 
-0.3603 1:1.09261 2:0.787038 3:0.235101 4:1.26961 5:0.840675 6:0.256969 7:0.65345 8:0.184395 9:1 0:0 
-0.09007135319592056 1:1.6253 2:1.11113 3:0.363381 4:1.0861 5:0.694682 6:0.375547 7:0.691237 8:0.47645 9:1 0:0 
-0.3603 1:0.590329 2:0.33344 3:0.089079 4:0.360309 5:0.970497 6:0.454523 7:0.612889 8:0.232277 9:1 0:0 
-0.3603 1:0.986679 2:0.652978 3:0.141623 4:0.86925 5:0.699636 6:0.363237 7:0.661059 8:0.328296 9:1 0:0 
-0.3603 1:0.841341 2:0.463278 3:0.138225 4:0.82343 5:0.725927 6:0.405078 7:0.669896 8:0.298511 9:1 0:0 
-0.3603 1:1.2139 2:0.995094 3:0.172441 4:0.929612 5:0.595678 6:0.308267 7:0.73176 8:0.344959 9:1 0:0 
-0.3603 1:1.21146 2:1.09149 3:0.0815399 4:0.634121 5:0.782408 6:0.165296 7:0.618688 8:0.0680719 9:1 0:0 
-0.3603 1:1.00074 2:0.776801 3:0.263454 4:0.834116 5:0.936795 6:0.335792 7:0.590132 8:0.183712 9:1 0:0 
-0.295976438218078 1:2.25002 2:1.64236 3:0.204715 4:0.946102 5:0.577647 6:0.109296 7:0.694558 8:0.222644 9:1 0:0 
-0.3014447192652955 1:2.03844 2:1.57804 3:0.347804 4:0.447468 5:0.869183 6:0.123839 7:0.675505 8:0.350031 9:1 0:0 
-0.3603 1:1.42088 2:0.959132 3:0.45628 4:0.644848 5:0.70669 6:0.331881 7:0.747208 8:0.28627 9:1 0:0 
-0.3603 1:1.07905 2:0.900332 3:0.238598 4:0.466973 5:0.709409 6:0.229329 7:0.804824 8:0.314695 9:1 0:0 
-0.3603 1:1.24405 2:0.94348 3:0.316733 4:0.482577 5:0.766957 6:0.283356 7:0.793973 8:0.302238 9:1 0:0 
-0.3603 1:0.595 2:0.391184 3:0.128271 4:1.08277 5:0.837566 6:0.372268 7:0.663263 8:0.269707 9:1 0:0 
-0.3603 1:0.742506 2:0.531493 3:0.160026 4:1.22104 5:0.812805 6:0.374884 7:0.696335 8:0.299511 9:1 0:0 
-0.3603 1:0.790779 2:0.56854 3:0.207315 4:1.42376 5:0.829053 6:0.389516 7:0.696887 8:0.340195 9:1 0:0 
-0.1847648652142095 1:0.827071 2:0.592611 3:0.221534 4:1.4742 5:0.831869 6:0.376558 7:0.728605 8:0.35415 9:1 0:0 
-0.1264051100901167 1:0.77742 2:0.683895 3:0.165331 4:0.921704 5:0.665745 6:0.405436 7:0.689738 8:0.316641 9:1 0:0 
-0.3603 1:1.63765 2:1.16976 3:0.421823 4:1.07102 5:0.822474 6:0.198481 7:0.686337 8:0.254328 9:1 0:0 
-0.3603 1:1.63215 2:1.09904 3:0.468799 4:1.04997 5:0.799915 6:0.20745 7:0.679887 8:0.256207 9:1 0:0 
-0.3603 1:1.98846 2:1.7124 3:0.365388 4:1.04969 5:0.814723 6:0.209113 7:0.673877 8:0.256207 9:1 0:0 
-0.3603 1:1.68457 2:1.37575 3:0.370415 4:1.07937 5:0.825288 6:0.219892 7:0.669918 8:0.234151 9:1 0:0 
-0.3603 1:1.63673 2:1.32743 3:0.444 4:0.92602 5:0.767014 6:0.186474 7:0.693691 8:0.257552 9:1 0:0 
-0.3603 1:1.73026 2:1.53984 3:0.324205 4:1.14491 5:0.742748 6:0.199416 7:0.708191 8:0.224832 9:1 0:0 
-0.3603 1:0.502308 2:0.302786 3:0.0997779 4:0.655497 5:0.887523 6:0.479088 7:0.620603 8:0.210856 9:1 0:0 
-0.3603 1:0.481613 2:0.278771 3:0.0834015 4:0.564007 5:0.867969 6:0.545851 7:0.665282 8:0.184798 9:1 0:0 
-0.1135481893611148 1:0.503034 2:0.298339 3:0.0845002 4:0.562622 5:0.866842 6:0.543574 7:0.6701 8:0.184785 9:1 0:0 
-0.3603 1:0.546145 2:0.3478 3:0.0986394 4:0.648637 5:0.789341 6:0.525925 7:0.706373 8:0.217682 9:1 0:0 
-0.3603 1:1.18093 2:1.1239 3:0.237813 4:1.02283 5:0.817148 6:0.248051 7:0.697445 8:0.220229 9:1 0:0 
-0.3603 1:1.61494 2:1.49079 3:0.241812 4:1.04748 5:0.72723 6:0.177694 7:0.70625 8:0.208586 9:1 0:0 
0.3603 1:1.69324 2:1.55394 3:0.305655 4:0.418199 5:0.7724 6:0.241377 7:0.653111 8:0.318593 9:1 0:0 
0.3603 1:1.62363 2:1.48257 3:0.25786 4:0.424215 5:0.777166 6:0.241489 7:0.620695 8:0.313677 9:1 0:0 
-0.3603 1:1.02259 2:0.862438 3:0.153812 4:0.656821 5:0.908453 6:0.288594 7:0.621595 8:0.193144 9:1 0:0 
-0.3603 1:0.916175 2:0.587236 3:0.162604 4:0.758989 5:0.8966 6:0.291653 7:0.607057 8:0.227729 9:1 0:0 
-0.3603 1:0.99614 2:0.583565 3:0.328338 4:0.787945 5:0.908568 6:0.385956 7:0.618419 8:0.243509 9:1 0:0 
-0.3603 1:0.921447 2:0.591326 3:0.219579 4:0.771576 5:0.862932 6:0.405726 7:0.630634 8:0.205954 9:1 0:0 
-0.0766734151522475 1:0.863036 2:0.509973 3:0.170194 4:0.743856 5:0.798958 6:0.397878 7:0.640847 8:0.187174 9:1 0:0 
-0.3603 1:0.824209 2:0.48339 3:0.218189 4:0.790659 5:0.798116 6:0.392392 7:0.643574 8:0.180859 9:1 0:0 
-0.3603 1:1.04147 2:0.6889 3:0.170735 4:0.396313 5:0.744419 6:0.183107 7:0.706203 8:0.249247 9:1 0:0 
-0.3603 1:0.805316 2:0.504935 3:0.210327 4:0.797695 5:0.751013 6:0.351303 7:0.647982 8:0.177686 9:1 0:0 
-0.3024401770945429 1:1.20088 2:0.784318 3:0.214156 4:0.429922 5:0.787794 6:0.184625 7:0.676669 8:0.255477 9:1 0:0 
-0.3603 1:0.89791 2:0.630625 3:0.197714 4:0.782472 5:0.727191 6:0.332199 7:0.635635 8:0.165093 9:1 0:0 
-0.3603 1:0.79766 2:0.629901 3:0.194488 4:0.781253 5:0.733812 6:0.340107 7:0.636669 8:0.157224 9:1 0:0 
-0.3603 1:0.979949 2:0.760336 3:0.181183 4:0.496077 5:0.791673 6:0.17612 7:0.691727 8:0.230499 9:1 0:0 
-0.07370827663585396 1:0.941676 2:0.651366 3:0.133859 4:0.387005 5:0.785309 6:0.207903 7:0.70758 8:0.225915 9:1 0:0 
-0.3603 1:0.887788 2:0.601662 3:0.140008 4:0.382667 5:0.761274 6:0.209606 7:0.643982 8:0.216489 9:1 0:0 
-0.1862053488856358 1:1.06035 2:0.749265 3:0.157486 4:0.429945 5:0.825984 6:0.184587 7:0.691477 8:0.266428 9:1 0:0 
-0.3603 1:1.09505 2:0.787914 3:0.161126 4:0.546327 5:0.793736 6:0.180116 7:0.676669 8:0.277343 9:1 0:0 
-0.3603 1:1.28571 2:0.96151 3:0.249544 4:0.583201 5:0.839478 6:0.174703 7:0.659484 8:0.298801 9:1 0:0 
-0.01179706869754445 1:1.86987 2:1.0603 3:0.543325 4:2.28727 5:0.950621 6:0.299263 7:0.681169 8:0.467673 9:1 0:0 
-0.3596587461717498 1:1.07962 2:0.596289 3:0.293321 4:1.11274 5:0.879008 6:0.351454 7:0.691422 8:0.304295 9:1 0:0 
-0.3603 1:1.01102 2:0.556701 3:0.250926 4:1.15172 5:0.862007 6:0.387706 7:0.671957 8:0.273089 9:1 0:0 
-0.3603 1:0.845497 2:0.47182 3:0.178099 4:0.844766 5:0.808896 6:0.38785 7:0.636416 8:0.18656 9:1 0:0 
-0.1768304558607198 1:1.89353 2:1.23011 3:0.513916 4:1.01103 5:0.929314 6:0.268331 7:0.649332 8:0.43688 9:1 0:0 
-0.3603 1:0.922205 2:0.618116 3:0.275323 4:0.629657 5:0.846225 6:0.314682 7:0.644443 8:0.200676 9:1 0:0 
-0.3603 1:0.642201 2:0.370172 3:0.135955 4:0.617272 5:0.89885 6:0.364518 7:0.670442 8:0.224337 9:1 0:0 
-0.3603 1:0.605377 2:0.3872 3:0.156521 4:0.579906 5:0.926702 6:0.345161 7:0.665686 8:0.221445 9:1 0:0 
-0.07264913062960777 1:1.44727 2:1.05961 3:0.366961 4:2.1527 5:0.910778 6:0.215634 7:0.658286 8:0.269254 9:1 0:0 
-0.3599207303394923 1:0.97218 2:0.596686 3:0.185425 4:0.955958 5:0.792012 6:0.32936 7:0.633857 8:0.159298 9:1 0:0 
-0.3478064969521367 1:0.853557 2:0.450345 3:0.172988 4:0.413078 5:0.788856 6:0.436961 7:0.75609 8:0.214808 9:1 0:0 
0.3603 1:1.39191 2:1.09472 3:0.246972 4:0.884304 5:0.769202 6:0.245829 7:0.634647 8:0.555363 9:1 0:0 
0.3603 1:1.49425 2:1.09455 3:0.252463 4:1.0245 5:0.74574 6:0.244806 7:0.638724 8:0.547546 9:1 0:0 
0.3079886267237402 1:1.42134 2:1.07904 3:0.236231 4:1.03839 5:0.712394 6:0.241038 7:0.632884 8:0.503729 9:1 0:0 
-0.3603 1:0.941018 2:0.611467 3:0.188673 4:0.894437 5:0.817263 6:0.421075 7:0.767431 8:0.314109 9:1 0:0 
-0.3603 1:0.941916 2:0.629257 3:0.187128 4:0.8934 5:0.845326 6:0.402864 7:0.696787 8:0.312523 9:1 0:0 
-0.352966450858944 1:0.635675 2:0.379076 3:0.0935721 4:0.226814 5:0.888121 6:0.439012 7:0.658659 8:0.140573 9:1 0:0 
-0.1809337075246494 1:1.30074 2:0.834109 3:0.241826 4:1.66432 5:0.963116 6:0.268509 7:0.581623 8:0.349965 9:1 0:0 
-0.3603 1:0.747846 2:0.488755 3:0.13247 4:0.99274 5:0.802308 6:0.453118 7:0.692565 8:0.206037 9:1 0:0 
-0.3603 1:2.04889 2:1.91295 3:0.159696 4:0.539263 5:0.769923 6:0.155699 7:0.618677 8:0.0799169 9:1 0:0 
-0.005312294434831519 1:2.91209 2:2.10354 3:0.290974 4:1.03691 5:0.576942 6:0.25627 7:1.02102 8:0.380571 9:1 0:0 
-0.06435319226065045 1:0.581445 2:0.463968 3:0.426456 4:0.430668 5:0.855434 6:0.294459 7:0.839933 8:0.544656 9:1 0:0 
-0.0105872816776885 1:1.67368 2:1.1563 3:0.48994 4:1.29886 5:0.71795 6:0.377072 7:0.749329 8:0.315493 9:1 0:0 
-0.2205656402163726 1:1.70975 2:1.39035 3:0.364943 4:1.47988 5:0.739237 6:0.338011 7:0.700457 8:0.346375 9:1 0:0 
-0.09447631443649274 1:1.5794 2:1.27056 3:0.324174 4:1.1461 5:0.667006 6:0.256116 7:0.891493 8:0.31207 9:1 0:0 
-0.03979462524735431 1:0.624744 2:0.4118 3:0.177925 4:1.11052 5:0.794097 6:0.481405 7:1.09905 8:0.192594 9:1 0:0 
-0.0209554807367633 1:0.623608 2:0.535209 3:0.370931 4:1.43234 5:0.864067 6:0.573256 7:0.668846 8:0.144723 9:1 0:0 
-0.1398209088160824 1:0.649557 2:0.361506 3:0.225464 4:0.923417 5:0.960535 6:0.6137 7:0.630427 8:0.177672 9:1 0:0 
-0.3603 1:1.87854 2:1.43406 3:0.379035 4:0.393267 5:0.809082 6:0.221823 7:0.711979 8:0.342836 9:1 0:0 
-0.01749420199652358 1:2.5739 2:2.41604 3:0.507544 4:1.14997 5:0.894683 6:0.119235 7:0.651219 8:0.428142 9:1 0:0 
-0.1868635153940711 1:1.06989 2:0.612671 3:0.155757 4:1.42292 5:0.559859 6:0.339524 7:0.811508 8:0.181129 9:1 0:0 
-0.1306477786737633 1:2.34494 2:1.58659 3:0.311851 4:0.250249 5:0.824075 6:0.274065 7:0.666804 8:0.111025 9:1 0:0 
-0.04100613992732156 1:1.94578 2:1.48841 3:0.411884 4:1.35241 5:0.701774 6:0.318618 7:0.774076 8:0.317087 9:1 0:0 
-0.3603 1:1.41113 2:1.22478 3:0.125864 4:0.28879 5:0.736626 6:0.277099 7:0.706127 8:0.0977281 9:1 0:0 
-0.1651851724043969 1:0.957073 2:0.74643 3:0.0832446 4:1.59139 5:0.821686 6:0.0982848 7:0.615789 8:0.335676 9:1 0:0 
-0.1676647002486227 1:1.59717 2:1.689 3:0.199277 4:0.562575 5:0.843853 6:0.156171 7:0.57771 8:0.271875 9:1 0:0 
-0.1495412079497427 1:2.09795 2:2.06277 3:0.0986314 4:0.78156 5:0.717028 6:0.277019 7:0.840508 8:0.071892 9:1 0:0 
-0.02732179909520118 1:1.44155 2:1.39153 3:0.12383 4:0.730578 5:0.507417 6:0.23113 7:0.882327 8:0.212362 9:1 0:0 
-0.3603 1:1.60758 2:1.41494 3:0.214724 4:0.553151 5:0.629637 6:0.264904 7:0.827173 8:0.31691 9:1 0:0 
-0.08410518276138623 1:1.64443 2:0.932588 3:0.401259 4:1.29819 5:0.744843 6:0.345074 7:0.746961 8:0.319358 9:1 0:0 
-0.3603 1:0.88695 2:0.772306 3:0.264074 4:0.361132 5:0.856842 6:0.310194 7:0.673557 8:0.113203 9:1 0:0 
-0.08654183579870278 1:2.2958 2:1.29717 3:0.503736 4:1.10874 5:0.779282 6:0.387789 7:0.776332 8:0.417299 9:1 0:0 
-0.007941493751231743 1:1.92054 2:1.05672 3:0.487204 4:1.09663 5:0.760755 6:0.380491 7:0.71115 8:0.407795 9:1 0:0 
-0.2906481735958256 1:1.25066 2:1.09075 3:0.117722 4:0.754979 5:0.865472 6:0.351912 7:0.629355 8:0.135506 9:1 0:0 
-0.3603 1:1.44797 2:1.09808 3:0.294431 4:0.662029 5:0.735726 6:0.16329 7:0.650057 8:0.0706761 9:1 0:0 
-0.3603 1:1.54415 2:1.27133 3:0.140117 4:0.63174 5:0.741828 6:0.193558 7:0.726197 8:0.100548 9:1 0:0 
-0.3603 1:1.20911 2:0.946547 3:0.14525 4:0.70119 5:0.824391 6:0.328322 7:0.66505 8:0.171277 9:1 0:0 
-0.3603 1:1.91052 2:1.68628 3:0.194237 4:0.304601 5:0.805482 6:0.27735 7:0.647324 8:0.231102 9:1 0:0 
-0.3603 1:1.43956 2:1.09897 3:0.22333 4:0.454515 5:0.785964 6:0.287589 7:0.654974 8:0.244994 9:1 0:0 
-0.3603 1:1.22089 2:0.894727 3:0.327601 4:0.485134 5:0.857595 6:0.180032 7:0.611446 8:0.102924 9:1 0:0 
-0.3603 1:1.26254 2:0.897494 3:0.301466 4:0.531492 5:0.843096 6:0.176287 7:0.611461 8:0.116927 9:1 0:0 
-0.2081649025496481 1:1.32614 2:0.934621 3:0.532432 4:0.597372 5:0.847904 6:0.179428 7:0.652769 8:0.123269 9:1 0:0 
-0.1094180739567926 1:1.31017 2:0.85738 3:0.228737 4:1.0257 5:0.82339 6:0.230573 7:0.634922 8:0.182946 9:1 0:0 
-0.1009076613153789 1:1.93314 2:1.41193 3:0.349631 4:1.17352 5:0.802936 6:0.166734 7:0.833213 8:0.234703 9:1 0:0 
-0.3603 1:1.06761 2:0.824531 3:0.126074 4:0.502971 5:0.779116 6:0.229664 7:0.705653 8:0.365485 9:1 0:0 
-0.3603 1:0.767578 2:0.481327 3:0.0827484 4:0.473232 5:0.760852 6:0.289155 7:0.602178 8:0.186991 9:1 0:0 
0.3603 1:1.61191 2:1.22829 3:0.453957 4:0.947819 5:0.834444 6:0.209194 7:0.629091 8:0.184904 9:1 0:0 
0.3603 1:1.66306 2:1.40379 3:0.421471 4:0.942683 5:0.828634 6:0.202552 7:0.635748 8:0.185036 9:1 0:0 
0.1236552939431442 1:1.66892 2:1.37416 3:0.46116 4:0.937137 5:0.826945 6:0.196709 7:0.619067 8:0.178823 9:1 0:0 
0.3133498540020739 1:2.09702 2:1.95243 3:0.268384 4:0.296791 5:0.831346 6:0.220264 7:0.637697 8:0.114127 9:1 0:0 
0.3603 1:1.93596 2:1.72476 3:0.274083 4:0.322042 5:0.834652 6:0.21985 7:0.623984 8:0.109308 9:1 0:0 
-0.1748236178149792 1:1.11576 2:0.662221 3:0.286756 4:1.6119 5:0.863561 6:0.292367 7:0.669785 8:0.113655 9:1 0:0 
0.3603 1:1.60538 2:1.43356 3:0.290442 4:1.29533 5:0.762067 6:0.197725 7:0.861525 8:0.239644 9:1 0:0 
0.1175310225610336 1:2.05053 2:2.04038 3:0.273628 4:0.782804 5:0.823128 6:0.223395 7:0.634826 8:0.168475 9:1 0:0 
0.01900973035576152 1:2.89746 2:2.42193 3:0.37526 4:0.474541 5:0.8548 6:0.132568 7:0.585019 8:0.13189 9:1 0:0 
0.2400821163166815 1:2.39248 2:1.94859 3:0.298322 4:0.564222 5:0.861195 6:0.145948 7:0.591704 8:0.113225 9:1 0:0 
0.001288185199022428 1:1.83258 2:1.6731 3:0.296528 4:0.661852 5:0.810852 6:0.231315 7:0.650803 8:0.184957 9:1 0:0 
0.3603 1:1.48379 2:1.10453 3:0.234702 4:0.546872 5:0.780566 6:0.190979 7:0.634041 8:0.122325 9:1 0:0 
0.3603 1:1.14959 2:0.944614 3:0.185787 4:0.572031 5:0.776129 6:0.229449 7:0.665468 8:0.125856 9:1 0:0 
0.3603 1:1.20461 2:0.948809 3:0.211503 4:0.613655 5:0.797029 6:0.230107 7:0.657788 8:0.124059 9:1 0:0 
0.1393981901624082 1:1.48818 2:1.49573 3:0.232272 4:1.06241 5:0.821489 6:0.266378 7:0.653378 8:0.142633 9:1 0:0 
0.1281022951916653 1:1.52883 2:1.53345 3:0.263244 4:1.04937 5:0.857105 6:0.286522 7:0.653525 8:0.125215 9:1 0:0 
0.3603 1:1.10298 2:0.808819 3:0.254412 4:0.918989 5:0.869067 6:0.323475 7:0.674502 8:0.141275 9:1 0:0 
0.3603 1:1.03612 2:0.891379 3:0.285462 4:1.00917 5:0.838819 6:0.280193 7:0.72066 8:0.167771 9:1 0:0 
0.3603 1:1.18978 2:1.09767 3:0.253164 4:1.02124 5:0.813547 6:0.251025 7:0.703782 8:0.138508 9:1 0:0 
0.3603 1:0.899206 2:0.653856 3:0.278497 4:1.22172 5:0.766565 6:0.487865 7:0.744638 8:0.197797 9:1 0:0 
0.140363208581953 1:0.825834 2:0.78266 3:0.1552 4:1.31279 5:0.794813 6:0.596526 7:0.767898 8:0.200049 9:1 0:0 
0.300984348044244 1:0.785755 2:0.622193 3:0.155676 4:1.28635 5:0.798999 6:0.588657 7:0.842357 8:0.198388 9:1 0:0 
0.3603 1:0.830957 2:0.685976 3:0.16596 4:1.26881 5:0.824897 6:0.557445 7:0.77816 8:0.179402 9:1 0:0 
0.05925259066284724 1:1.37929 2:1.12361 3:0.260825 4:0.759771 5:0.669053 6:0.37795 7:0.681758 8:0.26845 9:1 0:0 
0.3603 1:1.1058 2:0.911239 3:0.154897 4:0.637712 5:0.804864 6:0.320504 7:0.696478 8:0.179871 9:1 0:0 
0.3603 1:1.13812 2:0.973859 3:0.161547 4:0.646716 5:0.806873 6:0.32049 7:0.675678 8:0.192372 9:1 0:0 
0.3603 1:1.1151 2:0.984871 3:0.15356 4:0.642502 5:0.794664 6:0.32321 7:0.696558 8:0.203491 9:1 0:0 
0.3603 1:1.18517 2:1.08692 3:0.156246 4:0.64252 5:0.798825 6:0.313173 7:0.674279 8:0.212976 9:1 0:0 
0.2054628211454728 1:1.1299 2:0.993351 3:0.159517 4:0.643694 5:0.789598 6:0.323068 7:0.674278 8:0.222397 9:1 0:0 
0.1046646695857681 1:1.22369 2:1.10985 3:0.16809 4:0.6854 5:0.768317 6:0.256642 7:0.687343 8:0.219079 9:1 0:0 
0.3603 1:1.62985 2:1.56973 3:0.20252 4:0.649774 5:0.780124 6:0.25995 7:0.674164 8:0.156889 9:1 0:0 
0.3603 1:1.65319 2:1.53629 3:0.206431 4:0.65123 5:0.77024 6:0.260865 7:0.676338 8:0.156983 9:1 0:0 
0.3603 1:1.41828 2:1.10699 3:0.20644 4:0.630436 5:0.780241 6:0.261535 7:0.652558 8:0.144123 9:1 0:0 
0.123652855827132 1:1.91121 2:1.77192 3:0.215144 4:0.66132 5:0.768089 6:0.251463 7:0.66606 8:0.144715 9:1 0:0 
0.0512630554015144 1:1.84047 2:1.47114 3:0.522918 4:0.98955 5:0.756991 6:0.178164 7:0.690151 8:0.202046 9:1 0:0 
0.3603 1:1.96059 2:1.8253 3:0.326948 4:1.08552 5:0.740712 6:0.180555 7:0.68993 8:0.214768 9:1 0:0 
0.07770431133623271 1:2.50064 2:2.40686 3:0.287759 4:1.26567 5:0.771825 6:0.173507 7:0.709525 8:0.223831 9:1 0:0 
0.05557930414720336 1:2.02111 2:1.94114 3:0.287962 4:1.27624 5:0.765559 6:0.221396 7:0.698905 8:0.112239 9:1 0:0 
-0.0887770163082684 1:1.44982 2:1.20474 3:0.145475 4:0.441069 5:0.90876 6:0.247183 7:0.63875 8:0.0901929 9:1 0:0 
0.05762130110517261 1:2.43083 2:2.31906 3:0.473914 4:0.890739 5:0.704053 6:0.207539 7:0.652909 8:0.145573 9:1 0:0 
0.2161651410637505 1:2.70038 2:2.26738 3:0.210501 4:0.260771 5:0.742068 6:0.171709 7:0.696979 8:0.203761 9:1 0:0 
0.08128613586496129 1:3.19837 2:2.54253 3:0.210331 4:0.267367 5:0.727386 6:0.172457 7:0.687316 8:0.224419 9:1 0:0 
0.3603 1:1.96071 2:1.35848 3:0.211837 4:0.293556 5:0.729814 6:0.171943 7:0.690706 8:0.230759 9:1 0:0 
0.3603 1:2.02057 2:1.48955 3:0.212378 4:0.155377 5:0.756852 6:0.173241 7:0.66786 8:0.224397 9:1 0:0 
0.0614860621181213 1:3.07576 2:2.55113 3:0.233212 4:0.183829 5:0.710099 6:0.17217 7:0.672728 8:0.202131 9:1 0:0 
0.1329347424861611 1:1.03045 2:0.813533 3:0.334381 4:0.755266 5:0.824545 6:0.445471 7:0.690109 8:0.203383 9:1 0:0 
0.3603 1:0.928791 2:0.671965 3:0.267631 4:0.752873 5:0.831497 6:0.473532 7:0.706639 8:0.194448 9:1 0:0 
0.3603 1:0.977756 2:0.814865 3:0.244155 4:0.746447 5:0.834662 6:0.48975 7:0.721179 8:0.199303 9:1 0:0 
0.3603 1:0.962506 2:0.805024 3:0.241046 4:0.748993 5:0.846004 6:0.48969 7:0.731553 8:0.194586 9:1 0:0 
0.3603 1:0.969725 2:0.817264 3:0.219185 4:0.753257 5:0.837384 6:0.4854 7:0.736705 8:0.19776 9:1 0:0 
0.3603 1:0.972254 2:0.808818 3:0.240299 4:0.732896 5:0.832773 6:0.469156 7:0.706638 8:0.202378 9:1 0:0 
0.3603 1:1.09335 2:0.783861 3:0.244671 4:0.679704 5:0.721769 6:0.37549 7:0.792986 8:0.299267 9:1 0:0 
0.3603 1:1.04501 2:0.827264 3:0.199255 4:0.841068 5:0.803683 6:0.394653 7:0.709412 8:0.222375 9:1 0:0 
0.3603 1:1.02472 2:0.82705 3:0.222124 4:0.825475 5:0.788949 6:0.328128 7:0.704511 8:0.218823 9:1 0:0 
0.3603 1:1.07282 2:0.843422 3:0.231327 4:0.85329 5:0.794068 6:0.290446 7:0.701639 8:0.216934 9:1 0:0 
0.3603 1:1.49243 2:1.40091 3:0.346842 4:1.30354 5:0.693986 6:0.220374 7:0.768935 8:0.307705 9:1 0:0 
0.295483960164194 1:1.41909 2:1.3521 3:0.340111 4:1.38544 5:0.711311 6:0.220541 7:0.80877 8:0.25402 9:1 0:0 
0.3603 1:1.60375 2:1.47311 3:0.226251 4:0.971341 5:0.588366 6:0.261284 7:0.679782 8:0.250249 9:1 0:0 
-0.3603 1:1.16427 2:0.93943 3:0.142618 4:0.800544 5:0.841572 6:0.311353 7:0.634508 8:0.181102 9:1 0:0 
-0.2103831887078909 1:1.37041 2:0.894713 3:0.310436 4:1.90172 5:0.564372 6:0.262273 7:0.742718 8:0.337268 9:1 0:0 
-0.07666620861011773 1:0.623512 2:0.438348 3:0.129782 4:0.961204 5:0.794965 6:0.515173 7:0.765229 8:0.100341 9:1 0:0 
-0.06334507356122546 1:0.566692 2:0.300291 3:0.137069 4:1.44115 5:0.893002 6:0.566514 7:0.672959 8:0.0907327 9:1 0:0 
-0.2098201161033527 1:1.08964 2:0.871763 3:0.142778 4:0.363249 5:0.724864 6:0.410112 7:0.807468 8:0.146242 9:1 0:0 
-0.01844967909901351 1:2.12129 2:1.44428 3:0.344873 4:1.00933 5:0.812776 6:0.307865 7:0.717145 8:0.231719 9:1 0:0 
-0.07608145345294036 1:0.909294 2:0.607942 3:0.204879 4:0.509882 5:0.914545 6:0.372174 7:0.721755 8:0.212655 9:1 0:0 
-0.3603 1:0.6377 2:0.309599 3:0.0858076 4:1.17309 5:0.826326 6:0.22921 7:0.704099 8:0.116383 9:1 0:0 
-0.1860985627978992 1:1.00427 2:0.793476 3:0.242809 4:1.7602 5:0.707515 6:0.144606 7:0.733377 8:0.163951 9:1 0:0 
-0.3603 1:1.52168 2:1.30855 3:0.171685 4:0.444034 5:0.845402 6:0.262877 7:0.66415 8:0.183406 9:1 0:0 
-0.06906061686525565 1:1.71001 2:1.1058 3:0.355176 4:1.83136 5:0.759449 6:0.308464 7:0.752361 8:0.123051 9:1 0:0 
-0.3603 1:1.14592 2:0.974815 3:0.162379 4:0.285957 5:0.728213 6:0.266716 7:0.729855 8:0.174791 9:1 0:0 
-0.3603 1:1.09691 2:0.854673 3:0.252133 4:0.241658 5:0.683101 6:0.278361 7:0.709738 8:0.206108 9:1 0:0 
-0.3603 1:1.44954 2:1.24807 3:0.290862 4:0.350655 5:0.666219 6:0.252987 7:0.800142 8:0.181633 9:1 0:0 
-0.3603 1:1.6921 2:1.6264 3:0.242135 4:0.352753 5:0.675628 6:0.250693 7:0.781542 8:0.178324 9:1 0:0 
-0.2470412964812399 1:1.56248 2:1.26756 3:0.382553 4:0.573841 5:0.872365 6:0.330731 7:0.696697 8:0.121303 9:1 0:0 
-0.3603 1:1.8135 2:1.3622 3:0.18736 4:0.203369 5:0.623064 6:0.26915 7:0.750984 8:0.203779 9:1 0:0 
-0.219255823384191 1:1.7848 2:1.39162 3:0.183106 4:0.195233 5:0.584162 6:0.270874 7:0.779388 8:0.210207 9:1 0:0 
-0.1086696557805764 1:1.56862 2:1.42302 3:0.141354 4:0.587856 5:0.61141 6:0.240282 7:0.805455 8:0.265533 9:1 0:0 
-0.09696749582724898 1:0.799869 2:0.473441 3:0.262222 4:0.0700599 5:0.855355 6:0.489137 7:0.736637 8:0.15145 9:1 0:0 
-0.3603 1:0.973586 2:0.681696 3:0.134323 4:0.33596 5:0.699892 6:0.320355 7:0.708364 8:0.222018 9:1 0:0 
-0.3603 1:0.59063 2:0.324483 3:0.12159 4:0.481244 5:0.777408 6:0.385531 7:0.661652 8:0.129951 9:1 0:0 
-0.3603 1:1.02698 2:0.666019 3:0.228988 4:0.642548 5:0.808111 6:0.36887 7:0.683598 8:0.218638 9:1 0:0 
-0.3603 1:1.13751 2:0.766029 3:0.331477 4:0.79161 5:0.825938 6:0.307379 7:0.741617 8:0.191283 9:1 0:0 
-0.09771689592054454 1:2.12615 2:2.05838 3:0.516692 4:1.00212 5:0.631078 6:0.228083 7:0.800412 8:0.2406 9:1 0:0 
-0.3603 1:0.91578 2:0.669359 3:0.251435 4:1.43513 5:0.80763 6:0.345108 7:0.756655 8:0.219924 9:1 0:0 
-0.3603 1:1.07971 2:0.856715 3:0.260873 4:1.45124 5:0.818004 6:0.359105 7:0.668785 8:0.213731 9:1 0:0 
-0.3057566121130776 1:1.69951 2:1.18805 3:0.226003 4:1.06604 5:0.577096 6:0.224717 7:0.648549 8:0.482504 9:1 0:0 
-0.3603 1:1.49897 2:0.964485 3:0.213172 4:0.957238 5:0.696551 6:0.256622 7:0.61544 8:0.434189 9:1 0:0 
0.3603 1:0.689071 2:0.417787 3:0.147031 4:0.25148 5:0.880582 6:0.413436 7:0.621918 8:0.142359 9:1 0:0 
0.3603 1:0.671333 2:0.406061 3:0.128007 4:0.267909 5:0.871326 6:0.424793 7:0.680082 8:0.145212 9:1 0:0 
0.3603 1:0.731433 2:0.450449 3:0.125509 4:0.274663 5:0.873414 6:0.421412 7:0.676647 8:0.150195 9:1 0:0 
-0.3603 1:1.32583 2:0.753327 3:0.217798 4:0.891203 5:0.77384 6:0.305871 7:0.616006 8:0.39517 9:1 0:0 
0.3603 1:0.66692 2:0.412226 3:0.139069 4:0.29923 5:0.87008 6:0.434871 7:0.644723 8:0.154656 9:1 0:0 
0.3603 1:0.669695 2:0.406909 3:0.118967 4:0.296237 5:0.863683 6:0.435689 7:0.65809 8:0.15758 9:1 0:0 
0.3603 1:0.661703 2:0.406891 3:0.124433 4:0.295958 5:0.872916 6:0.431867 7:0.627847 8:0.154593 9:1 0:0 
0.3603 1:1.03207 2:0.712712 3:0.235431 4:0.304235 5:0.83416 6:0.279428 7:0.632906 8:0.179986 9:1 0:0 
0.3603 1:1.09342 2:0.812378 3:0.207077 4:0.302194 5:0.836241 6:0.281781 7:0.618038 8:0.182973 9:1 0:0 
0.3603 1:1.04082 2:0.713625 3:0.279608 4:0.297088 5:0.853335 6:0.275169 7:0.637805 8:0.172159 9:1 0:0 
0.3603 1:0.949508 2:0.57639 3:0.29182 4:0.238166 5:0.915154 6:0.421707 7:0.601785 8:0.165684 9:1 0:0 
0.01746721911745252 1:1.10283 2:0.832396 3:0.270816 4:0.361664 5:0.873052 6:0.313022 7:0.626646 8:0.162553 9:1 0:0 
0.3603 1:1.01705 2:0.71696 3:0.252395 4:0.318042 5:0.837549 6:0.279142 7:0.636594 8:0.174588 9:1 0:0 
0.3603 1:1.04306 2:0.760519 3:0.232251 4:0.317009 5:0.83844 6:0.281742 7:0.630833 8:0.182545 9:1 0:0 
0.3603 1:0.993114 2:0.713476 3:0.21997 4:0.347274 5:0.811244 6:0.285797 7:0.639697 8:0.184454 9:1 0:0 
0.3603 1:1.00365 2:0.732159 3:0.226778 4:0.345388 5:0.812802 6:0.286374 7:0.634471 8:0.186082 9:1 0:0 
0.3603 1:1.05528 2:0.786776 3:0.222891 4:0.348037 5:0.815273 6:0.285516 7:0.620199 8:0.186095 9:1 0:0 
-0.1452940885726122 1:0.300847 2:0.238714 3:0.112406 4:0.149165 5:0.871835 6:0.224251 7:0.637275 8:0.12314 9:1 0:0 
-0.1614048225374341 1:2.71237 2:2.37911 3:0.284574 4:0.484703 5:0.571284 6:0.145767 7:0.890606 8:0.325267 9:1 0:0 
-0.2386430646621526 1:2.38436 2:1.79557 3:0.419402 4:0.482789 5:0.601986 6:0.331041 7:0.79133 8:0.22973 9:1 0:0 
0.3603 1:0.559729 2:0.416189 3:0.0870482 4:0.151926 5:0.894915 6:0.175238 7:0.604557 8:0.0974404 9:1 0:0 
0.3603 1:0.485186 2:0.385533 3:0.0847189 4:0.518461 5:0.90082 6:0.451643 7:0.634049 8:0.245506 9:1 0:0 
0.3603 1:0.47261 2:0.370874 3:0.0950718 4:0.497006 5:0.904208 6:0.389989 7:0.610933 8:0.212448 9:1 0:0 
0.3603 1:1.22069 2:0.891051 3:0.166581 4:0.79586 5:0.784937 6:0.239613 7:0.654983 8:0.299279 9:1 0:0 
0.3603 1:1.14504 2:0.862167 3:0.186176 4:0.564736 5:0.753946 6:0.248693 7:0.656368 8:0.344428 9:1 0:0 
0.3603 1:1.01701 2:0.736201 3:0.155602 4:0.605817 5:0.80141 6:0.272693 7:0.63024 8:0.313237 9:1 0:0 
0.3603 1:1.03678 2:0.753839 3:0.164364 4:0.556608 5:0.805016 6:0.283379 7:0.64549 8:0.319473 9:1 0:0 
-0.03917247821480573 1:2.94312 2:2.41285 3:0.172673 4:0.437052 5:0.674938 6:0.298307 7:1.03427 8:0.142445 9:1 0:0 
-0.02214655699878501 1:2.75759 2:2.41693 3:0.186704 4:0.334159 5:0.721507 6:0.138024 7:0.867008 8:0.342145 9:1 0:0 
-0.08962300414195032 1:3.36323 2:2.72588 3:0.189838 4:0.394724 5:0.707497 6:0.13995 7:0.847114 8:0.342145 9:1 0:0 
-0.3220784065367015 1:2.16855 2:1.93963 3:0.166976 4:0.349973 5:0.821885 6:0.162082 7:0.657827 8:0.242137 9:1 0:0 
0.238143947032402 1:1.17169 2:0.781846 3:0.522261 4:0.273966 5:0.795985 6:0.51052 7:0.800643 8:0.383606 9:1 0:0 
-0.007600117822369821 1:2.52146 2:2.19408 3:0.240134 4:0.575191 5:0.758016 6:0.21071 7:0.884977 8:0.309383 9:1 0:0 
0.3603 1:1.36452 2:0.790314 3:0.426542 4:0.608411 5:0.646296 6:0.275957 7:0.827116 8:0.407171 9:1 0:0 
-0.1442468515887206 1:1.58821 2:1.32995 3:0.104394 4:0.354662 5:0.692133 6:0.0980661 7:0.63212 8:0.291995 9:1 0:0 
0.1787040232722661 1:0.605461 2:0.398517 3:0.283359 4:0.334995 5:0.759286 6:0.273154 7:0.835106 8:0.310784 9:1 0:0 
0.3603 1:1.66669 2:1.12854 3:0.444161 4:0.975705 5:0.666114 6:0.210391 7:0.761918 8:0.403358 9:1 0:0 
0.3603 1:1.30622 2:0.886023 3:0.176915 4:1.17008 5:0.692589 6:0.221426 7:0.712229 8:0.384524 9:1 0:0 
0.1500086444597406 1:1.22754 2:0.85269 3:0.178379 4:1.21571 5:0.720889 6:0.237036 7:0.692524 8:0.356404 9:1 0:0 
0.259164344685933 1:1.10586 2:0.751039 3:0.166973 4:1.23323 5:0.717121 6:0.237585 7:0.69783 8:0.336079 9:1 0:0 
0.1316578281239413 1:1.17076 2:0.669962 3:0.289141 4:1.55226 5:0.784092 6:0.319614 7:0.703359 8:0.280307 9:1 0:0 
0.3603 1:1.18007 2:0.683222 3:0.229756 4:1.55607 5:0.785805 6:0.318331 7:0.698298 8:0.281874 9:1 0:0 
0.3603 1:1.03052 2:0.749147 3:0.16042 4:0.393271 5:0.853131 6:0.308297 7:0.650884 8:0.399059 9:1 0:0 
0.3603 1:0.984317 2:0.701503 3:0.142918 4:0.435883 5:0.864142 6:0.336409 7:0.667278 8:0.330283 9:1 0:0 
0.3603 1:0.8042 2:0.486095 3:0.123881 4:0.445078 5:0.887335 6:0.367339 7:0.649585 8:0.294335 9:1 0:0 
-0.3603 1:1.66292 2:1.0369 3:0.204244 4:1.59068 5:0.706136 6:0.260687 7:0.673601 8:0.196788 9:1 0:0 
0.3603 1:0.733966 2:0.441421 3:0.110235 4:0.631298 5:0.898716 6:0.446548 7:0.667159 8:0.20753 9:1 0:0 
-0.1321172212267968 1:0.644236 2:0.39921 3:0.0950489 4:0.303176 5:0.97561 6:0.513533 7:0.572486 8:0.180169 9:1 0:0 
-0.3603 1:1.64822 2:1.36705 3:0.230528 4:0.713033 5:0.760055 6:0.254877 7:0.652037 8:0.238428 9:1 0:0 
-0.3603 1:1.51962 2:1.14025 3:0.212395 4:0.637599 5:0.763989 6:0.261901 7:0.66969 8:0.230616 9:1 0:0 
-0.3603 1:1.86844 2:1.51807 3:0.225683 4:0.485663 5:0.788534 6:0.261605 7:0.657783 8:0.235326 9:1 0:0 
-0.3603 1:0.617751 2:0.49071 3:0.281355 4:1.12137 5:0.836443 6:0.454502 7:0.650956 8:0.221875 9:1 0:0 
-0.3603 1:0.759606 2:0.601199 3:0.390585 4:1.00359 5:0.841258 6:0.453379 7:0.692726 8:0.272865 9:1 0:0 
-0.09672635324666386 1:0.785021 2:0.465555 3:0.492532 4:0.57365 5:0.935344 6:0.504617 7:0.755972 8:0.55625 9:1 0:0 
0.3603 1:0.605099 2:0.342117 3:0.127509 4:0.309873 5:0.914609 6:0.537514 7:0.638946 8:0.242369 9:1 0:0 
0.3603 1:0.550964 2:0.321188 3:0.120198 4:0.301228 5:0.881422 6:0.491461 7:0.682763 8:0.224533 9:1 0:0 
-0.11992045727083 1:1.14122 2:0.750722 3:0.463773 4:2.18357 5:0.803576 6:0.14375 7:0.754505 8:0.229384 9:1 0:0 
0.07649558057592754 1:1.32004 2:0.895964 3:0.478725 4:0.761742 5:0.756268 6:0.296414 7:0.665354 8:0.28471 9:1 0:0 
0.3603 1:1.32465 2:0.936559 3:0.325708 4:0.853525 5:0.756023 6:0.293397 7:0.670718 8:0.257476 9:1 0:0 
-0.2369710876124736 1:2.22322 2:1.49817 3:0.472452 4:1.88689 5:0.7138 6:0.250882 7:0.768716 8:0.316587 9:1 0:0 
-0.3603 1:1.21801 2:0.939656 3:0.236481 4:1.06184 5:0.820832 6:0.229353 7:0.695773 8:0.360592 9:1 0:0 
-0.3603 1:0.911117 2:0.72117 3:0.100659 4:0.67191 5:0.782515 6:0.191038 7:0.606326 8:0.456314 9:1 0:0 
-0.3603 1:0.895219 2:0.695291 3:0.107674 4:0.594542 5:0.881027 6:0.257243 7:0.560935 8:0.446897 9:1 0:0 
-0.3603 1:0.887572 2:0.809257 3:0.138656 4:0.534507 5:0.876575 6:0.308567 7:0.609652 8:0.453023 9:1 0:0 
0.3603 1:0.630227 2:0.441327 3:0.196907 4:0.492298 5:0.85676 6:0.385632 7:0.675966 8:0.221545 9:1 0:0 
-0.3603 1:0.998042 2:0.819107 3:0.166227 4:0.347219 5:0.886661 6:0.328271 7:0.581017 8:0.477675 9:1 0:0 
-0.1204439794224803 1:0.950285 2:0.867415 3:0.148475 4:0.380492 5:0.882916 6:0.304845 7:0.582134 8:0.479306 9:1 0:0 
-0.3603 1:0.93073 2:0.860716 3:0.138839 4:0.396146 5:0.868386 6:0.29131 7:0.575547 8:0.482458 9:1 0:0 
0.2272264421971424 1:0.505922 2:0.24532 3:0.170494 4:0.584598 5:0.938865 6:0.536324 7:0.654049 8:0.262546 9:1 0:0 
0.3603 1:0.502456 2:0.263042 3:0.162295 4:0.601778 5:0.931888 6:0.566768 7:0.666593 8:0.259083 9:1 0:0 
0.3603 1:0.531555 2:0.305149 3:0.135049 4:0.615916 5:0.932929 6:0.536277 7:0.650653 8:0.257822 9:1 0:0 
0.3603 1:0.574615 2:0.333722 3:0.196423 4:0.862669 5:0.906665 6:0.440909 7:0.749645 8:0.202246 9:1 0:0 
-0.3603 1:1.18932 2:0.957568 3:0.170508 4:0.8416 5:0.813023 6:0.330474 7:0.770765 8:0.111563 9:1 0:0 
-0.3603 1:1.05621 2:0.618133 3:0.19565 4:0.196384 5:0.842925 6:0.35744 7:0.608847 8:0.240823 9:1 0:0 
-0.3603 1:0.9507 2:0.539267 3:0.138299 4:0.184262 5:0.847773 6:0.348726 7:0.611019 8:0.226902 9:1 0:0 
-0.01678910342574565 1:2.31211 2:1.53287 3:0.167859 4:1.68553 5:0.816575 6:0.0773692 7:0.696021 8:0.528751 9:1 0:0 
-0.3603 1:0.878852 2:0.619723 3:0.173746 4:0.543084 5:0.943845 6:0.330217 7:0.613802 8:0.292187 9:1 0:0 
-0.3603 1:1.34609 2:1.04266 3:0.452713 4:1.13443 5:0.700359 6:0.217926 7:0.755956 8:0.671002 9:1 0:0 
-0.3603 1:1.54399 2:1.13616 3:0.507048 4:1.1423 5:0.70356 6:0.224619 7:0.749284 8:0.655375 9:1 0:0 
-0.3603 1:1.26482 2:0.948807 3:0.385026 4:1.32424 5:0.715885 6:0.277651 7:0.710084 8:0.561736 9:1 0:0 
-0.3603 1:1.1945 2:0.895562 3:0.376351 4:1.43751 5:0.704489 6:0.287483 7:0.72945 8:0.56184 9:1 0:0 
-0.01437677390184674 1:1.43874 2:0.906196 3:0.380226 4:1.71513 5:0.717825 6:0.312566 7:0.707496 8:0.577719 9:1 0:0 
-0.1775330663372879 1:2.71482 2:2.31694 3:0.118383 4:0.475506 5:0.79402 6:0.0431793 7:0.595049 8:0.124511 9:1 0:0 
-0.01805084684845421 1:2.06006 2:1.48408 3:0.230829 4:2.62975 5:0.825939 6:0.277977 7:0.778571 8:0.185865 9:1 0:0 
-0.3603 1:1.00617 2:0.794802 3:0.154986 4:0.452099 5:0.687952 6:0.252184 7:0.707714 8:0.233613 9:1 0:0 
-0.3603 1:0.958854 2:0.70994 3:0.195593 4:0.60776 5:0.76851 6:0.346605 7:0.751194 8:0.235886 9:1 0:0 
-0.3603 1:0.771464 2:0.517311 3:0.155644 4:0.829805 5:0.691736 6:0.16832 7:0.799187 8:0.325319 9:1 0:0 
-0.3603 1:0.930618 2:0.849469 3:0.309811 4:0.514085 5:0.902366 6:0.235781 7:0.735179 8:0.209299 9:1 0:0 
-0.1229784456227524 1:2.41296 2:1.85996 3:0.337765 4:0.392968 5:0.718762 6:0.124036 7:0.831193 8:0.271866 9:1 0:0 
-0.001487545134209225 1:1.88007 2:1.78413 3:0.235292 4:1.2083 5:0.712025 6:0.0706934 7:0.694394 8:0.227991 9:1 0:0 
-0.1482905301516745 1:1.28907 2:1.10926 3:0.230485 4:1.13337 5:0.750904 6:0.0720548 7:0.693965 8:0.217013 9:1 0:0 
-0.05042717729837717 1:1.26265 2:1.21744 3:0.28427 4:0.872894 5:0.869154 6:0.118807 7:0.578374 8:0.778423 9:1 0:0 
-0.005429046448403842 1:1.98029 2:1.75435 3:0.312935 4:0.913003 5:0.868875 6:0.116843 7:0.58207 8:0.936102 9:1 0:0 
-0.2388967769209993 1:1.47292 2:1.11171 3:0.103603 4:0.358903 5:0.740078 6:0.288147 7:0.650682 8:0.115255 9:1 0:0 
-0.2760958366617836 1:1.73335 2:1.18191 3:0.524492 4:0.822946 5:0.562258 6:0.0339408 7:0.742476 8:0.432341 9:1 0:0 
-0.3603 1:0.638557 2:0.512367 3:0.158678 4:0.488293 5:0.830018 6:0.186812 7:0.723474 8:0.192105 9:1 0:0 
-0.3603 1:1.11869 2:0.939727 3:0.209479 4:0.535797 5:0.804297 6:0.218347 7:0.581825 8:0.417187 9:1 0:0 
-0.2291269518496062 1:1.18732 2:1.01602 3:0.224408 4:0.518872 5:0.872681 6:0.209714 7:0.567108 8:0.45 9:1 0:0 
-0.3603 1:1.45015 2:1.28747 3:0.332905 4:0.523631 5:0.874273 6:0.209629 7:0.571077 8:0.539063 9:1 0:0 
-0.3603 1:1.02778 2:0.786395 3:0.178041 4:0.593196 5:0.833431 6:0.360013 7:0.797368 8:0.303165 9:1 0:0 
-0.3603 1:0.994572 2:0.730384 3:0.114241 4:0.351484 5:0.68879 6:0.327135 7:0.691115 8:0.246608 9:1 0:0 
-0.05430128097340764 1:1.33038 2:1.05987 3:0.339447 4:0.515614 5:0.892416 6:0.260417 7:0.583417 8:0.486018 9:1 0:0 
-0.3603 1:0.92523 2:0.511961 3:0.265937 4:0.59143 5:0.898523 6:0.542939 7:0.675447 8:0.279845 9:1 0:0 
-0.3603 1:1.18194 2:0.726496 3:0.362484 4:0.605639 5:0.889432 6:0.388418 7:0.729825 8:0.420568 9:1 0:0 
-0.3603 1:0.958305 2:0.659821 3:0.18284 4:0.644108 5:0.86335 6:0.355543 7:0.710383 8:0.314031 9:1 0:0 
0.1839653769684853 1:1.01079 2:0.724101 3:0.220024 4:0.314871 5:0.898687 6:0.375293 7:0.599873 8:0.285677 9:1 0:0 
0.1899341098492355 1:0.810775 2:0.562975 3:0.166842 4:0.66763 5:0.828415 6:0.250452 7:0.624037 8:0.274818 9:1 0:0 
0.3603 1:0.916486 2:0.650892 3:0.128753 4:0.572073 5:0.819264 6:0.229939 7:0.608887 8:0.281159 9:1 0:0 
0.3603 1:1.05548 2:0.731757 3:0.177472 4:0.399752 5:0.822523 6:0.274477 7:0.611943 8:0.29235 9:1 0:0 
0.3603 1:1.0605 2:0.777883 3:0.270457 4:0.389163 5:0.908945 6:0.365591 7:0.640243 8:0.314408 9:1 0:0 
0.3603 1:0.921668 2:0.633985 3:0.164429 4:0.636398 5:0.830177 6:0.307526 7:0.65273 8:0.267402 9:1 0:0 
0.3603 1:0.962694 2:0.66559 3:0.171219 4:0.64054 5:0.834706 6:0.307702 7:0.648374 8:0.259634 9:1 0:0 
0.278782305568558 1:0.693175 2:0.425832 3:0.184187 4:0.65591 5:0.851381 6:0.387794 7:0.621788 8:0.224967 9:1 0:0 
0.3603 1:0.522307 2:0.391483 3:0.191416 4:0.599417 5:0.837228 6:0.353643 7:0.632765 8:0.187318 9:1 0:0 
0.3603 1:0.528306 2:0.36237 3:0.183129 4:0.601005 5:0.83005 6:0.347253 7:0.63796 8:0.193624 9:1 0:0 
0.02272513821530577 1:2.0907 2:1.76727 3:0.376511 4:0.285084 5:0.778937 6:0.193334 7:0.62437 8:0.969653 9:1 0:0 
0.1626801834177159 1:2.12863 2:1.69214 3:0.325445 4:0.468869 5:0.765982 6:0.195102 7:0.635043 8:0.869442 9:1 0:0 
0.3603 1:1.46817 2:1.15266 3:0.315223 4:0.503714 5:0.753462 6:0.186071 7:0.668683 8:0.600055 9:1 0:0 
0.3603 1:0.591441 2:0.322805 3:0.138415 4:0.313149 5:0.969183 6:0.64473 7:0.599494 8:0.256469 9:1 0:0 
0.3603 1:0.57587 2:0.302129 3:0.104003 4:0.308222 5:0.972907 6:0.644607 7:0.587237 8:0.256383 9:1 0:0 
0.02821759292262711 1:0.557474 2:0.29455 3:0.0944344 4:0.304624 5:0.978992 6:0.659932 7:0.576996 8:0.259563 9:1 0:0 
0.3603 1:0.584433 2:0.342498 3:0.10077 4:0.309136 5:0.979247 6:0.653997 7:0.568605 8:0.259648 9:1 0:0 
0.1616544420541835 1:0.721978 2:0.381465 3:0.255185 4:0.382047 5:0.950627 6:0.605187 7:0.636872 8:0.291769 9:1 0:0 
0.3603 1:0.943033 2:0.627176 3:0.205696 4:0.610621 5:0.920943 6:0.290923 7:0.590438 8:0.321939 9:1 0:0 
0.3603 1:0.923428 2:0.602223 3:0.20579 4:0.612997 5:0.926052 6:0.297246 7:0.581183 8:0.320347 9:1 0:0 
0.3603 1:0.935936 2:0.613076 3:0.200457 4:0.606408 5:0.92478 6:0.303878 7:0.589508 8:0.326581 9:1 0:0 
0.2969358519475683 1:0.91817 2:0.594928 3:0.202156 4:0.605049 5:0.92503 6:0.312155 7:0.582307 8:0.326596 9:1 0:0 
0.3603 1:0.951724 2:0.60626 3:0.213741 4:0.599561 5:0.915209 6:0.343914 7:0.604369 8:0.33746 9:1 0:0 
0.2527092829696552 1:0.958898 2:0.547336 3:0.238267 4:0.649028 5:0.806161 6:0.483564 7:0.69789 8:0.428621 9:1 0:0 
0.01062749474145642 1:1.8588 2:1.52907 3:0.401827 4:0.629887 5:0.689093 6:0.295004 7:0.686232 8:0.803323 9:1 0:0 
0.1822334683173079 1:0.796671 2:0.467082 3:0.316888 4:0.734169 5:0.883984 6:0.502041 7:0.627607 8:0.347761 9:1 0:0 
0.1478234231517249 1:1.009 2:0.733343 3:0.18012 4:1.12988 5:0.784285 6:0.1896 7:0.610302 8:0.709055 9:1 0:0 
0.02537645594280206 1:1.21565 2:0.918696 3:0.209675 4:0.789577 5:0.787229 6:0.241805 7:0.587244 8:0.699508 9:1 0:0 
0.0349667532456366 1:1.4496 2:1.08727 3:0.325327 4:0.517584 5:0.813 6:0.281711 7:0.676243 8:0.849184 9:1 0:0 
0.3603 1:1.61116 2:1.21301 3:0.232601 4:1.25748 5:0.736264 6:0.201578 7:0.605669 8:0.471223 9:1 0:0 
0.3430543388619547 1:0.626144 2:0.332106 3:0.133005 4:1.32857 5:0.74039 6:0.361336 7:0.794583 8:0.222452 9:1 0:0 
0.3603 1:0.728821 2:0.390573 3:0.499018 4:0.751288 5:0.860608 6:0.481017 7:0.739399 8:0.359409 9:1 0:0 
0.2673123976783463 1:0.709289 2:0.35385 3:0.276477 4:0.626583 5:0.934238 6:0.532263 7:0.744365 8:0.351312 9:1 0:0 
0.3603 1:0.841085 2:0.508663 3:0.192908 4:0.737443 5:0.847143 6:0.348188 7:0.623721 8:0.212517 9:1 0:0 
0.3603 1:0.864231 2:0.534605 3:0.181636 4:0.75129 5:0.830899 6:0.345004 7:0.649641 8:0.235881 9:1 0:0 
0.3603 1:1.60461 2:1.18612 3:0.514812 4:0.746718 5:0.752259 6:0.22533 7:0.656507 8:0.427911 9:1 0:0 
0.3603 1:0.935281 2:0.788127 3:0.417939 4:1.78315 5:0.820525 6:0.266523 7:0.617087 8:0.178125 9:1 0:0 
0.3603 1:1.09937 2:0.832624 3:0.328878 4:2.07842 5:0.733979 6:0.218138 7:0.683952 8:0.184004 9:1 0:0 
0.01002175246316566 1:0.90607 2:0.740332 3:0.407234 4:2.7171 5:0.819861 6:0.2372 7:0.670431 8:0.296764 9:1 0:0 
0.04554058896848166 1:0.850138 2:0.77167 3:0.292399 4:2.8027 5:0.785746 6:0.251619 7:0.685047 8:0.246524 9:1 0:0 
0.06560833337471417 1:2.17287 2:1.12505 3:0.385906 4:2.81087 5:0.765019 6:0.247715 7:0.687869 8:0.251198 9:1 0:0 
0.05142009038008506 1:0.973356 2:0.880002 3:0.546713 4:2.76531 5:0.804975 6:0.208792 7:0.670638 8:0.33073 9:1 0:0 
0.03343012744869046 1:1.80876 2:0.962863 3:0.381557 4:2.74307 5:0.798854 6:0.207335 7:0.670203 8:0.333867 9:1 0:0 
0.1497964364533009 1:2.52357 2:1.57095 3:0.540382 4:2.01949 5:0.761056 6:0.186718 7:0.664786 8:0.402577 9:1 0:0 
0.210466387674988 1:2.20993 2:1.40611 3:0.291501 4:1.85028 5:0.661904 6:0.262877 7:0.660822 8:0.185859 9:1 0:0 
0.3516363317316691 1:1.73254 2:1.02224 3:0.294277 4:1.96853 5:0.713779 6:0.306256 7:0.64998 8:0.189062 9:1 0:0 
0.1579012996919901 1:1.05599 2:0.657542 3:0.372354 4:1.33862 5:0.760973 6:0.19073 7:0.768938 8:0.410051 9:1 0:0 
0.3603 1:0.645867 2:0.479869 3:0.105393 4:0.728544 5:0.793306 6:0.213668 7:0.738296 8:0.314905 9:1 0:0 
0.3603 1:0.627515 2:0.362834 3:0.0907487 4:0.835027 5:0.80986 6:0.23317 7:0.731448 8:0.269607 9:1 0:0 
0.3603 1:0.601167 2:0.481831 3:0.101045 4:0.940674 5:0.800366 6:0.215897 7:0.740619 8:0.289868 9:1 0:0 
0.3603 1:0.619763 2:0.398569 3:0.136188 4:1.2181 5:0.808003 6:0.333884 7:0.65102 8:0.221092 9:1 0:0 
0.2207836077068681 1:0.726862 2:0.485478 3:0.314057 4:1.14193 5:0.816935 6:0.326843 7:0.619891 8:0.216399 9:1 0:0 
0.3603 1:0.813694 2:0.467296 3:0.195652 4:1.05221 5:0.810235 6:0.319523 7:0.630915 8:0.225753 9:1 0:0 
0.3398302033608475 1:0.737379 2:0.713582 3:0.0866854 4:0.298839 5:0.724925 6:0.173458 7:0.61814 8:0.430848 9:1 0:0 
0.01788822397848985 1:0.764491 2:0.703375 3:0.0929298 4:0.370705 5:0.676328 6:0.12424 7:0.617074 8:0.535609 9:1 0:0 
0.2412355347062774 1:1.63268 2:1.06658 3:0.217551 4:1.36423 5:0.790111 6:0.243534 7:0.603876 8:0.365381 9:1 0:0 
0.2115971246362102 1:0.791559 2:0.484387 3:0.196372 4:1.42142 5:0.809916 6:0.260768 7:0.631997 8:0.406679 9:1 0:0 
0.05402126837573223 1:1.64489 2:1.40499 3:0.152822 4:0.563666 5:0.786655 6:0.120901 7:0.550101 8:0.921796 9:1 0:0 
0.1087964049890301 1:0.766296 2:0.490351 3:0.170107 4:1.05988 5:0.819147 6:0.267484 7:0.620562 8:0.302343 9:1 0:0 
0.3603 1:0.90897 2:0.594345 3:0.182058 4:1.09029 5:0.766367 6:0.241908 7:0.677845 8:0.340922 9:1 0:0 
0.3603 1:0.917634 2:0.609163 3:0.184762 4:1.23705 5:0.790564 6:0.263599 7:0.629859 8:0.251431 9:1 0:0 
0.3603 1:1.11584 2:0.75227 3:0.184476 4:1.2221 5:0.791358 6:0.258546 7:0.624682 8:0.252966 9:1 0:0 
0.1153764325839863 1:0.649997 2:0.408608 3:0.0995294 4:0.491286 5:0.718293 6:0.421056 7:0.724566 8:0.28197 9:1 0:0 
0.3603 1:0.799448 2:0.545182 3:0.120027 4:0.496511 5:0.768223 6:0.484343 7:0.72895 8:0.286552 9:1 0:0 
0.3603 1:2.08067 2:1.53514 3:0.393413 4:0.957453 5:0.75593 6:0.304042 7:0.628618 8:0.348648 9:1 0:0 
0.3603 1:1.48625 2:1.01932 3:0.498592 4:1.19637 5:0.796437 6:0.256565 7:0.694395 8:0.207942 9:1 0:0 
0.2173656330542255 1:1.2668 2:0.789489 3:0.331533 4:1.34983 5:0.79875 6:0.276894 7:0.647294 8:0.201938 9:1 0:0 
0.3603 1:1.12103 2:0.666949 3:0.239649 4:1.29709 5:0.834224 6:0.316027 7:0.615702 8:0.192973 9:1 0:0 
0.3603 1:1.15954 2:0.716915 3:0.259029 4:1.31468 5:0.834535 6:0.311981 7:0.60757 8:0.196049 9:1 0:0 
0.09040577621143014 1:1.06913 2:0.60845 3:0.361987 4:1.28857 5:0.847242 6:0.317266 7:0.618735 8:0.19915 9:1 0:0 
0.3603 1:1.19317 2:0.869976 3:0.218634 4:0.807247 5:0.805705 6:0.285322 7:0.623824 8:0.217491 9:1 0:0 
0.3603 1:1.33566 2:1.00895 3:0.444103 4:0.712801 5:0.822002 6:0.29423 7:0.646141 8:0.322352 9:1 0:0 
0.3603 1:1.30506 2:0.935835 3:0.327646 4:0.881701 5:0.827016 6:0.287672 7:0.653826 8:0.395575 9:1 0:0 
0.292529949514957 1:1.46045 2:1.02262 3:0.407682 4:1.1263 5:0.805293 6:0.260035 7:0.666125 8:0.475372 9:1 0:0 
0.2780015921559079 1:1.56426 2:1.05852 3:0.403351 4:1.07569 5:0.815536 6:0.261574 7:0.661119 8:0.58168 9:1 0:0 
0.1503255838356942 1:1.5178 2:0.954658 3:0.200284 4:1.64668 5:0.801389 6:0.258294 7:0.647284 8:0.430031 9:1 0:0 
0.1136040687715704 1:1.24458 2:0.991252 3:0.458401 4:1.16358 5:0.763937 6:0.254354 7:0.669033 8:0.606429 9:1 0:0 
0.3603 1:1.27012 2:0.960993 3:0.514203 4:1.27526 5:0.768031 6:0.258527 7:0.671569 8:0.601767 9:1 0:0 
0.237689700101314 1:1.20195 2:0.934681 3:0.37148 4:1.40961 5:0.761145 6:0.261171 7:0.678075 8:0.52987 9:1 0:0 
0.1510463018001721 1:1.07775 2:0.85276 3:0.231341 4:1.65657 5:0.755837 6:0.276328 7:0.673806 8:0.437687 9:1 0:0 
0.3603 1:1.03094 2:0.758421 3:0.221493 4:1.76459 5:0.777858 6:0.283164 7:0.656297 8:0.400272 9:1 0:0 
0.2546457196054565 1:1.94945 2:1.29109 3:0.320296 4:1.32812 5:0.776657 6:0.249907 7:0.678851 8:0.509684 9:1 0:0 
0.2962109381398877 1:1.98056 2:1.33811 3:0.531188 4:1.14742 5:0.789625 6:0.250621 7:0.678779 8:0.520596 9:1 0:0 
0.3603 1:1.79504 2:1.25936 3:0.45089 4:0.947922 5:0.783476 6:0.249862 7:0.680897 8:0.528271 9:1 0:0 
0.3603 1:1.7561 2:1.27168 3:0.545868 4:0.778442 5:0.789306 6:0.264275 7:0.670693 8:0.512693 9:1 0:0 
0.3603 1:1.06066 2:0.734841 3:0.202845 4:0.76024 5:0.819406 6:0.326434 7:0.658951 8:0.329706 9:1 0:0 
0.3603 1:1.03037 2:0.70183 3:0.226178 4:0.788056 5:0.822296 6:0.325996 7:0.652842 8:0.314105 9:1 0:0 
0.3603 1:0.948418 2:0.605939 3:0.197846 4:0.817978 5:0.816146 6:0.326187 7:0.667217 8:0.292192 9:1 0:0 
0.3603 1:1.04111 2:0.715311 3:0.194679 4:0.825513 5:0.820902 6:0.333431 7:0.657382 8:0.279718 9:1 0:0 
0.3603 1:0.976339 2:0.648872 3:0.195503 4:0.809256 5:0.837773 6:0.359193 7:0.648225 8:0.260961 9:1 0:0 
0.3603 1:0.946501 2:0.617092 3:0.187056 4:0.786517 5:0.836266 6:0.368081 7:0.650691 8:0.259389 9:1 0:0 
0.3603 1:0.983008 2:0.653823 3:0.226962 4:0.771516 5:0.8334 6:0.358616 7:0.635389 8:0.273478 9:1 0:0 
0.3603 1:1.03915 2:0.719787 3:0.196073 4:0.698585 5:0.834158 6:0.349862 7:0.640433 8:0.303121 9:1 0:0 
0.3603 1:0.731526 2:0.458326 3:0.206703 4:0.81154 5:0.836952 6:0.40171 7:0.662751 8:0.268245 9:1 0:0 
0.3603 1:0.752797 2:0.444047 3:0.235051 4:0.905931 5:0.837275 6:0.420597 7:0.661959 8:0.248147 9:1 0:0 
0.3603 1:0.528587 2:0.279998 3:0.117456 4:1.01835 5:0.869144 6:0.474932 7:0.657573 8:0.181499 9:1 0:0 
0.3603 1:0.590047 2:0.316569 3:0.117263 4:0.99448 5:0.868861 6:0.477318 7:0.653244 8:0.184752 9:1 0:0 
0.3603 1:0.547074 2:0.306523 3:0.118354 4:0.961479 5:0.855124 6:0.470778 7:0.662908 8:0.184686 9:1 0:0 
0.3603 1:0.581278 2:0.3106 3:0.121796 4:0.951432 5:0.852241 6:0.460065 7:0.654687 8:0.188591 9:1 0:0 
0.08542549983720726 1:0.827908 2:0.531406 3:0.436651 4:0.816832 5:0.818725 6:0.374784 7:0.669025 8:0.292066 9:1 0:0 
0.3603 1:0.799458 2:0.504817 3:0.130422 4:0.909628 5:0.815932 6:0.328754 7:0.654442 8:0.231867 9:1 0:0 
-0.3603 1:0.994171 2:0.841342 3:0.324591 4:0.624638 5:0.849525 6:0.50724 7:0.670696 8:0.151224 9:1 0:0 
-0.3603 1:1.11319 2:0.897542 3:0.149478 4:0.481623 5:0.884779 6:0.368119 7:0.671402 8:0.2 9:1 0:0 
-0.3603 1:0.502551 2:0.258362 3:0.110171 4:0.465154 5:0.935637 6:0.615924 7:0.691385 8:0.253482 9:1 0:0 
-0.2350119391351628 1:0.580076 2:0.322037 3:0.098617 4:0.479032 5:0.936834 6:0.672345 7:0.693069 8:0.238909 9:1 0:0 
-0.3603 1:1.63741 2:1.4354 3:0.291529 4:0.740213 5:0.84918 6:0.316921 7:0.702166 8:0.175613 9:1 0:0 
-0.3603 1:1.50701 2:1.24085 3:0.426661 4:0.849453 5:0.870961 6:0.328104 7:0.648155 8:0.176963 9:1 0:0 
-0.06838983341273418 1:2.20755 2:1.32953 3:0.524211 4:0.88252 5:0.696311 6:0.336696 7:0.762705 8:0.398002 9:1 0:0 
-0.3603 1:0.434031 2:0.322251 3:0.0896026 4:0.762017 5:0.789272 6:0.326028 7:0.786202 8:0.251475 9:1 0:0 
-0.3603 1:1.07129 2:0.63042 3:0.32169 4:1.91418 5:0.839489 6:0.349838 7:0.641648 8:0.307201 9:1 0:0 
-0.3603 1:1.76421 2:1.49019 3:0.445243 4:0.855159 5:0.649827 6:0.288323 7:0.731422 8:0.389062 9:1 0:0 
-0.3481630865857746 1:0.752446 2:0.636653 3:0.178004 4:0.198017 5:0.667292 6:0.374281 7:0.648289 8:0.107563 9:1 0:0 
0.020092811180981 1:1.71144 2:1.80809 3:0.180905 4:0.800051 5:0.666065 6:0.244224 7:0.708483 8:0.168069 9:1 0:0 
-0.3603 1:1.08101 2:0.838479 3:0.180985 4:1.18247 5:0.744234 6:0.253977 7:0.666996 8:0.166822 9:1 0:0 
-0.06273488277503071 1:1.8129 2:1.25132 3:0.19246 4:1.77793 5:0.622886 6:0.26692 7:0.761289 8:0.146492 9:1 0:0 
-0.004442530829892834 1:1.80463 2:1.38138 3:0.310707 4:1.73299 5:0.678788 6:0.146946 7:0.713478 8:0.134066 9:1 0:0 
-0.3603 1:1.034 2:0.743579 3:0.209106 4:0.636987 5:0.823347 6:0.247045 7:0.640709 8:0.279879 9:1 0:0 
-0.3603 1:1.22554 2:0.810106 3:0.388171 4:1.02642 5:0.699005 6:0.260665 7:0.799588 8:0.209334 9:1 0:0 
