svm_type epsilon_svr
kernel_type rbf
gamma 2.7397
nr_class 2
total_sv 1323
rho 0.0153496
SV
-0.00114522762125003 1:0.566384 2:0.76401 3:0.00910036 4:0.0924502 5:0.551497 6:1.67891 7:1.67891 8:0.0122199 9:2.67592 0:0 
-0.001538556771938461 1:1.14188 2:0.595083 3:0.000801086 4:0.107231 5:0.316748 6:1.70695 7:1.70695 8:0.0839596 9:3.31445 0:0 
-0.006028479393227554 1:1.16188 2:0.617223 3:0.00110626 4:0.0924385 5:0.321299 6:1.6778 7:1.6778 8:0.296128 9:3.90261 0:0 
-0.002758449088227641 1:0.960415 2:0.928375 3:0.0110272 4:0.188887 5:0.609376 6:1.53015 7:1.53015 8:0.00931957 9:3.04565 0:0 
-0.001105862639186333 1:1.54503 2:0.577391 3:0.000953674 4:0.119878 5:0.361562 6:1.58679 7:1.58679 8:0.293217 9:3.56226 0:0 
0.2603 1:0.036021 2:0.146857 3:0.00831604 4:0.389433 5:0.733446 6:0.192304 7:0.192304 8:0.0181642 9:3.12678 0:0 
-0.2603 1:0.303905 2:0.259032 3:0.0050354 4:0.605131 5:0.844694 6:0.275573 7:0.275573 8:0.00226425 9:3.10546 0:0 
-0.2603 1:0.0622982 2:0.150242 3:0.0025177 4:0.400446 5:0.772845 6:0.0761567 7:0.0761567 8:0.00360018 9:2.9611 0:0 
0.2603 1:0 2:0 3:0 4:0.747749 5:0.84759 6:0.106699 7:0.106699 8:0.0186537 9:2.81254 0:0 
-0.03142779530437372 1:0.159902 2:0.432928 3:0.00938416 4:1.01043 5:0.539353 6:0.158293 7:0.158293 8:0.00525206 9:2.80142 0:0 
-0.1802237871120328 1:0 2:0 3:0 4:0.567136 5:0.82436 6:0.133857 7:0.133857 8:0.00437429 9:1.5708 0:0 
0.2603 1:0 2:0 3:0 4:0.8765 5:0.761787 6:0.144986 7:0.144986 8:0.014498 9:3.19679 0:0 
-0.2603 1:0 2:0 3:0 4:0.633441 5:0.820301 6:0.172361 7:0.172361 8:0.00358969 9:1.30047 0:0 
0.2603 1:0 2:0 3:0 4:0.637615 5:0.811891 6:0.138661 7:0.138661 8:0.00637595 9:3.06014 0:0 
-0.2603 1:0 2:0 3:0 4:0.70056 5:0.89149 6:0.19742 7:0.19742 8:0.00815369 9:3.49036 0:0 
0.2603 1:0 2:0 3:0 4:0.834647 5:0.804919 6:0.330053 7:0.330053 8:0.142919 9:3.50233 0:0 
-0.008910799114774871 1:0.357001 2:0.528655 3:0.00739397 4:0.11283 5:0.470924 6:2.54521 7:2.54521 8:0.0269133 9:3.17945 0:0 
-0.001533614083926104 1:0.915791 2:0.492141 3:0.00774748 4:0.0870495 5:0.975843 6:2.44056 7:2.44056 8:0.0317602 9:1.85837 0:0 
-0.006379315009448417 1:0.935482 2:0.936129 3:0.0255221 4:0.139809 5:0.520335 6:2.31635 7:2.31635 8:0.0476139 9:1.61363 0:0 
-0.01432911567895192 1:0.473857 2:0.371732 3:0.0100521 4:0.0937869 5:0.656982 6:0.300079 7:0.300079 8:0.253844 9:4.31869 0:0 
0.1023820973365064 1:0.00477227 2:0.0409519 3:0.00205994 4:0.687098 5:0.77775 6:0.305145 7:0.305145 8:0.0892345 9:3.42692 0:0 
0.2603 1:0.00968233 2:0.0636552 3:0.00247955 4:0.638418 5:0.765421 6:0.295493 7:0.295493 8:0.0938758 9:3.38251 0:0 
0.2603 1:0.00485226 2:0.0418808 3:0.00202179 4:0.61343 5:0.780599 6:0.293752 7:0.293752 8:0.0860898 9:3.3944 0:0 
0.2603 1:0.00475052 2:0.0376572 3:0.00240326 4:0.28809 5:0.780449 6:0.147791 7:0.147791 8:0.0738131 9:3.13375 0:0 
-0.001802352651164147 1:1.19354 2:0.606745 3:0.032856 4:0.292268 5:0.951956 6:1.53518 7:1.53518 8:0.00167349 9:1.47784 0:0 
-0.002206379602058035 1:1.12477 2:0.609325 3:0.0287205 4:0.25725 5:0.968307 6:1.33275 7:1.33275 8:0.00682284 9:1.44312 0:0 
-0.2603 1:0.533765 2:0.441733 3:0.00675201 4:0.643102 5:0.794085 6:0.451544 7:0.451544 8:0.00867258 9:2.59131 0:0 
-0.2603 1:0.311931 2:0.550753 3:0.0261307 4:0.258238 5:0.844383 6:0.358897 7:0.358897 8:0.00258766 9:2.81239 0:0 
-0.1268128736521781 1:0.312175 2:0.567124 3:0.0182724 4:0.251974 5:0.836432 6:0.35823 7:0.35823 8:0.00367215 9:2.81009 0:0 
-0.2603 1:0.166315 2:0.337449 3:0.000762939 4:0.171203 5:0.690721 6:0.235565 7:0.235565 8:0.0338198 9:2.70563 0:0 
-0.2603 1:0.210685 2:0.406027 3:0.00762939 4:0.722836 5:0.68121 6:0.425424 7:0.425424 8:0.0117355 9:3.16287 0:0 
-0.2142774761343802 1:0.386518 2:0.481493 3:0.0312868 4:0.435304 5:0.924509 6:0.35022 7:0.35022 8:0.0365771 9:3.15289 0:0 
-0.2603 1:0.325719 2:0.549444 3:0.0199509 4:0.428404 5:0.86342 6:0.419851 7:0.419851 8:0.00351413 9:4.69065 0:0 
-0.2603 1:0.223234 2:0.396822 3:0.00911713 4:0.337453 5:0.887828 6:0.232992 7:0.232992 8:0.0928885 9:3.7992 0:0 
-0.2603 1:0.22752 2:0.403943 3:0.00774384 4:0.3425 5:0.864979 6:0.223349 7:0.223349 8:0.0869251 9:3.80402 0:0 
-0.1289964080205343 1:0.187062 2:0.382668 3:0.0135422 4:0.524088 5:0.937938 6:0.313383 7:0.313383 8:0.0413831 9:3.08547 0:0 
-0.1190485890786129 1:0.144313 2:0.124161 3:0.001297 4:0.574972 5:0.651401 6:0.17516 7:0.17516 8:1 9:4.08919 0:0 
-0.08116834232286857 1:0.503827 2:0.484307 3:0.186796 4:0.833116 5:0.785357 6:0.277493 7:0.277493 8:0.00498613 9:2.38531 0:0 
-0.2603 1:0.350035 2:0.280794 3:0.0174713 4:0.469973 5:0.805301 6:0.32337 7:0.32337 8:0.0222817 9:2.79527 0:0 
-0.2302229849560259 1:0.436616 2:0.331472 3:0.0159836 4:0.299756 5:0.904198 6:0.313432 7:0.313432 8:0.0130068 9:2.85144 0:0 
-0.2603 1:0 2:0 3:0 4:0.435638 5:0.885712 6:0.230755 7:0.230755 8:0.00308003 9:2.24674 0:0 
-0.2603 1:0.0431417 2:0.0693934 3:0.00167847 4:0.346137 5:0.669444 6:0.122084 7:0.122084 8:0.00329239 9:2.46685 0:0 
-0.2420769411768402 1:0.0176466 2:0.0671034 3:0.00644684 4:0.248488 5:0.727989 6:0.119682 7:0.119682 8:0.00352055 9:4.75423 0:0 
-0.1729586002579937 1:0.124243 2:0.13508 3:0.015567 4:0.477911 5:0.662294 6:0.19184 7:0.19184 8:1 9:3.57893 0:0 
-0.1317382473734403 1:0.0461194 2:0.0875582 3:0.000686646 4:0.428671 5:0.819859 6:0.0852568 7:0.0852568 8:1 9:3.95024 0:0 
-0.001882927901618413 1:3.80427 2:0.661435 3:0.0469589 4:0.714868 5:0.91141 6:2.4391 7:2.4391 8:0.0348022 9:2.71445 0:0 
-0.001524008208192948 1:0 2:0 3:0 4:0.212071 5:0.806024 6:1.10706 7:1.10706 8:0.00467968 9:3.55559 0:0 
-0.2603 1:0 2:0 3:0 4:0.432026 5:0.840413 6:0.101729 7:0.101729 8:0.178194 9:3.77373 0:0 
-0.2603 1:0 2:0 3:0 4:0.527511 5:0.821765 6:0.152411 7:0.152411 8:0.0104215 9:3.92699 0:0 
-0.2603 1:0 2:0 3:0 4:0.703244 5:0.770101 6:0.234546 7:0.234546 8:0.0545185 9:3.99247 0:0 
-0.001347482282381497 1:0 2:0 3:0 4:0.80414 5:0.884461 6:0.228663 7:0.228663 8:0.00513225 9:5.08672 0:0 
-0.02720461613467789 1:0 2:0 3:0 4:0.689869 5:0.832687 6:0.267575 7:0.267575 8:0.00696381 9:4.67075 0:0 
-0.2603 1:0.0308691 2:0.0827421 3:0.00507355 4:0.520556 5:0.887563 6:0.148837 7:0.148837 8:0.001497 9:4.46741 0:0 
-0.2603 1:0.660741 2:0.577791 3:0.0897496 4:0.533395 5:0.799858 6:0.401223 7:0.401223 8:0.0110129 9:2.26612 0:0 
-0.002080665043238565 1:0 2:0 3:0 4:1.76442 5:0.906937 6:0.495724 7:0.495724 8:0.0104215 9:4.72826 0:0 
-0.2603 1:0.684537 2:0.590315 3:0.0816727 4:0.537032 5:0.782064 6:0.423306 7:0.423306 8:0.0197917 9:2.27995 0:0 
-0.2603 1:0.0229031 2:0.105375 3:0.00789642 4:0.589261 5:0.883785 6:0.281631 7:0.281631 8:0.0155537 9:2.81064 0:0 
-0.2603 1:0 2:0 3:0 4:0.543096 5:0.891591 6:0.316795 7:0.316795 8:0.0306207 9:2.82646 0:0 
-0.2603 1:0.00661443 2:0.0604345 3:0.00301361 4:0.515819 5:0.822929 6:0.28421 7:0.28421 8:0.0298638 9:2.81984 0:0 
-0.2603 1:0.0103386 2:0.0823917 3:0.0031662 4:0.499005 5:0.82671 6:0.27062 7:0.27062 8:0.0257572 9:2.81741 0:0 
-0.2603 1:0.50693 2:0.539999 3:0.0455475 4:0.472718 5:0.791018 6:0.309062 7:0.309062 8:0.00443137 9:2.80397 0:0 
-0.2603 1:0.222488 2:0.226832 3:0.0492096 4:0.392555 5:0.80996 6:0.153795 7:0.153795 8:0.000242655 9:2.29196 0:0 
-0.2603 1:0.271835 2:0.215234 3:0.0108337 4:0.431764 5:0.662274 6:0.206498 7:0.206498 8:0.000811301 9:3.12246 0:0 
-0.004972870255783524 1:1.57118 2:0.678428 3:0.0652966 4:1.01285 5:0.616547 6:1.43808 7:1.43808 8:0.00428102 9:3.48747 0:0 
-0.1736566899336892 1:0.233946 2:0.207395 3:0.00934601 4:0.363854 5:0.783107 6:0.174637 7:0.174637 8:0.0004818 9:3.09565 0:0 
-0.1687257145011945 1:0 2:0 3:0 4:0.930345 5:0.822902 6:0.261431 7:0.261431 8:0.00105167 9:1.51468 0:0 
-0.09944205118609427 1:0 2:0 3:0 4:0.505505 5:0.909936 6:0.199498 7:0.199498 8:0.0817429 9:1.49876 0:0 
-0.003298199555405773 1:0.309251 2:0.315152 3:0.0261688 4:0.952435 5:0.93161 6:0.469666 7:0.469666 8:0.0687141 9:1.33654 0:0 
-0.2603 1:0.130364 2:0.167402 3:0.0228119 4:0.527161 5:0.746502 6:0.165247 7:0.165247 8:0.027405 9:4.74527 0:0 
-0.1429269940312315 1:0.51751 2:0.415798 3:0.12928 4:0.616423 5:0.911627 6:0.26562 7:0.26562 8:0.00298647 9:2.34655 0:0 
-0.2603 1:0.38313 2:0.229866 3:0.0595873 4:0.90437 5:0.809719 6:0.274329 7:0.274329 8:0.000537583 9:3.57288 0:0 
-0.1178114491061514 1:0.47555 2:0.34231 3:0.0803121 4:1.37002 5:0.712864 6:0.535571 7:0.535571 8:0.000593078 9:3.7159 0:0 
-0.007119382256905035 1:0.483312 2:0.180883 3:0.00408173 4:0.844883 5:0.800591 6:1.28081 7:1.28081 8:0.00449471 9:4.81206 0:0 
-0.0184160536105398 1:0.294055 2:0.338102 3:0.0134302 4:1.50907 5:0.695682 6:0.0545774 7:0.0545774 8:0.00859854 9:3.76184 0:0 
-0.06353737132093838 1:0.0553446 2:0.141241 3:0.0100327 4:0.169878 5:0.61181 6:0.189004 7:0.189004 8:0.0121651 9:3.71177 0:0 
-4.69388263967825e-05 1:0.0403356 2:0.121625 3:0.00965118 4:0.230655 5:0.581859 6:0.3095 7:0.3095 8:0.0178933 9:3.99601 0:0 
-0.2603 1:0.009303 2:0.0541293 3:0.00988007 4:0.261158 5:0.968968 6:0.201424 7:0.201424 8:0.00539389 9:3.57442 0:0 
-0.1477384082796243 1:0.014906 2:0.0667989 3:0.00778198 4:0.230441 5:0.943341 6:0.112012 7:0.112012 8:0.020995 9:3.445 0:0 
-0.2603 1:0.013431 2:0.0620242 3:0.00671387 4:0.235868 5:0.942098 6:0.114695 7:0.114695 8:0.0103821 9:3.39442 0:0 
-0.2603 1:0.0110287 2:0.0551154 3:0.00679016 4:0.266248 5:0.936177 6:0.141704 7:0.141704 8:0.0117619 9:3.49715 0:0 
-0.0730592685914149 1:0.221983 2:0.38894 3:0.0250154 4:0.297577 5:0.949708 6:1.25376 7:1.25376 8:0.0190549 9:3.57098 0:0 
-0.02716238996149263 1:0.194794 2:0.360998 3:0.0175345 4:0.282667 5:0.945956 6:1.21512 7:1.21512 8:0.012838 9:2.57644 0:0 
-0.2603 1:0.0720174 2:0.197748 3:0.00610352 4:0.276455 5:0.942874 6:0.166027 7:0.166027 8:0.0282159 9:2.80595 0:0 
-0.2603 1:0.0823462 2:0.214879 3:0.00778198 4:0.283696 5:0.945101 6:0.196711 7:0.196711 8:0.0196566 9:3.54262 0:0 
-0.2603 1:0.0843713 2:0.218183 3:0.00850677 4:0.29239 5:0.938655 6:0.181878 7:0.181878 8:0.0211626 9:3.51029 0:0 
-0.2080262471331193 1:0.10991 2:0.258749 3:0.00988007 4:0.287715 5:0.938037 6:1.24473 7:1.24473 8:0.0225836 9:3.42415 0:0 
-0.2603 1:0.304627 2:0.273133 3:0.0395203 4:0.430095 5:0.86576 6:0.225141 7:0.225141 8:0.04497 9:1.7886 0:0 
-0.004947414694891752 1:0.906625 2:0.88934 3:0.0319555 4:1.32007 5:0.68365 6:0.731274 7:0.731274 8:1 9:3.49755 0:0 
-0.2603 1:0.422706 2:0.458966 3:0.0216548 4:0.604662 5:0.621646 6:0.378607 7:0.378607 8:0.0443858 9:4.26216 0:0 
-0.06489097012955893 1:0.843343 2:0.516981 3:0.236652 4:0.443209 5:0.698695 6:0.443949 7:0.443949 8:0.00212825 9:2.49918 0:0 
-0.03705818088384755 1:0.559038 2:0.533299 3:0.0215346 4:0.699485 5:0.654164 6:0.358115 7:0.358115 8:1 9:3.5882 0:0 
-0.02990551647121204 1:0.648961 2:0.44079 3:0.15813 4:0.323947 5:0.711029 6:0.302444 7:0.302444 8:0.00160757 9:2.84309 0:0 
-0.1148214909599615 1:0.597669 2:0.453464 3:0.137327 4:0.35798 5:0.648783 6:0.306689 7:0.306689 8:0.00191744 9:2.55262 0:0 
-0.07339134124849453 1:0.140851 2:0.124282 3:0.00656128 4:0.494872 5:0.783308 6:0.11321 7:0.11321 8:0.0368095 9:5.12252 0:0 
-0.05022684025770951 1:1.12673 2:0.785792 3:0.335738 4:1.57326 5:0.912025 6:0.808552 7:0.808552 8:0.000512368 9:2.38995 0:0 
-0.2603 1:0.552483 2:0.460087 3:0.0994291 4:0.651764 5:0.862033 6:0.43891 7:0.43891 8:0.0158244 9:1.63887 0:0 
-0.02138053384825792 1:0.63526 2:0.496832 3:0.20209 4:0.734476 5:0.924446 6:0.405861 7:0.405861 8:0.00451738 9:1.86662 0:0 
0.2603 1:0.523044 2:0.425397 3:0.0528771 4:0.532789 5:0.812774 6:0.393127 7:0.393127 8:0.00228022 9:2.10406 0:0 
0.07672599525849753 1:0.508881 2:0.422834 3:0.051649 4:0.537164 5:0.810214 6:0.408778 7:0.408778 8:0.00224498 9:2.10588 0:0 
0.2203791695879028 1:0.4054 2:0.371789 3:0.0531006 4:0.358494 5:0.685316 6:0.371433 7:0.371433 8:0.00168887 9:2.07346 0:0 
-0.09667787541373232 1:0.239441 2:0.152579 3:0.0154287 4:0.672256 5:0.871857 6:0.128436 7:0.128436 8:1 9:2.96792 0:0 
0.01545182767471425 1:0.184407 2:0.353022 3:0.0318819 4:1.05636 5:0.600442 6:1.68054 7:1.68054 8:0.082825 9:1.31227 0:0 
-0.2603 1:0.329838 2:0.336435 3:0.0167465 4:0.60516 5:0.800766 6:0.318312 7:0.318312 8:0.00444001 9:2.26553 0:0 
-0.1942798925538986 1:0.42264 2:0.377022 3:0.0223923 4:0.158583 5:0.75637 6:0.280937 7:0.280937 8:0.0132323 9:3.08348 0:0 
-0.2603 1:0.247526 2:0.349241 3:0.0237434 4:0.240832 5:0.893567 6:0.22898 7:0.22898 8:0.00303735 9:3.24811 0:0 
-0.2603 1:0.407858 2:0.277194 3:0.0283082 4:0.324888 5:0.841941 6:0.227126 7:0.227126 8:0.0055412 9:2.8987 0:0 
-0.09837348539862789 1:0.48474 2:0.568185 3:0.0680556 4:0.500028 5:0.892356 6:0.424573 7:0.424573 8:0.0015587 9:2.7543 0:0 
-0.004697529328290618 1:0.943178 2:0.683906 3:0.0385845 4:0.249386 5:0.650939 6:0.446491 7:0.446491 8:0.00102706 9:2.85166 0:0 
-0.01138801010333997 1:0.0943262 2:0.165924 3:0.00331879 4:0.486623 5:0.789332 6:0.171808 7:0.171808 8:0.109332 9:3.36026 0:0 
-0.01491177738179513 1:1.12858 2:0.453792 3:0.00217438 4:0.10794 5:0.640541 6:2.09113 7:2.09113 8:0.00346114 9:3.35768 0:0 
-0.1374240229201074 1:0.597434 2:0.456065 3:0.027771 4:1.01154 5:0.784419 6:0.39039 7:0.39039 8:0.0502571 9:3.59317 0:0 
-0.01787994704396946 1:0.632632 2:0.466846 3:0.0318909 4:1.05768 5:0.795613 6:0.293135 7:0.293135 8:1 9:3.22473 0:0 
-0.2603 1:0.0122228 2:0.0673366 3:0.00492096 4:0.344258 5:0.741584 6:0.0866238 7:0.0866238 8:0.0796837 9:2.60117 0:0 
-0.129796875397882 1:0.000985597 2:0.0108993 3:0 4:0.539241 5:0.58031 6:0.285524 7:0.285524 8:0.0164059 9:4.44541 0:0 
-0.2603 1:0.0351154 2:0.115027 3:0.0121689 4:0.954305 5:0.85856 6:0.342378 7:0.342378 8:0.055885 9:1.33971 0:0 
-0.2603 1:0.0711942 2:0.209682 3:0.0194168 4:0.890359 5:0.764069 6:0.535925 7:0.535925 8:0.00672171 9:4.02782 0:0 
-0.008510105760662228 1:1.67747 2:0.566408 3:0.00995636 4:0.217876 5:0.565762 6:1.2537 7:1.2537 8:0.259919 9:3.85872 0:0 
-0.2477683593957539 1:0.169805 2:0.388873 3:0.0336075 4:0.828484 5:0.74001 6:0.65199 7:0.65199 8:0.0437073 9:4.04106 0:0 
-0.1722342555786658 1:0 2:0 3:0 4:0.219217 5:0.73679 6:0.0888774 7:0.0888774 8:0.00417136 9:1.84826 0:0 
-0.2603 1:0.117355 2:0.108471 3:0.00610352 4:0.387491 5:0.731302 6:0.0969792 7:0.0969792 8:0.0463868 9:3.63749 0:0 
-0.2603 1:0.0579811 2:0.136053 3:0.00518799 4:0.694323 5:0.810586 6:0.145242 7:0.145242 8:0.0295942 9:3.65604 0:0 
-0.0159744949838157 1:0.222132 2:0.178254 3:0.0198746 4:0.159101 5:0.657514 6:0.115067 7:0.115067 8:1 9:4.20486 0:0 
-0.2603 1:0.0572 2:0.104464 3:0.000801086 4:0.549443 5:0.828762 6:0.132963 7:0.132963 8:0.0210165 9:3.75232 0:0 
-0.2603 1:0.0655772 2:0.126471 3:0.00167847 4:0.669548 5:0.701649 6:0.171875 7:0.171875 8:0.00686733 9:3.63802 0:0 
-0.2603 1:0.0743828 2:0.158541 3:0.00621796 4:0.720341 5:0.879589 6:0.243996 7:0.243996 8:0.125 9:3.74267 0:0 
-0.1259331183013248 1:0.124883 2:0.233321 3:0.00850677 4:0.745945 5:0.886356 6:0.251503 7:0.251503 8:0.10796 9:3.40273 0:0 
-0.01158315756215434 1:0.19158 2:0.214736 3:0.0158691 4:0.247505 5:0.549495 6:0.277087 7:0.277087 8:0.118085 9:3.69209 0:0 
-0.2603 1:0.00422565 2:0.0362093 3:0.00289917 4:0.852347 5:0.823662 6:0.226856 7:0.226856 8:0.000619018 9:2.94889 0:0 
-0.2603 1:0.0334104 2:0.11327 3:0.00225067 4:0.551814 5:0.915923 6:0.176128 7:0.176128 8:0.0251097 9:1.77793 0:0 
-0.2603 1:0.162928 2:0.186874 3:0.0062561 4:0.201345 5:0.725225 6:0.151837 7:0.151837 8:0.0156896 9:3.28797 0:0 
-0.2603 1:0.182469 2:0.363142 3:0.00389099 4:0.386489 5:0.51647 6:0.263703 7:0.263703 8:0.00761331 9:3.03311 0:0 
-0.1038218624300402 1:0.628695 2:0.711443 3:0.0163651 4:0.319154 5:0.425348 6:0.461726 7:0.461726 8:0.00996634 9:2.66216 0:0 
-0.04455475012875683 1:0.447459 2:0.450693 3:0.0308609 4:1.12084 5:0.592455 6:0.556292 7:0.556292 8:0.0163186 9:4.48955 0:0 
-0.002890117824206428 1:0.503039 2:0.615516 3:0.0132751 4:0.381197 5:0.447648 6:1.27811 7:1.27811 8:0.0173332 9:2.51824 0:0 
-0.002897193378436566 1:0.68044 2:0.545587 3:0.097084 4:1.29035 5:0.78322 6:0.641019 7:0.641019 8:1 9:4.2817 0:0 
-0.01386081066282873 1:0.461948 2:0.529024 3:0.0177765 4:0.462112 5:0.357888 6:1.29358 7:1.29358 8:0.018474 9:2.30032 0:0 
-0.2447382447889432 1:0.994146 2:0.864687 3:0.0811386 4:0.761973 5:0.781412 6:0.495912 7:0.495912 8:0.011989 9:3.42364 0:0 
-0.2603 1:0.0746587 2:0.199201 3:0.00370026 4:0.124161 5:0.682673 6:0.154752 7:0.154752 8:0.00439948 9:2.68266 0:0 
-0.01443905346671276 1:0.268551 2:0.401685 3:0.00709534 4:0.365123 5:0.807427 6:1.18899 7:1.18899 8:0.000728265 9:1.77679 0:0 
-0.2603 1:0.089619 2:0.221116 3:0.00469208 4:0.381398 5:0.801437 6:0.222971 7:0.222971 8:0.00126574 9:2.91124 0:0 
-0.2603 1:0.0023491 2:0.0186084 3:7.62939e-05 4:0.382346 5:0.773976 6:0.176005 7:0.176005 8:0.00143215 9:2.93672 0:0 
-0.2603 1:0.00489347 2:0.0314434 3:0.000343323 4:0.391327 5:0.8156 6:0.172947 7:0.172947 8:0.00206066 9:2.85014 0:0 
-0.2603 1:0.0303476 2:0.108629 3:0.00175476 4:0.403625 5:0.808128 6:0.169774 7:0.169774 8:0.00351907 9:2.84409 0:0 
-0.1762179299927087 1:0 2:0 3:0 4:0.291248 5:0.708357 6:0.0407293 7:0.0407293 8:0.0277302 9:3.7296 0:0 
-0.2603 1:0.47121 2:0.523069 3:0.0211334 4:0.608184 5:0.649654 6:0.355757 7:0.355757 8:0.00782099 9:2.97062 0:0 
-0.2603 1:0.46329 2:0.577676 3:0.0224686 4:0.623709 5:0.675232 6:0.398083 7:0.398083 8:0.00649252 9:2.95041 0:0 
-0.03289759715171404 1:0.31999 2:0.312827 3:0.00446223 4:0.30153 5:0.615285 6:1.09099 7:1.09099 8:0.00226218 9:2.87454 0:0 
-0.2603 1:0.501481 2:0.777329 3:0.0347137 4:0.749853 5:0.783617 6:0.543305 7:0.543305 8:0.00228984 9:2.99628 0:0 
-0.2603 1:0.575418 2:0.802883 3:0.0434494 4:0.792532 5:0.804533 6:0.577122 7:0.577122 8:0.00513225 9:2.91103 0:0 
-0.1930171227702884 1:0 2:0 3:0 4:0.323855 5:0.613882 6:0.127941 7:0.127941 8:0.0278125 9:2.63929 0:0 
-0.1892887242095242 1:0.639705 2:0.746525 3:0.0492859 4:0.75783 5:0.815526 6:0.56541 7:0.56541 8:0.000927383 9:2.90568 0:0 
-0.02941605848637924 1:0.622955 2:0.463311 3:0.0203705 4:0.320203 5:0.830685 6:0.2672 7:0.2672 8:1 9:3.00215 0:0 
-0.2234124701610399 1:0.0352631 2:0.137156 3:0.00225067 4:0.210123 5:0.851281 6:0.0908799 7:0.0908799 8:1 9:2.9997 0:0 
-0.2603 1:0.176142 2:0.209974 3:0.00370026 4:0.478945 5:0.636427 6:0.275713 7:0.275713 8:0.00596552 9:3.15652 0:0 
-0.00525996638269614 1:0.122284 2:0.264535 3:0.00137329 4:0.134589 5:0.569693 6:1.06577 7:1.06577 8:0.00133491 9:2.93817 0:0 
-0.08174730669004171 1:0.274436 2:0.436241 3:0.00659943 4:0.347865 5:0.524386 6:1.27562 7:1.27562 8:0.0558446 9:3.3983 0:0 
-0.1971156885889108 1:0.133239 2:0.234167 3:0.00400543 4:0.172937 5:0.664148 6:0.174595 7:0.174595 8:1 9:2.89397 0:0 
-0.04742559792272494 1:0.101469 2:0.19024 3:0.00442505 4:0.237965 5:0.676913 6:1.16689 7:1.16689 8:0.156995 9:3.88238 0:0 
-0.0894940907515018 1:0.0143443 2:0.0476182 3:0.00102997 4:0.421089 5:0.851386 6:0.118726 7:0.118726 8:1 9:3.55766 0:0 
-0.2603 1:0.369098 2:0.297947 3:0.109406 4:0.575468 5:0.847663 6:0.307208 7:0.307208 8:0.057866 9:2.85874 0:0 
-0.00308612456259092 1:0.772912 2:0.648094 3:0.0133896 4:0.215976 5:0.937534 6:0.514 7:0.514 8:0.00372494 9:1.2074 0:0 
-0.07861803842611838 1:0 2:0 3:0 4:0.323236 5:0.954833 6:0.180366 7:0.180366 8:0.0227618 9:4.95906 0:0 
-0.1121003620440273 1:0 2:0 3:0 4:0.280311 5:0.913876 6:0.142846 7:0.142846 8:1 9:3.80637 0:0 
-9.976785673103049e-06 1:1.037 2:0.84883 3:0.0177383 4:0.595778 5:0.870095 6:0.783752 7:0.783752 8:1 9:1.53758 0:0 
-0.002804154534655411 1:1.28858 2:0.98772 3:0.0263214 4:0.525705 5:0.936832 6:0.88937 7:0.88937 8:0.00958944 9:1.5277 0:0 
-0.09129089322592487 1:0.794457 2:0.637996 3:0.0123978 4:0.476408 5:0.846485 6:0.405767 7:0.405767 8:1 9:4.2019 0:0 
-0.00805382896981649 1:1.69472 2:1.34992 3:0.201135 4:0.683646 5:0.905059 6:1.2646 7:1.2646 8:0.00207525 9:4.68174 0:0 
-0.1854407415036738 1:0 2:0 3:0 4:0.388673 5:0.809084 6:0.167568 7:0.167568 8:0.0486821 9:4.85429 0:0 
-0.04965528549565507 1:0.203575 2:0.477509 3:0.0487137 4:0.924558 5:0.925128 6:0.382695 7:0.382695 8:0.0054002 9:4.28646 0:0 
-0.005645727728809615 1:1.08612 2:1.35082 3:0.258413 4:0.828834 5:0.975204 6:1.18907 7:1.18907 8:0.0033738 9:4.78115 0:0 
-0.2032177131497772 1:0 2:0 3:0 4:0.392267 5:0.796898 6:0.10442 7:0.10442 8:0.00883286 9:3.22875 0:0 
-0.1632029888005501 1:0 2:0 3:0 4:0.345249 5:0.689206 6:0.158991 7:0.158991 8:0.00012628 9:2.89661 0:0 
-0.1366425209268056 1:0.996628 2:0.65154 3:0.0142288 4:0.206718 5:0.607026 6:0.532397 7:0.532397 8:0.00484983 9:4.66374 0:0 
-0.2382446995517115 1:0 2:0 3:0 4:0.758257 5:0.881359 6:0.275489 7:0.275489 8:0.00127955 9:4.39394 0:0 
-0.05300422714730198 1:0.342144 2:0.283799 3:0.0117296 4:0.155758 5:0.909599 6:0.312654 7:0.312654 8:0.00161544 9:3.45504 0:0 
-0.08079139574289274 1:0.621989 2:0.495181 3:0.0190353 4:0.120826 5:0.941883 6:0.451789 7:0.451789 8:0.00987828 9:1.18943 0:0 
-0.009401697638038801 1:0 2:0 3:0 4:0.665134 5:0.816799 6:0.263298 7:0.263298 8:1 9:4.02504 0:0 
-0.0168498962131321 1:0 2:0 3:0 4:0.488703 5:0.841564 6:2.62963 7:2.62963 8:0.0423121 9:3.18358 0:0 
-0.001554003270286099 1:0.834281 2:0.584393 3:0.0240326 4:0.157898 5:0.938441 6:0.411112 7:0.411112 8:1 9:3.99688 0:0 
-0.2603 1:0.0662267 2:0.258165 3:0.0156021 4:0.254472 5:0.89441 6:0.321846 7:0.321846 8:0.000701119 9:2.65083 0:0 
-0.02666256172078926 1:0.123443 2:0.463369 3:0.0037384 4:0.593431 5:0.878226 6:0.560067 7:0.560067 8:0.00142099 9:3.02592 0:0 
-0.01049667909578585 1:0.773538 2:1.43304 3:0.0436401 4:0.609687 5:0.913347 6:0.989887 7:0.989887 8:0.0247315 9:2.97272 0:0 
-0.2603 1:0 2:0 3:0 4:0.431834 5:0.899352 6:0.189632 7:0.189632 8:0.0638838 9:1.8805 0:0 
-0.2603 1:0.407046 2:0.995958 3:0.0416183 4:0.314034 5:0.615023 6:0.691124 7:0.691124 8:0.0857002 9:3.08136 0:0 
-0.1229480917733823 1:0.0121171 2:0.0926477 3:0.00480652 4:0.907063 5:0.85871 6:0.314482 7:0.314482 8:0.000971676 9:3.916 0:0 
-0.2603 1:0.760334 2:0.701963 3:0.0517129 4:0.624295 5:0.863343 6:0.614371 7:0.614371 8:0.012586 9:2.47755 0:0 
-0.2603 1:0.250298 2:0.571462 3:0.0727266 4:0.532731 5:0.900257 6:0.586949 7:0.586949 8:0.0183613 9:3.50406 0:0 
-0.2603 1:0.375641 2:0.754101 3:0.0866726 4:0.539339 5:0.862848 6:0.679777 7:0.679777 8:0.00399345 9:3.42564 0:0 
-0.05432789256795729 1:0.54652 2:0.966508 3:0.143939 4:0.639321 5:0.824545 6:0.743937 7:0.743937 8:0.00502909 9:3.51481 0:0 
-0.2603 1:0.00165828 2:0.0184819 3:0.00507355 4:0.673193 5:0.913583 6:0.410949 7:0.410949 8:0.00930002 9:3.83451 0:0 
-0.004378693781402399 1:0.858883 2:1.22349 3:0.506169 4:0.781647 5:0.900789 6:2.36831 7:2.36831 8:0.000992566 9:5.05852 0:0 
-0.005572430359946641 1:0.866609 2:1.01025 3:0.189445 4:0.355308 5:0.973828 6:0.906483 7:0.906483 8:1 9:4.18242 0:0 
-0.2603 1:0.587477 2:0.496734 3:0.0209599 4:0.602063 5:0.813093 6:0.475603 7:0.475603 8:0.0108531 9:3.38807 0:0 
-0.07666791159068825 1:0.142674 2:0.139879 3:0.0334167 4:0.768243 5:0.797419 6:0.259029 7:0.259029 8:0.00105432 9:5.05945 0:0 
-0.05947843673077573 1:0.861031 2:1.17317 3:0.232563 4:0.730969 5:0.73764 6:0.760251 7:0.760251 8:0.023531 9:3.53518 0:0 
-0.005974207064061764 1:0.675331 2:1.09424 3:0.082016 4:1.8704 5:0.800494 6:0.703677 7:0.703677 8:0.0424455 9:3.22558 0:0 
-0.0748184553729233 1:0.862927 2:0.998361 3:0.0975037 4:0.931976 5:0.815648 6:0.790466 7:0.790466 8:0.0353087 9:4.42787 0:0 
-0.2603 1:0.0668785 2:0.218136 3:0.00473022 4:0.38824 5:0.773987 6:0.206964 7:0.206964 8:0.00646589 9:2.90966 0:0 
-0.07392706642887426 1:1.13088 2:0.854534 3:0.0642395 4:1.41483 5:0.890194 6:0.952624 7:0.952624 8:0.0351171 9:2.05607 0:0 
-0.2603 1:0.608078 2:0.488371 3:0.00183105 4:0.88353 5:0.690391 6:0.444845 7:0.444845 8:0.0438959 9:1.88737 0:0 
-0.04996699855402858 1:0.955249 2:0.503995 3:0.197969 4:1.09737 5:0.910203 6:0.650688 7:0.650688 8:0.0240231 9:1.35407 0:0 
-0.2603 1:0 2:0 3:0 4:0.45222 5:0.855207 6:0.14503 7:0.14503 8:0.00583793 9:2.60337 0:0 
-0.021977721847946 1:0.000175086 2:0.00461788 3:0.000610352 4:1.45413 5:0.795983 6:0.477583 7:0.477583 8:0.0145228 9:4.1561 0:0 
-0.2391609657107828 1:1.05343 2:0.837706 3:0.0505066 4:0.774526 5:0.874205 6:0.777739 7:0.777739 8:0.0737918 9:1.88295 0:0 
-0.2208990461967171 1:1.16147 2:0.739492 3:0.0966872 4:1.19475 5:0.910606 6:0.610003 7:0.610003 8:0.000401218 9:2.80944 0:0 
-0.05757659960911153 1:1.18805 2:0.722327 3:0.153019 4:0.929752 5:0.894351 6:0.59482 7:0.59482 8:0.000235753 9:2.57133 0:0 
-0.002049387996805621 1:0.892198 2:1.37421 3:0.246397 4:1.15257 5:0.863839 6:1.10429 7:1.10429 8:0.00125316 9:4.86883 0:0 
-0.002765000112282273 1:1.42636 2:1.54037 3:0.517393 4:1.02439 5:0.934667 6:2.03449 7:2.03449 8:0.0771093 9:4.48307 0:0 
-0.2603 1:0 2:0 3:0 4:0.428262 5:0.725569 6:0.126742 7:0.126742 8:0.0512082 9:4.14831 0:0 
-0.247856608235997 1:0.156625 2:0.397441 3:0.0166321 4:0.529354 5:0.724402 6:0.327338 7:0.327338 8:0.0847507 9:5.07355 0:0 
-0.2603 1:0 2:0 3:0 4:0.41912 5:0.813158 6:0.191768 7:0.191768 8:0.0109589 9:4.99378 0:0 
-0.04239859954465101 1:1.3749 2:0.874464 3:0.228048 4:1.44496 5:0.790378 6:0.626698 7:0.626698 8:0.000731012 9:2.62045 0:0 
-0.003839905691849066 1:0.533995 2:1.18891 3:0.112572 4:0.872693 5:0.717507 6:0.936475 7:0.936475 8:0.114165 9:4.85223 0:0 
-0.187887470229135 1:0.27723 2:0.232262 3:0.0209427 4:0.593585 5:0.808906 6:0.330251 7:0.330251 8:0.0170357 9:4.90663 0:0 
-0.04632975836010946 1:0.528358 2:0.397431 3:0.032692 4:0.714676 5:0.496228 6:0.304716 7:0.304716 8:0.0294842 9:3.52113 0:0 
-0.2603 1:0 2:0 3:0 4:0.612141 5:0.846127 6:0.110187 7:0.110187 8:0.0118406 9:2.4077 0:0 
0.1467159507711606 1:0.0150189 2:0.0859504 3:0.00530243 4:1.13783 5:0.782742 6:0.527131 7:0.527131 8:0.00365809 9:2.97484 0:0 
-0.2603 1:0.392458 2:0.311384 3:0.0139236 4:0.567989 5:0.731176 6:0.376625 7:0.376625 8:0.00755512 9:2.54636 0:0 
-0.2603 1:0.508162 2:0.393239 3:0.0205994 4:0.524599 5:0.797891 6:0.256687 7:0.256687 8:0.0010055 9:2.57135 0:0 
-0.2230439987709559 1:0.631023 2:0.525281 3:0.0102234 4:0.262355 5:0.922553 6:0.441237 7:0.441237 8:0.0010065 9:1.38748 0:0 
-0.2603 1:0.22961 2:0.271684 3:0.00389099 4:0.269187 5:0.961127 6:0.17243 7:0.17243 8:0.0314165 9:1.60974 0:0 
-0.05035393448321954 1:0.290768 2:0.204128 3:0.0114302 4:0.11506 5:0.828962 6:0.136601 7:0.136601 8:0.0231775 9:3.96269 0:0 
-0.001219048340204468 1:2.0103 2:1.35363 3:0.0134277 4:0.32061 5:0.77921 6:0.989673 7:0.989673 8:1 9:4.3075 0:0 
-0.007304874782970234 1:1.76405 2:1.4085 3:0.0199509 4:0.163023 5:0.856568 6:0.883117 7:0.883117 8:1 9:4.25143 0:0 
-0.1660882746764192 1:0.78544 2:0.691491 3:0.0133514 4:0.3783 5:0.885243 6:0.620669 7:0.620669 8:0.00305043 9:1.44442 0:0 
0.09814779166670047 1:0.441175 2:0.885304 3:0.0372696 4:0.345629 5:0.656321 6:0.760461 7:0.760461 8:0.0175191 9:3.2223 0:0 
0.02174774348195765 1:0.310996 2:0.700573 3:0.0385666 4:0.673589 5:0.681577 6:1.651 7:1.651 8:0.0129385 9:5.0399 0:0 
0.2603 1:0.00228156 2:0.0220284 3:0.00148773 4:0.38288 5:0.892744 6:0.160859 7:0.160859 8:0.0120184 9:4.80839 0:0 
0.2603 1:0.00289095 2:0.0258255 3:0.00087738 4:0.394623 5:0.894821 6:0.208296 7:0.208296 8:0.00855968 9:4.82133 0:0 
0.2603 1:0.00226165 2:0.0214086 3:0.000991821 4:0.417701 5:0.89037 6:0.156903 7:0.156903 8:0.0177955 9:4.40651 0:0 
0.2603 1:0.00167803 2:0.0172749 3:0.00106812 4:0.430319 5:0.894727 6:0.156276 7:0.156276 8:0.0503385 9:4.33188 0:0 
0.042708139017552 1:0.140901 2:0.269012 3:0.02782 4:1.82347 5:0.844211 6:0.851199 7:0.851199 8:0.0150105 9:1.9103 0:0 
0.1842720847770463 1:0.325497 2:0.627554 3:0.0459179 4:0.927417 5:0.835634 6:0.471312 7:0.471312 8:0.00317488 9:1.53687 0:0 
0.05787268252819852 1:0.372336 2:0.774816 3:0.0280881 4:0.674937 5:0.824343 6:0.546202 7:0.546202 8:0.00358804 9:4.5917 0:0 
0.2545206705229323 1:0.22809 2:0.553678 3:0.0229645 4:0.507999 5:0.825865 6:0.440851 7:0.440851 8:0.00204971 9:4.60829 0:0 
0.2603 1:0.0332145 2:0.145176 3:0.00705719 4:0.418386 5:0.802155 6:0.297338 7:0.297338 8:0.00928132 9:4.47252 0:0 
0.1632581532252486 1:0.0378884 2:0.158639 3:0.00804901 4:0.420514 5:0.792772 6:0.307618 7:0.307618 8:0.00315021 9:4.47837 0:0 
0.2603 1:0.239472 2:0.503498 3:0.0170517 4:0.594755 5:0.884701 6:0.504433 7:0.504433 8:0.0039695 9:4.18911 0:0 
0.2603 1:0.215777 2:0.466108 3:0.0153351 4:0.614488 5:0.893081 6:0.497892 7:0.497892 8:0.0622484 9:4.19562 0:0 
0.2603 1:0.215472 2:0.465362 3:0.0175476 4:0.604309 5:0.886412 6:0.502572 7:0.502572 8:0.0168803 9:4.15537 0:0 
0.2603 1:0.00624932 2:0.0338983 3:0.00106812 4:0.578382 5:0.8794 6:0.223686 7:0.223686 8:0.0210962 9:3.86172 0:0 
-0.002384558979998461 1:1.38271 2:1.06074 3:0.0128174 4:0.285723 5:0.941279 6:0.765525 7:0.765525 8:0.00532909 9:4.18155 0:0 
-0.186856114124662 1:0 2:0 3:0 4:0.505603 5:0.877463 6:0.0609399 7:0.0609399 8:0.0213779 9:3.66639 0:0 
-0.016683680476684 1:1.71011 2:1.24723 3:0.0208664 4:0.231936 5:0.925437 6:0.956918 7:0.956918 8:0.00201088 9:4.23632 0:0 
-0.02961066268898307 1:0.0263202 2:0.0775515 3:0.000457764 4:0.0493753 5:0.767963 6:0.0495037 7:0.0495037 8:0.00338576 9:3.27242 0:0 
-0.2603 1:0.15147 2:0.377642 3:0.000801086 4:0.307468 5:0.889572 6:0.290453 7:0.290453 8:1 9:4.13273 0:0 
0.2603 1:0.0068083 2:0.0493374 3:0.0030899 4:0.250314 5:0.70441 6:0.12593 7:0.12593 8:0.0100379 9:2.51034 0:0 
-0.2106509817084861 1:0.0953275 2:0.276586 3:0.00102997 4:0.309137 5:0.929514 6:0.23409 7:0.23409 8:1 9:4.11563 0:0 
-0.2603 1:0.257464 2:0.344197 3:0.00205994 4:0.251594 5:0.847263 6:0.214446 7:0.214446 8:1 9:4.00185 0:0 
-0.2603 1:0.112514 2:0.281488 3:0.000953674 4:0.33085 5:0.771311 6:0.190483 7:0.190483 8:0.00355198 9:4.22926 0:0 
-0.05810509798371083 1:0 2:0 3:0 4:0.226806 5:0.548343 6:0.0896875 7:0.0896875 8:0.00906745 9:3.19033 0:0 
-0.2603 1:0 2:0 3:0 4:0.384471 5:0.662482 6:0.163446 7:0.163446 8:0.0127053 9:1.69515 0:0 
-0.130293581317971 1:0.349953 2:0.753144 3:0.00453949 4:0.470584 5:0.943692 6:0.57035 7:0.57035 8:0.00386704 9:4.14892 0:0 
-0.08598031971001299 1:0.178243 2:0.151547 3:0.00415802 4:0.23891 5:0.920298 6:0.107982 7:0.107982 8:0.0217091 9:1.83061 0:0 
-0.01937007025993895 1:0.662419 2:0.635218 3:0.0069046 4:0.265109 5:0.917693 6:0.527994 7:0.527994 8:0.142612 9:4.18847 0:0 
-0.134628541274421 1:0 2:0 3:0 4:0.412695 5:0.893133 6:0.176363 7:0.176363 8:0.00387162 9:4.06339 0:0 
-0.2603 1:0 2:0 3:0 4:0.482976 5:0.826653 6:0.174921 7:0.174921 8:0.00300257 9:4.24874 0:0 
-0.2603 1:0.17893 2:0.174696 3:0.0170898 4:0.375096 5:0.958333 6:0.14174 7:0.14174 8:1 9:2.46486 0:0 
-0.2603 1:0.47142 2:0.403411 3:0.0346375 4:0.766741 5:0.82461 6:0.278282 7:0.278282 8:0.0321762 9:3.25045 0:0 
-0.2603 1:0.307132 2:0.278887 3:0.016098 4:0.709851 5:0.826012 6:0.253832 7:0.253832 8:0.0402493 9:2.84142 0:0 
-0.04379083160589441 1:0.267628 2:0.252498 3:0.0186539 4:0.649176 5:0.827518 6:0.240204 7:0.240204 8:0.163104 9:2.83964 0:0 
-0.03026840874246586 1:0.169583 2:0.29212 3:0.00663757 4:0.148434 5:0.500778 6:0.203033 7:0.203033 8:0.0446967 9:4.16716 0:0 
-0.2603 1:0 2:0 3:0 4:0.21924 5:0.83782 6:0.0967181 7:0.0967181 8:0.00451382 9:3.02501 0:0 
-0.2603 1:0 2:0 3:0 4:0.187776 5:0.670291 6:0.0728156 7:0.0728156 8:0.00745808 9:3.19835 0:0 
-0.2603 1:0.293281 2:0.284969 3:0.0201797 4:0.232818 5:0.794947 6:0.256779 7:0.256779 8:0.0012635 9:3.64332 0:0 
-0.2603 1:0 2:0 3:0 4:0.314512 5:0.827566 6:0.134206 7:0.134206 8:0.0183015 9:3.03672 0:0 
-0.2603 1:0 2:0 3:0 4:0.24454 5:0.645949 6:0.0504694 7:0.0504694 8:0.153124 9:1.52735 0:0 
-0.08832573285915522 1:0 2:0 3:0 4:0.454722 5:0.924625 6:0.179608 7:0.179608 8:0.0131981 9:3.25432 0:0 
-0.2603 1:0 2:0 3:0 4:0.330234 5:0.817034 6:0.204727 7:0.204727 8:0.0265808 9:3.091 0:0 
-0.2603 1:0 2:0 3:0 4:0.409751 5:0.774107 6:0.172544 7:0.172544 8:0.00198314 9:3.22199 0:0 
-0.002229636992421791 1:0.0971895 2:0.202065 3:0.00205994 4:0.137636 5:0.523407 6:1.04467 7:1.04467 8:0.0205689 9:1.30209 0:0 
-0.02030929530117192 1:0.193063 2:0.139698 3:0.0137711 4:0.558802 5:0.938508 6:0.247286 7:0.247286 8:1 9:2.17778 0:0 
0.2603 1:0.0147038 2:0.0726794 3:0.00541687 4:0.454592 5:0.64523 6:0.230829 7:0.230829 8:0.0347429 9:2.60117 0:0 
0.2603 1:0.0256513 2:0.122714 3:0.00617981 4:0.381455 5:0.634537 6:0.224948 7:0.224948 8:0.0330405 9:2.67941 0:0 
0.2603 1:0.0180325 2:0.121489 3:0.00675201 4:0.371312 5:0.702107 6:0.19487 7:0.19487 8:1 9:4.08116 0:0 
-0.06731434149013488 1:0 2:0 3:0 4:0.220333 5:0.765287 6:0.0843799 7:0.0843799 8:0.104428 9:1.31428 0:0 
0.2603 1:0.0118977 2:0.0862792 3:0.00534058 4:0.426799 5:0.737543 6:0.135059 7:0.135059 8:0.00115467 9:3.29591 0:0 
0.2603 1:0.0307334 2:0.114043 3:0.0105667 4:0.496223 5:0.669643 6:0.255361 7:0.255361 8:0.0462125 9:4.85301 0:0 
0.2603 1:0.00248673 2:0.0208124 3:0.00312805 4:0.499539 5:0.670735 6:0.199585 7:0.199585 8:0.00541215 9:4.01618 0:0 
0.2603 1:0 2:0 3:0 4:0.561515 5:0.692517 6:0.203276 7:0.203276 8:0.106654 9:4.15778 0:0 
0.1023923587453249 1:4.58211e-05 2:0.00236434 3:0.000267029 4:0.593086 5:0.656492 6:0.153759 7:0.153759 8:0.0982442 9:4.33124 0:0 
0.2603 1:0.736244 2:0.845736 3:0.0417709 4:0.443527 5:0.702503 6:0.684757 7:0.684757 8:0.00100299 9:4.38474 0:0 
0.2603 1:0.0967788 2:0.256849 3:0.0230789 4:0.938729 5:0.71888 6:0.293994 7:0.293994 8:0.0310517 9:1.5574 0:0 
0.06738249322070369 1:0.0838878 2:0.235251 3:0.0194168 4:1.10994 5:0.768523 6:0.315177 7:0.315177 8:0.15077 9:1.20598 0:0 
0.2603 1:0.0148784 2:0.0764152 3:0.00675201 4:1.13874 5:0.661784 6:0.47669 7:0.47669 8:0.00313565 9:2.63089 0:0 
-0.01672195279177687 1:0 2:0 3:0 4:0.231491 5:0.79406 6:2.11005 7:2.11005 8:0.00286735 9:3.77662 0:0 
-0.009404141471346958 1:0 2:0 3:0 4:0.253105 5:0.689749 6:0.0537197 7:0.0537197 8:1 9:1.81272 0:0 
0.2603 1:0.424622 2:0.326601 3:0.0379941 4:1.04844 5:0.778605 6:0.305098 7:0.305098 8:0.113038 9:3.47284 0:0 
0.2603 1:0.0631415 2:0.215261 3:0.0186539 4:0.361189 5:0.914076 6:0.248324 7:0.248324 8:0.00772917 9:3.34244 0:0 
0.2603 1:0.00131665 2:0.016962 3:0.00167847 4:0.384613 5:0.846462 6:0.148448 7:0.148448 8:0.0225836 9:2.73762 0:0 
0.2603 1:0.00144863 2:0.0193766 3:0.00114441 4:0.322963 5:0.850114 6:0.146985 7:0.146985 8:0.0173387 9:3.10965 0:0 
0.1987337736497179 1:0 2:0 3:0 4:0.68234 5:0.857014 6:0.375531 7:0.375531 8:0.00194962 9:3.63579 0:0 
0.2603 1:0 2:0 3:0 4:0.694791 5:0.858533 6:0.361328 7:0.361328 8:0.00203456 9:3.69686 0:0 
0.2314608248302814 1:0.0270181 2:0.147184 3:0.00522614 4:0.339408 5:0.653271 6:0.179572 7:0.179572 8:0.0766918 9:4.10229 0:0 
0.2603 1:0.0136163 2:0.0889008 3:0.00175476 4:0.311035 5:0.652011 6:0.134961 7:0.134961 8:0.122656 9:4.02521 0:0 
0.2603 1:0.0114507 2:0.0771871 3:0.00461578 4:0.402768 5:0.659793 6:0.236235 7:0.236235 8:0.0431225 9:4.82576 0:0 
0.2603 1:0.000605942 2:0.010815 3:0.000419617 4:0.550871 5:0.699513 6:0.108927 7:0.108927 8:0.0393244 9:4.27904 0:0 
0.2603 1:0 2:0 3:0 4:0.511917 5:0.856159 6:0.124347 7:0.124347 8:0.0118191 9:4.57268 0:0 
0.2603 1:0 2:0 3:0 4:0.467961 5:0.889651 6:0.162917 7:0.162917 8:0.0173596 9:3.13139 0:0 
0.2603 1:0 2:0 3:0 4:0.477523 5:0.844258 6:0.118304 7:0.118304 8:0.0984746 9:2.83544 0:0 
0.2603 1:0 2:0 3:0 4:0.516661 5:0.865242 6:0.184993 7:0.184993 8:0.000907955 9:3.62282 0:0 
0.2603 1:0 2:0 3:0 4:0.511068 5:0.884702 6:0.231672 7:0.231672 8:0.00202241 9:3.53989 0:0 
0.2603 1:0 2:0 3:0 4:0.479499 5:0.837126 6:0.137049 7:0.137049 8:0.00973559 9:4.0125 0:0 
0.2603 1:0 2:0 3:0 4:0.403045 5:0.81733 6:0.0844501 7:0.0844501 8:0.0873453 9:2.77149 0:0 
0.03366279998197222 1:0 2:0 3:0 4:0.728795 5:0.765244 6:2.05618 7:2.05618 8:0.0014113 9:3.22759 0:0 
0.2603 1:0.000585454 2:0.009618 3:0.00038147 4:0.79389 5:0.804111 6:0.146012 7:0.146012 8:0.00758167 9:4.84322 0:0 
0.2603 1:0 2:0 3:0 4:0.708421 5:0.839766 6:0.137682 7:0.137682 8:0.0106543 9:4.77787 0:0 
0.2603 1:0 2:0 3:0 4:0.700688 5:0.871644 6:0.306611 7:0.306611 8:0.00432968 9:1.1553 0:0 
0.2603 1:0 2:0 3:0 4:0.693588 5:0.862467 6:0.236579 7:0.236579 8:0.0257572 9:4.24061 0:0 
0.2603 1:0 2:0 3:0 4:0.679666 5:0.85051 6:0.206078 7:0.206078 8:0.0240922 9:4.4823 0:0 
0.2008498192715614 1:0 2:0 3:0 4:0.657894 5:0.824482 6:0.342584 7:0.342584 8:0.0259574 9:1.3829 0:0 
0.2603 1:0 2:0 3:0 4:0.595278 5:0.785299 6:0.289826 7:0.289826 8:0.00357519 9:1.63194 0:0 
0.2603 1:0 2:0 3:0 4:0.481625 5:0.653007 6:0.259453 7:0.259453 8:0.000426164 9:2.50721 0:0 
0.2603 1:0 2:0 3:0 4:0.328179 5:0.737069 6:0.169007 7:0.169007 8:0.0987158 9:2.98778 0:0 
0.2603 1:0 2:0 3:0 4:0.258923 5:0.765911 6:0.140974 7:0.140974 8:0.0688198 9:3.18854 0:0 
0.2603 1:0 2:0 3:0 4:0.379111 5:0.752163 6:0.176282 7:0.176282 8:0.000860289 9:2.31135 0:0 
0.2603 1:0.00144676 2:0.01627 3:0.000801086 4:0.227992 5:0.810647 6:0.0397553 7:0.0397553 8:0.0696264 9:2.88052 0:0 
0.2603 1:0 2:0 3:0 4:0.362547 5:0.833126 6:0.153193 7:0.153193 8:0.00143379 9:3.37028 0:0 
-0.011996390963261 1:0.0643169 2:0.140382 3:0.000686646 4:0.325555 5:0.888317 6:1.85431 7:1.85431 8:0.00408582 9:2.1508 0:0 
0.2603 1:0.00557103 2:0.0388129 3:0.000953674 4:0.34109 5:0.812581 6:0.195773 7:0.195773 8:0.0839548 9:3.03704 0:0 
0.04132645715141504 1:0.000361593 2:0.00662839 3:0.000267029 4:0.893617 5:0.834802 6:0.510851 7:0.510851 8:1 9:3.2124 0:0 
0.1891184037235134 1:6.95619e-05 2:0.00291271 3:3.8147e-05 4:0.957492 5:0.836974 6:0.535591 7:0.535591 8:0.0229219 9:3.20401 0:0 
0.05220859448389512 1:0.00408201 2:0.0351182 3:0.00152588 4:0.907912 5:0.853954 6:0.491546 7:0.491546 8:0.188505 9:3.41273 0:0 
0.2603 1:0.000375046 2:0.00674998 3:0.000305176 4:0.270294 5:0.90212 6:0.136607 7:0.136607 8:0.0104832 9:3.4495 0:0 
0.004425451625026867 1:0.286988 2:0.655669 3:0.0474506 4:0.978552 5:0.603273 6:0.597464 7:0.597464 8:0.00279522 9:4.41405 0:0 
0.008688993363963065 1:0.327014 2:0.708597 3:0.0416673 4:0.926533 5:0.652142 6:2.15166 7:2.15166 8:0.00295648 9:1.37414 0:0 
0.2603 1:0.187518 2:0.442232 3:0.0298403 4:0.888121 5:0.703307 6:0.376534 7:0.376534 8:0.0197917 9:4.73146 0:0 
0.001695726570713084 1:0.23084 2:0.308454 3:0.0399017 4:1.06791 5:0.655784 6:0.332939 7:0.332939 8:0.0561802 9:1.20413 0:0 
0.2603 1:0.158501 2:0.197653 3:0.0187683 4:0.47702 5:0.84921 6:0.199172 7:0.199172 8:0.00658788 9:2.26294 0:0 
-0.07849064891251117 1:0.204451 2:0.151087 3:0.00401085 4:0.500205 5:0.754905 6:0.179448 7:0.179448 8:0.0512082 9:1.16922 0:0 
-0.2603 1:0.00752206 2:0.0420332 3:0.00419617 4:0.686625 5:0.72165 6:0.131539 7:0.131539 8:0.00262608 9:3.2438 0:0 
0.2603 1:0.424985 2:0.810916 3:0.031395 4:0.409598 5:0.898822 6:0.617373 7:0.617373 8:0.0417835 9:3.54595 0:0 
0.1579031447706655 1:0.121249 2:0.323471 3:0.0123596 4:0.285042 5:0.859272 6:0.262191 7:0.262191 8:0.0298146 9:3.27672 0:0 
0.2603 1:0.108256 2:0.297147 3:0.0106812 4:0.285386 5:0.853228 6:0.24007 7:0.24007 8:0.0326661 9:3.28609 0:0 
0.2603 1:0.113342 2:0.304623 3:0.00892639 4:0.285597 5:0.865732 6:0.242919 7:0.242919 8:0.00668034 9:3.26443 0:0 
0.2603 1:0.11987 2:0.318703 3:0.00957489 4:0.286076 5:0.854408 6:0.250756 7:0.250756 8:0.0117299 9:3.2278 0:0 
0.2603 1:0.109731 2:0.294475 3:0.0102234 4:0.300052 5:0.848506 6:0.223421 7:0.223421 8:0.0323311 9:3.15136 0:0 
0.2603 1:0.127307 2:0.327069 3:0.0137329 4:0.304824 5:0.853571 6:0.248858 7:0.248858 8:0.00827795 9:3.1669 0:0 
0.2603 1:0.0330467 2:0.12325 3:0.0109482 4:0.567283 5:0.818171 6:0.257094 7:0.257094 8:0.0381412 9:2.69025 0:0 
0.2603 1:0.00834514 2:0.0451919 3:0.00282288 4:0.604197 5:0.816076 6:0.171104 7:0.171104 8:0.0013211 9:2.30917 0:0 
0.2603 1:0.0078353 2:0.0442522 3:0.00370026 4:0.60414 5:0.817851 6:0.169219 7:0.169219 8:0.00103771 9:2.35035 0:0 
0.2603 1:0.0253901 2:0.0954829 3:0.015564 4:0.435096 5:0.852271 6:0.162198 7:0.162198 8:0.00151652 9:2.55751 0:0 
0.2603 1:0.00577028 2:0.0315319 3:0.00339508 4:0.467494 5:0.83678 6:0.126457 7:0.126457 8:0.0258032 9:3.05988 0:0 
0.2603 1:0.00521444 2:0.0394405 3:0.000991821 4:0.514921 5:0.856447 6:0.269789 7:0.269789 8:0.123728 9:3.89735 0:0 
0.2603 1:0.00493382 2:0.0381856 3:0.000991821 4:0.510656 5:0.853828 6:0.273915 7:0.273915 8:0.122641 9:3.88722 0:0 
0.0111485218033538 1:0.00344039 2:0.0292507 3:0.00101975 4:0.490299 5:0.843801 6:0.242331 7:0.242331 8:0.15733 9:3.83548 0:0 
0.2603 1:0.00336975 2:0.0278283 3:0.000915527 4:0.45077 5:0.839878 6:0.224884 7:0.224884 8:0.153084 9:2.94986 0:0 
0.2603 1:0.00243505 2:0.0224961 3:0.00193895 4:0.513695 5:0.828647 6:0.251676 7:0.251676 8:0.159976 9:3.62236 0:0 
0.2603 1:0.0168682 2:0.0810447 3:0.00766754 4:0.380614 5:0.750863 6:0.165204 7:0.165204 8:1 9:4.51798 0:0 
0.2603 1:0.0215646 2:0.102641 3:0.0050354 4:0.456623 5:0.736409 6:0.155097 7:0.155097 8:0.000920655 9:3.17333 0:0 
-0.2603 1:0 2:0 3:0 4:0.607408 5:0.917297 6:0.191427 7:0.191427 8:0.0178867 9:3.51532 0:0 
-0.1457396170961221 1:0 2:0 3:0 4:0.62783 5:0.732137 6:0.228182 7:0.228182 8:0.00247531 9:5.02012 0:0 
-0.008677882491188917 1:0.0214575 2:0.0844221 3:0.00705719 4:1.4771 5:0.635136 6:1.19428 7:1.19428 8:0.0490281 9:3.90526 0:0 
-0.2603 1:0 2:0 3:0 4:0.64851 5:0.656857 6:0.229812 7:0.229812 8:0.00264284 9:4.63038 0:0 
-0.02478322940049643 1:0 2:0 3:0 4:0.381667 5:0.767343 6:0.166539 7:0.166539 8:0.0901978 9:4.62045 0:0 
-0.1879276506462091 1:0.0622043 2:0.19065 3:0.00751495 4:1.47843 5:0.764907 6:0.22516 7:0.22516 8:0.16581 9:3.01761 0:0 
-0.006640590035077161 1:0.396076 2:0.342696 3:0.00469208 4:0.190721 5:0.583059 6:1.05001 7:1.05001 8:0.0165994 9:3.87653 0:0 
0.2603 1:0.000605174 2:0.00969986 3:0.000953674 4:0.618634 5:0.851655 6:0.230967 7:0.230967 8:0.0395562 9:2.17363 0:0 
-0.2603 1:0.26215 2:0.413781 3:0.00808716 4:0.5875 5:0.725567 6:0.298335 7:0.298335 8:0.0215699 9:2.27474 0:0 
-0.0001696098047828065 1:2.41621 2:0.229172 3:0.00469208 4:0.194564 5:0.75019 6:1.31721 7:1.31721 8:0.0367792 9:4.9056 0:0 
-0.05135797373488131 1:0.311364 2:0.292546 3:0.00576019 4:1.25683 5:0.725247 6:0.343944 7:0.343944 8:0.00716161 9:4.8572 0:0 
-0.2603 1:0 2:0 3:0 4:0.465927 5:0.754985 6:0.0449219 7:0.0449219 8:0.00599786 9:2.89263 0:0 
-0.2603 1:0 2:0 3:0 4:0.468019 5:0.831213 6:0.225611 7:0.225611 8:0.158024 9:3.20105 0:0 
-0.2603 1:0.116181 2:0.24612 3:0.0139618 4:0.257126 5:0.833494 6:0.15053 7:0.15053 8:0.00414516 9:3.50557 0:0 
-0.2603 1:0 2:0 3:0 4:0.341144 5:0.833482 6:0.0501248 7:0.0501248 8:0.00668325 9:3.94148 0:0 
-0.006803174096915734 1:1.58502 2:0.410359 3:0.0178146 4:0.724192 5:0.785623 6:1.42142 7:1.42142 8:0.0113058 9:4.54261 0:0 
-0.2603 1:0.026465 2:0.0918694 3:0.00350952 4:0.434291 5:0.930227 6:0.194144 7:0.194144 8:0.0109589 9:3.40175 0:0 
-0.2603 1:0 2:0 3:0 4:0.504724 5:0.655197 6:0.270446 7:0.270446 8:0.0482658 9:3.99259 0:0 
-0.2603 1:0 2:0 3:0 4:0.494953 5:0.715012 6:0.270163 7:0.270163 8:0.0577007 9:3.86823 0:0 
-0.2603 1:0 2:0 3:0 4:0.434318 5:0.766956 6:0.277265 7:0.277265 8:0.0197917 9:3.89042 0:0 
-0.2603 1:0 2:0 3:0 4:0.372562 5:0.86343 6:0.252409 7:0.252409 8:0.0115882 9:3.73802 0:0 
-0.2603 1:0 2:0 3:0 4:0.435639 5:0.774398 6:0.241689 7:0.241689 8:0.0291807 9:3.60176 0:0 
-0.2603 1:0 2:0 3:0 4:0.433116 5:0.743222 6:0.2528 7:0.2528 8:0.00458797 9:3.67293 0:0 
-0.07332598401413666 1:0.452649 2:0.344693 3:0.0573151 4:0.687513 5:0.82911 6:0.372558 7:0.372558 8:0.0173986 9:3.96959 0:0 
-0.2603 1:0.425389 2:0.356425 3:0.0523649 4:0.701256 5:0.814086 6:0.380692 7:0.380692 8:0.0186091 9:4.01537 0:0 
-0.02868050421004651 1:0.451137 2:0.363789 3:0.0514642 4:0.689742 5:0.796907 6:0.370125 7:0.370125 8:0.000528752 9:4.02698 0:0 
-0.1251521442793411 1:0.46333 2:0.387254 3:0.049276 4:0.681621 5:0.79144 6:0.394171 7:0.394171 8:0.00705467 9:4.08228 0:0 
-0.2603 1:0 2:0 3:0 4:0.593014 5:0.67268 6:0.100669 7:0.100669 8:0.125 9:1.344 0:0 
-0.2603 1:0 2:0 3:0 4:0.373764 5:0.676376 6:0.141807 7:0.141807 8:0.131404 9:3.57008 0:0 
-0.1011945315024714 1:0.995552 2:0.98034 3:0.178768 4:1.19115 5:0.695197 6:0.817138 7:0.817138 8:0.0110174 9:3.28953 0:0 
-0.2603 1:0 2:0 3:0 4:0.446724 5:0.906711 6:0.118256 7:0.118256 8:0.0715344 9:2.74965 0:0 
-0.2603 1:0 2:0 3:0 4:0.648625 5:0.893954 6:0.196818 7:0.196818 8:0.0104497 9:3.41543 0:0 
0.2603 1:0.0984491 2:0.209727 3:0.00858307 4:0.32568 5:0.887773 6:0.218233 7:0.218233 8:0.0458032 9:4.16254 0:0 
0.2603 1:0.0785458 2:0.183527 3:0.00717163 4:0.313177 5:0.854672 6:0.223551 7:0.223551 8:0.0475912 9:4.16427 0:0 
0.2603 1:0.0826251 2:0.186911 3:0.00965118 4:0.358464 5:0.820194 6:0.196198 7:0.196198 8:1 9:3.97897 0:0 
-0.001195500087906675 1:0.000838877 2:0.0100649 3:0 4:0.520181 5:0.646508 6:0.154252 7:0.154252 8:0.0011964 9:2.83623 0:0 
0.2603 1:0 2:0 3:0 4:0.40429 5:0.917527 6:0.204895 7:0.204895 8:0.0436216 9:3.02448 0:0 
0.2603 1:6.59784e-05 2:0.00283676 3:0.000152588 4:0.447378 5:0.91487 6:0.22018 7:0.22018 8:0.0103145 9:3.08151 0:0 
0.2603 1:0.0028883 2:0.0231657 3:0.00144958 4:0.456669 5:0.932478 6:0.233289 7:0.233289 8:0.0466868 9:3.24013 0:0 
0.2603 1:0.0135107 2:0.0655275 3:0.0037384 4:0.297053 5:0.954321 6:0.126006 7:0.126006 8:0.0362121 9:3.31193 0:0 
0.2603 1:0.0159983 2:0.0675372 3:0.00591278 4:0.413524 5:0.912159 6:0.172834 7:0.172834 8:0.0153941 9:3.27216 0:0 
0.2603 1:0.182625 2:0.373254 3:0.0202935 4:0.249547 5:0.831511 6:0.247184 7:0.247184 8:0.0181428 9:4.5336 0:0 
0.2603 1:0.175566 2:0.367278 3:0.0223541 4:0.240079 5:0.774946 6:0.250762 7:0.250762 8:0.0199872 9:4.45674 0:0 
0.2253629356552361 1:0.155527 2:0.33982 3:0.0187302 4:0.261023 5:0.761646 6:0.236851 7:0.236851 8:0.0230131 9:4.39175 0:0 
0.2603 1:0.0318286 2:0.139714 3:0.0101964 4:0.265759 5:0.865933 6:0.168906 7:0.168906 8:0.0295432 9:3.18339 0:0 
0.2603 1:0.053973 2:0.171034 3:0.0134212 4:0.349198 5:0.884669 6:0.159962 7:0.159962 8:0.0336434 9:3.14159 0:0 
0.2603 1:0.00226153 2:0.0175058 3:0.00221252 4:0.749206 5:0.848799 6:0.229027 7:0.229027 8:0.0059285 9:1.66943 0:0 
0.2603 1:0.00834786 2:0.0415426 3:0.00415802 4:0.779329 5:0.867558 6:0.205914 7:0.205914 8:0.0401008 9:2.6395 0:0 
0.0103133703484159 1:0.0920466 2:0.209996 3:0.0221826 4:0.695778 5:0.844329 6:0.262852 7:0.262852 8:0.0145765 9:3.17481 0:0 
0.03048873519193942 1:0.12027 2:0.292768 3:0.0237525 4:1.00669 5:0.806618 6:1.38354 7:1.38354 8:0.0676939 9:3.93723 0:0 
0.2603 1:0.00646306 2:0.0425957 3:0.00541687 4:0.487026 5:0.883503 6:0.125207 7:0.125207 8:0.00250749 9:3.34171 0:0 
0.2603 1:0.0414319 2:0.143962 3:0.016861 4:0.431698 5:0.88029 6:0.151262 7:0.151262 8:0.00475036 9:2.53276 0:0 
0.2603 1:0.118757 2:0.29662 3:0.0271988 4:0.442388 5:0.879357 6:0.236655 7:0.236655 8:0.0118874 9:2.93736 0:0 
0.09401774074450212 1:0.364688 2:0.67485 3:0.0523891 4:0.356418 5:0.781145 6:0.449152 7:0.449152 8:0.000282702 9:2.98554 0:0 
0.2603 1:0.0388318 2:0.163049 3:0.00621796 4:0.217473 5:0.876795 6:0.195565 7:0.195565 8:0.0113401 9:3.056 0:0 
0.2603 1:0 2:0 3:0 4:0.0364744 5:0.7155 6:0.0191592 7:0.0191592 8:0.006003 9:3.07627 0:0 
0.2603 1:0 2:0 3:0 4:0.149996 5:0.802148 6:0.0565669 7:0.0565669 8:0.000489518 9:3.37346 0:0 
0.2603 1:0.311737 2:0.250359 3:0.0562161 4:0.587877 5:0.703194 6:0.265157 7:0.265157 8:0.00195223 9:4.34383 0:0 
0.2603 1:0.327485 2:0.234535 3:0.0570106 4:0.559871 5:0.778534 6:0.25963 7:0.25963 8:0.0156415 9:4.86699 0:0 
0.10861877742195 1:0.300317 2:0.27198 3:0.0484393 4:0.518523 5:0.822886 6:0.243921 7:0.243921 8:0.0144182 9:3.45484 0:0 
0.02649596388041149 1:0.45002 2:0.83178 3:0.0371792 4:0.676179 5:0.701718 6:0.681993 7:0.681993 8:1 9:3.32128 0:0 
-0.2603 1:0 2:0 3:0 4:0.579925 5:0.850991 6:0.24533 7:0.24533 8:0.0790712 9:3.32347 0:0 
-0.2603 1:0 2:0 3:0 4:0.403137 5:0.796612 6:0.11723 7:0.11723 8:0.000117755 9:3.19814 0:0 
0.2603 1:0.0284197 2:0.103512 3:0.00968933 4:0.680888 5:0.870879 6:0.23202 7:0.23202 8:0.0133843 9:3.10484 0:0 
0.2148008107216333 1:0.180661 2:0.553533 3:0.0282288 4:0.758219 5:0.751864 6:0.519059 7:0.519059 8:0.152452 9:3.17086 0:0 
0.2603 1:0.122831 2:0.310829 3:0.0153732 4:0.360499 5:0.83165 6:0.278618 7:0.278618 8:0.00344732 9:2.82837 0:0 
0.2603 1:0.118778 2:0.302589 3:0.0161362 4:0.360714 5:0.84332 6:0.273435 7:0.273435 8:0.00789321 9:2.82471 0:0 
0.07910221401592146 1:0.262028 2:0.530559 3:0.0289154 4:0.842746 5:0.682476 6:0.458284 7:0.458284 8:0.263246 9:3.56335 0:0 
0.0066206139451679 1:0.273853 2:0.575958 3:0.0320435 4:1.05118 5:0.685289 6:1.96816 7:1.96816 8:0.00019417 9:4.92405 0:0 
0.2603 1:0.433699 2:0.70153 3:0.0471022 4:0.5811 5:0.799573 6:0.457882 7:0.457882 8:0.0170093 9:3.00658 0:0 
-0.03560031838696578 1:0 2:0 3:0 4:0.197279 5:0.737787 6:0.0671467 7:0.0671467 8:1 9:3.46334 0:0 
0.2603 1:0.412663 2:0.672612 3:0.0412322 4:0.610838 5:0.79642 6:0.434454 7:0.434454 8:0.032653 9:3.0238 0:0 
-0.2603 1:0 2:0 3:0 4:0.211613 5:0.683586 6:0.0748424 7:0.0748424 8:1 9:3.5445 0:0 
-0.244150049495803 1:0 2:0 3:0 4:0.19271 5:0.806213 6:0.0806092 7:0.0806092 8:0.0749048 9:3.29514 0:0 
-0.09908140020416215 1:0 2:0 3:0 4:0.297151 5:0.861696 6:0.109706 7:0.109706 8:0.115587 9:1.18851 0:0 
0.02381361815506224 1:0.542818 2:0.773018 3:0.0482813 4:1.15406 5:0.665053 6:1.68469 7:1.68469 8:0.00347189 9:3.01172 0:0 
-0.1803476638108129 1:0 2:0 3:0 4:0.319866 5:0.728123 6:0.0883749 7:0.0883749 8:0.00672086 9:1.75065 0:0 
0.2603 1:0.00934844 2:0.0527521 3:0.00255585 4:0.322652 5:0.73384 6:0.115041 7:0.115041 8:0.0423753 9:3.38134 0:0 
0.2603 1:0.00138427 2:0.0146405 3:0.000762939 4:0.560761 5:0.699185 6:0.399361 7:0.399361 8:0.00126441 9:3.95057 0:0 
0.2603 1:0.0218099 2:0.100436 3:0.00858307 4:0.349952 5:0.914767 6:0.143595 7:0.143595 8:0.0169848 9:4.23725 0:0 
0.2603 1:0.00407804 2:0.033778 3:0.000801086 4:0.467531 5:0.833687 6:0.243438 7:0.243438 8:0.0006089 9:3.96237 0:0 
0.2603 1:0.0453474 2:0.148864 3:0.00461578 4:0.303521 5:0.592187 6:0.204459 7:0.204459 8:0.000436321 9:3.07958 0:0 
0.2603 1:0.00323746 2:0.0250683 3:0.00118256 4:0.388443 5:0.6963 6:0.309226 7:0.309226 8:0.00662762 9:2.85448 0:0 
0.2603 1:0.0149921 2:0.0763787 3:0.00564575 4:0.458416 5:0.901665 6:0.236673 7:0.236673 8:0.00775892 9:4.29812 0:0 
0.2123038278239677 1:0.022141 2:0.121745 3:0.00663932 4:0.283054 5:0.794852 6:0.179925 7:0.179925 8:0.132107 9:3.78289 0:0 
0.2603 1:0.0231467 2:0.115132 3:0.00541207 4:0.269984 5:0.7887 6:0.165024 7:0.165024 8:0.166843 9:3.82881 0:0 
0.2603 1:0.0384295 2:0.169581 3:0.00499725 4:0.347709 5:0.861966 6:0.201699 7:0.201699 8:0.0158628 9:3.47381 0:0 
0.2603 1:0.0309694 2:0.146599 3:0.00591278 4:0.23394 5:0.891994 6:0.221104 7:0.221104 8:0.0005535 9:3.41149 0:0 
-0.03150223304690882 1:0.175656 2:0.237541 3:0.00656128 4:0.132843 5:0.69229 6:1.07218 7:1.07218 8:0.117286 9:3.21015 0:0 
0.2603 1:0.0989824 2:0.371266 3:0.00907898 4:0.610661 5:0.844375 6:0.517681 7:0.517681 8:0.00449178 9:3.21086 0:0 
0.2258983721387756 1:0.104285 2:0.362231 3:0.0212479 4:0.628711 5:0.826444 6:0.559795 7:0.559795 8:0.0195111 9:3.3349 0:0 
0.05689427949483326 1:0.129077 2:0.367654 3:0.014534 4:0.269811 5:0.869373 6:0.343189 7:0.343189 8:0.0632418 9:2.96194 0:0 
0.1708211566637191 1:0.108835 2:0.292221 3:0.0197305 4:0.352196 5:0.740589 6:1.26831 7:1.26831 8:0.0416005 9:3.0452 0:0 
0.2603 1:0.288495 2:0.313255 3:0.0316321 4:0.455889 5:0.836523 6:0.390982 7:0.390982 8:0.0156755 9:2.78741 0:0 
0.2603 1:0.11296 2:0.209762 3:0.00850677 4:0.315354 5:0.781097 6:0.161803 7:0.161803 8:0.0367792 9:3.48524 0:0 
0.2603 1:0.0682711 2:0.159965 3:0.00743866 4:0.347735 5:0.767805 6:0.162486 7:0.162486 8:0.00401875 9:3.38657 0:0 
0.2603 1:0.0715307 2:0.154487 3:0.00801086 4:0.294713 5:0.67673 6:0.168126 7:0.168126 8:0.0024207 9:3.49643 0:0 
0.2603 1:0.134893 2:0.25087 3:0.0177624 4:0.277941 5:0.886621 6:0.203489 7:0.203489 8:0.0515551 9:3.70351 0:0 
0.2603 1:0.0562419 2:0.144204 3:0.0170452 4:0.204208 5:0.912615 6:0.118231 7:0.118231 8:0.0378966 9:2.98254 0:0 
0.2603 1:0.0721968 2:0.220382 3:0.010643 4:0.408215 5:0.773179 6:0.215587 7:0.215587 8:0.00867258 9:3.18952 0:0 
0.2603 1:0.046566 2:0.126522 3:0.0137711 4:0.36802 5:0.892375 6:0.11612 7:0.11612 8:0.0123669 9:1.79252 0:0 
0.1309956080448794 1:0.191288 2:0.36579 3:0.0281933 4:0.547475 5:0.792582 6:0.333392 7:0.333392 8:0.00734531 9:4.41286 0:0 
0.09203243643309518 1:0.136191 2:0.29667 3:0.0194089 4:0.410873 5:0.7812 6:1.40283 7:1.40283 8:0.0587026 9:3.75553 0:0 
0.2603 1:0.150322 2:0.271737 3:0.0253686 4:0.329723 5:0.81491 6:0.170176 7:0.170176 8:0.0229879 9:2.40061 0:0 
0.004997744108867913 1:0.289081 2:0.510173 3:0.0264323 4:0.417211 5:0.756378 6:0.342808 7:0.342808 8:0.0225836 9:4.24874 0:0 
0.004870982578753665 1:0.288971 2:0.425856 3:0.0275264 4:0.491612 5:0.722391 6:0.365414 7:0.365414 8:1 9:4.12566 0:0 
0.2567320500911316 1:0.182735 2:0.285332 3:0.013662 4:0.286747 5:0.763398 6:0.234717 7:0.234717 8:1 9:3.12511 0:0 
0.2603 1:0.265876 2:0.222811 3:0.0189886 4:0.396901 5:0.753905 6:0.191926 7:0.191926 8:0.00138972 9:3.37925 0:0 
0.2603 1:0.281603 2:0.249148 3:0.0200272 4:0.354531 5:0.785623 6:0.166581 7:0.166581 8:0.00302814 9:1.94134 0:0 
0.2603 1:0.280075 2:0.251305 3:0.018158 4:0.462405 5:0.793981 6:0.250453 7:0.250453 8:0.00431313 9:2.23233 0:0 
0.02622191901389944 1:0.291366 2:0.397597 3:0.0286734 4:0.609233 5:0.761745 6:1.4052 7:1.4052 8:0.000539582 9:2.3929 0:0 
0.2603 1:0.183469 2:0.205348 3:0.0203472 4:0.523233 5:0.844122 6:0.146296 7:0.146296 8:0.000538695 9:3.79392 0:0 
0.2603 1:0.117709 2:0.205721 3:0.0139236 4:0.428751 5:0.773428 6:0.152503 7:0.152503 8:0.00479157 9:2.64725 0:0 
0.2603 1:0.158699 2:0.226382 3:0.0181096 4:0.428494 5:0.780981 6:0.165818 7:0.165818 8:0.0116248 9:3.26888 0:0 
0.2603 1:0.177779 2:0.190702 3:0.0178955 4:0.474213 5:0.778864 6:0.23056 7:0.23056 8:0.00386592 9:3.07008 0:0 
0.2603 1:0.177671 2:0.241792 3:0.0207184 4:0.467039 5:0.775931 6:0.231943 7:0.231943 8:0.00206499 9:3.11146 0:0 
0.2603 1:0.133081 2:0.204885 3:0.0149546 4:0.486174 5:0.774435 6:0.195727 7:0.195727 8:0.0012513 9:3.18109 0:0 
0.2603 1:0.132356 2:0.210903 3:0.0166953 4:0.493951 5:0.738634 6:0.227609 7:0.227609 8:0.00108836 9:3.27 0:0 
0.2603 1:0.175646 2:0.28156 3:0.0237274 4:0.263564 5:0.749767 6:0.191709 7:0.191709 8:0.0362646 9:2.62905 0:0 
0.2603 1:0.15404 2:0.269959 3:0.0195313 4:0.230072 5:0.750887 6:0.193233 7:0.193233 8:0.00274875 9:2.6129 0:0 
0.2603 1:0.13636 2:0.24803 3:0.0164032 4:0.255892 5:0.739957 6:0.212831 7:0.212831 8:0.029499 9:2.62622 0:0 
0.2603 1:0.318429 2:0.296614 3:0.0357472 4:0.376747 5:0.695269 6:0.249231 7:0.249231 8:0.027054 9:3.0155 0:0 
0.2603 1:0.316003 2:0.291055 3:0.0355759 4:0.349374 5:0.70945 6:0.242987 7:0.242987 8:0.0266476 9:3.02072 0:0 
0.03799936547090028 1:1.34893 2:0.427799 3:0.0356843 4:0.314493 5:0.717754 6:1.90382 7:1.90382 8:0.0293934 9:3.65505 0:0 
-0.07271390372472519 1:0.18521 2:0.224748 3:0.0106812 4:0.268755 5:0.491974 6:0.165345 7:0.165345 8:0.00955147 9:4.61679 0:0 
0.2603 1:0.107845 2:0.286172 3:0.0132751 4:0.259074 5:0.846798 6:1.17679 7:1.17679 8:0.00106655 9:3.54722 0:0 
0.1122415618202263 1:0.0858182 2:0.27397 3:0.0156403 4:0.667025 5:0.681161 6:0.496324 7:0.496324 8:0.00180299 9:3.80648 0:0 
-0.008142740488684871 1:0.166814 2:0.378104 3:0.00144958 4:0.0756771 5:0.419828 6:0.235115 7:0.235115 8:1 9:3.24704 0:0 
0.08560263758138346 1:0.095391 2:0.311832 3:0.0163269 4:0.401785 5:0.850486 6:0.295529 7:0.295529 8:0.0105073 9:2.91856 0:0 
0.2603 1:0.030214 2:0.118006 3:0.0069809 4:0.284761 5:0.780583 6:0.123114 7:0.123114 8:0.00556815 9:2.71597 0:0 
-0.005932547738306662 1:0 2:0 3:0 4:0.251008 5:0.831463 6:1.30425 7:1.30425 8:0.00415283 9:2.97218 0:0 
0.2603 1:0.015624 2:0.0850178 3:0.00530243 4:0.302078 5:0.851338 6:0.136821 7:0.136821 8:0.0103572 9:3.36922 0:0 
0.2603 1:0.000862838 2:0.0117405 3:0.000572205 4:0.335734 5:0.803223 6:0.149838 7:0.149838 8:0.0669872 9:1.18882 0:0 
0.2603 1:0.000748189 2:0.0109903 3:0.000534058 4:0.352631 5:0.694078 6:0.161483 7:0.161483 8:0.137766 9:1.52416 0:0 
0.2603 1:0.000533155 2:0.00902074 3:0.000228882 4:0.444489 5:0.699112 6:0.186733 7:0.186733 8:0.132596 9:1.49902 0:0 
0.2603 1:0.000152089 2:0.00430459 3:0.000267029 4:0.459172 5:0.70357 6:0.178592 7:0.178592 8:0.0181841 9:1.31019 0:0 
0.2603 1:0 2:0 3:0 4:0.481309 5:0.701849 6:0.193633 7:0.193633 8:0.0394632 9:1.61064 0:0 
0.2603 1:0.00170934 2:0.0205135 3:0.000343323 4:0.428001 5:0.747901 6:0.131788 7:0.131788 8:0.00851802 9:3.59648 0:0 
0.2603 1:0.0044236 2:0.0374844 3:0.00240326 4:0.439108 5:0.752251 6:0.132984 7:0.132984 8:0.00494152 9:1.80677 0:0 
0.2603 1:0 2:0 3:0 4:0.457783 5:0.75053 6:0.123808 7:0.123808 8:0.00751354 9:3.62319 0:0 
0.2603 1:0 2:0 3:0 4:0.4504 5:0.718901 6:0.122111 7:0.122111 8:0.00386535 9:3.67043 0:0 
0.2603 1:0 2:0 3:0 4:0.413352 5:0.713893 6:0.114269 7:0.114269 8:0.131252 9:3.60025 0:0 
0.2603 1:0 2:0 3:0 4:0.429905 5:0.710934 6:0.103754 7:0.103754 8:0.00757309 9:3.46207 0:0 
0.2603 1:0 2:0 3:0 4:0.444373 5:0.712184 6:0.0949842 7:0.0949842 8:0.00700477 9:4.74975 0:0 
0.2603 1:0 2:0 3:0 4:0.438956 5:0.703336 6:0.0974423 7:0.0974423 8:0.00256679 9:4.81108 0:0 
-0.2603 1:0 2:0 3:0 4:0.370893 5:0.867159 6:0.141471 7:0.141471 8:0.0560019 9:3.65631 0:0 
-0.2603 1:0.0725037 2:0.17693 3:0.0120163 4:0.538761 5:0.919268 6:0.258005 7:0.258005 8:0.00566065 9:4.13732 0:0 
0.2603 1:0.0676321 2:0.191695 3:0.00576019 4:0.467135 5:0.667632 6:0.173727 7:0.173727 8:0.0768775 9:5.07323 0:0 
-0.2603 1:0.0204508 2:0.118233 3:0.00480652 4:0.576845 5:0.773897 6:0.221288 7:0.221288 8:0.180037 9:3.30068 0:0 
-0.2603 1:0 2:0 3:0 4:0.604488 5:0.636582 6:0.216989 7:0.216989 8:0.0136571 9:1.60165 0:0 
-0.2603 1:0 2:0 3:0 4:0.623828 5:0.766391 6:0.246397 7:0.246397 8:0.00413297 9:1.4022 0:0 
-0.2603 1:0.233238 2:0.574503 3:0.0275803 4:0.550008 5:0.82499 6:0.447365 7:0.447365 8:0.0863602 9:3.14159 0:0 
-0.2603 1:0.000258649 2:0.00560971 3:0.000305176 4:0.62798 5:0.757942 6:0.185399 7:0.185399 8:0.00439039 9:4.83106 0:0 
-0.2603 1:0.160455 2:0.372141 3:0.0121307 4:0.453771 5:0.879918 6:0.324454 7:0.324454 8:0.0495775 9:3.13372 0:0 
-0.06050565009330017 1:0.00114618 2:0.0117415 3:7.62939e-05 4:0.133291 5:0.93699 6:0.0519843 7:0.0519843 8:0.0208218 9:3.04975 0:0 
-0.2603 1:0 2:0 3:0 4:0.353626 5:0.882642 6:0.109591 7:0.109591 8:0.105477 9:3.00215 0:0 
-0.2603 1:0 2:0 3:0 4:0.509217 5:0.811333 6:0.16603 7:0.16603 8:0.00984091 9:1.31824 0:0 
-0.2603 1:0 2:0 3:0 4:0.356877 5:0.876958 6:0.0885779 7:0.0885779 8:0.014429 9:3.82974 0:0 
-0.2603 1:0 2:0 3:0 4:0.544009 5:0.912822 6:0.17082 7:0.17082 8:0.0353454 9:3.69638 0:0 
0.2603 1:0 2:0 3:0 4:0.295869 5:0.754015 6:0.0672013 7:0.0672013 8:0.00554251 9:4.08359 0:0 
0.2603 1:0 2:0 3:0 4:0.238315 5:0.674656 6:0.069949 7:0.069949 8:0.0063336 9:2.09838 0:0 
0.2603 1:0 2:0 3:0 4:0.379342 5:0.626388 6:0.0835711 7:0.0835711 8:0.00281087 9:3.38971 0:0 
0.2603 1:0 2:0 3:0 4:0.444408 5:0.795449 6:0.172651 7:0.172651 8:0.0389896 9:3.15929 0:0 
-0.0154281136460057 1:1.05908 2:0.783078 3:0.0219727 4:1.35053 5:0.916364 6:0.865328 7:0.865328 8:0.0335965 9:4.80848 0:0 
0.2603 1:0.534731 2:0.542721 3:0.0345993 4:0.43267 5:0.919695 6:0.45259 7:0.45259 8:0.0259774 9:3.68614 0:0 
0.1934271893470727 1:0.56043 2:0.518835 3:0.0312424 4:0.418758 5:0.934822 6:0.435634 7:0.435634 8:0.169747 9:3.71467 0:0 
0.03230023321314051 1:0.508533 2:0.497923 3:0.0343323 4:0.402815 5:0.922879 6:0.418072 7:0.418072 8:0.0917038 9:3.79313 0:0 
0.2603 1:0.466241 2:0.431745 3:0.0319672 4:0.3479 5:0.913422 6:0.364372 7:0.364372 8:0.126144 9:3.91069 0:0 
0.2603 1:0.397806 2:0.456889 3:0.0274277 4:0.255733 5:0.870271 6:0.330883 7:0.330883 8:1 9:3.77961 0:0 
0.1852573958950672 1:0.345799 2:0.525588 3:0.0289154 4:0.226981 5:0.834302 6:0.389428 7:0.389428 8:1 9:3.79774 0:0 
0.1210586950617445 1:0.236209 2:0.404103 3:0.0254822 4:0.236447 5:0.818616 6:0.30554 7:0.30554 8:0.00603902 9:3.91742 0:0 
0.166438691535173 1:0.00988513 2:0.0625421 3:0.00423431 4:1.1687 5:0.828622 6:0.471007 7:0.471007 8:0.0214083 9:1.17034 0:0 
0.1281131447828311 1:0.0526467 2:0.168162 3:0.0112915 4:0.788158 5:0.701291 6:0.192424 7:0.192424 8:0.0342207 9:2.94247 0:0 
0.2603 1:0.0515798 2:0.172435 3:0.0114441 4:0.882882 5:0.69916 6:0.214035 7:0.214035 8:0.0197917 9:2.77046 0:0 
0.07871255924743313 1:0.40236 2:0.71159 3:0.0564957 4:0.826488 5:0.828303 6:0.508464 7:0.508464 8:0.0182218 9:3.79485 0:0 
0.06362206989850905 1:0.35355 2:0.586095 3:0.0463104 4:0.956088 5:0.761474 6:0.489135 7:0.489135 8:0.269764 9:3.32236 0:0 
0.1348771757449677 1:0.414241 2:0.665331 3:0.0383759 4:0.745111 5:0.834617 6:0.476757 7:0.476757 8:0.0049239 9:3.34448 0:0 
0.2603 1:0.303612 2:0.304225 3:0.0164413 4:0.763527 5:0.694986 6:0.286793 7:0.286793 8:0.0274428 9:3.814 0:0 
0.1767323358435969 1:0.511751 2:0.901562 3:0.0469971 4:0.546797 5:0.797892 6:0.782799 7:0.782799 8:0.00109911 9:3.26542 0:0 
0.08113889813651141 1:0.580287 2:0.988099 3:0.044632 4:0.504242 5:0.786854 6:0.822262 7:0.822262 8:0.001126 9:3.03844 0:0 
-0.1125350680160549 1:0 2:0 3:0 4:0.156598 5:0.747275 6:0.0273137 7:0.0273137 8:0.0935835 9:3.07785 0:0 
0.01667607616717374 1:0.210085 2:0.471822 3:0.0595856 4:0.485399 5:0.622072 6:1.75071 7:1.75071 8:0.000563564 9:3.21726 0:0 
-0.2603 1:0 2:0 3:0 4:0.22501 5:0.860808 6:0.110344 7:0.110344 8:0.0463868 9:3.31165 0:0 
-0.002205033337060017 1:0.140303 2:0.159685 3:0.001297 4:0.118981 5:0.641497 6:1.01813 7:1.01813 8:0.0398593 9:4.81912 0:0 
0.02471422727329873 1:0.78035 2:0.989146 3:0.131704 4:1.96964 5:0.566271 6:2.03782 7:2.03782 8:0.00113172 9:1.15095 0:0 
-0.2603 1:0 2:0 3:0 4:0.787711 5:0.764731 6:0.237969 7:0.237969 8:0.00632536 9:4.83123 0:0 
-0.2603 1:0.0214569 2:0.0687718 3:0.00183105 4:0.375566 5:0.77424 6:0.091285 7:0.091285 8:0.025451 9:3.27619 0:0 
-0.123546548834895 1:0.186891 2:0.222455 3:0.0102234 4:0.390011 5:0.809944 6:0.148484 7:0.148484 8:1 9:3.50612 0:0 
-0.01508352106151542 1:0.552919 2:1.26863 3:0.0940704 4:0.800999 5:0.773729 6:0.965515 7:0.965515 8:0.0125865 9:2.84309 0:0 
-0.2603 1:0 2:0 3:0 4:0.315639 5:0.753639 6:0.124371 7:0.124371 8:0.00531541 9:3.01189 0:0 
-0.2603 1:0.0629562 2:0.0785849 3:0.0157928 4:0.308472 5:0.782249 6:0.124192 7:0.124192 8:0.000950303 9:2.76952 0:0 
-0.2603 1:0.0895748 2:0.0850801 3:0.0165176 4:0.335515 5:0.755746 6:0.157812 7:0.157812 8:0.001678 9:2.74503 0:0 
-0.2603 1:0.102456 2:0.110591 3:0.01194 4:0.358559 5:0.836735 6:0.16643 7:0.16643 8:0.0175847 9:2.64225 0:0 
0.2603 1:0.23073 2:0.200161 3:0.0391057 4:0.512039 5:0.882019 6:0.134233 7:0.134233 8:0.000258508 9:3.34758 0:0 
-0.2603 1:0.0856481 2:0.0894086 3:0.0111771 4:0.350453 5:0.827036 6:0.167748 7:0.167748 8:0.000399329 9:2.67151 0:0 
-0.04357904657964942 1:0.0371816 2:0.0557976 3:0.00598907 4:0.308432 5:0.823557 6:0.067549 7:0.067549 8:1 9:2.25132 0:0 
-0.2424159185765949 1:0.096999 2:0.0974942 3:0.0105667 4:0.36299 5:0.832279 6:0.158282 7:0.158282 8:0.0424489 9:2.62334 0:0 
-0.2603 1:0.0430458 2:0.0769754 3:0.00667572 4:0.322873 5:0.767094 6:0.061269 7:0.061269 8:0.0169126 9:3.83204 0:0 
-0.2603 1:0.111581 2:0.122686 3:0.0136185 4:0.38221 5:0.832175 6:0.177108 7:0.177108 8:0.0492105 9:2.62687 0:0 
-0.03777286885620605 1:0.111714 2:0.108309 3:0.0133896 4:0.349337 5:0.784088 6:0.155689 7:0.155689 8:0.011745 9:2.68649 0:0 
-0.09188455507414911 1:0.19059 2:0.14489 3:0.0326538 4:0.462062 5:0.721898 6:0.20901 7:0.20901 8:0.00142364 9:2.19959 0:0 
0.2603 1:0.0586271 2:0.185097 3:0.00663757 4:0.294678 5:0.636998 6:0.169965 7:0.169965 8:0.00176179 9:4.2471 0:0 
-0.2603 1:0.110331 2:0.112008 3:0.0181198 4:0.465255 5:0.780508 6:0.210215 7:0.210215 8:0.0485451 9:2.49668 0:0 
-0.2603 1:0.149614 2:0.131019 3:0.0201797 4:0.5064 5:0.712232 6:0.241156 7:0.241156 8:0.0637132 9:2.4442 0:0 
0.2603 1:0 2:0 3:0 4:0.442289 5:0.912296 6:0.136764 7:0.136764 8:0.0077 9:3.81101 0:0 
-0.003569857986119126 1:2.23138 2:1.05384 3:0.0519562 4:0.504514 5:0.71253 6:2.03041 7:2.03041 8:0.00815465 9:4.23543 0:0 
0.2603 1:0.0142589 2:0.0921659 3:0.00572205 4:0.536707 5:0.866954 6:0.120524 7:0.120524 8:0.00437288 9:3.20657 0:0 
0.2603 1:0 2:0 3:0 4:0.352365 5:0.800036 6:0.167879 7:0.167879 8:0.0073224 9:1.68964 0:0 
-0.02346548445529376 1:0.177279 2:0.157015 3:0.00701904 4:0.245036 5:0.914813 6:0.060247 7:0.060247 8:1 9:5.01256 0:0 
0.2603 1:0 2:0 3:0 4:0.387884 5:0.805308 6:0.127297 7:0.127297 8:0.00153029 9:3.15458 0:0 
0.2603 1:0 2:0 3:0 4:0.744258 5:0.84635 6:0.129808 7:0.129808 8:0.00424313 9:1.71062 0:0 
-0.1627872520152963 1:0.21009 2:0.188158 3:0.00354767 4:0.190138 5:0.772896 6:0.131513 7:0.131513 8:0.00257594 9:2.03444 0:0 
0.08247440278927176 1:0 2:0 3:0 4:0.824201 5:0.828497 6:0.142468 7:0.142468 8:0.00370061 9:1.91771 0:0 
-0.002084007294304021 1:0.700434 2:0.508503 3:0.00450134 4:0.280009 5:0.606017 6:1.95861 7:1.95861 8:0.0262842 9:1.35836 0:0 
0.1485926344969337 1:0 2:0 3:0 4:0.842509 5:0.833284 6:0.158045 7:0.158045 8:0.0114852 9:4.33834 0:0 
0.2603 1:0 2:0 3:0 4:0.55667 5:0.760417 6:0.124386 7:0.124386 8:0.0925063 9:1.33318 0:0 
0.2603 1:0.0742038 2:0.282243 3:0.00785828 4:0.299702 5:0.872422 6:0.254448 7:0.254448 8:0.206721 9:3.41552 0:0 
0.2603 1:0 2:0 3:0 4:0.375935 5:0.845745 6:0.0743099 7:0.0743099 8:0.0381563 9:3.20401 0:0 
0.2603 1:0 2:0 3:0 4:0.398957 5:0.805997 6:0.0518377 7:0.0518377 8:0.0392668 9:2.54721 0:0 
0.2603 1:0 2:0 3:0 4:0.693514 5:0.780053 6:0.198152 7:0.198152 8:0.0858431 9:3.63199 0:0 
0.2603 1:0 2:0 3:0 4:0.723585 5:0.773479 6:0.0986472 7:0.0986472 8:1 9:3.47109 0:0 
0.249309695207921 1:0 2:0 3:0 4:0.446369 5:0.761604 6:0.289539 7:0.289539 8:0.00404004 9:3.43157 0:0 
0.2603 1:0.000114458 2:0.00373516 3:0.000305176 4:0.455173 5:0.751058 6:0.265767 7:0.265767 8:0.0299086 9:3.47445 0:0 
0.2603 1:0 2:0 3:0 4:0.601577 5:0.816414 6:0.232467 7:0.232467 8:0.0053032 9:3.12249 0:0 
0.2603 1:0.00278317 2:0.0263913 3:0.000648499 4:0.408411 5:0.795738 6:0.221755 7:0.221755 8:0.0225836 9:2.58147 0:0 
0.2603 1:0.000147992 2:0.00424632 3:7.62939e-05 4:0.429486 5:0.807236 6:0.252833 7:0.252833 8:0.0737918 9:3.11401 0:0 
0.2603 1:0.27741 2:0.354471 3:0.0271225 4:0.517553 5:0.839002 6:0.260454 7:0.260454 8:0.0159192 9:3.69245 0:0 
-0.02901742481114275 1:0 2:0 3:0 4:0.371676 5:0.617119 6:2.52196 7:2.52196 8:0.00920718 9:3.73877 0:0 
-0.2603 1:0.236682 2:0.217499 3:0.0589752 4:0.471964 5:0.838195 6:0.105097 7:0.105097 8:0.00748664 9:3.32503 0:0 
0.01287139845275894 1:3.70689 2:0.881462 3:0.0555121 4:0.836022 5:0.750858 6:2.91289 7:2.91289 8:0.000797097 9:2.90624 0:0 
0.01469412791011011 1:3.73183 2:0.888602 3:0.0453958 4:0.767387 5:0.69442 6:2.96699 7:2.96699 8:0.00337892 9:2.92865 0:0 
-0.2603 1:0.588025 2:0.333407 3:0.116821 4:0.52043 5:0.867269 6:0.383337 7:0.383337 8:0.00212194 9:2.4787 0:0 
0.2603 1:0.408158 2:0.342953 3:0.0291208 4:0.82215 5:0.654634 6:0.331728 7:0.331728 8:0.00498362 9:3.24242 0:0 
0.2603 1:0.424297 2:0.354271 3:0.0275793 4:0.785734 5:0.660458 6:0.327237 7:0.327237 8:0.00439344 9:3.22281 0:0 
-0.2603 1:0.546668 2:0.324461 3:0.0792996 4:0.531283 5:0.853455 6:0.402711 7:0.402711 8:0.00352079 9:2.47363 0:0 
0.2603 1:0.440646 2:0.359383 3:0.0232444 4:0.743783 5:0.65491 6:0.346652 7:0.346652 8:0.00656231 9:3.17945 0:0 
0.2603 1:0.47134 2:0.418558 3:0.054686 4:0.285955 5:0.765376 6:0.291869 7:0.291869 8:0.0013893 9:3.13789 0:0 
0.1437747258186499 1:0.489613 2:0.444941 3:0.0464839 4:0.343913 5:0.753965 6:0.385916 7:0.385916 8:0.0156682 9:2.94866 0:0 
0.2603 1:0.486991 2:0.412353 3:0.035714 4:0.41823 5:0.765948 6:0.31935 7:0.31935 8:0.00368491 9:2.95837 0:0 
0.2079781299597094 1:0.289147 2:0.2428 3:0.0322342 4:0.769145 5:0.759215 6:0.396267 7:0.396267 8:0.0092907 9:3.15812 0:0 
0.06117435842966303 1:0.00666176 2:0.0506479 3:0.00106812 4:0.595965 5:0.721111 6:2.21475 7:2.21475 8:0.0013564 9:4.07909 0:0 
0.2603 1:0.00500423 2:0.0439556 3:0.00118256 4:0.469308 5:0.78284 6:0.179419 7:0.179419 8:0.00554805 9:2.36286 0:0 
-0.04476673322640912 1:0.23782 2:0.232575 3:0.0213242 4:0.29637 5:0.902046 6:0.126543 7:0.126543 8:0.041653 9:3.93398 0:0 
-0.2603 1:0.285401 2:0.258351 3:0.0265503 4:0.345841 5:0.909116 6:0.163339 7:0.163339 8:0.0454057 9:3.90549 0:0 
-0.2338579863258033 1:0.312998 2:0.26216 3:0.0259399 4:0.345918 5:0.908807 6:0.191569 7:0.191569 8:0.0560505 9:3.63553 0:0 
-0.2603 1:0.215762 2:0.194324 3:0.0208282 4:1.15391 5:0.746708 6:0.279031 7:0.279031 8:0.00394844 9:3.02991 0:0 
-0.2603 1:0.22304 2:0.227796 3:0.0631784 4:0.611353 5:0.912605 6:0.346414 7:0.346414 8:0.00970733 9:2.09802 0:0 
0.2603 1:0.00186608 2:0.023937 3:0.00175476 4:0.465972 5:0.78019 6:0.10855 7:0.10855 8:0.00717121 9:3.62177 0:0 
0.2603 1:0.0239876 2:0.134751 3:0.00713348 4:0.522251 5:0.763923 6:0.176662 7:0.176662 8:0.00608493 9:2.9628 0:0 
0.2603 1:0.269103 2:0.209961 3:0.039964 4:0.659821 5:0.747593 6:0.19542 7:0.19542 8:0.0667312 9:3.22759 0:0 
0.2603 1:0.355826 2:0.27475 3:0.0511434 4:0.694031 5:0.779381 6:0.220704 7:0.220704 8:0.00191208 9:3.35135 0:0 
0.01780200490550507 1:0.209278 2:0.232221 3:0.0351385 4:0.658925 5:0.726809 6:0.189972 7:0.189972 8:0.00363696 9:3.15292 0:0 
0.2603 1:0.0134279 2:0.0934906 3:0.00427246 4:0.550925 5:0.719724 6:0.135582 7:0.135582 8:0.00672086 9:2.82546 0:0 
0.2603 1:0 2:0 3:0 4:0.387752 5:0.747119 6:0.1328 7:0.1328 8:0.02363 9:2.62004 0:0 
0.2603 1:0 2:0 3:0 4:0.378697 5:0.795967 6:0.172747 7:0.172747 8:0.000419859 9:2.60952 0:0 
0.2603 1:0 2:0 3:0 4:0.50585 5:0.762654 6:0.193938 7:0.193938 8:0.0182276 9:3.97633 0:0 
0.2603 1:0.137078 2:0.262152 3:0.0111389 4:0.336364 5:0.890718 6:0.188505 7:0.188505 8:0.0476752 9:3.86512 0:0 
0.2603 1:0.123835 2:0.248635 3:0.0115967 4:0.342673 5:0.897652 6:0.180141 7:0.180141 8:1 9:3.84821 0:0 
0.2603 1:0.120623 2:0.24128 3:0.0101471 4:0.339532 5:0.895964 6:0.162548 7:0.162548 8:0.00797681 9:3.81825 0:0 
0.2603 1:0.0759763 2:0.177947 3:0.0087738 4:0.374047 5:0.896176 6:0.139017 7:0.139017 8:1 9:2.33684 0:0 
0.2603 1:0.0584664 2:0.150407 3:0.00732422 4:0.348649 5:0.885246 6:0.0951943 7:0.0951943 8:0.00943374 9:3.72627 0:0 
0.2603 1:0 2:0 3:0 4:0.307356 5:0.853435 6:0.0825658 7:0.0825658 8:0.00598688 9:2.95111 0:0 
0.2603 1:0 2:0 3:0 4:0.238151 5:0.834603 6:0.0761628 7:0.0761628 8:0.0181841 9:2.24792 0:0 
0.2603 1:0.0240326 2:0.0929742 3:0.00940883 4:0.29952 5:0.701806 6:0.111472 7:0.111472 8:1 9:3.37463 0:0 
0.002052694512874536 1:0.53766 2:0.553513 3:0.0603062 4:0.759983 5:0.72908 6:0.447816 7:0.447816 8:0.104553 9:3.83959 0:0 
0.2603 1:0.334063 2:0.374605 3:0.0186348 4:0.276839 5:0.764067 6:0.28309 7:0.28309 8:0.058704 9:3.99462 0:0 
0.2603 1:0.413899 2:0.363256 3:0.0440782 4:0.429125 5:0.803629 6:0.278095 7:0.278095 8:0.00603327 9:3.40471 0:0 
0.2407556699482946 1:0.7098 2:0.505479 3:0.035446 4:0.259352 5:0.703548 6:0.396861 7:0.396861 8:0.00562534 9:3.64121 0:0 
0.1404050029486335 1:0.676987 2:0.503288 3:0.0294876 4:0.474957 5:0.670084 6:0.290115 7:0.290115 8:1 9:3.98621 0:0 
0.2603 1:0.0229379 2:0.0985402 3:0.00396729 4:0.283639 5:0.808319 6:0.135663 7:0.135663 8:1 9:2.90266 0:0 
0.2603 1:0.00109656 2:0.0156458 3:0.00171661 4:0.331428 5:0.740123 6:0.23749 7:0.23749 8:0.0177338 9:3.21868 0:0 
0.2603 1:0 2:0 3:0 4:0.26213 5:0.812428 6:0.124038 7:0.124038 8:0.00839089 9:3.68928 0:0 
0.2603 1:0 2:0 3:0 4:0.36721 5:0.848625 6:0.124658 7:0.124658 8:0.00519045 9:3.6301 0:0 
0.2603 1:0 2:0 3:0 4:0.453419 5:0.821051 6:0.0936513 7:0.0936513 8:0.000571413 9:3.80756 0:0 
0.2603 1:0.448083 2:0.393517 3:0.0274658 4:0.336197 5:0.733474 6:0.247688 7:0.247688 8:0.0506044 9:3.49191 0:0 
0.2603 1:0.314074 2:0.264868 3:0.022583 4:0.315811 5:0.689574 6:0.149821 7:0.149821 8:0.0154117 9:3.71744 0:0 
0.0849272952114566 1:0.111574 2:0.2534 3:0.0146866 4:0.566802 5:0.653936 6:0.425777 7:0.425777 8:1 9:3.43057 0:0 
-0.1123344334147045 1:0.123257 2:0.143336 3:0.00793457 4:0.906526 5:0.727707 6:0.238552 7:0.238552 8:0.0367792 9:1.76629 0:0 
-0.2603 1:0.108295 2:0.125599 3:0.0287247 4:0.583913 5:0.859799 6:0.223981 7:0.223981 8:0.0493285 9:1.54906 0:0 
-0.04700965515034543 1:0.3103 2:0.310609 3:0.0184631 4:0.596555 5:0.568573 6:0.229564 7:0.229564 8:0.147584 9:4.14417 0:0 
0.09588796840133675 1:0.21532 2:0.262363 3:0.0386407 4:1.37059 5:0.824811 6:0.441143 7:0.441143 8:0.00142209 9:3.57051 0:0 
0.2603 1:0.326815 2:0.302916 3:0.0323868 4:0.272624 5:0.847381 6:0.215854 7:0.215854 8:0.0116196 9:4.08789 0:0 
0.2603 1:0.28235 2:0.23048 3:0.0336838 4:0.261296 5:0.855948 6:0.152663 7:0.152663 8:0.0145999 9:3.26595 0:0 
0.2603 1:0.255927 2:0.203431 3:0.0309753 4:0.32796 5:0.887956 6:0.164986 7:0.164986 8:0.013614 9:3.23533 0:0 
0.1280441740021092 1:0.257682 2:0.219971 3:0.0258255 4:0.493464 5:0.821541 6:0.20928 7:0.20928 8:1 9:2.68649 0:0 
0.2603 1:0.267241 2:0.220317 3:0.0297546 4:0.578296 5:0.846531 6:0.231189 7:0.231189 8:0.00431743 9:2.70106 0:0 
0.2603 1:0.242905 2:0.1827 3:0.0196075 4:0.510536 5:0.810485 6:0.210665 7:0.210665 8:0.000982425 9:2.7752 0:0 
0.2603 1:0.0488468 2:0.125902 3:0.00827789 4:0.239708 5:0.856385 6:0.111276 7:0.111276 8:0.00242042 9:3.72445 0:0 
0.2603 1:0.244218 2:0.198626 3:0.0337676 4:0.413755 5:0.874983 6:0.1705 7:0.1705 8:0.0386037 9:3.88636 0:0 
0.2162092331172846 1:0.333296 2:0.271219 3:0.0549538 4:0.499779 5:0.853301 6:0.209255 7:0.209255 8:1 9:3.87629 0:0 
0.2603 1:0.459676 2:0.413575 3:0.0731507 4:0.612902 5:0.855083 6:0.28399 7:0.28399 8:0.00524702 9:3.76409 0:0 
0.2603 1:0.0264604 2:0.129947 3:0.00717163 4:0.273179 5:0.818996 6:0.14303 7:0.14303 8:0.00393069 9:2.93953 0:0 
-0.2603 1:0.658849 2:0.600229 3:0.0919724 4:0.543174 5:0.800874 6:0.466899 7:0.466899 8:0.00584388 9:1.59321 0:0 
-0.004067515120610447 1:0.225278 2:0.204774 3:0.0105286 4:0.266019 5:0.759675 6:0.180481 7:0.180481 8:0.00849638 9:1.15732 0:0 
0.2603 1:0 2:0 3:0 4:0.242582 5:0.871129 6:0.0929184 7:0.0929184 8:0.00345935 9:3.64869 0:0 
0.2603 1:0 2:0 3:0 4:0.262291 5:0.871224 6:0.127434 7:0.127434 8:0.00384977 9:3.72267 0:0 
0.2603 1:2.20567e-05 2:0.00164064 3:0 4:0.381943 5:0.888175 6:0.116347 7:0.116347 8:0.0184773 9:2.90764 0:0 
0.2603 1:0.00299967 2:0.0308418 3:0.00144958 4:0.330722 5:0.563713 6:0.0456976 7:0.0456976 8:0.0587813 9:2.97454 0:0 
0.2603 1:0.00073425 2:0.0111475 3:0.000228882 4:0.29153 5:0.579525 6:0.0284921 7:0.0284921 8:0.12535 9:1.69682 0:0 
0.2603 1:2.05225e-05 2:0.00158257 3:0 4:0.306886 5:0.566467 6:0.0218751 7:0.0218751 8:0.0423753 9:1.71902 0:0 
0.2603 1:0 2:0 3:0 4:0.29543 5:0.565537 6:0.0559217 7:0.0559217 8:0.0292169 9:2.91169 0:0 
0.2603 1:0.0255278 2:0.136538 3:0.00572205 4:0.187301 5:0.573237 6:0.174071 7:0.174071 8:0.00340214 9:3.12328 0:0 
-0.0003609130674362926 1:2.67547 2:1.06709 3:0.031929 4:0.517843 5:0.722912 6:2.00414 7:2.00414 8:0.0542826 9:4.39064 0:0 
0.2603 1:0.00403804 2:0.0339621 3:0.00255585 4:0.341444 5:0.832044 6:0.135528 7:0.135528 8:0.000272072 9:3.56496 0:0 
0.2603 1:0.000474698 2:0.00812233 3:0.000457764 4:0.28064 5:0.857956 6:0.165665 7:0.165665 8:1 9:3.70832 0:0 
0.2603 1:0.00788783 2:0.0697089 3:0.00205994 4:0.308652 5:0.649166 6:0.17046 7:0.17046 8:0.00196664 9:2.53256 0:0 
0.1187663288521636 1:0 2:0 3:0 4:0.437437 5:0.812448 6:0.307343 7:0.307343 8:0.00436775 9:3.17848 0:0 
0.2603 1:0 2:0 3:0 4:0.285541 5:0.793175 6:0.103853 7:0.103853 8:0.0106883 9:4.81084 0:0 
-0.1665282070270604 1:0.7165 2:0.627657 3:0.0482941 4:0.568048 5:0.811109 6:0.461111 7:0.461111 8:0.0426103 9:1.50902 0:0 
0.02959863674742378 1:0 2:0 3:0 4:0.969306 5:0.81815 6:0.504817 7:0.504817 8:0.254473 9:3.92373 0:0 
0.2603 1:0 2:0 3:0 4:1.04845 5:0.819659 6:0.550896 7:0.550896 8:0.0265842 9:4.01422 0:0 
0.09319070826406294 1:0 2:0 3:0 4:1.0744 5:0.815095 6:0.564487 7:0.564487 8:0.157137 9:4.04481 0:0 
0.03594016224442398 1:0 2:0 3:0 4:1.03511 5:0.787269 6:0.545068 7:0.545068 8:1 9:4.11904 0:0 
-0.2485607118015869 1:0 2:0 3:0 4:0.416761 5:0.927762 6:0.100359 7:0.100359 8:0.00345935 9:3.84079 0:0 
0.05534426363780009 1:0 2:0 3:0 4:1.06666 5:0.726914 6:0.538042 7:0.538042 8:0.000275286 9:3.17834 0:0 
0.1270326593350019 1:0 2:0 3:0 4:0.525972 5:0.758719 6:0.483418 7:0.483418 8:0.0512082 9:2.77044 0:0 
0.1361731439466997 1:0 2:0 3:0 4:0.535092 5:0.722253 6:0.507014 7:0.507014 8:0.0458454 9:2.70255 0:0 
-0.001174002954407493 1:0.212522 2:0.16812 3:0.00339508 4:0.143444 5:0.876415 6:0.0762679 7:0.0762679 8:1 9:4.6785 0:0 
0.2603 1:0 2:0 3:0 4:0.790028 5:0.741421 6:0.183407 7:0.183407 8:0.0125801 9:4.71239 0:0 
0.2603 1:0 2:0 3:0 4:0.707118 5:0.7961 6:0.215187 7:0.215187 8:0.00315117 9:4.66423 0:0 
0.2603 1:0 2:0 3:0 4:0.69167 5:0.763898 6:0.254858 7:0.254858 8:0.00914485 9:4.82171 0:0 
-0.1062904046857374 1:0 2:0 3:0 4:0.370074 5:0.778664 6:0.0833011 7:0.0833011 8:0.00134921 9:2.53307 0:0 
-0.2396633814849246 1:0.024703 2:0.0832316 3:0.00087738 4:0.610647 5:0.70869 6:0.0936794 7:0.0936794 8:0.154016 9:3.07575 0:0 
0.1401783924275938 1:0.845379 2:0.711108 3:0.0594884 4:0.528255 5:0.719934 6:0.613625 7:0.613625 8:0.000358367 9:2.76216 0:0 
0.1923968657777111 1:1.08564 2:0.941522 3:0.112692 4:0.766472 5:0.719605 6:0.825009 7:0.825009 8:0.0630956 9:1.86624 0:0 
0.1262405197198409 1:0.950152 2:0.802652 3:0.110845 4:0.812573 5:0.755016 6:0.818375 7:0.818375 8:0.062167 9:1.64899 0:0 
0.06915541543765232 1:0.81498 2:0.667598 3:0.104278 4:0.788618 5:0.814671 6:0.77761 7:0.77761 8:0.00340901 9:1.53113 0:0 
0.0340449855289776 1:1.26075 2:0.918977 3:0.15594 4:1.29118 5:0.676446 6:0.495715 7:0.495715 8:0.00883286 9:1.19635 0:0 
0.09555904836179983 1:0.751697 2:0.491023 3:0.0617388 4:1.26494 5:0.663364 6:0.646501 7:0.646501 8:0.00432968 9:3.25852 0:0 
0.2603 1:0.280729 2:0.240725 3:0.0396509 4:0.301861 5:0.723137 6:0.19467 7:0.19467 8:0.0239318 9:2.32975 0:0 
0.07389717522629936 1:0.759728 2:0.536454 3:0.0415355 4:0.369422 5:0.652748 6:0.368241 7:0.368241 8:0.0197917 9:4.95525 0:0 
0.2509597703313206 1:0.750745 2:0.533784 3:0.0404686 4:0.369604 5:0.654216 6:0.373797 7:0.373797 8:0.0512082 9:5.02324 0:0 
0.1702242059677993 1:0.377905 2:0.308572 3:0.0454712 4:0.711271 5:0.810456 6:0.228349 7:0.228349 8:1 9:3.03648 0:0 
-0.03270058832509474 1:0.233479 2:0.191364 3:0.0254234 4:0.404505 5:0.77591 6:0.117237 7:0.117237 8:0.0138799 9:3.47554 0:0 
0.2603 1:0.407176 2:0.350127 3:0.0448227 4:0.36319 5:0.850247 6:0.275865 7:0.275865 8:0.00464312 9:2.56936 0:0 
0.2603 1:0.42422 2:0.35938 3:0.0404358 4:0.355853 5:0.855091 6:0.257587 7:0.257587 8:0.00496633 9:2.51257 0:0 
0.2603 1:0.42577 2:0.353211 3:0.0401688 4:0.330913 5:0.852263 6:0.252356 7:0.252356 8:0.0104215 9:2.55699 0:0 
0.2603 1:0.424141 2:0.358491 3:0.0455856 4:0.425859 5:0.820584 6:0.281352 7:0.281352 8:0.00227475 9:2.60586 0:0 
0.2603 1:0.213259 2:0.201056 3:0.0243133 4:0.576568 5:0.839997 6:0.336406 7:0.336406 8:0.00230008 9:2.88852 0:0 
0.2603 1:0.159463 2:0.143821 3:0.0240665 4:0.483104 5:0.860935 6:0.322077 7:0.322077 8:0.000237741 9:3.00693 0:0 
0.2603 1:0.161866 2:0.151909 3:0.0234757 4:0.477693 5:0.877726 6:0.296491 7:0.296491 8:0.000335416 9:3.02143 0:0 
0.2603 1:0.180934 2:0.163656 3:0.0252265 4:0.479526 5:0.880842 6:0.313031 7:0.313031 8:0.000238018 9:3.08511 0:0 
0.2603 1:0.286421 2:0.229821 3:0.0212656 4:0.252206 5:0.910333 6:0.202122 7:0.202122 8:0.00751354 9:3.80821 0:0 
-0.2603 1:0.257865 2:0.21638 3:0.0206015 4:0.287102 5:0.8201 6:0.158603 7:0.158603 8:0.0174514 9:3.0806 0:0 
0.2603 1:0.314883 2:0.254614 3:0.0284514 4:0.218832 5:0.922278 6:0.20759 7:0.20759 8:0.00696381 9:1.91902 0:0 
0.1270064013256293 1:0.292675 2:0.251053 3:0.0320435 4:0.229693 5:0.933892 6:0.193368 7:0.193368 8:0.00513225 9:1.75296 0:0 
0.2603 1:0.292586 2:0.242574 3:0.0362778 4:0.222611 5:0.934708 6:0.163835 7:0.163835 8:0.014429 9:1.77864 0:0 
0.2603 1:0.293887 2:0.238442 3:0.0324631 4:0.205973 5:0.936644 6:0.170824 7:0.170824 8:0.00513225 9:1.69435 0:0 
0.2603 1:0.288375 2:0.242882 3:0.0335693 4:0.209344 5:0.926893 6:0.184649 7:0.184649 8:0.00877878 9:1.70248 0:0 
0.2603 1:0.287802 2:0.226906 3:0.0256815 4:0.193703 5:0.907988 6:0.156929 7:0.156929 8:0.00894915 9:1.46896 0:0 
0.2603 1:0.269164 2:0.203969 3:0.0263405 4:0.185909 5:0.909164 6:0.127208 7:0.127208 8:0.0153134 9:3.95263 0:0 
0.2603 1:0.251437 2:0.233212 3:0.0210852 4:0.18517 5:0.897344 6:0.13178 7:0.13178 8:0.0119958 9:3.86872 0:0 
0.2603 1:0.247901 2:0.229017 3:0.0182873 4:0.17734 5:0.899179 6:0.127053 7:0.127053 8:0.00536274 9:3.8253 0:0 
0.2603 1:0.24861 2:0.223739 3:0.0254946 4:0.193044 5:0.900649 6:0.132079 7:0.132079 8:0.00887761 9:3.03275 0:0 
0.2603 1:0.198895 2:0.228978 3:0.0276642 4:0.469238 5:0.906617 6:0.28474 7:0.28474 8:0.0238775 9:3.48407 0:0 
-0.0577510333539475 1:0.222495 2:0.195002 3:0.0246811 4:1.57772 5:0.821159 6:0.572781 7:0.572781 8:0.0314556 9:1.37684 0:0 
0.08631947215554854 1:1.25503 2:0.898241 3:0.0926593 4:1.1189 5:0.799038 6:0.809024 7:0.809024 8:0.0348022 9:2.29546 0:0 
0.002683609123331983 1:1.39744 2:0.902551 3:0.0926341 4:0.266801 5:0.707967 6:0.606919 7:0.606919 8:0.0624429 9:2.64115 0:0 
0.2603 1:0.992545 2:0.736108 3:0.116994 4:0.836658 5:0.835937 6:0.527531 7:0.527531 8:0.0325698 9:3.13465 0:0 
0.2603 1:0.997964 2:0.742077 3:0.114116 4:0.831776 5:0.844856 6:0.536785 7:0.536785 8:0.0266811 9:3.04159 0:0 
0.2603 1:0.973981 2:0.758238 3:0.109234 4:0.829911 5:0.84214 6:0.5382 7:0.5382 8:0.0269133 9:3.04791 0:0 
0.2603 1:1.12233 2:0.706352 3:0.144455 4:1.09717 5:0.809003 6:0.645213 7:0.645213 8:0.000601717 9:2.76463 0:0 
0.111316475151778 1:1.05794 2:0.674214 3:0.125421 4:1.36918 5:0.806866 6:0.706118 7:0.706118 8:0.0120266 9:2.81693 0:0 
0.1926526781231582 1:1.0372 2:0.694599 3:0.089169 4:1.37315 5:0.759585 6:0.628024 7:0.628024 8:0.0282063 9:2.23938 0:0 
0.02227474733817115 1:1.6522 2:1.66402 3:0.0693916 4:1.16179 5:0.736587 6:2.20506 7:2.20506 8:0.00568169 9:5.09912 0:0 
0.0004779586703755134 1:1.08628 2:1.04629 3:0.059283 4:0.933562 5:0.746987 6:0.861673 7:0.861673 8:0.00950787 9:5.03932 0:0 
0.2603 1:0.976467 2:0.971258 3:0.052948 4:0.697 5:0.868116 6:0.880344 7:0.880344 8:0.010365 9:5.11621 0:0 
0.00131468988550619 1:2.46039 2:1.43137 3:0.0803593 4:0.842121 5:0.702652 6:2.0583 7:2.0583 8:0.0041191 9:5.1211 0:0 
0.01993178801426086 1:2.48477 2:1.42156 3:0.0837461 4:0.846276 5:0.67227 6:1.4248 7:1.4248 8:0.00429417 9:2.85965 0:0 
0.02283459806990217 1:2.50366 2:1.4215 3:0.102449 4:0.755242 5:0.650041 6:2.06858 7:2.06858 8:0.00148009 9:5.129 0:0 
0.01328428644900407 1:2.50737 2:1.42884 3:0.0952686 4:0.631165 5:0.602118 6:1.6148 7:1.6148 8:0.00790991 9:3.19567 0:0 
0.08778983790942259 1:0.988968 2:0.878635 3:0.0698785 4:0.534887 5:0.63611 6:0.361976 7:0.361976 8:0.00416775 9:3.00705 0:0 
0.07102361619263867 1:1.03413 2:1.01945 3:0.038147 4:0.901843 5:0.800542 6:0.774828 7:0.774828 8:0.0120741 9:4.70855 0:0 
0.1290226647185697 1:1.15979 2:0.828362 3:0.0422287 4:0.92861 5:0.763067 6:0.73525 7:0.73525 8:0.0182061 9:4.74249 0:0 
0.01106679283418266 1:1.30069 2:0.853487 3:0.046196 4:0.69291 5:0.795099 6:0.818821 7:0.818821 8:0.0225836 9:4.97923 0:0 
0.06740519437595818 1:1.27855 2:0.825671 3:0.0368053 4:0.434591 5:0.820772 6:0.659612 7:0.659612 8:0.0193527 9:5.122 0:0 
0.2339113547565341 1:1.14741 2:0.833204 3:0.0944793 4:0.486004 5:0.779128 6:0.653649 7:0.653649 8:0.0197917 9:2.70218 0:0 
-0.05374732723321618 1:0.273527 2:0.233812 3:0.0458527 4:1.05066 5:0.771147 6:0.514583 7:0.514583 8:0.0314165 9:2.04427 0:0 
-0.03724273628506811 1:0.343189 2:0.41293 3:0.021553 4:0.447938 5:0.832356 6:2.07356 7:2.07356 8:0.0613007 9:3.8253 0:0 
-0.1156140162170022 1:0.260668 2:0.228964 3:0.00221252 4:0.123519 5:0.867186 6:0.133046 7:0.133046 8:0.0380749 9:1.52485 0:0 
-0.2603 1:0.109132 2:0.432629 3:0.00984192 4:0.716871 5:0.937496 6:0.520659 7:0.520659 8:0.00252559 9:4.50607 0:0 
-0.06163035341746211 1:0.736168 2:0.846002 3:0.0517257 4:0.418267 5:0.818757 6:0.790397 7:0.790397 8:0.00691542 9:3.26981 0:0 
-0.2603 1:0 2:0 3:0 4:0.329861 5:0.64478 6:0.0748698 7:0.0748698 8:0.0605595 9:1.80521 0:0 
-0.2570056518075884 1:0.248082 2:0.377403 3:0.0112915 4:0.509645 5:0.858611 6:0.125102 7:0.125102 8:0.00318378 9:2.49931 0:0 
-0.0008489185246677199 1:0.752216 2:0.518969 3:0.0974499 4:1.89618 5:0.84391 6:0.357682 7:0.357682 8:0.00470561 9:2.61487 0:0 
-0.2603 1:0.0175181 2:0.0970142 3:0.0069809 4:0.365892 5:0.91308 6:0.222632 7:0.222632 8:0.151906 9:3.86723 0:0 
-0.2369075683814887 1:0.278076 2:0.238336 3:0.068512 4:0.773574 5:0.694271 6:0.263142 7:0.263142 8:0.0213779 9:4.67187 0:0 
-0.2603 1:0.173267 2:0.175826 3:0.00965118 4:0.351031 5:0.812378 6:0.176807 7:0.176807 8:0.00958975 9:3.34561 0:0 
-0.2603 1:0.13831 2:0.153641 3:0.00732422 4:0.320727 5:0.839935 6:0.152098 7:0.152098 8:0.00467968 9:3.42887 0:0 
0.1132403689410591 1:0.914194 2:0.659071 3:0.10565 4:0.648666 5:0.837822 6:0.639594 7:0.639594 8:0.0358828 9:2.09174 0:0 
-0.2603 1:0 2:0 3:0 4:0.12168 5:0.81668 6:0.0426033 7:0.0426033 8:0.120173 9:2.92822 0:0 
-0.02543948679660252 1:0.182315 2:0.182298 3:0.0501251 4:2.07371 5:0.72919 6:0.678406 7:0.678406 8:0.0460759 9:2.16224 0:0 
0.03825580631223947 1:1.09963 2:0.878688 3:0.104509 4:1.69854 5:0.763879 6:0.939354 7:0.939354 8:0.0314165 9:1.87692 0:0 
0.04320157046596008 1:0.974475 2:0.8337 3:0.0894874 4:1.49892 5:0.681118 6:0.910514 7:0.910514 8:0.00336785 9:1.69406 0:0 
-0.2603 1:0.154254 2:0.151886 3:0.00976563 4:0.38736 5:0.840234 6:0.199413 7:0.199413 8:0.000783315 9:3.29223 0:0 
-0.2603 1:0.142252 2:0.133459 3:0.0111008 4:0.415525 5:0.855659 6:0.173597 7:0.173597 8:0.0248321 9:3.4071 0:0 
0.2603 1:1.13158 2:0.740411 3:0.0785179 4:0.971118 5:0.775316 6:0.724344 7:0.724344 8:0.00633328 9:1.76819 0:0 
0.03508030480140605 1:1.14564 2:0.739304 3:0.0670337 4:0.870588 5:0.753794 6:0.664637 7:0.664637 8:0.0103156 9:1.84879 0:0 
0.1426558366085411 1:1.10203 2:0.733704 3:0.0434101 4:0.571139 5:0.78122 6:0.529846 7:0.529846 8:0.0118553 9:1.65163 0:0 
-0.2603 1:0.129898 2:0.141715 3:0.00762939 4:0.381739 5:0.803604 6:0.176988 7:0.176988 8:0.000683146 9:3.40934 0:0 
0.1291467472073585 1:1.16465 2:0.738603 3:0.0501931 4:0.66956 5:0.719086 6:0.560411 7:0.560411 8:0.00396116 9:4.92598 0:0 
0.0105887268643196 1:1.89786 2:1.58137 3:0.117464 4:0.469742 5:0.678651 6:1.69831 7:1.69831 8:0.00783932 9:5.09338 0:0 
-0.0218538716569075 1:0.0857607 2:0.0984425 3:0.00411987 4:0.18626 5:0.842186 6:0.0911877 7:0.0911877 8:1 9:3.38351 0:0 
0.003672170157595429 1:2.0549 2:1.29477 3:0.127027 4:0.367762 5:0.710401 6:1.63974 7:1.63974 8:0.00445356 9:4.91816 0:0 
0.1277625937784331 1:0.891196 2:0.448461 3:0.113677 4:0.345529 5:0.682834 6:0.431345 7:0.431345 8:0.00225737 9:4.23115 0:0 
0.07267433980486289 1:0.729549 2:0.529883 3:0.0896971 4:0.437522 5:0.699752 6:0.430066 7:0.430066 8:0.184973 9:4.13703 0:0 
0.02639791547384607 1:2.04981 2:0.807405 3:0.0773619 4:0.463031 5:0.693678 6:1.50703 7:1.50703 8:0.00457914 9:4.55085 0:0 
0.2603 1:0.736045 2:0.548073 3:0.0864395 4:0.407892 5:0.692987 6:0.430872 7:0.430872 8:0.00294494 9:4.7088 0:0 
0.2603 1:0.698427 2:0.580476 3:0.0567627 4:0.310119 5:0.845794 6:0.427105 7:0.427105 8:0.00203618 9:5.06631 0:0 
0.2603 1:0.385587 2:0.395037 3:0.0319231 4:0.68601 5:0.686716 6:0.365624 7:0.365624 8:0.00543908 9:2.2934 0:0 
0.2243205604897027 1:0.455054 2:0.417553 3:0.0390133 4:0.65726 5:0.779215 6:0.423163 7:0.423163 8:0.0353454 9:2.09257 0:0 
-0.07449026501585584 1:0.148646 2:0.136295 3:0.00770569 4:0.387113 5:0.839942 6:0.201225 7:0.201225 8:1 9:3.32376 0:0 
0.2012326743399951 1:0.629106 2:0.388747 3:0.0900569 4:0.859483 5:0.75847 6:0.438967 7:0.438967 8:0.0162667 9:1.81577 0:0 
0.2603 1:0.611418 2:0.402269 3:0.100118 4:0.778745 5:0.749679 6:0.378682 7:0.378682 8:0.0335965 9:1.73915 0:0 
-0.01120350533605037 1:1.20218 2:0.597983 3:0.271223 4:0.689056 5:0.960277 6:0.548364 7:0.548364 8:0.00515262 9:1.2454 0:0 
-0.2603 1:0 2:0 3:0 4:0.359445 5:0.783847 6:0.117811 7:0.117811 8:0.0348022 9:1.32732 0:0 
-0.03283703820934417 1:0 2:0 3:0 4:0.637255 5:0.662557 6:1.34509 7:1.34509 8:0.00815465 9:4.04275 0:0 
0.2603 1:0.0871792 2:0.232843 3:0.0150681 4:0.644967 5:0.848081 6:0.319319 7:0.319319 8:0.0198154 9:4.34448 0:0 
0.0874671209434259 1:0.010863 2:0.055994 3:0.00339508 4:1.11166 5:0.802011 6:0.245811 7:0.245811 8:0.0046023 9:2.24028 0:0 
0.08782776797949618 1:0.0341796 2:0.124233 3:0.0112152 4:1.27522 5:0.853991 6:0.183442 7:0.183442 8:0.00415139 9:3.5028 0:0 
-0.2603 1:0.00952963 2:0.248077 3:0 4:0.523427 5:0.903578 6:0.254929 7:0.254929 8:0.00465403 9:4.71897 0:0 
0.003615952830580752 1:0.300572 2:0.570987 3:0.0268555 4:0.609721 5:0.829537 6:0.453838 7:0.453838 8:1 9:3.34142 0:0 
-0.05202361281456038 1:0.601435 2:0.32709 3:0.04326 4:0.231534 5:0.808182 6:0.257062 7:0.257062 8:0.000899171 9:5.04411 0:0 
-0.2603 1:0.231294 2:0.273344 3:0.0291443 4:0.536103 5:0.693754 6:0.388415 7:0.388415 8:0.00226271 9:4.14907 0:0 
-0.2603 1:0 2:0 3:0 4:0.247356 5:0.710031 6:0.127519 7:0.127519 8:0.0225836 9:3.52991 0:0 
-0.01182076842842905 1:0.25524 2:0.424566 3:0.00293732 4:0.914585 5:0.494303 6:2.48654 7:2.48654 8:0.0141392 9:2.49146 0:0 
-0.04509695712599656 1:0.159606 2:0.151455 3:0.00789642 4:0.35804 5:0.730801 6:0.145345 7:0.145345 8:0.000751383 9:1.39713 0:0 
-0.2603 1:0 2:0 3:0 4:0.310069 5:0.824061 6:0.122348 7:0.122348 8:0.0286246 9:3.71058 0:0 
-0.06158816071116673 1:0 2:0 3:0 4:0.46038 5:0.61756 6:0.0498512 7:0.0498512 8:0.0404452 9:4.98912 0:0 
0.01831108810590754 1:0.747564 2:0.724843 3:0.0478745 4:1.39451 5:0.673058 6:2.50309 7:2.50309 8:0.00959255 9:1.28596 0:0 
0.02971442788712834 1:0.0491534 2:0.134863 3:0.00534058 4:0.577361 5:0.210275 6:2.33672 7:2.33672 8:0.00356833 9:4.84494 0:0 
0.2603 1:0.0793426 2:0.229059 3:0.0164032 4:0.977092 5:0.697431 6:0.529814 7:0.529814 8:0.00166396 9:4.0631 0:0 
0.06285783157985431 1:0.107537 2:0.211471 3:0.00896454 4:0.838608 5:0.864894 6:0.111675 7:0.111675 8:0.0106572 9:2.63449 0:0 
0.02214459890232911 1:0.751509 2:0.426983 3:0.033493 4:0.913679 5:0.114393 6:2.37221 7:2.37221 8:0.0665625 9:4.99618 0:0 
0.2603 1:0.315703 2:0.256652 3:0.0273514 4:0.889124 5:0.870643 6:0.313496 7:0.313496 8:0.00722934 9:3.29541 0:0 
0.03747536342883107 1:0.317934 2:0.445001 3:0.0325394 4:1.45471 5:0.707376 6:0.362711 7:0.362711 8:0.00284175 9:3.08478 0:0 
0.1555808277059181 1:0.410956 2:0.322174 3:0.0444574 4:1.18298 5:0.753825 6:0.341792 7:0.341792 8:0.00284218 9:4.48384 0:0 
0.05544821295377414 1:0.556921 2:0.457633 3:0.0559628 4:1.15758 5:0.790714 6:0.465371 7:0.465371 8:0.319258 9:3.97413 0:0 
-0.2185286219211277 1:0 2:0 3:0 4:0.528743 5:0.879334 6:0.156395 7:0.156395 8:0.0305567 9:2.96983 0:0 
0.2603 1:0.00731148 2:0.0400626 3:0.00343323 4:0.530388 5:0.807264 6:0.167405 7:0.167405 8:0.00992633 9:2.12053 0:0 
-0.2603 1:0 2:0 3:0 4:0.507213 5:0.688263 6:0.284961 7:0.284961 8:0.0610865 9:2.82718 0:0 
0.2603 1:0.0535416 2:0.15993 3:0.00953674 4:0.458924 5:0.837462 6:0.277911 7:0.277911 8:0.00388106 9:5.086 0:0 
0.08966885983611619 1:0.0182566 2:0.0716314 3:0.00881195 4:1.20567 5:0.664118 6:0.269578 7:0.269578 8:0.00392427 9:4.71239 0:0 
-0.01121073726444745 1:1.75195 2:0.939646 3:0.0107574 4:1.59895 5:0.405271 6:0.951828 7:0.951828 8:0.000730063 9:3.88354 0:0 
0.2603 1:0.0580282 2:0.167398 3:0.0175476 4:0.412206 5:0.794691 6:0.205773 7:0.205773 8:0.00199766 9:4.81126 0:0 
-0.001062857794160055 1:0.0673639 2:0.168936 3:0.00270844 4:1.93529 5:0.773089 6:0.10144 7:0.10144 8:0.102242 9:3.70019 0:0 
-0.2169279066954449 1:0.214158 2:0.256157 3:0.0245667 4:0.522526 5:0.865188 6:0.300506 7:0.300506 8:0.00907511 9:4.30897 0:0 
0.2603 1:0.105518 2:0.262737 3:0.0170898 4:0.509139 5:0.891435 6:0.231898 7:0.231898 8:0.0343998 9:3.62631 0:0 
0.05662576073107686 1:0.367083 2:0.600747 3:0.0507363 4:0.883143 5:0.603351 6:1.11288 7:1.11288 8:0.00264123 9:4.30492 0:0 
0.2603 1:0.0336024 2:0.111463 3:0.00835419 4:0.839446 5:0.798868 6:0.243133 7:0.243133 8:0.0113025 9:3.09651 0:0 
0.2603 1:0.150709 2:0.325159 3:0.0200653 4:0.79109 5:0.852604 6:0.326969 7:0.326969 8:0.135123 9:3.32592 0:0 
0.2603 1:0.140452 2:0.305305 3:0.0168991 4:0.788299 5:0.835139 6:0.325839 7:0.325839 8:0.0884956 9:3.2188 0:0 
0.150362105917277 1:0.141675 2:0.306092 3:0.0180054 4:0.792418 5:0.836301 6:0.336441 7:0.336441 8:0.00647698 9:3.51045 0:0 
0.2603 1:0.050536 2:0.169176 3:0.00934601 4:0.393462 5:0.851171 6:0.148599 7:0.148599 8:0.048482 9:3.71605 0:0 
0.2603 1:0.0116733 2:0.0569045 3:0.00385284 4:0.661513 5:0.841087 6:0.221758 7:0.221758 8:0.0122069 9:3.50474 0:0 
0.2603 1:0.00513432 2:0.0371297 3:0.00278473 4:0.7997 5:0.819967 6:0.210553 7:0.210553 8:0.0126594 9:2.79181 0:0 
0.2603 1:0.0137635 2:0.0697005 3:0.00511169 4:0.835655 5:0.825929 6:0.19242 7:0.19242 8:0.00933389 9:1.35564 0:0 
0.2603 1:0.0200649 2:0.0860061 3:0.00534058 4:0.790466 5:0.824491 6:0.184796 7:0.184796 8:0.00458795 9:1.25096 0:0 
0.2603 1:0.0102487 2:0.0501946 3:0.00385284 4:0.944109 5:0.840505 6:0.249652 7:0.249652 8:0.0814385 9:3.51708 0:0 
-0.02851102472929731 1:0.0581667 2:0.0615574 3:0.00541687 4:1.11998 5:0.793824 6:0.398181 7:0.398181 8:0.0118553 9:2.68266 0:0 
-0.2603 1:0.0488958 2:0.0552089 3:0.00495911 4:0.917981 5:0.817577 6:0.26301 7:0.26301 8:0.00940237 9:2.61174 0:0 
-0.02049600816903106 1:0.222046 2:0.727814 3:0.0030899 4:0.658962 5:0.926962 6:0.0197906 7:0.0197906 8:1 9:2.79476 0:0 
-0.2192950598808622 1:0.0940949 2:0.0915347 3:0.00675201 4:1.1505 5:0.632194 6:0.433992 7:0.433992 8:0.0115337 9:2.62124 0:0 
-0.002680273042826724 1:2.38415 2:1.87716 3:0.00282288 4:0.722395 5:0.267924 6:1.57792 7:1.57792 8:0.00517135 9:3.6959 0:0 
-0.02067089059845392 1:0.653475 2:0.542571 3:0.0251007 4:1.77318 5:0.89254 6:0.352133 7:0.352133 8:0.00348459 9:4.72814 0:0 
0.001990062556895095 1:1.33646 2:0.847661 3:0.0507224 4:0.785289 5:0.668721 6:0.664027 7:0.664027 8:0.139465 9:3.41151 0:0 
0.02474964037998014 1:0.160707 2:0.503316 3:0.00495911 4:1.13813 5:0.820791 6:2.61223 7:2.61223 8:0.0121464 9:4.94537 0:0 
-0.04132551126062543 1:0.0274571 2:0.372173 3:0 4:0.622489 5:0.885417 6:0.123821 7:0.123821 8:0.00333325 9:3.09344 0:0 
0.2603 1:0.00461356 2:0.0369701 3:0.00164032 4:0.533948 5:0.863119 6:0.230682 7:0.230682 8:0.0235389 9:3.54797 0:0 
0.2603 1:0.00373007 2:0.0328211 3:0.00160217 4:0.556987 5:0.869846 6:0.222775 7:0.222775 8:0.00681845 9:3.65301 0:0 
0.2603 1:0.00664745 2:0.0497753 3:0.00278473 4:0.531536 5:0.857164 6:0.196186 7:0.196186 8:0.0487173 9:3.47918 0:0 
0.2603 1:0.743851 2:0.576388 3:0.0655895 4:0.470813 5:0.591661 6:0.323778 7:0.323778 8:0.0180679 9:2.07129 0:0 
-0.2603 1:0 2:0 3:0 4:0.334743 5:0.628441 6:0.15905 7:0.15905 8:0.0197917 9:3.44848 0:0 
0.2603 1:0 2:0 3:0 4:0.397072 5:0.637019 6:0.224985 7:0.224985 8:1 9:3.33512 0:0 
0.1550054005050174 1:0.00321731 2:0.0378781 3:0.000495911 4:0.468208 5:0.583473 6:0.277086 7:0.277086 8:1 9:3.26055 0:0 
0.2603 1:0.00156505 2:0.0190588 3:0.000457764 4:0.409755 5:0.630895 6:0.155995 7:0.155995 8:0.024924 9:2.47943 0:0 
-0.2603 1:0.00820964 2:0.0595075 3:0.00106812 4:0.50506 5:0.767941 6:0.24642 7:0.24642 8:0.108203 9:3.29585 0:0 
-0.2603 1:0.0114368 2:0.0707428 3:0.00350952 4:0.473523 5:0.835156 6:0.200903 7:0.200903 8:0.0186541 9:3.29564 0:0 
-0.2603 1:0.0406365 2:0.181679 3:0.00335693 4:0.506865 5:0.809886 6:0.268008 7:0.268008 8:1 9:3.30533 0:0 
-0.2603 1:0.0511685 2:0.215156 3:0.00244141 4:0.500401 5:0.817449 6:0.284292 7:0.284292 8:0.0296972 9:3.28836 0:0 
-0.2603 1:0.0413894 2:0.198186 3:0.00183105 4:0.437217 5:0.792807 6:0.290596 7:0.290596 8:0.00831064 9:3.24294 0:0 
-0.2603 1:0.0434828 2:0.192493 3:0.00225067 4:0.422863 5:0.847555 6:0.251519 7:0.251519 8:0.0607461 9:3.1914 0:0 
-0.2603 1:0.0466931 2:0.199496 3:0.0025177 4:0.44105 5:0.850832 6:0.257785 7:0.257785 8:0.0078402 9:3.2007 0:0 
-0.2603 1:0.0401824 2:0.18044 3:0.00175476 4:0.410698 5:0.820906 6:0.254568 7:0.254568 8:0.0149614 9:3.22883 0:0 
-0.2603 1:0.0232373 2:0.134017 3:0.00209808 4:0.378645 5:0.775749 6:0.22936 7:0.22936 8:0.0110998 9:3.20684 0:0 
-0.2603 1:0.0217822 2:0.114042 3:0.00225067 4:0.365351 5:0.79006 6:0.17746 7:0.17746 8:0.00274083 9:3.1896 0:0 
-0.2603 1:0.0192194 2:0.102954 3:0.00198364 4:0.366979 5:0.816548 6:0.186912 7:0.186912 8:0.00581461 9:3.2286 0:0 
-0.2603 1:0.0161365 2:0.0894171 3:0.00221252 4:0.339144 5:0.82457 6:0.14721 7:0.14721 8:0.0117303 9:3.25156 0:0 
-0.2603 1:0.0117649 2:0.07019 3:0.000991821 4:0.328606 5:0.830392 6:0.114743 7:0.114743 8:0.00986707 9:3.28395 0:0 
-0.1930601881709964 1:0.00495858 2:0.0375516 3:0.00102997 4:0.356834 5:0.804568 6:0.124341 7:0.124341 8:1 9:3.02766 0:0 
-0.2603 1:0.0146831 2:0.0921147 3:0.00175476 4:0.531853 5:0.740601 6:0.211021 7:0.211021 8:0.208293 9:3.42622 0:0 
-0.1760595126699689 1:0 2:0 3:0 4:0.569083 5:0.607015 6:0.116266 7:0.116266 8:1 9:3.26681 0:0 
-0.2603 1:0.0017376 2:0.0179333 3:0.000190735 4:0.715419 5:0.626228 6:0.175513 7:0.175513 8:0.0236966 9:3.4142 0:0 
-0.1484400062992849 1:0.294718 2:0.234039 3:0.00946045 4:0.155807 5:0.930824 6:0.105188 7:0.105188 8:0.00392895 9:1.58966 0:0 
-0.2603 1:0.00452805 2:0.038163 3:0.000495911 4:0.52807 5:0.728326 6:0.180392 7:0.180392 8:1 9:3.36809 0:0 
-0.2603 1:0.0200768 2:0.120213 3:0.00171661 4:0.350156 5:0.778268 6:0.211174 7:0.211174 8:0.00266133 9:3.30863 0:0 
-0.2603 1:0.0489202 2:0.205454 3:0.00297546 4:0.369265 5:0.817953 6:0.251769 7:0.251769 8:0.0923371 9:3.29404 0:0 
-0.2603 1:0.0277168 2:0.154676 3:0.00282288 4:0.372556 5:0.759623 6:0.25954 7:0.25954 8:0.00628791 9:3.24074 0:0 
-0.13019594370618 1:0.425168 2:0.338549 3:0.00694275 4:0.173207 5:0.888216 6:0.251768 7:0.251768 8:0.314031 9:3.87064 0:0 
-0.1397226577378749 1:0.276591 2:0.385764 3:0.0144196 4:0.444805 5:0.855605 6:0.195401 7:0.195401 8:0.00103186 9:3.66139 0:0 
-0.2603 1:0.233588 2:0.402679 3:0.0222397 4:0.508792 5:0.895984 6:0.265354 7:0.265354 8:0.00179716 9:3.61001 0:0 
-0.008812660059345117 1:0.214934 2:0.403841 3:0.0195694 4:0.502333 5:0.909013 6:0.259727 7:0.259727 8:0.010365 9:3.73168 0:0 
-0.2603 1:0.395457 2:0.603759 3:0.0560145 4:0.441144 5:0.927846 6:0.438839 7:0.438839 8:0.0540398 9:3.8019 0:0 
-0.004608576676675928 1:0.14557 2:0.470789 3:0 4:0.787279 5:0.889678 6:0.0660416 7:0.0660416 8:1 9:3.57555 0:0 
-0.2603 1:0.448188 2:0.660897 3:0.0603579 4:0.427852 5:0.940558 6:0.474498 7:0.474498 8:0.0108124 9:3.84628 0:0 
-0.0711820873688605 1:0.281159 2:0.570541 3:0.00225067 4:1.365 5:0.866506 6:0.129186 7:0.129186 8:0.0548523 9:3.70729 0:0 
-0.002849235886232608 1:0.423017 2:0.937429 3:0.00282288 4:1.94005 5:0.475266 6:1.66147 7:1.66147 8:0.0935835 9:1.94251 0:0 
-0.2603 1:0 2:0 3:0 4:0.35577 5:0.88134 6:0.139049 7:0.139049 8:0.0592939 9:3.08032 0:0 
-0.01299105848495072 1:0.00657406 2:0.22764 3:0 4:0.364278 5:0.725463 6:1.97167 7:1.97167 8:0.112543 9:4.29076 0:0 
-0.2603 1:0 2:0 3:0 4:0.295447 5:0.817977 6:0.09928 7:0.09928 8:0.0187294 9:3.79364 0:0 
-0.001439989037299486 1:0.693339 2:1.79517 3:0 4:0.635181 5:0.580396 6:2.15327 7:2.15327 8:0.00993426 9:3.85022 0:0 
-0.1031388032212944 1:1.2618 2:1.04799 3:0.0260925 4:0.576222 5:0.957255 6:0.576847 7:0.576847 8:0.0644405 9:4.99844 0:0 
-0.01687896517152062 1:1.43391 2:1.12989 3:0.0253677 4:0.712833 5:0.905319 6:0.633723 7:0.633723 8:0.0132323 9:1.54799 0:0 
-0.06661085502492257 1:1.46955 2:0.984976 3:0.0259781 4:0.642706 5:0.590881 6:0.669418 7:0.669418 8:0.0551534 9:4.77009 0:0 
-0.2603 1:0 2:0 3:0 4:0.60994 5:0.728522 6:0.201175 7:0.201175 8:0.0043238 9:4.5658 0:0 
-0.2603 1:0 2:0 3:0 4:0.457258 5:0.716792 6:0.180302 7:0.180302 8:0.00656388 9:2.39663 0:0 
-0.1448577414926563 1:0.273138 2:0.236816 3:0.00267029 4:0.0855569 5:0.925593 6:0.0820642 7:0.0820642 8:0.00799268 9:1.70461 0:0 
-0.1410457061401812 1:0.918395 2:0.752236 3:0.00270844 4:0.454943 5:0.724427 6:0.562884 7:0.562884 8:0.0181841 9:4.64796 0:0 
-0.2168965613740589 1:1.04982 2:0.883043 3:0.0497818 4:0.909158 5:0.729519 6:0.77396 7:0.77396 8:0.00617767 9:1.87172 0:0 
-0.06698685771111317 1:0.986136 2:1.03626 3:0.00354767 4:1.07259 5:0.773894 6:0.155162 7:0.155162 8:0.0860104 9:2.05527 0:0 
-0.0001773275201795991 1:1.3006 2:1.36079 3:0.00476837 4:0.815783 5:0.718887 6:2.77067 7:2.77067 8:0.012946 9:4.05875 0:0 
-0.0006862972697225251 1:0.333567 2:0.630977 3:0.0215888 4:1.68685 5:0.652978 6:1.00934 7:1.00934 8:0.00654814 9:4.75158 0:0 
-0.2603 1:0.163456 2:0.452351 3:0.0109251 4:1.08855 5:0.807608 6:0.198952 7:0.198952 8:0.0141833 9:2.99193 0:0 
-0.005215320285122741 1:0.140658 2:0.42769 3:0.00868249 4:1.06499 5:0.540464 6:0.164666 7:0.164666 8:0.0236966 9:1.76459 0:0 
-0.05256707437488916 1:0.134143 2:0.422505 3:0.00704681 4:1.08768 5:0.820851 6:0.166089 7:0.166089 8:0.0248518 9:1.68791 0:0 
