svm_type epsilon_svr
kernel_type rbf
gamma 1.8493
nr_class 2
total_sv 888
rho 0.00154735
SV
-0.002067816408088151 1:0.455339 2:0.350378 3:0.0183487 4:0.347329 5:0.786347 6:0.138809 7:0.13078 8:0.235794 9:0.16643 10:0.339728 11:3.79977 12:5.4175 13:0.407505 14:0.407505 15:0.282146 16:0.282146 17:0.137409 18:0.152306 19:0.252728 20:0.153657 21:0.400801 22:2.52657 23:1.11419 24:0.407505 25:0.407505 26:0.282146 27:0.282146 0:0 
0.01327809906990943 1:0 2:0 3:0 4:0.45143 5:0.763713 6:0.0814076 7:0.0902797 8:0.171687 9:0 10:0.856231 11:3.38008 12:3.24251 13:0.0234501 14:0.0234501 15:0 16:0 17:0.0579575 18:0.0902797 19:0.148237 20:0 21:0.724116 22:2.89661 23:3.24251 24:0.0234501 25:0.0234501 26:0 27:0 0:0 
-0.002600735570597537 1:0.290211 2:0.234868 3:0.0139841 4:0.424312 5:0.780589 6:0.0971839 7:0.101447 8:0.162991 9:0.188947 10:0.329674 11:4.45068 12:3.18157 13:0.053376 14:0.053376 15:0 16:0 17:0.0624317 18:0.101447 19:0.154761 20:0.0827595 21:0.694588 22:3.66074 23:3.18157 24:0.053376 25:0.053376 26:0 27:0 0:0 
0.003735118277693177 1:0 2:0 3:0 4:1.0028 5:0.797098 6:0.115741 7:0.0821155 8:0.033626 9:1 10:0.504715 11:3.9899 12:3.14159 13:0.118878 14:0.118878 15:0 16:0 17:0.23462 18:0.0821155 19:0.152504 20:1 21:0.976637 22:3.16861 23:3.14159 24:0.118878 25:0.118878 26:0 27:0 0:0 
0.01598961765169095 1:0.00761162 2:0.0533717 3:0.00179291 4:0.263358 5:0.78688 6:0.0673291 7:0.0536276 8:0.120957 9:0 10:0.403024 11:4.00063 12:3.21023 13:0.0907361 14:0.0907361 15:0 16:0 17:0.134888 18:0.0536276 19:0.180598 20:0.148616 21:0.938897 22:3.29959 23:3.21023 24:0.0907361 25:0.0907361 26:0 27:0 0:0 
-0.009720620082525845 1:0.21116 2:0.173669 3:0.00720978 4:0.230169 5:0.851103 6:0.0849512 7:0.0332312 8:0.0640547 9:0.656466 10:0.569201 11:5.01373 12:4.02666 13:0.15834 14:0.15834 15:0 16:0 17:0.0749608 18:0.0332312 19:0.105917 20:0.0987298 21:0.958226 22:3.9344 23:4.02666 24:0.15834 25:0.15834 26:0 27:0 0:0 
-0.003685294216778171 1:0.434287 2:0.467931 3:0.0167465 4:0.349446 5:0.842619 6:0.0563761 7:0.176512 8:0.22666 9:0.041021 10:0.992983 11:3.72278 12:3.71797 13:0.262093 14:0.262093 15:0 16:0 17:0.249344 18:0.176512 19:0.198018 20:0.462597 21:0.469091 22:2.66705 23:3.71797 24:0.262093 25:0.262093 26:0 27:0 0:0 
-0.0005700211132449029 1:0.47619 2:0.362716 3:0.0313188 4:0.353043 5:0.905057 6:0.129155 7:0.136013 8:0.164923 9:0.276104 10:0.475372 11:2.49345 12:3.16962 13:0.0660428 14:0.0660428 15:0.122459 16:0.122459 17:0.0620021 18:0.162662 19:0.216289 20:0.0528711 21:0.739156 22:2.08494 23:2.40878 24:0.0660428 25:0.0660428 26:0.122459 27:0.122459 0:0 
-0.006416492597979513 1:0.497038 2:0.446662 3:0.0190735 4:0.383093 5:0.87205 6:0.0555717 7:0.184845 8:0.236199 9:0.0323677 10:0.988288 11:3.71065 12:3.70322 13:0.299633 14:0.299633 15:0 16:0 17:0.283505 18:0.184845 19:0.226465 20:0.480678 21:0.475444 22:2.6906 23:3.70322 24:0.299633 25:0.299633 26:0 27:0 0:0 
-0.006096379984474 1:0.554066 2:0.404536 3:0.0365233 4:0.538122 5:0.888356 6:0.211972 7:0.117171 8:0.324009 9:0.0759246 10:0.996249 11:3.29626 12:3.30094 13:0.17452 14:0.17452 15:0 16:0 17:0.151175 18:0.117171 19:0.214013 20:0.238909 21:0.836203 22:3.11286 23:3.30094 24:0.17452 25:0.17452 26:0 27:0 0:0 
-0.003676853689272076 1:0.577407 2:0.426009 3:0.0407105 4:0.333828 5:0.91866 6:0.0880147 7:0.281813 8:0.367002 9:0.0219003 10:0.597131 11:4.63994 12:4.17197 13:0.401368 14:0.401368 15:0.227067 16:0.227067 17:0.111248 18:0.133078 19:0.203395 20:0.16876 21:0.795487 22:3.00579 23:3.20135 24:0.401368 25:0.401368 26:0.227067 27:0.227067 0:0 
-0.0126707447129431 1:0.530596 2:0.391442 3:0.0352762 4:0.368017 5:0.935088 6:0.211991 7:0.160134 8:0.352642 9:0.119615 10:0.955499 11:3.14159 12:3.08609 13:0.204321 14:0.204321 15:0 16:0 17:0.116018 18:0.160134 19:0.240137 20:0.137453 21:0.714303 22:2.82652 23:3.08609 24:0.204321 25:0.204321 26:0 27:0 0:0 
-0.01623397692244121 1:0.242506 2:0.420778 3:0.0211808 4:0.460934 5:0.929925 6:0.0785292 7:0.230606 8:0.302794 9:0.0372605 10:0.911015 11:3.15322 12:3.20579 13:0.106474 14:0.106474 15:0.0608283 16:0.0608283 17:0.171885 18:0.211649 19:0.378275 20:0.0475068 21:0.955556 22:2.85828 23:2.89661 24:0.106474 25:0.106474 26:0.0608283 27:0.0608283 0:0 
-0.009715806197148751 1:0.222399 2:0.42445 3:0.0178146 4:0.563305 5:0.940897 6:0.0721265 7:0.256718 8:0.328843 9:0.000566911 10:0.871633 11:3.06572 12:2.93927 13:0.0870865 14:0.0870865 15:0 16:0 17:0.159208 18:0.256718 19:0.415927 20:0 21:0.862585 22:2.82781 23:2.93927 24:0.0870865 25:0.0870865 26:0 27:0 0:0 
-0.001533382750769792 1:0.346739 2:0.304471 3:0.130653 4:0.457792 5:0.753403 6:0.0849441 7:0.217871 8:0.291186 9:0.0542805 10:0.826207 11:3.55934 12:3.78509 13:0.139943 14:0.139943 15:0.183466 16:0.183466 17:0.138355 18:0.224891 19:0.273823 20:0.167941 21:0.709408 22:1.72518 23:1.27155 24:0.139943 25:0.139943 26:0.183466 27:0.183466 0:0 
-0.03631734028962821 1:0.418502 2:0.425814 3:0.0335322 4:0.581278 5:0.943544 6:0.124695 7:0.235445 8:0.330226 9:0.0928265 10:0.898524 11:3.17032 12:3.07717 13:0.121537 14:0.121537 15:0 16:0 17:0.111145 18:0.235445 19:0.333482 20:0.0595684 21:0.82387 22:2.92881 23:3.07717 24:0.121537 25:0.121537 26:0 27:0 0:0 
-0.001749835159549757 1:0.642286 2:0.48239 3:0.134181 4:0.695052 5:0.857431 6:0.161498 7:0.33737 8:0.379341 9:0.139883 10:0.673974 11:3.38495 12:3.56917 13:0.206541 14:0.206541 15:0.245231 16:0.245231 17:0.107225 18:0.299353 19:0.378728 20:0.0682803 21:0.77486 22:3.07029 23:3.18292 24:0.206541 25:0.206541 26:0.245231 27:0.245231 0:0 
-0.001570314142829939 1:0.279846 2:0.213751 3:0.0640869 4:0.340858 5:0.637485 6:0.194652 7:0.0574735 8:0.142874 9:0.831437 10:0.575509 11:4.31312 12:5.4452 13:0.0842981 14:0.0842981 15:0.163325 16:0.163325 17:0.0839756 18:0.108152 19:0.18173 20:0.0922221 21:0.890543 22:2.66171 23:2.50002 24:0.0842981 25:0.0842981 26:0.163325 27:0.163325 0:0 
-0.001495393680112097 1:0.299362 2:0.216949 3:0.0611877 4:0.264202 5:0.659071 6:0.183703 7:0.0790365 8:0.187466 9:0.416958 10:0.518673 11:3.83938 12:4.94008 13:0 14:0 15:0.0687469 16:0.0687469 17:0.127617 18:0.0652529 19:0.187466 20:0.106243 21:0.475143 22:3.83938 23:4.5005 24:0 25:0 26:0.0687469 27:0.0687469 0:0 
-0.003683522786309444 1:0.211078 2:0.149965 3:0.0188697 4:0.183451 5:0.58001 6:0.0944836 7:0.038106 8:0.0861785 9:0.502343 10:0.752656 11:4.42481 12:5.11263 13:0.119068 14:0.119068 15:0.0439298 16:0.0439298 17:0.116163 18:0.0223138 19:0.135028 20:0.164759 21:0.686898 22:2.59909 23:1.90912 24:0.119068 25:0.119068 26:0.0439298 27:0.0439298 0:0 
-0.01279729967565951 1:0.601953 2:0.514082 3:0.0996496 4:0.601141 5:0.839842 6:0.0581968 7:0.405936 8:0.39541 9:0.0455141 10:0.688469 11:3.55499 12:3.75946 13:0.390513 14:0.390513 15:0.364616 16:0.364616 17:0.0906747 18:0.389639 19:0.463061 20:0.0398996 21:0.76089 22:2.82326 23:2.93452 24:0.390513 25:0.390513 26:0.364616 27:0.364616 0:0 
-0.001658794920033483 1:0.429063 2:0.355973 3:0.0559616 4:0.810166 5:0.92178 6:0.105276 7:0.260701 8:0.249335 9:0.131604 10:0.510239 11:3.8564 12:4.37217 13:0.415664 14:0.415664 15:0.387742 16:0.387742 17:0.133186 18:0.248496 19:0.379647 20:0.0240463 21:0.880078 22:2.47234 23:2.59104 24:0.415664 25:0.415664 26:0.387742 27:0.387742 0:0 
-0.00215264730443996 1:0 2:0 3:0 4:0.496582 5:0.824924 6:0.0704172 7:0.0555532 8:0.12597 9:0 10:0.956187 11:4.29416 12:4.34719 13:0.0693168 14:0.0693168 15:0.0919095 16:0.0919095 17:0.0930099 18:0.0363564 19:0.0566535 20:1 21:0.29316 22:4.80305 23:0.218669 24:0.0693168 25:0.0693168 26:0.0919095 27:0.0919095 0:0 
-0.007048171484094794 1:0 2:0 3:0 4:0.617699 5:0.7888 6:0.0769767 7:0.186977 8:0.263954 9:0 10:0.980456 11:4.07143 12:4.06299 13:0.011231 14:0.011231 15:0.076102 16:0.076102 17:0.141848 18:0.110875 19:0.252723 20:0 21:0.866476 22:4.18136 23:4.36774 24:0.011231 25:0.011231 26:0.076102 27:0.076102 0:0 
-0.001286410991672939 1:0.0602026 2:0.121567 3:0.00827789 4:0.7308 5:0.932339 6:0.0548059 7:0.254235 8:0.309041 9:0 10:0.833341 11:5.05893 12:5.11161 13:0.0709814 14:0.0709814 15:0.0259965 16:0.0259965 17:0.0671647 18:0.230448 19:0.280248 20:0.0565237 21:0.609025 22:4.00376 23:4.5635 24:0.0709814 25:0.0709814 26:0.0259965 27:0.0259965 0:0 
-0.0002063998086265055 1:0.0561523 2:0.10244 3:0.00423431 4:0.502933 5:0.758855 6:0.144543 7:0.0454964 8:0.190039 9:0 10:0.742712 11:5.10609 12:5.42102 13:0.176497 14:0.176497 15:0.031807 16:0.031807 17:0.0605464 18:0.0756617 19:0.0308662 20:0.276955 21:0.561632 22:4.08476 23:4.51877 24:0.176497 25:0.176497 26:0.031807 27:0.031807 0:0 
-0.001561299837745289 1:0.0676306 2:0.10941 3:0.00392914 4:0.759201 5:0.739092 6:0.0908986 7:0.142755 8:0.0681703 9:0.169657 10:0.589763 11:3.8467 12:3.30297 13:0.0614257 14:0.0614257 15:0.03637 16:0.03637 17:0.119882 18:0.106847 19:0.0464186 20:0.525719 21:0.43612 22:4.26709 23:2.96174 24:0.0614257 25:0.0614257 26:0.03637 27:0.03637 0:0 
-0.002554634731048827 1:0.0152356 2:0.114774 3:0.00343323 4:0.505016 5:0.819825 6:0.103205 7:0.239944 8:0.343149 9:0 10:0.826648 11:2.86813 12:2.7367 13:0.0100899 14:0.0100899 15:0 16:0 17:0.0931147 18:0.239944 19:0.333059 20:0 21:0.905792 22:2.68545 23:2.7367 24:0.0100899 25:0.0100899 26:0 27:0 0:0 
-0.02401936404921093 1:0.0530595 2:0.240707 3:0.00999451 4:0.473311 5:0.808934 6:0.15504 7:0.173504 8:0.328543 9:0 10:0.806337 11:2.7392 12:2.59281 13:0.100722 14:0.100722 15:0 16:0 17:0.0543182 18:0.173504 19:0.227822 20:0 21:0.838787 22:2.52184 23:2.59281 24:0.100722 25:0.100722 26:0 27:0 0:0 
-0.07341010449889936 1:0.323711 2:0.19265 3:0.0160191 4:0.392533 5:0.736357 6:0.100289 7:0.122124 8:0.173694 9:0.19083 10:0.490641 11:3.43882 12:3.14159 13:0.209083 14:0.209083 15:0 16:0 17:0.11232 18:0.122124 19:0.177962 20:0.21446 21:0.917796 22:3.05695 23:3.14159 24:0.209083 25:0.209083 26:0 27:0 0:0 
-0.009120727339025589 1:0.393097 2:0.230343 3:0.0431235 4:0.750485 5:0.846328 6:0.16917 7:0.130327 8:0.261783 9:0.186136 10:0.752519 11:3.35565 12:3.16837 13:0.348282 14:0.348282 15:0 16:0 17:0.181049 18:0.130327 19:0.184904 20:0.375342 21:0.674639 22:2.89661 23:3.16837 24:0.348282 25:0.348282 26:0 27:0 0:0 
-0.001745002920028535 1:0.240014 2:0.202033 3:0.0112915 4:0.510115 5:0.731077 6:0.100369 7:0.170554 8:0.0723883 9:0.0600021 10:0.317396 11:3.88592 12:4.67907 13:0.141494 14:0.141494 15:0.120116 16:0.120116 17:0.16188 18:0.051399 19:0.212872 20:0.0349252 21:0.760541 22:4.99772 23:4.44614 24:0.141494 25:0.141494 26:0.120116 27:0.120116 0:0 
-0.002125911816993019 1:0 2:0 3:0 4:1.59566 5:0.72951 6:0.50234 7:0.226271 8:0.728611 9:0 10:0.724163 11:4.35203 12:4.93919 13:0.906059 14:0.906059 15:0 16:0 17:0.403719 18:0.226271 19:0.177449 20:1 21:0.289978 22:2.91552 23:4.93919 24:0.906059 25:0.906059 26:0 27:0 0:0 
-0.002851402544483808 1:0.118481 2:0.131155 3:0.00247955 4:0.544567 5:0.814809 6:0.132587 7:0.0430302 8:0.174726 9:0.0564115 10:0.910702 11:4.02809 12:3.84385 13:0.234528 14:0.234528 15:0 16:0 17:0.102086 18:0.0430302 19:0.0600397 20:0.910722 21:0.683691 22:3.07819 23:3.84385 24:0.234528 25:0.234528 26:0 27:0 0:0 
-0.0045151438035632 1:0.619275 2:0.495742 3:0.16346 4:0.675486 5:0.904112 6:0.108139 7:0.209607 8:0.303434 9:0.067989 10:0.819259 11:5.04644 12:4.86981 13:0.143266 14:0.143266 15:0 16:0 17:0.0956255 18:0.209607 19:0.278223 20:0.0880715 21:0.82772 22:4.70677 23:4.86981 24:0.143266 25:0.143266 26:0 27:0 0:0 
-0.00289827567175089 1:0.186572 2:0.22196 3:0.01194 4:1.1144 5:0.644367 6:0.642796 7:0.0413571 8:0.602474 9:0.926252 10:0.708033 11:3.48684 12:2.88641 13:0.796213 14:0.796213 15:0 16:0 17:0.153421 18:0.0413571 19:0.193954 20:0.0565204 21:0.812525 22:2.63328 23:2.88641 24:0.796213 25:0.796213 26:0 27:0 0:0 
-0.0007303985419936357 1:0.547553 2:0.446759 3:0.177498 4:0.786886 5:0.92126 6:0.144503 7:0.22318 8:0.356822 9:0.0620929 10:0.860872 11:4.97134 12:4.81878 13:0.182859 14:0.182859 15:0 16:0 17:0.121587 18:0.22318 19:0.305838 20:0.109174 21:0.706491 22:4.45344 23:4.81878 24:0.182859 25:0.182859 26:0 27:0 0:0 
-0.009181275726462478 1:0.186697 2:0.196176 3:0.0112711 4:0.20025 5:0.334259 6:0.131739 7:0.144628 8:0.0409446 9:0.354157 10:0.643648 11:4.66356 12:4.12095 13:0.195113 14:0.195113 15:0 16:0 17:0.0680072 18:0.144628 19:0.211282 20:0.024587 21:0.997231 22:4.12309 23:4.12095 24:0.195113 25:0.195113 26:0 27:0 0:0 
-0.0008062923560576407 1:0.324139 2:0.299805 3:0.0272751 4:0.39485 5:0.787783 6:0.140024 7:0.120233 8:0.135913 9:0.366365 10:0.571356 11:4.85429 12:5.72659 13:0.14966 14:0.14966 15:0.210697 16:0.210697 17:0.0748018 18:0.0918431 19:0.0175269 20:0.0676324 21:0.661135 22:1.5708 23:1.86585 24:0.14966 25:0.14966 26:0.210697 27:0.210697 0:0 
-0.0005657962066029935 1:0.259821 2:0.256793 3:0.0197601 4:0.377347 5:0.684278 6:0.155737 7:0.0840503 8:0.167868 9:0.372658 10:0.635169 11:4.7214 12:5.55433 13:0.22084 14:0.22084 15:0.130137 16:0.130137 17:0.0534038 18:0.0464083 19:0.0995901 20:0.0227793 21:0.978052 22:2.27305 23:2.30705 24:0.22084 25:0.22084 26:0.130137 27:0.130137 0:0 
-0.00134194767727926 1:0.0764452 2:0.205018 3:0.00640869 4:0.283951 5:0.941817 6:0.0517604 7:0.148384 8:0.161664 9:0.103268 10:0.52999 11:4.24169 12:4.00916 13:0.213307 14:0.213307 15:0.0957204 16:0.0957204 17:0.0910274 18:0.18227 19:0.273198 20:0.00604406 21:0.911445 22:3.57094 23:3.62111 24:0.213307 25:0.213307 26:0.0957204 27:0.0957204 0:0 
-0.002129937396655881 1:0.641908 2:0.613571 3:0.168895 4:3.06145 5:0.81221 6:0.145714 7:0.743483 8:0.684925 9:0.0596046 10:0.964304 11:4.41839 12:4.41203 13:0.000553957 14:0.000553957 15:0.0258416 16:0.0258416 17:0.132749 18:0.717843 19:0.684853 20:0.058457 21:0.842522 22:4.45438 23:4.52973 24:0.000553957 25:0.000553957 26:0.0258416 27:0.0258416 0:0 
-0.003124179306931328 1:0.477562 2:0.39774 3:0.0207773 4:0.74638 5:0.836233 6:0.149726 7:0.106068 8:0.0561279 9:0.735135 10:0.591607 11:2.67795 12:3.34561 13:0.0807907 14:0.0807907 15:0 16:0 17:0.227887 18:0.106068 19:0.124669 20:0.899503 21:0.345368 22:2.08319 23:3.34561 24:0.0807907 25:0.0807907 26:0 27:0 0:0 
-0.001466203017442213 1:0.449286 2:0.48784 3:0.226916 4:2.61451 5:0.915364 6:0.531627 7:0.802381 8:0.346293 9:0.166849 10:0.459458 11:3.36769 12:3.06626 13:0.675554 14:0.675554 15:0 16:0 17:0.239859 18:0.802381 19:0.974952 20:0.0600424 21:0.885199 22:3.1365 23:3.06626 24:0.675554 25:0.675554 26:0 27:0 0:0 
-0.001437747835938356 1:0.51541 2:0.559584 3:0.249846 4:2.31991 5:0.942245 6:0.501922 7:0.562161 8:0.327224 9:0.345958 10:0.518786 11:3.55951 12:3.23869 13:0.691673 14:0.691673 15:0 16:0 17:0.267548 18:0.562161 19:0.807714 20:0.0502338 21:0.997716 22:3.24026 23:3.23869 24:0.691673 25:0.691673 26:0 27:0 0:0 
-0.001425667827429735 1:0.80827 2:0.593373 3:0.0492496 4:0.377401 5:0.870397 6:0.0654772 7:0.337223 8:0.393054 9:0.0299177 10:0.843536 11:5.00237 12:4.89048 13:0 14:0 15:0.107197 16:0.107197 17:0.159334 18:0.24102 19:0.393054 20:0.049354 21:0.954833 22:5.00237 23:5.07295 24:0 25:0 26:0.107197 27:0.107197 0:0 
-0.00176218455928542 1:2.26435 2:1.13587 3:0.899021 4:2.07497 5:0.914044 6:0.426716 7:0.730419 8:0.924326 9:0.148599 10:0.66558 11:2.64696 12:2.28963 13:0.8841 14:0.8841 15:0 16:0 17:0.681286 18:0.730419 19:1.29699 20:0.124528 21:0.833206 22:1.98949 23:2.28963 24:0.8841 25:0.8841 26:0 27:0 0:0 
-0.0002252075981082848 1:2.32032 2:1.07227 3:0.877088 4:2.00138 5:0.897823 6:0.552098 7:0.749353 8:1.05738 9:0.165707 10:0.694977 11:2.42592 12:2.03444 13:0.7664 14:0.7664 15:0 16:0 17:0.490467 18:0.749353 19:1.04154 20:0.143138 21:0.893206 22:1.85489 23:2.03444 24:0.7664 25:0.7664 26:0 27:0 0:0 
-0.001540381996258117 1:2.34984 2:1.27387 3:0.804566 4:1.82043 5:0.897554 6:0.552027 7:0.538574 8:0.909535 9:0.188673 10:0.718113 11:2.26365 12:1.92215 13:0.743644 14:0.743644 15:0 16:0 17:0.343344 18:0.538574 19:0.719442 20:0.150639 21:0.888159 22:1.75364 23:1.92215 24:0.743644 25:0.743644 26:0 27:0 0:0 
-0.0004234971350987853 1:2.36507 2:1.15862 3:0.920212 4:1.99036 5:0.942351 6:0.395874 7:0.694558 8:0.880562 9:0.143446 10:0.603291 11:2.33096 12:2.03212 13:0.693185 14:0.693185 15:0 16:0 17:0.391189 18:0.694558 19:0.903947 20:0.133722 21:0.865051 22:1.83934 23:2.03212 24:0.693185 25:0.693185 26:0 27:0 0:0 
0.1018104154919645 1:0.550761 2:0.448613 3:0.0570297 4:0.532678 5:0.802568 6:0.112996 7:0.213684 8:0.325915 9:0.0158363 10:0.879449 11:3.19814 12:3.01724 13:0.18461 14:0.18461 15:0 16:0 17:0.148638 18:0.213684 19:0.245164 20:0.205577 21:0.895046 22:2.8113 23:3.01724 24:0.18461 25:0.18461 26:0 27:0 0:0 
0.00523208907494518 1:0.549316 2:0.464854 3:0.115077 4:0.403164 5:0.588616 6:0.18574 7:0.0611274 8:0.2169 9:0.289538 10:0.970137 11:4.885 12:4.94449 13:0.233072 14:0.233072 15:0.0932242 16:0.0932242 17:0.128988 18:0.0806247 19:0.182403 20:0.211881 21:0.978608 22:4.43261 23:4.47154 24:0.233072 25:0.233072 26:0.0932242 27:0.0932242 0:0 
0.004496466101347181 1:0.766367 2:0.718709 3:0.0836046 4:0.320973 5:0.581737 6:0.212579 7:0.053963 8:0.242812 9:0.280379 10:0.882653 11:5.0614 12:4.84494 13:0.247511 14:0.247511 15:0 16:0 17:0.12012 18:0.053963 19:0.128665 20:0.381822 21:0.898809 22:4.67253 23:4.84494 24:0.247511 25:0.247511 26:0 27:0 0:0 
0.0008909072080334494 1:0.830242 2:0.711079 3:0.0691947 4:0.267305 5:0.579617 6:0.348325 7:0.0983335 8:0.442378 9:0.0833232 10:0.848552 11:5.10756 12:4.81694 13:0.225275 14:0.225275 15:0 16:0 17:0.28982 18:0.0983335 19:0.379323 20:0.117683 21:0.917105 22:4.6694 23:4.81694 24:0.225275 25:0.225275 26:0 27:0 0:0 
0.002120240945589427 1:0.881045 2:0.72594 3:0.102046 4:0.452486 5:0.565548 6:0.349413 7:0.162327 8:0.495393 9:0.119259 10:0.840391 11:5.05955 12:4.74324 13:0.219963 14:0.219963 15:0 16:0 17:0.293823 18:0.162327 19:0.450491 20:0.0676824 21:0.934026 22:4.62081 23:4.74324 24:0.219963 25:0.219963 26:0 27:0 0:0 
-0.002030661764586613 1:0.298547 2:0.237429 3:0.0100708 4:0.340636 5:0.649304 6:0.106247 7:0.0907691 8:0.196738 9:0.0183157 10:0.745067 11:3.88115 12:4.23903 13:0.324737 14:0.324737 15:0.127911 16:0.127911 17:0.0911943 18:0.0371836 19:0.128223 20:0.0245042 21:0.592068 22:1.3562 23:0.197396 24:0.324737 25:0.324737 26:0.127911 27:0.127911 0:0 
0.005248541519350289 1:0.370816 2:0.611046 3:0.0678662 4:1.7631 5:0.543792 6:0.320894 7:0.261112 8:0.494467 9:0.198321 10:0.674817 11:3.70019 12:4.24514 13:0.921626 14:0.921626 15:0.925303 16:0.925303 17:0.140062 18:0.717819 19:0.577757 20:0 21:0.979795 22:1.59437 23:1.57863 24:0.921626 25:0.921626 26:0.925303 27:0.925303 0:0 
-0.0037776074044516 1:1.19039 2:0.700752 3:0.0672448 4:0.691455 5:0.59947 6:0.0821187 7:0.0579518 8:0.118012 9:0.2199 10:0.852416 11:3.46334 12:3.14159 13:0.158669 14:0.158669 15:0 16:0 17:0.0901077 18:0.0579518 19:0.124141 20:0.234738 21:0.665249 22:2.38397 23:3.14159 24:0.158669 25:0.158669 26:0 27:0 0:0 
-0.002724487196600825 1:0.449765 2:0.338397 3:0.0413513 4:0.769826 5:0.680645 6:0.248231 7:0.118324 8:0.364193 9:0.0524366 10:0.383605 11:2.33239 12:3.91112 13:0.0865987 14:0.0865987 15:0.0413654 16:0.0413654 17:0.138494 18:0.159654 19:0.298095 20:0.00561677 21:0.902605 22:4.26531 23:4.07532 24:0.0865987 25:0.0865987 26:0.0413654 27:0.0413654 0:0 
-0.002116528249239325 1:0.213369 2:0.395083 3:0.0278091 4:0.607481 5:0.817499 6:0.0947733 7:0.0207208 8:0.0965878 9:0.437851 10:0.750396 11:2.1429 12:1.66146 13:0.115818 14:0.115818 15:0 16:0 17:0.105644 18:0.0207208 19:0.0862364 20:0.873359 21:0.897584 22:1.84457 23:1.66146 24:0.115818 25:0.115818 26:0 27:0 0:0 
-0.005184833537760541 1:0.550808 2:0.366921 3:0.0236511 4:1.00182 5:0.794472 6:0.151418 7:0.401416 8:0.359495 9:0.122676 10:0.996142 11:3.01788 12:3.01568 13:0.278918 14:0.278918 15:0 16:0 17:0.128051 18:0.401416 19:0.484846 20:0.070233 21:0.441085 22:2.82994 23:3.01568 24:0.278918 25:0.278918 26:0 27:0 0:0 
-0.01523067113202938 1:0.121277 2:0.246986 3:0.029068 4:1.00005 5:0.751854 6:0.0614714 7:0.22405 8:0.285029 9:0.00978149 10:0.931335 11:2.90665 12:2.8578 13:0.168276 14:0.168276 15:0 16:0 17:0.13898 18:0.22405 19:0.205486 20:0.20801 21:0.91943 22:2.79585 23:2.8578 24:0.168276 25:0.168276 26:0 27:0 0:0 
0.007724859186906824 1:0.577143 2:0.415185 3:0.0726482 4:0.540702 5:0.728797 6:0.283815 7:0.17359 8:0.383735 9:0.240983 10:0.680733 11:5.12101 12:4.47298 13:0.164559 14:0.164559 15:0 16:0 17:0.285937 18:0.17359 19:0.43996 20:0.120454 21:0.927908 22:4.61796 23:4.47298 24:0.164559 25:0.164559 26:0 27:0 0:0 
0.01732948601325794 1:0.718134 2:0.500419 3:0.117663 4:0.635347 5:0.760451 6:0.347702 7:0.153025 8:0.433166 9:0.261963 10:0.810997 11:4.89737 12:4.4813 13:0.217039 14:0.217039 15:0 16:0 17:0.277419 18:0.153025 19:0.419258 20:0.0983891 21:0.96312 22:4.5595 23:4.4813 24:0.217039 25:0.217039 26:0 27:0 0:0 
-4.977267475735319e-05 1:0.21479 2:0.18056 3:0.0225067 4:0.185758 5:0.676108 6:0.0646998 7:0.0471494 8:0.102089 9:0.158411 10:0.658474 11:4.19208 12:4.46324 13:0.0546957 14:0.0546957 15:0.0104306 16:0.0104306 17:0.0797055 18:0.047017 19:0.104416 20:0.258261 21:0.477214 22:3.93998 23:4.41584 24:0.0546957 25:0.0546957 26:0.0104306 27:0.0104306 0:0 
-0.005833271991077672 1:0.191822 2:0.198803 3:0.0208059 4:0.216181 5:0.599405 6:0.126463 7:0.0856832 8:0.0598009 9:0.664921 10:0.390821 11:4.64852 12:3.2129 13:0.390066 14:0.390066 15:0 16:0 17:0.269136 18:0.0856832 19:0.33741 20:0.180684 21:0.760914 22:3.61326 23:3.2129 24:0.390066 25:0.390066 26:0 27:0 0:0 
-0.007265821914861443 1:0.197585 2:0.155082 3:0.00968933 4:0.139389 5:0.633576 6:0.0613934 7:0.0289809 8:0.0660692 9:0.377658 10:0.745975 11:3.91207 12:3.48321 13:0.17979 14:0.17979 15:0 16:0 17:0.144231 18:0.0289809 19:0.140434 20:0.509427 21:0.749906 22:2.81544 23:3.48321 24:0.17979 25:0.17979 26:0 27:0 0:0 
-0.01243185260566066 1:0 2:0 3:0 4:0.400804 5:0.837436 6:0.104933 7:0.0629038 8:0.167836 9:0 10:0.944854 11:3.42449 12:3.55982 13:0.212082 14:0.212082 15:0 16:0 17:0.10715 18:0.0629038 19:0.0442458 20:1 21:0.668119 22:2.69672 23:3.55982 24:0.212082 25:0.212082 26:0 27:0 0:0 
-0.04420652751227461 1:0 2:0 3:0 4:0.362985 5:0.893733 6:0.102374 7:0.00998817 8:0.0923859 9:1 10:0.793196 11:3.22079 12:3.01997 13:0.189731 14:0.189731 15:0 16:0 17:0.0873568 18:0.00998817 19:0.097345 20:0 21:0.66863 22:2.71639 23:3.01997 24:0.189731 25:0.189731 26:0 27:0 0:0 
-0.01290158255783381 1:0.0778249 2:0.211162 3:0.00232697 4:0.366303 5:0.8208 6:0.136802 7:0.101922 8:0.214553 9:0.169119 10:0.869198 11:2.76109 12:3.09163 13:0.227057 14:0.227057 15:0 16:0 17:0.116289 18:0.101922 19:0.0143673 20:1 21:0.48325 22:2.01133 23:3.09163 24:0.227057 25:0.227057 26:0 27:0 0:0 
-0.003525165011760156 1:0 2:0 3:0 4:0.328749 5:0.660211 6:0.0761293 7:0.0343142 8:0.110444 9:0 10:0.592974 11:3.29048 12:2.52693 13:0.0835881 14:0.0835881 15:0.049006 16:0.049006 17:0.0564648 18:0.0833203 19:0.0268555 20:0 21:0.67522 22:2.01064 23:2.46029 24:0.0835881 25:0.0835881 26:0.049006 27:0.049006 0:0 
-0.01835518047336958 1:0.516026 2:0.404297 3:0.158489 4:0.513828 5:0.860211 6:0.171056 7:0.135424 8:0.295899 9:0.0945219 10:0.960992 11:3.29751 12:3.24527 13:0.121498 14:0.121498 15:0 16:0 17:0.153495 18:0.135424 19:0.271942 20:0.117044 21:0.846389 22:3.05286 23:3.24527 24:0.121498 25:0.121498 26:0 27:0 0:0 
0.008393012484183171 1:4.22491e-05 2:0.00227037 3:0.000114441 4:0.570811 5:0.766097 6:0.244372 7:0.101575 8:0.345947 9:0 10:0.882684 11:3.53667 12:3.34353 13:0.0826169 14:0.0826169 15:0 16:0 17:0.161774 18:0.101575 19:0.263347 20:0.00172663 21:0.809791 22:2.99122 23:3.34353 24:0.0826169 25:0.0826169 26:0 27:0 0:0 
-0.00653881044970622 1:0.303521 2:0.309084 3:0.0184631 4:0.649094 5:0.899338 6:0.15506 7:0.0602281 8:0.129484 9:0.57519 10:0.578553 11:4.04642 12:3.07917 13:0.148397 14:0.148397 15:0 16:0 17:0.136442 18:0.0602281 19:0.170916 20:0.257238 21:0.759472 22:3.63369 23:3.07917 24:0.148397 25:0.148397 26:0 27:0 0:0 
-0.00121358505912602 1:0.650544 2:0.544471 3:0.0190735 4:0.320569 5:0.700524 6:0.230361 7:0.0740149 8:0.300303 9:0.0924033 10:0.44986 11:1.80241 12:0.566729 13:0.212022 14:0.212022 15:0 16:0 17:0.379947 18:0.0740149 19:0.45343 20:0.034944 21:0.67802 22:1.31135 23:0.566729 24:0.212022 25:0.212022 26:0 27:0 0:0 
-0.004774660161284798 1:0.825155 2:0.652231 3:0.033493 4:0.34004 5:0.735655 6:0.1009 7:0.296169 8:0.366126 9:0.0704296 10:0.529776 11:1.84381 12:1.30036 13:0.353088 14:0.353088 15:0 16:0 17:0.333916 18:0.296169 19:0.592671 20:0.117346 21:0.983198 22:1.32697 23:1.30036 24:0.353088 25:0.353088 26:0 27:0 0:0 
-0.002150364055050983 1:1.76607 2:1.05528 3:0.526182 4:1.9038 5:0.928394 6:0.0865354 7:0.946975 8:0.970353 9:0.027675 10:0.714305 11:4.40843 12:4.34293 13:1.63374 14:1.63374 15:1.62821 16:1.62821 17:0.0827165 18:0.993483 19:0.927595 20:0.0165837 21:0.329349 22:1.9149 23:1.85037 24:1.63374 25:1.63374 26:1.62821 27:1.62821 0:0 
-0.000636901254552803 1:0.509509 2:0.356805 3:0.017395 4:0.631377 5:0.669961 6:0.188724 7:0.0930828 8:0.281699 9:0.0125562 10:0.871672 11:4.34938 12:4.62373 13:0.623759 14:0.623759 15:0.263196 16:0.263196 17:0.219397 18:0.171286 19:0.351896 20:0.163279 21:0.89928 22:1.59558 23:1.44834 24:0.623759 25:0.623759 26:0.263196 27:0.263196 0:0 
-0.001576637197068026 1:1.49616 2:1.61671 3:0.497177 4:0.697526 5:0.963238 6:0.734491 7:0.59921 8:1.23544 9:0.136827 10:0.720547 11:4.61466 12:4.20899 13:0.367577 14:0.367577 15:0 16:0 17:0.585313 18:0.59921 19:1.17457 20:0.0408088 21:0.904033 22:4.34022 23:4.20899 24:0.367577 25:0.367577 26:0 27:0 0:0 
-0.001668103689174471 1:1.41532 2:1.50688 3:0.0580215 4:0.245267 5:0.952963 6:0.539706 7:0.501661 8:1.04053 9:0.0132306 10:0.727352 11:4.64907 12:4.23446 13:0.0925978 14:0.0925978 15:0 16:0 17:0.605411 18:0.501661 19:1.10691 20:0.00591884 21:0.924297 22:4.35053 23:4.23446 24:0.0925978 25:0.0925978 26:0 27:0 0:0 
-0.001312415642132758 1:1.1218 2:1.19962 3:0.0480103 4:0.624736 5:0.944144 6:0.45484 7:0.685064 8:1.13663 9:0.019662 10:0.886537 11:4.68867 12:4.79468 13:0.536938 14:0.536938 15:0 16:0 17:0.216859 18:0.685064 19:0.714201 20:0.0981794 21:0.594293 22:4.17281 23:4.79468 24:0.536938 25:0.536938 26:0 27:0 0:0 
-0.002163345353601781 1:1.16927 2:2.12038 3:0.326396 4:1.17197 5:0.917877 6:0.31912 7:1.35496 8:1.66964 9:0.0112273 10:0.90221 11:4.6019 12:4.5681 13:1.67278 14:1.67278 15:1.3559 16:1.3559 17:0.255472 18:0.590743 19:0.846215 20:0 21:0.608735 22:1.63268 23:1.50543 24:1.67278 25:1.67278 26:1.3559 27:1.3559 0:0 
-0.002152647732663241 1:1.61025 2:1.44972 3:0.236931 4:1.18411 5:0.949466 6:0.0530648 7:0.838675 8:0.889009 9:0.00619546 10:0.445012 11:1.60875 12:1.58339 13:1.61544 14:1.61544 15:1.48864 16:1.48864 17:0.12515 18:1.12641 19:1.25147 20:0.00128052 21:0.811759 22:4.54818 23:4.48575 24:1.61544 25:1.61544 26:1.48864 27:1.48864 0:0 
-0.001500555560566854 1:1.25779 2:1.40676 3:0.401423 4:1.08941 5:0.967611 6:0.244476 7:0.280905 8:0.494704 9:0.101675 10:0.914222 11:5.01164 12:4.94073 13:0.3343 14:0.3343 15:0 16:0 17:0.119923 18:0.280905 19:0.295351 20:0.132517 21:0.604753 22:4.48482 23:4.94073 24:0.3343 25:0.3343 26:0 27:0 0:0 
-0.0022269074373523 1:1.71396 2:1.63765 3:0.558932 4:0.950502 5:0.95288 6:0.101154 7:1.4609 8:1.56039 9:0.00384805 10:0.822883 11:3.69154 12:3.72433 13:0.281603 14:0.281603 15:0.233631 16:0.233631 17:0.0703933 18:1.33469 19:1.40364 20:0.00329919 21:0.824802 22:3.91738 23:3.88782 24:0.281603 25:0.281603 26:0.233631 27:0.233631 0:0 
-0.002150063728960745 1:0.953645 2:1.56534 3:0.357832 4:1.96508 5:0.953995 6:0.155987 7:0.472683 8:0.430574 9:0.10647 10:0.923277 11:1.9817 12:1.92878 13:0.83192 14:0.83192 15:0 16:0 17:0.887137 18:0.472683 19:0.414493 20:0.994007 21:0.96403 22:1.9062 23:1.92878 24:0.83192 25:0.83192 26:0 27:0 0:0 
-0.002089587231959927 1:1.18277 2:1.63328 3:0.434431 4:1.9533 5:0.945945 6:1.18275 7:0.173611 8:1.21392 9:0.419981 10:0.610874 11:3.03009 12:2.10808 13:1.07715 14:1.07715 15:0 16:0 17:0.712 18:0.173611 19:0.877115 20:0.0897499 21:0.873733 22:2.41328 23:2.10808 24:1.07715 25:1.07715 26:0 27:0 0:0 
-0.002096987800167293 1:1.22429 2:1.43336 3:0.541436 4:1.81027 5:0.944387 6:1.44276 7:0.225799 8:1.51313 9:0.376263 10:0.607302 11:3.7643 12:2.81032 13:1.29007 14:1.29007 15:0 16:0 17:0.401359 18:0.225799 19:0.619921 20:0.0646607 21:0.817396 22:2.37836 23:2.81032 24:1.29007 25:1.29007 26:0 27:0 0:0 
-0.002141578744562382 1:1.01163 2:1.94821 3:0.180168 4:1.17834 5:0.905312 6:0.0549848 7:1.25352 8:1.30851 9:1 10:0.843473 11:4.44063 12:4.45871 13:0.391921 14:0.391921 15:0.197886 16:0.197886 17:0.462903 18:1.14029 19:1.59899 20:0.0146702 21:0.908774 22:4.7296 23:4.66052 24:0.391921 25:0.391921 26:0.197886 27:0.197886 0:0 
-0.0005151704187288794 1:0.174111 2:0.441099 3:0.0596237 4:0.555268 5:0.912568 6:0.0624853 7:0.323487 8:0.337222 9:0.058831 10:0.851201 11:4.23073 12:4.29618 13:0.315895 14:0.315895 15:0.294822 16:0.294822 17:0.0994616 18:0.410378 19:0.507748 20:0.0141506 21:0.876523 22:3.35809 23:3.41708 24:0.315895 25:0.315895 26:0.294822 27:0.294822 0:0 
-0.007879270885451789 1:0.583993 2:1.00619 3:0.187416 4:0.687377 5:0.805097 6:0.382306 7:0.254963 8:0.573414 9:0.178427 10:0.797522 11:4.31862 12:4.17595 13:0.507501 14:0.507501 15:0 16:0 17:0.307724 18:0.254963 19:0.526119 20:0.127294 21:0.738959 22:3.85612 23:4.17595 24:0.507501 25:0.507501 26:0 27:0 0:0 
-0.003396006735342926 1:0.669118 2:1.07051 3:0.179974 4:0.697005 5:0.827753 6:0.0720986 7:0.605402 8:0.639174 9:0.0326096 10:0.590697 11:3.83633 12:3.79742 13:0.211305 14:0.211305 15:0.102212 16:0.102212 17:0.0921095 18:0.621187 19:0.533155 20:0.0149917 21:0.359927 22:2.79438 23:2.98322 24:0.211305 25:0.211305 26:0.102212 27:0.102212 0:0 
-0.002252972608012348 1:0 2:0 3:0 4:0.473644 5:0.824216 6:0.0513008 7:0.0520743 8:0.000773519 9:0 10:0.689281 11:4.64335 12:4.1352 13:0.045073 14:0.045073 15:0 16:0 17:0.0963739 18:0.0520743 19:0.0442995 20:1 21:0.977712 22:4.09933 23:4.1352 24:0.045073 25:0.045073 26:0 27:0 0:0 
-0.006537307579331246 1:0.333611 2:0.734901 3:0.0742144 4:0.683984 5:0.70241 6:0.116826 7:0.160723 8:0.18676 9:0.213204 10:0.736606 11:3.30848 12:3.73328 13:0.0321309 14:0.0321309 15:0.0973099 16:0.0973099 17:0.143877 18:0.0835032 19:0.216218 20:0.132579 21:0.664066 22:2.51179 23:3.00667 24:0.0321309 25:0.0321309 26:0.0973099 27:0.0973099 0:0 
-0.002006995810524513 1:0.974912 2:1.08852 3:0.216745 4:0.647261 5:0.940758 6:0.0694728 7:0.827488 8:0.864347 9:0.022169 10:0.66522 11:4.14376 12:4.08548 13:0.118554 14:0.118554 15:0 16:0 17:0.0602885 18:0.827488 19:0.848061 20:0.0215375 21:0.736829 22:4.03139 23:4.08548 24:0.118554 25:0.118554 26:0 27:0 0:0 
-0.002785193218554117 1:0.632248 2:0.99568 3:0.1606 4:0.812124 5:0.834789 6:0.56124 7:0.315839 8:0.689179 9:0.29651 10:0.888248 11:2.6146 12:2.44123 13:0.758287 14:0.758287 15:0 16:0 17:0.24619 18:0.315839 19:0.187611 20:0.284154 21:0.543792 22:1.85335 23:2.44123 24:0.758287 25:0.758287 26:0 27:0 0:0 
-0.001228060191651168 1:1.12962 2:0.72729 3:0.286359 4:0.954083 5:0.81105 6:0.728717 7:0.122553 8:0.698902 9:0.551406 10:0.846411 11:3.06575 12:2.65908 13:0.853728 14:0.853728 15:0 16:0 17:0.367719 18:0.122553 19:0.456923 20:0.209596 21:0.575222 22:1.54057 23:2.65908 24:0.853728 25:0.853728 26:0 27:0 0:0 
-0.009403951291143105 1:1.06869 2:0.681307 3:0.217023 4:0.852344 5:0.774113 6:0.268672 7:0.510688 8:0.644278 9:0.130264 10:0.772582 11:3.80931 12:3.57331 13:0.244719 14:0.244719 15:0 16:0 17:0.301421 18:0.510688 19:0.712744 20:0.118695 21:0.956673 22:3.52097 23:3.57331 24:0.244719 25:0.244719 26:0 27:0 0:0 
-0.0006776668537771269 1:1.00037 2:0.647328 3:0.313272 4:0.702908 5:0.762006 6:0.563846 7:0.432925 8:0.622617 9:0.34172 10:0.519106 11:4.00296 12:3.45695 13:0.603427 14:0.603427 15:0 16:0 17:0.290354 18:0.432925 19:0.644921 20:0.120232 21:0.937689 22:3.38944 23:3.45695 24:0.603427 25:0.603427 26:0 27:0 0:0 
-0.001530339055177659 1:0.678158 2:0.518148 3:0.0953279 4:1.15401 5:0.686171 6:0.528854 7:0.0219854 8:0.549007 9:0.128292 10:0.470946 11:4.71722 12:3.35496 13:0.591064 14:0.591064 15:0 16:0 17:0.379508 18:0.0219854 19:0.382233 20:0.451351 21:0.956876 22:3.25059 23:3.35496 24:0.591064 25:0.591064 26:0 27:0 0:0 
-0.002238100600447127 1:0.218258 2:0.298856 3:0.0272369 4:1.14376 5:0.776328 6:0.441762 7:0.0275387 8:0.438002 9:0.533701 10:0.404789 11:5.03935 12:3.45449 13:0.123779 14:0.123779 15:0 16:0 17:0.344733 18:0.0275387 19:0.346636 20:0.465352 21:0.530319 22:4.61703 23:3.45449 24:0.123779 25:0.123779 26:0 27:0 0:0 
-0.0007301454535119255 1:0.809315 2:0.493493 3:0.0655702 4:1.38654 5:0.621272 6:0.204229 7:0.129403 8:0.214751 9:0.375714 10:0.790369 11:3.11528 12:2.66287 13:0.20783 14:0.20783 15:0.120741 16:0.120741 17:0.178427 18:0.171492 19:0.347288 20:0.0398464 21:0.865189 22:2.83151 23:2.93728 24:0.20783 25:0.20783 26:0.120741 27:0.120741 0:0 
-0.003122998528994121 1:1.619 2:1.07219 3:0.56374 4:1.44836 5:0.925397 6:0.178584 7:0.789871 8:0.879117 9:0.0591731 10:0.736982 11:1.97665 12:1.87545 13:0.250179 14:0.250179 15:0 16:0 17:0.0818841 18:0.789871 19:0.772989 20:0.0326546 21:0.914388 22:1.85671 23:1.87545 24:0.250179 25:0.250179 26:0 27:0 0:0 
-0.002004287335698654 1:0.403493 2:1.02815 3:0.0927734 4:1.12222 5:0.789787 6:0.269749 7:0.000642091 8:0.269107 9:0.995149 10:0.318736 11:4.10946 12:2.1638 13:0.487686 14:0.487686 15:0 16:0 17:0.218213 18:0.000642091 19:0.218854 20:0.0209181 21:0.900743 22:2.43576 23:2.1638 24:0.487686 25:0.487686 26:0 27:0 0:0 
-0.002738725653607137 1:0.862073 2:1.38987 3:0.221812 4:1.15551 5:0.856131 6:0.309358 7:0.0396231 8:0.322636 9:0.37261 10:0.39206 11:3.03584 12:2.12775 13:0.337023 14:0.337023 15:0 16:0 17:0.442704 18:0.0396231 19:0.42226 20:0.65992 21:0.956875 22:2.20188 23:2.12775 24:0.337023 25:0.337023 26:0 27:0 0:0 
-0.003859392433229665 1:1.29364 2:1.48934 3:0.461559 4:1.08285 5:0.842983 6:0.381905 7:0.252776 8:0.600085 9:0.130728 10:0.509409 11:3.48996 12:2.61352 13:0.424339 14:0.424339 15:0 16:0 17:0.606048 18:0.252776 19:0.852485 20:0.0600373 21:0.927129 22:2.46643 23:2.61352 24:0.424339 25:0.424339 26:0 27:0 0:0 
-0.001367344765452264 1:1.55357 2:1.58098 3:0.598798 4:1.00754 5:0.943577 6:0.589433 7:0.449281 8:0.87537 9:0.210541 10:0.664466 11:3.7963 12:3.21117 13:0.561747 14:0.561747 15:0 16:0 17:0.356619 18:0.449281 19:0.768739 20:0.0861122 21:0.780016 22:2.87501 23:3.21117 24:0.561747 25:0.561747 26:0 27:0 0:0 
-0.001755949422645301 1:1.52094 2:1.4087 3:0.694286 4:0.992859 5:0.897219 6:0.0962749 7:0.966476 8:1.05599 9:0.0111697 10:0.932056 11:4.59619 12:4.61161 13:0.41784 14:0.41784 15:0 16:0 17:0.424399 18:0.966476 19:1.0994 20:0.125266 21:0.479763 22:4.23445 23:4.61161 24:0.41784 25:0.41784 26:0 27:0 0:0 
-0.002172505641929229 1:1.94184 2:1.45255 3:0.723042 4:1.16457 5:0.781693 6:0.0812437 7:1.03192 8:1.01487 9:0.0247136 10:0.597305 11:3.43992 12:3.51064 13:0.604743 14:0.604743 15:0.53259 16:0.53259 17:0.34414 18:0.625547 19:0.838692 20:0.119436 21:0.846009 22:2.15768 23:2.39401 24:0.604743 25:0.604743 26:0.53259 27:0.53259 0:0 
-0.0003111546474926659 1:1.33475 2:0.857455 3:0.200074 4:1.44894 5:0.772236 6:0.259168 7:0.112848 8:0.368852 9:0.0630901 10:0.956111 11:4.99069 12:5.08888 13:0.817884 14:0.817884 15:0 16:0 17:0.659082 18:0.112848 19:0.585934 20:0.701807 21:0.37135 22:3.26957 23:5.08888 24:0.817884 25:0.817884 26:0 27:0 0:0 
-0.00201543117451811 1:1.40382 2:0.873214 3:0.23263 4:1.44996 5:0.786409 6:0.340089 7:0.0811544 8:0.411689 9:0.140532 10:0.932704 11:5.05731 12:5.22794 13:0.856085 14:0.856085 15:0 16:0 17:0.638567 18:0.0811544 19:0.570671 20:0.803423 21:0.333693 22:3.24417 23:5.22794 24:0.856085 25:0.856085 26:0 27:0 0:0 
-0.003945438951503557 1:0.684192 2:0.587688 3:0.0984011 4:0.640305 5:0.70853 6:0.31514 7:0.0365898 8:0.35171 9:0.00993287 10:0.59969 11:4.28981 12:3.4022 13:0.579921 14:0.579921 15:0 16:0 17:0.443509 18:0.0365898 19:0.440664 20:0.511621 21:0.861714 22:3.06626 23:3.4022 24:0.579921 25:0.579921 26:0 27:0 0:0 
0.006819956016750337 1:0.160236 2:0.480245 3:0.0408936 4:0.745452 5:0.833691 6:0.296235 7:0.134992 8:0.377144 9:0.246865 10:0.673359 11:3.48543 12:4.33462 13:0.181722 14:0.181722 15:0.26013 16:0.26013 17:0.109725 18:0.38903 19:0.473351 20:0.0521375 21:0.678344 22:2.76563 23:3.10811 24:0.181722 25:0.181722 26:0.26013 27:0.26013 0:0 
-0.002745229060161661 1:0.00685656 2:0.0400846 3:0.00160217 4:0.458087 5:0.767286 6:0.0762113 7:0.0647753 8:0.011436 9:1 10:0.438374 11:4.39064 12:3.12844 13:0.0958468 14:0.0958468 15:0 16:0 17:0.056033 18:0.0647753 19:0.0868243 20:0.223188 21:0.870298 22:3.40634 23:3.12844 24:0.0958468 25:0.0958468 26:0 27:0 0:0 
-0.001355661631310592 1:0.151266 2:0.132593 3:0.00225067 4:0.0740701 5:0.749025 6:0.0614823 7:0.0202725 8:0.0817365 9:0.0117241 10:0.786463 11:2.26124 12:1.70632 13:0.0205576 14:0.0205576 15:0 16:0 17:0.0820394 18:0.0202725 19:0.102291 20:0.0130023 21:0.938794 22:1.55262 23:1.70632 24:0.0205576 25:0.0205576 26:0 27:0 0:0 
0.0001952249867994796 1:0.112658 2:0.346113 3:0.0223884 4:1.02515 5:0.61598 6:0.356169 7:0.381529 8:0.723601 9:0.0601923 10:0.646899 11:4.05861 12:3.60897 13:0.360482 14:0.360482 15:0 16:0 17:0.319189 18:0.381529 19:0.633261 20:0.127945 21:0.82414 22:3.35027 23:3.60897 24:0.360482 25:0.360482 26:0 27:0 0:0 
0.001504667502143711 1:0.221597 2:0.335229 3:0.0176174 4:0.79468 5:0.658981 6:0.264347 7:0.144511 8:0.403148 9:0.0722169 10:0.886296 11:4.93605 12:5.14142 13:0.287533 14:0.287533 15:0.124549 16:0.124549 17:0.300262 18:0.127392 19:0.42482 20:0.0563874 21:0.96376 22:3.17955 23:3.10214 24:0.287533 25:0.287533 26:0.124549 27:0.124549 0:0 
0.001271340035061195 1:0.0918055 2:0.217085 3:0.0290511 4:0.732959 5:0.730431 6:0.123921 7:0.180039 8:0.276611 9:0.111331 10:0.842455 11:4.33923 12:4.30545 13:0.279437 14:0.279437 15:0 16:0 17:0.162123 18:0.180039 19:0.208214 20:0.270552 21:0.779422 22:4.22632 23:4.30545 24:0.279437 25:0.279437 26:0 27:0 0:0 
0.01013395189069559 1:0.112198 2:0.273078 3:0.0335776 4:0.937078 5:0.703228 6:0.207025 7:0.0789744 8:0.246683 9:0.286374 10:0.848212 11:4.09874 12:3.85652 13:0.271698 14:0.271698 15:0 16:0 17:0.306941 18:0.0789744 19:0.322942 20:0.396362 21:0.70459 22:3.52917 23:3.85652 24:0.271698 25:0.271698 26:0 27:0 0:0 
0.00303356207359395 1:0.0822668 2:0.257686 3:0.0235755 4:0.779185 5:0.785761 6:0.196578 7:0.464555 8:0.643201 9:0.0478108 10:0.99314 11:3.83444 12:3.82995 13:0.201289 14:0.201289 15:0 16:0 17:0.123865 18:0.464555 19:0.467127 20:0.0848706 21:0.833457 22:3.71651 23:3.82995 24:0.201289 25:0.201289 26:0 27:0 0:0 
0.005060062113123445 1:0.047927 2:0.133635 3:0.0138474 4:1.28865 5:0.903982 6:0.147536 7:0.789 8:0.641464 9:0 10:0.302444 11:1.94984 12:1.59737 13:0.281723 14:0.281723 15:0 16:0 17:0.134187 18:0.789 19:0.923187 20:0 21:0.56301 22:1.76198 23:1.59737 24:0.281723 25:0.281723 26:0 27:0 0:0 
0.007715939503999661 1:0.101233 2:0.291592 3:0.0186109 4:0.702206 5:0.71541 6:0.128055 7:0.150329 8:0.274076 9:0.0517045 10:0.846656 11:4.57771 12:4.4649 13:0.0708341 14:0.0708341 15:0 16:0 17:0.0653336 18:0.150329 19:0.204196 20:0.0672934 21:0.896246 22:4.41176 23:4.4649 24:0.0708341 25:0.0708341 26:0 27:0 0:0 
0.009132333435046755 1:0.258984 2:0.616147 3:0.0136948 4:0.378821 5:0.830704 6:0.201026 7:0.376228 8:0.575296 9:0.0191568 10:0.900508 11:4.23792 12:4.17197 13:0.284444 14:0.284444 15:0 16:0 17:0.0945603 18:0.376228 19:0.314872 20:0.0666644 21:0.511961 22:4.08554 23:4.17197 24:0.284444 25:0.284444 26:0 27:0 0:0 
0.003482916193105921 1:0.000897072 2:0.0113012 3:0.000991821 4:0.856381 5:0.76551 6:0.152028 7:0.0545546 8:0.0974731 9:1 10:0.457522 11:4.03206 12:3.562 13:0.348714 14:0.348714 15:0 16:0 17:0.196744 18:0.0545546 19:0.25127 20:0.00915981 21:0.987737 22:3.57499 23:3.562 24:0.348714 25:0.348714 26:0 27:0 0:0 
0.003341922110947674 1:0.133249 2:0.40187 3:0.0162506 4:0.292249 5:0.860017 6:0.14381 7:0.122194 8:0.244 9:0.14211 10:0.603302 11:4.08001 12:3.72489 13:0.373334 14:0.373334 15:0 16:0 17:0.296243 18:0.122194 19:0.366354 20:0.259524 21:0.903569 22:3.5639 23:3.72489 24:0.373334 25:0.373334 26:0 27:0 0:0 
-0.0003346659559062854 1:1.36738 2:1.0491 3:0.0175095 4:0.104739 5:0.914628 6:0.10429 7:0.598734 8:0.684677 9:0.0293808 10:0.75267 11:4.62676 12:4.46615 13:0.065565 14:0.065565 15:0 16:0 17:0.103098 18:0.598734 19:0.70183 20:0.000312602 21:0.83173 22:4.33188 23:4.46615 24:0.065565 25:0.065565 26:0 27:0 0:0 
-0.003147732052583565 1:0.143717 2:0.240927 3:0.00656128 4:0.36384 5:0.756975 6:0.0743295 7:0.0706499 8:0.0493387 9:0.412098 10:0.384674 11:2.43297 12:3.2754 13:0.0883268 14:0.0883268 15:0.0593869 16:0.0593869 17:0.0662959 18:0.0271751 19:0.0644964 20:0.454155 21:0.674784 22:3.77914 23:3.05485 24:0.0883268 25:0.0883268 26:0.0593869 27:0.0593869 0:0 
0.002662410388447002 1:0.0408757 2:0.171939 3:0.00576019 4:0.284864 5:0.756472 6:0.172943 7:0.0304502 8:0.181697 9:0.381294 10:0.362922 11:4.05922 12:2.39019 13:0.191704 14:0.191704 15:0 16:0 17:0.0543557 18:0.0304502 19:0.0239055 20:1 21:0.847654 22:2.69115 23:2.39019 24:0.191704 25:0.191704 26:0 27:0 0:0 
0.005114288043812501 1:0.118403 2:0.297525 3:0.0183291 4:0.287768 5:0.773465 6:0.163421 7:0.116397 8:0.271824 9:0.0906484 10:0.935077 11:4.01565 12:4.09985 13:0.293716 14:0.293716 15:0 16:0 17:0.226703 18:0.116397 19:0.189409 20:0.514229 21:0.428025 22:2.96724 23:4.09985 24:0.293716 25:0.293716 26:0 27:0 0:0 
0.01138342012216665 1:0.233588 2:0.418124 3:0.0502498 4:0.945426 5:0.717036 6:0.183667 7:0.133702 8:0.307914 9:0.0915716 10:0.807458 11:4.9995 12:4.68594 13:0.312782 14:0.312782 15:0 16:0 17:0.346097 18:0.133702 19:0.447516 20:0.192874 21:0.642665 22:3.99471 23:4.68594 24:0.312782 25:0.312782 26:0 27:0 0:0 
-0.02305383678615202 1:0.191765 2:0.164076 3:0.0246811 4:0.700821 5:0.932022 6:0.11394 7:0.079437 8:0.104193 9:0.418662 10:0.626761 11:4.10684 12:3.72199 13:0.165095 14:0.165095 15:0 16:0 17:0.0525238 18:0.079437 19:0.121755 20:0.101124 21:0.92816 22:3.65829 23:3.72199 24:0.165095 25:0.165095 26:0 27:0 0:0 
-0.006956450255176177 1:0.250007 2:0.203949 3:0.0277328 4:0.755424 5:0.877174 6:0.282009 7:0.0589773 8:0.287127 9:0.439571 10:0.493138 11:5.00474 12:3.88354 13:0.357862 14:0.357862 15:0 16:0 17:0.112567 18:0.0589773 19:0.165021 20:0.122599 21:0.909913 22:3.69647 23:3.88354 24:0.357862 25:0.357862 26:0 27:0 0:0 
-0.005572718634083523 1:0.23877 2:0.206374 3:0.0242615 4:0.754176 5:0.870843 6:0.281803 7:0.0454166 8:0.241132 9:0.840355 10:0.455669 11:5.01466 12:3.6334 13:0.349273 14:0.349273 15:0 16:0 17:0.117295 18:0.0454166 19:0.154916 20:0.161283 21:0.983803 22:3.59493 23:3.6334 24:0.349273 25:0.349273 26:0 27:0 0:0 
-0.001119043226498946 1:0.23911 2:0.221887 3:0.00995636 4:0.337508 5:0.881493 6:0.0967798 7:0.0439418 8:0.0745128 9:0.592855 10:0.552295 11:3.48169 12:4.44322 13:0.145256 14:0.145256 15:0.153875 16:0.153875 17:0.0805399 18:0.11937 19:0.19493 20:0.0582626 21:0.887396 22:3.07627 23:2.96769 24:0.145256 25:0.145256 26:0.153875 27:0.153875 0:0 
-0.002325702179862131 1:0.0977325 2:0.148058 3:0.00621796 4:0.226803 5:0.860231 6:0.0890075 7:0.077955 8:0.0818701 9:0.375738 10:0.592574 11:3.62529 12:3.32376 13:0.15537 14:0.15537 15:0 16:0 17:0.0754564 18:0.077955 19:0.151114 20:0.0542511 21:0.951911 22:3.34654 23:3.32376 24:0.15537 25:0.15537 26:0 27:0 0:0 
-0.007942545296280988 1:0 2:0 3:0 4:0.268965 5:0.799203 6:0.105065 7:0.0469936 8:0.152059 9:0 10:0.727068 11:2.87834 12:2.44524 13:0.110555 14:0.110555 15:0.0508545 16:0.0508545 17:0.0563443 18:0.0978482 19:0.0415039 20:0 21:0.631958 22:2.28963 23:2.53499 24:0.110555 25:0.110555 26:0.0508545 27:0.0508545 0:0 
0.008875377305595445 1:0.663711 2:0.793683 3:0.12219 4:0.458083 5:0.622663 6:0.0763681 7:0.445925 8:0.507468 9:0.030268 10:0.86265 11:3.60765 12:3.67444 13:0.300065 14:0.300065 15:0.287365 16:0.287365 17:0.109291 18:0.322629 19:0.430828 20:0.0131574 21:0.754789 22:2.52365 23:2.84206 24:0.300065 25:0.300065 26:0.287365 27:0.287365 0:0 
-0.007085830185342364 1:0.143932 2:0.245298 3:0.0189972 4:0.719757 5:0.919284 6:0.0697254 7:0.130737 8:0.187428 9:0.0827741 10:0.923004 11:4.6574 12:4.72505 13:0.276733 14:0.276733 15:0 16:0 17:0.215176 18:0.130737 19:0.222743 20:0.386056 21:0.576008 22:3.92234 23:4.72505 24:0.276733 25:0.276733 26:0 27:0 0:0 
0.003888372368467396 1:0.00803843 2:0.0609145 3:0.00320435 4:0.30729 5:0.620344 6:0.114656 7:0.0696364 8:0.183702 9:0.0326954 10:0.670077 11:4.00407 12:3.30792 13:0.14323 14:0.14323 15:0 16:0 17:0.101188 18:0.0696364 19:0.120459 20:0.317043 21:0.76149 22:2.89918 23:3.30792 24:0.14323 25:0.14323 26:0 27:0 0:0 
0.003248474755564063 1:0.00668017 2:0.0505883 3:0.00419617 4:0.309577 5:0.62183 6:0.0939343 7:0.0556161 8:0.146745 9:0.08049 10:0.954163 11:3.9161 12:3.98675 13:0.215191 14:0.215191 15:0.0619906 16:0.0619906 17:0.104644 18:0.00637457 19:0.108501 20:0.285646 21:0.857722 22:2.73161 23:3.00215 24:0.215191 25:0.215191 26:0.0619906 27:0.0619906 0:0 
0.004140668402057122 1:0.00359204 2:0.0370962 3:0.00404358 4:0.534699 5:0.64959 6:0.213677 7:0.211507 8:0.00217021 9:1 10:0.994362 11:4.12014 12:4.12311 13:0.100061 14:0.100061 15:0.181314 16:0.181314 17:0.125507 18:0.0301927 19:0.101645 20:0.762626 21:0.827516 22:2.95052 23:3.2259 24:0.100061 25:0.100061 26:0.181314 27:0.181314 0:0 
0.005055396590610309 1:0.00891613 2:0.071502 3:0.00270844 4:0.460842 5:0.712212 6:0.124826 7:0.0143415 8:0.139168 9:0 10:0.624029 11:3.70526 12:3.18374 13:0.251633 14:0.251633 15:0 16:0 17:0.154457 18:0.0143415 19:0.146011 20:0.688011 21:0.902871 22:3.04728 23:3.18374 24:0.251633 25:0.251633 26:0 27:0 0:0 
0.006005873214728777 1:0.108953 2:0.284243 3:0.0155258 4:0.475406 5:0.66866 6:0.130459 7:0.158019 8:0.284397 9:0.0486535 10:0.581904 11:4.59943 12:3.98886 13:0.17517 14:0.17517 15:0 16:0 17:0.167695 18:0.158019 19:0.293619 20:0.147104 21:0.974589 22:3.95497 23:3.98886 24:0.17517 25:0.17517 26:0 27:0 0:0 
0.00788212645523168 1:0.0680488 2:0.20754 3:0.0165235 4:0.444813 5:0.636329 6:0.219435 7:0.0620788 8:0.228352 9:0.410742 10:0.697896 11:4.61602 12:4.15622 13:0.198769 14:0.198769 15:0 16:0 17:0.166729 18:0.0620788 19:0.219818 20:0.14851 21:0.91739 22:4.05226 23:4.15622 24:0.198769 25:0.198769 26:0 27:0 0:0 
0.009977349115291384 1:0.616878 2:0.888975 3:0.0273895 4:0.424643 5:0.650566 6:0.277011 7:0.407731 8:0.665419 9:0.0622164 10:0.76138 11:4.50503 12:4.20772 13:0.2338 14:0.2338 15:0 16:0 17:0.138284 18:0.407731 19:0.532311 20:0.0410368 21:0.826678 22:4.04948 23:4.20772 24:0.2338 25:0.2338 26:0 27:0 0:0 
0.01050575369909972 1:0.72349 2:0.855918 3:0.0511169 4:0.651922 5:0.717532 6:0.0572495 7:0.599213 8:0.6438 9:0.0184063 10:0.964851 11:4.54724 12:4.53754 13:0.273073 14:0.273073 15:0.118832 16:0.118832 17:0.159108 18:0.590939 19:0.727419 20:0.0397317 21:0.928356 22:4.27713 23:4.33133 24:0.273073 25:0.273073 26:0.118832 27:0.118832 0:0 
0.00672911002071072 1:0.785825 2:0.495161 3:0.048541 4:0.779157 5:0.728152 6:0.421448 7:0.0805385 8:0.501267 9:0.0390329 10:0.961235 11:5.07956 12:4.97635 13:0.21765 14:0.21765 15:0.271589 16:0.271589 17:0.191967 18:0.3521 19:0.4819 20:0.109836 21:0.981369 22:3.95848 23:3.98023 24:0.21765 25:0.21765 26:0.271589 27:0.271589 0:0 
0.007497682207852747 1:0.636859 2:0.400851 3:0.0446774 4:0.746086 5:0.736729 6:0.253095 7:0.241189 8:0.460716 9:0.121002 10:0.491889 11:4.28936 12:3.75343 13:0.33215 14:0.33215 15:0 16:0 17:0.188438 18:0.241189 19:0.383359 20:0.130378 21:0.96674 22:3.78869 23:3.75343 24:0.33215 25:0.33215 26:0 27:0 0:0 
0.006465423691738833 1:0.568917 2:0.396151 3:0.0491127 4:0.686596 5:0.770633 6:0.245517 7:0.186136 8:0.297232 9:0.308189 10:0.75431 11:3.72768 12:3.54075 13:0.422703 14:0.422703 15:0 16:0 17:0.189356 18:0.186136 19:0.321289 20:0.174817 21:0.849581 22:3.43404 23:3.54075 24:0.422703 25:0.422703 26:0 27:0 0:0 
0.00332116834455293 1:0.290028 2:0.368807 3:0.0324063 4:1.02373 5:0.753212 6:0.0699421 7:0.0259464 8:0.0728429 9:0.407119 10:0.840635 11:4.92847 12:4.75403 13:0.111108 14:0.111108 15:0 16:0 17:0.106715 18:0.0259464 19:0.131131 20:0.0986392 21:0.98144 22:4.7387 23:4.75403 24:0.111108 25:0.111108 26:0 27:0 0:0 
-0.002072408039982465 1:0 2:0 3:0 4:0.686801 5:0.897531 6:0.339802 7:0.148752 8:0.19105 9:1 10:0.45743 11:4.73619 12:5.59857 13:0.381501 14:0.381501 15:0.133568 16:0.133568 17:0.175267 18:0.0151847 19:0.190452 20:0 21:0.505914 22:2.46999 23:3.15475 24:0.381501 25:0.381501 26:0.133568 27:0.133568 0:0 
0.001967724465369853 1:0.0890253 2:0.26036 3:0.020752 4:0.283369 5:0.777039 6:0.213995 7:0.0185727 8:0.229683 9:0.172755 10:0.558832 11:3.50423 12:2.64923 13:0.126137 14:0.126137 15:0 16:0 17:0.246684 18:0.0185727 19:0.265234 20:0.0150704 21:0.883979 22:2.8509 23:2.64923 24:0.126137 25:0.126137 26:0 27:0 0:0 
0.05520870812696872 1:0.131515 2:0.342314 3:0.0336075 4:0.412202 5:0.926579 6:0.0964975 7:0.13882 8:0.234638 9:0.0201722 10:0.792772 11:3.86765 12:3.92969 13:0.170674 14:0.170674 15:0.137324 16:0.137324 17:0.0722535 18:0.261813 19:0.294756 20:0.0738503 21:0.777135 22:3.41284 23:3.52517 24:0.170674 25:0.170674 26:0.137324 27:0.137324 0:0 
0.005722613975200726 1:0.0619097 2:0.215088 3:0.0137711 4:0.479225 5:0.908898 6:0.16265 7:0.164458 8:0.327108 9:0 10:0.91362 11:4.15992 12:4.30295 13:0.36198 14:0.36198 15:0 16:0 17:0.24578 18:0.164458 19:0.206872 20:0.455721 21:0.70804 22:3.63535 23:4.30295 24:0.36198 25:0.36198 26:0 27:0 0:0 
0.004737279962383864 1:0.00458609 2:0.0409474 3:0.00148773 4:0.266622 5:0.842901 6:0.0633755 7:0.0103074 8:0.0530681 9:1 10:0.461768 11:3.91291 12:2.91537 13:0.0997748 14:0.0997748 15:0 16:0 17:0.0697809 18:0.0103074 19:0.0717601 20:0.415887 21:0.987407 22:2.89201 23:2.91537 24:0.0997748 25:0.0997748 26:0 27:0 0:0 
0.001097713402795903 1:0 2:0 3:0 4:0.655936 5:0.856207 6:0.119013 7:0.309429 8:0.190417 9:0 10:0.309157 11:4.80077 12:3.29424 13:0.210778 14:0.210778 15:0 16:0 17:0.0917657 18:0.309429 19:0.401195 20:0 21:0.839391 22:3.58538 23:3.29424 24:0.210778 25:0.210778 26:0 27:0 0:0 
0.001952688915585665 1:7.55378e-05 2:0.00303513 3:0.000534058 4:0.735177 5:0.844852 6:0.0591207 7:0.229969 8:0.170854 9:0.0012612 10:0.312829 11:4.68724 12:3.23079 13:0.366582 14:0.366582 15:0 16:0 17:0.307465 18:0.229969 19:0.537434 20:0 21:0.796762 22:3.59193 23:3.23079 24:0.366582 25:0.366582 26:0 27:0 0:0 
0.005027055443377519 1:0.0456941 2:0.202494 3:0.00892639 4:0.366898 5:0.697258 6:0.242689 7:0.00735268 8:0.239942 9:0.617334 10:0.383688 11:4.28723 12:2.68176 13:0.0454803 14:0.0454803 15:0.0436782 16:0.0436782 17:0.26565 18:0.036382 19:0.283152 20:0.322032 21:0.987451 22:4.41649 23:4.3928 24:0.0454803 25:0.0454803 26:0.0436782 27:0.0436782 0:0 
0.0005613589790918111 1:0.0126729 2:0.0972298 3:0.00205994 4:0.337164 5:0.652403 6:0.180117 7:0.0412236 8:0.205814 9:0.259982 10:0.869557 11:4.17197 12:3.93258 13:0.153295 14:0.153295 15:0 16:0 17:0.131171 18:0.0412236 19:0.172395 20:0 21:0.923673 22:3.80526 23:3.93258 24:0.153295 25:0.153295 26:0 27:0 0:0 
0.01007678964660325 1:0 2:0 3:0 4:0.449104 5:0.871995 6:0.0862148 7:0.098203 8:0.0119881 9:0 10:0.914096 11:3.65293 12:3.57495 13:0.167367 14:0.167367 15:0 16:0 17:0.0811526 18:0.098203 19:0.179356 20:0 21:0.552917 22:3.05141 23:3.57495 24:0.167367 25:0.167367 26:0 27:0 0:0 
0.004381340419848753 1:0 2:0 3:0 4:0.502287 5:0.874142 6:0.112087 7:0.0879458 8:0.200033 9:0 10:0.650364 11:3.70951 12:4.29038 13:0.1837 14:0.1837 15:0.073128 16:0.073128 17:0.144741 18:0.161074 19:0.0163332 20:0 21:0.520386 22:3.09838 23:3.59669 24:0.1837 25:0.1837 26:0.073128 27:0.073128 0:0 
0.0004142605742571809 1:0 2:0 3:0 4:0.454169 5:0.788333 6:0.192471 7:0.0626279 8:0.129843 9:1 10:0.62403 11:3.19599 12:3.83861 13:0.378598 14:0.378598 15:0.0193185 16:0.0193185 17:0.205446 18:0.0433095 19:0.248755 20:0 21:0.934872 22:2.64646 23:2.76109 24:0.378598 25:0.378598 26:0.0193185 27:0.0193185 0:0 
0.004120285896968839 1:0 2:0 3:0 4:0.446337 5:0.776431 6:0.153736 7:0.0547656 8:0.0989708 9:1 10:0.656071 11:3.25485 12:3.85119 13:0.309794 14:0.309794 15:0.0227273 16:0.0227273 17:0.178784 18:0.0320384 19:0.210823 20:0 21:0.96346 22:2.63276 23:2.69549 24:0.309794 25:0.309794 26:0.0227273 27:0.0227273 0:0 
0.006532580006482132 1:0 2:0 3:0 4:0.566179 5:0.759666 6:0.0659584 7:0.0709538 8:0.136912 9:0 10:0.966922 11:3.87203 12:3.92699 13:0.0123163 14:0.0123163 15:0.127251 16:0.127251 17:0.180894 18:0.0562976 19:0.124596 20:1 21:0.946891 22:2.53784 23:2.64348 24:0.0123163 25:0.0123163 26:0.127251 27:0.127251 0:0 
0.002303309009185057 1:0 2:0 3:0 4:0.451089 5:0.720067 6:0.1477 7:0.0300887 8:0.117611 9:1 10:0.711079 11:3.65106 12:3.37231 13:0.316599 14:0.316599 15:0.0103883 16:0.0103883 17:0.179288 18:0.0197004 19:0.198988 20:0 21:0.923066 22:1.95051 23:2.09656 24:0.316599 25:0.316599 26:0.0103883 27:0.0103883 0:0 
0.001946974426047882 1:0.00307183 2:0.0291285 3:0.00110626 4:0.300138 5:0.630394 6:0.0745183 7:0.0179107 8:0.0597343 9:0.783592 10:0.961099 11:3.58413 12:3.5208 13:0.0978335 14:0.0978335 15:0.0254405 16:0.0254405 17:0.129262 18:0.00752971 19:0.136791 20:0 21:0.914199 22:2.05451 23:2.22787 24:0.0978335 25:0.0978335 26:0.0254405 27:0.0254405 0:0 
0.0002210401513387988 1:0.0057485 2:0.0472886 3:0.00232697 4:0.288765 5:0.6118 6:0.0691926 7:0.0176197 8:0.0786299 9:0.288949 10:0.999048 11:3.62248 12:3.62086 13:0.179001 14:0.179001 15:0.0438492 16:0.0438492 17:0.0933045 18:0.0262295 19:0.119534 20:0 21:0.983931 22:2.09299 23:2.12383 24:0.179001 25:0.179001 26:0.0438492 27:0.0438492 0:0 
0.009842432492034732 1:0.00762408 2:0.0610016 3:0.00202179 4:0.354578 5:0.60851 6:0.144126 7:0.000692308 8:0.143604 9:0.771599 10:0.568357 11:3.50404 12:2.407 13:0.273053 14:0.273053 15:0 16:0 17:0.14732 18:0.000692308 19:0.148012 20:0 21:0.835659 22:2.05791 23:2.407 24:0.273053 25:0.273053 26:0 27:0 0:0 
0.001026064323138893 1:0.0872563 2:0.278484 3:0.00985772 4:0.186481 5:0.657535 6:0.257537 7:0.0117489 8:0.269135 9:0.0500071 10:0.961176 11:4.14064 12:4.07203 13:0.0887419 14:0.0887419 15:0 16:0 17:0.208121 18:0.0117489 19:0.219736 20:0.0468622 21:0.924277 22:3.93405 23:4.07203 24:0.0887419 25:0.0887419 26:0 27:0 0:0 
0.03342494210151187 1:0 2:0 3:0 4:0.508663 5:0.783479 6:0.0930218 7:0.187611 8:0.280633 9:0 10:0.970201 11:3.37632 12:3.41348 13:0.0364225 14:0.0364225 15:0 16:0 17:0.0565994 18:0.187611 19:0.244211 20:0 21:0.726289 22:3.23932 23:3.41348 24:0.0364225 25:0.0364225 26:0 27:0 0:0 
0.007242999987974312 1:0 2:0 3:0 4:0.526684 5:0.726366 6:0.274509 7:0.255245 8:0.529754 9:0 10:0.936371 11:3.61848 12:3.54012 13:0.36362 14:0.36362 15:0 16:0 17:0.0891109 18:0.255245 19:0.166134 20:0 21:0.56279 22:3.07029 23:3.54012 24:0.36362 25:0.36362 26:0 27:0 0:0 
0.003281054502170253 1:0.305264 2:0.632805 3:0.0407417 4:0.881758 5:0.714315 6:0.292736 7:0.279498 8:0.461262 9:0.20706 10:0.835092 11:4.55201 12:4.37713 13:0.336851 14:0.336851 15:0 16:0 17:0.0678232 18:0.279498 19:0.319238 20:0.0586507 21:0.667848 22:4.25226 23:4.37713 24:0.336851 25:0.336851 26:0 27:0 0:0 
0.001850505306582165 1:0.187161 2:0.323939 3:0.0382167 4:0.951346 5:0.697146 6:0.275419 7:0.195118 8:0.230638 9:0.445234 10:0.814164 11:4.74145 12:4.47119 13:0.311301 14:0.311301 15:0 16:0 17:0.0602889 18:0.195118 19:0.250551 20:0.0341425 21:0.702442 22:4.32677 23:4.47119 24:0.311301 25:0.311301 26:0 27:0 0:0 
0.0126106756494137 1:0.188065 2:0.31782 3:0.031395 4:0.607009 5:0.782903 6:0.128501 7:0.0727413 8:0.071259 9:0.701892 10:0.572196 11:4.9622 12:3.85734 13:0.18709 14:0.18709 15:0 16:0 17:0.0590175 18:0.0727413 19:0.13012 20:0.0452323 21:0.888419 22:3.72671 23:3.85734 24:0.18709 25:0.18709 26:0 27:0 0:0 
0.006450512778130469 1:0.0802634 2:0.268071 3:0.0212901 4:0.383964 5:0.880167 6:0.105 7:0.246598 8:0.170947 9:0.113487 10:0.570956 11:3.78454 12:3.66468 13:0.321556 14:0.321556 15:0 16:0 17:0.223229 18:0.246598 19:0.4676 20:0.0294897 21:0.857032 22:3.5808 23:3.66468 24:0.321556 25:0.321556 26:0 27:0 0:0 
0.01132549624784039 1:0.21562 2:0.518739 3:0.0548935 4:0.535186 5:0.818187 6:0.301502 7:0.283963 8:0.494555 9:0.185901 10:0.960208 11:3.46712 12:3.52815 13:0.203783 14:0.203783 15:0.0323157 16:0.0323157 17:0.0883398 18:0.289479 19:0.302529 20:0.094322 21:0.762968 22:3.01235 23:3.20143 24:0.203783 25:0.203783 26:0.0323157 27:0.0323157 0:0 
0.01665929065079961 1:0.228441 2:0.558763 3:0.0227356 4:0.491034 5:0.794336 6:0.189153 7:0.363196 8:0.511482 9:0.0869961 10:0.961831 11:3.10511 12:3.13824 13:0.262439 14:0.262439 15:0 16:0 17:0.108025 18:0.363196 19:0.258242 20:0.0265846 21:0.416554 22:2.73489 23:3.13824 24:0.262439 25:0.262439 26:0 27:0 0:0 
0.003904524635825525 1:0.131516 2:0.343371 3:0.0318909 4:0.387837 5:0.787859 6:0.107364 7:0.270447 8:0.373578 9:0.0299024 10:0.938802 11:3.30343 12:3.26639 13:0.143766 14:0.143766 15:0.238311 16:0.238311 17:0.201094 18:0.0546867 19:0.245802 20:0.173906 21:0.991387 22:2.63484 23:2.64864 24:0.143766 25:0.143766 26:0.238311 27:0.238311 0:0 
0.01921691696980294 1:0.166216 2:0.434723 3:0.0198364 4:0.316776 5:0.808577 6:0.203646 7:0.146374 8:0.312697 9:0.17711 10:0.976716 11:3.47181 12:3.50036 13:0.104218 14:0.104218 15:0 16:0 17:0.306668 18:0.146374 19:0.404118 20:0.221952 21:0.831512 22:3.25136 23:3.50036 24:0.104218 25:0.104218 26:0 27:0 0:0 
0.00373955359056596 1:0.133458 2:0.332505 3:0.0223541 4:0.380779 5:0.78058 6:0.279142 7:0.122561 8:0.400879 9:0.0307782 10:0.69337 11:3.05042 12:3.52118 13:0.302028 14:0.302028 15:0.129309 16:0.129309 17:0.161475 18:0.251788 19:0.111381 20:0.153058 21:0.32923 22:2.36901 23:3.00025 24:0.302028 25:0.302028 26:0.129309 27:0.129309 0:0 
0.01424918033836853 1:0.0909816 2:0.270192 3:0.0123596 4:0.244298 5:0.812347 6:0.208862 7:0.100218 8:0.292371 9:0.153709 10:0.884941 11:3.28349 12:3.42116 13:0.160775 14:0.160775 15:0 16:0 17:0.0669407 18:0.100218 19:0.167093 20:0.00730292 21:0.530399 22:2.88845 23:3.42116 24:0.160775 25:0.160775 26:0 27:0 0:0 
0.01922549636857935 1:0.0149054 2:0.0698886 3:0.00717163 4:0.524604 5:0.822275 6:0.140604 7:0.195626 8:0.336224 9:0.00152318 10:0.938417 11:3.20866 12:3.1734 13:0.197877 14:0.197877 15:0 16:0 17:0.0589287 18:0.195626 19:0.140272 20:0.038863 21:0.530537 22:2.73053 23:3.1734 24:0.197877 25:0.197877 26:0 27:0 0:0 
0.0005975662616004079 1:0.00571452 2:0.0362419 3:0.00274658 4:0.5905 5:0.799563 6:0.241532 7:0.247746 8:0.0344093 9:0.420305 10:0.516985 11:3.4765 12:2.8486 13:0.15684 14:0.15684 15:0 16:0 17:0.0893904 18:0.247746 19:0.168959 20:0.0658181 21:0.924403 22:2.90167 23:2.8486 24:0.15684 25:0.15684 26:0 27:0 0:0 
0.0036523846930768 1:0.0066264 2:0.0411382 3:0.0019455 4:0.601772 5:0.731451 6:0.190303 7:0.0780381 8:0.266517 9:0.0581041 10:0.928234 11:3.05517 12:2.98499 13:0.342816 14:0.342816 15:0 16:0 17:0.155349 18:0.0780381 19:0.0773113 20:0.999558 21:0.632491 22:2.71533 23:2.98499 24:0.342816 25:0.342816 26:0 27:0 0:0 
0.0002260507517899775 1:0 2:0 3:0 4:1.01007 5:0.775108 6:0.194448 7:0.411565 8:0.217117 9:0 10:0.739407 11:3.65638 12:3.46851 13:0.320528 14:0.320528 15:0 16:0 17:0.126079 18:0.411565 19:0.537644 20:0 21:0.848547 22:3.3521 23:3.46851 24:0.320528 25:0.320528 26:0 27:0 0:0 
-0.002133411336678556 1:0 2:0 3:0 4:0.620866 5:0.667199 6:0.0993547 7:0.141988 8:0.241342 9:0 10:0.987954 11:5.05714 12:5.03414 13:0.104811 14:0.104811 15:0.0742656 16:0.0742656 17:0.0797217 18:0.216253 19:0.136532 20:0 21:0.356855 22:3.30507 23:4.13808 24:0.104811 25:0.104811 26:0.0742656 27:0.0742656 0:0 
-0.001316026707822794 1:0.349242 2:0.328309 3:0.0292615 4:0.3534 5:0.835732 6:0.249573 7:0.019717 8:0.259023 9:0.330154 10:0.565921 11:5.00208 12:6.18352 13:0.317919 14:0.317919 15:0.10718 16:0.10718 17:0.0721118 18:0.0885742 19:0.058952 20:0.300669 21:0.573549 22:2.05064 23:2.40094 24:0.317919 25:0.317919 26:0.10718 27:0.10718 0:0 
-0.003152112473961405 1:0.14395 2:0.214042 3:0.00614166 4:0.380335 5:0.734992 6:0.305498 7:0.0912435 8:0.389011 9:0.116017 10:0.890893 11:4.83268 12:4.9803 13:0.3929 14:0.3929 15:0.0860346 16:0.0860346 17:0.0548419 18:0.00892989 19:0.0590014 20:0.324047 21:0.519564 22:2.21675 23:3.14159 24:0.3929 25:0.3929 26:0.0860346 27:0.0860346 0:0 
-0.005791521006089571 1:0.629195 2:0.39162 3:0.0723934 4:0.689241 5:0.68827 6:0.277108 7:0.250094 8:0.526404 9:0.0184349 10:0.946458 11:4.16242 12:4.08053 13:0.366814 14:0.366814 15:0.228181 16:0.228181 17:0.0737878 18:0.382143 19:0.442568 20:0.0327926 21:0.739735 22:2.84686 23:3.01724 24:0.366814 25:0.366814 26:0.228181 27:0.228181 0:0 
-0.006036732424746082 1:0 2:0 3:0 4:0.391672 5:0.749308 6:0.0896469 7:0.0247633 8:0.11441 9:0 10:0.854809 11:2.61138 12:2.49547 13:0.154724 14:0.154724 15:0 16:0 17:0.0650769 18:0.0247633 19:0.0403136 20:1 21:0.623462 22:2.01404 23:2.49547 24:0.154724 25:0.154724 26:0 27:0 0:0 
-0.00251751658482819 1:0.538271 2:0.328932 3:0.0435389 4:0.501325 5:0.644308 6:0.153638 7:0.139716 8:0.283796 9:0.0855284 10:0.865819 11:4.86626 12:4.63291 13:0.308418 14:0.308418 15:0 16:0 17:0.245172 18:0.139716 19:0.319515 20:0.258121 21:0.593079 22:3.99304 23:4.63291 24:0.308418 25:0.308418 26:0 27:0 0:0 
-0.001664191876622178 1:0.509097 2:0.382527 3:0.0748324 4:0.807207 5:0.774869 6:0.0953523 7:0.456233 8:0.434618 9:0.0665072 10:0.552167 11:4.29251 12:4.07755 13:0.0574721 14:0.0574721 15:0.269653 16:0.269653 17:0.178606 18:0.24164 19:0.409344 20:0.0622864 21:0.986964 22:4.56227 23:4.57471 24:0.0574721 25:0.0574721 26:0.269653 27:0.269653 0:0 
-0.002252650742979819 1:0.430157 2:0.348614 3:0.0352097 4:0.597346 5:0.81341 6:0.0828359 7:0.189838 8:0.268307 9:0.0374576 10:0.963851 11:4.91143 12:4.94698 13:0.133246 14:0.133246 15:0 16:0 17:0.194873 18:0.189838 19:0.340738 20:0.155879 21:0.716404 22:4.63102 23:4.94698 24:0.133246 25:0.133246 26:0 27:0 0:0 
-0.007204456127405543 1:0.849927 2:0.844404 3:0.200858 4:1.07151 5:0.795919 6:0.103005 7:0.418332 8:0.464946 9:0.0664164 10:0.689015 11:2.57892 12:2.32202 13:0.127713 14:0.127713 15:0 16:0 17:0.114462 18:0.418332 19:0.532709 20:0.00296936 21:0.731124 22:2.19413 23:2.32202 24:0.127713 25:0.127713 26:0 27:0 0:0 
-0.002033872981701601 1:1.35011 2:1.24133 3:0.287501 4:1.11978 5:0.793174 6:0.0816593 7:0.902418 8:0.978112 9:0.0103807 10:0.996506 11:3.55562 12:3.55481 13:0.896165 14:0.896165 15:0.862876 16:0.862876 17:0.707907 18:0.0834523 19:0.691092 20:0.545855 21:0.715925 22:2.74046 23:3.41118 24:0.896165 25:0.896165 26:0.862876 27:0.862876 0:0 
-0.003000212432471312 1:0 2:0 3:0 4:0.604436 5:0.858233 6:0.0849064 7:0.167628 8:0.252534 9:0 10:0.546698 11:4.45432 12:4.78916 13:0.00398234 14:0.00398234 15:0 16:0 17:0.0888887 18:0.167628 19:0.256516 20:0 21:0.405515 22:4.35295 23:4.78916 24:0.00398234 25:0.00398234 26:0 27:0 0:0 
0.0009927702150883842 1:0.161048 2:0.35287 3:0.0150476 4:0.414927 5:0.787398 6:0.236855 7:0.0565383 8:0.2881 9:0.124994 10:0.943311 11:3.85395 12:3.7296 13:0.35868 14:0.35868 15:0.0805523 16:0.0805523 17:0.136576 18:0.0353373 19:0.171905 20:0.00609363 21:0.984503 22:3.06968 23:3.03672 24:0.35868 25:0.35868 26:0.0805523 27:0.0805523 0:0 
0.01319890226054264 1:0.127139 2:0.319119 3:0.0153368 4:0.399199 5:0.767849 6:0.234741 7:0.0621166 8:0.284958 9:0.178884 10:0.966232 11:3.87413 12:3.8016 13:0.252418 14:0.252418 15:0 16:0 17:0.0771159 18:0.0621166 19:0.112936 20:0.22509 21:0.79446 22:3.3376 23:3.8016 24:0.252418 25:0.252418 26:0 27:0 0:0 
0.01689159580503674 1:0.23385 2:0.576895 3:0.0309372 4:0.467507 5:0.703431 6:0.338335 7:0.186038 8:0.51755 9:0.0694897 10:0.993855 11:2.95624 12:2.94727 13:0.174915 14:0.174915 15:0.0395792 16:0.0395792 17:0.208132 18:0.161064 19:0.343267 20:0.137252 21:0.888829 22:2.53421 23:2.692 24:0.174915 25:0.174915 26:0.0395792 27:0.0395792 0:0 
0.004418557060740321 1:0.0549507 2:0.15155 3:0.0114059 4:0.408484 5:0.892981 6:0.205324 7:0.0712992 8:0.13928 9:0.849273 10:0.503391 11:3.94754 12:3.30674 13:0.329029 14:0.329029 15:0 16:0 17:0.130523 18:0.0712992 19:0.200092 20:0.0565283 21:0.892396 22:3.45223 23:3.30674 24:0.329029 25:0.329029 26:0 27:0 0:0 
0.0007375470074617556 1:0.418114 2:0.800318 3:0.0717873 4:1.0156 5:0.655323 6:0.113663 7:0.559352 8:0.640065 9:0.0426058 10:0.991478 11:3.53576 12:3.54077 13:0.248981 14:0.248981 15:0.278622 16:0.278622 17:0.248044 18:0.386851 19:0.634089 20:0.0128494 21:0.861181 22:2.98802 23:3.12098 24:0.248981 25:0.248981 26:0.278622 27:0.278622 0:0 
0.0157617798074681 1:0.101567 2:0.260829 3:0.0256283 4:0.407751 5:0.876327 6:0.197143 7:0.126067 8:0.222474 9:0.343237 10:0.809939 11:3.90374 12:3.63117 13:0.157085 14:0.157085 15:0 16:0 17:0.174281 18:0.126067 19:0.267059 20:0.180115 21:0.938974 22:3.72305 23:3.63117 24:0.157085 25:0.157085 26:0 27:0 0:0 
0.003067839139780065 1:0.210373 2:0.461414 3:0.0384521 4:0.428738 5:0.670116 6:0.186677 7:0.209873 8:0.344073 9:0.155243 10:0.888492 11:2.88291 12:3.01432 13:0.28848 14:0.28848 15:0.192664 16:0.192664 17:0.187201 18:0.0422564 19:0.151142 20:0.803463 21:0.846461 22:2.04843 23:2.34508 24:0.28848 25:0.28848 26:0.192664 27:0.192664 0:0 
0.00616047145624515 1:0.000780902 2:0.0104051 3:0.00087738 4:0.631502 5:0.804486 6:0.126646 7:0.0108039 8:0.115905 9:0.964221 10:0.629674 11:3.21685 12:2.48055 13:0.0444918 14:0.0444918 15:0.0109299 16:0.0109299 17:0.0943571 18:0.0217338 19:0.0726233 20:1 21:0.759719 22:2.2002 23:1.87531 24:0.0444918 25:0.0444918 26:0.0109299 27:0.0109299 0:0 
0.001246157595890756 1:0.45566 2:0.756654 3:0.058835 4:0.540102 5:0.664276 6:0.10008 7:0.447848 8:0.355332 9:0.0304674 10:0.406723 11:3.7097 12:3.41989 13:0.1738 14:0.1738 15:0.317799 16:0.317799 17:0.185193 18:0.192015 19:0.369488 20:0.0633395 21:0.785734 22:2.52664 23:2.87639 24:0.1738 25:0.1738 26:0.317799 27:0.317799 0:0 
0.004830229420854449 1:0.255463 2:0.482157 3:0.0500501 4:0.803002 5:0.667654 6:0.0678073 7:0.463153 8:0.476849 9:0.0450185 10:0.961423 11:2.81236 12:2.82743 13:0.14541 14:0.14541 15:0 16:0 17:0.0812564 18:0.463153 19:0.494285 20:0.049984 21:0.549781 22:2.6988 23:2.82743 24:0.14541 25:0.14541 26:0 27:0 0:0 
0.02377068813705132 1:0.288078 2:0.386238 3:0.0548951 4:0.726264 5:0.657789 6:0.0568786 7:0.362814 8:0.354705 9:0.0500047 10:0.976952 11:2.74364 12:2.73712 13:0.110025 14:0.110025 15:0 16:0 17:0.0531677 18:0.362814 19:0.376065 20:0.044407 21:0.547211 22:2.60225 23:2.73712 24:0.110025 25:0.110025 26:0 27:0 0:0 
0.01617666718980056 1:0.313402 2:0.237773 3:0.0606939 4:0.515546 5:0.850849 6:0.10239 7:0.107556 8:0.171888 9:0.189256 10:0.713516 11:2.97858 12:3.23494 13:0.153729 14:0.153729 15:0 16:0 17:0.14661 18:0.107556 19:0.112926 20:0.462882 21:0.31348 22:2.52839 23:3.23494 24:0.153729 25:0.153729 26:0 27:0 0:0 
-0.001254314197340267 1:0 2:0 3:0 4:0.374594 5:0.722741 6:0.116747 7:0.0199716 8:0.136719 9:0 10:0.873177 11:3.7548 12:4.02346 13:0.18138 14:0.18138 15:0 16:0 17:0.064633 18:0.0199716 19:0.0446615 20:1 21:0.290538 22:1.94805 23:4.02346 24:0.18138 25:0.18138 26:0 27:0 0:0 
0.001485289751657896 1:0.491997 2:0.796491 3:0.0402832 4:0.877724 5:0.656281 6:0.243467 7:0.405386 8:0.648841 9:0.00146051 10:0.794203 11:3.32279 12:3.05609 13:0.179748 14:0.179748 15:0 16:0 17:0.0911873 18:0.405386 19:0.480465 20:0.0373475 21:0.647128 22:2.76231 23:3.05609 24:0.179748 25:0.179748 26:0 27:0 0:0 
0.00361075843418564 1:0.599788 2:0.947307 3:0.0368118 4:0.836935 5:0.677341 6:0.299057 7:0.487125 8:0.782175 9:0.0251678 10:0.821116 11:3.26426 12:3.0338 13:0.249847 14:0.249847 15:0 16:0 17:0.135915 18:0.487125 19:0.59239 20:0.0510005 21:0.7551 22:2.80935 23:3.0338 24:0.249847 25:0.249847 26:0 27:0 0:0 
-0.004118468975801219 1:0 2:0 3:0 4:0.226518 5:0.731828 6:0.067043 7:0.0606273 8:0.12767 9:0 10:0.983886 11:3.93512 12:3.96269 13:0.00635445 14:0.00635445 15:0 16:0 17:0.0733975 18:0.0606273 19:0.134025 20:0 21:0.654923 22:3.21764 23:3.96269 24:0.00635445 25:0.00635445 26:0 27:0 0:0 
0.00497422420719712 1:0.171207 2:0.364821 3:0.0400007 4:0.916631 5:0.641479 6:0.0769114 7:0.539617 8:0.574443 9:0.0392303 10:0.466943 11:3.58178 12:3.43961 13:0.471232 14:0.471232 15:0.506085 16:0.506085 17:0.113383 18:0.0443301 19:0.157602 20:0.0191202 21:0.729426 22:2.28522 23:2.76495 24:0.471232 25:0.471232 26:0.506085 27:0.506085 0:0 
0.003146319146755341 1:0.540673 2:0.783717 3:0.101598 4:0.840363 5:0.63307 6:0.0932403 7:0.543863 8:0.611328 9:0.0355475 10:0.839596 11:3.70184 12:3.62046 13:0.374276 14:0.374276 15:0.437372 16:0.437372 17:0.165813 18:0.127956 19:0.287738 20:0.0736826 21:0.89462 22:2.16741 23:2.37158 24:0.374276 25:0.374276 26:0.437372 27:0.437372 0:0 
0.001227326417608647 1:0.524617 2:0.774693 3:0.0583605 4:0.793348 5:0.712016 6:0.125976 7:0.473198 8:0.587795 9:0.0315922 10:0.777597 11:3.46171 12:3.60384 13:0.224551 14:0.224551 15:0.321646 16:0.321646 17:0.255292 18:0.212307 19:0.450573 20:0.094692 21:0.929191 22:2.68322 23:2.80195 24:0.224551 25:0.224551 26:0.321646 27:0.321646 0:0 
0.01003622100127313 1:0.478528 2:0.744339 3:0.0484793 4:0.681848 5:0.760897 6:0.396169 7:0.257285 8:0.54972 9:0.231266 10:0.941409 11:3.10712 12:3.01659 13:0.217971 14:0.217971 15:0 16:0 17:0.250424 18:0.257285 19:0.480959 20:0.102342 21:0.89727 22:2.86599 23:3.01659 24:0.217971 25:0.217971 26:0 27:0 0:0 
0.02597330750787374 1:0.228062 2:0.43902 3:0.045365 4:0.746697 5:0.835217 6:0.231748 7:0.0820128 8:0.309038 9:0.0934012 10:0.803124 11:3.12562 12:2.79282 13:0.160198 14:0.160198 15:0 16:0 17:0.199601 18:0.0820128 19:0.278047 20:0.0793831 21:0.909417 22:2.92929 23:2.79282 24:0.160198 25:0.160198 26:0 27:0 0:0 
0.0008012692341477232 1:0.157217 2:0.319968 3:0.0325939 4:0.644112 5:0.765327 6:0.240833 7:0.0378863 8:0.261921 9:0.292564 10:0.47593 11:3.77148 12:2.60664 13:0.124153 14:0.124153 15:0 16:0 17:0.220466 18:0.0378863 19:0.250088 20:0.198769 21:0.898269 22:2.76988 23:2.60664 24:0.124153 25:0.124153 26:0 27:0 0:0 
0.002621016024973719 1:0.194902 2:0.386911 3:0.0359191 4:0.743904 5:0.660349 6:0.333748 7:0.0706112 8:0.370541 9:0.298937 10:0.455709 11:3.94873 12:2.68322 13:0.301392 14:0.301392 15:0 16:0 17:0.226535 18:0.0706112 19:0.297067 20:0.0130922 21:0.978144 22:2.71874 23:2.68322 24:0.301392 25:0.301392 26:0 27:0 0:0 
0.004482137682201889 1:0.402543 2:0.695415 3:0.0396709 4:1.03018 5:0.707752 6:0.297171 7:0.468067 8:0.688008 9:0.112682 10:0.487514 11:3.55435 12:2.92799 13:0.401677 14:0.401677 15:0 16:0 17:0.190412 18:0.468067 19:0.596556 20:0.0849012 21:0.943517 22:2.87359 23:2.92799 24:0.401677 25:0.401677 26:0 27:0 0:0 
-0.003037454200358516 1:0 2:0 3:0 4:0.312235 5:0.802824 6:0.0580381 7:0.0704075 8:0.128446 9:0 10:0.595175 11:4.01765 12:4.61434 13:0.0970016 14:0.0970016 15:0.0902647 16:0.0902647 17:0.0513011 18:0.0198571 19:0.031444 20:1 21:0.711926 22:2.50404 23:1.98587 24:0.0970016 25:0.0970016 26:0.0902647 27:0.0902647 0:0 
0.004097783870117097 1:0.33726 2:0.576801 3:0.0366211 4:1.34788 5:0.644998 6:0.0775042 7:0.460658 8:0.502468 9:0.0432102 10:0.497653 11:3.27969 12:2.71856 13:0.104817 14:0.104817 15:0 16:0 17:0.167096 18:0.460658 19:0.606839 20:0.0487807 21:0.937471 22:2.64563 23:2.71856 24:0.104817 25:0.104817 26:0 27:0 0:0 
0.007928163526357071 1:0.358912 2:0.265733 3:0.0326305 4:0.349167 5:0.77865 6:0.0888556 7:0.129328 8:0.208816 9:0.077108 10:0.335962 11:3.66874 12:2.23102 13:0.126396 14:0.126396 15:0 16:0 17:0.167504 18:0.129328 19:0.225149 20:0.263767 21:0.917654 22:2.37892 23:2.23102 24:0.126396 25:0.126396 26:0 27:0 0:0 
0.0008316169653797684 1:0.649576 2:0.948106 3:0.037879 4:0.759363 5:0.665035 6:0.244186 7:0.469537 8:0.706584 9:0.0324059 10:0.969705 11:3.47941 12:3.44298 13:0.261981 14:0.261981 15:0 16:0 17:0.245001 18:0.469537 19:0.561305 20:0.142026 21:0.469493 22:2.64007 23:3.44298 24:0.261981 25:0.261981 26:0 27:0 0:0 
-0.002107137981033266 1:0 2:0 3:0 4:0.266401 5:0.773097 6:0.0874206 7:0.0648473 8:0.152268 9:0 10:0.529972 11:4.67907 12:5.09113 13:0.061699 14:0.061699 15:0.0275023 16:0.0275023 17:0.053224 18:0.037345 19:0.090569 20:0 21:0.835118 22:3.25735 23:3.64444 24:0.061699 25:0.061699 26:0.0275023 27:0.0275023 0:0 
0.008347951306309987 1:0.368834 2:0.551396 3:0.0567083 4:1.11229 5:0.710025 6:0.197294 7:0.204183 8:0.356964 9:0.148524 10:0.850976 11:4.39367 12:4.21223 13:0.242216 14:0.242216 15:0 16:0 17:0.112965 18:0.204183 19:0.285333 20:0.104099 21:0.696726 22:3.95832 23:4.21223 24:0.242216 25:0.242216 26:0 27:0 0:0 
0.002164738451314722 1:0.049533 2:0.189136 3:0.011673 4:0.697994 5:0.708032 6:0.206406 7:0.0827726 8:0.222279 9:0.378979 10:0.901232 11:4.63615 12:4.47434 13:0.382549 14:0.382549 15:0 16:0 17:0.316414 18:0.0827726 19:0.394424 20:0.0967183 21:0.540372 22:3.60176 23:4.47434 24:0.382549 25:0.382549 26:0 27:0 0:0 
0.001420334808127526 1:0.00595939 2:0.0527538 3:0.00198364 4:0.476171 5:0.81907 6:0.0594322 7:0.165923 8:0.225355 9:0 10:0.365124 11:4.73212 12:3.25158 13:0.148846 14:0.148846 15:0 16:0 17:0.198794 18:0.165923 19:0.354102 20:0.0844157 21:0.855495 22:3.45905 23:3.25158 24:0.148846 25:0.148846 26:0 27:0 0:0 
0.001813390248436529 1:0.010154 2:0.075492 3:0.0031662 4:0.454607 5:0.826916 6:0.0668648 7:0.163681 8:0.230545 9:0 10:0.374673 11:4.74686 12:3.32694 13:0.1531 14:0.1531 15:0 16:0 17:0.198321 18:0.163681 19:0.340542 20:0.121717 21:0.872938 22:3.51482 23:3.32694 24:0.1531 25:0.1531 26:0 27:0 0:0 
0.003107096602180895 1:0.118944 2:0.295867 3:0.0302124 4:0.585238 5:0.774352 6:0.0661492 7:0.0370354 8:0.0294996 9:0.930967 10:0.943205 11:4.4165 12:4.49723 13:0.493249 14:0.493249 15:0 16:0 17:0.44434 18:0.0370354 19:0.47346 20:0.204191 21:0.615091 22:3.77347 23:4.49723 24:0.493249 25:0.493249 26:0 27:0 0:0 
0.002038573971267149 1:0.0842513 2:0.26573 3:0.0178574 4:0.383671 5:0.7812 6:0.204639 7:0.109283 8:0.238358 9:0.327432 10:0.545582 11:4.1725 12:3.66884 13:0.264042 14:0.264042 15:0 16:0 17:0.183035 18:0.109283 19:0.292314 20:0.00211077 21:0.946995 22:3.72462 23:3.66884 24:0.264042 25:0.264042 26:0 27:0 0:0 
0.004812371646980557 1:0.0349359 2:0.134711 3:0.010107 4:0.447636 5:0.810353 6:0.190433 7:0.0330538 8:0.175243 9:0.625855 10:0.879868 11:3.67026 12:3.85305 13:0.164242 14:0.164242 15:0 16:0 17:0.0966516 18:0.0330538 19:0.115656 20:0.26603 21:0.441974 22:2.956 23:3.85305 24:0.164242 25:0.164242 26:0 27:0 0:0 
0.00494824953133126 1:0.0172942 2:0.10209 3:0.0037384 4:0.357048 5:0.834295 6:0.158695 7:0.118149 8:0.228395 9:0.225899 10:0.899178 11:3.28752 12:3.44089 13:0.246389 14:0.246389 15:0 16:0 17:0.141262 18:0.118149 19:0.023113 20:1 21:0.433751 22:2.5769 23:3.44089 24:0.246389 25:0.246389 26:0 27:0 0:0 
0.01841071101056893 1:0.0403012 2:0.141583 3:0.0141525 4:0.34253 5:0.91284 6:0.185951 7:0.0889872 8:0.195496 9:0.392196 10:0.554033 11:3.53034 12:3.0574 13:0.232922 14:0.232922 15:0 16:0 17:0.0743259 18:0.0889872 19:0.159957 20:0.0589971 21:0.913725 22:2.99876 23:3.0574 24:0.232922 25:0.232922 26:0 27:0 0:0 
0.009249379098791703 1:0.0622844 2:0.227106 3:0.0162888 4:0.314127 5:0.877915 6:0.168864 7:0.16847 8:0.259448 9:0.221008 10:0.984879 11:3.4399 12:3.45601 13:0.154179 14:0.154179 15:0 16:0 17:0.079091 18:0.16847 19:0.113014 20:0.131011 21:0.433302 22:2.9405 23:3.45601 24:0.154179 25:0.154179 26:0 27:0 0:0 
-0.0008759636699957276 1:0.222321 2:0.192184 3:0.00419617 4:0.111327 5:0.682004 6:0.0762623 7:0.0790991 8:0.141465 9:0.133041 10:0.656432 11:4.4238 12:4.9798 13:0.102069 14:0.102069 15:0 16:0 17:0.0510608 18:0.0790991 19:0.0402883 20:0.189896 21:0.30707 22:3.69489 23:4.9798 24:0.102069 25:0.102069 26:0 27:0 0:0 
0.004358663798800292 1:0.0700236 2:0.244818 3:0.0162888 4:0.227525 5:0.868254 6:0.237053 7:0.0107835 8:0.247833 9:0.00793234 10:0.87255 11:3.09948 12:3.31557 13:0.205286 14:0.205286 15:0 16:0 17:0.0502286 18:0.0107835 19:0.0580745 20:0.219615 21:0.51 22:2.53423 23:3.31557 24:0.205286 25:0.205286 26:0 27:0 0:0 
0.002186477294387606 1:0.336469 2:0.448479 3:0.0188344 4:0.325121 5:0.466437 6:0.297515 7:0.16423 8:0.392594 9:0.245061 10:0.895352 11:3.49473 12:3.75232 13:0.246166 14:0.246166 15:0 16:0 17:0.0674237 18:0.16423 19:0.224842 20:0.0489692 21:0.392303 22:2.24732 23:3.75232 24:0.246166 25:0.246166 26:0 27:0 0:0 
0.03116807330444702 1:0.171641 2:0.430794 3:0.0418091 4:0.321653 5:0.852409 6:0.0976607 7:0.173001 8:0.237867 9:0.115185 10:0.681514 11:2.95337 12:2.7137 13:0.1337 14:0.1337 15:0 16:0 17:0.0510634 18:0.173001 19:0.19966 20:0.0747621 21:0.81551 22:2.67001 23:2.7137 24:0.1337 25:0.1337 26:0 27:0 0:0 
0.002417246787707707 1:0.119576 2:0.361036 3:0.0136185 4:0.352609 5:0.829975 6:0.189098 7:0.161904 8:0.350993 9:0.00255323 10:0.869404 11:2.93398 12:3.10042 13:0.34622 14:0.34622 15:0 16:0 17:0.162824 18:0.161904 19:0.0607636 20:0.444822 21:0.311791 22:2.36566 23:3.10042 24:0.34622 25:0.34622 26:0 27:0 0:0 
0.01822889059215974 1:0.121298 2:0.34711 3:0.0182343 4:0.264104 5:0.878455 6:0.197619 7:0.153502 8:0.350665 9:0.0184172 10:0.91996 11:2.87266 12:2.9771 13:0.27639 14:0.27639 15:0 16:0 17:0.08332 18:0.153502 19:0.0896078 20:0.146426 21:0.372179 22:2.50675 23:2.9771 24:0.27639 25:0.27639 26:0 27:0 0:0 
0.005299376868567622 1:0.0317964 2:0.133449 3:0.0117221 4:0.288251 5:0.81144 6:0.176521 7:0.0734688 8:0.205714 9:0.315493 10:0.909961 11:3.79602 12:3.95118 13:0.139216 14:0.139216 15:0 16:0 17:0.160769 18:0.0734688 19:0.224117 20:0.140401 21:0.39304 22:2.61516 23:3.95118 24:0.139216 25:0.139216 26:0 27:0 0:0 
0.001713212637052238 1:0.29223 2:0.32377 3:0.0273849 4:0.410605 5:0.800625 6:0.126603 7:0.192327 8:0.212147 9:0.200336 10:0.78838 11:3.80756 12:4.07736 13:0.505589 14:0.505589 15:0 16:0 17:0.407352 18:0.192327 19:0.381626 20:0.463725 21:0.392312 22:2.72008 23:4.07736 24:0.505589 25:0.505589 26:0 27:0 0:0 
0.01481008558375556 1:0.0528986 2:0.145732 3:0.00965118 4:0.570941 5:0.734275 6:0.19355 7:0.282129 8:0.453791 9:0.0797456 10:0.872845 11:3.80357 12:3.64645 13:0.292761 14:0.292761 15:0 16:0 17:0.108304 18:0.282129 19:0.174827 20:0.0210765 21:0.60012 22:3.19855 23:3.64645 24:0.292761 25:0.292761 26:0 27:0 0:0 
0.005344078143917332 1:0.0703054 2:0.186868 3:0.00774384 4:0.550368 5:0.570486 6:0.222644 7:0.216305 8:0.417513 9:0.101388 10:0.936422 11:4.15339 12:4.25554 13:0.311733 14:0.311733 15:0 16:0 17:0.097625 18:0.216305 19:0.120088 20:0.0326443 21:0.433434 22:3.3986 23:4.25554 24:0.311733 25:0.311733 26:0 27:0 0:0 
0.001019065742289674 1:0.143853 2:0.332708 3:0.0482106 4:0.656591 5:0.771338 6:0.294588 7:0.0086306 8:0.297451 9:0.388002 10:0.506615 11:3.88876 12:2.63449 13:0.29272 14:0.29272 15:0 16:0 17:0.184119 18:0.0086306 19:0.180213 20:0.642726 21:0.969079 22:2.69991 23:2.63449 24:0.29272 25:0.29272 26:0 27:0 0:0 
0.005636391608701581 1:0.0915727 2:0.260155 3:0.0143164 4:0.336278 5:0.780721 6:0.122571 7:0.0700301 8:0.165455 9:0.232624 10:0.455666 11:3.97603 12:3.48215 13:0.261176 14:0.261176 15:0 16:0 17:0.182702 18:0.0700301 19:0.207184 20:0.334088 21:0.990842 22:3.49458 23:3.48215 24:0.261176 25:0.261176 26:0 27:0 0:0 
-0.01264525605045441 1:0.23463 2:0.208335 3:0.00984238 4:0.435049 5:0.779599 6:0.150688 7:0.0223869 8:0.171903 9:0.0966133 10:0.776685 11:3.95199 12:3.40459 13:0.203894 14:0.203894 15:0 16:0 17:0.0777437 18:0.0223869 19:0.0706114 20:0.556368 21:0.768703 22:2.89661 23:3.40459 24:0.203894 25:0.203894 26:0 27:0 0:0 
0.0005143652039289297 1:0.191911 2:0.348656 3:0.0669152 4:0.364761 5:0.868715 6:0.268906 7:0.0174547 8:0.274284 9:0.390631 10:0.504456 11:3.9021 12:2.84128 13:0.271517 14:0.271517 15:0 16:0 17:0.207741 18:0.0174547 19:0.220909 20:0.219549 21:0.913552 22:2.98187 23:2.84128 24:0.271517 25:0.271517 26:0 27:0 0:0 
0.0002094945514184102 1:0.0789335 2:0.205993 3:0.0129411 4:0.257708 5:0.845221 6:0.203508 7:0.0506333 8:0.249888 9:0.117793 10:0.994436 11:3.25462 12:3.26236 13:0.253279 14:0.253279 15:0 16:0 17:0.059737 18:0.0506333 19:0.0143746 20:0.684727 21:0.403085 22:2.39859 23:3.26236 24:0.253279 25:0.253279 26:0 27:0 0:0 
0.0009559163057842471 1:0.0732593 2:0.184377 3:0.00868345 4:0.269927 5:0.836827 6:0.189043 7:0.120449 8:0.271524 9:0.203464 10:0.965234 11:3.23642 12:3.2863 13:0.249698 14:0.249698 15:0 16:0 17:0.0879208 18:0.120449 19:0.0331564 20:0.052885 21:0.379468 22:2.24554 23:3.2863 24:0.249698 25:0.249698 26:0 27:0 0:0 
0.0009307924207094215 1:0.0466703 2:0.129025 3:0.0148844 4:0.238047 5:0.843188 6:0.216355 7:0.127872 8:0.112649 9:0.711557 10:0.455981 11:3.66115 12:2.42678 13:0.284305 14:0.284305 15:0 16:0 17:0.1569 18:0.127872 19:0.248519 20:0.181562 21:0.908404 22:2.59447 23:2.42678 24:0.284305 25:0.284305 26:0 27:0 0:0 
0.008054937841074878 1:0.10547 2:0.268054 3:0.0421833 4:0.66799 5:0.863685 6:0.117442 7:0.164062 8:0.164472 9:0.232721 10:0.631041 11:3.53017 12:3.75813 13:0.355513 14:0.355513 15:0.328905 16:0.328905 17:0.0705969 18:0.202841 19:0.273438 20:0 21:0.862304 22:2.29911 23:2.52253 24:0.355513 25:0.355513 26:0.328905 27:0.328905 0:0 
0.0007974569343862796 1:0.205445 2:0.39654 3:0.0238351 4:0.405609 5:0.804945 6:0.250553 7:0.0808869 8:0.309188 9:0.211647 10:0.681758 11:4.25232 12:3.58689 13:0.316176 14:0.316176 15:0 16:0 17:0.155095 18:0.0808869 19:0.14364 20:0.457126 21:0.874808 22:3.29719 23:3.58689 24:0.316176 25:0.316176 26:0 27:0 0:0 
0.003865602330115796 1:0.196427 2:0.405337 3:0.0554308 4:0.70498 5:0.766677 6:0.0583842 7:0.489017 8:0.542406 9:0.0146043 10:0.817292 11:3.66891 12:3.62791 13:0.611192 14:0.611192 15:0.498265 16:0.498265 17:0.192215 18:0.0118864 19:0.200139 20:0.260622 21:0.980082 22:2.67538 23:2.71792 24:0.611192 25:0.611192 26:0.498265 27:0.498265 0:0 
0.0002546147841883141 1:0.0588255 2:0.17441 3:0.0124675 4:0.265341 5:0.863172 6:0.0737299 7:0.0667584 8:0.130183 9:0.129254 10:0.489849 11:3.58339 12:2.74135 13:0.177692 14:0.177692 15:0 16:0 17:0.212512 18:0.0667584 19:0.215025 20:0.438288 21:0.956663 22:2.81559 23:2.74135 24:0.177692 25:0.177692 26:0 27:0 0:0 
0.03145705008153037 1:0.188243 2:0.358568 3:0.030881 4:0.403376 5:0.822064 6:0.080473 7:0.148304 8:0.153817 9:0.171258 10:0.801775 11:3.30496 12:3.23768 13:0.133643 14:0.133643 15:0 16:0 17:0.0569969 18:0.148304 19:0.189508 20:0.0749474 21:0.678128 22:3.18404 23:3.23768 24:0.133643 25:0.133643 26:0 27:0 0:0 
0.01196465863554974 1:0.29735 2:0.222427 3:0.0208787 4:0.23011 5:0.753972 6:0.148592 7:0.0564072 8:0.144038 9:0.463699 10:0.893044 11:3.32236 12:3.15493 13:0.244524 14:0.244524 15:0 16:0 17:0.116273 18:0.0564072 19:0.140127 20:0.29985 21:0.703709 22:2.78489 23:3.15493 24:0.244524 25:0.244524 26:0 27:0 0:0 
0.0007639331429140096 1:0.308051 2:0.234844 3:0.0222266 4:0.308125 5:0.759855 6:0.179223 7:0.0435953 8:0.138536 9:0.866233 10:0.907415 11:3.28023 12:3.08214 13:0.26793 14:0.26793 15:0 16:0 17:0.117347 18:0.0435953 19:0.141561 20:0.269747 21:0.775696 22:2.60987 23:3.08214 24:0.26793 25:0.26793 26:0 27:0 0:0 
0.003853284583630053 1:0.293524 2:0.425846 3:0.0472551 4:0.68928 5:0.786538 6:0.463841 7:0.364342 8:0.250148 9:0.534696 10:0.641841 11:3.56515 12:2.82221 13:0.606104 14:0.606104 15:0 16:0 17:0.181537 18:0.364342 19:0.541873 20:0.0271789 21:0.981642 22:2.83964 23:2.82221 24:0.606104 25:0.606104 26:0 27:0 0:0 
0.00063531246891201 1:0.224413 2:0.512415 3:0.0492122 4:0.359573 5:0.716458 6:0.329704 7:0.201835 8:0.315501 9:0.420256 10:0.495164 11:3.77839 12:2.57828 13:0.384076 14:0.384076 15:0 16:0 17:0.184826 18:0.201835 19:0.37318 20:0.0805804 21:0.948213 22:2.49809 23:2.57828 24:0.384076 25:0.384076 26:0 27:0 0:0 
0.005200511731855692 1:0.161527 2:0.421803 3:0.040558 4:0.276324 5:0.720232 6:0.0869113 7:0.311215 8:0.395812 9:0.0180721 10:0.9058 11:4.09572 12:4.05247 13:0.416321 14:0.416321 15:0.312914 16:0.312914 17:0.181369 18:0.00647023 19:0.185618 20:0.267733 21:0.895783 22:2.46535 23:2.30902 24:0.416321 25:0.416321 26:0.312914 27:0.312914 0:0 
0.002011739175673353 1:0.342366 2:0.666202 3:0.0277876 4:0.244072 5:0.729501 6:0.41716 7:0.0178149 8:0.418621 9:0.467111 10:0.323525 11:4.16793 12:2.42389 13:0.460217 14:0.460217 15:0 16:0 17:0.191599 18:0.0178149 19:0.181912 20:0.670067 21:0.883641 22:2.61182 23:2.42389 24:0.460217 25:0.460217 26:0 27:0 0:0 
0.0005280142066345932 1:0.35027 2:0.67487 3:0.0265437 4:0.228612 5:0.737509 6:0.433851 7:0.0280762 8:0.430996 9:0.522125 10:0.342499 11:4.16091 12:2.48438 13:0.45427 14:0.45427 15:0 16:0 17:0.177594 18:0.0280762 19:0.163797 20:0.640222 21:0.91485 22:2.62647 23:2.48438 24:0.45427 25:0.45427 26:0 27:0 0:0 
0.002466071685880226 1:0.418889 2:0.672326 3:0.0535023 4:0.340097 5:0.688985 6:0.465181 7:0.0684245 8:0.433124 9:0.633372 10:0.341922 11:4.14812 12:2.4934 13:0.531268 14:0.531268 15:0 16:0 17:0.225508 18:0.0684245 19:0.264189 20:0.273337 21:0.901179 22:2.65198 23:2.4934 24:0.531268 25:0.531268 26:0 27:0 0:0 
0.004029735636051384 1:0.29 2:0.501764 3:0.0443307 4:0.677091 5:0.725521 6:0.51284 7:0.263377 8:0.368233 9:0.596729 10:0.427276 11:4.08187 12:2.67499 13:0.656303 14:0.656303 15:0 16:0 17:0.251253 18:0.263377 19:0.471495 20:0.128012 21:0.938619 22:2.77156 23:2.67499 24:0.656303 25:0.656303 26:0 27:0 0:0 
0.005359410780756797 1:0.092421 2:0.29884 3:0.0152969 4:0.670646 5:0.79531 6:0.464437 7:0.212789 8:0.304371 9:0.705018 10:0.741585 11:3.15255 12:2.62767 13:0.721806 14:0.721806 15:0 16:0 17:0.287056 18:0.212789 19:0.499793 20:0.00535461 21:0.852161 22:2.48711 23:2.62767 24:0.721806 25:0.721806 26:0 27:0 0:0 
0.003238939177403647 1:0.13361 2:0.372669 3:0.0149536 4:0.47307 5:0.732628 6:0.317997 7:0.1883 8:0.259923 9:0.493839 10:0.494775 11:3.37285 12:2.16981 13:0.415039 14:0.415039 15:0 16:0 17:0.161599 18:0.1883 19:0.348776 20:0.023635 21:0.919983 22:2.29233 23:2.16981 24:0.415039 25:0.415039 26:0 27:0 0:0 
0.001509349014003428 1:0.191825 2:0.52482 3:0.0327301 4:0.624741 5:0.649073 6:0.348977 7:0.288221 8:0.608974 9:0.104932 10:0.946329 11:3.38952 12:3.46762 13:0.75165 14:0.75165 15:0.294134 16:0.294134 17:0.201425 18:0.00716254 19:0.208588 20:0 21:0.863272 22:1.86557 23:2.1611 24:0.75165 25:0.75165 26:0.294134 27:0.294134 0:0 
0.004000459610489077 1:0.251687 2:0.610761 3:0.0426102 4:0.547596 5:0.681531 6:0.35419 7:0.262462 8:0.601101 9:0.0834229 10:0.944977 11:3.28571 12:3.3697 13:0.717096 14:0.717096 15:0.277997 16:0.277997 17:0.188603 18:0.0232282 19:0.211831 20:0 21:0.885204 22:1.79692 23:2.01458 24:0.717096 25:0.717096 26:0.277997 27:0.277997 0:0 
0.004291784790801646 1:0.0983121 2:0.349157 3:0.0130081 4:0.294639 5:0.770043 6:0.344335 7:0.15158 8:0.356198 9:0.406432 10:0.46816 11:3.13218 12:1.73015 13:0.357406 14:0.357406 15:0 16:0 17:0.0589232 18:0.15158 19:0.210503 20:0 21:0.967824 22:1.67814 23:1.73015 24:0.357406 25:0.357406 26:0 27:0 0:0 
0.002642417277469913 1:0.0917212 2:0.34088 3:0.0162888 4:0.35642 5:0.730389 6:0.328463 7:0.0823848 8:0.347995 9:0.38659 10:0.518813 11:3.04559 12:1.75267 13:0.367036 14:0.367036 15:0 16:0 17:0.207365 18:0.0823848 19:0.28975 20:0 21:0.958476 22:1.67357 23:1.75267 24:0.367036 25:0.367036 26:0 27:0 0:0 
0.01409993008176919 1:0.0932844 2:0.335731 3:0.0112915 4:0.377325 5:0.783894 6:0.07402 7:0.310161 8:0.36589 9:0.0460716 10:0.988827 11:3.07363 12:3.06877 13:0.348461 14:0.348461 15:0.252875 16:0.252875 17:0.0917967 18:0.131039 19:0.0392428 20:0 21:0.559989 22:2.4375 23:2.89506 24:0.348461 25:0.348461 26:0.252875 27:0.252875 0:0 
0.004633697670160412 1:0 2:0 3:0 4:0.468416 5:0.706125 6:0.0820142 7:0.0567526 8:0.0252616 9:1 10:0.610879 11:5.02249 12:4.22172 13:0.186601 14:0.186601 15:0 16:0 17:0.104587 18:0.0567526 19:0.16134 20:0 21:0.790288 22:3.71545 23:4.22172 24:0.186601 25:0.186601 26:0 27:0 0:0 
0.003235518298076757 1:0.00235176 2:0.0256187 3:0.00148773 4:0.454912 5:0.760721 6:0.0587822 7:0.0355731 8:0.0232092 9:1 10:0.53965 11:4.64662 12:3.86584 13:0.174437 14:0.174437 15:0 16:0 17:0.117147 18:0.0355731 19:0.151681 20:0.0676141 21:0.903138 22:3.65447 23:3.86584 24:0.174437 25:0.174437 26:0 27:0 0:0 
0.006685848757120394 1:0.381135 2:0.374405 3:0.0284576 4:0.47028 5:0.770953 6:0.10121 7:0.245534 8:0.163269 9:0.0940712 10:0.418325 11:2.93914 12:1.42431 13:0.30376 14:0.30376 15:0 16:0 17:0.202776 18:0.245534 19:0.439124 20:0.0585769 21:0.75788 22:1.89039 23:1.42431 24:0.30376 25:0.30376 26:0 27:0 0:0 
-0.01834482143171717 1:0.171476 2:0.481896 3:0.0266266 4:0.563032 5:0.797938 6:0.0620622 7:0.407701 8:0.465344 9:0.0168098 10:0.994631 11:3.19857 12:3.2001 13:0.346328 14:0.346328 15:0.177146 16:0.177146 17:0.118026 18:0.249207 19:0.132097 20:0.0257597 21:0.416444 22:2.59578 23:3.16818 24:0.346328 25:0.346328 26:0.177146 27:0.177146 0:0 
0.008192504630720784 1:0.456317 2:0.359701 3:0.02491 4:0.551948 5:0.786298 6:0.0810231 7:0.123408 8:0.190918 9:0.0932382 10:0.761188 11:2.71697 12:2.15387 13:0.370576 14:0.370576 15:0 16:0 17:0.393538 18:0.123408 19:0.50813 20:0.105777 21:0.926937 22:2.01284 23:2.15387 24:0.370576 25:0.370576 26:0 27:0 0:0 
-0.04863220297923665 1:0.179946 2:0.478912 3:0.019455 4:0.499913 5:0.829253 6:0.172468 7:0.20748 8:0.378823 9:0.0223289 10:0.85994 11:2.82579 12:2.94797 13:0.200858 14:0.200858 15:0 16:0 17:0.0844924 18:0.20748 19:0.201779 20:0.132091 21:0.529906 22:2.54105 23:2.94797 24:0.200858 25:0.200858 26:0 27:0 0:0 
0.006905884412705257 1:0 2:0 3:0 4:0.50824 5:0.708404 6:0.111436 7:0.052896 8:0.164332 9:0 10:0.796229 11:2.58461 12:2.86329 13:0.0322488 14:0.0322488 15:0 16:0 17:0.143685 18:0.052896 19:0.196581 20:0 21:0.383753 22:2.28625 23:2.86329 24:0.0322488 25:0.0322488 26:0 27:0 0:0 
0.006150127175571121 1:0.00667472 2:0.0475398 3:0.00606537 4:0.418455 5:0.772074 6:0.0670312 7:0.146037 8:0.0937991 9:0.114862 10:0.614141 11:3.38376 12:3.50466 13:0.0621246 14:0.0621246 15:0.121499 16:0.121499 17:0.0785436 18:0.0256518 19:0.104195 20:0 21:0.880676 22:2.64867 23:2.43667 24:0.0621246 25:0.0621246 26:0.121499 27:0.121499 0:0 
-0.02535381522623245 1:0.591348 2:0.537408 3:0.0271225 4:0.737504 5:0.726714 6:0.2946 7:0.128283 8:0.356795 9:0.286182 10:0.698595 11:4.97299 12:4.40346 13:0.263531 14:0.263531 15:0 16:0 17:0.174826 18:0.128283 19:0.302164 20:0.0293436 21:0.963785 22:4.47628 23:4.40346 24:0.263531 25:0.263531 26:0 27:0 0:0 
0.01665667810853885 1:0.438004 2:0.546509 3:0.0421143 4:0.45961 5:0.884698 6:0.105985 7:0.239917 8:0.345885 9:0.00206735 10:0.907855 11:4.01614 12:3.89351 13:0.110503 14:0.110503 15:0 16:0 17:0.216488 18:0.239917 19:0.456376 20:0.00339209 21:0.946305 22:3.8193 23:3.89351 24:0.110503 25:0.110503 26:0 27:0 0:0 
0.006257694574220839 1:0.1651 2:0.318577 3:0.0197601 4:0.276141 5:0.755765 6:0.175631 7:0.0745758 8:0.222243 9:0.240788 10:0.331885 11:3.84609 12:2.23961 13:0.0870907 14:0.0870907 15:0 16:0 17:0.183687 18:0.0745758 19:0.249897 20:0.128664 21:0.899388 22:2.38335 23:2.23961 24:0.0870907 25:0.0870907 26:0 27:0 0:0 
0.002845613243094316 1:0.0628294 2:0.246865 3:0.0226593 4:0.416297 5:0.694927 6:0.0646591 7:0.0238567 8:0.0881275 9:0.049171 10:0.853414 11:4.40278 12:4.42452 13:0.293497 14:0.293497 15:0.0267316 16:0.0267316 17:0.295081 18:0.0504988 19:0.314594 20:0.349751 21:0.942624 22:2.73709 23:2.6288 24:0.293497 25:0.293497 26:0.0267316 27:0.0267316 0:0 
0.001048562088493857 1:0.0452527 2:0.204159 3:0.0142288 4:0.519512 5:0.695435 6:0.17454 7:0.0818518 8:0.0927544 9:0.982489 10:0.357131 11:4.46458 12:2.85141 13:0.355567 14:0.355567 15:0 16:0 17:0.268274 18:0.0818518 19:0.299878 20:0.332508 21:0.93556 22:2.97104 23:2.85141 24:0.355567 25:0.355567 26:0 27:0 0:0 
0.003416720225338175 1:0.162351 2:0.387848 3:0.0286312 4:0.583257 5:0.646095 6:0.26461 7:0.154394 8:0.416818 9:0.0426229 10:0.840571 11:3.16761 12:3.40484 13:0.511923 14:0.511923 15:0.253153 16:0.253153 17:0.147201 18:0.239765 19:0.384631 20:0.0273752 21:0.961641 22:4.4835 23:4.4483 24:0.511923 25:0.511923 26:0.253153 27:0.253153 0:0 
0.003818755079385044 1:0.440891 2:0.806641 3:0.0455475 4:0.730816 5:0.702808 6:0.628038 7:0.104543 8:0.701204 9:0.23582 10:0.986613 11:3.7372 12:3.7689 13:0.727879 14:0.727879 15:0 16:0 17:0.23513 18:0.104543 19:0.305138 20:0.223164 21:0.594187 22:3.13526 23:3.7689 24:0.727879 25:0.727879 26:0 27:0 0:0 
0.001882253064787239 1:0.0199752 2:0.097463 3:0.0063324 4:0.90452 5:0.749917 6:0.153117 7:0.013961 8:0.143231 9:0.739657 10:0.809609 11:4.9335 12:4.67954 13:0.0876806 14:0.0876806 15:0 16:0 17:0.120583 18:0.013961 19:0.11845 20:0.530372 21:0.999094 22:4.67841 23:4.67954 24:0.0876806 25:0.0876806 26:0 27:0 0:0 
0.006276757646065974 1:0.0122216 2:0.0532592 3:0.00354767 4:0.702005 5:0.748667 6:0.0952884 7:0.228651 8:0.32394 9:0 10:0.733591 11:4.73375 12:4.95737 13:0.0874747 14:0.0874747 15:0.000683963 16:0.000683963 17:0.17311 18:0.227967 19:0.396006 20:0.0440988 21:0.831615 22:3.71727 23:3.35847 24:0.0874747 25:0.0874747 26:0.000683963 27:0.000683963 0:0 
0.0006014409233320592 1:0.36604 2:0.666951 3:0.0386047 4:0.427666 5:0.779551 6:0.0541016 7:0.406105 8:0.457966 9:0.0113732 10:0.986682 11:3.87546 12:3.87066 13:0.100194 14:0.100194 15:0.156168 16:0.156168 17:0.114437 18:0.251092 19:0.365528 20:0.000199586 21:0.95381 22:4.00878 23:3.97108 24:0.100194 25:0.100194 26:0.156168 27:0.156168 0:0 
0.001132383844974959 1:0.223486 2:0.465569 3:0.0234883 4:0.910068 5:0.699585 6:0.360777 7:0.313353 8:0.16242 9:0.51749 10:0.498673 11:4.25953 12:3.31728 13:0.60302 14:0.60302 15:0 16:0 17:0.256661 18:0.313353 19:0.569963 20:0.00383553 21:0.861968 22:3.49248 23:3.31728 24:0.60302 25:0.60302 26:0 27:0 0:0 
0.000839720536139699 1:0.203944 2:0.456752 3:0.02491 4:0.852669 5:0.689949 6:0.334492 7:0.263757 8:0.161082 9:0.561707 10:0.466255 11:4.32671 12:3.27765 13:0.594913 14:0.594913 15:0 16:0 17:0.273306 18:0.263757 19:0.536661 20:0.0125531 21:0.859632 22:3.46553 23:3.27765 24:0.594913 25:0.594913 26:0 27:0 0:0 
0.001119345766838146 1:0.354659 2:0.770965 3:0.027504 4:0.787544 5:0.772311 6:0.125808 7:0.0525061 8:0.131263 9:0.402433 10:0.745085 11:4.31042 12:3.93786 13:0.606619 14:0.606619 15:0 16:0 17:0.546617 18:0.0525061 19:0.597039 20:0.0859919 21:0.875048 22:3.65398 23:3.93786 24:0.606619 25:0.606619 26:0 27:0 0:0 
0.002109262193475172 1:0.340147 2:0.563006 3:0.0451676 4:0.704234 5:0.722896 6:0.300445 7:0.141138 8:0.383998 9:0.248078 10:0.479813 11:3.8224 12:2.50796 13:0.263043 14:0.263043 15:0 16:0 17:0.254181 18:0.141138 19:0.394422 20:0.0287911 21:0.936778 22:2.62849 23:2.50796 24:0.263043 25:0.263043 26:0 27:0 0:0 
0.005369326348633141 1:0.307202 2:0.509505 3:0.0370106 4:0.584644 5:0.705746 6:0.0785309 7:0.284556 8:0.301185 9:0.0836914 10:0.862109 11:4.16134 12:4.10552 13:0.195786 14:0.195786 15:0.152012 16:0.152012 17:0.279646 18:0.13942 19:0.419043 20:0.00463368 21:0.975496 22:2.68567 23:2.63999 24:0.195786 25:0.195786 26:0.152012 27:0.152012 0:0 
0.005119333828384492 1:0.310921 2:0.528781 3:0.0390625 4:1.01558 5:0.740581 6:0.0570383 7:0.316336 8:0.311018 9:0.0577097 10:0.670624 11:3.9135 12:3.97096 13:0.564358 14:0.564358 15:0.434189 16:0.434189 17:0.232465 18:0.337034 19:0.569486 20:0.00184054 21:0.937803 22:3.37229 23:3.43451 24:0.564358 25:0.564358 26:0.434189 27:0.434189 0:0 
0.02158199826033062 1:0.329695 2:0.574024 3:0.0547028 4:0.798664 5:0.759322 6:0.156988 7:0.301851 8:0.376602 9:0.131258 10:0.679908 11:3.08264 12:2.85952 13:0.241401 14:0.241401 15:0 16:0 17:0.114857 18:0.301851 19:0.385255 20:0.0738751 21:0.802363 22:2.70079 23:2.85952 24:0.241401 25:0.241401 26:0 27:0 0:0 
0.006574492246731024 1:0.442132 2:0.730347 3:0.0765228 4:0.735409 5:0.761463 6:0.280622 7:0.0756552 8:0.341967 9:0.177361 10:0.847 11:2.54291 12:2.23832 13:0.294082 14:0.294082 15:0 16:0 17:0.171975 18:0.0756552 19:0.236929 20:0.143184 21:0.981801 22:2.26933 23:2.23832 24:0.294082 25:0.294082 26:0 27:0 0:0 
0.004254876117689825 1:0.183022 2:0.416946 3:0.0138474 4:0.868042 5:0.697424 6:0.161729 7:0.103213 8:0.256711 9:0.100023 10:0.957729 11:5.11636 12:5.03104 13:0.59982 14:0.59982 15:0.198842 16:0.198842 17:0.298599 18:0.11207 19:0.409854 20:0.0327683 21:0.800989 22:3.5668 23:3.14159 24:0.59982 25:0.59982 26:0.198842 27:0.198842 0:0 
-0.004335564230960936 1:0 2:0 3:0 4:1.18365 5:0.73124 6:0.376809 7:0.293939 8:0.670748 9:0 10:0.862653 11:3.34818 12:3.51345 13:0.642978 14:0.642978 15:0 16:0 17:0.266169 18:0.293939 19:0.02777 20:0 21:0.407249 22:2.92595 23:3.51345 24:0.642978 25:0.642978 26:0 27:0 0:0 
0.003191504347823304 1:0.89188 2:1.00041 3:0.0575256 4:0.408871 5:0.566369 6:0.0931029 7:0.569904 8:0.585167 9:0.0506775 10:0.480679 11:3.59288 12:3.08722 13:0.314295 14:0.314295 15:0 16:0 17:0.295897 18:0.569904 19:0.864131 20:0.0142411 21:0.926971 22:3.16426 23:3.08722 24:0.314295 25:0.314295 26:0 27:0 0:0 
0.005321243174244266 1:0.365717 2:0.499285 3:0.0467428 4:0.564941 5:0.653815 6:0.460606 7:0.330875 8:0.672159 9:0.212721 10:0.876989 11:4.3448 12:4.25377 13:0.669953 14:0.669953 15:0.356784 16:0.356784 17:0.114087 18:0.0641765 19:0.130227 20:0.339796 21:0.759314 22:2.52634 23:2.98839 24:0.669953 25:0.669953 26:0.356784 27:0.356784 0:0 
0.003694851537139882 1:0.0930048 2:0.281315 3:0.0273132 4:0.454278 5:0.828894 6:0.125766 7:0.15611 8:0.232066 9:0.169635 10:0.858502 11:3.31515 12:3.4089 13:0.0449731 14:0.0449731 15:0.147688 16:0.147688 17:0.302634 18:0.100834 19:0.26082 20:0.581952 21:0.904146 22:3.11721 23:3.28641 24:0.0449731 25:0.0449731 26:0.147688 27:0.147688 0:0 
-0.001797740638899118 1:0.232042 2:0.408666 3:0.00648499 4:0.124246 5:0.593203 6:0.288408 7:0.0275166 8:0.288932 9:0.478766 10:0.331426 11:3.42328 12:5.38713 13:0.0383356 14:0.0383356 15:0.203845 16:0.203845 17:0.0507301 18:0.202299 19:0.253013 20:0.0017611 21:0.848369 22:3.19418 23:3.30167 24:0.0383356 25:0.0383356 26:0.203845 27:0.203845 0:0 
0.00452743230857372 1:0.276358 2:0.52166 3:0.0177253 4:0.313985 5:0.620227 6:0.263799 7:0.144652 8:0.40841 9:0.00611667 10:0.821512 11:4.35036 12:4.72375 13:0.409384 14:0.409384 15:0 16:0 17:0.150386 18:0.144652 19:0.0443209 20:0.493231 21:0.415676 22:3.20378 23:4.72375 24:0.409384 25:0.409384 26:0 27:0 0:0 
-0.007703013251605175 1:0.046721 2:0.0573137 3:0.00747681 4:0.296728 5:0.806773 6:0.0511368 7:0.0089954 8:0.0505252 9:0.493435 10:0.923551 11:3.40996 12:3.60524 13:0.105768 14:0.105768 15:0 16:0 17:0.0550281 18:0.0089954 19:0.0585596 20:0.348725 21:0.710673 22:2.90474 23:3.60524 24:0.105768 25:0.105768 26:0 27:0 0:0 
0.03801250053003478 1:0.24241 2:0.279365 3:0.0363387 4:0.38686 5:0.814427 6:0.164463 7:0.11417 8:0.254619 9:0.16148 10:0.965216 11:3.46334 12:3.42559 13:0.22775 14:0.22775 15:0 16:0 17:0.161911 18:0.11417 19:0.12723 20:0.466992 21:0.528235 22:2.81984 23:3.42559 24:0.22775 25:0.22775 26:0 27:0 0:0 
0.005334118322443182 1:0.138347 2:0.304052 3:0.0174697 4:0.73524 5:0.758488 6:0.224374 7:0.0846636 8:0.273876 9:0.259185 10:0.959118 11:3.07654 12:3.1216 13:0.286747 14:0.286747 15:0 16:0 17:0.109987 18:0.0846636 19:0.17599 20:0.161554 21:0.53283 22:2.64965 23:3.1216 24:0.286747 25:0.286747 26:0 27:0 0:0 
-0.002009623296811349 1:0.233991 2:0.191384 3:0.0213242 4:0.558148 5:0.683315 6:0.0751087 7:0.0859554 8:0.157559 9:0.0621241 10:0.664551 11:4.35856 12:5.06861 13:0.458843 14:0.458843 15:0.0721993 16:0.0721993 17:0.322886 18:0.0247647 19:0.304922 20:0.749563 21:0.63395 22:2.23087 23:3.14159 24:0.458843 25:0.458843 26:0.0721993 27:0.0721993 0:0 
-0.00129636823961179 1:0.760162 2:0.631265 3:0.0323868 4:0.503683 5:0.77486 6:0.15811 7:0.163838 8:0.149116 9:0.33597 10:0.31256 11:3.10827 12:1.68145 13:0.364834 14:0.364834 15:0.0575372 16:0.0575372 17:0.257029 18:0.188162 19:0.443259 20:0.0346785 21:0.773361 22:1.76504 23:2.1527 24:0.364834 25:0.364834 26:0.0575372 27:0.0575372 0:0 
-0.001326209636932354 1:0.73211 2:0.674552 3:0.0279999 4:0.434718 5:0.675139 6:0.501881 7:0.0169721 8:0.500071 9:0.528654 10:0.342356 11:4.18018 12:6.09114 13:0.831205 14:0.831205 15:0.158508 16:0.158508 17:0.35257 18:0.148027 19:0.482931 20:0.132144 21:0.869422 22:1.90286 23:1.63811 24:0.831205 25:0.831205 26:0.158508 27:0.158508 0:0 
-0.001301043631248622 1:0.712938 2:0.652295 3:0.0375748 4:0.490913 5:0.723601 6:0.495753 7:0.0235352 8:0.492885 9:0.53136 10:0.504066 11:4.1874 12:5.67764 13:0.83394 14:0.83394 15:0.160897 16:0.160897 17:0.362103 18:0.14682 19:0.489702 20:0.139295 21:0.935227 22:1.98044 23:1.85061 24:0.83394 25:0.83394 26:0.160897 27:0.160897 0:0 
0.01501866964323497 1:0 2:0 3:0 4:0.375354 5:0.813184 6:0.0561677 7:0.0795373 8:0.135705 9:0 10:0.970302 11:2.99618 12:2.9305 13:0.219543 14:0.219543 15:0 16:0 17:0.163376 18:0.0795373 19:0.0838383 20:1 21:0.499506 22:2.03055 23:2.9305 24:0.219543 25:0.219543 26:0 27:0 0:0 
0.0001416822823281972 1:0 2:0 3:0 4:0.686302 5:0.852248 6:0.129919 7:0.183123 8:0.313043 9:0 10:0.838381 11:3.45449 12:3.75055 13:0.28014 14:0.28014 15:0 16:0 17:0.150221 18:0.183123 19:0.0329021 20:0 21:0.319327 22:2.29879 23:3.75055 24:0.28014 25:0.28014 26:0 27:0 0:0 
-0.002788995450912947 1:0.456502 2:0.341942 3:0.0182343 4:0.559204 5:0.813729 6:0.249627 7:0.0640444 8:0.186925 9:0.924381 10:0.338717 11:3.18004 12:1.22777 13:0.341101 14:0.341101 15:0 16:0 17:0.115193 18:0.0640444 19:0.171758 20:0.124718 21:0.75213 22:1.86734 23:1.22777 24:0.341101 25:0.341101 26:0 27:0 0:0 
