svm_type epsilon_svr
kernel_type rbf
gamma 0.8904
nr_class 2
total_sv 927
rho 0.0296152
SV
0.09412054072601161 1:1.66713 2:1.52379 3:0.266519 4:0.85219 5:0.813834 6:0.192118 7:0.646024 8:0.133106 9:0.220078 10:0.329871 11:0.2845 12:0.614056 13:0.010987 14:0.991514 15:3.32645 16:3.31233 17:0.384122 18:0.384122 19:0.161897 20:0.161897 21:0.110284 22:0.210188 23:0.296675 24:0.087502 25:0.921918 26:3.89252 27:3.95823 28:0.384122 29:0.384122 30:0.161897 31:0.161897 0:0 
0.03132850362743753 1:1.33431 2:1.11683 3:0.286953 4:0.810009 5:0.832108 6:0.218298 7:0.677051 8:0.135262 9:0.189255 10:0.309074 11:0.303901 12:0.612732 13:0.00903874 14:0.988659 15:3.28244 16:3.26405 17:0.499676 18:0.499676 19:0.288893 20:0.288893 21:0.0694367 22:0.208319 23:0.241313 24:0.0870099 25:0.575391 26:4.24093 27:4.5343 28:0.499676 29:0.499676 30:0.288893 31:0.288893 0:0 
-0.007494897426497954 1:1.1849 2:0.703078 3:0.179597 4:0.670509 5:0.748739 6:0.367947 7:0.954835 8:0.126253 9:0.102568 10:0.108711 11:0.503355 12:0.601259 13:0.0273511 14:0.881183 15:3.50368 16:3.58144 17:0.519744 18:0.519744 19:0.513639 20:0.513639 21:0.0964238 22:0.394281 23:0.386843 24:0.0785545 25:0.489617 26:4.55462 27:4.82815 28:0.519744 29:0.519744 30:0.513639 31:0.513639 0:0 
0.1581 1:0.939964 2:0.785509 3:0.135157 4:0.68699 5:0.842328 6:0.353494 7:0.732881 8:0.131464 9:0.253382 10:0.304118 11:0.119493 12:0.401017 13:0.169252 14:0.754547 15:2.65017 16:2.08994 17:0.390583 18:0.390583 19:0 20:0 21:0.202647 22:0.119493 23:0.16084 24:0.507599 25:0.342283 26:3.57037 27:2.08994 28:0.390583 29:0.390583 30:0 31:0 0:0 
0.06156721020883714 1:0.898117 2:0.723113 3:0.130277 4:0.618234 5:0.835263 6:0.343593 7:0.735058 8:0.121925 9:0.2401 10:0.283735 11:0.124481 12:0.397659 13:0.110246 14:0.892681 15:2.7543 16:2.52134 17:0.377447 18:0.377447 19:0 20:0 21:0.196466 22:0.124481 23:0.191993 24:0.407068 25:0.439662 26:3.66639 27:2.52134 28:0.377447 29:0.377447 30:0 31:0 0:0 
0.1060354187920837 1:0.937756 2:0.663773 3:0.131128 4:0.358613 5:0.862848 6:0.2929 7:0.702211 8:0.120384 9:0.200349 10:0.262591 11:0.249306 12:0.505179 13:0.052997 14:0.956843 15:3.01975 16:2.94838 17:0.352235 18:0.352235 19:0 20:0 21:0.138106 22:0.249306 23:0.238557 24:0.18219 25:0.391682 26:3.54648 27:2.94838 28:0.352235 29:0.352235 30:0 31:0 0:0 
0.02723074624502478 1:1.18414 2:0.967503 3:0.342713 4:0.804694 5:0.842458 6:0.266963 7:0.712379 8:0.126746 9:0.211135 10:0.266584 11:0.255166 12:0.518656 13:0.0354559 14:0.901525 15:2.97493 16:2.79998 17:0.439585 18:0.439585 19:0.305776 20:0.305776 21:0.155685 22:0.139246 23:0.236356 24:0.217728 25:0.536221 26:3.97174 27:4.5986 28:0.439585 29:0.439585 30:0.305776 31:0.305776 0:0 
0.02076139553581716 1:1.69082 2:1.51914 3:0.255787 4:0.647165 5:0.773151 6:0.222528 7:0.698428 8:0.141326 9:0.310795 10:0.318887 11:0.199157 12:0.494172 13:0.123605 14:0.808515 15:2.90406 16:2.5244 17:0.284608 18:0.284608 19:0 20:0 21:0.302703 22:0.199157 23:0.361413 24:0.316009 25:0.529105 26:3.49585 27:2.5244 28:0.284608 29:0.284608 30:0 31:0 0:0 
0.1156684801797212 1:1.64201 2:1.24575 3:0.260533 4:0.842148 5:0.597005 6:0.249937 7:0.748467 8:0.29894 9:0.314392 10:0.293607 11:0.439303 12:0.726047 13:0.0355878 14:0.974647 15:4.33323 16:4.36683 17:0.265514 18:0.265514 19:0 20:0 21:0.335178 22:0.439303 23:0.734387 24:0.0893778 25:0.821869 26:4.62925 27:4.36683 28:0.265514 29:0.265514 30:0 31:0 0:0 
-0.01650628477100032 1:0.868055 2:0.563955 3:0.118731 4:1.41589 5:0.825765 6:0.196737 7:0.664175 8:0.0567469 9:0.114209 10:0.148117 11:0.377772 12:0.46198 13:0.0931759 14:0.59991 15:3.08166 16:3.47122 17:0.161766 18:0.161766 19:0 20:0 21:0.0803006 22:0.377772 23:0.453242 24:0.021104 25:0.945976 26:3.5115 27:3.47122 28:0.161766 29:0.161766 30:0 31:0 0:0 
0.02269467426495615 1:1.73842 2:1.61863 3:0.335559 4:0.888114 5:0.589473 6:0.227513 7:0.80191 8:0.295606 9:0.323382 10:0.286981 11:0.145184 12:0.430637 13:0.0376697 14:0.99564 15:4.13406 16:4.12439 17:0.273223 18:0.273223 19:0 20:0 21:0.359783 22:0.145184 23:0.45276 24:0.23719 25:0.779008 26:4.64997 27:4.12439 28:0.273223 29:0.273223 30:0 31:0 0:0 
0.06878591814698294 1:1.60668 2:1.353 3:0.264414 4:0.853516 5:0.62775 6:0.204142 7:0.780582 8:0.27321 9:0.293633 10:0.27307 11:0.386077 12:0.642459 13:0.0601673 14:0.98724 15:3.87561 16:3.85913 17:0.320467 18:0.320467 19:0 20:0 21:0.314195 22:0.386077 23:0.637463 24:0.121672 25:0.798005 26:4.15622 27:3.85913 28:0.320467 29:0.320467 30:0 31:0 0:0 
0.008494208601273345 1:1.80103 2:1.71547 3:0.250148 4:0.793231 5:0.672802 6:0.196652 7:0.733375 8:0.251266 9:0.233658 10:0.22747 11:0.291171 12:0.502176 13:0.0708743 14:0.954489 15:3.75413 16:3.81064 17:0.301586 18:0.301586 19:0 20:0 21:0.239846 22:0.291171 23:0.474147 24:0.133827 25:0.813427 26:4.09442 27:3.81064 28:0.301586 29:0.301586 30:0 31:0 0:0 
0.1581 1:1.74268 2:1.56261 3:0.355141 4:0.732727 5:0.580425 6:0.303064 7:0.776095 8:0.257424 9:0.132912 10:0.112024 11:0.345103 12:0.431085 13:0.0593468 14:0.805413 15:4.42859 16:4.57532 17:0.195295 18:0.195295 19:0 20:0 21:0.1538 22:0.345103 23:0.459322 24:0.0825766 25:0.880665 26:4.71239 27:4.57532 28:0.195295 29:0.195295 30:0 31:0 0:0 
0.06353089756375181 1:1.60767 2:1.19101 3:0.271534 4:0.744149 5:0.594425 6:0.307377 7:0.774745 8:0.255821 9:0.467505 10:0.159161 11:0.613048 12:0.719035 13:0.0570032 14:0.843691 15:4.30348 16:4.38776 17:0.230017 18:0.230017 19:0.667984 20:0.667984 21:0.775848 22:0.161757 23:0.73471 24:0.548366 25:0.481578 26:4.56846 27:6.01018 28:0.230017 29:0.230017 30:0.667984 31:0.667984 0:0 
0.05966718424622039 1:1.61832 2:1.11239 3:0.368425 4:0.728281 5:0.579398 6:0.25136 7:0.816804 8:0.227568 9:0.473673 10:0.231631 11:0.584905 12:0.79438 13:0.0462048 14:0.933218 15:4.05254 16:3.98898 17:0.206323 18:0.206323 19:0.610815 20:0.610815 21:0.715715 22:0.0850181 23:0.714819 24:0.484422 25:0.615282 26:4.40298 27:5.49779 28:0.206323 29:0.206323 30:0.610815 31:0.610815 0:0 
0.02555613188890647 1:1.94244 2:1.85033 3:0.295452 4:0.639721 5:0.698927 6:0.200405 7:0.714113 8:0.138385 9:0.223605 10:0.257355 11:0.209989 12:0.412866 13:0.17331 14:0.620477 15:3.7296 16:3.01724 17:0.290337 18:0.290337 19:0 20:0 21:0.189855 22:0.209989 23:0.157243 24:0.334688 25:0.288396 26:4.37141 27:3.01724 28:0.290337 29:0.290337 30:0 31:0 0:0 
0.04539008312109336 1:1.86535 2:1.7291 3:0.277557 4:0.515814 5:0.812562 6:0.220051 7:0.704013 8:0.105512 9:0.192753 10:0.192762 11:0.27693 12:0.407276 13:0.135623 14:0.587473 15:3.25402 16:2.7729 17:0.204145 18:0.204145 19:0 20:0 21:0.192744 22:0.27693 23:0.232438 24:0.241005 25:0.304661 26:3.73635 27:2.7729 28:0.204145 29:0.204145 30:0 31:0 0:0 
0.1581 1:1.35688 2:1.055 3:0.177419 4:0.48137 5:0.73579 6:0.344725 7:0.755323 8:0.166983 9:0.0963541 10:0.102172 11:0.436119 12:0.51149 13:0.0465315 14:0.919433 15:4.36267 16:4.39877 17:0.0524691 18:0.0524691 19:0 20:0 21:0.0905356 22:0.436119 23:0.4887 24:0.0508708 25:0.705771 26:4.51271 27:4.39877 28:0.0524691 29:0.0524691 30:0 31:0 0:0 
0.006773662691429979 1:1.48395 2:1.27251 3:0.300502 4:0.564335 5:0.637645 6:0.263951 7:0.789567 8:0.20511 9:0.342532 10:0.181536 11:0.281383 12:0.459964 13:0.0288713 14:0.99555 15:3.04332 16:3.04884 17:0.503646 18:0.503646 19:0 20:0 21:0.503527 22:0.281383 23:0.588997 24:0.325717 25:0.581793 26:3.97212 27:3.04884 28:0.503646 29:0.503646 30:0 31:0 0:0 
0.04518992113866954 1:1.56012 2:1.34583 3:0.319704 4:0.564462 5:0.634513 6:0.25195 7:0.75995 8:0.195619 9:0.402025 10:0.253959 11:0.305001 12:0.542016 13:0.0715576 14:0.931649 15:2.66248 16:2.55969 17:0.554686 18:0.554686 19:0 20:0 21:0.55009 22:0.305001 23:0.550234 24:0.410452 25:0.437604 26:3.88647 27:2.55969 28:0.554686 29:0.554686 30:0 31:0 0:0 
0.01085750636582947 1:1.71874 2:1.55367 3:0.26051 4:0.532437 5:0.616407 6:0.243083 7:0.725267 8:0.199902 9:0.411568 10:0.250467 11:0.246048 12:0.472585 13:0.100144 14:0.895578 15:2.407 16:2.21979 17:0.634256 18:0.634256 19:0 20:0 21:0.57267 22:0.246048 23:0.515797 24:0.501711 25:0.36951 26:3.83633 27:2.21979 28:0.634256 29:0.634256 30:0 31:0 0:0 
0.07879310767759624 1:1.4967 2:1.2892 3:0.293625 4:0.587317 5:0.658881 6:0.274335 7:0.70396 8:0.192872 9:0.42339 10:0.250074 11:0.287738 12:0.507735 13:0.0994267 14:0.821994 15:2.73972 16:2.45267 17:0.649216 18:0.649216 19:0 20:0 21:0.596707 22:0.287738 23:0.565822 24:0.454004 25:0.256271 26:4.3075 27:2.45267 28:0.649216 29:0.649216 30:0 31:0 0:0 
0.04196765711720346 1:1.50636 2:1.34598 3:0.294194 4:0.594978 5:0.666066 6:0.275797 7:0.682119 8:0.194379 9:0.418251 10:0.254553 11:0.19766 12:0.438781 13:0.0884786 14:0.972919 15:2.9416 16:2.88792 17:0.641815 18:0.641815 19:0 20:0 21:0.58195 22:0.19766 23:0.614946 24:0.395252 25:0.397826 26:4.46168 27:2.88792 28:0.641815 29:0.641815 30:0 31:0 0:0 
0.01321661049124163 1:1.61834 2:1.49249 3:0.241543 4:0.496393 5:0.759392 6:0.247568 7:0.690866 8:0.202324 9:0.249443 10:0.243834 11:0.13552 12:0.361328 13:0.133321 14:0.805108 15:2.19959 16:1.80634 17:0.39769 18:0.39769 19:0 20:0 21:0.255052 22:0.13552 23:0.195872 24:0.550092 25:0.314712 26:3.33364 27:1.80634 28:0.39769 29:0.39769 30:0 31:0 0:0 
0.09709903048346837 1:1.52932 2:1.39137 3:0.266335 4:0.458366 5:0.766831 6:0.245473 7:0.680712 8:0.175515 9:0.131948 10:0.210126 11:0.178378 12:0.373477 13:0.0966061 14:0.826207 15:2.34609 16:2.03444 17:0.523702 18:0.523702 19:0.367481 20:0.367481 21:0.0537696 22:0.189822 23:0.173482 24:0.0901571 25:0.323229 26:4.84322 27:5.04906 28:0.523702 29:0.523702 30:0.367481 31:0.367481 0:0 
0.06725632114981697 1:1.33358 2:1.04396 3:0.272418 4:0.432572 5:0.779831 6:0.246126 7:0.682677 8:0.164568 9:0.234675 10:0.20743 11:0.375696 12:0.564246 13:0.0598654 14:0.910471 15:2.42366 16:2.31178 17:0.353494 18:0.353494 19:0 20:0 21:0.26192 22:0.375696 23:0.412232 24:0.213774 25:0.420723 26:2.91137 27:2.31178 28:0.353494 29:0.353494 30:0 31:0 0:0 
0.04448812562546184 1:1.83405 2:1.68255 3:0.287196 4:0.46289 5:0.727141 6:0.24654 7:0.736444 8:0.202384 9:0.328391 10:0.219865 11:0.173892 12:0.370665 13:0.123755 14:0.780452 15:2.0032 16:1.60204 17:0.473603 18:0.473603 19:0 20:0 21:0.436917 22:0.173892 23:0.420713 24:0.464375 25:0.476208 26:2.6292 27:1.60204 28:0.473603 29:0.473603 30:0 31:0 0:0 
0.0376774528118089 1:1.67549 2:1.51342 3:0.222148 4:0.443806 5:0.717745 6:0.223725 7:0.702967 8:0.180162 9:0.267242 10:0.24926 11:0.274605 12:0.487582 13:0.113252 14:0.730572 15:2.1624 16:1.75474 17:0.380505 18:0.380505 19:0 20:0 21:0.285225 22:0.274605 23:0.225403 24:0.381962 25:0.272183 26:2.8899 27:1.75474 28:0.380505 29:0.380505 30:0 31:0 0:0 
0.01137822863689368 1:1.36564 2:1.26888 3:0.222605 4:0.37239 5:0.579686 6:0.218509 7:0.895439 8:0.212034 9:0.377361 10:0.559642 11:0.232396 12:0.520026 13:0.485197 14:0.399033 15:2.30861 16:3.80756 17:0.619405 18:0.619405 19:0 20:0 21:0.195079 22:0.232396 23:0.41985 24:0.0551034 25:0.986386 26:3.78509 27:3.80756 28:0.619405 29:0.619405 30:0 31:0 0:0 
0.01779364050090341 1:1.81932 2:1.61826 3:0.239816 4:0.385478 5:0.610914 6:0.230166 7:0.855912 8:0.224669 9:0.387282 10:0.541635 11:0.144672 12:0.47226 13:0.617766 14:0.306525 15:2.19262 16:4.11234 17:0.609581 18:0.609581 19:0 20:0 21:0.232929 22:0.144672 23:0.35319 24:0.147492 25:0.845216 26:3.79444 27:4.11234 28:0.609581 29:0.609581 30:0 31:0 0:0 
0.009096719767627345 1:1.61313 2:1.41056 3:0.393722 4:0.428038 5:0.660921 6:0.249673 7:0.833063 8:0.220096 9:0.393932 10:0.551897 11:0.14718 12:0.57561 13:0.407791 14:0.494544 15:2.16971 16:3.43703 17:0.601031 18:0.601031 19:0 20:0 21:0.235967 22:0.14718 23:0.381404 24:0.0384972 25:0.998732 26:3.43451 27:3.43703 28:0.601031 29:0.601031 30:0 31:0 0:0 
0.03131485137776407 1:1.46198 2:1.25142 3:0.245769 4:0.423302 5:0.669166 6:0.261501 7:0.841799 8:0.223487 9:0.387911 10:0.510412 11:0.18097 12:0.617178 13:0.259562 14:0.636961 15:2.22649 16:3.01327 17:0.60037 18:0.60037 19:0 20:0 21:0.265411 22:0.18097 23:0.426079 24:0.117368 25:0.85913 26:3.26768 27:3.01327 28:0.60037 29:0.60037 30:0 31:0 0:0 
0.0009375306680549374 1:1.60852 2:1.39168 3:0.247476 4:0.450609 5:0.668498 6:0.271337 7:0.956577 8:0.226654 9:0.39067 10:0.538606 11:0.225677 12:0.487396 13:0.502331 14:0.363986 15:2.35619 16:3.80264 17:0.611848 18:0.611848 19:0 20:0 21:0.242734 22:0.225677 23:0.444789 24:0.10542 25:0.823862 26:3.51399 27:3.80264 28:0.611848 29:0.611848 30:0 31:0 0:0 
0.06143671425519342 1:1.5269 2:1.32586 3:0.328071 4:0.444679 5:0.662581 6:0.256998 7:0.955959 8:0.22353 9:0.390994 10:0.508637 11:0.203166 12:0.53048 13:0.404083 14:0.468768 15:2.33492 16:3.47269 17:0.616991 18:0.616991 19:0 20:0 21:0.273352 22:0.203166 23:0.464119 24:0.0846208 25:0.95901 26:3.40307 27:3.47269 28:0.616991 29:0.616991 30:0 31:0 0:0 
0.05445885725218224 1:2.70791 2:2.33101 3:0.469093 4:0.370399 5:0.664422 6:0.188598 7:0.816913 8:0.263475 9:0.359432 10:0.460818 11:0.219172 12:0.408517 13:0.495432 14:0.333971 15:2.46685 16:4.21304 17:0.538462 18:0.538462 19:0 20:0 21:0.258047 22:0.219172 23:0.466048 24:0.0749744 25:0.834544 26:3.92699 27:4.21304 28:0.538462 29:0.538462 30:0 31:0 0:0 
0.01100339474111411 1:2.70422 2:2.20438 3:0.531875 4:0.507716 5:0.663725 6:0.184826 7:0.795729 8:0.284113 9:0.302505 10:0.385574 11:0.314224 12:0.416389 13:0.34362 14:0.563966 15:2.33733 16:3.14159 17:0.54401 18:0.54401 19:0 20:0 21:0.219435 22:0.314224 23:0.526565 24:0.0433437 25:0.871119 26:3.31378 27:3.14159 28:0.54401 29:0.54401 30:0 31:0 0:0 
0.06123067933037646 1:2.94217 2:2.36389 3:0.376964 4:0.520844 5:0.654671 6:0.164915 7:0.808117 8:0.241557 9:0.206864 10:0.22269 11:0.351825 12:0.447718 13:0.162969 14:0.574188 15:2.64225 16:2.95848 17:0.368727 18:0.368727 19:0 20:0 21:0.191037 22:0.351825 23:0.503655 24:0.0879532 25:0.876773 26:3.09344 27:2.95848 28:0.368727 29:0.368727 30:0 31:0 0:0 
0.1040888702101948 1:2.33349 2:1.966 3:0.323459 4:0.440128 5:0.732788 6:0.194714 7:0.858562 8:0.192568 9:0.226311 10:0.172707 11:0.41495 12:0.580579 13:0.0317502 14:0.847736 15:2.36537 16:2.5128 17:0.0917731 18:0.0917731 19:0.101178 20:0.101178 21:0.279916 22:0.36889 23:0.62905 24:0.0683866 25:0.85644 26:2.59704 27:2.7876 28:0.0917731 29:0.0917731 30:0.101178 31:0.101178 0:0 
0.1182696051816883 1:2.58411 2:2.23526 3:0.446162 4:0.420709 5:0.722003 6:0.197571 7:0.855678 8:0.2005 9:0.198092 10:0.13207 11:0.346763 12:0.477969 13:0.0117937 14:0.910576 15:2.05331 16:2.14717 17:0.127979 18:0.127979 19:0.110177 20:0.110177 21:0.264114 22:0.261739 23:0.524195 24:0.0253965 25:0.99328 26:2.38531 27:2.39617 28:0.127979 29:0.127979 30:0.110177 31:0.110177 0:0 
0.125668334275371 1:1.95617 2:1.28769 3:0.338179 4:1.01637 5:0.629551 6:0.186403 7:0.780409 8:0.130933 9:0.118982 10:0.114556 11:0.638091 12:0.705775 13:0.0438732 14:0.623606 15:2.89661 16:3.07502 17:0.21914 18:0.21914 19:0.252484 20:0.252484 21:0.123407 22:0.80831 23:0.82372 24:0.0478088 25:0.47273 26:3.18743 27:3.34437 28:0.21914 29:0.21914 30:0.252484 31:0.252484 0:0 
0.09116787419074474 1:1.80363 2:1.25864 3:0.305942 4:1.2938 5:0.630028 6:0.199191 7:0.742095 8:0.129753 9:0.158098 10:0.161797 11:0.429115 12:0.291146 13:0.076293 14:0.377076 15:2.4926 16:2.88427 17:0.310744 18:0.310744 19:0 20:0 21:0.154399 22:0.429115 23:0.57922 24:0.0230902 25:0.920494 26:2.83266 27:2.88427 28:0.310744 29:0.310744 30:0 31:0 0:0 
0.06178985680922312 1:2.06055 2:1.54446 3:0.296218 4:1.18765 5:0.63815 6:0.184018 7:0.754783 8:0.123388 9:0.17359 10:0.0877315 11:0.35961 12:0.426996 13:0.0456727 14:0.539415 15:3.33429 16:3.62849 17:0.208387 18:0.208387 19:0 20:0 21:0.259448 22:0.35961 23:0.618968 24:0.00461296 25:0.944615 26:3.54471 27:3.62849 28:0.208387 29:0.208387 30:0 31:0 0:0 
0.03064279286769062 1:2.95486 2:2.50319 3:0.324331 4:0.781118 5:0.651781 6:0.16469 7:0.754314 8:0.113784 9:0.155526 10:0.177828 11:0.0966145 12:0.256993 13:0.156769 14:0.93843 15:3.3348 16:3.46334 17:0.229194 18:0.229194 19:0 20:0 21:0.133223 22:0.0966145 23:0.207412 24:0.168292 25:0.75 26:3.92699 27:3.46334 28:0.229194 29:0.229194 30:0 31:0 0:0 
-0.05092340034771699 1:0.658169 2:0.381843 3:0.104939 4:0.904384 5:0.82066 6:0.427621 7:0.851395 8:0.0929917 9:0.120675 10:0.143098 11:0.306024 12:0.447828 13:0.0165118 14:0.991734 15:2.6168 16:2.62714 17:0.440141 18:0.440141 19:0.366144 20:0.366144 21:0.0982518 22:0.18326 23:0.237038 24:0.12641 25:0.572192 26:4.10684 27:4.48559 28:0.440141 29:0.440141 30:0.366144 31:0.366144 0:0 
-0.001052945127583044 1:0.690997 2:0.406602 3:0.102851 4:0.910095 5:0.828332 6:0.426198 7:0.82186 8:0.0929655 9:0.0860977 10:0.10883 11:0.373732 12:0.480919 13:0.0141497 14:0.918091 15:2.42853 16:2.35619 17:0.389212 18:0.389212 19:0.337581 20:0.337581 21:0.0633653 22:0.163684 23:0.213259 24:0.0673611 25:0.658555 26:3.57135 27:3.89252 28:0.389212 29:0.389212 30:0.337581 31:0.337581 0:0 
-0.07623030178734287 1:1.03599 2:0.644195 3:0.188756 4:1.06458 5:0.835443 6:0.329445 7:0.788555 8:0.102995 9:0.187899 10:0.258258 11:0.200079 12:0.408561 13:0.171772 14:0.730624 15:2.96565 16:3.37714 17:0.325317 18:0.325317 19:0 20:0 21:0.117539 22:0.200079 23:0.267003 24:0.134061 25:0.689177 26:3.75878 27:3.37714 28:0.325317 29:0.325317 30:0 31:0 0:0 
-0.009809201449879318 1:0.825284 2:0.64011 3:0.091858 4:1.34267 5:0.767797 6:0.203919 7:0.765442 8:0.0802979 9:0.104649 10:0.147885 11:0.0967775 12:0.243343 13:0.0409213 14:0.827979 15:2.62245 16:2.27942 17:0.2732 18:0.2732 19:0.198738 20:0.198738 21:0.0614131 22:0.118097 23:0.0825962 24:0.163294 25:0.297393 26:4.05669 27:4.5635 28:0.2732 29:0.2732 30:0.198738 31:0.198738 0:0 
-0.03558025193664958 1:1.68479 2:1.06545 3:0.428438 4:0.62726 5:0.752236 6:0.40594 7:0.701766 8:0.212167 9:0.358857 10:0.579645 11:0.436024 12:0.405642 13:0.483188 14:0.29119 15:2.1588 16:3.49781 17:0.681574 18:0.681574 19:0 20:0 21:0.13807 22:0.436024 23:0.573305 24:0.00938491 25:0.886612 26:3.40641 27:3.49781 28:0.681574 29:0.681574 30:0 31:0 0:0 
-0.04900624232110926 1:0.774382 2:0.516917 3:0.102386 4:1.38301 5:0.761084 6:0.220066 7:0.790877 8:0.0851527 9:0.112266 10:0.159724 11:0.324938 12:0.479527 13:0.0324096 14:0.762697 15:2.31512 16:2.0932 17:0.365505 18:0.365505 19:0.273673 20:0.273673 21:0.064809 22:0.0982822 23:0.160502 24:0.0460011 25:0.844393 26:3.19155 27:3.43305 28:0.365505 29:0.365505 30:0.273673 31:0.273673 0:0 
0.02789801482135856 1:2.02116 2:1.54389 3:0.356872 4:0.649292 5:0.531605 6:0.18355 7:0.913491 8:0.354959 9:0.310997 10:0.278687 11:0.455322 12:0.733433 13:0.00986436 14:0.981606 15:2.58562 16:2.61138 17:0.192011 18:0.192011 19:0.113604 20:0.113604 21:0.343307 22:0.447455 23:0.78818 24:0.0225313 25:0.98924 26:2.8985 27:2.91479 28:0.192011 29:0.192011 30:0.113604 31:0.113604 0:0 
-0.0296508597036228 1:0.551368 2:0.303699 3:0.101119 4:1.47452 5:0.777264 6:0.292665 7:0.766972 8:0.124236 9:0.16393 10:0.116925 11:0.263818 12:0.372073 13:0.0449262 14:0.850696 15:2.33925 16:2.1786 17:0.272131 18:0.272131 19:0 20:0 21:0.210935 22:0.263818 23:0.186859 24:0.291655 25:0.292463 26:3.33899 27:2.1786 28:0.272131 29:0.272131 30:0 31:0 0:0 
-0.004397292134981908 1:0.547305 2:0.257741 3:0.0982191 4:1.5004 5:0.786659 6:0.297614 7:0.771887 8:0.128875 9:0.162673 10:0.100018 11:0.183564 12:0.280171 13:0.036371 14:0.894609 15:2.61138 16:2.48875 17:0.271427 18:0.271427 19:0 20:0 21:0.225328 22:0.183564 23:0.192301 24:0.409032 25:0.372583 26:3.76562 27:2.48875 28:0.271427 29:0.271427 30:0 31:0 0:0 
0.01047121893875301 1:1.41041 2:1.17268 3:0.314781 4:0.328544 5:0.739276 6:0.251057 7:0.883735 8:0.251344 9:0.32285 10:0.291693 11:0.105599 12:0.389259 13:0.107235 14:0.878808 15:2.2876 16:2.57828 17:0.224424 18:0.224424 19:0.103764 20:0.103764 21:0.354006 22:0.13456 23:0.450573 24:0.210046 25:0.715691 26:2.80061 27:3.47484 28:0.224424 29:0.224424 30:0.103764 31:0.103764 0:0 
0.01075522931609395 1:1.32195 2:1.04295 3:0.328215 4:0.266348 5:0.745089 6:0.273031 7:0.890172 8:0.248265 9:0.319199 10:0.286296 11:0.116759 12:0.398234 13:0.0774218 14:0.928729 15:2.24892 16:2.41495 17:0.229419 18:0.229419 19:0.124328 20:0.124328 21:0.352101 22:0.12894 23:0.44014 24:0.224721 25:0.705404 26:2.79015 27:3.50036 28:0.229419 29:0.229419 30:0.124328 31:0.124328 0:0 
-0.02866246879315834 1:1.11223 2:0.716972 3:0.195552 4:1.05345 5:0.837149 6:0.262949 7:0.842837 8:0.111157 9:0.339356 10:0.206295 11:0.171304 12:0.208892 13:0.36024 14:0.471263 15:1.40565 16:0.390607 17:0.493483 18:0.493483 19:0.351842 20:0.351842 21:0.472417 22:0.182863 23:0.535136 24:0.33563 25:0.544155 26:2.70084 27:3.71797 28:0.493483 29:0.493483 30:0.351842 31:0.351842 0:0 
0.0003935089379932117 1:1.10891 2:0.766562 3:0.328951 4:0.266314 5:0.755533 6:0.316236 7:0.904872 8:0.220717 9:0.337361 10:0.318019 11:0.171704 12:0.483977 13:0.0665704 14:0.947543 15:2.37793 16:2.48875 17:0.251964 18:0.251964 19:0.107992 20:0.107992 21:0.356704 22:0.148093 23:0.490486 24:0.11882 25:0.89935 26:2.93966 27:3.16936 28:0.251964 29:0.251964 30:0.107992 31:0.107992 0:0 
-0.0007292182999363157 1:0.899986 2:0.469741 3:0.114198 4:0.309638 5:0.913342 6:0.678627 7:0.669501 8:0.10355 9:0.214361 10:0.287482 11:0.162373 12:0.202387 13:0.574887 14:0.286493 15:2.46685 16:4.12439 17:0.250293 18:0.250293 19:0 20:0 21:0.141241 22:0.162373 23:0.239029 24:0.194692 25:0.658309 26:3.7296 27:4.12439 28:0.250293 29:0.250293 30:0 31:0 0:0 
0.07775174757800461 1:1.07648 2:0.856449 3:0.217134 4:0.306029 5:0.806819 6:0.175759 7:0.726612 8:0.0547544 9:0.20693 10:0.19621 11:0.31795 12:0.480967 13:0.089175 14:0.772432 15:3.04728 16:3.38082 17:0.165215 18:0.165215 19:0 20:0 21:0.217651 22:0.31795 23:0.533253 24:0.0246586 25:0.93201 26:3.27824 27:3.38082 28:0.165215 29:0.165215 30:0 31:0 0:0 
0.1081395674151377 1:1.04815 2:0.856865 3:0.194052 4:0.235211 5:0.783505 6:0.181139 7:0.709128 8:0.0599072 9:0.157594 10:0.171618 11:0.361474 12:0.519672 13:0.0489078 14:0.825543 15:2.96769 16:3.16159 17:0.149015 18:0.149015 19:0 20:0 21:0.14357 22:0.361474 23:0.49232 24:0.0446238 25:0.88276 26:3.2796 27:3.16159 28:0.149015 29:0.149015 30:0 31:0 0:0 
0.1445326941766721 1:1.86791 2:1.60669 3:0.359245 4:0.363372 5:0.639574 6:0.181493 7:0.789657 8:0.240579 9:0.253077 10:0.210948 11:0.236425 12:0.389011 13:0.154393 14:0.780861 15:1.79288 16:2.14213 17:0.405 18:0.405 19:0 20:0 21:0.295205 22:0.236425 23:0.488736 24:0.144748 25:0.763771 26:2.54539 27:2.14213 28:0.405 29:0.405 30:0 31:0 0:0 
0.1581 1:1.924 2:1.59641 3:0.215316 4:0.504622 5:0.552668 6:0.183216 7:0.856983 8:0.360084 9:0.328545 10:0.29721 11:0.338117 12:0.614329 13:0.0768227 14:0.830243 15:1.1659 16:1.42598 17:0.21152 18:0.21152 19:0.121583 20:0.121583 21:0.35988 22:0.328303 23:0.661029 24:0.0940474 25:0.833063 26:1.50021 27:1.78486 28:0.21152 29:0.21152 30:0.121583 31:0.121583 0:0 
0.1581 1:2.21179 2:1.92914 3:0.215384 4:0.520963 5:0.553318 6:0.179074 7:0.842161 8:0.349071 9:0.31826 10:0.343108 11:0.131037 12:0.446012 13:0.181607 14:0.779026 15:1.49631 16:2.01064 17:0.248186 18:0.248186 19:0 20:0 21:0.293413 22:0.131037 23:0.423399 24:0.0335507 25:0.992431 26:1.99365 27:2.01064 28:0.248186 29:0.248186 30:0 31:0 0:0 
0.1581 1:1.85648 2:1.26995 3:0.265562 4:0.493798 5:0.543818 6:0.171052 7:0.849581 8:0.34269 9:0.329298 10:0.337123 11:0.682736 12:0.947901 13:0.0826047 14:0.752015 15:1.62747 16:1.88622 17:0.205375 18:0.205375 19:0.131213 20:0.131213 21:0.321472 22:0.732731 23:0.99083 24:0.0717472 25:0.806321 26:1.84537 27:2.03444 28:0.205375 29:0.205375 30:0.131213 31:0.131213 0:0 
-0.06913694486732798 1:0.981072 2:0.540158 3:0.128353 4:0.273925 5:0.896568 6:0.671744 7:0.696717 8:0.0998534 9:0.141418 10:0.115606 11:0.197771 12:0.305621 13:0.0539649 14:0.710821 15:3.33364 16:2.90785 17:0.244393 18:0.244393 19:0 20:0 21:0.16723 22:0.197771 23:0.11412 24:0.320133 25:0.31458 26:4.05954 27:2.90785 28:0.244393 29:0.244393 30:0 31:0 0:0 
0.02485645971251916 1:1.40076 2:1.1297 3:0.2059 4:0.356556 5:0.686119 6:0.238228 7:0.82366 8:0.129593 9:0.328297 10:0.306877 11:0.324904 12:0.607488 13:0.0859992 14:0.937385 15:2.77761 16:2.86329 17:0.157626 18:0.157626 19:0.24555 20:0.24555 21:0.349716 22:0.349821 23:0.581231 24:0.187807 25:0.620469 26:3.05195 27:3.62943 28:0.157626 29:0.157626 30:0.24555 31:0.24555 0:0 
-0.02470874056902709 1:1.08455 2:0.565043 3:0.204798 4:0.358804 5:0.773727 6:0.571016 7:0.703738 8:0.161195 9:0.246072 10:0.17638 11:0.247527 12:0.400151 13:0.0897117 14:0.83727 15:3.39157 16:3.60524 17:0.454236 18:0.454236 19:0 20:0 21:0.315764 22:0.247527 23:0.383654 24:0.305935 25:0.580391 26:4.25854 27:3.60524 28:0.454236 29:0.454236 30:0 31:0 0:0 
-0.0140859321815576 1:1.00623 2:0.53902 3:0.116903 4:0.275985 5:0.885177 6:0.660644 7:0.699772 8:0.10303 9:0.145179 10:0.157089 11:0.167341 12:0.0834137 13:0.379915 14:0.316357 15:1.74547 16:3.07502 17:0.38308 18:0.38308 19:0.260071 20:0.260071 21:0.133269 22:0.281735 23:0.345157 24:0.120358 25:0.746676 26:4.06889 27:4.34984 28:0.38308 29:0.38308 30:0.260071 31:0.260071 0:0 
0.03085166892958925 1:1.77689 2:1.45865 3:0.27142 4:0.474599 5:0.634992 6:0.193697 7:0.701167 8:0.213589 9:0.159661 10:0.137055 11:0.526492 12:0.617839 13:0.0571011 14:0.811431 15:2.98448 16:3.15493 17:0.179809 18:0.179809 19:0 20:0 21:0.182267 22:0.526492 23:0.704173 24:0.0212433 25:0.983055 26:3.17016 27:3.15493 28:0.179809 29:0.179809 30:0 31:0 0:0 
0.02139424316975577 1:1.69338 2:1.29266 3:0.27815 4:0.478677 5:0.632755 6:0.193776 7:0.749817 8:0.227852 9:0.299911 10:0.244426 11:0.504104 12:0.740249 13:0.0328844 14:0.919437 15:3.03368 16:3.12844 17:0.2089 18:0.2089 19:0 20:0 21:0.355395 22:0.504104 23:0.84384 24:0.0509734 25:0.949717 26:3.18994 27:3.12844 28:0.2089 29:0.2089 30:0 31:0 0:0 
0.08394691940351615 1:0.973541 2:0.789231 3:0.236525 4:0.48856 5:0.776585 6:0.289208 7:0.905483 8:0.0988088 9:0.255202 10:0.349683 11:0.285341 12:0.303834 13:0.404093 14:0.432948 15:2.28171 16:3.22473 17:0.353249 18:0.353249 19:0 20:0 21:0.160721 22:0.285341 23:0.405007 24:0.100883 25:0.694677 26:2.78282 27:3.22473 28:0.353249 29:0.353249 30:0 31:0 0:0 
0.03127195399244181 1:2.29334 2:1.90686 3:0.3939 4:0.50851 5:0.633928 6:0.142266 7:0.748784 8:0.153976 9:0.32532 10:0.357673 11:0.378436 12:0.693802 13:0.105303 14:0.832574 15:3.02334 16:3.30674 17:0.321808 18:0.321808 19:0 20:0 21:0.292967 22:0.378436 23:0.645754 24:0.0773791 25:0.879461 26:3.49916 27:3.30674 28:0.321808 29:0.321808 30:0 31:0 0:0 
0.01982621475567761 1:2.60111 2:2.41957 3:0.29217 4:0.424675 5:0.643158 6:0.140323 7:0.716652 8:0.147414 9:0.349918 10:0.385533 11:0.181127 12:0.49425 13:0.245313 14:0.761582 15:2.95461 16:3.49036 17:0.372103 18:0.372103 19:0 20:0 21:0.314303 22:0.181127 23:0.484256 24:0.0895664 25:0.925649 26:3.64869 27:3.49036 28:0.372103 29:0.372103 30:0 31:0 0:0 
-0.004584776820228901 1:1.24054 2:0.725379 3:0.156471 4:0.20877 5:0.863317 6:0.59522 7:0.720603 8:0.10348 9:2.32902 10:0.251851 11:0.177266 12:0.14236 13:0.57472 14:0.770881 15:2.96174 16:3.5221 17:0.234433 18:0.234433 19:4.4195 20:4.4195 21:4.40619 22:4.40367 23:0.160166 24:0.499229 25:0.634374 26:4.48559 27:3.5221 28:0.234433 29:0.234433 30:4.4195 31:4.4195 0:0 
0.009375382599020864 1:2.43379 2:2.26292 3:0.274748 4:0.43554 5:0.684745 6:0.14449 7:0.734985 8:0.150544 9:0.348835 10:0.377514 11:0.211501 12:0.546007 13:0.165782 14:0.814102 15:3.05845 16:3.44251 17:0.334246 18:0.334246 19:0 20:0 21:0.320156 22:0.211501 23:0.520769 24:0.0796064 25:0.898354 26:3.6439 27:3.44251 28:0.334246 29:0.334246 30:0 31:0 0:0 
0.08328608533975559 1:2.01727 2:1.29066 3:0.214213 4:0.329983 5:0.688463 6:0.133091 7:0.645804 8:0.110937 9:0.180724 10:0.265147 11:0.765492 12:1.02685 13:0.0160412 14:0.979316 15:3.47893 16:3.49803 17:0.303547 18:0.303547 19:0 20:0 21:0.0963017 22:0.765492 23:0.746872 24:0.0398016 25:0.492338 26:3.65829 27:3.49803 28:0.303547 29:0.303547 30:0 31:0 0:0 
0.1581 1:1.24846 2:0.867495 3:0.137934 4:0.429008 5:0.657228 6:0.29653 7:0.75211 8:0.219591 9:0.0907528 10:0.104864 11:0.17876 12:0.151912 13:0.199031 14:0.383664 15:3.2129 16:4.03187 17:0.162423 18:0.162423 19:0 20:0 21:0.076642 22:0.17876 23:0.2475 24:0.0513463 25:0.934891 26:3.96146 27:4.03187 28:0.162423 29:0.162423 30:0 31:0 0:0 
0.03820320108663557 1:1.8176 2:1.69507 3:0.213263 4:0.539064 5:0.706199 6:0.187288 7:0.663132 8:0.162823 9:0.232165 10:0.183497 11:0.178 12:0.142708 13:0.382178 14:0.275466 15:2.8786 16:4.23287 17:0.397252 18:0.397252 19:0 20:0 21:0.280833 22:0.178 23:0.449296 24:0.0819039 25:0.856159 26:3.94586 27:4.23287 28:0.397252 29:0.397252 30:0 31:0 0:0 
0.04009995458396555 1:1.99019 2:1.91353 3:0.217474 4:0.44686 5:0.712387 6:0.170996 7:0.661631 8:0.119027 9:0.17354 10:0.139124 11:0.253684 12:0.266033 13:0.171874 14:0.47442 15:3.47064 16:4.03765 17:0.237509 18:0.237509 19:0 20:0 21:0.207955 22:0.253684 23:0.456497 24:0.0430194 25:0.86672 26:3.84554 27:4.03765 28:0.237509 29:0.237509 30:0 31:0 0:0 
0.1581 1:1.94145 2:1.85789 3:0.225527 4:0.323715 5:0.644691 6:0.16487 7:0.695199 8:0.120353 9:0.100489 10:0.104265 11:0.176059 12:0.137334 13:0.201518 14:0.393965 15:2.2143 16:2.87243 17:0.171833 18:0.171833 19:0 20:0 21:0.0967129 22:0.176059 23:0.268652 24:0.0409036 25:0.880846 26:2.72337 27:2.87243 28:0.171833 29:0.171833 30:0 31:0 0:0 
0.1349103103530933 1:1.78173 2:1.58749 3:0.217673 4:0.414083 5:0.579221 6:0.267711 7:0.852003 8:0.219246 9:0.130773 10:0.193474 11:0.30668 12:0.159241 13:0.182953 14:0.262366 15:4.09214 16:4.79789 17:0.198504 18:0.198504 19:0 20:0 21:0.0680727 22:0.30668 23:0.334355 24:0.06192 25:0.550762 26:4.39064 27:4.79789 28:0.198504 29:0.198504 30:0 31:0 0:0 
0.01221726416158722 1:1.5114 2:1.35909 3:0.256666 4:0.461356 5:0.533088 6:0.19457 7:0.825745 8:0.204884 9:0.314278 10:0.289389 11:0.141024 12:0.410581 13:0.140414 14:0.809082 15:1.53082 16:1.94378 17:0.386476 18:0.386476 19:0 20:0 21:0.339167 22:0.141024 23:0.453946 24:0.16647 25:0.783975 26:2.43934 27:1.94378 28:0.386476 29:0.386476 30:0 31:0 0:0 
0.1581 1:1.42696 2:1.18702 3:0.230783 4:0.42418 5:0.560384 6:0.215949 7:0.848962 8:0.215902 9:0.255832 10:0.286944 11:0.17268 12:0.426429 13:0.158794 14:0.760942 15:1.58362 16:2.08128 17:0.267027 18:0.267027 19:0.154441 20:0.154441 21:0.22472 22:0.307416 23:0.470603 24:0.130199 25:0.741201 26:2.10694 27:2.43934 28:0.267027 29:0.267027 30:0.154441 31:0.154441 0:0 
0.03601267228379672 1:1.48978 2:1.34335 3:0.258064 4:0.40359 5:0.56347 6:0.220979 7:0.8427 8:0.219079 9:0.260637 10:0.27551 11:0.11313 12:0.385445 13:0.0638813 14:0.926442 15:1.40336 16:1.5708 17:0.274209 18:0.274209 19:0.160263 20:0.160263 21:0.245764 22:0.226185 23:0.414801 24:0.165593 25:0.753409 26:1.93288 27:2.31917 28:0.274209 29:0.274209 30:0.160263 31:0.160263 0:0 
0.0547911478059677 1:1.62609 2:1.66967 3:0.358621 4:0.555359 5:0.589599 6:0.205753 7:0.691571 8:0.167385 9:0.143664 10:0.136445 11:0.134546 12:0.261956 13:0.0830172 14:0.881567 15:1.24905 16:1.05165 17:0.256994 18:0.256994 19:0.306068 20:0.306068 21:0.150883 22:0.202272 23:0.136938 24:0.267963 25:0.375239 26:2.45586 27:3.36839 28:0.256994 29:0.256994 30:0.306068 31:0.306068 0:0 
0.06978548960091949 1:1.70681 2:1.66159 3:0.355095 4:0.535462 5:0.575617 6:0.213614 7:0.689196 8:0.173585 9:0.145111 10:0.119701 11:0.23021 12:0.342311 13:0.0476377 14:0.870106 15:1.16383 16:1.00407 17:0.25193 18:0.25193 19:0 20:0 21:0.170521 22:0.23021 23:0.144581 24:0.264859 25:0.284381 26:1.76819 27:1.00407 28:0.25193 29:0.25193 30:0 31:0 0:0 
0.002501529143970523 1:1.48888 2:1.43691 3:0.207738 4:0.500943 5:0.572126 6:0.236838 7:0.750483 8:0.196794 9:0.167875 10:0.119662 11:0.135594 12:0.251832 13:0.0490062 14:0.936969 15:1.5508 16:1.45592 17:0.301006 18:0.301006 19:0 20:0 21:0.216088 22:0.135594 23:0.172191 24:0.490853 25:0.3391 26:2.77226 27:1.45592 28:0.301006 29:0.301006 30:0 31:0 0:0 
0.09428932703754413 1:1.4095 2:1.34528 3:0.221793 4:0.498365 5:0.575345 6:0.24253 7:0.731485 8:0.196534 9:0.163747 10:0.116912 11:0.195732 12:0.305084 13:0.0539402 14:0.975904 15:1.65394 16:1.6248 17:0.297585 18:0.297585 19:0 20:0 21:0.210581 22:0.195732 23:0.216624 24:0.339829 25:0.381389 26:2.58043 27:1.6248 28:0.297585 29:0.297585 30:0 31:0 0:0 
0.02292129252906623 1:1.3986 2:1.39086 3:0.206371 4:0.576961 5:0.704387 6:0.266742 7:0.688276 8:0.157099 9:0.236261 10:0.104878 11:0.197243 12:0.287337 13:0.0719399 14:0.862027 15:2.12245 16:1.9513 17:0.420719 18:0.420719 19:0 20:0 21:0.367644 22:0.197243 23:0.266322 24:0.577507 25:0.280784 26:3.65398 27:1.9513 28:0.420719 29:0.420719 30:0 31:0 0:0 
0.06884781037242445 1:1.23543 2:0.929842 3:0.23356 4:0.578993 5:0.707288 6:0.267313 7:0.679158 8:0.158191 9:0.238488 10:0.114079 11:0.370217 12:0.475486 13:0.033366 14:0.996233 15:2.42376 16:2.42678 17:0.422442 18:0.422442 19:0 20:0 21:0.362898 22:0.370217 23:0.433972 24:0.29405 25:0.425875 26:3.35661 27:2.42678 28:0.422442 29:0.422442 30:0 31:0 0:0 
0.06126464506415673 1:1.20039 2:0.99591 3:0.305269 4:0.566792 5:0.739153 6:0.258979 7:0.678716 8:0.139106 9:0.0909275 10:0.109897 11:0.327211 12:0.426687 13:0.0398193 14:0.954484 15:2.54404 16:2.58469 17:0.374562 18:0.374562 19:0.30989 20:0.30989 21:0.0719577 22:0.215332 23:0.274367 24:0.0539446 25:0.719979 26:3.67888 27:3.87941 28:0.374562 29:0.374562 30:0.30989 31:0.30989 0:0 
0.1581 1:1.09018 2:0.997019 3:0.303602 4:0.742927 5:0.620392 6:0.320897 7:0.784547 8:0.165404 9:0.21827 10:0.20741 11:0.0937424 12:0.296178 13:0.0865169 14:0.998481 15:1.41088 16:1.41419 17:0.319933 18:0.319933 19:0 20:0 21:0.229131 22:0.0937424 23:0.270193 24:0.303746 25:0.591615 26:2.35619 27:1.41419 28:0.319933 29:0.319933 30:0 31:0 0:0 
0.1303239438834237 1:1.0981 2:1.11853 3:0.158959 4:0.711157 5:0.606712 6:0.338183 7:0.835608 8:0.176355 9:0.239683 10:0.226424 11:0.133768 12:0.338866 13:0.144664 14:0.80548 15:1.16231 16:0.758378 17:0.348255 18:0.348255 19:0 20:0 21:0.252942 22:0.133768 23:0.221388 24:0.484265 25:0.368569 26:2.18333 27:0.758378 28:0.348255 29:0.348255 30:0 31:0 0:0 
0.009360708820414187 1:1.03683 2:1.00538 3:0.18989 4:0.677002 5:0.642484 6:0.345873 7:0.806692 8:0.174693 9:0.231584 10:0.219342 11:0.115222 12:0.321552 13:0.123852 14:0.873676 15:1.33638 16:1.06795 17:0.331691 18:0.331691 19:0 20:0 21:0.243826 22:0.115222 23:0.247016 24:0.416034 25:0.461059 26:2.3007 27:1.06795 28:0.331691 29:0.331691 30:0 31:0 0:0 
0.06252263628896744 1:1.13529 2:1.05866 3:0.173888 4:0.63769 5:0.573412 6:0.251694 7:0.844888 8:0.178426 9:0.222815 10:0.222959 11:0.142945 12:0.329322 13:0.181997 14:0.71632 15:1.15839 16:0.577902 17:0.348663 18:0.348663 19:0.333681 20:0.333681 21:0.222671 22:0.203201 23:0.18491 24:0.387997 25:0.308286 26:2.31917 27:3.76562 28:0.348663 29:0.348663 30:0.333681 31:0.333681 0:0 
0.03523686675498224 1:1.40383 2:1.39106 3:0.162556 4:0.599209 5:0.758107 6:0.204272 7:0.714669 8:0.114255 9:0.196152 10:0.142412 11:0.0942094 12:0.234489 13:0.0526422 14:0.959921 15:2.84615 16:2.7707 17:0.298784 18:0.298784 19:0 20:0 21:0.249891 22:0.0942094 23:0.259896 24:0.407873 25:0.533885 26:3.7296 27:2.7707 28:0.298784 29:0.298784 30:0 31:0 0:0 
0.04866725262556851 1:1.32386 2:1.01363 3:0.222644 4:0.634575 5:0.694993 6:0.202256 7:0.761658 8:0.111245 9:0.263106 10:0.227733 11:0.247793 12:0.401507 13:0.171641 14:0.671265 15:2.30361 16:2.7279 17:0.280704 18:0.280704 19:0 20:0 21:0.29848 22:0.247793 23:0.543586 24:0.0346722 25:0.948874 26:2.63542 27:2.7279 28:0.280704 29:0.280704 30:0 31:0 0:0 
0.05682659540981125 1:1.3934 2:1.12159 3:0.336249 4:0.693037 5:0.627885 6:0.25442 7:0.741667 8:0.181169 9:0.172188 10:0.247381 11:0.30979 12:0.527521 13:0.0927944 14:0.96803 15:1.8505 16:1.89255 17:0.555949 18:0.555949 19:0.363008 20:0.363008 21:0.0969957 22:0.115202 23:0.205073 24:0.0757436 25:0.747797 26:3.64094 27:3.98941 28:0.555949 29:0.555949 30:0.363008 31:0.363008 0:0 
-0.0285150551461192 1:1.00913 2:0.568706 3:0.133853 4:0.211901 5:0.893662 6:0.691066 7:0.676844 8:0.0984871 9:0.221974 10:0.273732 11:0.221126 12:0.205055 13:0.443491 14:0.271331 15:2.95337 16:4.3075 17:0.288591 18:0.288591 19:0 20:0 21:0.170216 22:0.221126 23:0.345888 24:0.134266 25:0.826313 26:4.07407 27:4.3075 28:0.288591 29:0.288591 30:0 31:0 0:0 
-0.001046704757226351 1:0.924126 2:0.582172 3:0.132427 4:0.249196 5:0.909365 6:0.702207 7:0.670575 8:0.100122 9:0.206294 10:0.159149 11:0.161377 12:0.309622 13:0.0826763 14:0.980268 15:2.48055 16:2.50884 17:0.251931 18:0.251931 19:0 20:0 21:0.253439 22:0.161377 23:0.272992 24:0.364693 25:0.489592 26:3.41989 27:2.50884 28:0.251931 29:0.251931 30:0 31:0 0:0 
0.04860834676190208 1:1.64617 2:1.60402 3:0.335996 4:0.664396 5:0.771763 6:0.248118 7:0.71505 8:0.249536 9:0.232317 10:0.332505 11:0.247317 12:0.254904 13:0.46056 14:0.422434 15:2.90047 16:4.01153 17:0.405681 18:0.405681 19:0 20:0 21:0.132128 22:0.247317 23:0.374598 24:0.0371022 25:0.870673 26:3.85344 27:4.01153 28:0.405681 29:0.405681 30:0 31:0 0:0 
-0.05194926577342056 1:1.01019 2:0.487479 3:0.213491 4:0.293301 5:0.92339 6:0.682543 7:0.672018 8:0.15013 9:0.145463 10:0.165209 11:0.326891 12:0.491614 13:0.0100574 14:0.992474 15:2.90003 16:2.89115 17:0.21313 18:0.21313 19:0 20:0 21:0.125717 22:0.326891 23:0.35432 24:0.115381 25:0.599591 26:3.28603 27:2.89115 28:0.21313 29:0.21313 30:0 31:0 0:0 
-0.06189293002001495 1:1.00835 2:0.476536 3:0.404882 4:0.376883 5:0.940887 6:0.714187 7:0.662477 8:0.181304 9:0.168909 10:0.167847 11:0.325368 12:0.483742 13:0.0446387 14:0.880746 15:3.15529 16:3.28944 17:0.31559 18:0.31559 19:0.325823 20:0.325823 21:0.16997 22:0.332536 23:0.369329 24:0.152166 25:0.498035 26:3.93848 27:4.44939 28:0.31559 29:0.31559 30:0.325823 31:0.325823 0:0 
-0.03141540934013443 1:1.01579 2:0.504651 3:0.375625 4:0.40528 5:0.948939 6:0.70908 7:0.656809 8:0.173747 9:0.149193 10:0.158125 11:0.402215 12:0.554885 13:0.0277514 14:0.9092 15:3.17816 16:3.2617 17:0.225835 18:0.225835 19:0 20:0 21:0.140261 22:0.402215 23:0.443608 24:0.101417 25:0.649249 26:3.55559 27:3.2617 28:0.225835 29:0.225835 30:0 31:0 0:0 
0.1581 1:0.66168 2:0.417792 3:0.265622 4:0.626181 5:0.81343 6:0.266561 7:0.698694 8:0.141904 9:0.24943 10:0.19991 11:0.158805 12:0.296038 13:0.217619 14:0.589473 15:2.53327 16:3.07917 17:0.408232 18:0.408232 19:0 20:0 21:0.298949 22:0.158805 23:0.424097 24:0.171081 25:0.910169 26:3.26768 27:3.07917 28:0.408232 29:0.408232 30:0 31:0 0:0 
-0.05345620950706317 1:0.893932 2:0.524518 3:0.157358 4:0.422628 5:0.838391 6:0.484322 7:0.846801 8:0.127418 9:0.195017 10:0.232086 11:0.194729 12:0.361363 13:0.196975 14:0.647584 15:3.61729 16:4.20529 17:0.192051 18:0.192051 19:0 20:0 21:0.157948 22:0.194729 23:0.351487 24:0.0235448 25:0.900443 26:4.04919 27:4.20529 28:0.192051 29:0.192051 30:0 31:0 0:0 
-0.1191117397021395 1:1.27689 2:0.887446 3:0.150515 4:0.968811 5:0.793266 6:0.332639 7:0.661678 8:0.251291 9:0.264437 10:0.283888 11:0.290271 12:0.542659 13:0.104712 14:0.825818 15:1.63736 16:1.99365 17:0.349842 18:0.349842 19:0 20:0 21:0.244986 22:0.290271 23:0.492629 24:0.116896 25:0.624655 26:2.70764 27:1.99365 28:0.349842 29:0.349842 30:0 31:0 0:0 
-0.005891950147981118 1:1.28139 2:1.29421 3:0.131221 4:0.904255 5:0.775771 6:0.274885 7:0.739399 8:0.254563 9:0.464848 10:0.565365 11:0.508258 12:1.05219 13:0.0672474 14:0.886049 15:1.5708 16:1.78486 17:0.376675 18:0.376675 19:0 20:0 21:0.364331 22:0.508258 23:0.861797 24:0.0423667 25:0.812132 26:2.04549 27:1.78486 28:0.376675 29:0.376675 30:0 31:0 0:0 
0.139124906559273 1:1.69961 2:1.22521 3:0.51711 4:0.970642 5:0.778159 6:0.185876 7:0.755277 8:0.547011 9:0.14634 10:0.129408 11:0.604596 12:0.722271 13:0.0259433 14:0.89969 15:2.36049 16:2.42635 17:0.113995 18:0.113995 19:0 20:0 21:0.163272 22:0.604596 23:0.759387 24:0.0244048 25:0.941584 26:2.46869 27:2.42635 28:0.113995 29:0.113995 30:0 31:0 0:0 
-0.01722959420364977 1:2.72071 2:2.12419 3:0.413118 4:0.156692 5:0.835819 6:0.164775 7:0.790412 8:0.0938541 9:0.186126 10:0.108986 11:0.482048 12:0.436618 13:0.0688696 14:0.406398 15:2.52384 16:2.80686 17:0.220471 18:0.220471 19:0.328488 20:0.328488 21:0.263266 22:0.75342 23:0.634769 24:0.1087 25:0.307249 26:2.72489 27:3.10364 28:0.220471 29:0.220471 30:0.328488 31:0.328488 0:0 
0.1581 1:1.11044 2:0.809592 3:0.255006 4:0.811312 5:0.804319 6:0.192869 7:0.680842 8:0.274365 9:0.0779377 10:0.105062 11:0.603601 12:0.703426 13:0.016004 14:0.941404 15:2.71232 16:2.73767 17:0.150628 18:0.150628 19:0 20:0 21:0.0508131 22:0.603601 23:0.573295 24:0.0220747 25:0.464202 26:2.81513 27:2.73767 28:0.150628 29:0.150628 30:0 31:0 0:0 
-0.01417867052081157 1:2.36654 2:1.72301 3:0.336431 4:0.138744 5:0.798832 6:0.143307 7:0.851785 8:0.0808282 9:0.103486 10:0.0868726 11:0.480901 12:0.440778 13:0.053334 14:0.38241 15:2.70624 16:2.98294 17:0.578655 18:0.578655 19:0.601622 20:0.601622 21:0.1201 22:1.07627 23:1.00472 24:0.0295362 25:0.34051 26:2.99835 27:3.11457 28:0.578655 29:0.578655 30:0.601622 31:0.601622 0:0 
-0.003039300836806011 1:2.22324 2:1.66742 3:0.269801 4:0.108902 5:0.806993 6:0.140575 7:0.829427 8:0.0720616 9:0.113236 10:0.0548265 11:0.10513 12:0.149681 13:0.0813084 14:0.756772 15:1.5708 16:1.81577 17:0.0526927 18:0.0526927 19:0.161697 20:0.161697 21:0.171646 22:0.173246 23:0.162212 24:0.34137 25:0.447432 26:1.94378 27:2.81984 28:0.0526927 29:0.0526927 30:0.161697 31:0.161697 0:0 
0.04164539499592565 1:0.96814 2:0.745542 3:0.149967 4:0.728224 5:0.778625 6:0.180997 7:0.844151 8:0.279071 9:0.392848 10:0.596648 11:0.179536 12:0.772051 13:0.0600293 14:0.947829 15:2.64273 16:2.52134 17:0.649366 18:0.649366 19:0 20:0 21:0.189048 22:0.179536 23:0.208264 24:0.321019 25:0.365401 26:3.47723 27:2.52134 28:0.649366 29:0.649366 30:0 31:0 0:0 
-0.02492938198021806 1:2.37558 2:1.87861 3:0.268861 4:0.0958126 5:0.80037 6:0.127603 7:0.842798 8:0.0649707 9:0.128688 10:0.166513 11:0.717869 12:0.604661 13:0.0590803 14:0.297721 15:2.91599 16:3.26262 17:0.226693 18:0.226693 19:0.163883 20:0.163883 21:0.0908621 22:0.881697 23:0.81896 24:0.024627 25:0.369385 26:3.04664 27:3.20891 28:0.226693 29:0.226693 30:0.163883 31:0.163883 0:0 
0.03099388461724121 1:1.38231 2:1.03586 3:0.407737 4:0.575374 5:0.688519 6:0.197037 7:0.689219 8:0.320606 9:0.0706716 10:0.0539464 11:0.666526 12:0.69711 13:0.0207558 14:0.973848 15:3.09787 16:3.10664 17:0.123743 18:0.123743 19:0 20:0 21:0.0873968 22:0.666526 23:0.704635 24:0.0365512 25:0.46241 26:3.19085 27:3.10664 28:0.123743 29:0.123743 30:0 31:0 0:0 
-0.02759373579652231 1:0.65746 2:0.477655 3:0.46905 4:0.397892 5:0.923288 6:0.482621 7:0.680706 8:0.152526 9:0.0747479 10:0.0645559 11:0.0769001 12:0.0898943 13:0.24834 14:0.615858 15:1.52084 16:1.14938 17:0.139136 18:0.139136 19:0.0633856 20:0.0633856 21:0.0849399 22:0.0704906 23:0.124846 24:0.226202 25:0.738069 26:2.2381 27:1.97569 28:0.139136 29:0.139136 30:0.0633856 31:0.0633856 0:0 
0.02108523661967439 1:1.37301 2:1.13456 3:0.408685 4:0.402735 5:0.886361 6:0.286125 7:0.620545 8:0.74352 9:0.166864 10:0.0572211 11:0.205988 12:0.248553 13:0.053862 14:0.771189 15:3.94797 16:4.13872 17:0.28471 18:0.28471 19:0 20:0 21:0.276507 22:0.205988 23:0.445012 24:0.147463 25:0.786589 26:4.52417 27:4.13872 28:0.28471 29:0.28471 30:0 31:0 0:0 
-0.01432603810282439 1:1.42136 2:1.15044 3:0.406524 4:1.19014 5:0.887837 6:0.279956 7:0.723633 8:0.459625 9:0.409576 10:0.197394 11:0.611758 12:0.774582 13:0.0516575 14:0.7222 15:4.21477 16:4.47797 17:0.676774 18:0.676774 19:0 20:0 21:0.621757 22:0.611758 23:1.03181 24:0.186306 25:0.752336 26:4.95439 27:4.47797 28:0.676774 29:0.676774 30:0 31:0 0:0 
0.06448973799566916 1:1.40702 2:1.07509 3:0.392978 4:0.342683 5:0.854551 6:0.250912 7:0.630893 8:0.757471 9:0.108362 10:0.0804507 11:0.326712 12:0.371705 13:0.0610121 14:0.676561 15:3.94921 16:4.15771 17:0.437704 18:0.437704 19:0.315982 20:0.315982 21:0.136274 22:0.480273 23:0.604109 24:0.0336281 25:0.926495 26:4.72634 27:4.77816 28:0.437704 29:0.437704 30:0.315982 31:0.315982 0:0 
-0.00263702723004847 1:1.61372 2:1.43717 3:0.48559 4:2.2208 5:0.802064 6:0.319479 7:0.951502 8:0.469166 9:0.642132 10:0.458411 11:1.22049 12:0.838444 13:0.0799294 14:0.348006 15:3.59943 16:4.08274 17:0.774719 18:0.774719 19:0.510612 20:0.510612 21:0.825852 22:0.711757 23:1.51059 24:0.0644281 25:0.936229 26:4.15606 27:4.03765 28:0.774719 29:0.774719 30:0.510612 31:0.510612 0:0 
-0.03723332979186229 1:0.829711 2:0.552185 3:0.101682 4:0.485046 5:0.903915 6:0.404398 7:0.700117 8:0.13857 9:0.15213 10:0.0787118 11:0.101623 12:0.179223 13:0.0311171 14:0.982964 15:1.8491 16:1.8693 17:0.288301 18:0.288301 19:0 20:0 21:0.225548 22:0.101623 23:0.185071 24:0.553507 25:0.503962 26:3.06281 27:1.8693 28:0.288301 29:0.288301 30:0 31:0 0:0 
0.06333692343134227 1:0.737139 2:0.582968 3:0.336411 4:0.481333 5:0.774547 6:0.24245 7:0.762019 8:0.500993 9:0.170432 10:0.133848 11:0.603721 12:0.604364 13:0.0706778 14:0.887875 15:4.38543 16:4.44144 17:0.322591 18:0.322591 19:0 20:0 21:0.207016 22:0.603721 23:0.759326 24:0.0642997 25:0.811339 26:4.48182 27:4.44144 28:0.322591 29:0.322591 30:0 31:0 0:0 
-0.01924345634813515 1:1.6558 2:1.59239 3:0.277037 4:0.670096 5:0.872301 6:0.283499 7:0.882158 8:0.653346 9:0.277646 10:0.164285 11:1.07464 12:1.12709 13:0.0450674 14:0.421303 15:4.65859 16:4.82098 17:0.477166 18:0.477166 19:0 20:0 21:0.391007 22:1.07464 23:1.01936 24:0.118403 25:0.789459 26:4.71239 27:4.82098 28:0.477166 29:0.477166 30:0 31:0 0:0 
-0.004748327380817808 1:0.477982 2:0.319312 3:0.134222 4:0.479082 5:0.787902 6:0.462036 7:1.23188 8:0.134529 9:2.06965 10:2.10054 11:2.08081 12:0.233323 13:0.509205 14:0.494866 15:4.64306 16:5.83567 17:0.130197 18:0.130197 19:0 20:0 21:2.03876 22:2.08081 23:0.152649 24:0.399885 25:0.511904 26:4.19569 27:4.81206 28:0.130197 29:0.130197 30:0 31:0 0:0 
-0.01716847005975586 1:0.881482 2:0.569937 3:0.0882477 4:0.329208 5:0.866591 6:0.198088 7:0.682818 8:0.207413 9:0.0691831 10:0.0792054 11:0.340484 12:0.418676 13:0.0106452 14:0.888983 15:2.10101 16:2.00742 17:0.0700807 18:0.0700807 19:0 20:0 21:0.0591608 22:0.340484 23:0.366629 24:0.0478572 25:0.721935 26:2.20443 27:2.00742 28:0.0700807 29:0.0700807 30:0 31:0 0:0 
0.06391574257739958 1:1.09877 2:0.779514 3:0.316619 4:0.413997 5:0.876937 6:0.24344 7:0.642232 8:0.583191 9:0.122815 10:0.146466 11:0.500635 12:0.627234 13:0.0418675 14:0.994741 15:4.4178 16:4.41463 17:0.788994 18:0.788994 19:0.594247 20:0.594247 21:0.0991647 22:0.152441 23:0.178997 24:0.186776 25:0.515198 26:1.76548 27:2.34415 28:0.788994 29:0.788994 30:0.594247 31:0.594247 0:0 
-0.0192006958766624 1:0.896025 2:0.602689 3:0.0855048 4:0.329784 5:0.923967 6:0.244838 7:0.624077 8:0.201502 9:0.143252 10:0.176663 11:0.214717 12:0.391197 13:0.0088506 14:0.971367 15:1.18619 16:1.14417 17:0.268662 18:0.268662 19:0 20:0 21:0.109842 22:0.214717 23:0.158232 24:0.164509 25:0.52945 26:1.70335 27:1.14417 28:0.268662 29:0.268662 30:0 31:0 0:0 
-0.04756318959587668 1:1.59919 2:1.21691 3:0.263288 4:0.410992 5:0.919201 6:0.205734 7:0.637411 8:0.377802 9:0.146835 10:0.147047 11:0.357803 12:0.444063 13:0.0954557 14:0.702135 15:1.84259 16:2.04292 17:0.275003 18:0.275003 19:0 20:0 21:0.146624 22:0.357803 23:0.417019 24:0.111095 25:0.740616 26:2.29744 27:2.04292 28:0.275003 29:0.275003 30:0 31:0 0:0 
-0.01153643835998123 1:2.20292 2:1.799 3:0.30816 4:0.400387 5:0.907553 6:0.189482 7:0.630921 8:0.434032 9:0.190391 10:0.10444 11:0.24217 12:0.325838 13:0.0709793 14:0.81565 15:1.74674 16:1.8837 17:0.363406 18:0.363406 19:0 20:0 21:0.276343 22:0.24217 23:0.340199 24:0.297207 25:0.607974 26:2.52134 27:1.8837 28:0.363406 29:0.363406 30:0 31:0 0:0 
-0.0004329172384245257 1:1.92018 2:1.33814 3:0.4048 4:0.47542 5:0.900565 6:0.17511 7:0.649562 8:0.509039 9:0.0792805 10:0.060024 11:0.869047 12:0.926251 13:0.00645108 14:0.956957 15:1.89255 16:1.90342 17:0.121103 18:0.121103 19:0 20:0 21:0.0985371 22:0.869047 23:0.889559 24:0.034909 25:0.781473 26:1.97875 27:1.90342 28:0.121103 29:0.121103 30:0 31:0 0:0 
0.05260760759628744 1:0.98503 2:0.693994 3:0.167108 4:0.325045 5:0.730626 6:0.212084 7:0.683379 8:0.41284 9:0.279229 10:0.0996511 11:0.47083 12:0.518876 13:0.0562971 14:0.48163 15:3.83447 16:3.93212 17:0.347213 18:0.347213 19:0.498561 20:0.498561 21:0.458807 22:0.105269 23:0.424678 24:0.568418 25:0.440871 26:4.17895 27:5.72126 28:0.347213 29:0.347213 30:0.498561 31:0.498561 0:0 
0.0394216360866661 1:1.01055 2:0.67261 3:0.194651 4:0.439342 5:0.749509 6:0.231314 7:0.665715 8:0.423901 9:0.121804 10:0.125511 11:0.466538 12:0.531881 13:0.0686079 14:0.481878 15:3.82886 16:3.98392 17:0.212683 18:0.212683 19:0 20:0 21:0.118098 22:0.466538 23:0.539453 24:0.0590294 25:0.958628 26:3.96117 27:3.98392 28:0.212683 29:0.212683 30:0 31:0 0:0 
-0.05641866593105779 1:2.68344 2:2.21997 3:0.442007 4:0.523846 5:0.919058 6:0.169635 7:0.632164 8:0.537132 9:0.105021 10:0.0555727 11:0.351757 12:0.406744 13:0.00677394 14:0.973455 15:2.13753 16:2.15354 17:0.150934 18:0.150934 19:0 20:0 21:0.154469 22:0.351757 23:0.41564 24:0.117749 25:0.750871 26:2.39539 27:2.15354 28:0.150934 29:0.150934 30:0 31:0 0:0 
-0.006039651785525083 1:2.05126 2:1.43472 3:0.447625 4:0.533311 5:0.91113 6:0.165525 7:0.635866 8:0.551226 9:0.0929039 10:0.0562621 11:0.928976 12:0.98361 13:0.00447515 14:0.969133 15:2.02206 16:2.01424 17:0.142107 18:0.142107 19:0 20:0 21:0.129546 22:0.928976 23:0.929323 24:0.0444159 25:0.6563 26:2.14339 27:2.01424 28:0.142107 29:0.142107 30:0 31:0 0:0 
-0.009736763809363088 1:2.2681 2:1.60524 3:0.514128 4:0.741991 5:0.912357 6:0.14965 7:0.646573 8:0.616736 9:0.072664 10:0.0543667 11:0.920885 12:0.971642 13:0.00655522 14:0.944951 15:2.09983 16:2.08358 17:0.0858253 18:0.0858253 19:0 20:0 21:0.0909614 22:0.920885 23:0.930918 24:0.0310929 25:0.736784 26:2.16997 27:2.08358 28:0.0858253 29:0.0858253 30:0 31:0 0:0 
-0.05335087167447114 1:1.77632 2:1.17238 3:0.445558 4:1.26785 5:0.925921 6:0.190845 7:0.703841 8:0.475742 9:0.126929 10:0.187159 11:0.763005 12:0.935088 13:0.027742 14:0.975016 15:2.42214 16:2.43468 17:0.247208 18:0.247208 19:0 20:0 21:0.0666998 22:0.763005 23:0.724618 24:0.0233556 25:0.440234 26:2.49809 27:2.43468 28:0.247208 29:0.247208 30:0 31:0 0:0 
-0.005126334354868536 1:1.57291 2:1.24439 3:0.315277 4:0.914594 5:0.793016 6:0.401029 7:0.754704 8:0.407609 9:0.125684 10:0.20044 11:0.18808 12:0.245724 13:0.294653 14:0.451658 15:3.44516 16:4.2175 17:0.19037 18:0.19037 19:0 20:0 21:0.0509275 22:0.18808 23:0.221159 24:0.0605258 25:0.961874 26:4.19055 27:4.2175 28:0.19037 29:0.19037 30:0 31:0 0:0 
0.03281147953907624 1:1.08667 2:0.828574 3:0.251447 4:0.612026 5:0.705159 6:0.219107 7:0.827165 8:0.488368 9:0.345677 10:0.245446 11:0.460025 12:0.613452 13:0.115427 14:0.769427 15:4.05815 16:4.21895 17:0.330154 18:0.330154 19:0.387262 20:0.387262 21:0.445909 22:0.110949 23:0.531271 24:0.198386 25:0.72728 26:4.3594 27:5.04269 28:0.330154 29:0.330154 30:0.387262 31:0.387262 0:0 
0.1581 1:1.38173 2:1.07401 3:0.276359 4:0.4553 5:0.700339 6:0.263344 7:0.804815 8:0.515696 9:0.114677 10:0.0584642 11:0.361908 12:0.399589 13:0.0374382 14:0.86754 15:4.78543 16:4.83003 17:0.178938 18:0.178938 19:0 20:0 21:0.17089 22:0.361908 23:0.498966 24:0.0766419 25:0.821724 26:5.00809 27:4.83003 28:0.178938 29:0.178938 30:0 31:0 0:0 
0.1581 1:2.06842 2:1.55975 3:0.285273 4:0.452905 5:0.667013 6:0.263307 7:0.762702 8:0.463789 9:0.110583 10:0.0554197 11:0.774064 12:0.818794 13:0.013083 14:0.895939 15:4.65392 16:4.69053 17:0.145284 18:0.145284 19:0 20:0 21:0.165747 22:0.774064 23:0.909163 24:0.0364542 25:0.851044 26:4.79083 27:4.69053 28:0.145284 29:0.145284 30:0 31:0 0:0 
-0.0123477927170498 1:1.48714 2:1.25947 3:0.154395 4:0.6691 5:0.894813 6:0.283705 7:0.878106 8:0.266922 9:0.121862 10:0.185391 11:0.502354 12:0.674227 13:0.0380324 14:0.853918 15:1.34089 16:1.47113 17:0.726301 18:0.726301 19:0.594364 20:0.594364 21:0.0583325 22:0.116146 23:0.097592 24:0.167262 25:0.419253 26:3.74388 27:4.18066 28:0.726301 29:0.726301 30:0.594364 31:0.594364 0:0 
-0.02152553783058511 1:1.48663 2:1.35782 3:0.36363 4:1.01387 5:0.805662 6:0.262559 7:0.689363 8:0.498295 9:0.277038 10:0.22498 11:0.457837 12:0.511281 13:0.145031 14:0.528272 15:2.54052 16:3.18918 17:0.590025 18:0.590025 19:0.395821 20:0.395821 21:0.329095 22:0.348673 23:0.624949 24:0.122692 25:0.721956 26:3.96806 27:4.35548 28:0.590025 29:0.590025 30:0.395821 31:0.395821 0:0 
-0.06860510247610604 1:0.591272 2:0.429891 3:0.126509 4:0.973139 5:0.866314 6:0.528733 7:0.725435 8:0.17223 9:0.231368 10:0.292547 11:0.394374 12:0.131602 13:0.182142 14:0.386827 15:1.90404 16:2.88641 17:0.452015 18:0.452015 19:0 20:0 21:0.170188 22:0.394374 23:0.561943 24:0.020114 25:0.860085 26:2.66824 27:2.88641 28:0.452015 29:0.452015 30:0 31:0 0:0 
-0.009230591839275609 1:2.09354 2:1.33893 3:0.511619 4:0.847626 5:0.709022 6:0.249377 7:0.923 8:0.205116 9:0.0797117 10:0.0549498 11:1.09372 12:1.10387 13:0.0156464 14:0.586535 15:2.88241 16:2.9604 17:0.106898 18:0.106898 19:0 20:0 21:0.104474 22:1.09372 23:1.19803 24:0.00165827 25:0.949677 26:2.9416 27:2.9604 28:0.106898 29:0.106898 30:0 31:0 0:0 
-0.01931091975142484 1:1.39325 2:0.73953 3:0.467514 4:0.529192 5:0.963718 6:0.577085 7:0.647991 8:0.701514 9:0.137833 10:0.0857794 11:0.456758 12:0.482112 13:0.055657 14:0.610966 15:3.9812 16:4.16073 17:0.23682 18:0.23682 19:0 20:0 21:0.189886 22:0.456758 23:0.621912 24:0.0560367 25:0.820159 26:4.33267 27:4.16073 28:0.23682 29:0.23682 30:0 31:0 0:0 
-0.1154781962247851 1:0.608605 2:0.422495 3:0.158136 4:0.462339 5:0.725407 6:0.228467 7:0.748922 8:0.0874163 9:0.189421 10:0.235033 11:0.0963832 12:0.313221 13:0.168061 14:0.974634 15:2.89661 16:2.95337 17:0.237757 18:0.237757 19:0 20:0 21:0.143809 22:0.0963832 23:0.20566 24:0.215449 25:0.758869 26:3.39678 27:2.95337 28:0.237757 29:0.237757 30:0 31:0 0:0 
-0.1581 1:1.39583 2:0.844677 3:0.359907 4:0.520027 5:0.9242 6:0.509251 7:0.716499 8:0.540724 9:0.158483 10:0.0792567 11:0.276476 12:0.347694 13:0.0357237 14:0.868573 15:3.82554 16:3.93499 17:0.245228 18:0.245228 19:0 20:0 21:0.237708 22:0.276476 23:0.453221 24:0.144163 25:0.723688 26:4.33806 27:3.93499 28:0.245228 29:0.245228 30:0 31:0 0:0 
-0.1581 1:1.11861 2:0.558075 3:0.297065 4:0.578946 5:0.942175 6:0.566056 7:0.760489 8:0.485676 9:0.128925 10:0.0793729 11:0.393148 12:0.433981 13:0.0525106 14:0.701978 15:4.15451 16:4.33041 17:0.20773 18:0.20773 19:0 20:0 21:0.178478 22:0.393148 23:0.547238 24:0.0618997 25:0.837566 26:4.49786 27:4.33041 28:0.20773 29:0.20773 30:0 31:0 0:0 
-0.004490140305285037 1:0.774772 2:0.464394 3:0.0842076 4:0.781727 5:0.584341 6:0.12438 7:0.717929 8:0.284212 9:0.377309 10:0.385903 11:0.0773202 12:0.329774 13:0.733914 14:0.279746 15:4.67345 16:0.558599 17:0.719521 18:0.719521 19:0.0550397 20:0.0550397 21:0.368714 22:0.122958 23:0.41506 24:0.33186 25:0.827979 26:1.44382 27:1.03038 28:0.719521 29:0.719521 30:0.0550397 31:0.0550397 0:0 
-0.04263853746791577 1:1.84574 2:1.3768 3:0.248481 4:0.279704 5:0.736763 6:0.26226 7:1.04372 8:0.215868 9:0.391247 10:0.0777055 11:0.673607 12:0.7489 13:0.00861116 14:0.911414 15:3.70832 16:3.74164 17:0.171674 18:0.171674 19:0.686809 20:0.686809 21:0.704789 22:0.148132 23:0.722699 24:0.428776 25:0.531726 26:4.06627 27:5.30039 28:0.171674 29:0.171674 30:0.686809 31:0.686809 0:0 
-0.004092934067941751 1:1.71556 2:1.62608 3:0.0947211 4:0.183299 5:0.698875 6:0.269782 7:0.950902 8:0.137899 9:0.148887 10:0.241103 11:0.148508 12:0.138789 13:0.633732 14:0.283078 15:5.07116 16:0.588003 17:0.0994116 18:0.0994116 19:0.273114 20:0.273114 21:0.0566716 22:0.126741 23:0.167678 24:0.085831 25:0.840443 26:4.48559 27:4.32178 28:0.0994116 29:0.0994116 30:0.273114 31:0.273114 0:0 
-0.004317256972880254 1:2.20265 2:1.70758 3:0.380101 4:0.266481 5:0.820173 6:0.282574 7:0.971682 8:0.188027 9:0.238821 10:0.35271 11:0.257993 12:0.330194 13:0.402872 14:0.393621 15:5.11091 16:0.0356991 17:0.635111 18:0.635111 19:0.697711 20:0.697711 21:0.124933 22:0.451352 23:0.575021 24:0.0110786 25:0.864772 26:3.93965 27:3.82391 28:0.635111 29:0.635111 30:0.697711 31:0.697711 0:0 
-0.002765084794146418 1:2.67695 2:2.04233 3:0.494075 4:0.32146 5:0.876019 6:0.328364 7:0.863824 8:0.198825 9:0.104422 10:0.113339 11:0.339646 12:0.452019 13:0.0120023 14:0.873839 15:3.80264 16:3.68725 17:0.132521 18:0.132521 19:0.138044 20:0.138044 21:0.0955044 22:0.264798 23:0.348556 24:0.0481261 25:0.75184 26:4.10864 27:4.27998 28:0.132521 29:0.132521 30:0.138044 31:0.138044 0:0 
-0.008474234385067319 1:1.3546 2:0.863022 3:0.107294 4:0.145835 5:0.624845 6:0.243157 7:1.0657 8:0.164812 9:0.323029 10:0.462545 11:0.0589171 12:0.519136 13:0.0845655 14:0.774437 15:1.3734 16:0.785398 17:0.276989 18:0.276989 19:0.454248 20:0.454248 21:0.183512 22:0.478162 23:0.559641 24:0.101611 25:0.676442 26:1.92224 27:2.26553 28:0.276989 29:0.276989 30:0.454248 31:0.454248 0:0 
0.0638272776889193 1:1.11188 2:0.673812 3:0.216329 4:0.191709 5:0.742165 6:0.355182 7:1.01019 8:0.331512 9:1.43004 10:1.45887 11:1.51383 12:0.36695 13:0.413552 14:0.633559 15:3.40784 16:4.40434 17:0.181614 18:0.181614 19:0 20:0 21:1.40122 22:1.51383 23:0.441156 24:0.371966 25:0.775864 26:3.79385 27:4.40434 28:0.181614 29:0.181614 30:0 31:0 0:0 
-0.001678198735297171 1:1.78517 2:1.31864 3:0.289895 4:1.35375 5:0.867185 6:0.28893 7:0.831653 8:0.313642 9:0.15675 10:0.117779 11:0.966906 12:1.074 13:0.015316 14:0.889209 15:1.54807 16:1.59711 17:1.37269 18:1.37269 19:1.32136 20:1.32136 21:0.195721 22:0.359838 23:0.368868 24:0.172937 25:0.410197 26:3.85568 27:4.40651 28:1.37269 29:1.37269 30:1.32136 31:1.32136 0:0 
-0.002443908905489325 1:1.24688 2:0.946702 3:0.257229 4:0.900166 5:0.736678 6:0.188301 7:0.872657 8:0.152037 9:0.176872 10:0.132293 11:0.147567 12:0.271213 13:0.0750275 14:0.749281 15:4.03427 16:4.42859 17:0.10651 18:0.10651 19:0.187914 20:0.187914 21:0.221451 22:0.0585214 23:0.184308 24:0.681533 25:0.426819 26:4.77481 27:5.96143 28:0.10651 29:0.10651 30:0.187914 31:0.187914 0:0 
-0.004415313198928564 1:1.02271 2:0.613998 3:0.0868528 4:0.434735 5:0.694775 6:0.267751 7:0.967706 8:0.150382 9:0.18858 10:0.236988 11:0.176567 12:0.353159 13:0.204986 14:0.437167 15:4.97299 16:0 17:0 18:0 19:0.151866 20:0.151866 21:0.140173 22:0.312113 23:0.353159 24:0.129391 25:0.429277 26:4.97299 27:5.83708 28:0 29:0 30:0.151866 31:0.151866 0:0 
-0.04397001957677145 1:2.03106 2:1.47331 3:0.404966 4:0.455189 5:0.827266 6:0.184684 7:0.688258 8:0.426517 9:0.101244 10:0.109478 11:1.07881 12:1.13707 13:0.0266465 14:0.762525 15:4.50671 16:4.60173 17:0.141071 18:0.141071 19:0 20:0 21:0.0930112 22:1.07881 23:1.16198 24:0.0118413 25:0.847902 26:4.64773 27:4.60173 28:0.141071 29:0.141071 30:0 31:0 0:0 
-0.04086209002930812 1:0.884507 2:0.467064 3:0.180503 4:0.180701 5:0.878846 6:0.5572 7:0.645344 8:0.10039 9:0.157799 10:0.198556 11:0.24682 12:0.220038 13:0.277421 14:0.436264 15:2.54442 16:3.29424 17:0.285543 18:0.285543 19:0 20:0 21:0.117042 22:0.24682 23:0.360965 24:0.0275999 25:0.993603 26:3.2869 27:3.29424 28:0.285543 29:0.285543 30:0 31:0 0:0 
-0.09740943029129862 1:0.882182 2:0.478236 3:0.31688 4:0.216556 5:0.907889 6:0.614375 7:0.672122 8:0.109487 9:0.141634 10:0.209867 11:0.243853 12:0.179298 13:0.316918 14:0.352639 15:2.5948 16:3.47484 17:0.260448 18:0.260448 19:0 20:0 21:0.073401 22:0.243853 23:0.316668 24:0.0105971 25:0.92039 26:3.39892 27:3.47484 28:0.260448 29:0.260448 30:0 31:0 0:0 
-0.06057461452018187 1:0.906795 2:0.470489 3:0.200285 4:0.207832 5:0.847923 6:0.54248 7:0.709378 8:0.109732 9:0.215158 10:0.133275 11:0.246606 12:0.378669 13:0.0186842 14:0.980056 15:2.35619 16:2.33056 17:0.358667 18:0.358667 19:0 20:0 21:0.29704 22:0.246606 23:0.299917 24:0.36107 25:0.454993 26:3.24647 27:2.33056 28:0.358667 29:0.358667 30:0 31:0 0:0 
-0.06853196932754375 1:0.479823 2:0.318698 3:0.148562 4:0.244023 5:0.846613 6:0.489411 7:0.704281 8:0.162605 9:0.0559479 10:0.0588154 11:0.182338 12:0.235404 13:0.0389917 14:0.867097 15:1.48989 16:1.60782 17:0.0937042 18:0.0937042 19:0 20:0 21:0.0530804 22:0.182338 23:0.18929 24:0.0904664 25:0.581388 26:1.90286 27:1.60782 28:0.0937042 29:0.0937042 30:0 31:0 0:0 
-0.009871945002656032 1:1.1515 2:0.577748 3:0.424763 4:0.389323 5:0.919921 6:0.640591 7:0.741387 8:0.397041 9:0.0812388 10:0.0551172 11:0.548805 12:0.602288 13:0.00737524 14:0.985695 15:1.36592 16:1.36071 17:0.380234 18:0.380234 19:0.364933 20:0.364933 21:0.10736 22:0.358181 23:0.461685 24:0.0223273 25:0.989444 26:2.06027 27:2.06761 28:0.380234 29:0.380234 30:0.364933 31:0.364933 0:0 
-0.08439777858301067 1:1.2791 2:0.78014 3:0.210211 4:0.982124 5:0.893155 6:0.260773 7:0.761119 8:0.324534 9:0.107639 10:0.108538 11:0.286079 12:0.244836 13:0.121487 14:0.404355 15:4.20955 16:4.69112 17:0.174705 18:0.174705 19:0 20:0 21:0.106739 22:0.286079 23:0.388065 24:0.0301022 25:0.873647 26:4.5748 27:4.69112 28:0.174705 29:0.174705 30:0 31:0 0:0 
-0.01573878829280349 1:0.988306 2:0.7488 3:0.169592 4:1.20422 5:0.834512 6:0.358237 7:0.80683 8:0.245223 9:0.182135 10:0.162715 11:0.405771 12:0.566344 13:0.0174697 14:0.911744 15:1.65534 16:1.74839 17:1.13104 18:1.13104 19:0.898432 20:0.898432 21:0.201556 22:0.498865 23:0.597747 24:0.102825 25:0.802553 26:4.80491 27:5.01979 28:1.13104 29:1.13104 30:0.898432 31:0.898432 0:0 
-0.1161299472278049 1:0.848479 2:0.442497 3:0.158219 4:0.180631 5:0.887958 6:0.52699 7:0.844132 8:0.287254 9:0.206047 10:0.352084 11:0.202361 12:0.31405 13:0.460797 14:0.380365 15:3.42632 16:4.77002 17:0.335283 18:0.335283 19:0 20:0 21:0.0600106 22:0.202361 23:0.246112 24:0.05867 25:0.731656 26:4.53516 27:4.77002 28:0.335283 29:0.335283 30:0 31:0 0:0 
-0.008146537995170006 1:1.51344 2:0.850738 3:0.526179 4:1.67072 5:0.375551 6:0.241149 7:1.38212 8:0.444168 9:0.381073 10:0.386255 11:0.0449455 12:0.42823 13:0.110258 14:0.874086 15:2.92363 16:3.28349 17:0.115355 18:0.115355 19:0 20:0 21:0.375891 22:0.0449455 23:0.420365 24:0.0436133 25:0.96653 26:3.18823 27:3.28349 28:0.115355 29:0.115355 30:0 31:0 0:0 
-0.02398828344703468 1:1.09166 2:0.698134 3:0.100666 4:1.08634 5:0.833576 6:0.195768 7:0.737203 8:0.250541 9:0.230742 10:0.134262 11:0.182094 12:0.134894 13:0.262669 14:0.466025 15:3.6334 16:4.71239 17:0.392468 18:0.392468 19:0 20:0 21:0.327222 22:0.182094 23:0.499758 24:0.083072 25:0.703373 26:4.04043 27:4.71239 28:0.392468 29:0.392468 30:0 31:0 0:0 
-0.003434996750842492 1:1.8144 2:1.32478 3:0.363102 4:0.940262 5:0.632555 6:0.450268 7:1.02752 8:0.25897 9:0.3619 10:0.197872 11:0.291846 12:0.484912 13:0.0366973 14:0.949468 15:3.11721 16:3.18324 17:0.669278 18:0.669278 19:0 20:0 21:0.525929 22:0.291846 23:0.488159 24:0.447398 25:0.51926 26:4.27881 27:3.18324 28:0.669278 29:0.669278 30:0 31:0 0:0 
-0.002875886973879955 1:2.07519 2:1.5041 3:0.397996 4:1.98348 5:0.529658 6:0.246562 7:1.04187 8:0.383676 9:0.234356 10:0.16239 11:1.14426 12:1.26573 13:0.0285146 14:0.886014 15:4.44169 16:4.48248 17:0.830628 18:0.830628 19:0.756477 20:0.756477 21:0.306321 22:0.563315 23:0.516544 24:0.18107 25:0.533339 26:3.86151 27:4.36842 28:0.830628 29:0.830628 30:0.756477 31:0.756477 0:0 
-0.003137876338945354 1:0.83611 2:0.573586 3:0.174394 4:1.29225 5:0.81667 6:0.313479 7:0.880227 8:0.192213 9:0.626151 10:0.49686 11:0.61628 12:0.538937 13:0.280024 14:0.664104 15:2.9442 16:3.61894 17:0.710014 18:0.710014 19:0.485712 20:0.485712 21:0.755442 22:0.149504 23:0.883622 24:0.157688 25:0.713519 26:3.85624 27:3.2587 28:0.710014 29:0.710014 30:0.485712 31:0.485712 0:0 
-0.07020174766894224 1:1.09463 2:0.768935 3:0.176563 4:0.65743 5:0.879114 6:0.262398 7:0.650817 8:0.254688 9:0.160697 10:0.0646806 11:0.57803 12:0.572285 13:0.0356738 14:0.75131 15:3.22473 16:3.31733 17:0.0646806 18:0.0646806 19:0.256713 20:0.256713 21:0.256713 22:0.3435 23:0.57803 24:0.0747432 25:0.732705 26:3.31733 27:3.06765 28:0.0646806 29:0.0646806 30:0.256713 31:0.256713 0:0 
-0.01877791078475866 1:0.881457 2:0.62446 3:0.0864272 4:1.18222 5:0.550558 6:0.181928 7:1.08198 8:0.312234 9:0.166311 10:0.114715 11:0.359962 12:0.460483 13:0.0432461 14:0.991371 15:1.50423 16:1.51117 17:1.07222 18:1.07222 19:0.785592 20:0.785592 21:0.217908 22:0.434415 23:0.64126 24:0.041372 25:0.861684 26:4.54201 27:4.69626 28:1.07222 29:1.07222 30:0.785592 31:0.785592 0:0 
-0.097654319332731 1:1.55952 2:1.21133 3:0.145154 4:0.825857 5:0.608476 6:0.157739 7:0.91892 8:0.383644 9:0.285386 10:0.203341 11:0.637578 12:0.830663 13:0.0278992 14:0.916524 15:4.31241 16:4.36683 17:0.253543 18:0.253543 19:0.312828 20:0.312828 21:0.36743 22:0.331212 23:0.676599 24:0.0845331 25:0.885318 26:4.66388 27:4.5212 28:0.253543 29:0.253543 30:0.312828 31:0.312828 0:0 
-0.07610797976564916 1:1.99121 2:1.90056 3:0.304055 4:1.15159 5:0.480077 6:0.182162 7:1.08627 8:0.325934 9:0.347823 10:0.228421 11:0.142103 12:0.358722 13:0.102622 14:0.797751 15:3.52576 16:3.07917 17:0.268453 18:0.268453 19:0 20:0 21:0.467224 22:0.142103 23:0.566997 24:0.222415 25:0.678064 26:3.92699 27:3.07917 28:0.268453 29:0.268453 30:0 31:0 0:0 
-0.03076361038491873 1:2.31098 2:2.02369 3:0.412565 4:1.68394 5:0.433831 6:0.149922 7:0.958412 8:0.366215 9:0.158127 10:0.182111 11:0.452446 12:0.63224 13:0.0172339 14:0.994968 15:4.13601 16:4.1402 17:0.209635 18:0.209635 19:0 20:0 21:0.134144 22:0.452446 23:0.496405 24:0.0853793 25:0.586568 26:4.43409 27:4.1402 28:0.209635 29:0.209635 30:0 31:0 0:0 
-0.009326176194049959 1:2.37917 2:1.92614 3:0.132252 4:1.51323 5:0.540579 6:0.138898 7:0.924546 8:0.238347 9:0.249707 10:0.228747 11:0.220178 12:0.434782 13:0.0816878 14:0.962837 15:1.27143 16:1.20907 17:0.38422 18:0.38422 19:0 20:0 21:0.270668 22:0.220178 23:0.396608 24:0.225809 25:0.422135 26:1.64757 27:1.20907 28:0.38422 29:0.38422 30:0 31:0 0:0 
-0.040379092153844 1:2.61051 2:2.33663 3:0.51428 4:1.29271 5:0.87774 6:0.233603 7:0.723989 8:0.959184 9:0.119934 10:0.0793877 11:0.23623 12:0.27205 13:0.0892496 14:0.808873 15:2.5994 16:2.83005 17:0.252001 18:0.252001 19:0.0539444 20:0.0539444 21:0.160481 22:0.226198 23:0.244624 24:0.220081 25:0.549582 26:3.698 27:3.06926 28:0.252001 29:0.252001 30:0.0539444 31:0.0539444 0:0 
-0.06839713028697071 1:0.985739 2:0.771486 3:0.214762 4:1.23917 5:0.606539 6:0.368767 7:0.975492 8:0.362096 9:0.444539 10:0.271072 11:0.33272 12:0.444955 13:0.207798 14:0.581265 15:3.60877 16:4.21211 17:0.366943 18:0.366943 19:0.440435 20:0.440435 21:0.618006 22:0.297417 23:0.575622 24:0.464726 25:0.604322 26:4.3269 27:5.17604 28:0.366943 29:0.366943 30:0.440435 31:0.440435 0:0 
-0.00410865849554677 1:0.930583 2:0.694952 3:0.135342 4:0.615045 5:0.750793 6:0.199969 7:1.03946 8:0.418289 9:0.29343 10:0.394016 11:0.146251 12:0.411124 13:0.405543 14:0.345847 15:5.03702 16:0.610726 17:0.458779 18:0.458779 19:0.45611 20:0.45611 21:0.192843 22:0.372014 23:0.438634 24:0.143822 25:0.452172 26:4.10625 27:4.67201 28:0.458779 29:0.458779 30:0.45611 31:0.45611 0:0 
-0.003442895102976789 1:1.2516 2:0.774663 3:0.346455 4:1.34853 5:0.626694 6:0.262237 7:1.38481 8:0.414337 9:0.389715 10:0.419941 11:0.5847 12:0.742813 13:0.190745 14:0.481103 15:3.83204 16:3.18189 17:0.454379 18:0.454379 19:0.334586 20:0.334586 21:0.359489 22:0.450909 23:0.58225 24:0.21177 25:0.493549 26:3.05382 27:3.70228 28:0.454379 29:0.454379 30:0.334586 31:0.334586 0:0 
-0.0714887630241433 1:2.5458 2:2.42891 3:0.387893 4:0.494766 5:0.807128 6:0.151456 7:0.721904 8:0.0526866 9:0.221874 10:0.157997 11:0.303266 12:0.442714 13:0.0646374 14:0.598056 15:3.14159 16:2.55359 17:0.368204 18:0.368204 19:0 20:0 21:0.285752 22:0.303266 23:0.188552 24:0.368637 25:0.333341 26:3.66487 27:2.55359 28:0.368204 29:0.368204 30:0 31:0 0:0 
-0.1581 1:2.3189 2:2.11115 3:0.369061 4:0.487927 5:0.833264 6:0.157575 7:0.682311 8:0.0566824 9:0.0975765 10:0.102094 11:0.291868 12:0.392585 13:0.0157176 14:0.93671 15:3.30297 16:3.24126 17:0.0930831 18:0.0930831 19:0.075516 20:0.075516 21:0.0930587 22:0.218918 23:0.309052 24:0.0283355 25:0.896117 26:3.46334 27:3.35565 28:0.0930831 29:0.0930831 30:0.075516 31:0.075516 0:0 
-0.01824462717216642 1:1.41266 2:0.797279 3:0.355261 4:0.644763 5:0.934866 6:0.490747 7:0.759715 8:0.455988 9:0.109678 10:0.113121 11:0.440398 12:0.528125 13:0.0471803 14:0.789331 15:1.80495 16:1.93719 17:0.794205 18:0.794205 19:0.74449 20:0.74449 21:0.106236 22:0.450506 23:0.450065 24:0.0752734 25:0.535789 26:3.6334 27:3.84902 28:0.794205 29:0.794205 30:0.74449 31:0.74449 0:0 
-0.009708111998164027 1:1.54272 2:0.803526 3:0.41195 4:0.282628 5:0.944436 6:0.561299 7:0.76779 8:0.457988 9:0.171398 10:0.193925 11:0.447551 12:0.544012 13:0.109059 14:0.632607 15:2.12017 16:2.45663 17:0.20689 18:0.20689 19:0.158374 20:0.158374 21:0.14887 22:0.415791 23:0.464341 24:0.10239 25:0.596561 26:2.5083 27:2.80492 28:0.20689 29:0.20689 30:0.158374 31:0.158374 0:0 
-0.01991564494564603 1:0.539469 2:0.333609 3:0.0878286 4:0.710319 5:0.855297 6:0.537051 7:0.7802 8:0.161679 9:0.224534 10:0.232673 11:0.2194 12:0.206344 13:0.367628 14:0.33727 15:1.44644 16:2.9442 17:0.34373 18:0.34373 19:0 20:0 21:0.216395 22:0.2194 23:0.423577 24:0.0750248 25:0.690548 26:2.41636 27:2.9442 28:0.34373 29:0.34373 30:0 31:0 0:0 
-0.03308564431313288 1:0.492483 2:0.272317 3:0.0847602 4:0.942145 5:0.710144 6:0.381788 7:0.732866 8:0.135794 9:0.331419 10:0.318368 11:0.289346 12:0.576799 13:0.107136 14:0.742699 15:3.94622 16:4.2987 17:0.40817 18:0.40817 19:0.369079 20:0.369079 21:0.344471 22:0.138164 23:0.303328 24:0.52876 25:0.420572 26:4.64582 27:5.99513 28:0.40817 29:0.40817 30:0.369079 31:0.369079 0:0 
-0.08507596224625937 1:0.557804 2:0.305018 3:0.0825635 4:0.930093 5:0.655897 6:0.366838 7:0.954369 8:0.155828 9:0.239482 10:0.378248 11:0.273102 12:0.597562 13:0.154706 14:0.682719 15:4.00509 16:4.46741 17:0.42444 18:0.42444 19:0 20:0 21:0.100715 22:0.273102 23:0.329353 24:0.0889573 25:0.833435 26:4.62565 27:4.46741 28:0.42444 29:0.42444 30:0 31:0 0:0 
-0.02757276335569871 1:0.590659 2:0.416738 3:0.101304 4:0.801932 5:0.883537 6:0.533637 7:0.692803 8:0.163787 9:0.206472 10:0.19042 11:0.262389 12:0.259873 13:0.237574 14:0.580487 15:1.53855 16:2.194 17:0.360279 18:0.360279 19:0 20:0 21:0.222523 22:0.262389 23:0.483261 24:0.0241916 25:0.920761 26:2.30673 27:2.194 28:0.360279 29:0.360279 30:0 31:0 0:0 
-0.03653449468019938 1:0.706694 2:0.39646 3:0.0885517 4:0.931722 5:0.683748 6:0.390472 7:0.85229 8:0.155906 9:0.276423 10:0.175106 11:0.196727 12:0.345333 13:0.113714 14:0.966722 15:1.82598 16:1.77829 17:0.534027 18:0.534027 19:0.166014 20:0.166014 21:0.37774 22:0.0521297 23:0.395368 24:0.370208 25:0.491977 26:3.16484 27:1.83705 28:0.534027 29:0.534027 30:0.166014 31:0.166014 0:0 
-0.001328911551370027 1:0.663345 2:0.410273 3:0.10114 4:0.809752 5:0.898206 6:0.528841 7:0.659655 8:0.166946 9:0.179255 10:0.0976079 11:0.227393 12:0.292734 13:0.0897568 14:0.827817 15:1.2616 16:1.43699 17:0.327078 18:0.327078 19:0 20:0 21:0.260902 22:0.227393 23:0.402516 24:0.207112 25:0.585122 26:1.94607 27:1.43699 28:0.327078 29:0.327078 30:0 31:0 0:0 
-0.04183458253809167 1:1.40827 2:0.763845 3:0.460465 4:0.301467 5:0.94541 6:0.577645 7:0.706829 8:0.411163 9:0.0753136 10:0.0589707 11:0.328979 12:0.369231 13:0.0393852 14:0.791286 15:2.90557 16:3.01189 17:0.419456 18:0.419456 19:0.272411 20:0.272411 21:0.0916564 22:0.337799 23:0.396398 24:0.0614013 25:0.72858 26:3.9904 27:3.81211 28:0.419456 29:0.419456 30:0.272411 31:0.272411 0:0 
-0.007395466710292996 1:1.06864 2:0.808258 3:0.164154 4:0.757218 5:0.903551 6:0.224302 7:0.671432 8:0.39749 9:0.114579 10:0.159621 11:0.32602 12:0.433518 13:0.100321 14:0.743326 15:1.58111 16:1.8511 17:0.131324 18:0.131324 19:0 20:0 21:0.069536 22:0.32602 23:0.383956 24:0.0346128 25:0.94841 26:1.88901 27:1.8511 28:0.131324 29:0.131324 30:0 31:0 0:0 
-0.03131046369338932 1:0.98194 2:0.65642 3:0.123381 4:0.383861 5:0.805958 6:0.506538 7:0.801431 8:0.145077 9:0.275065 10:0.211426 11:0.298166 12:0.494775 13:0.0645499 14:0.856915 15:1.8982 16:1.73595 17:0.391902 18:0.391902 19:0 20:0 21:0.338704 22:0.298166 23:0.358859 24:0.340225 25:0.382959 26:2.86036 27:1.73595 28:0.391902 29:0.391902 30:0 31:0 0:0 
-0.1581 1:1.28597 2:0.89654 3:0.509153 4:0.818193 5:0.79332 6:0.320301 7:0.796794 8:0.202354 9:0.146575 10:0.176344 11:0.147235 12:0.191001 13:0.340215 14:0.489735 15:3.68838 16:4.54724 17:0.264886 18:0.264886 19:0 20:0 21:0.116807 22:0.147235 23:0.258437 24:0.0584141 25:0.947432 26:4.61891 27:4.54724 28:0.264886 29:0.264886 30:0 31:0 0:0 
-0.06113761442563826 1:1.24357 2:0.620431 3:0.409639 4:0.771662 5:0.858299 6:0.455806 7:0.881109 8:0.22149 9:0.293864 10:0.34395 11:0.175013 12:0.382641 13:0.355477 14:0.542298 15:2.29566 16:3.29048 17:0.394442 18:0.394442 19:0 20:0 21:0.243778 22:0.175013 23:0.416689 24:0.0376705 25:0.963213 26:3.22142 27:3.29048 28:0.394442 29:0.394442 30:0 31:0 0:0 
-0.0737197736289754 1:1.52584 2:0.908979 3:0.35108 4:1.04996 5:0.817792 6:0.253306 7:0.897338 8:0.322863 9:0.413115 10:0.247546 11:0.607552 12:0.852184 13:0.0167561 14:0.998841 15:4.20529 16:4.20644 17:0.467977 18:0.467977 19:0.740202 20:0.740202 21:0.578683 22:0.248777 23:0.540249 24:0.477618 25:0.4929 26:4.5224 27:5.86496 28:0.467977 29:0.467977 30:0.740202 31:0.740202 0:0 
-0.007269548090596375 1:1.11271 2:0.874685 3:0.483068 4:1.87108 5:0.890705 6:0.421563 7:0.942821 8:0.399878 9:0.349044 10:0.356052 11:0.43195 12:0.348998 13:0.294232 14:0.34389 15:3.70832 16:4.49833 17:0.610288 18:0.610288 19:0 20:0 21:0.342035 22:0.43195 23:0.768887 24:0.0325117 25:0.90348 26:4.35103 27:4.49833 28:0.610288 29:0.610288 30:0 31:0 0:0 
-0.004239713260224556 1:1.36156 2:1.06744 3:0.452865 4:1.85151 5:0.646646 6:0.327268 7:0.719382 8:0.359015 9:0.678934 10:0.616978 11:0.202193 12:0.808554 13:0.090022 14:0.840847 15:3.34792 16:3.7296 17:1.03639 18:1.03639 19:0 20:0 21:0.740889 22:0.202193 23:0.795683 24:0.372916 25:0.573617 26:4.8947 27:3.7296 28:1.03639 29:1.03639 30:0 31:0 0:0 
-0.01083429274473452 1:1.27337 2:0.872198 3:0.399053 4:1.6517 5:0.675673 6:0.333833 7:0.719445 8:0.372528 9:0.541803 10:0.335769 11:0.305602 12:0.635521 13:0.045114 14:0.853583 15:3.02561 16:2.74307 17:0.896455 18:0.896455 19:0 20:0 21:0.747837 22:0.305602 23:0.662593 24:0.52111 25:0.27073 26:4.83026 27:2.74307 28:0.896455 29:0.896455 30:0 31:0 0:0 
-0.0002690827698526991 1:0.580883 2:0.492933 3:0.157592 4:0.895944 5:0.71387 6:0.378727 7:0.868847 8:0.138799 9:0.112282 10:0.141974 11:0.102956 12:0.233357 13:0.11594 14:0.685852 15:3.14159 16:2.43297 17:0.413456 18:0.413456 19:0.313248 20:0.313248 21:0.082589 22:0.241777 23:0.309477 24:0.0551145 25:0.866005 26:4.94711 27:5.04269 28:0.413456 29:0.413456 30:0.313248 31:0.313248 0:0 
-0.03719574916589588 1:0.774166 2:0.459744 3:0.1582 4:0.260892 5:0.746318 6:0.423497 7:0.840314 8:0.0912559 9:0.276423 10:0.308544 11:0.112743 12:0.220153 13:0.740344 14:0.329719 15:3.4461 16:5.17604 17:0.324909 18:0.324909 19:0 20:0 21:0.244302 22:0.112743 23:0.289632 24:0.308786 25:0.619154 26:4.28576 27:5.17604 28:0.324909 29:0.324909 30:0 31:0 0:0 
-0.0319960825305874 1:1.03523 2:0.667664 3:0.103339 4:0.2939 5:0.680186 6:0.404636 7:0.856741 8:0.116435 9:0.218527 10:0.384249 11:0.181744 12:0.420593 13:0.366439 14:0.542192 15:2.56913 16:1.5708 17:0.382083 18:0.382083 19:0.274778 20:0.274778 21:0.0528052 22:0.111354 23:0.155543 24:0.0700604 25:0.72344 26:3.82211 27:4.1101 28:0.382083 29:0.382083 30:0.274778 31:0.274778 0:0 
-0.004226150827672996 1:1.00725 2:0.64494 3:0.129164 4:0.197171 5:0.694794 6:0.332657 7:0.803091 8:0.102698 9:0.267959 10:0.18715 11:0.187952 12:0.119569 13:0.394712 14:0.268237 15:4.90978 16:0.0475831 17:0.578827 18:0.578827 19:0.392202 20:0.392202 21:0.348768 22:0.226712 23:0.517004 24:0.182209 25:0.629918 26:3.05705 27:2.3007 28:0.578827 29:0.578827 30:0.392202 31:0.392202 0:0 
-0.06768385585412133 1:1.42131 2:1.22566 3:0.14631 4:0.84315 5:0.442282 6:0.179467 7:0.973018 8:0.163906 9:0.225808 10:0.317723 11:0.217327 12:0.529616 13:0.0549654 14:0.946173 15:2.57967 16:2.67795 17:0.373106 18:0.373106 19:0 20:0 21:0.133893 22:0.217327 23:0.25876 24:0.173024 25:0.5 26:3.37268 27:2.67795 28:0.373106 29:0.373106 30:0 31:0 0:0 
-0.01347031232420134 1:0.856223 2:0.710744 3:0.1151 4:0.713095 5:0.844922 6:0.389918 7:0.729408 8:0.123031 9:0.16614 10:0.109988 11:0.22832 12:0.329714 13:0.0494969 14:0.9586 15:3.63408 16:3.67655 17:0.314901 18:0.314901 19:0 20:0 21:0.222292 22:0.22832 23:0.228995 24:0.323147 25:0.443531 26:4.50489 27:3.67655 28:0.314901 29:0.314901 30:0 31:0 0:0 
-0.03900835525433444 1:0.822693 2:0.616524 3:0.113068 4:0.721253 5:0.795915 6:0.406383 7:0.779168 8:0.123842 9:0.14334 10:0.139025 11:0.170619 12:0.296239 13:0.0845774 14:0.904985 15:3.63553 16:3.76184 17:0.337588 18:0.337588 19:0.196148 20:0.196148 21:0.147654 22:0.198004 23:0.321098 24:0.103397 25:0.978811 26:4.73511 27:4.71239 28:0.337588 29:0.337588 30:0.196148 31:0.196148 0:0 
-0.008862413140957627 1:1.9418 2:1.50595 3:0.202005 4:0.910026 5:0.531344 6:0.229851 7:1.04685 8:0.186482 9:0.258029 10:0.352675 11:0.199682 12:0.543354 13:0.0767016 14:0.86506 15:2.53699 16:2.27529 17:0.419396 18:0.419396 19:0 20:0 21:0.163383 22:0.199682 23:0.174163 24:0.284864 25:0.377836 26:3.17729 27:2.27529 28:0.419396 29:0.419396 30:0 31:0 0:0 
-0.01200371620875422 1:2.02428 2:1.61604 3:0.280346 4:0.854681 5:0.515845 6:0.239093 7:1.02484 8:0.203479 9:0.283778 10:0.366619 11:0.200471 12:0.567049 13:0.00520119 14:0.985696 15:2.80492 16:2.83354 17:0.476176 18:0.476176 19:0 20:0 21:0.200936 22:0.200471 23:0.232506 24:0.303874 25:0.45629 26:3.8253 27:2.83354 28:0.476176 29:0.476176 30:0 31:0 0:0 
-0.04238872212326096 1:2.0029 2:1.69269 3:0.268092 4:0.705244 5:0.460885 6:0.204775 7:1.0304 8:0.208159 9:0.309255 10:0.426884 11:0.323838 12:0.749418 13:0.0215521 14:0.98988 15:2.87733 16:2.85982 17:0.499133 18:0.499133 19:0 20:0 21:0.191625 22:0.323838 23:0.360267 24:0.177615 25:0.462878 26:3.55766 27:2.85982 28:0.499133 29:0.499133 30:0 31:0 0:0 
-0.0329901641412957 1:0.836641 2:0.458931 3:0.168354 4:0.858798 5:0.728443 6:0.565075 7:0.96445 8:0.154466 9:0.426661 10:0.472704 11:0.118149 12:0.550081 13:0.245863 14:0.711131 15:3.76184 16:3.07029 17:0.45245 18:0.45245 19:0 20:0 21:0.380617 22:0.118149 23:0.346193 24:0.543168 25:0.341502 26:4.85103 27:3.07029 28:0.45245 29:0.45245 30:0 31:0 0:0 
-0.004891384538107163 1:1.29421 2:0.74909 3:0.315322 4:1.00742 5:0.857944 6:0.435892 7:0.835273 8:0.320313 9:0.601789 10:0.561148 11:0.294622 12:0.695727 13:0.285366 14:0.605885 15:4.54418 16:5.39812 17:0.718063 18:0.718063 19:0 20:0 21:0.64243 22:0.294622 23:0.90714 24:0.120003 25:0.876486 26:5.13215 27:5.39812 28:0.718063 29:0.718063 30:0 31:0 0:0 
-0.002441953663583627 1:2.23454 2:1.7801 3:0.294761 4:0.581367 5:0.7355 6:0.247622 7:1.2025 8:0.338954 9:0.2763 10:0.11614 11:0.86624 12:0.972548 13:0.0162211 14:0.901944 15:1.3078 16:1.26274 17:1.51217 18:1.51217 19:0.973011 20:0.973011 21:0.43646 22:0.157217 23:0.542025 24:0.229523 25:0.730861 26:4.69626 27:5.33264 28:1.51217 29:1.51217 30:0.973011 31:0.973011 0:0 
-0.002953284283443566 1:3.06494 2:3.10493 3:0.230458 4:0.331951 5:0.887854 6:0.0830446 7:0.577423 8:0.450076 9:0.170645 10:0.220217 11:0.327787 12:0.537998 13:0.0497955 14:0.849752 15:1.5708 16:1.77982 17:0.130175 18:0.130175 19:0 20:0 21:0.121073 22:0.327787 23:0.447211 24:0.0165583 25:0.952334 26:1.83013 27:1.77982 28:0.130175 29:0.130175 30:0 31:0 0:0 
-0.004584545814305961 1:2.74777 2:2.74823 3:0.0984632 4:0.232009 5:0.911565 6:0.0820149 7:0.581887 8:0.301668 9:0.134392 10:0.0669047 11:1.70337 12:1.77026 13:0.00025539 14:0.978811 15:4.64777 16:4.64582 17:1.36904 18:1.36904 19:1.50381 20:1.50381 21:0.20188 22:0.200011 23:0.401683 24:0.0102871 25:0.920429 26:4.78916 27:4.90978 28:1.36904 29:1.36904 30:1.50381 31:1.50381 0:0 
-0.001397466753442389 1:3.66896 2:3.1079 3:0.360713 4:0.361161 5:0.939617 6:0.093774 7:0.580923 8:0.535924 9:0.132342 10:0.132872 11:0.925889 12:1.03714 13:0.023602 14:0.771189 15:1.43948 16:1.5708 17:0.159955 18:0.159955 19:0 20:0 21:0.131813 22:0.925889 23:1.03162 24:0.0256409 25:0.838586 26:1.66313 27:1.5708 28:0.159955 29:0.159955 30:0 31:0 0:0 
-0.003609372561930061 1:3.43477 2:2.52236 3:0.480573 4:0.419855 5:0.910885 6:0.110799 7:0.618539 8:0.579721 9:0.119172 10:0.170248 11:1.58852 12:1.74109 13:0.0144584 14:0.778275 15:1.53691 16:1.61452 17:0.150815 18:0.150815 19:0 20:0 21:0.068095 22:1.58852 23:1.64366 24:0.0078705 25:0.803501 26:1.65345 27:1.61452 28:0.150815 29:0.150815 30:0 31:0 0:0 
-0.004527600313925758 1:4.33957 2:3.75563 3:0.444469 4:0.400314 5:0.956356 6:0.0988326 7:0.594369 8:0.579713 9:0.199278 10:0.175761 11:2.52939 12:2.38942 13:0.0137639 14:0.308286 15:4.64554 16:4.71239 17:0.35359 18:0.35359 19:0 20:0 21:0.222795 22:2.52939 23:2.7405 24:0.00860921 25:0.874334 26:4.67591 27:4.71239 28:0.35359 29:0.35359 30:0 31:0 0:0 
-0.003862439584869566 1:5.23782 2:4.55207 3:0.425808 4:0.384588 5:0.950689 6:0.101486 7:0.564188 8:0.562535 9:0.0813315 10:0.082407 11:2.98347 12:3.05544 13:0.00423096 14:0.874401 15:1.53475 16:1.54715 17:3.51348 18:3.51348 19:3.36175 20:3.36175 21:0.080256 22:0.37957 23:0.45981 24:0.00123637 25:0.965097 26:4.89404 27:4.86899 28:3.51348 29:3.51348 30:3.36175 31:3.36175 0:0 
-0.007671804647251932 1:3.45013 2:2.63196 3:0.394799 4:0.361636 5:0.93327 6:0.0952262 7:0.562524 8:0.551487 9:0.134315 10:0.0599384 11:1.30795 12:1.3387 13:0.0123769 14:0.62852 15:4.61495 16:4.68914 17:0.188489 18:0.188489 19:0 20:0 21:0.208692 22:1.30795 23:1.51605 24:0.00353876 25:0.962234 26:4.67241 27:4.68914 28:0.188489 29:0.188489 30:0 31:0 0:0 
-0.00386243958486959 1:4.39513 2:4.10958 3:0.279361 4:0.282924 5:0.915493 6:0.0742906 7:0.556546 8:0.517154 9:0.0698786 10:0.0636757 11:2.70395 12:2.76675 13:0.00123252 14:0.958817 15:1.58529 16:1.58952 17:3.22337 18:3.22337 19:3.08488 20:3.08488 21:0.0760816 22:0.382124 23:0.458166 24:0.001873 25:0.718274 26:4.64865 27:4.81206 28:3.22337 29:3.22337 30:3.08488 31:3.08488 0:0 
-0.002760240486743428 1:1.77965 2:1.23783 3:0.3012 4:0.524261 5:0.788284 6:0.28963 7:0.96744 8:0.318535 9:0.332793 10:0.35365 11:0.572544 12:0.90171 13:0.0573574 14:0.837651 15:1.70822 16:1.50194 17:1.93327 18:1.93327 19:1.36557 20:1.36557 21:0.311936 22:0.799833 23:1.09246 24:0.0368137 25:0.917062 26:4.3415 27:4.41745 28:1.93327 29:1.93327 30:1.36557 31:1.36557 0:0 
-0.005997265505482004 1:2.05547 2:2.01927 3:0.330411 4:1.69088 5:0.714467 6:0.176367 7:0.72062 8:0.197346 9:0.129414 10:0.0594231 11:0.170386 12:0.190821 13:0.0988992 14:0.659939 15:2.09887 16:2.45928 17:0.225668 18:0.225668 19:0 20:0 21:0.199405 22:0.170386 23:0.356936 24:0.0912291 25:0.771449 26:2.87534 27:2.45928 28:0.225668 29:0.225668 30:0 31:0 0:0 
-0.04270600732744204 1:2.21728 2:1.43888 3:0.256407 4:1.33195 5:0.697604 6:0.191478 7:0.781352 8:0.248737 9:0.143972 10:0.0560532 11:0.467694 12:0.520196 13:0.0126704 14:0.963696 15:2.56815 16:2.58091 17:0.0623186 18:0.0623186 19:0.237757 20:0.237757 21:0.23189 22:0.249667 23:0.463126 24:0.0850629 25:0.841691 26:2.6249 27:2.85354 28:0.0623186 29:0.0623186 30:0.237757 31:0.237757 0:0 
-0.1581 1:0.897039 2:0.595713 3:0.173035 4:0.760077 5:0.732373 6:0.393566 7:0.729034 8:0.185042 9:0.284655 10:0.234841 11:0.221583 12:0.455987 13:0.0143491 14:0.996341 15:3.46933 16:3.47484 17:0.489279 18:0.489279 19:0 20:0 21:0.334468 22:0.221583 23:0.289606 24:0.447427 25:0.427451 26:4.62173 27:3.47484 28:0.489279 29:0.489279 30:0 31:0 0:0 
-0.004362192692936453 1:2.49229 2:2.44688 3:0.511571 4:2.48633 5:0.471326 6:0.191433 7:0.784098 8:0.546777 9:0.490832 10:0.788074 11:1.09312 12:1.87902 13:0.0129931 14:0.971869 15:1.42792 16:1.45515 17:0.941554 18:0.941554 19:0 20:0 21:0.193589 22:1.09312 23:0.971645 24:0.0465971 25:0.432966 26:1.56059 27:1.45515 28:0.941554 29:0.941554 30:0 31:0 0:0 
-0.005170359328148024 1:0.914303 2:0.778101 3:0.0921467 4:0.766566 5:0.764393 6:0.442324 7:0.912487 8:0.120099 9:0.340204 10:0.430975 11:0.135344 12:0.413802 13:0.489168 14:0.447973 15:3.16333 16:4.3394 17:0.425496 18:0.425496 19:0 20:0 21:0.249432 22:0.135344 23:0.366967 24:0.133173 25:0.986411 26:4.365 27:4.3394 28:0.425496 29:0.425496 30:0 31:0 0:0 
-0.1581 1:0.78804 2:0.564681 3:0.346437 4:0.624783 5:0.793461 6:0.236083 7:0.828301 8:0.0852243 9:0.158435 10:0.0935051 11:0.251077 12:0.32792 13:0.0591874 14:0.75789 15:2.75571 16:2.9997 17:0.227655 18:0.227655 19:0 20:0 21:0.223365 22:0.251077 23:0.423266 24:0.14005 25:0.913547 26:3.13107 27:2.9997 28:0.227655 29:0.227655 30:0 31:0 0:0 
-0.006536681110968794 1:2.56604 2:1.74649 3:0.547037 4:0.577808 5:0.5422 6:0.198944 7:0.804781 8:0.667231 9:0.332812 10:0.0653321 11:0.993477 12:1.04127 13:0.0139409 14:0.82812 15:2.52012 16:2.57442 17:0.114192 18:0.114192 19:0.579751 20:0.579751 21:0.600293 22:0.619291 23:0.981128 24:0.198812 25:0.59915 26:2.66719 27:2.07968 28:0.114192 29:0.114192 30:0.579751 31:0.579751 0:0 
-0.0304830154795642 1:3.21716 2:2.33722 3:0.436142 4:0.474528 5:0.607198 6:0.216285 7:0.759424 8:0.668746 9:0.17812 10:0.182177 11:0.198369 12:0.181181 13:0.317517 14:0.324976 15:2.75327 16:3.92699 17:0.111781 18:0.111781 19:0 20:0 21:0.174063 22:0.198369 23:0.236747 24:0.25624 25:0.441328 26:3.08807 27:3.92699 28:0.111781 29:0.111781 30:0 31:0 0:0 
-0.008280254950027982 1:1.40175 2:0.971149 3:0.488449 4:1.63857 5:0.832931 6:0.409469 7:0.990213 8:0.342366 9:0.338794 10:0.169963 11:0.279167 12:0.374473 13:0.139661 14:0.619473 15:3.99933 16:4.52704 17:0.599021 18:0.599021 19:0 20:0 21:0.507624 22:0.279167 23:0.725796 24:0.172717 25:0.884589 26:4.77292 27:4.52704 28:0.599021 29:0.599021 30:0 31:0 0:0 
-0.004451871641260689 1:1.28586 2:0.87319 3:0.469943 4:0.800971 5:0.906098 6:0.488702 7:0.981025 8:0.5125 9:0.425404 10:0.0710819 11:0.48053 12:0.461383 13:0.0463176 14:0.440673 15:3.94413 16:4.11337 17:0.836504 18:0.836504 19:0.33765 20:0.33765 21:0.779727 22:0.301734 23:1.02923 24:0.162004 25:0.912391 26:4.95466 27:4.82647 28:0.836504 29:0.836504 30:0.33765 31:0.33765 0:0 
-0.0008683637553424897 1:1.11515 2:0.751362 3:0.361513 4:0.932728 5:0.914888 6:0.398891 7:1.11804 8:0.4625 9:0.373484 10:0.0852937 11:0.449701 12:0.432207 13:0.0603642 14:0.496424 15:3.74912 16:3.93823 17:0.672925 18:0.672925 19:0.315182 20:0.315182 21:0.661674 22:0.213127 23:0.827444 24:0.189096 25:0.889115 26:4.71239 27:4.52541 28:0.672925 29:0.672925 30:0.315182 31:0.315182 0:0 
-0.03146543742564521 1:1.06654 2:0.832895 3:0.398125 4:1.28688 5:0.878516 6:0.352893 7:1.09897 8:0.465504 9:0.360976 10:0.309038 11:0.451693 12:0.406432 13:0.232227 14:0.582108 15:3.24951 16:3.82564 17:0.449322 18:0.449322 19:0.271923 20:0.271923 21:0.412914 22:0.190555 23:0.581137 24:0.12901 25:0.785449 26:4.03605 27:3.67118 28:0.449322 29:0.449322 30:0.271923 31:0.271923 0:0 
-0.07293142031826585 1:1.02727 2:0.879486 3:0.359109 4:1.39171 5:0.88299 6:0.375127 7:0.908445 8:0.443882 9:0.345603 10:0.353705 11:0.407432 12:0.466938 13:0.261761 14:0.609496 15:2.78994 16:3.45954 17:0.54606 18:0.54606 19:0.219902 20:0.219902 21:0.337501 22:0.209256 23:0.546563 24:0.01078 25:0.97614 26:3.84687 27:3.89129 28:0.54606 29:0.54606 30:0.219902 31:0.219902 0:0 
-0.04488352320988182 1:0.566796 2:0.44432 3:0.406898 4:1.38918 5:0.825314 6:0.440781 7:0.70941 8:0.215942 9:0.0915827 10:0.106344 11:0.704796 12:0.810978 13:0.00246928 14:0.961768 15:1.46969 16:1.45069 17:0.0736184 18:0.0736184 19:0 20:0 21:0.0768217 22:0.704796 23:0.763688 24:0.0214062 25:0.461768 26:1.65679 27:1.45069 28:0.0736184 29:0.0736184 30:0 31:0 0:0 
-0.07966405818354785 1:0.829097 2:0.700583 3:0.270716 4:1.25729 5:0.920336 6:0.365413 7:0.792081 8:0.30625 9:0.190603 10:0.121254 11:0.343666 12:0.463955 13:0.0121646 14:0.978608 15:2.42179 16:2.39965 17:0.301747 18:0.301747 19:0.350923 20:0.350923 21:0.259952 22:0.429354 23:0.588702 24:0.130958 25:0.576434 26:2.74488 27:3.42539 28:0.301747 29:0.301747 30:0.350923 31:0.350923 0:0 
-0.02203138283082734 1:1.25273 2:1.00489 3:0.148227 4:1.18329 5:0.79767 6:0.195837 7:0.705509 8:0.200165 9:0.340263 10:0.323804 11:0.100553 12:0.26275 13:0.661685 14:0.440723 15:2.54154 16:3.70832 17:0.569433 18:0.569433 19:0 20:0 21:0.356723 22:0.100553 23:0.451719 24:0.094013 25:0.995202 26:3.69659 27:3.70832 28:0.569433 29:0.569433 30:0 31:0 0:0 
-0.0007704087072872351 1:1.98156 2:1.55055 3:0.519939 4:1.02415 5:0.664368 6:0.293433 7:0.74531 8:0.448696 9:0.318761 10:0.558139 11:0.500424 12:0.942409 13:0.15965 14:0.735895 15:1.79796 16:1.36233 17:1.10592 18:1.10592 19:0.727637 20:0.727637 21:0.0793833 22:0.23441 23:0.276807 24:0.0841095 25:0.602837 26:4.02666 27:4.28444 28:1.10592 29:1.10592 30:0.727637 31:0.727637 0:0 
-0.05279974212902168 1:1.18607 2:0.946245 3:0.108029 4:1.31899 5:0.700794 6:0.257092 7:0.899168 8:0.175272 9:0.165719 10:0.180135 11:0.161959 12:0.339304 13:0.0429141 14:0.940434 15:3.59669 16:3.50877 17:0.273973 18:0.273973 19:0 20:0 21:0.151303 22:0.161959 23:0.208644 24:0.25606 25:0.682923 26:3.91004 27:3.50877 28:0.273973 29:0.273973 30:0 31:0 0:0 
-0.002163635476024162 1:1.22834 2:0.86881 3:0.209756 4:1.20294 5:0.713196 6:0.294754 7:0.848312 8:0.203251 9:0.275455 10:0.304876 11:0.426306 12:0.401243 13:0.239456 14:0.440448 15:3.12465 16:3.66074 17:0.613605 18:0.613605 19:0.423095 20:0.423095 21:0.246034 22:0.778143 23:0.798705 24:0.0993953 25:0.752467 26:3.7296 27:3.91924 28:0.613605 29:0.613605 30:0.423095 31:0.423095 0:0 
-0.08011476997774447 1:1.17755 2:0.859475 3:0.203321 4:1.13808 5:0.723006 6:0.25389 7:0.828152 8:0.186049 9:0.175561 10:0.201283 11:0.517298 12:0.683364 13:0.0609867 14:0.965388 15:3.71915 16:3.69075 17:0.308339 18:0.308339 19:0 20:0 21:0.149839 22:0.517298 23:0.557839 24:0.0857345 25:0.601242 26:3.88569 27:3.69075 28:0.308339 29:0.308339 30:0 31:0 0:0 
-0.08652201547598747 1:1.67234 2:1.28089 3:0.280749 4:1.19631 5:0.743701 6:0.279918 7:0.730513 8:0.204741 9:0.341881 10:0.296333 11:0.25267 12:0.547283 13:0.0272961 14:0.941002 15:1.81003 16:1.69515 17:0.588857 18:0.588857 19:0 20:0 21:0.387428 22:0.25267 23:0.347772 24:0.43676 25:0.376485 26:3.35814 27:1.69515 28:0.588857 29:0.588857 30:0 31:0 0:0 
-0.1581 1:1.34942 2:1.20934 3:0.147947 4:0.629241 5:0.739251 6:0.163785 7:0.704469 8:0.141318 9:0.141952 10:0.154796 11:0.130664 12:0.253856 13:0.165682 14:0.798987 15:3.54346 16:3.89252 17:0.205278 18:0.205278 19:0 20:0 21:0.129108 22:0.130664 23:0.245591 24:0.105006 25:0.963276 26:3.95728 27:3.89252 28:0.205278 29:0.205278 30:0 31:0 0:0 
-0.03743877132689873 1:1.34476 2:0.988345 3:0.251881 4:0.999117 5:0.6995 6:0.404279 7:0.679069 8:0.437299 9:0.342907 10:0.546119 11:0.372305 12:0.803047 13:0.198645 14:0.690466 15:2.05424 16:1.45877 17:0.235247 18:0.235247 19:0.559033 20:0.559033 21:0.139695 22:0.826989 23:0.909495 24:0.0414031 25:0.680962 26:1.80432 27:1.9152 28:0.235247 29:0.235247 30:0.559033 31:0.559033 0:0 
-0.006906827975462554 1:2.05973 2:1.74343 3:0.4985 4:0.409719 5:0.938095 6:0.234573 7:0.628402 8:0.499858 9:0.0715232 10:0.054504 11:0.476384 12:0.51456 13:0.0250161 14:0.812833 15:1.3754 16:1.46406 17:0.129082 18:0.129082 19:0 20:0 21:0.0885425 22:0.476384 23:0.499902 24:0.0557507 25:0.716025 26:1.54882 27:1.46406 28:0.129082 29:0.129082 30:0 31:0 0:0 
-0.002966035391321142 1:1.60053 2:1.11452 3:0.474624 4:1.48594 5:0.89918 6:0.394696 7:0.922579 8:0.345129 9:0.270217 10:0.477167 11:0.257824 12:0.727028 13:0.0639299 14:0.878362 15:1.17347 16:0.91199 17:0.987984 18:0.987984 19:0.961765 20:0.961765 21:0.0632672 22:0.953908 23:0.963563 24:0.0207629 25:0.679334 26:2.12044 27:2.21102 28:0.987984 29:0.987984 30:0.961765 31:0.961765 0:0 
-0.1061308455212047 1:0.68283 2:0.457244 3:0.121168 4:0.728858 5:0.775862 6:0.279759 7:0.782661 8:0.200786 9:0.207976 10:0.162183 11:0.227389 12:0.382741 13:0.0503032 14:0.985267 15:1.81909 16:1.83916 17:0.316354 18:0.316354 19:0 20:0 21:0.25377 22:0.227389 23:0.2599 24:0.346379 25:0.466698 26:2.40232 27:1.83916 28:0.316354 29:0.316354 30:0 31:0 0:0 
-0.05880281558012206 1:1.2668 2:1.10054 3:0.297902 4:0.900105 5:0.724532 6:0.117731 7:0.701719 8:0.385672 9:0.26705 10:0.232881 11:0.396901 12:0.605324 13:0.0675935 14:0.871837 15:1.76163 16:1.6065 17:0.415896 18:0.415896 19:0 20:0 21:0.30122 22:0.396901 23:0.285228 24:0.272947 25:0.373724 26:2.13753 27:1.6065 28:0.415896 29:0.415896 30:0 31:0 0:0 
-0.009556635539688909 1:2.61035 2:2.04303 3:0.401498 4:0.922523 5:0.786881 6:0.127424 7:0.832486 8:0.57922 9:0.135345 10:0.0582655 11:0.619656 12:0.611135 13:0.0298252 14:0.604444 15:4.29219 16:4.38427 17:0.199046 18:0.199046 19:0 20:0 21:0.212424 22:0.619656 23:0.781691 24:0.0629273 25:0.959957 26:4.42024 27:4.38427 28:0.199046 29:0.199046 30:0 31:0 0:0 
-0.141157400152591 1:1.33502 2:1.02124 3:0.168716 4:0.624237 5:0.830084 6:0.217254 7:0.798704 8:0.2392 9:0.386326 10:0.358956 11:0.450395 12:0.804058 13:0.0324987 14:0.941499 15:4.0723 16:4.16073 17:0.0882011 18:0.0882011 19:0 20:0 21:0.413696 22:0.450395 23:0.863783 24:0.00814546 25:0.984148 26:4.13567 27:4.16073 28:0.0882011 29:0.0882011 30:0 31:0 0:0 
-0.01687329018975941 1:1.51628 2:1.07488 3:0.518907 4:1.44946 5:0.895956 6:0.409858 7:0.684976 8:0.390143 9:0.199815 10:0.335128 11:0.398387 12:0.694885 13:0.0948513 14:0.754551 15:2.1231 16:1.72345 17:0.957166 18:0.957166 19:0.656673 20:0.656673 21:0.0645013 22:0.315861 23:0.358768 24:0.0455777 25:0.800337 26:4.67345 27:4.77292 28:0.957166 29:0.957166 30:0.656673 31:0.656673 0:0 
0.009044648407040763 1:0.699975 2:0.443863 3:0.174731 4:0.329353 5:0.829877 6:0.356525 7:0.705496 8:0.281241 9:0.262523 10:0.312137 11:0.153966 12:0.426999 13:0.190628 14:0.818842 15:3.02976 16:3.42213 17:0.369049 18:0.369049 19:0 20:0 21:0.212908 22:0.153966 23:0.348017 24:0.121192 25:0.783698 26:3.7216 27:3.42213 28:0.369049 29:0.369049 30:0 31:0 0:0 
-0.1089978179329842 1:0.888538 2:0.489924 3:0.190904 4:0.340517 5:0.914575 6:0.538253 7:0.746261 8:0.160801 9:0.231916 10:0.308569 11:0.209902 12:0.370046 13:0.313799 14:0.4876 15:2.43468 16:3.574 17:0.341678 18:0.341678 19:0 20:0 21:0.155264 22:0.209902 23:0.363063 24:0.0293801 25:0.973885 26:3.61337 27:3.574 28:0.341678 29:0.341678 30:0 31:0 0:0 
-0.01675864540599204 1:1.07097 2:0.706038 3:0.205534 4:0.575085 5:0.874453 6:0.601992 7:0.886291 8:0.172258 9:0.283112 10:0.237668 11:0.328191 12:0.495288 13:0.134433 14:0.660991 15:1.5708 16:1.11649 17:0.232729 18:0.232729 19:0 20:0 21:0.328555 22:0.328191 23:0.432502 24:0.27137 25:0.491611 26:2.05168 27:1.11649 28:0.232729 29:0.232729 30:0 31:0 0:0 
-0.1135687616043984 1:1.04805 2:0.76035 3:0.17682 4:0.831922 5:0.902309 6:0.265898 7:0.676707 8:0.164338 9:0.107177 10:0.134002 11:0.201261 12:0.302113 13:0.114517 14:0.872864 15:3.97823 16:4.14105 17:0.167391 18:0.167391 19:0 20:0 21:0.0803516 22:0.201261 23:0.262611 24:0.0719984 25:0.760888 26:4.32307 27:4.14105 28:0.167391 29:0.167391 30:0 31:0 0:0 
0.03277522377145099 1:1.65004 2:1.48555 3:0.296184 4:0.437756 5:0.758857 6:0.241671 7:0.74315 8:0.332317 9:0.233761 10:0.239424 11:0.179159 12:0.376783 13:0.167517 14:0.75014 15:3.49597 16:3.95639 17:0.158378 18:0.158378 19:0 20:0 21:0.228099 22:0.179159 23:0.404645 24:0.0407263 25:0.953947 26:3.87183 27:3.95639 28:0.158378 29:0.158378 30:0 31:0 0:0 
-0.02267746518400689 1:1.24736 2:0.653018 3:0.323671 4:0.743227 5:0.852946 6:0.574759 7:0.851309 8:0.226293 9:0.388096 10:0.58051 11:0.30655 12:0.454909 13:0.541289 14:0.278839 15:2.37506 16:4.16811 17:0.533989 18:0.533989 19:0 20:0 21:0.195681 22:0.30655 23:0.432864 24:0.131528 25:0.663306 26:3.73378 27:4.16811 28:0.533989 29:0.533989 30:0 31:0 0:0 
-0.04996704644788398 1:1.23722 2:0.792875 3:0.321964 4:0.715742 5:0.857279 6:0.603923 7:0.950452 8:0.215421 9:0.373454 10:0.301117 11:0.308303 12:0.546157 13:0.144476 14:0.731597 15:2.18435 16:1.69515 17:0.517356 18:0.517356 19:0 20:0 21:0.445791 22:0.308303 23:0.364096 24:0.45893 25:0.267114 26:3.39118 27:1.69515 28:0.517356 29:0.517356 30:0 31:0 0:0 
-0.02061091956938566 1:1.56486 2:1.04717 3:0.374476 4:0.471942 5:0.930414 6:0.386132 7:0.622991 8:0.273433 9:0.133564 10:0.141098 11:0.549731 12:0.687146 13:0.01659 14:0.535476 15:3.74783 16:3.57479 17:0.628534 18:0.628534 19:0.61429 20:0.61429 21:0.126029 22:0.258251 23:0.229684 24:0.162177 25:0.369238 26:2.42853 27:1.97569 28:0.628534 29:0.628534 30:0.61429 31:0.61429 0:0 
-0.1150266585537799 1:1.20888 2:0.978147 3:0.163464 4:0.824705 5:0.855051 6:0.191694 7:0.707506 8:0.308664 9:0.109887 10:0.150291 11:0.461414 12:0.45031 13:0.10514 14:0.346084 15:3.8725 16:4.06176 17:0.182099 18:0.182099 19:0 20:0 21:0.0694821 22:0.461414 23:0.530503 24:0.00474797 25:0.914909 26:4.00789 27:4.06176 28:0.182099 29:0.182099 30:0 31:0 0:0 
-0.03509159697203182 1:0.920923 2:0.501856 3:0.163052 4:0.750383 5:0.914807 6:0.327244 7:0.63953 8:0.241643 9:0.0909755 10:0.131204 11:0.41576 12:0.485196 13:0.0791004 14:0.843035 15:4.24874 16:4.32044 17:0.146738 18:0.146738 19:0.0663997 20:0.0663997 21:0.0507469 22:0.403612 23:0.416717 24:0.038074 25:0.794524 26:4.39444 27:4.43062 28:0.146738 29:0.146738 30:0.0663997 31:0.0663997 0:0 
-0.03793357366427446 1:1.11463 2:0.650778 3:0.21062 4:0.819198 5:0.918726 6:0.335117 7:0.680527 8:0.274556 9:0.132704 10:0.209616 11:0.516386 12:0.614209 13:0.105262 14:0.708832 15:4.09582 16:4.35482 17:0.225648 18:0.225648 19:0 20:0 21:0.0557923 22:0.516386 23:0.564309 24:0.0168479 25:0.938752 26:4.37615 27:4.35482 28:0.225648 29:0.225648 30:0 31:0 0:0 
-0.06323747538383453 1:1.60308 2:1.07042 3:0.380624 4:0.94166 5:0.946243 6:0.303668 7:0.656891 8:0.383803 9:0.185105 10:0.29187 11:0.413455 12:0.61326 13:0.135513 14:0.928218 15:4.21726 16:4.3075 17:0.34102 18:0.34102 19:0 20:0 21:0.0783396 22:0.413455 23:0.453115 24:0.0497338 25:0.639822 26:4.45438 27:4.3075 28:0.34102 29:0.34102 30:0 31:0 0:0 
-0.0004895050872960199 1:1.75328 2:1.02019 3:0.547737 4:2.25639 5:0.950022 6:0.298762 7:0.664793 8:0.455128 9:0.391404 10:0.540299 11:0.682984 12:1.21692 13:0.0288786 14:0.926393 15:1.24905 16:1.34732 17:0.597191 18:0.597191 19:0 20:0 21:0.24251 22:0.682984 23:0.760743 24:0.101871 25:0.756844 26:1.63013 27:1.34732 28:0.597191 29:0.597191 30:0 31:0 0:0 
-0.00317129326042811 1:1.92136 2:1.30533 3:0.542878 4:2.29429 5:0.948302 6:0.307828 7:0.671121 8:0.46143 9:0.501592 10:0.560387 11:0.961414 12:1.50776 13:0.0329741 14:0.898302 15:1.27656 16:1.39094 17:0.435041 18:0.435041 19:0 20:0 21:0.442797 22:0.961414 23:1.35009 24:0.0593536 25:0.789433 26:1.62378 27:1.39094 28:0.435041 29:0.435041 30:0 31:0 0:0 
-4.08621200020387e-05 1:1.86159 2:1.09189 3:0.54511 4:2.30093 5:0.943225 6:0.30483 7:0.657463 8:0.463017 9:0.349612 10:0.490248 11:0.915229 12:1.37779 13:0.0460792 14:0.826506 15:1.26742 16:1.45877 17:0.607167 18:0.607167 19:0 20:0 21:0.208976 22:0.915229 23:0.909863 24:0.0730305 25:0.785475 26:1.64542 27:1.45877 28:0.607167 29:0.607167 30:0 31:0 0:0 
-0.01284821299992347 1:1.35098 2:0.823059 3:0.364813 4:1.10816 5:0.909249 6:0.361483 7:0.667691 8:0.340123 9:0.140629 10:0.218211 11:0.53007 12:0.661271 13:0.0940867 14:0.746146 15:3.94474 16:4.14812 17:0.229169 18:0.229169 19:0 20:0 21:0.0630473 22:0.53007 23:0.58238 24:0.0201657 25:0.872956 26:4.21232 27:4.14812 28:0.229169 29:0.229169 30:0 31:0 0:0 
-0.1581 1:1.47142 2:1.23545 3:0.328134 4:1.15088 5:0.907432 6:0.394462 7:0.660721 8:0.299585 9:0.125441 10:0.196404 11:0.229636 12:0.36073 13:0.163538 14:0.617041 15:4.0545 16:4.55579 17:0.23628 18:0.23628 19:0 20:0 21:0.0544794 22:0.229636 23:0.255092 24:0.0634522 25:0.847736 26:4.67241 27:4.55579 28:0.23628 29:0.23628 30:0 31:0 0:0 
-0.0539289810576099 1:1.74248 2:1.43424 3:0.358437 4:1.05825 5:0.882011 6:0.32475 7:0.700622 8:0.316802 9:0.117641 10:0.180114 11:0.307975 12:0.386744 13:0.1508 14:0.588685 15:4.06252 16:4.47222 17:0.201157 18:0.201157 19:0 20:0 21:0.0551688 22:0.307975 23:0.357264 24:0.0237871 25:0.993496 26:4.46741 27:4.47222 28:0.201157 29:0.201157 30:0 31:0 0:0 
-0.1328200537669811 1:1.52451 2:1.28768 3:0.240907 4:0.942999 5:0.733287 6:0.35591 7:0.972555 8:0.259008 9:0.166134 10:0.162146 11:0.157245 12:0.180961 13:0.315426 14:0.545446 15:4.23738 16:5.0929 17:0.215119 18:0.215119 19:0 20:0 21:0.170123 22:0.157245 23:0.31484 24:0.0919834 25:0.762006 26:4.66894 27:5.0929 28:0.215119 29:0.215119 30:0 31:0 0:0 
-0.005343604186901668 1:3.54832 2:2.73162 3:0.544027 4:1.61643 5:0.594265 6:0.168155 7:0.710827 8:0.469622 9:0.2255 10:0.207536 11:0.54933 12:0.752807 13:0.0202199 14:0.920515 15:3.7894 16:3.85495 17:0.322905 18:0.322905 19:0 20:0 21:0.243463 22:0.54933 23:0.621587 24:0.127497 25:0.522236 26:4.1949 27:3.85495 28:0.322905 29:0.322905 30:0 31:0 0:0 
-0.03609513582316311 1:2.41883 2:1.93152 3:0.47079 4:0.715378 5:0.672423 6:0.244743 7:0.815936 8:0.541683 9:0.290449 10:0.386097 11:0.243077 12:0.302942 13:0.496133 14:0.417775 15:3.78789 16:5.04201 17:0.372629 18:0.372629 19:0 20:0 21:0.194801 22:0.243077 23:0.384907 24:0.14009 25:0.719102 26:4.52633 27:5.04201 28:0.372629 29:0.372629 30:0 31:0 0:0 
