svm_type epsilon_svr
kernel_type rbf
gamma 0.8219
nr_class 2
total_sv 698
rho 0.0292011
SV
0.1457618335306504 1:1.06068 2:0.704316 3:0.131166 4:0.361908 5:0.866095 6:0.290105 7:0.694789 8:0.119814 9:0.158002 10:0.0596952 11:0.241605 12:0.26525 13:0.0690566 14:0.770508 15:1.89789 16:2.02552 17:0.257493 18:0.424346 19:0.131239 20:0.131239 21:0.289358 22:0.25447 23:0.531541 24:0.0723583 25:0.827453 26:2.84453 27:2.54784 28:0.341302 29:0.424346 30:0 31:0.131239 32:0.124954 33:0.25447 34:0.228761 35:0.163102 36:0.349019 37:3.09511 38:2.54784 39:0.257493 40:0.341302 41:0 42:0.131239 0:0 
-0.004603660576984203 1:1.86944 2:1.24591 3:0.391258 4:0.881601 5:0.856614 6:0.490136 7:0.849318 8:0.152125 9:0.0883878 10:0.086812 11:0.312224 12:0.334194 13:0.0829956 14:0.693049 15:2.72093 16:2.96174 17:0.366844 18:0.483083 19:0.285155 20:0.285155 21:0.0524513 22:0.272383 23:0.318896 24:0.0261898 25:0.883524 26:3.9466 27:4.02666 28:0.15271 29:0.366844 30:0 31:0.285155 32:0.1259 33:0.272383 34:0.315458 35:0.129353 36:0.625767 37:4.44843 38:4.02666 39:0.15271 40:0.483083 41:0 42:0.285155 0:0 
0.09324744642086327 1:1.67393 2:1.19194 3:0.316419 4:1.044 5:0.614368 6:0.216881 7:0.742933 8:0.279893 9:0.203357 10:0.0735305 11:0.130096 12:0.118219 13:0.189017 14:0.409036 15:2.33181 16:2.79857 17:0.779908 18:0.821572 19:0.486313 20:0.486313 21:0.235032 22:0.52118 23:0.751368 24:0.0241495 25:0.998116 26:4.06889 27:4.0667 28:0.256114 29:0.779908 30:0 31:0.486313 32:0.301508 33:0.52118 34:0.762943 35:0.0912548 36:0.761659 37:4.35446 38:4.0667 39:0.256114 40:0.821572 41:0 42:0.486313 0:0 
0.03308581713923273 1:2.60125 2:2.19201 3:0.382941 4:0.668746 5:0.600411 6:0.210809 7:0.901001 8:0.2717 9:0.319124 10:0.33762 11:0.150129 12:0.404189 13:0.298096 14:0.738637 15:2.18894 16:2.67795 17:0.65977 18:0.846267 19:0.22226 20:0.22226 21:0.257908 22:0.328307 23:0.581718 24:0.0349451 25:0.983096 26:3.27562 27:3.30297 28:0.224343 29:0.65977 30:0 31:0.22226 32:0.361844 33:0.328307 34:0.671607 35:0.0777105 36:0.84876 37:3.57329 38:3.30297 39:0.224343 40:0.846267 41:0 42:0.22226 0:0 
0.07960495773328097 1:2.48183 2:1.93698 3:0.535006 4:0.983789 5:0.68443 6:0.205771 7:0.879062 8:0.300207 9:0.256211 10:0.260725 11:0.324265 12:0.579578 13:0.0388267 14:0.954938 15:2.08845 16:2.02464 17:0.671215 18:0.84154 19:0.338778 20:0.338778 21:0.204463 22:0.323563 23:0.518903 24:0.0469598 25:0.814941 26:2.81984 27:2.56021 28:0.21054 29:0.671215 30:0 31:0.338778 32:0.303447 33:0.323563 34:0.536727 35:0.166864 36:0.511114 37:3.16082 38:2.56021 39:0.21054 40:0.84154 41:0 42:0.338778 0:0 
0.03500969108343501 1:2.29984 2:1.83652 3:0.432073 4:0.356188 5:0.718958 6:0.185969 7:0.906379 8:0.194027 9:0.201663 10:0.217759 11:0.382535 12:0.590321 13:0.0436696 14:0.910423 15:2.31805 16:2.43297 17:0.194143 18:0.345506 19:0.0958352 20:0.290476 21:0.288684 22:0.42551 23:0.707474 24:0.0359454 25:0.926177 26:2.5301 27:2.63286 28:0.194143 29:0.215822 30:0.0958352 31:0.196406 32:0.0985458 33:0.570651 34:0.659828 35:0.0217578 36:0.888924 37:2.78914 38:2.8578 39:0.215822 40:0.345506 41:0.196406 42:0.290476 0:0 
0.003008012333682121 1:2.25471 2:1.71455 3:0.477348 4:0.31532 5:0.771847 6:0.174789 7:0.798682 8:0.146158 9:0.209996 10:0.164036 11:0.459493 12:0.608086 13:0.0418721 14:0.859082 15:2.69717 16:2.82454 17:0.160089 18:0.392577 19:0.161945 20:0.161945 21:0.244311 22:0.556528 23:0.735096 24:0.0832159 25:0.879782 26:2.91544 27:3.03094 28:0.160089 29:0.313522 30:0 31:0.161945 32:0.221641 33:0.556528 34:0.751545 35:0.0518964 36:0.91544 37:3.10621 38:3.03094 39:0.313522 40:0.392577 41:0 42:0.161945 0:0 
0.05992902648326687 1:2.83442 2:2.41692 3:0.455321 4:0.928474 5:0.640436 6:0.184031 7:0.775435 8:0.13565 9:0.1129 10:0.0807192 11:0.142114 12:0.213927 13:0.0674118 14:0.734544 15:1.60304 16:1.26492 17:0.217329 18:0.415088 19:0.207847 20:0.207847 21:0.0759714 22:0.152475 23:0.209981 24:0.0886034 25:0.73788 26:2.92623 27:3.23225 28:0.212322 29:0.217329 30:0 31:0.207847 32:0.182008 33:0.152475 34:0.298708 35:0.163417 36:0.863609 37:3.48715 38:3.23225 39:0.212322 40:0.415088 41:0 42:0.207847 0:0 
0.02334199813652419 1:2.32416 2:1.64735 3:0.34335 4:0.431165 5:0.574801 6:0.168766 7:0.840663 8:0.302831 9:0.3098 10:0.292097 11:0.544539 12:0.835858 13:0.0100554 14:0.971439 15:2.64928 16:2.68376 17:0.240851 18:0.403664 19:0.127616 20:0.127616 21:0.351283 22:0.554325 23:0.889861 24:0.0471758 25:0.981575 26:2.93211 27:2.90904 28:0.240851 29:0.273364 30:0 31:0.127616 32:0.286021 33:0.554325 34:0.792963 35:0.075878 36:0.790175 37:3.15826 38:2.90904 39:0.273364 40:0.403664 41:0 42:0.127616 0:0 
0.03901746468208658 1:2.80033 2:2.48667 3:0.492876 4:0.404446 5:0.573835 6:0.170369 7:0.824175 8:0.306007 9:0.303948 10:0.283849 11:0.171182 12:0.424807 13:0.151884 14:0.83105 15:2.38649 16:2.03444 17:0.237099 18:0.415341 19:0.128931 20:0.128931 21:0.335242 22:0.129301 23:0.464037 24:0.0239373 25:0.984448 26:2.91994 27:2.88427 28:0.237099 29:0.269815 30:0 31:0.128931 32:0.292752 33:0.129301 34:0.386381 35:0.20286 36:0.750461 37:3.45363 38:2.88427 39:0.269815 40:0.415341 41:0 42:0.128931 0:0 
0.02041661452650831 1:2.30136 2:2.25063 3:0.415115 4:0.656605 5:0.556156 6:0.200645 7:0.880976 8:0.333051 9:0.314571 10:0.273272 11:0.0967039 12:0.344432 13:0.204714 14:0.710606 15:2.40991 16:1.69515 17:0.189109 18:0.417181 19:0.12019 20:0.12019 21:0.341257 22:0.0607076 23:0.390747 24:0.181804 25:0.792367 26:2.9605 27:3.5221 28:0.189109 29:0.271655 30:0 31:0.12019 32:0.329183 33:0.0607076 34:0.389145 35:0.0458897 36:0.955236 37:3.64203 38:3.5221 39:0.271655 40:0.417181 41:0 42:0.12019 0:0 
0.05486512417015655 1:1.84759 2:1.69976 3:0.373821 4:1.02198 5:0.538898 6:0.22471 7:0.938711 8:0.35176 9:0.33537 10:0.298241 11:0.186439 12:0.418379 13:0.217913 14:0.693169 15:2.2828 16:1.64958 17:0.17943 18:0.420039 19:0.124979 20:0.124979 21:0.359899 22:0.090451 23:0.435587 24:0.165459 25:0.817193 26:2.78282 27:2.31917 28:0.17943 29:0.281356 30:0 31:0.124979 32:0.347971 33:0.090451 34:0.372294 35:0.375373 36:0.594399 37:3.372 38:2.31917 39:0.281356 40:0.420039 41:0 42:0.124979 0:0 
0.04626971326706102 1:1.42643 2:1.24242 3:0.340596 4:1.22525 5:0.588088 6:0.295274 7:0.937339 8:0.306636 9:1.96869 10:1.99779 11:2.20939 12:0.416288 13:0.303772 14:0.8901 15:2.59929 16:2.86329 17:0.192619 18:0.433007 19:0 20:0 21:1.9398 22:2.20939 23:0.499348 24:0.287153 25:0.689687 26:3.17016 27:3.85022 28:0.192619 29:0.281021 30:0 31:0 32:1.96848 33:2.20939 34:0.517452 35:0.311847 36:0.975189 37:3.79729 38:3.85022 39:0.281021 40:0.433007 41:0 42:0 0:0 
0.04626974920045752 1:1.36652 2:1.15636 3:0.33054 4:1.21631 5:0.584542 6:0.292573 7:0.932487 8:0.306692 9:1.97484 10:2.00213 11:2.23669 12:0.459487 13:0.300537 14:0.973905 15:2.51428 16:2.45586 17:0.193776 18:0.430418 19:0 20:0 21:1.94606 22:2.23669 23:0.523942 24:0.280681 25:0.811126 26:3.06697 27:3.49304 28:0.193776 29:0.277792 30:0 31:0 32:1.97631 33:2.23669 34:0.507567 35:0.296524 36:0.914437 37:3.68359 38:3.49304 39:0.277792 40:0.430418 41:0 42:0 0:0 
0.006136326700387064 1:2.07416 2:2.06866 3:0.317077 4:0.589025 5:0.716404 6:0.155182 7:0.855851 8:0.313802 9:0.160497 10:0.206686 11:0.216812 12:0.389284 13:0.125605 14:0.795871 15:2.31349 16:2.64604 17:0.229424 18:0.342965 19:0.181593 20:0.181593 21:0.15912 22:0.376925 23:0.499295 24:0.0748001 25:0.835337 26:2.7174 27:2.89311 28:0.154172 29:0.229424 30:0 31:0.181593 32:0.115685 33:0.376925 34:0.487514 35:0.0252217 36:0.896467 37:2.98168 38:2.89311 39:0.154172 40:0.342965 41:0 42:0.181593 0:0 
0.001180208453847853 1:1.35367 2:1.07975 3:0.3313 4:0.261648 5:0.762897 6:0.277806 7:0.891335 8:0.238761 9:0.311995 10:0.292966 11:0.0955451 12:0.38755 13:0.0392409 14:0.999288 15:2.17134 16:2.17308 17:0.227545 18:0.420508 19:0.127059 20:0.127059 21:0.354168 22:0.0996331 23:0.409004 24:0.280884 25:0.662411 26:2.75899 27:3.62849 28:0.227545 29:0.228385 30:0 31:0.127059 32:0.288851 33:0.0996331 34:0.382068 35:0.0991744 36:0.88881 37:3.35768 38:3.62849 39:0.228385 40:0.420508 41:0 42:0.127059 0:0 
0.03447177836739677 1:2.74566 2:2.42367 3:0.263555 4:0.701116 5:0.657694 6:0.159189 7:0.850287 8:0.198511 9:0.313572 10:0.273207 11:0.128715 12:0.397663 13:0.0677306 14:0.90179 15:2.56307 16:2.78282 17:0.220439 18:0.415086 19:0.114974 20:0.114974 21:0.348028 22:0.118999 23:0.435697 24:0.205278 25:0.76157 26:3.09245 27:3.66074 28:0.220439 29:0.224161 30:0 31:0.114974 32:0.319481 33:0.118999 34:0.436924 35:0.0440031 36:0.969349 37:3.59032 38:3.66074 39:0.224161 40:0.415086 41:0 42:0.114974 0:0 
-0.00480332087772593 1:0.95698 2:0.523162 3:0.118026 4:0.303846 5:0.830432 6:0.607221 7:0.86295 8:0.0982637 9:0.269018 10:0.161746 11:0.244769 12:0.136139 13:0.212915 14:0.33694 15:2.26553 16:2.9516 17:0.376303 18:0.422727 19:0.0370919 20:0.0370919 21:0.265521 22:0.209117 23:0.384394 24:0.228816 25:0.547004 26:3.85465 27:2.92753 28:0.264836 29:0.376303 30:0 31:0.0370919 32:0.379787 33:0.209117 34:0.342034 35:0.46325 36:0.379294 37:4.37675 38:2.92753 39:0.264836 40:0.422727 41:0 42:0.0370919 0:0 
0.0553542711772152 1:1.31904 2:1.14392 3:0.24841 4:0.382709 5:0.799092 6:0.182902 7:0.759509 8:0.0605154 9:0.153154 10:0.211293 11:0.14428 12:0.324755 13:0.163367 14:0.737394 15:3.01268 16:3.58144 17:0.1968 18:0.272661 19:0.11788 20:0.11788 21:0.162442 22:0.237349 23:0.366851 24:0.106278 25:0.648302 26:3.48089 27:4.10459 28:0.11494 29:0.1968 30:0 31:0.11788 32:0.0857259 33:0.237349 34:0.32053 35:0.023933 36:0.869067 37:3.96031 38:4.10459 39:0.11494 40:0.272661 41:0 42:0.11788 0:0 
0.07329184132653528 1:1.27619 2:1.07744 3:0.180308 4:0.382729 5:0.779039 6:0.160078 7:0.779246 8:0.0601106 9:0.144042 10:0.0602121 11:0.193388 12:0.176608 13:0.100011 14:0.450152 15:4.13808 16:3.62849 17:0.289968 18:0.31801 19:0.0436387 20:0.105786 21:0.17348 22:0.196536 23:0.357827 24:0.076862 25:0.90081 26:2.77324 27:2.9516 28:0.195231 29:0.31801 30:0.105786 31:0.117852 32:0.198433 33:0.236522 34:0.41645 35:0.0851171 36:0.836125 37:3.22206 38:3.5221 39:0.195231 40:0.289968 41:0.0436387 42:0.117852 0:0 
0.1410609772310281 1:1.79995 2:1.5086 3:0.34256 4:0.372025 5:0.597693 6:0.189884 7:0.800856 8:0.26742 9:0.23806 10:0.273094 11:0.281371 12:0.529479 13:0.094455 14:0.87686 15:1.64384 16:1.83916 17:0.315708 18:0.44549 19:0.148606 20:0.148606 21:0.285418 22:0.326955 23:0.596846 24:0.067034 25:0.832076 26:1.99742 27:2.25972 28:0.238407 29:0.315708 30:0 31:0.148606 32:0.155667 33:0.326955 34:0.467324 35:0.0548701 36:0.860754 37:2.40991 38:2.25972 39:0.238407 40:0.44549 41:0 42:0.148606 0:0 
0.113507916224651 1:1.83878 2:1.25175 3:0.21235 4:0.490529 5:0.536961 6:0.184483 7:0.849876 8:0.358566 9:0.31496 10:0.316143 11:0.663345 12:0.883532 13:0.0946725 14:0.695522 15:1.49402 16:1.8007 17:0.214653 18:0.445074 19:0.105565 20:0.105565 21:0.347969 22:0.70322 23:0.986531 24:0.0774001 25:0.777458 26:1.70786 27:1.9422 28:0.214653 29:0.268321 30:0 31:0.105565 32:0.280767 33:0.70322 34:0.982541 35:0.0108977 36:0.980088 37:1.9614 38:1.9422 39:0.268321 40:0.445074 41:0 42:0.105565 0:0 
-0.0513060138350757 1:0.930899 2:0.480731 3:0.119905 4:0.269241 5:0.88533 6:0.599676 7:0.694736 8:0.095133 9:0.0955316 10:0.0610621 11:0.312116 12:0.356335 13:0.0402199 14:0.838113 15:3.12032 16:3.25538 17:0.191835 18:0.371763 19:0.196751 20:0.196751 21:0.106131 22:0.277529 23:0.350302 24:0.0790679 25:0.904985 26:3.80264 27:3.90374 28:0.191835 29:0.213752 30:0 31:0.196751 32:0.119402 33:0.277529 34:0.303429 35:0.128729 36:0.646188 37:4.2817 38:3.90374 39:0.213752 40:0.371763 41:0 42:0.196751 0:0 
-0.008856053248086386 1:0.971528 2:0.547079 3:0.113821 4:0.236794 5:0.90506 6:0.644397 7:0.679537 8:0.0918957 9:0.142275 10:0.096845 11:0.218956 12:0.314773 13:0.0170669 14:0.795167 15:3.27242 16:3.01724 17:0.238091 18:0.238091 19:0 20:0.30426 21:0.156138 22:0.218956 23:0.118984 24:0.242337 25:0.327292 26:3.89474 27:3.01724 28:0 29:0.238091 30:0 31:0.30426 32:0.173842 33:0.0927416 34:0.118984 35:0.609801 36:0.314805 37:3.89474 38:5.33264 39:0 40:0.238091 41:0.30426 42:0.30426 0:0 
0.0721665682259932 1:1.84203 2:1.46291 3:0.210783 4:0.519131 5:0.555228 6:0.179321 7:0.838162 8:0.350638 9:0.311764 10:0.304403 11:0.390884 12:0.657393 13:0.0926866 14:0.791999 15:1.31086 16:1.6065 17:0.211514 18:0.429341 19:0.101372 20:0.101372 21:0.338523 22:0.397761 23:0.707153 24:0.0826879 25:0.847055 26:1.62788 27:1.85389 28:0.211514 29:0.249039 30:0 31:0.101372 32:0.292368 33:0.397761 34:0.68518 35:0.0326782 36:0.933349 37:1.94771 38:1.85389 39:0.249039 40:0.429341 41:0 42:0.101372 0:0 
0.005011463892227314 1:1.82501 2:1.39214 3:0.379084 4:0.286501 5:0.63401 6:0.199457 7:0.838581 8:0.192733 9:0.29965 10:0.275453 11:0.39914 12:0.653583 13:0.0658766 14:0.831734 15:2.78282 16:3.02672 17:0.201142 18:0.388322 19:0.117837 20:0.117837 21:0.331014 22:0.397778 23:0.708869 24:0.0679298 25:0.883951 26:3.1513 27:3.32808 28:0.201142 29:0.211737 30:0 31:0.117837 32:0.292484 33:0.397778 34:0.683558 35:0.0380316 36:0.935755 37:3.42261 38:3.32808 39:0.211737 40:0.388322 41:0 42:0.117837 0:0 
0.06178060215809917 1:1.76461 2:1.60681 3:0.156557 4:0.354876 5:0.784861 6:0.175503 7:0.819763 8:0.231192 9:0.174589 10:0.23664 11:0.225181 12:0.448939 13:0.0772887 14:0.852416 15:2.11645 16:2.35619 17:0.11156 18:0.199342 19:0.0744619 20:0.0744619 21:0.182335 22:0.258569 23:0.423788 24:0.0743352 25:0.830284 26:2.41994 27:2.6659 28:0.11156 29:0.114282 30:0 31:0.0744619 32:0.104792 33:0.258569 34:0.361725 35:0.0191996 36:0.950998 37:2.71792 38:2.6659 39:0.114282 40:0.199342 41:0 42:0.0744619 0:0 
-0.01012923975812274 1:1.09012 2:0.601331 3:0.129511 4:0.288231 5:0.835914 6:0.580331 7:0.90049 8:0.101346 9:0.254229 10:0.280011 11:0.16634 12:0.413594 13:0.161209 14:0.756772 15:4.05135 16:3.54012 17:0.23316 18:0.23316 19:0 20:0.393261 21:0.367467 22:0.16634 23:0.416019 24:0.342532 25:0.613598 26:4.41766 27:3.54012 28:0 29:0.23316 30:0 31:0.393261 32:0.115208 33:0.394635 34:0.416019 35:0.0892252 36:0.498557 37:4.41766 38:4.76688 39:0 40:0.23316 41:0.393261 42:0.393261 0:0 
0.08016583300584866 1:1.11983 2:0.922995 3:0.120291 4:0.326485 5:0.617054 6:0.233703 7:0.908917 8:0.178884 9:0.294376 10:0.275318 11:0.133959 12:0.407829 13:0.0384293 14:0.955227 15:3.73779 16:3.64444 17:0.211751 18:0.361408 19:0.165737 20:0.165737 21:0.30247 22:0.156283 23:0.409008 24:0.213192 25:0.75 26:4.1896 27:4.71239 28:0.163691 29:0.211751 30:0 31:0.165737 32:0.30534 33:0.156283 34:0.450416 35:0.0987294 36:0.8858 37:4.47064 38:4.71239 39:0.163691 40:0.361408 41:0 42:0.165737 0:0 
-0.0005359558561398356 1:1.01685 2:0.562284 3:0.126536 4:0.288636 5:0.824232 6:0.605446 7:0.847187 8:0.09978 9:0.245509 10:0.059783 11:0.108538 12:0.117249 13:0.16886 14:0.532124 15:2.1294 16:2.77442 17:0.410921 18:0.431577 19:0.0909843 20:0.0909843 21:0.350054 22:0.0581049 23:0.405313 24:0.0927194 25:0.901775 26:3.95401 27:3.70019 28:0.231799 29:0.410921 30:0 31:0.0909843 32:0.326692 33:0.0581049 34:0.367764 35:0.231783 36:0.739146 37:4.37765 38:3.70019 39:0.231799 40:0.431577 41:0 42:0.0909843 0:0 
0.009217257933154996 1:1.32797 2:1.0731 3:0.193884 4:0.361374 5:0.703538 6:0.222572 7:0.883509 8:0.179055 9:0.354603 10:0.371031 11:0.250987 12:0.609221 13:0.0788395 14:0.911925 15:3.44321 16:3.2869 17:0.132402 18:0.279545 19:0.0821789 20:0.0821789 21:0.360825 22:0.217498 23:0.574727 24:0.0457875 25:0.938869 26:3.70832 27:3.59305 28:0.132402 29:0.160219 30:0 31:0.0821789 32:0.331953 33:0.217498 34:0.524429 35:0.119873 36:0.804541 37:3.95977 38:3.59305 39:0.160219 40:0.279545 41:0 42:0.0821789 0:0 
0.001268740361618527 1:1.64851 2:1.39436 3:0.206031 4:0.37185 5:0.778858 6:0.231951 7:0.850577 8:0.0926103 9:0.343458 10:0.340797 11:0.168037 12:0.451779 13:0.222585 14:0.692751 15:2.5128 16:1.85459 17:0.181722 18:0.383395 19:0.108462 20:0.108462 21:0.344506 22:0.0770544 23:0.406384 24:0.184475 25:0.756241 26:2.97644 27:2.35619 28:0.181722 29:0.210378 30:0 31:0.108462 32:0.345071 33:0.0770544 34:0.372189 35:0.354046 36:0.594042 37:3.41254 38:2.35619 39:0.210378 40:0.383395 41:0 42:0.108462 0:0 
0.06654753685211932 1:1.6026 2:1.42556 3:0.188614 4:0.379757 5:0.657986 6:0.211174 7:0.818028 8:0.180244 9:0.348751 10:0.368563 11:0.206151 12:0.559468 13:0.0987229 14:0.969445 15:2.34702 16:2.29245 17:0.1663 18:0.547964 19:0.0656265 20:0.0656265 21:0.340099 22:0.204935 23:0.537911 24:0.0665018 25:0.945985 26:2.69014 27:2.59594 28:0.1663 29:0.415703 30:0 31:0.0656265 32:0.337593 33:0.204935 34:0.41392 35:0.300835 36:0.531145 37:3.55829 38:2.59594 39:0.415703 40:0.547964 41:0 42:0.0656265 0:0 
0.03944613997390068 1:1.67763 2:1.52407 3:0.179849 4:0.408577 5:0.688174 6:0.19311 7:0.913766 8:0.224625 9:0.313237 10:0.368716 11:0.199651 12:0.504123 13:0.212584 14:0.667415 15:2.30361 16:2.9442 17:0.29987 18:0.537869 19:0.103529 20:0.103529 21:0.421493 22:0.163552 23:0.543256 24:0.198602 25:0.739936 26:2.92153 27:3.48715 28:0.29987 29:0.413178 30:0 31:0.103529 32:0.149501 33:0.163552 34:0.303898 35:0.0737098 36:0.883243 37:3.67888 38:3.48715 39:0.413178 40:0.537869 41:0 42:0.103529 0:0 
-0.007725118181605871 1:0.896663 2:0.461034 3:0.128563 4:0.222622 5:0.842493 6:0.621523 7:0.865712 8:0.0949018 9:0.242123 10:0.0535406 11:0.176712 12:0.189785 13:0.0905497 14:0.646962 15:2.05032 16:2.38844 17:0.395991 18:0.409505 19:0.087672 20:0.087672 21:0.350392 22:0.0896607 23:0.368304 24:0.397444 25:0.558787 26:3.81633 27:2.67795 28:0.225812 29:0.395991 30:0 31:0.087672 32:0.322436 33:0.0896607 34:0.283619 35:0.598486 36:0.39981 37:4.28361 38:2.67795 39:0.225812 40:0.409505 41:0 42:0.087672 0:0 
-0.00272262618225341 1:0.986483 2:0.534113 3:0.129529 4:0.243521 5:0.836271 6:0.575474 7:0.896289 8:0.093724 9:0.261035 10:0.0857565 11:0.322818 12:0.359337 13:0.0726745 14:0.741399 15:3.24758 16:3.49036 17:0.217531 18:0.377058 19:0.280226 20:0.280226 21:0.367269 22:0.0472524 23:0.400096 24:0.241717 25:0.699098 26:3.95555 27:3.14159 28:0.217531 29:0.218774 30:0 31:0.280226 32:0.330079 33:0.0472524 34:0.337889 35:0.425051 36:0.553827 37:4.36166 38:3.14159 39:0.218774 40:0.377058 41:0 42:0.280226 0:0 
-0.01472745104420579 1:0.975998 2:0.506584 3:0.13346 4:0.303797 5:0.884237 6:0.671687 7:0.71593 8:0.0981145 9:0.127316 10:0.0661755 11:0.280162 12:0.332043 13:0.0429057 14:0.874465 15:1.68929 16:1.80003 17:0.404365 18:0.423925 19:0.240708 20:0.240708 21:0.144767 22:0.125171 23:0.2539 24:0.118946 25:0.618617 26:3.58911 27:2.76109 28:0.244783 29:0.404365 30:0 31:0.240708 32:0.171005 33:0.125171 34:0.109286 35:0.518992 36:0.297654 37:4.50489 38:2.76109 39:0.244783 40:0.423925 41:0 42:0.240708 0:0 
-0.08062240460053985 1:0.873611 2:0.434698 3:0.124786 4:0.293578 5:0.842899 6:0.578983 7:0.863712 8:0.094036 9:0.192388 10:0.260894 11:0.134438 12:0.203653 13:0.549713 14:0.285312 15:1.83379 16:3.57822 17:0.399886 18:0.407524 19:0.0364345 20:0.0364345 21:0.181098 22:0.163099 23:0.333918 24:0.0822621 25:0.991752 26:3.7296 27:3.74388 28:0.241325 29:0.399886 30:0 31:0.0364345 32:0.135172 33:0.163099 34:0.244156 35:0.174732 36:0.66149 37:4.29998 38:3.74388 39:0.241325 40:0.407524 41:0 42:0.0364345 0:0 
-0.004889124685629213 1:0.869727 2:0.427642 3:0.127686 4:0.252082 5:0.85915 6:0.616361 7:0.845285 8:0.0949789 9:0.250772 10:0.1467 11:0.28495 12:0.25187 13:0.171896 14:0.479398 15:2.06075 16:2.61831 17:0.372289 18:0.398981 19:0.169427 20:0.169427 21:0.311452 22:0.135751 23:0.324319 24:0.402283 25:0.498351 26:3.70276 27:2.49809 28:0.218054 29:0.372289 30:0 31:0.169427 32:0.294164 33:0.135751 34:0.214954 35:0.622438 36:0.303542 37:4.29097 38:2.49809 39:0.218054 40:0.398981 41:0 42:0.169427 0:0 
-0.01252160643698387 1:0.892144 2:0.429834 3:0.129988 4:0.233458 5:0.848582 6:0.622791 7:0.932159 8:0.101803 9:0.192871 10:0.104151 11:0.212135 12:0.226233 13:0.151361 14:0.496333 15:2.03444 16:1.49686 17:0 18:0.394236 19:0.111608 20:0.221534 21:0.127778 22:0.232974 23:0.226233 24:0.179277 25:0.533975 26:2.03444 27:2.62245 28:0 29:0.394236 30:0.152304 31:0.221534 32:0.346685 33:0.123009 34:0.304102 35:0.553783 36:0.357886 37:3.92699 38:2.18152 39:0.394236 40:0.394236 41:0.111608 42:0.152304 0:0 
-0.02292998927872085 1:0.837064 2:0.469871 3:0.140834 4:1.31759 5:0.825295 6:0.267015 7:0.821488 8:0.107211 9:0.0817633 10:0.103533 11:0.365352 12:0.463314 13:0.0259274 14:0.946931 15:2.36918 16:2.31917 17:0.19357 18:0.408056 19:0.147388 20:0.344666 21:0.0895927 22:0.256868 23:0.345351 24:0.0150268 25:0.918864 26:2.87065 27:2.79604 28:0.19357 29:0.247785 30:0.147388 31:0.209585 32:0.0521644 33:0.101797 34:0.144937 35:0.0770389 36:0.734854 37:3.69014 38:3.97457 39:0.247785 40:0.408056 41:0.209585 42:0.344666 0:0 
-0.008825398212925103 1:1.07939 2:0.61053 3:0.129259 4:0.315066 5:0.83209 6:0.577777 7:0.899983 8:0.10648 9:0.178767 10:0.153708 11:0.356462 12:0.396485 13:0.126486 14:0.666471 15:1.8982 16:2.2381 17:0.340499 18:0.384777 19:0.125594 20:0.150661 21:0.0868222 22:0.407896 23:0.491641 24:0.0162852 25:0.939687 26:2.67795 27:2.63036 28:0.200663 29:0.340499 30:0.150661 31:0.257055 32:0.295771 33:0.269392 34:0.346265 35:0.309737 36:0.394336 37:3.11721 38:2.10101 39:0.200663 40:0.384777 41:0.125594 42:0.257055 0:0 
-0.003267792308881138 1:0.989486 2:0.549706 3:0.127099 4:0.260469 5:0.853923 6:0.64672 7:0.745028 8:0.101731 9:0.160666 10:0.116655 11:0.302293 12:0.370466 13:0.0903425 14:0.808093 15:3.95555 16:4.1569 17:0.241284 18:0.366264 19:0 20:0.325983 21:0.147224 22:0.302293 23:0.374783 24:0.121925 25:0.725817 26:4.46741 27:4.1569 28:0.144579 29:0.241284 30:0 31:0.325983 32:0.218118 33:0.212862 34:0.358069 35:0.190486 36:0.694583 37:5.03414 38:5.52481 39:0.144579 40:0.366264 41:0.325983 42:0.325983 0:0 
0.01107410051095903 1:1.36252 2:0.97678 3:0.375111 4:0.420916 5:0.557731 6:0.32363 7:0.965912 8:0.252507 9:0.359516 10:0.320448 11:0.271176 12:0.580666 13:0.0667669 14:0.90625 15:1.25483 16:1.42295 17:0.245813 18:0.459206 19:0.110841 20:0.221491 21:0.349347 22:0.227997 23:0.570016 24:0.0629503 25:0.943595 26:1.66666 27:1.77829 28:0.243195 29:0.245813 30:0.110841 31:0.138794 32:0.408754 33:0.117544 34:0.520591 35:0.0878708 36:0.790016 37:2.06328 38:2.56522 39:0.243195 40:0.459206 41:0.138794 42:0.221491 0:0 
0.02152545273158595 1:1.30518 2:0.873922 3:0.244561 4:0.398376 5:0.567132 6:0.334562 7:0.942867 8:0.260094 9:0.387459 10:0.313296 11:0.306722 12:0.601122 13:0.0796459 14:0.856996 15:1.32798 16:1.5708 17:0.240477 18:0.412234 19:0.119171 20:0.325533 21:0.358675 22:0.280962 23:0.622036 24:0.0847499 25:0.846884 26:1.69515 27:1.97843 28:0.205404 29:0.240477 30:0.119171 31:0.240716 32:0.490405 33:0.182255 34:0.574438 35:0.300707 36:0.637027 37:2.06862 38:2.8899 39:0.205404 40:0.412234 41:0.240716 42:0.325533 0:0 
-0.003269098441119236 1:1.08723 2:0.606912 3:0.167745 4:0.398984 5:0.874426 6:0.521465 7:0.74062 8:0.102722 9:0.139785 10:0.159002 11:0.388727 12:0.392488 13:0.130448 14:0.567749 15:1.84381 16:2.18333 17:0.409006 18:0.440937 19:0.252552 20:0.252552 21:0.11401 22:0.224896 23:0.333919 24:0.0387614 25:0.747216 26:3.23885 27:2.90605 28:0.221053 29:0.409006 30:0 31:0.252552 32:0.146343 33:0.224896 34:0.156298 35:0.224069 36:0.362191 37:3.7296 38:2.90605 39:0.221053 40:0.440937 41:0 42:0.252552 0:0 
0.05992232885002906 1:1.35396 2:0.999917 3:0.24032 4:0.387331 5:0.565448 6:0.33818 7:0.941303 8:0.263211 9:0.383742 10:0.30874 11:0.140826 12:0.443925 13:0.0749636 14:0.890785 15:1.25271 16:1.49402 17:0.232254 18:0.411358 19:0.14042 20:0.306066 21:0.363603 22:0.140488 23:0.447491 24:0.254017 25:0.672891 26:1.70101 27:2.46685 28:0.206439 29:0.232254 30:0.14042 31:0.207463 32:0.478884 33:0.199197 34:0.428444 35:0.511351 36:0.409488 37:2.18252 38:3.59305 39:0.206439 40:0.411358 41:0.207463 42:0.306066 0:0 
-0.03825088784998761 1:1.06155 2:0.602063 3:0.145988 4:0.308646 5:0.872444 6:0.661077 7:0.957497 8:0.103101 9:0.27795 10:0.333151 11:0.288415 12:0.408028 13:0.299434 14:0.542661 15:1.85163 16:2.67795 17:0.411109 18:0.450652 19:0.163912 20:0.163912 21:0.251172 22:0.217588 23:0.341055 24:0.263 25:0.486907 26:3.1654 27:2.25132 28:0.223895 29:0.411109 30:0 31:0.163912 32:0.249527 33:0.217588 34:0.16338 35:0.447045 36:0.264481 37:3.64094 38:2.25132 39:0.223895 40:0.450652 41:0 42:0.163912 0:0 
0.001232525504892498 1:1.35047 2:0.951979 3:0.361099 4:0.392751 5:0.571861 6:0.332807 7:0.981653 8:0.261857 9:0.391954 10:0.319191 11:0.2568 12:0.560991 13:0.0813187 14:0.863385 15:1.34187 16:1.59301 17:0.233847 18:0.437607 19:0.103339 20:0.329043 21:0.356312 22:0.236495 23:0.576199 24:0.0930392 25:0.877969 26:1.73282 27:1.96932 28:0.233847 29:0.240083 30:0.103339 31:0.256735 32:0.500359 33:0.177722 34:0.539537 35:0.376908 36:0.580747 37:2.1502 38:3.14159 39:0.240083 40:0.437607 41:0.256735 42:0.329043 0:0 
0.0007951641178721786 1:1.6843 2:1.48419 3:0.537764 4:0.410708 5:0.688755 6:0.1639 7:0.84314 8:0.136117 9:0.210763 10:0.214357 11:0.0903928 12:0.283568 13:0.187418 14:0.70686 15:2.07181 16:2.7367 17:0.158511 18:0.306503 19:0.165053 20:0.165053 21:0.201283 22:0.247588 23:0.383293 24:0.155136 25:0.704373 26:2.50657 27:2.89661 28:0.158511 29:0.174418 30:0 31:0.165053 32:0.216648 33:0.247588 34:0.456627 35:0.0539412 36:0.860791 37:2.68853 38:2.89661 39:0.174418 40:0.306503 41:0 42:0.165053 0:0 
0.02814083010660444 1:1.50048 2:1.19236 3:0.289349 4:0.293624 5:0.749652 6:0.205458 7:0.810062 8:0.118822 9:0.294983 10:0.285558 11:0.336002 12:0.616521 13:0.0373721 14:0.973733 15:2.986 16:3.02672 17:0.182319 18:0.345705 19:0.109476 20:0.109476 21:0.324236 22:0.344674 23:0.662149 24:0.0439209 25:0.933643 26:3.24404 27:3.35006 28:0.182319 29:0.1962 30:0 31:0.109476 32:0.275155 33:0.344674 34:0.609799 35:0.0511643 36:0.882891 37:3.52397 38:3.35006 39:0.1962 40:0.345705 41:0 42:0.109476 0:0 
-0.01978870077613176 1:1.05343 2:0.598724 3:0.149462 4:0.308943 5:0.849784 6:0.647504 7:0.878908 8:0.103078 9:0.283145 10:0.193564 11:0.252265 12:0.120238 13:0.266411 14:0.255735 15:2.39066 16:3.28349 17:0.417388 18:0.454254 19:0.163671 20:0.163671 21:0.327009 22:0.115426 23:0.434395 24:0.102896 25:0.894986 26:3.86534 27:3.63155 28:0.238217 29:0.417388 30:0 31:0.163671 32:0.328861 33:0.115426 34:0.409056 35:0.221374 36:0.72474 37:4.25694 38:3.63155 39:0.238217 40:0.454254 41:0 42:0.163671 0:0 
0.08578158772437966 1:1.65354 2:1.51672 3:0.304123 4:0.330937 5:0.739415 6:0.206465 7:0.887798 8:0.278331 9:1.23933 10:3.10489 11:3.09733 12:0.374556 13:0.487183 14:0.714989 15:1.21203 16:0.69866 17:0.247257 18:0.372444 19:3.13459 20:3.13459 21:0.272 22:0.13188 23:0.378268 24:0.166094 25:0.97696 26:1.80863 27:1.75902 28:0.133188 29:0.247257 30:0 31:3.13459 32:0.341118 33:0.13188 34:0.421327 35:0.250134 36:0.857519 37:2.07789 38:1.75902 39:0.133188 40:0.372444 41:0 42:3.13459 0:0 
0.1775331357238381 1:0.89837 2:0.756655 3:0.103801 4:0.45143 5:0.778268 6:0.287559 7:0.892829 8:0.0922405 9:0.158171 10:0.340948 11:0.253187 12:0.257514 13:0.465338 14:0.303655 15:1.95595 16:3.27591 17:0.326318 18:0.3299 19:0.169119 20:0.169119 21:0.0719014 22:0.092485 23:0.164176 24:0.0141933 25:0.918464 26:3.84609 27:3.7296 28:0.116757 29:0.3299 30:0 31:0.169119 32:0.0616645 33:0.092485 34:0.0848323 35:0.224511 36:0.506772 37:4.45507 38:3.7296 39:0.116757 40:0.326318 41:0 42:0.169119 0:0 
-0.01910924792298047 1:0.957188 2:0.520467 3:0.15785 4:0.223782 5:0.861272 6:0.540321 7:0.733601 8:0.0999512 9:0.147907 10:0.211539 11:0.314983 12:0.51101 13:0.0631875 14:0.994287 15:2.89661 16:2.8899 17:0.308357 18:0.488302 19:0.172495 20:0.172495 21:0.0929938 22:0.19587 23:0.288526 24:0.0106031 25:0.918445 26:3.53638 27:3.43703 28:0.210811 29:0.308357 30:0 31:0.172495 32:0.139187 33:0.19587 34:0.166274 35:0.245961 36:0.462767 37:4.10459 38:3.43703 39:0.210811 40:0.488302 41:0 42:0.172495 0:0 
-0.02906833078899664 1:1.11313 2:0.61227 3:0.159654 4:0.20065 5:0.856298 6:0.537055 7:0.731028 8:0.104734 9:0.116844 10:0.0957951 11:0.366847 12:0.389447 13:0.0785951 14:0.707544 15:1.69971 16:1.87885 17:0.372826 18:0.404819 19:0.191016 20:0.290455 21:0.172352 22:0.307066 23:0.4691 24:0.0493136 25:0.875152 26:2.61601 27:2.47107 28:0.298535 29:0.372826 30:0.169671 31:0.191016 32:0.0823853 33:0.150193 34:0.213036 35:0.0951536 36:0.588586 37:3.28867 38:2.67795 39:0.298535 40:0.404819 41:0.169671 42:0.290455 0:0 
-0.007323904354782051 1:0.866923 2:0.427091 3:0.130679 4:0.238774 5:0.850846 6:0.626019 7:0.860714 8:0.0983879 9:0.211329 10:0.0761781 11:0.278718 12:0.345657 13:0.0373115 14:0.880706 15:3.11937 16:3.23807 17:0.218946 18:0.392308 19:0.203323 20:0.203323 21:0.276638 22:0.087808 23:0.313666 24:0.319644 25:0.619211 26:3.8048 27:2.85014 28:0.215143 29:0.218946 30:0 31:0.203323 32:0.281169 33:0.087808 34:0.253271 35:0.551754 36:0.415827 37:4.39949 38:2.85014 39:0.215143 40:0.392308 41:0 42:0.203323 0:0 
-0.02105243838073592 1:0.94614 2:0.535895 3:0.128094 4:0.22826 5:0.837358 6:0.565643 7:0.746971 8:0.0983879 9:0.15453 10:0.0623898 11:0.313747 12:0.34442 13:0.0526676 14:0.751785 15:1.89255 16:2.05913 17:0.295977 18:0.421183 19:0.104659 20:0.404738 21:0.284597 22:0.212124 23:0.418548 24:0.213263 25:0.661414 26:2.84453 27:2.1588 28:0.295977 29:0.406794 30:0.104659 31:0.306302 32:0.116601 33:0.0984609 34:0.133989 35:0.321232 36:0.430967 37:4.13601 38:5.03414 39:0.406794 40:0.421183 41:0.306302 42:0.404738 0:0 
0.01660933049642002 1:1.36074 2:1.25509 3:0.312305 4:0.330298 5:0.647858 6:0.191919 7:0.849376 8:0.165234 9:0.164277 10:0.125476 11:0.12293 12:0.224122 13:0.143488 14:0.72871 15:1.72857 16:2.19628 17:0.172432 18:0.369147 19:0.118897 20:0.25354 21:0.215662 22:0.172539 23:0.309454 24:0.234825 25:0.630953 26:2.25894 27:2.91236 28:0.172432 29:0.217301 30:0.118897 31:0.147362 32:0.151693 33:0.317982 34:0.412855 35:0.104453 36:0.779941 37:2.81984 38:3.04753 39:0.217301 40:0.369147 41:0.147362 42:0.25354 0:0 
-0.01494144269098242 1:0.87745 2:0.461727 3:0.133886 4:0.246301 5:0.813825 6:0.545429 7:0.92606 8:0.0970513 9:0.21541 10:0.188404 11:0.28036 12:0.238945 13:0.231077 14:0.453973 15:1.89255 16:2.66071 17:0.358569 18:0.398647 19:0.122652 20:0.169537 21:0.116021 22:0.323594 23:0.430368 24:0.0387396 25:0.901643 26:3.0025 27:3.1113 28:0.246468 29:0.358569 30:0.122652 31:0.268634 32:0.341804 33:0.16881 34:0.3158 35:0.465912 36:0.392952 37:3.7159 38:2.23677 39:0.246468 40:0.398647 41:0.169537 42:0.268634 0:0 
-0.00291110800921335 1:0.877302 2:0.470072 3:0.130936 4:0.234327 5:0.80354 6:0.536306 7:0.921643 8:0.0984623 9:0.172886 10:0.336927 11:0.229821 12:0.282509 13:0.452986 14:0.329808 15:1.936 16:3.43703 17:0.315008 18:0.392329 19:0.0272351 20:0.173819 21:0.0772856 22:0.334053 23:0.409249 24:0.0153692 25:0.995665 26:2.92076 27:2.91688 28:0.221606 29:0.315008 30:0.173819 31:0.197571 32:0.104447 33:0.209801 34:0.311467 35:0.0298201 36:0.947019 37:3.6166 38:3.54648 39:0.221606 40:0.392329 41:0.0272351 42:0.197571 0:0 
-0.01379467021076347 1:0.996939 2:0.565446 3:0.137357 4:0.201416 5:0.922882 6:0.714839 7:0.723408 8:0.0997556 9:0.162221 10:0.143409 11:0.249732 12:0.343353 13:0.118777 14:0.795167 15:2.08039 16:1.8693 17:0.107157 18:0.304678 19:0.172573 20:0.172573 21:0.193751 22:0.0906568 23:0.278719 24:0.0936643 25:0.954833 26:2.38058 27:2.29744 28:0.107157 29:0.204732 30:0 31:0.172573 32:0.149502 33:0.0906568 34:0.170314 35:0.340026 36:0.481297 37:3.32981 38:2.29744 39:0.204732 40:0.304678 41:0 42:0.172573 0:0 
-0.005888967756594679 1:1.10952 2:0.630079 3:0.136261 4:0.202526 5:0.786961 6:0.516812 7:0.912174 8:0.0968246 9:0.188796 10:0.32154 11:0.135621 12:0.401871 13:0.252355 14:0.72675 15:1.78189 16:2.35619 17:0.380185 18:0.414546 19:0.0858279 20:0.217985 21:0.150706 22:0.350998 23:0.492652 24:0.0394028 25:0.873835 26:2.59543 27:2.47429 28:0.2631 29:0.380185 30:0.150275 31:0.217985 32:0.0941429 33:0.209924 34:0.2805 35:0.0819543 36:0.528131 37:3.1113 38:2.52134 39:0.2631 40:0.414546 41:0.0858279 42:0.150275 0:0 
0.1061393616758065 1:1.01984 2:0.985109 3:0.1966 4:0.665267 5:0.634091 6:0.357006 7:0.797629 8:0.174735 9:0.18374 10:0.207849 11:0.11936 12:0.318478 13:0.0977046 14:0.874631 15:1.34732 16:1.08828 17:0.312846 18:0.522014 19:0 20:0.349967 21:0.235359 22:0.11936 23:0.244081 24:0.397567 25:0.48164 26:2.23011 27:1.08828 28:0.312846 29:0.395777 30:0 31:0.349967 32:0.108012 33:0.292843 34:0.229279 35:0.107791 36:0.361701 37:4.99069 38:5.28876 39:0.395777 40:0.522014 41:0.349967 42:0.349967 0:0 
-0.0107766749674063 1:0.951071 2:0.594765 3:0.140132 4:0.204751 5:0.889363 6:0.690816 7:0.68471 8:0.09521 9:0.135698 10:0.25201 11:0.129283 12:0.362794 13:0.140432 14:0.771755 15:2.37314 16:2.8023 17:0.2925 18:0.376775 19:0.123679 20:0.123679 21:0.100431 22:0.188193 23:0.2774 24:0.0643829 25:0.791473 26:3.39415 27:3.55172 28:0.127399 29:0.2925 30:0 31:0.123679 32:0.0546536 33:0.188193 34:0.210604 35:0.0799098 36:0.659406 37:3.86042 38:3.55172 39:0.127399 40:0.376775 41:0 42:0.123679 0:0 
0.07711113360158406 1:1.57941 2:1.53889 3:0.343354 4:1.00926 5:0.677535 6:0.159174 7:0.748327 8:0.0884298 9:0.983659 10:2.65248 11:2.74917 12:0.402624 13:0.399948 14:0.899187 15:2.9442 16:3.11528 17:0.231898 18:0.428725 19:2.64328 20:2.68003 21:0.15458 22:0.221464 23:0.344471 24:0.108413 25:0.741625 26:3.42469 27:3.11528 28:0.231898 29:0.245353 30:0.218793 31:2.64328 32:0.143921 33:0.0883245 34:0.229035 35:0.067777 36:0.840112 37:4.64796 38:4.95737 39:0.245353 40:0.428725 41:0.218793 42:2.68003 0:0 
-0.04610787719614255 1:1.08288 2:0.636277 3:0.143984 4:0.268056 5:0.788239 6:0.502145 7:0.940802 8:0.0981892 9:0.189323 10:0.310883 11:0.09644 12:0.39586 13:0.137325 14:0.852202 15:1.73595 16:2.06075 17:0.418663 18:0.423916 19:0.147376 20:0.313943 21:0.154653 22:0.394 23:0.531092 24:0.0498573 25:0.798374 26:2.63286 27:2.45267 28:0.297539 29:0.418663 30:0.206078 31:0.313943 32:0.102434 33:0.202823 34:0.29039 35:0.0698494 36:0.597996 37:3.11303 38:2.58729 39:0.297539 40:0.423916 41:0.147376 42:0.206078 0:0 
-0.02377850865010012 1:1.12479 2:0.624477 3:0.137836 4:0.269279 5:0.788789 6:0.514437 7:0.895404 8:0.103527 9:0.197062 10:0.301679 11:0.10643 12:0.39359 13:0.145056 14:0.991625 15:1.58898 16:1.5708 17:0.413475 18:0.414983 19:0.139268 20:0.2697 21:0.201306 22:0.321367 23:0.492564 24:0.0849803 25:0.767453 26:2.5128 27:2.26213 28:0.321349 29:0.414983 30:0.195664 31:0.2697 32:0.0882019 33:0.139379 34:0.213825 35:0.0874915 36:0.527662 37:3.14159 38:2.39965 39:0.321349 40:0.413475 41:0.139268 42:0.195664 0:0 
-0.03576284356534899 1:1.04414 2:0.587134 3:0.144772 4:0.229514 5:0.867215 6:0.620524 7:0.733857 8:0.106296 9:0.106002 10:0.0578957 11:0.3852 12:0.412133 13:0.0409713 14:0.628228 15:2.1274 16:2.37158 17:0.306065 18:0.422415 19:0.228531 20:0.228531 21:0.0978324 22:0.17458 23:0.235711 24:0.120574 25:0.577979 26:3.30674 27:2.67795 28:0.170176 29:0.306065 30:0 31:0.228531 32:0.162278 33:0.17458 34:0.115649 35:0.357157 36:0.311131 37:3.89252 38:2.67795 39:0.170176 40:0.422415 41:0 42:0.228531 0:0 
-0.009301529843604607 1:1.24375 2:0.701803 3:0.150348 4:0.219942 5:0.835177 6:0.557226 7:0.884577 8:0.0999267 9:0.166319 10:0.277287 11:0.0735884 12:0.260921 13:0.528161 14:0.429309 15:1.6248 16:0.0996687 17:0.16438 18:0.316728 19:0.0466131 20:0.178809 21:0.13409 22:0.135954 23:0.256096 24:0.102019 25:0.691714 26:2.55359 27:1.96559 28:0.16438 29:0.284752 30:0.178809 31:0.198725 32:0.0875798 33:0.0686574 34:0.0650625 35:0.454355 36:0.418314 37:4.33188 38:5.57456 39:0.284752 40:0.316728 41:0.0466131 42:0.198725 0:0 
-0.03671667836279852 1:0.982162 2:0.48664 3:0.184108 4:0.273801 5:0.913535 6:0.673406 7:0.690627 8:0.131101 9:0.148264 10:0.138602 11:0.323708 12:0.362014 13:0.124653 14:0.617132 15:1.74547 16:2.09887 17:0.389715 18:0.518218 19:0.191123 20:0.482773 21:0.124447 22:0.321463 23:0.445783 24:0.00472037 25:0.97171 26:2.80492 27:2.77442 28:0.389715 29:0.424869 30:0.191123 31:0.441009 32:0.181742 33:0.18743 34:0.231043 35:0.278691 36:0.437167 37:4.07964 38:4.90978 39:0.424869 40:0.518218 41:0.441009 42:0.482773 0:0 
-0.01869906067951058 1:0.929793 2:0.469821 3:0.208003 4:0.345336 5:0.88287 6:0.656424 7:0.834883 8:0.141775 9:3.49341 10:3.53959 11:3.34078 12:0.468011 13:0.619753 14:0.994948 15:2.98894 16:2.98382 17:0.356439 18:0.43737 19:0 20:0 21:3.4811 22:3.34078 23:0.356199 24:0.613444 25:0.741168 26:3.84609 27:3.51093 28:0.0965934 29:0.356439 30:0 31:0 32:3.45954 33:3.34078 34:0.322085 35:0.606059 36:0.606591 37:4.0807 38:3.51093 39:0.0965934 40:0.43737 41:0 42:0 0:0 
-0.03489965648547218 1:0.991884 2:0.503347 3:0.352578 4:0.412226 5:0.85165 6:0.580044 7:0.810684 8:0.129518 9:0.112132 10:0.0506825 11:0.36514 12:0.388461 13:0.038054 14:0.726974 15:2.28133 16:2.42853 17:0.11494 18:0.242653 19:0.0866653 20:0.353765 21:0.0878639 22:0.301112 23:0.384241 24:0.0266337 25:0.944677 26:2.79128 27:2.7367 28:0.11494 29:0.182678 30:0.0866653 31:0.27662 32:0.197851 33:0.0978104 34:0.253643 35:0.252967 36:0.726464 37:3.35453 38:3.92699 39:0.182678 40:0.242653 41:0.27662 42:0.353765 0:0 
-0.006452372425025446 1:0.907594 2:0.492667 3:0.161933 4:0.546113 5:0.877455 6:0.660111 7:0.826655 8:0.14969 9:0.185053 10:0.205071 11:0.21216 12:0.235789 13:0.300996 14:0.415554 15:2.08994 16:3.04812 17:0.492333 18:0.540981 19:0.225708 20:0.225708 21:0.172964 22:0.273678 23:0.427571 24:0.0736293 25:0.978177 26:3.88446 27:3.91004 28:0.251248 29:0.492333 30:0 31:0.225708 32:0.177124 33:0.273678 34:0.379616 35:0.141342 36:0.658927 37:4.34984 38:3.91004 39:0.251248 40:0.540981 41:0 42:0.225708 0:0 
-0.00846439153734809 1:0.801386 2:0.505788 3:0.112545 4:0.325651 5:0.859632 6:0.437494 7:0.724159 8:0.173437 9:0.132018 10:0.107157 11:0.267563 12:0.371943 13:0.0244604 14:0.924856 15:1.22918 16:1.14938 17:0.284191 18:0.538742 19:0.224601 20:0.330991 21:0.0657633 22:0.168694 23:0.222062 24:0.0633014 25:0.868567 26:2.13537 27:2.22868 28:0.284191 29:0.3495 30:0.145346 31:0.224601 32:0.223133 33:0.114505 34:0.211979 35:0.445587 36:0.447501 37:4.11698 38:3.00606 39:0.3495 40:0.538742 41:0.145346 42:0.330991 0:0 
-0.007797642189884308 1:1.12735 2:0.587088 3:0.407525 4:0.508719 5:0.934275 6:0.709163 7:0.724352 8:0.156312 9:0.122939 10:0.0526922 11:0.204715 12:0.253135 13:0.0290749 14:0.939525 15:1.44944 16:1.38081 17:0.421414 18:0.533534 19:0.35698 20:0.474735 21:0.146748 22:0.215505 23:0.325504 24:0.117404 25:0.739567 26:3.24538 27:3.63802 28:0.325206 29:0.421414 30:0.311671 31:0.35698 32:0.169376 33:0.307325 34:0.31935 35:0.173812 36:0.506545 37:4.49584 38:4.81618 39:0.325206 40:0.533534 41:0.311671 42:0.474735 0:0 
-0.08121782377427691 1:1.01424 2:0.497418 3:0.317858 4:0.475117 5:0.921686 6:0.724828 7:0.74363 8:0.176604 9:0.101034 10:0.103448 11:0.293093 12:0.320194 13:0.104199 14:0.644124 15:2.34286 16:2.68881 17:0.230742 18:0.449063 19:0.109828 20:0.396366 21:0.142449 22:0.274762 23:0.409939 24:0.0426478 25:0.930433 26:3.07611 27:3.17016 28:0.230742 29:0.370936 30:0.109828 31:0.299406 32:0.0572061 33:0.298453 34:0.310823 35:0.0584535 36:0.586627 37:4.23948 38:4.44024 39:0.370936 40:0.449063 41:0.299406 42:0.396366 0:0 
-0.03072532792050049 1:1.00745 2:0.496509 3:0.309655 4:0.44366 5:0.931924 6:0.720572 7:0.669018 8:0.17206 9:0.102706 10:0.0613632 11:0.38464 12:0.433576 13:0.0288677 14:0.905931 15:1.18491 16:1.15092 17:0.581117 18:0.598016 19:0.490308 20:0.490308 21:0.140508 22:0.270669 23:0.404635 24:0.040786 25:0.957244 26:2.97644 27:3.03094 28:0.198918 29:0.581117 30:0 31:0.490308 32:0.106247 33:0.270669 34:0.295093 35:0.11712 36:0.605589 37:3.46334 38:3.03094 39:0.198918 40:0.598016 41:0 42:0.490308 0:0 
-0.01145925571039775 1:1.05502 2:0.834661 3:0.165879 4:0.766087 5:0.857766 6:0.373556 7:1.10766 8:0.168112 9:0.24382 10:0.126527 11:0.178757 12:0.280147 13:0.108186 14:0.722065 15:2.58875 16:3.01327 17:0.487409 18:0.664986 19:0.225325 20:0.225325 21:0.22841 22:0.092744 23:0.317715 24:0.0733758 25:0.878881 26:4.82512 27:5.0929 28:0.186954 29:0.487409 30:0 31:0.225325 32:0.376524 33:0.092744 34:0.469092 35:0.0175967 36:0.996233 37:5.10231 38:5.0929 39:0.186954 40:0.664986 41:0 42:0.225325 0:0 
0.03738160692648083 1:1.13081 2:0.73151 3:0.189043 4:0.879931 5:0.788343 6:0.19792 7:0.8003 8:0.260174 9:0.146735 10:0.0986061 11:0.598876 12:0.682218 13:0.0262513 14:0.809327 15:2.6331 16:2.71836 17:0.132886 18:0.274679 19:0.222829 20:0.222829 21:0.229009 22:0.391132 23:0.613912 24:0.0344763 25:0.95031 26:2.82221 27:2.87947 28:0.132886 29:0.166623 30:0 31:0.222829 32:0.112589 33:0.391132 34:0.493471 35:0.0340234 36:0.885856 37:2.97501 38:2.87947 39:0.166623 40:0.274679 41:0 42:0.222829 0:0 
0.01087448302244202 1:1.43371 2:0.99536 3:0.239757 4:0.889787 5:0.787611 6:0.195223 7:0.809888 8:0.263271 9:0.125094 10:0.0842514 11:0.406719 12:0.458842 13:0.0488207 14:0.690234 15:2.60664 16:2.74135 17:0.137817 18:0.277765 19:0.222662 20:0.222662 21:0.192468 22:0.212637 23:0.391364 24:0.0790051 25:0.903865 26:2.92168 27:3.05845 28:0.137817 29:0.158907 30:0 31:0.222662 32:0.0985641 33:0.212637 34:0.302401 35:0.0511573 36:0.91306 37:3.15511 38:3.05845 39:0.158907 40:0.277765 41:0 42:0.222662 0:0 
0.1263071015999457 1:0.789438 2:0.508217 3:0.313737 4:0.617715 5:0.924841 6:0.414447 7:0.700406 8:0.417728 9:0.0986094 10:0.0988727 11:0.231091 12:0.32027 13:0.0500072 14:0.758713 15:2.34104 16:2.10101 17:0.373768 18:0.495199 19:0.343916 20:0.343916 21:0.0723933 22:0.250725 23:0.301568 24:0.059743 25:0.761522 26:3.91494 27:4.10615 28:0.140129 29:0.373768 30:0 31:0.343916 32:0.124562 33:0.250725 34:0.358217 35:0.066972 36:0.871252 37:4.23871 38:4.10615 39:0.140129 40:0.495199 41:0 42:0.343916 0:0 
0.08642338901322545 1:0.783303 2:0.561107 3:0.420808 4:0.648206 5:0.91573 6:0.380719 7:0.763 8:0.441159 9:0.142519 10:0.0693671 11:0.185178 12:0.216958 13:0.0983081 14:0.576449 15:3.36291 16:3.68682 17:0.367507 18:0.477214 19:0.223467 20:0.223467 21:0.143754 22:0.340696 23:0.47529 24:0.0399701 25:0.916335 26:4.08715 27:4.1642 28:0.129021 29:0.367507 30:0 31:0.223467 32:0.214436 33:0.340696 34:0.548698 35:0.0384054 36:0.919899 37:4.25525 38:4.1642 39:0.129021 40:0.477214 41:0 42:0.223467 0:0 
-0.01617133593538288 1:1.57286 2:1.45672 3:0.533716 4:1.85824 5:0.873234 6:0.361112 7:0.851766 8:0.455859 9:0.437641 10:0.260959 11:0.984818 12:1.23894 13:0.0171022 14:0.938095 15:3.76184 16:3.70926 17:0.560869 18:1.38541 19:0.605221 20:0.605221 21:0.260753 22:0.769035 23:0.959506 24:0.0661079 25:0.636863 26:4.33834 27:4.63806 28:0.560869 29:0.870409 30:0 31:0.605221 32:0.79121 33:0.769035 34:1.39411 35:0.150515 36:0.77047 37:5.04814 38:4.63806 39:0.870409 40:1.38541 41:0 42:0.605221 0:0 
-0.01262775163107194 1:1.22082 2:0.893442 3:0.238456 4:1.2429 5:0.915707 6:0.281718 7:0.692783 8:0.374928 9:0.121185 10:0.141199 11:0.274888 12:0.205483 13:0.166582 14:0.283923 15:3.50036 16:4.18759 17:0.533735 18:0.923038 19:0.311435 20:0.715317 21:0.13696 22:0.57006 23:0.682157 24:0.0401931 25:0.686455 26:4.44024 27:4.55325 28:0.450084 29:0.533735 30:0.311435 31:0.409514 32:0.0853977 33:0.955479 34:1.01593 35:0.0194925 36:0.859611 37:4.80704 38:4.7613 39:0.450084 40:0.923038 41:0.409514 42:0.715317 0:0 
-0.01770978584410297 1:1.08047 2:0.586252 3:0.390577 4:1.17776 5:0.930662 6:0.601081 7:0.923263 8:0.47689 9:0.105483 10:0.0791959 11:1.54924 12:1.62695 13:0.00305741 14:0.871119 15:1.55025 16:1.5708 17:0.140724 18:1.75059 19:0 20:1.59339 21:0.0641417 22:1.54924 23:1.49223 24:0.00615358 25:0.647584 26:1.61302 27:1.5708 28:0.140724 29:1.62542 30:0 31:1.59339 32:0.173113 33:0.332916 34:0.444189 35:0.110322 36:0.691091 37:4.78759 38:4.40035 39:1.62542 40:1.75059 41:1.59339 42:1.59339 0:0 
0.07441004675847863 1:1.02068 2:0.681945 3:0.442076 4:0.232919 5:0.906047 6:0.377054 7:0.684399 8:0.605359 9:0.0997956 10:0.0535042 11:0.581445 12:0.624604 13:0.0167046 14:0.893212 15:4.46556 16:4.48928 17:0.0852837 18:0.441522 19:0.156176 20:0.388962 21:0.134332 22:0.451871 23:0.575461 24:0.0328712 25:0.879658 26:4.56649 27:4.65061 28:0.0852837 29:0.439005 30:0.156176 31:0.311881 32:0.111551 33:0.256123 34:0.342341 35:0.0762712 36:0.763382 37:3.72408 38:3.9461 39:0.439005 40:0.441522 41:0.311881 42:0.388962 0:0 
0.01714992613917658 1:0.89907 2:0.666481 3:0.400303 4:0.382615 5:0.809037 6:0.232628 7:0.758723 8:0.464039 9:0.273764 10:0.129765 11:0.380777 12:0.488991 13:0.0528896 14:0.950825 15:3.93023 16:3.97082 17:0.375384 18:0.476655 19:0.309237 20:0.309237 21:0.48807 22:0.0841306 23:0.571214 24:0.0450813 25:0.92411 26:4.16901 27:4.35675 28:0.375384 29:0.395068 30:0 31:0.309237 32:0.203456 33:0.0841306 34:0.265917 35:0.197602 36:0.734854 37:4.89319 38:4.35675 39:0.395068 40:0.476655 41:0 42:0.309237 0:0 
-0.1177258915410471 1:1.44039 2:1.10547 3:0.204094 4:0.400341 5:0.920535 6:0.230962 7:0.646247 8:0.315362 9:0.0715282 10:0.0978074 11:0.246033 12:0.327345 13:0.0610628 14:0.822417 15:1.74674 16:1.90189 17:0.272899 18:0.374789 19:0.233119 20:0.233119 21:0.0574216 22:0.293979 23:0.308649 24:0.058748 25:0.635228 26:2.34321 27:2.49809 28:0.107588 29:0.272899 30:0 31:0.233119 32:0.0593555 33:0.293979 34:0.332237 35:0.0462613 36:0.887941 37:2.55822 38:2.49809 39:0.107588 40:0.374789 41:0 42:0.233119 0:0 
0.05176594054108229 1:0.813828 2:0.598505 3:0.462654 4:0.4803 5:0.669029 6:0.235676 7:0.784588 8:0.463531 9:0.411098 10:0.348527 11:0.215492 12:0.552373 13:0.0826616 14:0.812833 15:5.01612 16:4.63562 17:0.0699629 18:0.619669 19:0.10147 20:0.10147 21:0.391911 22:0.160418 23:0.49938 24:0.225953 25:0.932532 26:3.9106 27:4.06889 28:0.619669 29:0.627878 30:0 31:0.10147 32:0.492856 33:0.160418 34:0.60982 35:0.209701 36:0.649907 37:4.84792 38:4.06889 39:0.0699629 40:0.627878 41:0 42:0.10147 0:0 
0.1363465679780546 1:0.923726 2:0.614737 3:0.215741 4:0.273103 5:0.865302 6:0.36701 7:0.753871 8:0.304772 9:0.228816 10:0.211002 11:0.347644 12:0.30807 13:0.205121 14:0.381076 15:2.28881 16:2.87462 17:0.271862 18:0.30315 19:0.208567 20:0.208567 21:0.260961 22:0.190423 23:0.384478 24:0.208991 25:0.678246 26:3.11219 27:2.51956 28:0.178058 29:0.271862 30:0 31:0.208567 32:0.214487 33:0.190423 34:0.258334 35:0.303333 36:0.438485 37:3.50165 38:2.51956 39:0.178058 40:0.30315 41:0 42:0.208567 0:0 
-0.05392857721172166 1:1.85415 2:1.3084 3:0.373613 4:0.458494 5:0.9137 6:0.177239 7:0.652194 8:0.487159 9:0.119374 10:0.183745 11:0.730104 12:0.839355 13:0.0601621 14:0.670964 15:1.82674 16:1.97175 17:0.241782 18:0.376397 19:0.142047 20:0.142047 21:0.098488 22:0.724487 23:0.792203 24:0.0300588 25:0.762927 26:2.01155 27:2.08878 28:0.136741 29:0.241782 30:0 31:0.142047 32:0.0758891 33:0.724487 34:0.771263 35:0.0254541 36:0.782939 37:2.1882 38:2.08878 39:0.136741 40:0.376397 41:0 42:0.142047 0:0 
-0.01067179057290129 1:2.64328 2:2.17447 3:0.412605 4:0.498467 5:0.913057 6:0.174271 7:0.635336 8:0.515289 9:0.0809823 10:0.0549082 11:0.328398 12:0.370934 13:0.0316796 14:0.803926 15:1.69264 16:1.78189 17:0.169907 18:0.344493 19:0.188289 20:0.188289 21:0.0815244 22:0.294917 23:0.333089 24:0.0733205 25:0.701022 26:2.05965 27:2.21861 28:0.169907 29:0.177912 30:0 31:0.188289 32:0.106514 33:0.294917 34:0.341553 35:0.0964106 36:0.741428 37:2.43836 38:2.21861 39:0.177912 40:0.344493 41:0 42:0.188289 0:0 
0.02170647592968186 1:0.97597 2:0.695569 3:0.237101 4:0.439669 5:0.765938 6:0.240233 7:0.673771 8:0.44738 9:0.233897 10:0.148586 11:0.49872 12:0.581289 13:0.0731919 14:0.644949 15:3.93107 16:4.07391 17:0.215631 18:0.358405 19:0 20:0.462755 21:0.114076 22:0.49872 23:0.579173 24:0.0479442 25:0.998175 26:4.07499 27:4.07391 28:0.185363 29:0.215631 30:0 31:0.462755 32:0.43903 33:0.102695 34:0.473049 35:0.359255 36:0.678411 37:4.29964 38:5.13658 39:0.185363 40:0.358405 41:0.462755 42:0.462755 0:0 
-0.006517698207655256 1:2.40517 2:1.96005 3:0.450939 4:0.530889 5:0.905699 6:0.163051 7:0.63492 8:0.560602 9:0.0770993 10:0.0734964 11:0.531023 12:0.582126 13:0.030253 14:0.745866 15:1.80682 16:1.90553 17:0.207154 18:0.331396 19:0.164866 20:0.164866 21:0.0519766 22:0.524848 23:0.568924 24:0.016049 25:0.89137 26:2.09559 27:2.13074 28:0.126261 29:0.207154 30:0 31:0.164866 32:0.105825 33:0.524848 34:0.569988 35:0.0557747 36:0.723402 37:2.30361 38:2.13074 39:0.126261 40:0.331396 41:0 42:0.164866 0:0 
-0.002281663619795582 1:2.83613 2:2.35187 3:0.468969 4:0.549931 5:0.903547 6:0.161698 7:0.637381 8:0.563733 9:0.0912404 10:0.106624 11:0.343646 12:0.402971 13:0.0759629 14:0.670095 15:1.76819 16:1.97843 17:0.204557 18:0.344499 19:0.168725 20:0.168725 21:0.0851319 22:0.3563 23:0.392176 24:0.0658587 25:0.659666 26:2.14118 27:2.31824 28:0.142251 29:0.204557 30:0 31:0.168725 32:0.0819653 33:0.3563 34:0.417288 35:0.0452442 36:0.845918 37:2.43447 38:2.31824 39:0.142251 40:0.344499 41:0 42:0.168725 0:0 
0.03962152825798804 1:1.01477 2:0.68 3:0.428539 4:0.287539 5:0.902121 6:0.362329 7:0.68659 8:0.450317 9:0.103048 10:0.134037 11:0.441302 12:0.555703 13:0.044932 14:0.834505 15:4.49146 16:4.60682 17:0.103119 18:0.462764 19:0.188004 20:0.364523 21:0.100292 22:0.165626 23:0.256708 24:0.0649223 25:0.836047 26:3.45052 27:3.65667 28:0.461165 29:0.462764 30:0.364523 31:0.405138 32:0.0748147 33:0.533966 34:0.597994 35:0.0218046 36:0.926819 37:4.27281 38:4.24874 39:0.103119 40:0.461165 41:0.188004 42:0.405138 0:0 
0.1006272012938031 1:0.803608 2:0.60218 3:0.130984 4:0.394993 5:0.74015 6:0.249922 7:0.825346 8:0.329965 9:0.232666 10:0.0625489 11:0.4862 12:0.494755 13:0.0402397 14:0.436687 15:4.12615 16:4.19246 17:0.165491 18:0.460482 19:0.470118 20:0.470118 21:0.449788 22:0.0953376 23:0.483048 24:0.356557 25:0.616693 26:4.35911 27:5.38713 28:0.165491 29:0.37205 30:0 31:0.470118 32:0.185661 33:0.0953376 34:0.276675 35:0.0782667 36:0.869589 37:5.10194 38:5.38713 39:0.37205 40:0.460482 41:0 42:0.470118 0:0 
-0.09422384837317729 1:2.63077 2:2.04747 3:0.403813 4:0.905907 5:0.886001 6:0.159119 7:0.752189 8:0.547948 9:0.108343 10:0.146686 11:0.434824 12:0.54002 13:0.0672766 14:0.817719 15:2.32395 16:2.15443 17:0.295217 18:0.445942 19:0.322075 20:0.322075 21:0.0846223 22:0.263331 23:0.338981 24:0.0404266 25:0.971844 26:2.68582 27:2.7109 28:0.151891 29:0.295217 30:0 31:0.322075 32:0.0937209 33:0.263331 34:0.285239 35:0.106329 36:0.521853 37:3.00295 38:2.7109 39:0.151891 40:0.445942 41:0 42:0.322075 0:0 
-0.01614568544359858 1:1.04213 2:1.02681 3:0.0960055 4:1.31071 5:0.800609 6:0.350915 7:1.1188 8:0.102531 9:0.201557 10:0.120305 11:0.160391 12:0.228493 13:0.166802 14:0.609188 15:2.81984 16:3.58397 17:0.223139 18:0.403715 19:0.131171 20:0.131171 21:0.27739 22:0.0681148 23:0.322346 24:0.24431 25:0.697432 26:3.77991 27:4.39064 28:0.223139 29:0.332883 30:0 31:0.131171 32:0.206975 33:0.0681148 34:0.256829 35:0.208267 36:0.71896 37:5.04013 38:4.39064 39:0.332883 40:0.403715 41:0 42:0.131171 0:0 
0.08951000135231517 1:0.975113 2:0.666716 3:0.18459 4:0.633079 5:0.748569 6:0.320444 7:0.770253 8:0.407225 9:0.24784 10:0.115221 11:0.474441 12:0.52949 13:0.0643929 14:0.585463 15:4.00376 16:4.12215 17:0.216664 18:0.432614 19:0.1689 20:0.473926 21:0.147999 22:0.483347 23:0.590791 24:0.0607196 25:0.795849 26:4.1576 27:4.28456 28:0.216664 29:0.264739 30:0.1689 31:0.446937 32:0.480301 33:0.120116 34:0.54465 35:0.289422 36:0.646096 37:4.46741 38:5.3918 39:0.264739 40:0.432614 41:0.446937 42:0.473926 0:0 
0.05581904466237442 1:1.13826 2:0.884634 3:0.274352 4:0.616117 5:0.678132 6:0.200042 7:0.906256 8:0.513354 9:0.293653 10:0.165668 11:0.528978 12:0.633106 13:0.0710218 14:0.745664 15:4.04761 16:4.19794 17:0.226054 18:0.596644 19:0.418202 20:0.418202 21:0.470911 22:0.136903 23:0.592356 24:0.134762 25:0.81584 26:4.31039 27:4.75887 28:0.226054 29:0.433307 30:0 31:0.418202 32:0.24438 33:0.136903 34:0.358609 35:0.149042 36:0.845844 37:5.02738 38:4.75887 39:0.433307 40:0.596644 41:0 42:0.418202 0:0 
0.05555668784376196 1:1.63736 2:1.49094 3:0.319938 4:0.562003 5:0.691868 6:0.207532 7:0.870871 8:0.546116 9:0.135887 10:0.0589216 11:0.181964 12:0.221927 13:0.0687165 14:0.78391 15:4.60036 16:4.40651 17:0.131372 18:0.308144 19:0.131221 20:0.131221 21:0.185512 22:0.168983 23:0.348409 24:0.0619231 25:0.914163 26:3.83922 27:3.97457 28:0.199024 29:0.308144 30:0 31:0.131221 32:0.163226 33:0.168983 34:0.288469 35:0.162065 36:0.862228 37:4.21708 38:3.97457 39:0.131372 40:0.199024 41:0 42:0.131221 0:0 
0.02023534530781409 1:1.30519 2:1.15632 3:0.234399 4:0.589653 5:0.777427 6:0.235022 7:0.72839 8:0.542995 9:0.127291 10:0.119224 11:0.36183 12:0.437425 13:0.073931 14:0.508976 15:3.79867 16:3.95138 17:0.236137 18:0.404691 19:0.168965 20:0.168965 21:0.130913 22:0.367522 23:0.465503 24:0.0669384 25:0.727089 26:4.00054 27:4.18431 28:0.197528 29:0.236137 30:0 31:0.168965 32:0.131735 33:0.367522 34:0.454 35:0.0776314 36:0.949967 37:4.22479 38:4.18431 39:0.197528 40:0.404691 41:0 42:0.168965 0:0 
-0.00647659912722844 1:1.07629 2:0.743346 3:0.163958 4:0.693803 5:0.881617 6:0.254851 7:0.725671 8:0.281076 9:0.124252 10:0.100159 11:0.159936 12:0.22004 13:0.137001 14:0.579548 15:2.77442 16:2.25311 17:0.491862 18:0.679915 19:0.585487 20:0.585487 21:0.14919 22:0.447053 23:0.369078 24:0.100082 25:0.396547 26:4.5013 27:4.91304 28:0.231534 29:0.491862 30:0 31:0.585487 32:0.123408 33:0.447053 34:0.558284 35:0.0340737 36:0.811796 37:4.77808 38:4.91304 39:0.231534 40:0.679915 41:0 42:0.585487 0:0 
-0.0119969068584239 1:1.17248 2:0.86368 3:0.180532 4:0.648465 5:0.88637 6:0.266963 7:0.735374 8:0.274751 9:0.174402 10:0.234699 11:0.438487 12:0.660572 13:0.0449324 14:0.915706 15:1.73595 16:1.83561 17:0.368633 18:0.801721 19:0.114752 20:0.675333 21:0.142729 22:0.338633 23:0.426126 24:0.0948442 25:0.592406 26:2.28589 27:1.99365 28:0.368633 29:0.515767 30:0.114752 31:0.567987 32:0.145778 33:0.251565 34:0.173243 35:0.190289 36:0.361122 37:3.99073 38:4.57438 39:0.515767 40:0.801721 41:0.567987 42:0.675333 0:0 
-0.0128750086615128 1:1.64157 2:1.30495 3:0.221962 4:0.939255 5:0.868956 6:0.329816 7:1.0019 8:0.299674 9:0.17676 10:0.313652 11:0.133071 12:0.289297 13:0.487498 14:0.392928 15:1.67678 16:3.19418 17:0.840022 18:0.955219 19:0.657945 20:0.657945 21:0.137727 22:0.628685 23:0.554617 24:0.0626939 25:0.385309 26:4.54124 27:4.78125 28:0.138292 29:0.840022 30:0 31:0.657945 32:0.0789006 33:0.628685 34:0.670893 35:0.0326869 36:0.711345 37:4.67075 38:4.78125 39:0.138292 40:0.955219 41:0 42:0.657945 0:0 
-0.009580246790667015 1:1.64823 2:1.29759 3:0.36542 4:1.01559 5:0.803645 6:0.243265 7:1.11811 8:0.451541 9:0.332949 10:0.448027 11:0.331463 12:0.753838 13:0.0955083 14:0.928924 15:1.23721 16:1.35425 17:0.219699 18:1.11691 19:0.129264 20:0.773947 21:0.425158 22:0.350007 23:0.747924 24:0.0934944 25:0.920429 26:1.44644 27:1.5708 28:0.219699 29:1.06841 30:0.129264 31:0.771564 32:0.125663 33:0.447191 34:0.406291 35:0.0890215 36:0.446122 37:4.13808 38:4.46343 39:1.06841 40:1.11691 41:0.771564 42:0.773947 0:0 
-0.01744367171481378 1:2.15928 2:1.6622 3:0.224059 4:0.747001 5:0.743879 6:0.0942361 7:0.959809 8:0.562009 9:0.316097 10:0.0876485 11:0.881839 12:0.968064 13:0.00541962 14:0.941848 15:2.03444 16:2.0169 17:0.136996 18:2.03874 19:0 20:1.15595 21:0.0560923 22:0.881839 23:0.839814 24:0.0137427 25:0.392 26:2.07014 27:2.0169 28:0.136996 29:1.91479 30:0 31:1.15595 32:0.804552 33:0.279612 34:1.08063 35:0.0436614 36:0.916006 37:5.05288 38:4.8572 39:1.91479 40:2.03874 41:1.15595 42:1.15595 0:0 
-0.01656285722941726 1:3.06233 2:2.22532 3:0.53264 4:1.08229 5:0.874086 6:0.102613 7:0.670536 8:0.819878 9:0.0921697 10:0.0839234 11:1.46706 12:1.53999 13:0.00879747 14:0.891425 15:1.93553 16:1.92444 17:0.16954 18:0.355129 19:0.184515 20:0.184515 21:0.101704 22:1.30681 23:1.39918 24:0.010018 25:0.864021 26:1.95299 27:1.929 28:0.16954 29:0.18583 30:0 31:0.184515 32:0.0908818 33:1.30681 34:1.24455 35:0.0165265 36:0.335163 37:1.9622 38:1.929 39:0.18583 40:0.355129 41:0 42:0.184515 0:0 
-0.09191146516326681 1:0.846419 2:0.52629 3:0.149527 4:0.37905 5:0.884092 6:0.403373 7:0.72737 8:0.202366 9:0.127545 10:0.14301 11:0.154325 12:0.24379 13:0.185716 14:0.789583 15:1.26918 16:1.5708 17:0.253225 18:0.358914 19:0.126106 20:0.126106 21:0.0705622 22:0.138016 23:0.186442 24:0.102278 25:0.817021 26:2.27636 27:2.4371 28:0.233276 29:0.253225 30:0 31:0.126106 32:0.169064 33:0.138016 34:0.200892 35:0.312393 36:0.588586 37:3.06855 38:2.4371 39:0.233276 40:0.358914 41:0 42:0.126106 0:0 
-0.007999361921208512 1:1.02923 2:0.861536 3:0.168976 4:0.968404 5:0.767878 6:0.334543 7:0.832865 8:0.269725 9:0.365515 10:0.204135 11:0.19129 12:0.0853896 13:0.478429 14:0.317193 15:1.71787 16:3.46334 17:0.55433 18:0.865927 19:0.381119 20:0.381119 21:0.389392 22:0.286784 23:0.485137 24:0.296564 25:0.553777 26:4.53568 27:5.24046 28:0.55433 29:0.643044 30:0 31:0.381119 32:0.503018 33:0.286784 34:0.7853 35:0.0450796 36:0.945029 37:5.12805 38:5.24046 39:0.643044 40:0.865927 41:0 42:0.381119 0:0 
-0.01977454807771075 1:1.0838 2:0.941083 3:0.230462 4:0.941196 5:0.788379 6:0.297674 7:0.798889 8:0.352717 9:0.475002 10:0.275638 11:0.420398 12:0.304025 13:0.227268 14:0.455901 15:2.35619 16:3.12236 17:0.546688 18:1.17178 19:0.353098 20:0.353098 21:0.34974 22:0.194711 23:0.526542 24:0.110383 25:0.826975 26:4.00123 27:4.34306 28:0.546688 29:0.885944 30:0 31:0.353098 32:0.799628 33:0.194711 34:0.904422 35:0.28929 36:0.763958 37:4.96135 38:4.34306 39:0.885944 40:1.17178 41:0 42:0.353098 0:0 
-0.06024125258136707 1:1.49183 2:1.40135 3:0.329833 4:0.98713 5:0.785365 6:0.258686 7:0.685158 8:0.46851 9:0.239938 10:0.110703 11:0.42951 12:0.368807 13:0.0742076 14:0.636798 15:2.33347 16:2.60117 17:0.371453 18:0.537129 19:0 20:0.46195 21:0.276741 22:0.42951 23:0.696383 24:0.0426597 25:0.992712 26:2.59431 27:2.60117 28:0.371453 29:0.612056 30:0 31:0.46195 32:0.332368 33:0.206304 34:0.500079 35:0.155596 36:0.711639 37:4.09073 38:4.65531 39:0.537129 40:0.612056 41:0.46195 42:0.46195 0:0 
-3.02651903887657e-05 1:0.814974 2:0.717427 3:0.159058 4:0.989352 5:0.793742 6:0.356153 7:0.795262 8:0.257471 9:0.330364 10:0.186464 11:0.250102 12:0.186759 13:0.265966 14:0.381274 15:2.18799 16:3.46334 17:0.525289 18:0.838309 19:0.347396 20:0.347396 21:0.360311 22:0.236447 23:0.477801 24:0.260572 25:0.617978 26:4.36858 27:5.04094 28:0.525289 29:0.57473 30:0 31:0.347396 32:0.444316 33:0.236447 34:0.67022 35:0.0771239 36:0.99244 37:5.02509 38:5.04094 39:0.57473 40:0.838309 41:0 42:0.347396 0:0 
-0.01681315224640664 1:1.96364 2:1.67749 3:0.264236 4:1.47769 5:0.667037 6:0.202898 7:1.59115 8:0.42674 9:0.304146 10:0.275205 11:0.6203 12:0.513605 13:0.144294 14:0.290953 15:4.20116 16:4.65212 17:1.01746 18:1.04976 19:0.627653 20:0.627653 21:0.369465 22:1.24187 23:1.41591 24:0.0784306 25:0.498519 26:4.59204 27:4.71704 28:0.182211 29:1.01746 30:0 31:0.627653 32:0.267768 33:1.24187 34:1.45272 35:0.0391391 36:0.80505 37:4.64945 38:4.71704 39:0.182211 40:1.04976 41:0 42:0.627653 0:0 
-0.06084458789674729 1:1.11713 2:0.546455 3:0.432038 4:0.618284 5:0.961324 6:0.628804 7:0.624474 8:0.488463 9:0.162085 10:0.219758 11:0.35524 12:0.51223 13:0.115381 14:0.69124 15:2.04853 16:2.38088 17:0.711049 18:0.894946 19:0.514617 20:0.514617 21:0.102125 22:0.36426 23:0.417626 24:0.0712086 25:0.680143 26:3.77577 27:3.97667 28:0.222905 29:0.711049 30:0 31:0.514617 32:0.164372 33:0.36426 34:0.491861 35:0.0781154 36:0.770867 37:4.20906 38:3.97667 39:0.222905 40:0.894946 41:0 42:0.514617 0:0 
-0.01571003440586563 1:1.14503 2:0.904725 3:0.287372 4:0.977132 5:0.891038 6:0.479204 7:0.878434 8:0.345355 9:0.992254 10:2.50887 11:2.09043 12:0.760941 13:0.638999 14:0.845422 15:4.58298 16:4.71239 17:0 18:0.151255 19:2.41627 20:2.48129 21:0.0577107 22:0.711627 23:0.760941 24:0.012968 25:0.817394 26:4.58298 27:4.62502 28:0 29:0.151255 30:0.287264 31:2.48129 32:0.410176 33:0.47143 34:0.842218 35:0.088888 36:0.774761 37:4.41968 38:4.77404 39:0.151255 40:0.151255 41:0.287264 42:2.41627 0:0 
-0.02140298207794589 1:0.570779 2:0.373917 3:0.109951 4:0.424972 5:0.83456 6:0.369366 7:0.854148 8:0.0965847 9:0.137583 10:0.0915562 11:0.0852542 12:0.135762 13:0.230975 14:0.630026 15:3.40036 16:4.03765 17:0.184799 18:0.190204 19:0.0659706 20:0.0659706 21:0.233772 22:0.029123 23:0.246635 24:0.33729 25:0.779941 26:3.95024 27:4.42093 28:0.190204 29:0.241944 30:0 31:0.0659706 32:0.08742 33:0.029123 34:0.113255 35:0.132592 36:0.89208 37:4.64796 38:4.42093 39:0.184799 40:0.241944 41:0 42:0.0659706 0:0 
-0.01842120338672595 1:0.899222 2:0.744633 3:0.187659 4:1.0629 5:0.781232 6:0.411151 7:1.07339 8:0.282709 9:0.198398 10:0.117195 11:0.175712 12:0.287148 13:0.0514758 14:0.778391 15:2.24554 16:2.49809 17:0.653003 18:0.730432 19:0.411467 20:0.685591 21:0.0853696 22:0.651386 23:0.687556 24:0.0368004 25:0.561528 26:4.5121 27:4.6362 28:0.146771 29:0.730432 30:0.36964 31:0.685591 32:0.392629 33:0.359158 34:0.666062 35:0.161084 36:0.573641 37:4.40513 38:5.08479 39:0.146771 40:0.653003 41:0.36964 42:0.411467 0:0 
-0.01573811749891207 1:0.952545 2:0.652197 3:0.151096 4:0.887851 5:0.702144 6:0.41109 7:1.29301 8:0.153753 9:0.233849 10:0.391204 11:0.110986 12:0.392084 13:0.452246 14:0.430993 15:1.26323 16:2.85554 17:0.263146 18:0.45174 19:0.158314 20:0.270246 21:0.239761 22:0.371073 23:0.476561 24:0.16481 25:0.666488 26:1.94335 27:2.4942 28:0.263146 29:0.338625 30:0.160587 31:0.270246 32:0.0705837 33:0.268899 34:0.330841 35:0.0361343 36:0.779652 37:3.01028 38:3.19033 39:0.338625 40:0.45174 41:0.158314 42:0.160587 0:0 
-0.01904716281438053 1:0.727371 2:0.503856 3:0.179204 4:0.407583 5:0.803678 6:0.328887 7:0.896427 8:0.0990556 9:0.0854414 10:0.0620473 11:0.0491862 12:0.105161 13:0.119183 14:0.950318 15:1.28274 16:1.20362 17:0.179639 18:0.216619 19:0.069842 20:0.069842 21:0.124788 22:0.0269531 23:0.151466 24:0.0412861 25:0.929405 26:3.37268 27:3.54648 28:0.11125 29:0.216619 30:0 31:0.069842 32:0.0694892 33:0.0269531 34:0.0863973 35:0.243261 36:0.776465 37:3.9983 38:3.54648 39:0.11125 40:0.179639 41:0 42:0.069842 0:0 
-0.008827216502533547 1:1.59156 2:0.932202 3:0.394297 4:0.275695 5:0.895958 6:0.454829 7:0.750424 8:0.63662 9:0.159196 10:0.166579 11:0.374616 12:0.506569 13:0.07446 14:0.76926 15:2.1259 16:2.33733 17:1.06956 18:1.29199 19:0.89749 20:0.89749 21:0.0808898 22:0.65087 23:0.686013 24:0.0347236 25:0.692699 26:4.30505 27:4.41801 28:0.250414 29:1.06956 30:0 31:0.89749 32:0.230118 33:0.65087 34:0.861517 35:0.0394043 36:0.861756 37:4.53288 38:4.41801 39:0.250414 40:1.29199 41:0 42:0.89749 0:0 
-0.04460188396655741 1:1.45015 2:0.946522 3:0.358693 4:0.931708 5:0.724003 6:0.404079 7:0.990098 8:0.261997 9:0.379043 10:0.376962 11:0.281385 12:0.553848 13:0.214061 14:0.925193 15:2.11787 16:1.96724 17:0.520475 18:0.784484 19:0.444098 20:0.444098 21:0.589787 22:0.393608 23:0.680577 24:0.331696 25:0.386638 26:2.39842 27:3.6741 28:0.520475 29:0.613176 30:0 31:0.444098 32:0.170379 33:0.393608 34:0.563023 35:0.0122385 36:0.90589 37:3.58144 38:3.6741 39:0.613176 40:0.784484 41:0 42:0.444098 0:0 
-0.0009220511120854571 1:0.581936 2:0.427488 3:0.121583 4:1.47884 5:0.947356 6:0.437287 7:0.722302 8:0.230552 9:0.152679 10:0.107405 11:0.696408 12:0.683976 13:0.0492523 14:0.278139 15:4.00376 16:4.66243 17:0.120679 18:0.207498 19:0.198016 20:0.198016 21:0.217212 22:0.514667 23:0.718989 24:0.0385953 25:0.47239 26:4.6379 27:4.90978 28:0.120679 29:0.12107 30:0 31:0.198016 32:0.133421 33:0.514667 34:0.647479 35:0.00702146 36:0.97055 37:4.8891 38:4.90978 39:0.12107 40:0.207498 41:0 42:0.198016 0:0 
-0.04629629573682111 1:0.626434 2:0.492973 3:0.0915409 4:1.49571 5:0.727475 6:0.325597 7:1.22401 8:0.214888 9:0.25731 10:0.207327 11:0.108359 12:0.315677 13:0.00332139 14:0.915249 15:3.53638 16:3.7296 17:0.158145 18:0.392183 19:0.197997 20:0.197997 21:0.17377 22:0.303475 23:0.471124 24:0.0385069 25:0.52035 26:3.99356 27:4.59296 28:0.158145 29:0.23807 30:0 31:0.197997 32:0.390834 33:0.303475 34:0.694143 35:0.00790992 36:0.992848 37:4.58107 38:4.59296 39:0.23807 40:0.392183 41:0 42:0.197997 0:0 
-0.03923521437600905 1:1.67029 2:1.19046 3:0.184712 4:0.236589 5:0.686956 6:0.21274 7:1.00805 8:0.204729 9:0.357065 10:0.502922 11:0.458016 12:0.9579 13:0.0265283 14:0.932419 15:3.94797 16:4.06052 17:0.496849 18:0.820523 19:0.298004 20:0.298004 21:0.382302 22:0.194144 23:0.574279 24:0.0387823 25:0.931581 26:4.44477 27:4.58269 28:0.337815 29:0.496849 30:0 31:0.298004 32:0.18597 33:0.194144 34:0.341722 35:0.140996 36:0.758562 37:4.99362 38:4.58269 39:0.337815 40:0.820523 41:0 42:0.298004 0:0 
-0.0651818706730929 1:1.7954 2:1.50757 3:0.142488 4:0.225628 5:0.695858 6:0.2674 7:1.04521 8:0.17374 9:0.0852777 10:0.102898 11:0.243644 12:0.265632 13:0.126607 14:0.492467 15:4.42983 16:3.79267 17:0.0748569 18:0.156748 19:0.0346868 20:0.0346868 21:0.0845793 22:0.276327 23:0.358873 24:0.0186363 25:0.904342 26:3.87619 27:3.94921 28:0.0882506 29:0.156748 30:0 31:0.0346868 32:0.0683554 33:0.276327 34:0.320011 35:0.0563516 36:0.757072 37:4.13808 38:3.94921 39:0.0748569 40:0.0882506 41:0 42:0.0346868 0:0 
-0.01688234842424379 1:1.3942 2:1.08036 3:0.0895555 4:0.158745 5:0.61863 6:0.175952 7:0.967114 8:0.170391 9:0.295145 10:0.501497 11:0.115662 12:0.410575 13:0.761547 14:0.289964 15:4.3394 16:0.0767719 17:0 18:0.270282 19:0.516508 20:0.516508 21:0.239607 22:0.407851 23:0.643323 24:0.027553 25:0.800455 26:4.06609 27:3.81633 28:0.270282 29:0.270282 30:0 31:0.516508 32:0.14433 33:0.407851 34:0.410575 35:0.112839 36:0.473869 37:4.3394 38:3.81633 39:0 40:0.270282 41:0 42:0.516508 0:0 
-0.01703025158569308 1:2.19813 2:1.49544 3:0.545127 4:0.383744 5:0.847218 6:0.348336 7:0.925365 8:0.219213 9:0.382804 10:0.464851 11:0.414067 12:0.84792 13:0.089962 14:0.788855 15:3.48756 16:3.86042 17:0.474487 18:0.899529 19:0.361575 20:0.638892 21:0.404095 22:0.171375 23:0.496871 24:0.269165 25:0.714647 26:4.24874 27:4.80305 28:0.451655 29:0.474487 30:0.288181 31:0.361575 32:0.279468 33:0.261835 34:0.263611 35:0.357013 36:0.384227 37:4.99069 38:6.10648 39:0.451655 40:0.899529 41:0.288181 42:0.638892 0:0 
-0.002150852073300444 1:1.79586 2:1.19971 3:0.371821 4:0.502389 5:0.842384 6:0.360531 7:0.894307 8:0.220683 9:0.171511 10:0.0911667 11:0.773883 12:0.864969 13:0.00149477 14:0.963893 15:3.53961 16:3.5221 17:0.331581 18:0.818916 19:0 20:0.705574 21:0.287564 22:0.773883 23:0.734365 24:0.120995 25:0.453667 26:3.96088 27:3.5221 28:0.331581 29:0.552581 30:0 31:0.705574 32:0.135803 33:0.26714 34:0.40039 35:0.0255128 36:0.886977 37:4.81618 38:4.67907 39:0.552581 40:0.818916 41:0.705574 42:0.705574 0:0 
-0.01181916695508806 1:1.09224 2:0.753364 3:0.119568 4:0.489561 5:0.677691 6:0.339158 7:1.12572 8:0.169939 9:0.33255 10:0.232999 11:0.328181 12:0.558146 13:0.0278866 14:0.963741 15:1.20825 16:1.15839 17:0.914868 18:1.1528 19:0.410103 20:0.536307 21:0.479761 22:0.21403 23:0.616306 24:0.234382 25:0.651832 26:3.92699 27:4.67075 28:0.466663 29:1.1528 30:0.133904 31:0.536307 32:0.284888 33:0.113355 34:0.382361 35:0.144646 36:0.801244 37:4.71239 38:5.17604 39:0.466663 40:0.914868 41:0.133904 42:0.410103 0:0 
-0.05075815730418654 1:1.56707 2:1.12955 3:0.176058 4:0.199739 5:0.715567 6:0.290211 7:1.27945 8:0.203971 9:0.307981 10:0.357174 11:0.195776 12:0.512466 13:0.167925 14:0.810531 15:1.31019 16:1.71269 17:0.254998 18:0.600992 19:0.1716 20:0.344081 21:0.387259 22:0.272234 23:0.546829 24:0.23027 25:0.602712 26:1.79288 27:2.61352 28:0.254998 29:0.350956 30:0.1716 31:0.240722 32:0.179509 33:0.503242 34:0.682576 35:0.00429903 36:0.997957 37:2.30361 38:2.30219 39:0.350956 40:0.600992 41:0.240722 42:0.344081 0:0 
-0.09601699994590161 1:1.17233 2:0.763647 3:0.488251 4:0.591659 5:0.773199 6:0.37864 7:0.924123 8:0.136341 9:0.162797 10:0.124425 11:0.425577 12:0.549949 13:0.00239068 14:0.994139 15:3.51723 16:3.5115 17:0.283556 18:0.471255 19:0.262006 20:0.262006 21:0.196542 22:0.240271 23:0.436286 24:0.0141479 25:0.955514 26:4.06252 27:4.13331 28:0.204271 29:0.283556 30:0 31:0.262006 32:0.167422 33:0.240271 34:0.351074 35:0.13865 36:0.647584 37:4.65246 38:4.13331 39:0.204271 40:0.471255 41:0 42:0.262006 0:0 
-0.002725397827536641 1:1.2243 2:0.800023 3:0.262338 4:0.932386 5:0.82108 6:0.301772 7:0.962578 8:0.195344 9:0.0774184 10:0.0912834 11:0.609713 12:0.679583 13:0.029059 14:0.772374 15:3.95099 16:3.82261 17:0.119631 18:0.55575 19:0.0639488 20:0.533561 21:0.0880997 22:0.665527 23:0.630586 24:0.0397639 25:0.379842 26:3.68201 27:3.87785 28:0.119631 29:0.561721 30:0.0639488 31:0.573136 32:0.052872 33:0.256724 34:0.308452 35:0.0123759 36:0.968893 37:4.88833 38:4.90978 39:0.55575 40:0.561721 41:0.533561 42:0.573136 0:0 
-0.02856221877621009 1:0.980665 2:0.535293 3:0.158317 4:0.221138 5:0.778328 6:0.538241 7:1.09098 8:0.135955 9:0.201861 10:0.111391 11:0.31187 12:0.422119 13:0.0139602 14:0.987366 15:3.98407 16:3.97044 17:0.0678525 18:0.0678525 19:0 20:0.33793 21:0.103655 22:0.31187 23:0.406824 24:0.0371685 25:0.799054 26:4.19324 27:3.97044 28:0 29:0.0678525 30:0 31:0.33793 32:0.390536 33:0.22159 34:0.406824 35:0.38809 36:0.427666 37:4.19324 38:5.46922 39:0 40:0.0678525 41:0.33793 42:0.33793 0:0 
-0.01686973903973779 1:1.8118 2:1.27243 3:0.317579 4:0.895811 5:0.63156 6:0.434819 7:1.04782 8:0.252855 9:0.2676 10:0.656807 11:0.170882 12:0.543781 13:0.694238 14:0.317294 15:5.0929 16:0.714091 17:0.349001 18:0.449636 19:0.53733 20:0.53733 21:0.0950817 22:0.368968 23:0.391261 24:0.0776281 25:0.58426 26:3.94192 27:4.15622 28:0.132885 29:0.449636 30:0 31:0.53733 32:0.0509124 33:0.368968 34:0.403494 35:0.0308797 36:0.854692 37:4.24027 38:4.15622 39:0.132885 40:0.349001 41:0 42:0.53733 0:0 
-0.0192551508133549 1:2.20821 2:1.52579 3:0.502427 4:1.47539 5:0.586052 6:0.281928 7:1.18725 8:0.367762 9:0.570884 10:0.167809 11:0.902915 12:1.03421 13:0.0344417 14:0.897778 15:4.37009 16:4.40804 17:0.0600558 18:0.454737 19:0.722063 20:0.722063 21:0.722439 22:0.283361 23:0.763654 24:0.393944 25:0.790256 26:3.99746 27:4.44402 28:0.415005 29:0.454737 30:0 31:0.722063 32:0.822404 33:0.283361 34:0.982801 35:0.268848 36:0.926096 37:4.26673 38:4.44402 39:0.0600558 40:0.415005 41:0 42:0.722063 0:0 
-0.01637562707366779 1:1.3238 2:0.973965 3:0.209176 4:0.527872 5:0.561908 6:0.207236 7:0.887614 8:0.306971 9:0.408138 10:0.680118 11:0.403758 12:1.01447 13:0.150262 14:0.756347 15:1.9513 16:2.43934 17:1.04955 18:1.42026 19:0.354011 20:0.354011 21:0.113125 22:0.141231 23:0.253111 24:0.0281894 25:0.847902 26:3.79568 27:3.55982 28:0.463913 29:1.04955 30:0 31:0.354011 32:0.43117 33:0.141231 34:0.406222 35:0.502621 36:0.42948 37:4.9803 38:3.55982 39:0.463913 40:1.42026 41:0 42:0.354011 0:0 
-0.01048798651351978 1:0.873983 2:0.703789 3:0.157959 4:1.22786 5:0.582859 6:0.369546 7:0.835228 8:0.29874 9:0.4161 10:0.135207 11:0.328393 12:0.269056 13:0.131023 14:0.39358 15:2.43297 16:3.20967 17:0.552491 18:0.911793 19:0.470591 20:0.470591 21:0.625454 22:0.161894 23:0.580903 24:0.546767 25:0.63694 26:4.19599 27:5.10947 28:0.552491 29:0.906152 30:0 31:0.470591 32:0.487638 33:0.161894 34:0.649079 35:0.0206283 36:0.990656 37:5.08612 38:5.10947 39:0.906152 40:0.911793 41:0 42:0.470591 0:0 
-0.02194927170429703 1:0.796461 2:0.454375 3:0.102814 4:0.543473 5:0.95277 6:0.402048 7:0.639354 8:0.186226 9:0.0695951 10:0.0505187 11:0.239954 12:0.288689 13:0.0160913 14:0.962541 15:1.5708 16:1.54378 17:0.144582 18:0.7186 19:0 20:0.620694 21:0.108175 22:0.239954 23:0.21156 24:0.148819 25:0.40949 26:2.08319 27:1.54378 28:0.144582 29:0.627245 30:0 31:0.620694 32:0.0500916 33:0.381895 34:0.431128 35:0.0072468 36:0.8642 37:4.78579 38:4.71239 39:0.627245 40:0.7186 41:0.620694 42:0.620694 0:0 
-0.01385444232634423 1:2.1729 2:1.51087 3:0.429322 4:1.16143 5:0.885158 6:0.154192 7:0.700337 8:0.608946 9:0.221879 10:0.0772006 11:1.16765 12:1.23055 13:0.0118883 14:0.629697 15:4.36196 16:4.28186 17:0.267257 18:0.728123 19:0.412509 20:0.922879 21:0.302312 22:0.76508 23:1.03902 24:0.0456891 25:0.859291 26:4.4813 27:4.40004 28:0.267257 29:0.550024 30:0.412509 31:0.511662 32:0.286125 33:0.274248 34:0.552783 35:0.0535823 36:0.949141 37:4.7009 38:4.78543 39:0.550024 40:0.728123 41:0.511662 42:0.922879 0:0 
-0.02928177778358637 1:2.01145 2:1.79762 3:0.512383 4:1.1204 5:0.816899 6:0.289068 7:0.728002 8:0.238638 9:0.102311 10:0.170302 11:0.410872 12:0.555645 13:0.0598353 14:0.800619 15:3.43844 16:3.62607 17:0.439075 18:0.534317 19:0.35247 20:0.35247 21:0.0831727 22:0.331329 23:0.353727 24:0.0746475 25:0.624751 26:4.34404 27:4.58107 28:0.0987411 29:0.439075 30:0 31:0.35247 32:0.053458 33:0.331329 34:0.383014 35:0.0121998 36:0.958201 37:4.60345 38:4.58107 39:0.0987411 40:0.534317 41:0 42:0.35247 0:0 
-0.03375175026318097 1:1.98143 2:1.8558 3:0.386043 4:0.536583 5:0.767395 6:0.15556 7:0.850717 8:0.0673327 9:0.160966 10:0.127396 11:0.520494 12:0.646567 13:0.0100495 14:0.82841 15:2.79015 16:2.6691 17:0.376247 18:0.599546 19:0.239904 20:0.239904 21:0.113451 22:0.291449 23:0.342068 24:0.102804 25:0.728975 26:3.30297 27:2.96488 28:0.245728 29:0.376247 30:0 31:0.239904 32:0.242051 33:0.291449 34:0.139831 35:0.309562 36:0.264443 37:3.86042 38:2.96488 39:0.245728 40:0.599546 41:0 42:0.239904 0:0 
-0.1893517909614716 1:1.51422 2:1.32526 3:0.187906 4:0.583892 5:0.812715 6:0.227091 7:0.761078 8:0.0673146 9:0.0950253 10:0.122641 11:0.396129 12:0.439397 13:0.0878321 14:0.538431 15:2.81984 16:3.18601 17:0.223364 18:0.3368 19:0.120349 20:0.120349 21:0.0571305 22:0.324906 23:0.381383 24:0.00779563 25:0.989898 26:3.49781 27:3.49036 28:0.14464 29:0.223364 30:0 31:0.120349 32:0.105305 33:0.324906 34:0.291492 35:0.10375 36:0.45207 37:3.84716 38:3.49036 39:0.14464 40:0.3368 41:0 42:0.120349 0:0 
-0.007954466889016815 1:1.4228 2:0.78206 3:0.375976 4:0.61569 5:0.932868 6:0.549689 7:0.802474 8:0.445236 9:0.112965 10:0.0598189 11:0.566031 12:0.606362 13:0.0240091 14:0.816309 15:1.59335 16:1.65394 17:0.711744 18:1.24573 19:0.852429 20:1.15611 21:0.221468 22:0.45856 23:0.398494 24:0.160423 25:0.380357 26:3.08284 27:3.58554 28:0.696381 29:0.711744 30:0.446556 31:0.852429 32:0.0576095 33:0.609747 34:0.647041 35:0.022256 36:0.813016 37:4.44805 38:4.38556 39:0.696381 40:1.24573 41:0.446556 42:1.15611 0:0 
-0.01886865495723835 1:1.07608 2:0.843109 3:0.184378 4:1.16197 5:0.726193 6:0.293615 7:1.45974 8:0.126331 9:0.349192 10:0.466883 11:0.153283 12:0.487465 13:0.406788 14:0.472498 15:1.29865 16:0.0554985 17:0.0269104 18:0.260394 19:0.368932 20:0.420955 21:0.118479 22:0.429242 23:0.485789 24:0.0727326 25:0.58727 26:1.25604 27:0.86217 28:0.0269104 29:0.286484 30:0.368932 31:0.576841 32:0.462214 33:0.270752 34:0.517739 35:0.349441 36:0.406618 37:2.1588 38:3.171 39:0.260394 40:0.286484 41:0.420955 42:0.576841 0:0 
-0.01303570903858453 1:1.53626 2:0.793901 3:0.408879 4:0.253638 5:0.950244 6:0.561672 7:0.721754 8:0.45762 9:0.169913 10:0.073242 11:0.575482 12:0.611767 13:0.0341477 14:0.677514 15:1.85121 16:1.96367 17:0.385288 18:0.906864 19:0.589124 20:0.972582 21:0.292022 22:0.369388 23:0.443159 24:0.227077 25:0.489975 26:2.54762 27:3.20816 28:0.385288 29:0.547329 30:0.39388 31:0.589124 32:0.144476 33:0.556166 34:0.486401 35:0.0776196 36:0.331219 37:3.73231 38:3.98283 39:0.547329 40:0.906864 41:0.39388 42:0.972582 0:0 
-0.05044200438429183 1:0.506549 2:0.312077 3:0.0878795 4:0.921488 5:0.703529 6:0.384229 7:1.0278 8:0.159068 9:0.209638 10:0.141666 11:0.221281 12:0.180129 13:0.220509 14:0.3056 15:1.79211 16:0.96007 17:0.395554 18:0.603254 19:0.400641 20:0.400641 21:0.371023 22:0.200599 23:0.539607 24:0.147175 25:0.682595 26:3.76362 27:4.34984 28:0.452538 29:0.603254 30:0 31:0.400641 32:0.116225 33:0.200599 34:0.223206 35:0.173642 36:0.723184 37:4.69112 38:4.34984 39:0.395554 40:0.452538 41:0 42:0.400641 0:0 
-0.0158381478023336 1:0.656759 2:0.463073 3:0.184318 4:0.446997 5:0.694876 6:0.464001 7:1.02899 8:0.168489 9:0.282314 10:0.256067 11:0.071921 12:0.266315 13:0.411395 14:0.510292 15:3.45259 16:2.13753 17:0.248668 18:0.4311 19:0 20:0.206471 21:0.334615 22:0.071921 23:0.288483 24:0.692308 25:0.30337 26:4.13895 27:2.13753 28:0.235478 29:0.248668 30:0 31:0.206471 32:0.256259 33:0.140712 34:0.359539 35:0.191601 36:0.744053 37:4.95737 38:5.43664 39:0.235478 40:0.4311 41:0.206471 42:0.206471 0:0 
-0.01110573649755919 1:1.99414 2:1.83877 3:0.49933 4:0.851351 5:0.844738 6:0.310468 7:0.727391 8:0.620116 9:0.0820223 10:0.0591673 11:1.33877 12:1.38159 13:0.00955836 14:0.801049 15:1.57789 16:1.60782 17:1.81862 18:1.88272 19:1.82212 20:1.84647 21:0.107263 22:0.599627 23:0.596736 24:0.0571339 25:0.434997 26:3.92107 27:4.1312 28:0.154621 29:1.81862 30:0.127719 31:1.82212 32:0.0796366 33:0.592295 34:0.595057 35:0.0427049 36:0.532116 37:4.23022 38:4.36651 39:0.154621 40:1.88272 41:0.127719 42:1.84647 0:0 
-0.01024449695953281 1:2.10635 2:1.56559 3:0.525512 4:0.649457 5:0.70493 6:0.464856 7:1.19188 8:0.245531 9:0.247016 10:0.539013 11:0.40574 12:0.505768 13:0.397498 14:0.389167 15:2.08587 16:0.854255 17:0.446909 18:0.509466 19:0.511116 20:0.511116 21:0.118372 22:0.737751 23:0.843235 24:0.0216811 25:0.897584 26:1.51146 27:1.5708 28:0.0824726 29:0.509466 30:0 31:0.511116 32:0.0836616 33:0.737751 34:0.818771 35:0.00854362 36:0.861017 37:1.6421 38:1.5708 39:0.0824726 40:0.446909 41:0 42:0.511116 0:0 
-0.03821966320972058 1:1.55697 2:1.02463 3:0.415094 4:0.80268 5:0.82901 6:0.57068 7:0.819045 8:0.236372 9:0.190227 10:0.259693 11:0.252229 12:0.498753 13:0.0734348 14:0.842751 15:2.09407 16:1.83996 17:0.533247 18:0.708088 19:0.42312 20:0.42312 21:0.134341 22:0.302963 23:0.39549 24:0.0898625 25:0.715932 26:3.27291 27:3.57037 28:0.291239 29:0.533247 30:0 31:0.42312 32:0.176647 33:0.302963 34:0.353897 35:0.166313 36:0.686332 37:3.88592 38:3.57037 39:0.291239 40:0.708088 41:0 42:0.42312 0:0 
-0.03041998599434386 1:1.00608 2:0.578867 3:0.191464 4:0.288841 5:0.766593 6:0.400572 7:0.90749 8:0.172761 9:0.309821 10:0.382704 11:0.106279 12:0.475575 13:0.14338 14:0.811069 15:2.49455 16:2.03444 17:0.495222 18:0.881999 19:0.348847 20:0.348847 21:0.321894 22:0.242694 23:0.280164 24:0.420103 25:0.37005 26:3.78509 27:5.02339 28:0.42657 29:0.495222 30:0 31:0.348847 32:0.224864 33:0.242694 34:0.459341 35:0.0575 36:0.891363 37:4.84279 38:5.02339 39:0.42657 40:0.881999 41:0 42:0.348847 0:0 
-0.1186516968084154 1:1.64017 2:1.08715 3:0.539875 4:0.312352 5:0.822927 6:0.370001 7:0.937603 8:0.26977 9:0.160691 10:0.176651 11:0.353604 12:0.502365 13:0.0721027 14:0.83658 15:2.91736 16:3.11457 17:0.294439 18:0.412328 19:0.160652 20:0.160652 21:0.129785 22:0.464749 23:0.59443 24:0.00314773 25:0.963481 26:3.45886 27:3.42539 28:0.148436 29:0.294439 30:0 31:0.160652 32:0.175638 33:0.464749 34:0.579483 35:0.081793 36:0.688916 37:3.74992 38:3.42539 39:0.148436 40:0.412328 41:0 42:0.160652 0:0 
-0.01869231764468006 1:0.804912 2:0.419396 3:0.191688 4:0.222455 5:0.704882 6:0.510512 7:0.921018 8:0.131454 9:3.05879 10:4.44506 11:4.51793 12:0.295277 13:0.410508 14:0.50596 15:1.8693 16:3.07029 17:0.352965 18:0.610027 19:0 20:4.56567 21:4.54295 22:4.51793 23:0.290739 24:0.51723 25:0.955384 26:3.16484 27:3.07029 28:0.352965 29:0.474782 30:0 31:4.56567 32:0.188353 33:0.155613 34:0.314931 35:0.145736 36:0.735757 37:4.82305 38:5.34514 39:0.474782 40:0.610027 41:4.56567 42:4.56567 0:0 
-0.01899618013617969 1:1.48502 2:0.903453 3:0.416786 4:1.21808 5:0.74944 6:0.238703 7:1.00212 8:0.335458 9:0.270395 10:0.299275 11:0.628537 12:0.925043 13:0.0169564 14:0.998519 15:4.31052 16:4.31215 17:0.483982 18:0.574923 19:0.115798 20:0.305828 21:0.316076 22:0.526106 23:0.574683 24:0.183324 25:0.62499 26:4.53772 27:4.2039 28:0.0912333 29:0.483982 30:0.115798 31:0.247039 32:0.195835 33:0.372715 34:0.526246 35:0.087653 36:0.786221 37:4.67187 38:4.46741 39:0.0912333 40:0.574923 41:0.247039 42:0.305828 0:0 
-0.01440656799992843 1:1.2514 2:1.08318 3:0.544452 4:1.78804 5:0.923958 6:0.477978 7:0.736351 8:0.395121 9:0.225045 10:0.322562 11:0.972424 12:1.24547 13:0.049723 14:0.958913 15:1.54256 16:1.55798 17:0.469838 18:1.51582 19:0 20:1.2622 21:0.164697 22:0.972424 23:0.905857 24:0.0511464 25:0.611777 26:1.68614 27:1.55798 28:0.469838 29:1.2258 30:0 31:1.2622 32:0.187877 33:0.359009 34:0.490421 35:0.102297 36:0.684126 37:3.91161 38:4.16964 39:1.2258 40:1.51582 41:1.2622 42:1.2622 0:0 
-0.01268586526811619 1:0.595065 2:0.703434 3:0.128443 4:1.74599 5:0.724155 6:0.362898 7:1.15263 8:0.161717 9:0.147444 10:0.131327 11:0.0452474 12:0.145971 13:0.346985 14:0.683601 15:2.22067 16:2.84309 17:0.235702 18:0.564623 19:0 20:0.307167 21:0.116828 22:0.0452474 23:0.142044 24:0.267538 25:0.783866 26:3.2129 27:2.84309 28:0.235702 29:0.349043 30:0 31:0.307167 32:0.194176 33:0.285657 34:0.430917 35:0.117574 36:0.593582 37:4.74746 38:5.10071 39:0.349043 40:0.564623 41:0.307167 42:0.307167 0:0 
-0.01934970181105305 1:1.46567 2:1.23928 3:0.410128 4:1.60454 5:0.698722 6:0.350082 7:0.746452 8:0.405299 9:0.508918 10:0.381334 11:0.200006 12:0.552861 13:0.139533 14:0.873747 15:3.25474 16:3.47947 17:0.894039 18:0.916378 19:0.194011 20:0.194011 21:0.464323 22:0.221 23:0.579061 24:0.271162 25:0.687167 26:3.68201 27:4.14566 28:0.894039 29:0.964694 30:0 31:0.194011 32:0.681096 33:0.221 34:0.838792 35:0.216123 36:0.737177 37:4.77385 38:4.14566 39:0.916378 40:0.964694 41:0 42:0.194011 0:0 
-0.0105159028160859 1:1.96551 2:1.58722 3:0.398861 4:0.721011 5:0.873102 6:0.582888 7:0.897727 8:0.192111 9:0.187459 10:0.213312 11:0.605928 12:0.665547 13:0.103111 14:0.465721 15:1.6411 16:1.24444 17:0.938929 18:0.945259 19:0.794095 20:0.794095 21:0.277988 22:0.222818 23:0.332376 24:0.311067 25:0.518187 26:4.10684 27:5.01089 28:0.27065 29:0.938929 30:0 31:0.794095 32:0.0710776 33:0.222818 34:0.290176 35:0.028416 36:0.904985 37:4.90978 38:5.01089 39:0.27065 40:0.945259 41:0 42:0.794095 0:0 
-0.008063302809301717 1:0.952897 2:0.64411 3:0.154225 4:0.226001 5:0.709171 6:0.345283 7:0.811469 8:0.0995596 9:0.293899 10:0.369698 11:0.184965 12:0.534594 13:0.122378 14:0.780021 15:3.34199 16:2.87534 17:0.50607 18:0.50607 19:0 20:0.378775 21:0.268852 22:0.184965 23:0.185268 24:0.517402 25:0.278765 26:4.50837 27:2.87534 28:0 29:0.50607 30:0 31:0.378775 32:0.243148 33:0.194704 34:0.185268 35:0.441821 36:0.397952 37:4.50837 38:5.7708 39:0 40:0.50607 41:0.378775 42:0.378775 0:0 
-0.009356836499306641 1:1.49644 2:1.18373 3:0.198312 4:0.487699 5:0.868027 6:0.174034 7:0.703157 8:0.285656 9:0.273451 10:0.0823063 11:0.620669 12:0.698137 13:0.0134455 14:0.839923 15:1.76028 16:1.84689 17:1.06339 18:1.69651 19:0.942085 20:0.942085 21:0.058204 22:0.3313 23:0.382476 24:0.0247979 25:0.811714 26:4.47316 27:4.59528 28:0.638331 29:1.06339 30:0 31:0.942085 32:0.679844 33:0.3313 34:1.00606 35:0.0458046 36:0.876478 37:4.8622 38:4.59528 39:0.638331 40:1.69651 41:0 42:0.942085 0:0 
-0.02513704587449532 1:0.847566 2:0.597256 3:0.102201 4:0.515094 5:0.82389 6:0.561412 7:0.766458 8:0.129988 9:0.135526 10:0.0528079 11:0.144205 12:0.172907 13:0.0896516 14:0.689227 15:3.23807 16:3.52991 17:0.0955681 18:0.362024 19:0.251704 20:0.251704 21:0.241036 22:0.286882 23:0.206841 24:0.309095 25:0.372173 26:3.76834 27:4.49372 28:0.0955681 29:0.29007 30:0 31:0.251704 32:0.112735 33:0.286882 34:0.387438 35:0.0487092 36:0.747412 37:4.2315 38:4.49372 39:0.29007 40:0.362024 41:0 42:0.251704 0:0 
-0.01998632480951087 1:1.12824 2:0.724173 3:0.11368 4:0.644224 5:0.651617 6:0.270724 7:1.25412 8:0.113182 9:0.27224 10:0.119635 11:0.401764 12:0.358593 13:0.093908 14:0.473084 15:1.46406 16:1.11535 17:0 18:0.605254 19:0.368955 20:0.368955 21:0.282767 22:0.183945 23:0.358593 24:0.28505 25:0.594786 26:1.46406 27:2.27529 28:0 29:0.605254 30:0 31:0.368955 32:0.414319 33:0.183945 34:0.539592 35:0.219042 36:0.826664 37:2.6358 38:2.27529 39:0.605254 40:0.605254 41:0 42:0.368955 0:0 
-0.04662265263711617 1:0.870151 2:0.538805 3:0.102993 4:0.291445 5:0.729887 6:0.417145 7:0.771055 8:0.125982 9:0.198876 10:0.137959 11:0.182959 12:0.180026 13:0.248149 14:0.397584 15:2.03444 16:2.9442 17:0.268502 18:0.403875 19:0.0612973 20:0.0612973 21:0.214328 22:0.136479 23:0.347432 24:0.055455 25:0.931708 26:3.11986 27:3.24126 28:0.268502 29:0.346281 30:0 31:0.0612973 32:0.244341 33:0.136479 34:0.296122 35:0.304348 36:0.618996 37:4.00619 38:3.24126 39:0.346281 40:0.403875 41:0 42:0.0612973 0:0 
-0.01194961215101245 1:1.44498 2:0.853098 3:0.451479 4:1.26662 5:0.849454 6:0.51896 7:0.925635 8:0.334477 9:0.48109 10:0.112971 11:0.324456 12:0.386726 13:0.0849545 14:0.669785 15:2.25541 16:1.932 17:1.0352 18:1.27033 19:0.686893 20:0.686893 21:0.567763 22:0.372321 23:0.811379 24:0.212393 25:0.639552 26:4.17334 27:4.8955 28:0.995533 29:1.0352 30:0 31:0.686893 32:0.762537 33:0.372321 34:1.0103 35:0.221189 36:0.909053 37:5.07032 38:4.8955 39:0.995533 40:1.27033 41:0 42:0.686893 0:0 
-0.01869893010253286 1:4.85124 2:4.35158 3:0.470287 4:0.418576 5:0.907445 6:0.11537 7:0.585961 8:0.5672 9:0.0924364 10:0.067213 11:0.514364 12:0.578189 13:0.0122983 14:0.916127 15:1.55467 16:1.58931 17:0.0696147 18:3.51061 19:0.140017 20:3.47477 21:0.146982 22:0.386692 23:0.529255 24:0.0251759 25:0.979119 26:1.67567 27:1.69515 28:0.0696147 29:3.46114 30:0.140017 31:3.3454 32:0.0631144 33:2.96168 34:2.93407 35:0.00612773 36:0.418966 37:4.66464 38:4.68866 39:3.46114 40:3.51061 41:3.3454 42:3.47477 0:0 
-0.01390650454978009 1:5.42935 2:4.65359 3:0.477665 4:0.420517 5:0.923733 6:0.112563 7:0.589997 8:0.571854 9:0.0961897 10:0.0817963 11:0.310458 12:0.391843 13:0.00747485 14:0.990908 15:1.54906 16:1.54223 17:3.33854 18:3.50786 19:3.32944 20:3.32944 21:0.103571 22:3.01982 23:2.9484 24:0.00800246 25:0.439318 26:4.65443 27:4.70563 28:0.175512 29:3.33854 30:0 31:3.32944 32:0.103201 33:3.01982 34:3.1178 35:0.00336255 36:0.752151 37:4.66697 38:4.70563 39:0.175512 40:3.50786 41:0 42:3.32944 0:0 
-0.01732836450269492 1:3.602 2:2.85047 3:0.442261 4:0.397822 5:0.942643 6:0.104902 7:0.60913 8:0.560881 9:0.0640374 10:0.0667104 11:2.01721 12:2.07231 13:0.00585386 14:0.795917 15:1.51846 16:1.5509 17:3.3917 18:3.46566 19:3.31575 20:3.38972 21:0.0753786 22:1.30043 23:1.3226 24:0.017488 25:0.631407 26:4.59924 27:4.70445 28:0.0915896 29:3.3917 30:0.0775132 31:3.31575 32:0.0500232 33:1.37382 34:1.39469 35:0.0104549 36:0.623708 37:4.66348 38:4.75616 39:0.0915896 40:3.46566 41:0.0775132 42:3.38972 0:0 
-0.01339638216424943 1:3.74637 2:3.06501 3:0.439236 4:0.393096 5:0.946615 6:0.103385 7:0.590585 8:0.56717 9:0.0930696 10:0.152366 11:1.11815 12:1.26319 13:0.012508 14:0.869238 15:1.60156 16:1.65985 17:3.53199 18:3.53328 19:3.34508 20:3.34508 21:0.0754507 22:2.23064 23:2.27378 24:0.00874832 25:0.741825 26:4.64353 27:4.68549 28:0.0908009 29:3.53199 30:0 31:3.34508 32:0.0513925 33:2.23064 34:2.2734 35:0.00402855 36:0.762627 37:4.71672 38:4.68549 39:0.0908009 40:3.53328 41:0 42:3.34508 0:0 
-0.01391559276300741 1:6.2846 2:4.91176 3:0.442984 4:0.402898 5:0.965087 6:0.103385 7:0.593359 8:0.562426 9:0.0947654 10:0.0640436 11:0.0966523 12:0.159205 13:0.0352725 14:0.887175 15:1.26274 16:1.41815 17:3.37506 18:3.50025 19:3.29181 20:3.29181 21:0.0658058 22:3.19527 23:3.21684 24:0.00617225 25:0.701163 26:4.67525 27:4.70921 28:0.166774 29:3.37506 30:0 31:3.29181 32:0.154447 33:3.19527 34:3.34253 35:0.00453433 36:0.886629 37:4.73035 38:4.70921 39:0.166774 40:3.50025 41:0 42:3.29181 0:0 
-0.01869893010250603 1:3.45301 2:2.67317 3:0.435595 4:0.391518 5:0.943429 6:0.106913 7:0.605729 8:0.550036 9:0.080955 10:0.074279 11:1.89235 12:1.96625 13:0.00123466 14:0.970457 15:1.5608 16:1.55475 17:0.0939249 18:3.38138 19:0 20:3.29802 21:0.103298 22:1.89235 23:1.93507 24:0.0156459 25:0.669503 26:1.64641 27:1.55475 28:0.0939249 29:3.34703 30:0 31:3.29802 32:0.0652877 33:1.40799 34:1.41911 35:0.0144884 36:0.510942 37:4.60788 38:4.73351 39:3.34703 40:3.38138 41:3.29802 42:3.29802 0:0 
-0.01016733487818582 1:3.60658 2:2.74625 3:0.448289 4:0.395953 5:0.933733 6:0.107507 7:0.574891 8:0.559375 9:0.113018 10:0.181617 11:1.29902 12:1.4749 13:0.0104186 14:0.93944 15:1.51716 16:1.54699 17:3.36747 18:3.4976 19:3.25129 20:3.25129 21:0.0853182 22:1.95372 23:1.89458 24:0.0101747 25:0.362258 26:4.62793 27:4.68147 28:0.148865 29:3.36747 30:0 31:3.25129 32:0.0721184 33:1.95372 34:2.0247 35:0.00204406 36:0.947009 37:4.67319 38:4.68147 39:0.148865 40:3.4976 41:0 42:3.25129 0:0 
-0.01869893800235536 1:2.39957 2:1.76322 3:0.517534 4:0.652897 5:0.825143 6:0.3032 7:0.915692 8:0.390512 9:4.89091 10:4.91386 11:4.84257 12:1.51734 13:0.465126 14:0.900297 15:4.5259 16:4.58899 17:0.237388 18:0.430399 19:0 20:0 21:4.8022 22:4.84257 23:1.21792 24:0.449249 25:0.873992 26:4.77996 27:4.64508 28:0.430399 29:0.51048 30:0 31:0 32:4.95668 33:4.84257 34:1.39759 35:0.480348 36:0.613815 37:4.34047 38:4.48453 39:0.237388 40:0.51048 41:0 42:0 0:0 
-0.0004110723016247247 1:1.87427 2:1.2609 3:0.374796 4:0.578023 5:0.816214 6:0.302141 7:1.10241 8:0.341959 9:0.14862 10:0.147567 11:0.808417 12:0.951556 13:0.0130221 14:0.980703 15:4.40602 16:4.39444 17:0.243445 18:0.484072 19:0.284978 20:0.284978 21:0.17716 22:0.677576 23:0.810124 24:0.050554 25:0.856309 26:4.63477 27:4.74095 28:0.241225 29:0.243445 30:0 31:0.284978 32:0.121134 33:0.677576 34:0.745333 35:0.0450134 36:0.807682 37:4.86415 38:4.74095 39:0.241225 40:0.484072 41:0 42:0.284978 0:0 
-0.00757162845675878 1:1.841 2:1.28695 3:0.335599 4:0.540333 5:0.801061 6:0.290937 7:1.05797 8:0.324707 9:0.147955 10:0.249035 11:0.647879 12:0.872565 13:0.0455066 14:0.88998 15:1.54929 16:1.45196 17:1.79148 18:1.92699 19:1.52635 20:1.58516 21:0.141782 22:0.942662 23:1.08167 24:0.00879252 25:0.967764 26:4.44005 27:4.42577 28:0.247021 29:1.92699 30:0.187868 31:1.58516 32:0.0530486 33:0.878654 34:0.923855 35:0.00981055 36:0.869332 37:4.62438 38:4.65925 39:0.247021 40:1.79148 41:0.187868 42:1.52635 0:0 
-0.006905804891868599 1:1.65423 2:1.19634 3:0.265997 4:0.471363 5:0.819656 6:0.300896 7:1.01215 8:0.293634 9:0.164034 10:0.216553 11:0.747811 12:0.880001 13:0.0674301 14:0.707461 15:1.58132 16:1.3784 17:1.66253 18:1.74282 19:1.38347 20:1.55039 21:0.160974 22:0.636773 23:0.790677 24:0.0211697 25:0.953302 26:4.59795 27:4.63562 28:0.196265 29:1.66253 30:0.212546 31:1.38347 32:0.114575 33:0.804588 34:0.89699 35:0.0253894 36:0.812008 37:4.29825 38:4.39816 39:0.196265 40:1.74282 41:0.212546 42:1.55039 0:0 
-0.02138680809530474 1:1.50303 2:1.09639 3:0.176839 4:0.563441 5:0.715161 6:0.309567 7:1.19062 8:0.180791 9:0.221074 10:0.178702 11:0.284387 12:0.448271 13:0.0636258 14:0.74922 15:4.03427 16:4.32005 17:0.238506 18:0.411965 19:0.220755 20:0.411114 21:0.243675 22:0.0778239 23:0.319585 24:0.0616269 25:0.929309 26:4.53914 27:4.71239 28:0.174713 29:0.238506 30:0.220755 31:0.255505 32:0.240843 33:0.281359 34:0.345234 35:0.24303 36:0.527448 37:5.02715 38:5.74823 39:0.174713 40:0.411965 41:0.255505 42:0.411114 0:0 
-0.01866885593559092 1:1.41413 2:0.921371 3:0.295879 4:1.26968 5:0.566235 6:0.30673 7:1.38462 8:0.313712 9:0.515015 10:0.776748 11:0.377198 12:1.02327 13:0.225618 14:0.650602 15:5.01154 16:4.30476 17:1.35007 18:1.59297 19:0.243486 20:0.768364 21:0.239278 22:0.468025 23:0.70472 24:0.0194343 25:0.943822 26:1.8299 27:1.77481 28:0.410223 29:1.59297 30:0.578148 31:0.768364 32:0.529018 33:0.139784 34:0.471976 35:0.591879 36:0.393801 37:2.54442 38:4.17197 39:0.410223 40:1.35007 41:0.243486 42:0.578148 0:0 
-0.01562577112472787 1:0.588688 2:0.531615 3:0.0981634 4:1.94436 5:0.761358 6:0.227265 7:0.967922 8:0.232582 9:0.18234 10:0.151959 11:0.829328 12:0.979886 13:0.00726871 14:0.962477 15:1.48214 16:1.50333 17:1.14437 18:1.42759 19:1.01158 20:1.01158 21:0.11621 22:0.183698 23:0.184392 24:0.204482 25:0.380548 26:3.78509 27:4.78916 28:0.29036 29:1.14437 30:0 31:1.01158 32:0.278851 33:0.183698 34:0.450599 35:0.0896425 36:0.737799 37:4.30295 38:4.78916 39:0.29036 40:1.42759 41:0 42:1.01158 0:0 
-0.03943730117894663 1:0.493721 2:0.325244 3:0.0968619 4:1.33664 5:0.875318 6:0.35033 7:0.731818 8:0.192353 9:0.151954 10:0.0570466 11:0.425027 12:0.411602 13:0.0422259 14:0.712805 15:1.63965 16:1.76442 17:0.144557 18:0.22347 19:0.141271 20:0.26335 21:0.115341 22:0.396063 23:0.479582 24:0.0581797 25:0.756731 26:1.98092 27:2.28963 28:0.093821 29:0.144557 30:0.141271 31:0.199056 32:0.283476 33:0.201562 34:0.481346 35:0.0466442 36:0.850266 37:2.37437 38:2.6292 39:0.093821 40:0.22347 41:0.199056 42:0.26335 0:0 
-0.02847150463921154 1:2.71531 2:3.10837 3:0.529974 4:0.825097 5:0.610309 6:0.11508 7:0.782387 8:0.186023 9:0.190967 10:0.0662113 11:0.557406 12:0.540759 13:0.037176 14:0.539749 15:2.3661 16:2.50962 17:0.205742 18:0.478587 19:0.410672 20:0.410672 21:0.315992 22:0.800559 23:0.697346 24:0.128098 25:0.442832 26:2.57486 27:3.00757 28:0.205742 29:0.275841 30:0 31:0.410672 32:0.190698 33:0.800559 34:0.910575 35:0.0581523 36:0.645077 37:2.76285 38:3.00757 39:0.275841 40:0.478587 41:0 42:0.410672 0:0 
-0.03022154391726157 1:1.56869 2:0.982494 3:0.451221 4:0.65762 5:0.829047 6:0.603887 7:1.21772 8:0.288767 9:0.105643 10:0.0761536 11:0.308092 12:0.294578 13:0.0793925 14:0.539583 15:2.83759 16:3.14159 17:0.134059 18:0.310499 19:0.204979 20:0.204979 21:0.186014 22:0.373833 23:0.367147 24:0.161443 25:0.396526 26:3.22338 27:3.70351 28:0.134059 29:0.209368 30:0 31:0.204979 32:0.0547627 33:0.373833 34:0.428462 35:0.00303753 36:0.893327 37:3.64615 38:3.70351 39:0.209368 40:0.310499 41:0 42:0.204979 0:0 
-0.01890506715684968 1:0.8777 2:0.468938 3:0.0900248 4:0.319121 5:0.823739 6:0.51947 7:0.91118 8:0.102983 9:0.138173 10:0.284091 11:0.147265 12:0.271214 13:0.441752 14:0.409562 15:1.48989 16:0.0624188 17:0.164616 18:0.448581 19:0.142729 20:0.170575 21:0.0593302 22:0.0599097 23:0.112344 24:0.108233 25:0.757401 26:2.2143 27:1.73595 28:0.164616 29:0.291242 30:0.142729 31:0.210662 32:0.071097 33:0.160857 34:0.179133 35:0.129736 36:0.66273 37:5.00044 38:5.25281 39:0.291242 40:0.448581 41:0.170575 42:0.210662 0:0 
-0.01047423187406371 1:1.31507 2:0.954783 3:0.462608 4:1.51696 5:0.836741 6:0.413016 7:0.97615 8:0.336148 9:0.308143 10:0.547852 11:0.437001 12:0.807481 13:0.220656 14:0.7764 15:4.9229 16:5.36426 17:0 18:0.30265 19:0.432057 20:0.432057 21:0.231952 22:0.665172 23:0.657273 24:0.112178 25:0.489426 26:4.5959 27:4.86504 28:0.30265 29:0.30265 30:0 31:0.432057 32:0.144624 33:0.665172 34:0.807481 35:0.011195 36:0.953575 37:4.89825 38:4.86504 39:0 40:0.30265 41:0 42:0.432057 0:0 
-0.06600608557383253 1:0.463443 2:0.378775 3:0.215474 4:0.860025 5:0.828601 6:0.453371 7:0.804219 8:0.152085 9:0.0897864 10:0.0620581 11:0.384174 12:0.44621 13:0.00127423 14:0.864975 15:1.99447 16:1.932 17:0.254409 18:0.424963 19:0.231952 20:0.231952 21:0.0695496 22:0.209288 23:0.278816 24:0.00224562 25:0.960417 26:2.7729 27:2.8023 28:0.192231 29:0.254409 30:0 31:0.231952 32:0.137752 33:0.209288 34:0.148664 35:0.228063 36:0.554493 37:3.40608 38:2.8023 39:0.192231 40:0.424963 41:0 42:0.231952 0:0 
-0.007645468847048757 1:2.12971 2:1.56747 3:0.353725 4:0.72929 5:0.762887 6:0.203905 7:1.057 8:0.52327 9:0.116687 10:0.117142 11:0.588828 12:0.687206 13:0.0318342 14:0.81082 15:1.2925 16:1.41419 17:0.212638 18:0.454642 19:0.223044 20:0.338499 21:0.0728703 22:0.779262 23:0.830535 24:0.0204909 25:0.770035 26:1.49061 27:1.591 28:0.212638 29:0.243993 30:0.134106 31:0.223044 32:0.160047 33:0.844718 34:1.00358 35:0.00672388 36:0.992344 37:1.80454 38:1.80891 39:0.243993 40:0.454642 41:0.134106 42:0.338499 0:0 
0.04436963378080202 1:1.23583 2:0.782174 3:0.530265 4:0.295519 5:0.615774 6:0.34441 7:0.98992 8:0.914554 9:0.319924 10:0.339736 11:0.202243 12:0.541939 13:0.00502322 14:0.993762 15:2.86061 16:2.84925 17:0.612986 18:0.717191 19:0.24075 20:0.344192 21:0.310707 22:0.24897 23:0.552477 24:0.0571517 25:0.971797 26:3.98832 27:3.9373 28:0.156358 29:0.612986 30:0.152505 31:0.24075 32:0.309328 33:0.24796 34:0.540548 35:0.0875495 36:0.838525 37:4.26313 38:4.54841 39:0.156358 40:0.717191 41:0.152505 42:0.344192 0:0 
0.001380786243329352 1:0.846905 2:0.532535 3:0.281595 4:0.512221 5:0.729168 6:0.394302 7:1.16168 8:0.219029 9:0.324622 10:0.296302 11:0.112899 12:0.398532 13:0.118934 14:0.956242 15:2.29879 16:2.40162 17:0.174123 18:0.276754 19:0.0883272 20:0.0883272 21:0.357789 22:0.147242 23:0.476154 24:0.171348 25:0.791187 26:2.63162 27:3.11528 28:0.132418 29:0.174123 30:0 31:0.0883272 32:0.319774 33:0.147242 34:0.459797 35:0.0828857 36:0.876693 37:2.84251 38:3.11528 39:0.132418 40:0.276754 41:0 42:0.0883272 0:0 
0.0115274671627405 1:1.30091 2:0.874012 3:0.414153 4:0.372841 5:0.615794 6:0.30096 7:0.963526 8:0.350261 9:0.325106 10:0.314026 11:0.197704 12:0.485576 13:0.129797 14:0.806074 15:2.61352 16:2.9737 17:0.558178 18:0.695548 19:0.22439 20:0.303014 21:0.310443 22:0.337192 23:0.639291 24:0.0490624 25:0.937935 26:3.6124 27:3.70913 28:0.160585 29:0.558178 30:0.118164 31:0.22439 32:0.350847 33:0.354976 34:0.679389 35:0.0868682 36:0.872383 37:3.84209 38:4.04869 39:0.160585 40:0.695548 41:0.118164 42:0.303014 0:0 
0.04828582299932083 1:1.58874 2:1.07582 3:0.2203 4:1.05929 5:0.578764 6:0.217093 7:0.920545 8:0.199481 9:0.314937 10:0.129797 11:0.238986 12:0.29391 13:0.142433 14:0.742079 15:1.91275 16:2.234 17:0.711115 18:0.727478 19:0.27438 20:0.307172 21:0.399674 22:0.422526 23:0.819176 24:0.0265596 25:0.946905 26:2.80414 27:2.88852 28:0.179648 29:0.711115 30:0.146263 31:0.27438 32:0.41534 33:0.374239 34:0.778126 35:0.0572156 36:0.872173 37:3.09036 38:3.29819 39:0.179648 40:0.727478 41:0.146263 42:0.307172 0:0 
0.06458969650649951 1:1.12203 2:0.816588 3:0.169172 4:0.806835 5:0.602958 6:0.271824 7:0.88821 8:0.211059 9:0.284622 10:0.325774 11:0.139769 12:0.462186 13:0.0584982 14:0.921186 15:1.59326 16:1.41815 17:0.619549 18:0.643045 19:0.230718 20:0.230718 21:0.371483 22:0.152536 23:0.517074 24:0.0812555 25:0.903391 26:2.88833 27:3.10315 28:0.44949 29:0.643045 30:0 31:0.230718 32:0.156608 33:0.152536 34:0.196881 35:0.285343 36:0.568154 37:3.86457 38:3.10315 39:0.44949 40:0.619549 41:0 42:0.230718 0:0 
-0.008109844292830584 1:1.47958 2:1.13256 3:0.145818 4:1.29739 5:0.726736 6:0.280741 7:1.04424 8:0.175188 9:0.181843 10:0.25021 11:0.413826 12:0.65026 13:0.0502942 14:0.637857 15:1.69515 16:1.1659 17:0.630779 18:0.796541 19:0.456505 20:0.456505 21:0.16635 22:0.122314 23:0.274617 24:0.116852 25:0.954272 26:3.61544 27:3.69014 28:0.263694 29:0.630779 30:0 31:0.456505 32:0.12897 33:0.122314 34:0.177863 35:0.258211 36:0.714192 37:4.07484 38:3.69014 39:0.263694 40:0.796541 41:0 42:0.456505 0:0 
-0.04344486644711739 1:1.16426 2:0.75162 3:0.198223 4:1.22738 5:0.725883 6:0.315651 7:0.811503 8:0.181189 9:0.194712 10:0.313921 11:0.277585 12:0.316752 13:0.352019 14:0.425405 15:2.97644 16:3.63894 17:0.612583 18:0.757001 19:0.357052 20:0.357052 21:0.167342 22:0.596913 23:0.637727 24:0.0839701 25:0.896605 26:3.81633 27:3.88927 28:0.233927 29:0.612583 30:0 31:0.357052 32:0.102873 33:0.596913 34:0.68323 35:0.0279047 36:0.796992 37:3.99887 38:3.88927 39:0.233927 40:0.757001 41:0 42:0.357052 0:0 
-0.0003934444265859853 1:1.27554 2:0.898739 3:0.272202 4:1.24058 5:0.78026 6:0.279774 7:0.729841 8:0.196881 9:0.167109 10:0.288692 11:0.143843 12:0.342074 13:0.313709 14:0.540389 15:2.7174 16:3.58144 17:0.64432 18:0.808301 19:0.496063 20:0.496063 21:0.107843 22:0.598488 23:0.572804 24:0.0570181 25:0.547935 26:3.74267 27:3.9183 28:0.211827 29:0.64432 30:0 31:0.496063 32:0.104792 33:0.598488 34:0.654518 35:0.0450751 36:0.880357 37:3.95823 38:3.9183 39:0.211827 40:0.808301 41:0 42:0.496063 0:0 
-0.05545935597903653 1:1.02893 2:0.730321 3:0.220919 4:1.34559 5:0.835361 6:0.332207 7:0.964273 8:0.261699 9:0.0967971 10:0.0749061 11:0.492466 12:0.554297 13:0.0257672 14:0.996939 15:4.33425 16:4.33188 17:0.11699 18:0.229652 19:0.23949 20:0.23949 21:0.0716668 22:0.407636 23:0.479244 24:0.0021003 25:0.912066 26:4.09957 27:4.16622 28:0.113281 29:0.229652 30:0 31:0.23949 32:0.143818 33:0.407636 34:0.510791 35:0.0700479 36:0.918923 37:4.23198 38:4.16622 39:0.113281 40:0.11699 41:0 42:0.23949 0:0 
0.04466319593025022 1:0.948541 2:0.566108 3:0.124579 4:0.505921 5:0.62728 6:0.268641 7:0.786069 8:0.181061 9:0.293906 10:0.0556773 11:0.427351 12:0.475743 13:0.0194413 14:0.773756 15:2.92404 16:3.01438 17:0.097015 18:0.524999 19:0.409047 20:0.409047 21:0.49094 22:0.0919586 23:0.519335 24:0.372861 25:0.61714 26:3.10589 27:4.09214 28:0.097015 29:0.506365 30:0 31:0.409047 32:0.335102 33:0.0919586 34:0.424345 35:0.0687341 36:0.99088 37:4.11361 38:4.09214 39:0.506365 40:0.524999 41:0 42:0.409047 0:0 
0.02357755465012606 1:1.13034 2:0.751679 3:0.350116 4:0.446415 5:0.628042 6:0.350235 7:0.972211 8:0.712551 9:0.343887 10:0.294819 11:0.330826 12:0.61428 13:0.057321 14:0.85411 15:3.98534 16:4.18492 17:0.284545 18:0.482839 19:0.130736 20:0.216111 21:0.339638 22:0.36867 23:0.699248 24:0.0489007 25:0.901896 26:4.39693 27:4.53772 28:0.228062 29:0.284545 30:0.112715 31:0.130736 32:0.397202 33:0.33167 34:0.724361 35:0.0387926 36:0.929023 37:4.71625 38:4.82727 39:0.228062 40:0.482839 41:0.112715 42:0.216111 0:0 
