svm_type epsilon_svr
kernel_type rbf
gamma 0.411
nr_class 2
total_sv 269
rho 0.000918568
SV
-0.001622247256847458 1:0.424069 2:0.333946 3:0.0511551 4:0.769536 5:0.909112 6:0.161001 7:0.118876 8:0.278201 9:0.0405823 10:0.942179 11:4.37965 12:4.27164 13:0.110745 14:0.501007 15:0 16:0.270843 17:0.101374 18:0.118876 19:0.212718 20:0.0769467 21:0.81018 22:3.93246 23:4.27164 24:0.110745 25:0.394187 26:0 27:0.270843 28:0.052198 29:0.240839 30:0.292397 31:0.00977437 32:0.875674 33:2.84841 34:2.91588 35:0.119432 36:0.430529 37:0.0810875 38:0.266474 39:0.0908904 40:0.209336 41:0.29641 42:0.0333172 43:0.828581 44:2.35146 45:2.51696 46:0.119432 47:0.501007 48:0.0810875 49:0.270843 0:0 
-0.001233535097527145 1:0.433001 2:0.348929 3:0.0579453 4:0.791412 5:0.922284 6:0.0625513 7:0.244735 8:0.294624 9:0.0447648 10:0.799462 11:4.23336 12:4.38233 13:0.101991 14:0.484214 15:0 16:0.384945 17:0.108646 18:0.244735 19:0.234524 20:0.144962 21:0.504011 22:3.81291 23:4.38233 24:0.101991 25:0.382534 26:0 27:0.384945 28:0.0643531 29:0.302928 30:0.366037 31:0.0120347 32:0.873619 33:2.84032 34:2.90755 35:0.136897 36:0.429035 37:0.0895642 38:0.376232 39:0.086775 40:0.252444 41:0.327563 42:0.0481309 43:0.82521 44:2.40832 45:2.56522 46:0.136897 47:0.484214 48:0.0895642 49:0.384945 0:0 
-0.003941757394549565 1:0.663375 2:0.540441 3:0.0865936 4:0.556433 5:0.844871 6:0.0891668 7:0.263783 8:0.301336 9:0.0916234 10:0.433882 11:3.78023 12:3.44627 13:0.0733693 14:0.575501 15:0 16:0.38712 17:0.0501153 18:0.263783 19:0.311773 20:0.016027 21:0.786757 22:3.55459 23:3.44627 24:0.0733693 25:0.514303 26:0 27:0.38712 28:0.0623692 29:0.378968 30:0.413911 31:0.0415502 32:0.84669 33:2.71874 34:2.60032 35:0.105286 36:0.470262 37:0 38:0.38712 39:0.119211 40:0.378968 41:0.498118 42:0.0027914 43:0.877124 44:2.53087 45:2.60032 46:0.105286 47:0.575501 48:0 49:0.38712 0:0 
-0.01118688317355845 1:0.894483 2:0.743533 3:0.238278 4:0.625857 5:0.795203 6:0.0653453 7:0.367792 8:0.396119 9:0.0491564 10:0.615577 11:3.68201 12:3.53409 13:0.139341 14:0.621489 15:0 16:0.39388 17:0.128447 18:0.367792 19:0.488754 20:0.0324523 21:0.989922 22:3.52714 23:3.53409 24:0.139341 25:0.580213 26:0 27:0.39388 28:0.0990398 29:0.560287 30:0.573722 31:0.0551589 32:0.576108 33:2.72582 34:2.88076 35:0.227333 36:0.512219 37:0.183762 38:0.39388 39:0.271763 40:0.408041 41:0.63394 42:0.0949043 43:0.733923 44:2.53366 45:2.75656 46:0.227333 47:0.621489 48:0.183762 49:0.362298 0:0 
-0.0008288357479902914 1:0.688478 2:0.51607 3:0.0934219 4:1.03167 5:0.961622 6:0.0975769 7:0.455872 8:0.530186 9:0.0409702 10:0.863254 11:5.00199 12:4.91681 13:0.160879 14:0.786167 15:0 16:0.665261 17:0.0969028 18:0.455872 19:0.501149 20:0.0571322 21:0.719312 22:4.6981 23:4.91681 24:0.160879 25:0.75467 26:0 27:0.665261 28:0.10021 29:0.214529 30:0.264342 31:0.116883 32:0.770387 33:2.88733 34:2.77169 35:0.156932 36:0.772264 37:0 38:0.665261 39:0.0711284 40:0.214529 41:0.256966 42:0.0775792 43:0.661374 44:2.62387 45:2.77169 46:0.156932 47:0.786167 48:0 49:0.665261 0:0 
-0.002106952650617758 1:0.602727 2:0.574822 3:0.0261619 4:0.865343 5:0.678705 6:0.0705279 7:0.00736329 8:0.0656692 9:0.716211 10:0.934757 11:2.31622 12:2.18152 13:0.111826 14:0.581599 15:0 16:0.0701082 17:0.178528 18:0.00736329 19:0.173836 20:0.714734 21:0.724064 22:1.49402 23:2.18152 24:0.111826 25:0.692024 26:0 27:0.0701082 28:0.179057 29:0.0752023 30:0.253834 31:0.0284226 32:0.546685 33:5.0929 34:3.81633 35:0.284431 36:0.425016 37:0 38:0.0701082 39:0.446015 40:0.0752023 41:0.519566 42:0.0618272 43:0.97239 44:3.73635 45:3.81633 46:0.284431 47:0.692024 48:0 49:0.0701082 0:0 
-0.002519722348597722 1:2.30886 2:1.1223 3:0.816498 4:1.90958 5:0.891585 6:0.39672 7:0.819245 8:1.01128 9:0.122147 10:0.618522 11:4.40235 12:4.02157 13:0.599658 14:1.77901 15:0 16:1.23974 17:0.319957 18:0.819245 19:1.0781 20:0.0638042 21:0.7816 22:3.80914 23:4.02157 24:0.599658 25:1.62397 26:0 27:1.23974 28:0.554413 29:0.655349 30:0.956491 31:0.189956 32:0.681839 33:2.32855 34:1.93666 35:0.766069 36:1.52819 37:0 38:1.23974 39:0.42423 40:0.655349 41:0.905198 42:0.142889 43:0.907623 44:1.78849 45:1.93666 46:0.766069 47:1.77901 48:0 49:1.23974 0:0 
6.152486344554919e-05 1:0.212046 2:0.40905 3:0.0377692 4:1.18228 5:0.600841 6:0.25331 7:0.206912 8:0.419794 9:0.149649 10:0.839199 11:3.80436 12:4.07545 13:0.186191 14:0.832554 15:0 16:0.271202 17:0.253261 18:0.206912 19:0.323536 20:0.286109 21:0.701639 22:3.56473 23:4.07545 24:0.167479 25:0.706182 26:0 27:0.271202 28:0.170949 29:0.0924296 30:0.184938 31:0.370568 32:0.678205 33:3.18358 34:3.74472 35:0.167479 36:0.580567 37:0.129142 38:0.217262 39:0.0928693 40:0.300049 41:0.350914 42:0.0764051 43:0.800494 44:4.23306 45:4.45857 46:0.196721 47:0.769135 48:0.0939273 49:0.36513 0:0 
-0.002290031887294558 1:1.28662 2:0.761536 3:0.101247 4:0.662661 5:0.37566 6:0.164157 7:0.521513 8:0.568112 9:0.0923723 10:0.779391 11:4.08302 12:4.2601 13:0.204835 14:0.913751 15:0.529229 16:0.581546 17:0.0992592 18:0.202313 19:0.210515 20:0.154073 21:0.621632 22:2.93695 23:2.607 24:0.531919 25:0.712959 26:0.0740375 27:0.581546 28:0.40589 29:0.173797 30:0.471031 31:0.320921 32:0.5702 33:1.20857 34:2.27206 35:0.570392 36:1.02037 37:0.0510667 38:0.572679 39:0.73293 40:0.163307 41:0.707696 42:0.513339 43:0.404603 44:4.34872 45:2.67013 46:0.204835 47:1.02037 48:0.0510667 49:0.529229 0:0 
0.00462535772010033 1:0.029739 2:0.116309 3:0.00644684 4:0.43328 5:0.616328 6:0.0996877 7:0.0984749 8:0.186913 9:0.108457 10:0.845856 11:4.36234 12:4.62531 13:0.0624628 14:0.101837 15:0 16:0.0880316 17:0.100411 18:0.0984749 19:0.178913 20:0.145387 21:0.466492 22:3.40175 23:4.62531 24:0.0805157 25:0.101837 26:0 27:0.0880316 28:0.167636 29:0.0104433 30:0.178079 31:0 32:0.491647 33:2.37639 34:3.65648 35:0.00148818 36:0.0808249 37:0.00523195 38:0.0880316 39:0.160916 40:0.0156753 41:0.176591 42:0 43:0.649423 44:1.79592 45:2.68499 46:0.00148818 47:0.0805157 48:0.00523195 49:0.0827996 0:0 
-0.002696679619258235 1:1.40306 2:0.759251 3:0.115668 4:0.767414 5:0.379646 6:0.109548 7:0.499294 8:0.586351 9:0.0391446 10:0.738868 11:4.37819 12:4.23504 13:0 14:1.04608 15:0 16:0.514229 17:0.130912 18:0.499294 19:0.558497 20:0.0705256 21:0.913728 22:4.17401 23:4.23504 24:0.187905 25:1.07433 26:0 27:0.514229 28:0.564506 29:0.135555 30:0.617927 31:0.338184 32:0.502941 33:1.27934 34:2.57486 35:1.04608 36:1.07433 37:0.0567677 38:0.514229 39:0.595201 40:0.163144 41:0.586351 42:0.473083 43:0.446661 44:4.37819 45:2.92623 46:0 47:1.04608 48:0.0567677 49:0.495212 0:0 
0.003437922983585815 1:0.0435852 2:0.19442 3:0.0120163 4:1.04643 5:0.554935 6:0.187631 7:0.0134653 8:0.174166 9:1 10:0.82752 11:4.98478 12:4.57496 13:0.0127331 14:0.985748 15:0 16:0.0211824 17:0.200364 18:0.0134653 19:0.186899 20:1 21:0.998383 22:4.57136 23:4.57496 24:0.0127331 25:0.998118 26:0 27:0.0211824 28:0.108852 29:0.0239476 30:0.0893943 31:0.778249 32:0.917792 33:3.83052 34:3.66517 35:0.120174 36:0.870051 37:0.0104823 38:0.0107001 39:0.784538 40:0.0346477 41:0.81766 42:0.0928063 43:0.770452 44:2.71497 45:3.12261 46:0.870051 47:0.998118 48:0.0107001 49:0.0211824 0:0 
0.00408911113349881 1:0.664267 2:0.569403 3:0.188516 4:0.328797 5:0.631741 6:0.316313 7:0.160989 8:0.440963 9:0.178177 10:0.990588 11:4.9767 12:4.96172 13:0.219918 14:0.715842 15:0 16:0.407108 17:0.377867 18:0.160989 19:0.459071 20:0.280943 21:0.807769 22:4.62475 23:4.96172 24:0.12701 25:0.623034 26:0 27:0.407108 28:0.339996 29:0.176038 30:0.435243 31:0.260201 32:0.85395 33:4.41573 34:4.66375 35:0.12701 36:0.575943 37:0.0929377 38:0.322934 39:0.268787 40:0.171104 41:0.379304 42:0.216558 43:0.923283 44:4.24248 45:4.36283 46:0.128815 47:0.47794 48:0.0929377 49:0.252288 0:0 
0.001527176378663681 1:0.0705127 2:0.219282 3:0.018728 4:0.376898 5:0.627353 6:0.120915 7:0.00759982 8:0.118467 9:0.594812 10:0.983536 11:3.98827 12:4.02194 13:0.0906302 14:0.230626 15:0 16:0.0362457 17:0.197106 18:0.00759982 19:0.195849 20:0.546808 21:0.804847 22:3.62915 23:4.02194 24:0.0847432 25:0.2835 26:0 27:0.0362457 28:0.183469 29:0.0233533 30:0.179849 31:0.529209 32:0.631475 33:2.78056 34:3.45987 35:0.0847432 36:0.336072 37:0.00754564 38:0.0308289 39:0.207025 40:0.0286458 41:0.235671 42:0 43:0.984841 44:1.51363 45:1.53633 46:0.230626 47:0.336072 48:0.00754564 49:0.0362457 0:0 
5.153436233096489e-05 1:0.0748871 2:0.221576 3:0.0256067 4:0.485242 5:0.669594 6:0.168404 7:0.0199848 8:0.165726 9:0.523833 10:0.936851 11:3.96597 12:4.07909 13:0.0506408 14:0.453345 15:0 16:0.0394882 17:0.186455 18:0.0199848 19:0.183117 20:0.536357 21:0.748679 22:3.66967 23:4.07909 24:0.0506408 25:0.451912 26:0 27:0.0394882 28:0.164824 29:0.0226975 30:0.173819 31:0.35095 32:0.779086 33:2.69827 34:3.05391 35:0.0760475 36:0.515193 37:0.0176967 38:0.0394882 39:0.426045 40:0.00850186 41:0.434547 42:0 43:0.930073 44:1.56479 45:1.44226 46:0.451912 47:0.515193 48:0.0176967 49:0.0284867 0:0 
0.0008228642194842804 1:0.318373 2:0.602771 3:0.0609589 4:0.898048 5:0.637542 6:0.261962 7:0.158698 8:0.414753 9:0.0687706 10:0.904734 11:3.71305 12:3.87408 13:0.0366845 14:0.657492 15:0 16:0.181946 17:0.261497 18:0.158698 19:0.408607 20:0.0965981 21:0.655712 22:3.31368 23:3.87408 24:0.0366845 25:0.629403 26:0 27:0.181946 28:0.211095 29:0.157159 30:0.360911 31:0.0739371 32:0.839284 33:2.59868 34:2.88733 35:0.06227 36:0.635665 37:0.0577599 38:0.166352 39:0.381337 40:0.0439949 41:0.425332 42:0 43:0.841206 44:1.3701 45:0.994878 46:0.629403 47:0.657492 48:0.166352 49:0.181946 0:0 
-0.02076846795815461 1:0.56322 2:0.408347 3:0.116437 4:0.342954 5:0.673372 6:0.18132 7:0.14677 8:0.287139 9:0.180369 10:0.868329 11:3.57357 12:3.74846 13:0.144574 14:0.431842 15:0 16:0.260649 17:0.169803 18:0.14677 19:0.20047 20:0.311175 21:0.626985 22:3.28193 23:3.74846 24:0.144574 25:0.3205 26:0 27:0.260649 28:0.167375 29:0.0524239 30:0.152872 31:0.537751 32:0.697041 33:2.57381 34:2.95498 35:0.242094 36:0.424417 37:0.101393 38:0.159705 39:0.123561 40:0.13574 41:0.253963 42:0.0616833 43:0.677863 44:2.00772 45:2.31036 46:0.242094 47:0.431842 48:0.101393 49:0.260649 0:0 
-0.03320407513461618 1:0.494594 2:0.581098 3:0.180582 4:0.623844 5:0.764465 6:0.0666775 7:0.403793 8:0.468632 9:0.0113778 10:0.983957 11:3.62534 12:3.61814 13:0.081746 14:0.443637 15:0 16:0.368698 17:0.114741 18:0.403793 19:0.482822 20:0.0600577 21:0.835193 22:3.51536 23:3.61814 24:0.081746 25:0.448546 26:0 27:0.368698 28:0.17668 29:0.35123 30:0.4986 31:0.0742997 32:0.776917 33:3.26881 34:3.44096 35:0.154023 36:0.399112 37:0.0962927 38:0.289926 39:0.0750284 40:0.1766 41:0.247071 42:0.0392666 43:0.814764 44:2.16272 45:2.25653 46:0.399112 47:0.448546 48:0.289926 49:0.368698 0:0 
0.005490836171243294 1:0.00110572 2:0.0162114 3:0.00118256 4:0.698283 5:0.615042 6:0.191481 7:0.180788 8:0.372269 9:0 10:0.853752 11:4.06428 12:3.8493 13:0.00480592 14:0.513042 15:0 16:0.223619 17:0.196287 18:0.180788 19:0.377075 20:0 21:0.852089 22:3.61091 23:3.8493 24:0.00480592 25:0.517848 26:0 27:0.223619 28:0.148229 29:0.165696 30:0.312803 31:0.0254628 32:0.85195 33:3.2739 34:3.53446 35:0.0654292 36:0.453265 37:0.0150919 38:0.208528 39:0.0979407 40:0.0428317 41:0.140772 42:0 43:0.926364 44:1.83705 45:1.98393 46:0.453265 47:0.517848 48:0.208528 49:0.223619 0:0 
0.003270112832001163 1:0.162228 2:0.448064 3:0.0138092 4:0.465389 5:0.731248 6:0.229503 7:0.154737 8:0.368165 9:0.113124 10:0.891819 11:5.05806 12:4.89877 13:0.153294 14:0.425007 15:0 16:0.148639 17:0.27399 18:0.154737 19:0.428727 20:0.000298637 21:0.929309 22:4.80104 23:4.89877 24:0.145242 25:0.406296 26:0 27:0.148639 28:0.295055 29:0.1061 30:0.386808 31:0.144032 32:0.992744 33:4.43203 34:4.42019 35:0.145242 36:0.297615 37:0.0440318 38:0.110654 39:0.126065 40:0.0871648 41:0.21323 42:0 43:0.963726 44:3.08138 45:3.02097 46:0.297615 47:0.425007 48:0.0440318 49:0.148639 0:0 
-0.00682395905725502 1:0.502585 2:0.900451 3:0.179741 4:0.636884 5:0.810814 6:0.0871194 7:0.619177 8:0.691274 9:0.0238009 10:0.986231 11:3.83004 12:3.82719 13:0.0376936 14:0.505456 15:0 16:0.541929 17:0.0991118 18:0.619177 19:0.704923 20:0.0239551 21:0.788398 22:3.77528 23:3.82719 24:0.0376936 25:0.530245 26:0 27:0.541929 28:0.0885714 29:0.599184 30:0.657647 31:0.0337541 32:0.569455 33:3.60524 34:3.72029 35:0.167537 36:0.545613 37:0.0938849 38:0.553765 39:0.130701 40:0.221719 41:0.275022 42:0.155368 43:0.779101 44:4.40123 45:4.52219 46:0.505456 47:0.545613 48:0.541929 49:0.553765 0:0 
-0.01205900629085728 1:0.430617 2:0.778788 3:0.201167 4:0.620608 5:0.791395 6:0.246068 7:0.259524 8:0.480378 9:0.0982044 10:0.903926 11:4.8399 12:4.80226 13:0.339239 14:0.624949 15:0 16:0.446065 17:0.143102 18:0.259524 19:0.311922 20:0.150374 21:0.74736 22:4.61502 23:4.80226 24:0.339239 25:0.536653 26:0 27:0.446065 28:0.0912104 29:0.4928 30:0.573086 31:0.0259327 32:0.983416 33:4.11463 34:4.1099 35:0.0656247 36:0.523801 37:0 38:0.402967 39:0.141751 40:0.4928 41:0.615689 42:0.0408553 43:0.833609 44:4.04623 45:4.1099 46:0.0656247 47:0.560028 48:0 49:0.402967 0:0 
-0.01245871059668561 1:0.262112 2:0.521669 3:0.150753 4:0.534162 5:0.783371 6:0.154526 7:0.398282 8:0.542661 9:0.0377298 10:0.889162 11:4.3427 12:4.29485 13:0.116965 14:0.442401 15:0 16:0.234933 17:0.129041 18:0.398282 19:0.518946 20:0.0320346 21:0.828561 22:4.23089 23:4.29485 24:0.116965 25:0.346456 26:0 27:0.234933 28:0.119867 29:0.427143 30:0.480517 31:0.0755867 32:0.491686 33:4.08228 34:4.23566 35:0.13195 36:0.23848 37:0.0554428 38:0.216439 39:0.108157 40:0.32885 41:0.404747 42:0.0673548 43:0.453504 44:3.70019 45:4.01273 46:0.221868 47:0.442401 48:0.216439 49:0.234933 0:0 
-0.009634382807359657 1:0.199184 2:0.445961 3:0.02388 4:0.543872 5:0.822682 6:0.42505 7:0.056079 8:0.474775 9:0.144064 10:0.731299 11:4.36651 12:3.83099 13:0.052159 14:0.369084 15:0 16:0.205076 17:0.110749 18:0.056079 19:0.165827 20:0.0491048 21:0.925096 22:3.71485 23:3.83099 24:0.127833 25:0.367976 26:0 27:0.205076 28:0.144178 29:0.0942618 30:0.238439 31:0 32:0.856733 33:2.56279 34:2.80087 35:0.00659883 36:0.40594 37:0.0480551 38:0.219033 39:0.0895236 40:0.142317 41:0.23184 42:0 43:0.97284 44:2.18152 45:2.16359 46:0.00659883 47:0.407832 48:0.0480551 49:0.220374 0:0 
-0.001401840128003075 1:0.61316 2:0.485872 3:0.184504 4:0.601541 5:0.879655 6:0.0753011 7:0.527597 8:0.601045 9:0.00938556 10:0.873287 11:4.52296 12:4.49966 13:0.179695 14:0.570417 15:0 16:0.535765 17:0.106577 18:0.527597 19:0.440389 20:0.0404845 21:0.69543 22:4.39405 23:4.49966 24:0.179695 25:0.403249 26:0 27:0.535765 28:0.286773 29:0.295742 30:0.269056 31:0.337831 32:0.337857 33:3.52608 34:4.44883 35:0.137249 36:0.56069 37:0.235358 38:0.358889 39:0.0677636 40:0.359197 41:0.40547 42:0.0413197 43:0.911891 44:2.62155 45:2.65427 46:0.137249 47:0.570417 48:0.358889 49:0.535765 0:0 
-0.004163450032144787 1:0.165872 2:0.146978 3:0.00930786 4:0.546773 5:0.82059 6:0.059146 7:0.0773066 8:0.135557 9:0.0318934 10:0.969349 11:5.05794 12:5.01089 13:0.00439108 14:0.230159 15:0 16:0.0916301 17:0.0603224 18:0.0773066 19:0.0967244 20:0.214254 21:0.64898 22:4.48559 23:5.01089 24:0.0946866 25:0.136291 26:0 27:0.0916301 28:0.0895475 29:0.0767415 30:0.137157 31:0.208792 32:0.609764 33:5.1269 34:5.88839 35:0.00439108 36:0.233981 37:0.0590057 38:0.122214 39:0.0980368 40:0.0586005 41:0.152836 42:0.0912422 43:0.904744 44:3.4461 45:3.66487 46:0.136291 47:0.233981 48:0.0916301 49:0.122214 0:0 
-0.001514983707192173 1:0.835859 2:1.16144 3:0.263898 4:1.28175 5:0.808559 6:0.101797 7:0.6477 8:0.745716 9:0.0125883 10:0.985534 11:4.57779 12:4.58113 13:0.753664 14:1.31021 15:0.630551 16:0.657859 17:0.313305 18:0.269408 19:0.581105 20:0.0255097 21:0.44803 22:3.46334 23:2.5601 24:0.589155 25:0.781944 26:0 27:0.630551 28:0.801047 29:0.269408 30:0.95363 31:0.269577 32:0.996761 33:2.55359 34:2.5601 35:0.762808 36:1.31021 37:0 38:0.630551 39:0.291216 40:0.286136 41:0.0138436 42:0.612466 43:0.556354 44:1.54897 45:2.39408 46:0.589155 47:0.949417 48:0.0519656 49:0.657859 0:0 
-0.0008174716857250777 1:1.4864 2:1.56311 3:0.576038 4:1.01484 5:0.936652 6:0.249226 7:0.991712 8:1.11923 9:0.0648093 10:0.916416 11:4.81337 12:4.80125 13:0.146818 14:1.34263 15:0 16:1.07052 17:0.358364 18:0.991712 19:1.17546 20:0.0910157 21:0.541534 22:4.56906 23:4.80125 24:0.146818 25:1.33603 26:0 27:1.07052 28:0.564672 29:0.392781 30:0.817149 31:0.213265 32:0.65667 33:3.77797 34:3.16373 35:0.532246 36:0.88804 37:0 38:1.07052 39:0.415246 40:0.392781 41:0.774703 42:0.0943961 43:0.784179 44:2.79389 45:3.16373 46:0.532246 47:1.34263 48:0 49:1.07052 0:0 
-0.001016523449607086 1:1.64271 2:1.61436 3:0.747085 4:1.00855 5:0.941397 6:0.219614 7:1.03624 8:1.15752 9:0.0532752 10:0.806036 11:4.69266 12:4.66496 13:0.234148 14:1.36359 15:0 16:1.1226 17:0.374003 18:1.03624 19:1.23515 20:0.0894046 21:0.596703 22:4.51324 23:4.66496 24:0.234148 25:1.32255 26:0 27:1.1226 28:0.594931 29:0.521836 30:0.939445 31:0.195702 32:0.640584 33:3.75626 34:3.15124 35:0.559747 36:0.932777 37:0 38:1.1226 39:0.283277 40:0.521836 41:0.779714 42:0.0585868 43:0.80205 44:2.8971 45:3.15124 46:0.559747 47:1.36359 48:0 49:1.1226 0:0 
-0.001737073733801025 1:0.915922 2:1.37734 3:0.273724 4:1.5314 5:0.777887 6:0.358229 7:0.528996 8:0.824341 9:0.0981087 10:0.886859 11:4.26907 12:4.16516 13:0.508133 14:1.21904 15:0 16:0.435218 17:0.306172 18:0.528996 19:0.688682 20:0.138864 21:0.576991 22:3.83677 23:4.16516 24:0.508133 25:1.00464 26:0 27:0.435218 28:0.749524 29:0.215509 30:0.72986 31:0.482432 32:0.950769 33:2.43096 34:2.52578 35:0.700286 36:1.21904 37:0.0749461 38:0.392734 39:0.223272 40:0.140908 41:0.0889632 42:0.842937 43:0.530705 44:1.32372 45:2.28755 46:0.700286 47:0.882302 48:0.0749461 49:0.435218 0:0 
-0.001239944598286824 1:0.95783 2:1.43693 3:0.260469 4:1.51368 5:0.775587 6:0.181355 7:0.899422 8:1.08017 9:0.00478961 10:0.718153 11:4.72593 12:4.5858 13:0.941906 14:1.36948 15:0.584277 16:0.867592 17:0.337335 18:0.488601 19:0.653709 20:0.167611 21:0.574212 22:3.79361 23:4.21374 24:0.770584 25:0.960554 26:0.358381 27:0.584277 28:0.755436 29:0.206008 30:0.726662 31:0.500221 32:0.941504 33:2.45223 34:2.56779 35:0.687937 36:1.36948 37:0.0667362 38:0.861773 39:0.266392 40:0.140263 41:0.129607 42:0.897605 43:0.543912 44:1.35403 45:2.34191 46:0.687937 47:1.12622 48:0.0667362 49:0.867592 0:0 
0.00171376022044564 1:0.189995 2:0.363631 3:0.0326143 4:0.638446 5:0.629112 6:0.470618 7:0.0299267 8:0.471217 9:0.483514 10:0.539034 11:4.29955 12:5.50902 13:0.109896 14:0.589925 15:0.0238217 16:0.201274 17:0.269359 18:0.19781 19:0.463184 20:0.0485899 21:0.864256 22:3.79146 23:4.00045 24:0.109896 25:0.602364 26:0.0218318 27:0.223024 28:0.194597 29:0.194877 30:0.34727 31:0.149439 32:0.793048 33:3.46879 34:3.82189 35:0.16193 36:0.495111 37:0.0218318 38:0.222286 39:0.162284 40:0.105255 41:0.234123 42:0.20345 43:0.894632 44:3.21747 45:3.38947 46:0.16193 47:0.399663 48:0.112239 49:0.138521 0:0 
0.01198260203230997 1:0.314832 2:0.660854 3:0.0611115 4:0.540362 5:0.827804 6:0.114914 7:0.406631 8:0.468626 9:0.0706988 10:0.996064 11:3.38189 12:3.37943 13:0.0599727 14:0.205991 15:0 16:0.371329 17:0.121598 18:0.406631 19:0.512405 20:0.0418582 21:0.849202 22:3.27569 23:3.37943 24:0.0623426 25:0.248172 26:0 27:0.371329 28:0.198177 29:0.332924 30:0.447884 31:0.134055 32:0.812791 33:3.02882 34:3.2438 35:0.0599727 36:0.184335 37:0.139081 38:0.292441 39:0.233297 40:0.0414457 41:0.264305 42:0.213858 43:0.860653 44:2.48103 45:2.24463 46:0.184335 47:0.248172 48:0.292441 49:0.371329 0:0 
0.002867926748454771 1:0.210538 2:0.442997 3:0.0300217 4:0.850136 5:0.560909 6:0.162192 7:0.0573659 8:0.219558 9:0 10:0.83027 11:4.90061 12:5.31969 13:0.00458293 14:0.510023 15:0.0139064 16:0.135481 17:0.289589 18:0.0994882 19:0.386764 20:0.059359 21:0.943103 22:3.56666 23:3.44827 24:0.196296 25:0.311317 26:0.0633462 27:0.101457 28:0.320006 29:0.11402 30:0.433935 31:0.0108706 32:0.958515 33:2.63136 34:2.55969 35:0.30796 36:0.510023 37:0.101457 38:0.139874 39:0.144459 40:0.0707134 41:0.214975 42:0.0195078 43:0.69372 44:4.88008 45:4.17197 46:0.00458293 47:0.507582 48:0 49:0.139874 0:0 
0.001378094135055745 1:0.23949 2:0.492461 3:0.0283051 4:0.943088 5:0.567322 6:0.223675 7:0.0609407 8:0.284616 9:0 10:0.802496 11:4.93347 12:5.40243 13:0.127696 14:0.544687 15:0.044703 16:0.131512 17:0.237539 18:0.105644 19:0.331925 20:0.12361 21:0.923023 22:4.17295 23:4.35233 24:0.127696 25:0.472102 26:0.044703 27:0.162964 28:0.29991 29:0.103573 30:0.400811 31:0.0625041 32:0.973535 33:3.57723 34:3.5221 35:0.178239 36:0.349782 37:0.0660721 38:0.110838 39:0.319914 40:0.105391 41:0.425137 42:0.0155881 43:0.966735 44:2.70752 45:2.64723 46:0.349782 47:0.544687 48:0.110838 49:0.162964 0:0 
0.0004685871584788361 1:0.0487533 2:0.177397 3:0.015564 4:0.389938 5:0.677969 6:0.131632 7:0.0876267 8:0.20638 9:0.135432 10:0.854691 11:4.41389 12:4.09737 13:0.00650286 14:0.2751 15:0 16:0.029941 17:0.131208 18:0.0876267 19:0.145104 20:0.350376 21:0.968191 22:4.02881 23:4.09737 24:0.0846696 25:0.202061 26:0 27:0.029941 28:0.202802 29:0.0577526 30:0.202042 31:0.458588 32:0.897705 33:3.52059 34:3.32269 35:0.0846696 36:0.279518 37:0.0229207 38:0.029941 39:0.143155 40:0.0805929 41:0.212835 42:0.134234 43:0.907292 44:4.46103 45:4.6704 46:0.00650286 47:0.279518 48:0.0070338 49:0.0229207 0:0 
0.004351240090907567 1:0 2:0 3:0 4:0.573963 5:0.670405 6:0.150182 7:0.0932585 8:0.24344 9:0 10:0.986748 11:5.0351 12:5.01033 13:0.00120297 14:0.0179639 15:0 16:0.04602 17:0.165574 18:0.0932585 19:0.258832 20:0 21:0.879691 22:4.77719 23:5.01033 24:0.00257179 25:0.0165951 26:0 27:0.04602 28:0.113968 29:0.128269 30:0.242237 31:0 32:0.92809 33:4.36562 34:4.50079 35:0.00120297 36:0.0191669 37:0.0110096 38:0.0350104 39:0.122126 40:0.139278 41:0.261404 42:0 43:0.926934 44:3.93898 45:4.06588 46:0.00257179 47:0.0191669 48:0.0110096 49:0.04602 0:0 
0.006539618660516281 1:0.738225 2:0.609029 3:0.0598526 4:0.55176 5:0.62674 6:0.460922 7:0.0706389 8:0.451873 9:0.516312 10:0.576029 11:4.01522 12:5.11881 13:0.14934 14:0.206296 15:0.383143 16:0.436625 17:0.209475 18:0.392235 19:0.60121 20:0.00948319 21:0.883422 22:3.76863 23:3.8769 24:0.0570416 25:0.14934 26:0.0425064 27:0.400145 28:0.229575 29:0.431878 30:0.658127 31:0.0232535 32:0.935949 33:3.43505 34:3.50517 35:0.0570416 36:0.206296 37:0.0425064 38:0.436625 39:0.209586 40:0.386471 41:0.596007 42:0.00304947 43:0.955828 44:2.92964 45:2.97748 46:0.108924 47:0.171802 48:0.0631874 49:0.383143 0:0 
0.00193969824355994 1:0.442686 2:0.852953 3:0.0415064 4:0.487867 5:0.646928 6:0.34329 7:0.303292 8:0.642229 9:0.039331 10:0.980025 11:4.76674 12:4.73914 13:0.0434096 14:0.329809 15:0 16:0.10495 17:0.38132 18:0.303292 19:0.682033 20:0.0309994 21:0.896381 22:4.58736 23:4.73914 24:0.0434096 25:0.361138 26:0 27:0.10495 28:0.272204 29:0.311223 30:0.563234 31:0.0784188 32:0.866314 33:4.28576 34:4.47788 35:0.0875473 36:0.250673 37:0.0303686 38:0.0918478 39:0.200568 40:0.241943 41:0.39275 42:0.137611 43:0.815835 44:3.949 45:4.20124 46:0.250673 47:0.361138 48:0.0918478 49:0.10495 0:0 
0.001274111958123228 1:0.503561 2:0.936861 3:0.0619401 4:0.508358 5:0.634684 6:0.378547 7:0.388863 8:0.757268 9:0.0511105 10:0.947577 11:4.47997 12:4.41256 13:0.0020835 14:0.407256 15:0 16:0.0968052 17:0.289698 18:0.388863 19:0.648771 20:0.0813121 21:0.858086 22:4.23003 23:4.41256 24:0.177166 25:0.246597 26:0 27:0.0968052 28:0.249712 29:0.317265 30:0.487642 31:0.149097 32:0.796804 33:3.94545 34:4.19114 35:0.246597 36:0.408967 37:0.0968052 38:0.12088 39:0.379166 40:0.381145 41:0.75935 42:0.0159691 43:0.907382 44:4.51922 45:4.63957 46:0.0020835 47:0.408967 48:0.0432119 49:0.12088 0:0 
0.01049511230694105 1:0.638672 2:1.0631 3:0.109061 4:0.607538 5:0.638126 6:0.172534 7:0.584153 8:0.745123 9:0.0299745 10:0.839376 11:4.26641 12:4.16747 13:0.153434 14:0.518126 15:0 16:0.29862 17:0.20861 18:0.584153 19:0.780629 20:0.0330639 21:0.954277 22:4.13872 23:4.16747 24:0.153434 25:0.440184 26:0 27:0.29862 28:0.156852 29:0.632353 30:0.752818 31:0.0463841 32:0.771751 33:3.99052 34:4.06534 35:0.200097 36:0.465437 37:0.137367 38:0.391686 39:0.191383 40:0.4579 41:0.620764 42:0.0600993 43:0.747802 44:3.829 45:3.94818 46:0.26985 47:0.563448 48:0.245356 49:0.326554 0:0 
0.0004736128175849381 1:0.910159 2:0.815243 3:0.0476854 4:0.471775 5:0.568818 6:0.234226 7:0.344399 8:0.541118 9:0.0940855 10:0.799001 11:5.0404 12:4.74755 13:0.249189 14:0.730505 15:0 16:0.291575 17:0.345336 18:0.344399 19:0.68934 20:0.0107883 21:0.993703 22:4.75747 23:4.74755 24:0.140352 25:0.768062 26:0 27:0.291575 28:0.336198 29:0.398359 30:0.734413 31:0.00579202 32:0.978221 33:4.45721 34:4.48831 35:0.140352 36:0.746591 37:0.0754868 38:0.29775 39:0.265451 40:0.368168 41:0.633569 42:0.00335398 43:0.962239 44:4.15176 45:4.20076 46:0.155243 47:0.600322 48:0.0754868 49:0.237831 0:0 
0.002014299738653025 1:0.9449 2:0.774457 3:0.0411856 4:0.483427 5:0.594768 6:0.248048 7:0.43975 8:0.674019 9:0.04771 10:0.83084 11:4.6717 12:4.45842 13:0.00320479 14:0.832421 15:0 16:0.443977 17:0.269642 18:0.43975 19:0.707575 20:0.0178396 21:0.964121 22:4.41578 23:4.45842 24:0.145873 25:0.80167 26:0 27:0.443977 28:0.261688 29:0.332934 30:0.591996 31:0.0265214 32:0.940569 33:4.06022 34:4.13808 35:0.18245 36:0.631327 37:0.129423 38:0.315985 39:0.196407 40:0.169393 41:0.355092 42:0.0832584 43:0.870688 44:2.97292 45:3.15425 46:0.631327 47:0.832421 48:0.315985 49:0.443977 0:0 
0.004046936395102667 1:0.687072 2:0.714287 3:0.0717506 4:0.752061 5:0.709111 6:0.0778827 7:0.586536 8:0.658466 9:0.0152978 10:0.964855 11:4.06091 12:4.04538 13:0.145473 14:0.607504 15:0 16:0.423737 17:0.162847 18:0.586536 19:0.719389 20:0.0461897 21:0.787516 22:3.95194 23:4.04538 24:0.145473 25:0.588692 26:0 27:0.423737 28:0.192844 29:0.442265 30:0.634766 31:0.00689883 32:0.875456 33:3.79634 34:3.95639 35:0.168498 36:0.43886 37:0.213165 38:0.233177 39:0.154709 40:0.268078 41:0.368149 42:0.120261 43:0.765977 44:3.12175 45:3.48659 46:0.43886 47:0.607504 48:0.213165 49:0.423737 0:0 
0.003456474357808654 1:0.422357 2:0.660227 3:0.0665747 4:0.692004 5:0.660572 6:0.411786 7:0.0188644 8:0.406545 9:0.582525 10:0.597883 11:3.86849 12:2.88641 13:0.229315 14:0.493107 15:0 16:0.370482 17:0.180533 18:0.0188644 19:0.178054 20:0.525284 21:0.982964 22:2.84696 23:2.88641 24:0.457159 25:0.947516 26:0 27:0.370482 28:0.266068 29:0.369665 30:0.614867 31:0.0690968 32:0.889565 33:4.58513 34:4.41147 35:0.229315 36:0.68501 37:0 38:0.370482 39:0.517405 40:0.369665 41:0.881588 42:0.0419181 43:0.990805 44:4.42779 45:4.41147 46:0.274025 47:0.947516 48:0 49:0.370482 0:0 
0.0006604174732391136 1:0.0147781 2:0.0937332 3:0.0018692 4:0.443967 5:0.612245 6:0.142024 7:0.00332162 8:0.141755 9:0.522066 10:0.925101 11:4.65872 12:4.52928 13:0.136629 14:0.198521 15:0 16:0.0586715 17:0.163505 18:0.00332162 19:0.160702 20:0.817969 21:0.787283 22:4.1298 23:4.52928 24:0.0860053 25:0.136629 26:0 27:0.0586715 28:0.104877 29:0.0424127 30:0.147285 31:0.00395059 32:0.891454 33:3.81519 34:4.01113 35:0.002618 36:0.195904 37:0.0129372 38:0.0457343 39:0.0937977 40:0.0553499 41:0.149148 42:0 43:0.959845 44:3.55332 45:3.62651 46:0.002618 47:0.198521 48:0.0129372 49:0.0586715 0:0 
0.002620228433967468 1:0.0114264 2:0.0754856 3:0.00587463 4:0.364441 5:0.577992 6:0.238747 7:0.0459686 8:0.197127 9:0.845416 10:0.694971 11:4.16652 12:3.664 13:0 14:0.362223 15:0 16:0.0725539 17:0.15479 18:0.0459686 19:0.191199 20:0.184392 21:0.908387 22:3.51497 23:3.664 24:0.330684 25:0.362223 26:0 27:0.0725539 28:0.127091 29:0.0265853 30:0.153677 31:0 32:0.881164 33:2.11052 34:2.35619 35:0.0943043 36:0.330684 37:0.0516205 38:0.0725539 39:0.219579 40:0.0250351 41:0.197127 42:0.845416 43:0.909021 44:4.19102 45:4.04227 46:0 47:0.362223 48:0.0209334 49:0.0516205 0:0 
0.002972517466034314 1:0.000777711 2:0.0121816 3:0.000839233 4:0.872552 5:0.686952 6:0.479793 7:0.318198 8:0.797981 9:0.00196463 10:0.825358 11:4.05569 12:3.85568 13:0.210834 14:0.924731 15:0 16:0.261067 17:0.268992 18:0.318198 19:0.587189 20:0 21:0.707069 22:3.32868 23:3.85568 24:0.162886 25:0.713941 26:0 27:0.261067 28:0.055911 29:0.370845 30:0.425161 31:0.0106305 32:0.906217 33:3.16357 34:3.28009 35:0.162886 36:0.551858 37:0.052647 38:0.313714 39:0.183882 40:0.0571305 41:0.126752 42:1 43:0.897041 44:2.39667 45:2.59357 46:0.551858 47:0.924731 48:0.261067 49:0.313714 0:0 
0.001016196068740727 1:0.11783 2:0.354187 3:0.0219345 4:0.395265 5:0.61992 6:0.292874 7:0.0992387 8:0.381698 9:0.127451 10:0.88362 11:4.25847 12:4.07736 13:0 14:0.358839 15:0 16:0.114353 17:0.267485 18:0.0992387 19:0.350529 20:0.15805 21:0.98193 22:4.04606 23:4.07736 24:0.0469776 25:0.331995 26:0 27:0.114353 28:0.164708 29:0.0699357 30:0.228828 31:0.109696 32:0.933953 33:3.71437 34:3.82426 35:0.187036 36:0.194678 37:0.0415217 38:0.0873065 39:0.0643077 40:0.0178048 41:0.0465029 42:1 43:0.976988 44:2.59916 45:2.64478 46:0.192009 47:0.358839 48:0.0873065 49:0.121437 0:0 
0.006007166157416455 1:0.309018 2:0.563938 3:0.0682449 4:0.565047 5:0.811129 6:0.318922 7:0.100031 8:0.398453 9:0.181826 10:0.600917 11:3.68865 12:2.77392 13:0.0756384 14:0.366047 15:0 16:0.325734 17:0.250533 18:0.100031 19:0.348774 20:0.0510038 21:0.959316 22:2.8464 23:2.77392 24:0.271228 25:0.586935 26:0 27:0.325734 28:0.136706 29:0.326763 30:0.462963 31:0.00961557 32:0.863638 33:3.96902 34:3.87 35:0.300518 36:0.586935 37:0 38:0.325734 39:0.256758 40:0.326763 41:0.419833 42:0.209407 43:0.955309 44:3.80988 45:3.87 46:0.0756384 47:0.343443 48:0 49:0.325734 0:0 
-0.006458029198473218 1:0.558437 2:0.327995 3:0.0511609 4:0.45592 5:0.720005 6:0.0600317 7:0.231082 8:0.265262 9:0.0635547 10:0.573572 11:4.21919 12:4.43002 13:0.13956 14:0.236513 15:0.0713154 16:0.193028 17:0.124196 18:0.250619 19:0.329034 20:0.107264 21:0.529695 22:3.74567 23:4.17999 24:0.13956 25:0.280813 26:0.0713154 27:0.152255 28:0.0999729 29:0.291728 30:0.296297 31:0.108652 32:0.420949 33:3.04599 34:3.57448 35:0.140065 36:0.348722 37:0.123814 38:0.25308 39:0.0719496 40:0.156565 41:0.227411 42:0.0211798 43:0.949367 44:4.76089 45:4.70493 46:0.144308 47:0.348722 48:0.0971986 49:0.25308 0:0 
0.005831064633293121 1:0.268375 2:0.489281 3:0.020256 4:0.528525 5:0.695342 6:0.245757 7:0.180057 8:0.382017 9:0.17204 10:0.9408 11:3.98138 12:3.87071 13:0.0105266 14:0.442349 15:0 16:0.267805 17:0.183487 18:0.180057 19:0.257672 20:0.25225 21:0.915498 22:3.71997 23:3.87071 24:0.11459 25:0.295223 26:0 27:0.267805 28:0.193032 29:0.0805316 30:0.179598 31:0.483714 32:0.906608 33:3.49662 34:3.34272 35:0.11459 36:0.28143 37:0.107308 38:0.192569 39:0.0836381 40:0.122143 41:0.205781 42:0 43:0.86444 44:2.16024 45:1.90074 46:0.181728 47:0.463044 48:0.192569 49:0.276794 0:0 
0.001126466478165586 1:0.470845 2:0.670677 3:0.066213 4:0.507798 5:0.665048 6:0.367823 7:0.123794 8:0.483114 9:0.102788 10:0.859715 11:3.83434 12:3.52346 13:0.208155 14:0.353404 15:0 16:0.119595 17:0.365717 18:0.123794 19:0.487785 20:0.0460066 21:0.977509 22:3.47351 23:3.52346 24:0.163794 25:0.429452 26:0 27:0.119595 28:0.330709 29:0.121067 30:0.450343 31:0.041953 32:0.953365 33:2.91361 34:2.81553 35:0.163794 36:0.501849 37:0.0600541 38:0.170664 39:0.190771 40:0.136236 41:0.32428 42:0.0487158 43:0.922679 44:4.48227 45:4.33806 46:0.290782 47:0.501849 48:0.119595 49:0.170664 0:0 
0.002796261615824453 1:0.0488919 2:0.177353 3:0.0191384 4:0.58364 5:0.821927 6:0.126004 7:0.0560922 8:0.167313 9:0.197742 10:0.904225 11:3.69261 12:3.7753 13:0.112827 14:0.340455 15:0.0388473 16:0.177157 17:0.1959 18:0.0710075 19:0.19241 20:0.45692 21:0.911974 22:3.42712 23:3.60524 24:0.0486414 25:0.306275 26:0.0388473 27:0.198476 28:0.0634291 29:0.13925 30:0.155451 31:0.133657 32:0.640287 33:3.1724 34:3.34792 35:0.0486414 36:0.258219 37:0.121327 38:0.220333 39:0.0862721 40:0.127468 41:0.21374 42:0 43:0.794604 44:2.45968 45:1.99742 46:0.258219 47:0.340455 48:0.177157 49:0.220333 0:0 
0.001465313972518573 1:0.0934311 2:0.252378 3:0.0259781 4:0.520594 5:0.762866 6:0.071885 7:0.00603363 8:0.0775507 9:0.107398 10:0.965352 11:3.92362 12:3.95555 13:0.106762 14:0.22348 15:0 16:0.178702 17:0.0762955 18:0.00603363 19:0.07414 20:0.604276 21:0.828503 22:3.75626 23:3.95555 24:0.102011 25:0.160911 26:0 27:0.178702 28:0.0890746 29:0.176188 30:0.23139 31:0.110766 32:0.954389 33:3.01434 34:3.0399 35:0.127928 36:0.22348 37:0.16852 38:0.178702 39:0.158496 40:0.019229 41:0.169985 42:0.281472 43:0.994838 44:2.45296 45:2.4442 46:0.102011 47:0.206798 48:0.0252577 49:0.16852 0:0 
0.002991399015149636 1:0.319132 2:0.68863 3:0.0466919 4:0.604781 5:0.605235 6:0.312245 7:0.0674264 8:0.244818 9:1 10:0.40857 11:1.62394 12:6.15883 13:0.00106201 14:0.874486 15:0.0129153 16:0.340981 17:0.303692 18:0.385752 19:0.687664 20:0.0202942 21:0.855091 22:3.19761 23:3.04512 24:0.111073 25:0.874486 26:0 27:0.3394 28:0.305079 29:0.385752 30:0.668654 31:0.0717209 32:0.861758 33:2.86181 34:3.04512 35:0.111073 36:0.831513 37:0 38:0.3394 39:0.241035 40:0.385044 41:0.577968 42:0.0978827 43:0.835742 44:2.62307 45:2.85307 46:0.119461 47:0.723127 48:0.0165775 49:0.340981 0:0 
0.02342174789361296 1:0.302974 2:0.569275 3:0.0417328 4:1.01118 5:0.750653 6:0.0930356 7:0.185258 8:0.0922267 9:0.00218621 10:0.406414 11:3.90497 12:3.59191 13:0.108118 14:0.367948 15:0 16:0.2419 17:0.110836 18:0.185258 19:0.168627 20:0.200654 21:0.807444 22:3.69159 23:3.59191 24:0.108118 25:0.381625 26:0 27:0.2419 28:0.14181 29:0.419706 30:0.459552 31:0.0990404 32:0.465816 33:2.76504 34:3.00401 35:0.106656 36:0.367948 37:0.146283 38:0.2419 39:0.221578 40:0.282152 41:0.452212 42:0.127428 43:0.525308 44:2.53628 45:3.10935 46:0.106656 47:0.381625 48:0.0981801 49:0.146283 0:0 
0.01223878835187404 1:0.438551 2:0.854303 3:0.0470142 4:0.564714 5:0.733472 6:0.138961 7:0.326104 8:0.360913 9:0.125636 10:0.63543 11:3.61111 12:3.4229 13:0.25346 14:0.74513 15:0 16:0.498847 17:0.195159 18:0.326104 19:0.513779 20:0.0416522 21:0.96562 22:3.45701 23:3.4229 24:0.176519 25:0.730351 26:0 27:0.498847 28:0.204028 29:0.41331 30:0.615837 31:0.0155843 32:0.93027 33:3.24079 34:3.3014 35:0.176519 36:0.711865 37:0.139323 38:0.491042 39:0.171548 40:0.332111 41:0.503615 42:0.00305011 43:0.816981 44:2.22187 45:2.43089 46:0.711865 47:0.74513 48:0.491042 49:0.498847 0:0 
0.00405574813532748 1:0.121644 2:0.322297 3:0.0455115 4:0.35558 5:0.709568 6:0.248962 7:0.0603273 8:0.288696 9:0.245152 10:0.914952 11:3.67358 12:3.52531 13:0.0823462 14:0.204952 15:0 16:0.0899059 17:0.285078 18:0.0603273 19:0.311142 20:0.329312 21:0.937326 22:3.42881 23:3.52531 24:0.0823462 25:0.166001 26:0 27:0.0899059 28:0.165204 29:0.0501469 30:0.211699 31:0.10722 32:0.97109 33:2.12299 34:2.06126 35:0.166001 36:0.204952 37:0.0899059 38:0.0995744 39:0.158687 40:0.0824731 41:0.231299 42:0.127772 43:0.904099 44:3.91761 45:4.00619 46:0.089068 47:0.201598 48:0.0296603 49:0.0995744 0:0 
0.004351579871416298 1:0.0322822 2:0.132302 3:0.019989 4:0.419653 5:0.749726 6:0.068211 7:0.0278727 8:0.0656954 9:0.461661 10:0.63087 11:4.09172 12:3.91588 13:0.149463 14:0.27834 15:0 16:0.0841296 17:0.0917452 18:0.0278727 19:0.109765 20:0.243955 21:0.872498 22:3.84596 23:3.91588 24:0.123941 25:0.164325 26:0 27:0.0841296 28:0.123353 29:0.0908224 30:0.171536 31:0.243799 32:0.89318 33:3.50468 34:3.61178 35:0.149463 36:0.274399 37:0.0841296 38:0.129214 39:0.186339 40:0.0400922 41:0.220709 42:0.156626 43:0.999323 44:2.47714 45:2.47599 46:0.123941 47:0.27834 48:0.0498374 49:0.129214 0:0 
0.001315933860738023 1:0.797715 2:1.03297 3:0.0488341 4:0.194969 5:0.559826 6:0.222924 7:0.335035 8:0.505057 9:0.112146 10:0.855917 11:3.91785 12:3.73079 13:0.223336 14:0.347976 15:0 16:0.152375 17:0.348657 18:0.335035 19:0.67826 20:0.0409596 21:0.948861 22:3.65325 23:3.73079 24:0.12975 25:0.365415 26:0 27:0.152375 28:0.281838 29:0.486449 30:0.765506 31:0.0206064 32:0.96762 33:3.45217 34:3.49094 35:0.12975 36:0.444076 37:0.152375 38:0.246463 39:0.0994355 40:0.240542 41:0.323411 42:0.0628206 43:0.768081 44:2.18083 45:2.58299 46:0.24466 47:0.444076 48:0.0945079 49:0.246463 0:0 
0.009568697696899341 1:0.2029 2:0.416878 3:0.0627428 4:0.679955 5:0.843399 6:0.0650081 7:0.409705 8:0.469002 9:0.019351 10:0.786315 11:3.65526 12:3.57743 13:0.124144 14:0.609888 15:0 16:0.556061 17:0.130457 18:0.409705 19:0.501421 20:0.0652688 21:0.908829 22:3.5104 23:3.57743 24:0.124144 25:0.61239 26:0 27:0.556061 28:0.154868 29:0.0859328 30:0.21602 31:0.199577 32:0.918488 33:2.78046 34:2.62456 35:0.0580104 36:0.578574 37:0.0978893 38:0.479842 39:0.054641 40:0.182906 41:0.208309 42:0.0790924 43:0.933793 44:2.59164 45:2.65637 46:0.0580104 47:0.61239 48:0.0978893 49:0.556061 0:0 
0.0004385516331899076 1:0.209436 2:0.399404 3:0.0291114 4:0.716806 5:0.733309 6:0.504423 7:0.106185 8:0.610043 9:0.0298447 10:0.896635 11:3.76905 12:3.57273 13:0.112992 14:0.61243 15:0 16:0.343793 17:0.198441 18:0.106185 19:0.1767 20:0.473512 21:0.756867 22:3.02935 23:3.57273 24:0.468691 25:0.723634 26:0 27:0.343793 28:0.0989055 29:0.449705 30:0.446896 31:0.0703416 32:0.589805 33:4.45432 34:4.04813 35:0.196828 36:0.468691 37:0 38:0.343793 39:0.268533 40:0.449705 41:0.716844 42:0.0153246 43:0.954762 44:3.99391 45:4.04813 46:0.112992 47:0.723634 48:0 49:0.343793 0:0 
0.001907662491487136 1:0.215544 2:0.403142 3:0.028005 4:0.72153 5:0.740672 6:0.0959198 7:0.449264 8:0.469782 9:0.0650348 10:0.678658 11:4.35418 12:4.05517 13:0.126816 14:0.498914 15:0 16:0.347867 17:0.259128 18:0.449264 19:0.70801 20:0.00793289 21:0.913417 22:3.94861 23:4.05517 24:0.259735 25:0.726329 26:0 27:0.347867 28:0.20057 29:0.103804 30:0.172649 31:0.496851 32:0.714179 33:3.10349 34:3.77489 35:0.385686 36:0.726329 37:0.0199455 38:0.347867 39:0.2238 40:0.123686 41:0.346483 42:0.0325733 43:0.79497 44:4.63651 45:4.24241 46:0.126816 47:0.385686 48:0.0199455 49:0.328189 0:0 
0.001579580198333329 1:0.255631 2:0.52501 3:0.0366294 4:0.49631 5:0.70502 6:0.22022 7:0.237626 8:0.226329 9:0.314506 10:0.591425 11:4.14033 12:3.47339 13:0.173414 14:0.447619 15:0 16:0.240494 17:0.27933 18:0.237626 19:0.516209 20:0.0185494 21:0.979891 22:3.44667 23:3.47339 24:0.447619 25:0.582108 26:0 27:0.240494 28:0.124885 29:0.0217056 30:0.146207 31:0.0553426 32:0.623995 33:5.06768 34:4.31248 35:0.0059096 36:0.579017 37:0 38:0.240494 39:0.130654 40:0.0217056 41:0.151977 42:0.0554091 43:0.843431 44:4.63991 45:4.31248 46:0.0059096 47:0.582108 48:0 49:0.240494 0:0 
0.004862292613737158 1:0.530016 2:0.506583 3:0.0459594 4:0.690908 5:0.621198 6:0.086662 7:0.232309 8:0.289605 9:0.0800015 10:0.904056 11:4.22956 12:4.12958 13:0.117699 14:0.295532 15:0 16:0.165317 17:0.158355 18:0.232309 19:0.389419 20:0.0209742 21:0.951636 22:4.07413 23:4.12958 24:0.0773311 25:0.329522 26:0 27:0.165317 28:0.051415 29:0.38799 30:0.430883 31:0.0220746 32:0.567034 33:3.8437 34:3.95752 35:0.0773311 36:0.384531 37:0.155889 38:0.321205 39:0.278809 40:0.170768 41:0.448776 42:0.0242837 43:0.978813 44:2.41702 45:2.45788 46:0.165578 47:0.43955 48:0.0996993 49:0.236927 0:0 
0.002605219126511564 1:0.418056 2:0.742827 3:0.0448608 4:0.581722 5:0.601447 6:0.395853 7:0.151065 8:0.546912 9:0.00245764 10:0.883175 11:4.45963 12:4.21097 13:0.00529623 14:0.587475 15:0 16:0.177468 17:0.26333 18:0.151065 19:0.412961 20:0.034995 21:0.954774 22:4.12107 23:4.21097 24:0.132933 25:0.448965 26:0 27:0.177468 28:0.100031 29:0.0618826 30:0.136135 31:0.237958 32:0.904685 33:2.87342 34:2.69829 35:0.448965 36:0.589247 37:0.177468 38:0.221991 39:0.339769 40:0.202881 41:0.54232 42:0.0143904 43:0.910894 44:4.82701 45:4.65465 46:0.0174287 47:0.579608 48:0 49:0.221991 0:0 
0.001910043162765868 1:0.132934 2:0.359437 3:0.0457548 4:0.715594 5:0.561444 6:0.201843 7:0.0804111 8:0.255688 9:0.226976 10:0.80899 11:4.42495 12:4.21068 13:0.00282572 14:1.11015 15:0 16:0.109141 17:0.976437 18:0.0804111 19:0.917729 20:0.75114 21:0.678967 22:3.83866 23:4.21068 24:0.709387 25:1.11015 26:0 27:0.109141 28:0.30533 29:0.108296 30:0.405742 31:0.105159 32:0.902522 33:3.02368 34:3.17333 35:0.52089 36:0.709387 37:0.109141 38:0.112853 39:0.219017 40:0.0460627 41:0.252873 42:0.21681 43:0.907816 44:4.45227 45:4.32949 46:0.00282572 47:1.108 48:0.0377624 49:0.112853 0:0 
0.0001965876595304495 1:0.197528 2:0.487815 3:0.0309139 4:0.876929 5:0.587483 6:0.308401 7:0.201191 8:0.509452 9:0.00924579 10:0.856117 11:4.4919 12:4.26867 13:0 14:0.437681 15:0 16:0.0748409 17:0.124322 18:0.201191 19:0.283928 20:0.124372 21:0.861101 22:4.12136 23:4.26867 24:0.208724 25:0.263775 26:0 27:0.0748409 28:0.0692212 29:0.133099 30:0.0855524 31:0.151492 32:0.656528 33:3.73719 34:3.97566 35:0.208724 36:0.437681 37:0.0250599 38:0.0712111 39:0.37153 40:0.1446 41:0.509452 42:0.082472 43:0.973818 44:4.51251 45:4.46499 46:0 47:0.437681 48:0.0250599 49:0.0748409 0:0 
0.002234562006489032 1:0.262549 2:0.484974 3:0.0671897 4:0.592929 5:0.5633 6:0.102866 7:0.0901808 8:0.152137 9:0.227994 10:0.848937 11:4.79913 12:4.92248 13:0.25825 14:0.465582 15:0.117306 16:0.213527 17:0.236811 18:0.245671 19:0.436906 20:0.136753 21:0.886202 22:3.89843 23:3.98547 24:0.340244 25:0.388489 26:0.172625 27:0.22773 28:0.233021 29:0.224818 30:0.451928 31:0.0521389 32:0.857816 33:3.43478 34:3.58161 35:0.273614 36:0.465582 37:0.159245 38:0.213527 39:0.105678 40:0.0914055 41:0.188361 42:0.102426 43:0.514343 44:2.48933 45:3.38145 46:0.25825 47:0.341947 48:0.117306 49:0.22773 0:0 
0.003762086379043249 1:0.663575 2:0.606351 3:0.0780042 4:0.820111 5:0.536597 6:0.255699 7:0.413831 8:0.637562 9:0.0769058 10:0.797922 11:4.45495 12:4.28981 13:0.0676939 14:0.910773 15:0 16:0.438036 17:0.198164 18:0.413831 19:0.596222 20:0.0496973 21:0.901247 22:4.19351 23:4.28981 24:0.0676939 25:0.911099 26:0 27:0.438036 28:0.242283 29:0.301399 30:0.426709 31:0.186718 32:0.83003 33:3.75058 34:3.89145 35:0.308315 36:0.690614 37:0.113598 38:0.325859 39:0.323111 40:0.173597 41:0.180408 42:0.732005 43:0.485849 44:2.79435 45:3.73091 46:0.492934 47:0.762524 48:0.131174 49:0.242438 0:0 
0.003010312568684009 1:0.686944 2:1.11708 3:0.118217 4:0.467354 5:0.6012 6:0.0529927 7:0.527162 8:0.537921 9:0.0310288 10:0.69529 11:3.48965 12:3.32967 13:0.238153 14:0.328459 15:0 16:0.274164 17:0.217169 18:0.527162 19:0.728658 20:0.0416339 21:0.959799 22:3.29996 23:3.32967 24:0.0952661 25:0.456811 26:0 27:0.274164 28:0.195746 29:0.622669 30:0.818241 31:0.0036784 32:0.960322 33:3.07794 34:3.10722 35:0.0952661 36:0.551262 37:0.105263 38:0.361112 39:0.0770014 40:0.267076 41:0.301092 42:0.0777356 43:0.669633 44:2.21657 45:2.63286 46:0.328459 47:0.551262 48:0.274164 49:0.361112 0:0 
0.006146117423457139 1:0.161548 2:0.425979 3:0.0488281 4:0.494199 5:0.679296 6:0.272254 7:0.324867 8:0.594485 9:0.0273857 10:0.861802 11:3.03094 12:2.90687 13:0.113334 14:0.653808 15:0 16:0.335054 17:0.239042 18:0.324867 19:0.537938 20:0.0827411 21:0.841138 22:2.71364 23:2.90687 24:0.113334 25:0.588417 26:0 27:0.335054 28:0.126032 29:0.301227 30:0.389596 31:0.0837375 32:0.851172 33:2.53846 34:2.69596 35:0.150448 36:0.438109 37:0.028636 38:0.311018 39:0.0649728 40:0.0127584 41:0.0777312 42:0 43:0.880206 44:1.63736 45:1.98321 46:0.438109 47:0.653808 48:0.311018 49:0.335054 0:0 
0.001636629075562501 1:0.601768 2:0.51465 3:0.122083 4:0.572281 5:0.697441 6:0.125637 7:0.443868 8:0.565171 9:0.0207935 10:0.865979 11:3.53796 12:3.44983 13:0.194404 14:0.468807 15:0 16:0.353575 17:0.209078 18:0.443868 19:0.536812 20:0.122889 21:0.901885 22:3.34399 23:3.44983 24:0.194404 25:0.317935 26:0 27:0.353575 28:0.29385 29:0.317134 30:0.503712 31:0.183322 32:0.938882 33:3.10927 34:3.19559 35:0.159212 36:0.3831 37:0.156899 38:0.253971 39:0.0618293 40:0.413825 41:0.386983 42:0.0443402 43:0.641519 44:2.93124 45:3.00904 46:0.159212 47:0.468807 48:0.253971 49:0.353575 0:0 
0.004413295070806323 1:0.792751 2:1.06085 3:0.120573 4:1.1019 5:0.555016 6:0.282572 7:0.427552 8:0.678772 9:0.0766227 10:0.952306 11:3.99531 12:3.93499 13:0.212834 14:0.511972 15:0 16:0.288968 17:0.285722 18:0.427552 19:0.695878 20:0.0573693 21:0.844489 22:3.73677 23:3.93499 24:0.212834 25:0.384223 26:0 27:0.288968 28:0.227249 29:0.439642 30:0.631145 31:0.0740989 32:0.73684 33:3.22266 34:3.51874 35:0.170645 36:0.511972 37:0.194037 38:0.206563 39:0.213296 40:0.252753 41:0.464056 42:0.0270454 43:0.781064 44:2.67338 45:3.04714 46:0.170645 47:0.510953 48:0.206563 49:0.288968 0:0 
0.003900654997598368 1:0.696148 2:0.501605 3:0.0996744 4:2.37613 5:0.576129 6:0.244744 7:0.299557 8:0.516494 9:0.0920105 10:0.869757 11:4.26147 12:4.0819 13:0.207252 14:0.458492 15:0 16:0.244046 17:0.219729 18:0.299557 19:0.512053 20:0.0454829 21:0.809769 22:3.82668 23:4.0819 24:0.147927 25:0.343414 26:0 27:0.244046 28:0.183059 29:0.354181 30:0.5283 31:0.0416104 32:0.80905 33:3.52339 34:3.74736 35:0.0908687 36:0.35262 37:0.099016 38:0.254722 39:0.181532 40:0.339813 41:0.517542 42:0.0280658 43:0.70458 44:3.0843 45:3.47441 46:0.0908687 47:0.43104 48:0.099016 49:0.211109 0:0 
-0.009004992941172645 1:0.666976 2:0.559886 3:0.370307 4:0.760433 5:0.84465 6:0.0980657 7:0.201046 8:0.272055 9:0.09238 10:0.713072 11:3.82614 12:3.66617 13:0.171166 14:0.522634 15:0 16:0.333694 17:0.143034 18:0.201046 19:0.323107 20:0.0934593 21:0.973029 22:3.63961 23:3.66617 24:0.171166 25:0.515018 26:0 27:0.333694 28:0.118995 29:0.42102 30:0.536343 31:0.0196516 32:0.92459 33:3.14907 34:3.1896 35:0.363133 36:0.606866 37:0.119437 38:0.421099 39:0.364782 40:0.332394 41:0.436727 42:0.303378 43:0.393722 44:2.63098 45:3.29013 46:0.380497 47:0.551549 48:0.119437 49:0.308599 0:0 
0.0008301664267887167 1:0.015446 2:0.0847258 3:0.00675201 4:0.307887 5:0.631556 6:0.124369 7:0.0096029 8:0.12091 9:0.605578 10:0.804148 11:4.30655 12:4.69404 13:0.152167 14:0.237769 15:0 16:0.0717011 17:0.0587758 18:0.0096029 19:0.0661566 20:0.205735 21:0.340215 22:2.9694 23:4.69404 24:0.0973023 25:0.152167 26:0 27:0.0717011 28:0.0602791 29:0.081304 30:0.141583 31:0 32:0.994136 33:2.21018 34:2.22225 35:0.0275271 36:0.214042 37:0.00155136 38:0.0717011 39:0.0893575 40:0.0797527 41:0.16911 42:0 43:0.949305 44:1.73724 45:1.64958 46:0.0275271 47:0.237769 48:0.00155136 49:0.0701497 0:0 
0.004929691469432593 1:0 2:0 3:0 4:0.441126 5:0.806109 6:0.183429 7:0.139137 8:0.322566 9:0 10:0.871948 11:3.67909 12:3.56693 13:0.172112 14:0.268639 15:0 16:0.16188 17:0.0852099 18:0.139137 19:0.053927 20:0 21:0.710565 22:3.20305 23:3.56693 24:0.0432153 25:0.268639 26:0 27:0.16188 28:0.170387 29:0.019933 30:0.150454 31:1 32:0.804482 33:2.36974 34:2.73909 35:0.0533119 36:0.172112 37:0.00280991 38:0.15907 39:0.119885 40:0.0227429 41:0.0971423 42:1 43:0.890271 44:2.05622 45:2.26819 46:0.0432153 47:0.225424 48:0.00280991 49:0.16188 0:0 
-0.01203972687808046 1:0.570873 2:0.457836 3:0.0310898 4:0.457692 5:0.753969 6:0.192496 7:0.0794191 8:0.267733 9:0.0873963 10:0.762904 11:4.5105 12:5.02868 13:0.0786129 14:0.628677 15:0 16:0.174852 17:0.148599 18:0.0794191 19:0.212737 20:0.162492 21:0.595909 22:4.11563 23:5.02868 24:0.0786129 25:0.551454 26:0 27:0.174852 28:0.105499 29:0.0855561 30:0.145244 31:0.255176 32:0.640756 33:2.84957 34:3.27306 35:0.257565 36:0.333075 37:0.0986063 38:0.129653 39:0.322891 40:0.0972627 41:0.415804 42:0.0838433 43:0.93005 44:2.09365 45:1.92957 46:0.297369 47:0.628677 48:0.129653 49:0.174852 0:0 
-0.002610820101757839 1:0.580329 2:0.488538 3:0.0355148 4:0.3407 5:0.728239 6:0.29151 7:0.065894 8:0.355321 9:0.0725121 10:0.802786 11:4.90238 12:5.36281 13:0.16842 14:0.706669 15:0 16:0.360763 17:0.15787 18:0.065894 19:0.210538 20:0.173065 21:0.462217 22:4.08565 23:5.36281 24:0.16842 25:0.539071 26:0 27:0.360763 28:0.32946 29:0.10882 30:0.425911 31:0.133193 32:0.882973 33:1.99525 34:1.72821 35:0.11202 36:0.706669 37:0.173548 38:0.192164 39:0.0504723 40:0.298986 41:0.345415 42:0.0196099 43:0.952032 44:1.34689 45:1.37005 46:0.11202 47:0.660475 48:0.192164 49:0.360763 0:0 
-0.0004989100669771809 1:0.750112 2:0.656599 3:0.0478363 4:0.561566 5:0.7741 6:0.508395 7:0.0823842 8:0.494357 9:0.528524 10:0.439298 11:3.96401 12:2.4573 13:0.551387 14:0.787428 15:0 16:0.196656 17:0.172343 18:0.0823842 19:0.254005 20:0.0347093 21:0.95555 22:2.55685 23:2.4573 24:0.206463 25:0.551387 26:0 27:0.196656 28:0.348178 29:0.151165 30:0.495875 31:0.0570587 32:0.699007 33:1.9513 34:2.50201 35:0.0625596 36:0.787428 37:0.0687805 38:0.136415 39:0.162861 40:0.274206 41:0.433933 42:0.029349 43:0.997828 44:1.31561 45:1.31799 46:0.0625596 47:0.744335 48:0.136415 49:0.196656 0:0 
-0.002113984584674934 1:0.534412 2:0.444276 3:0.043602 4:0.536606 5:0.775901 6:0.484844 7:0.110391 8:0.462824 9:0.527075 10:0.423703 11:3.94214 12:2.45928 13:0.0287644 14:0.491843 15:0 16:0.374548 17:0.152722 18:0.110391 19:0.200804 20:0.27128 21:0.637785 22:3.20906 23:2.45928 24:0.144331 25:0.354274 26:0 27:0.374548 28:0.125123 29:0.13169 30:0.24928 31:0.0753005 32:0.665122 33:2.0251 34:2.60632 35:0.144331 36:0.493037 37:0.0213002 38:0.386096 39:0.124881 40:0.331729 41:0.449416 42:0.0344531 43:0.995167 44:4.57807 45:4.58156 46:0.0287644 47:0.493037 48:0.374548 49:0.386096 0:0 
0.001136816791366469 1:0.277218 2:0.221481 3:0.0376129 4:0.437219 5:0.638551 6:0.120154 7:0.0794411 8:0.196825 9:0.0654071 10:0.918604 11:4.30655 12:4.15379 13:0.107163 14:0.307651 15:0 16:0.15967 17:0.0925673 18:0.0794411 19:0.162062 20:0.117773 21:0.707271 22:3.39799 23:4.15379 24:0.107163 25:0.210187 26:0 27:0.15967 28:0.0562199 29:0.0509902 30:0.0903346 31:0.191208 32:0.932285 33:3.02715 34:3.18918 35:0.0961753 36:0.234348 37:0.0669306 38:0.106884 39:0.169564 40:0.0825225 41:0.186116 42:0.36436 43:0.954153 44:2.13256 45:2.23484 46:0.0961753 47:0.307651 48:0.106884 49:0.15967 0:0 
0.006516045763520301 1:0.45305 2:0.372107 3:0.0401306 4:0.395446 5:0.638606 6:0.256205 7:0.0624114 8:0.311385 9:0.139111 10:0.674292 11:4.06731 12:4.94089 13:0.171427 14:0.600227 15:0 16:0.179899 17:0.120739 18:0.0624114 19:0.157075 20:0.247097 21:0.479009 22:3.47827 23:4.94089 24:0.171427 25:0.430582 26:0 27:0.179899 28:0.0828398 29:0.0175191 30:0.0918 31:0.302304 32:0.885646 33:2.9211 34:2.59304 35:0.2033 36:0.372839 37:0.0785892 38:0.101311 39:0.182832 40:0.117889 41:0.300003 42:0.0274156 43:0.701458 44:2.17048 45:1.49097 46:0.227467 47:0.600227 48:0.101311 49:0.179899 0:0 
0.0001336703260521492 1:0.424 2:0.337892 3:0.0336456 4:0.394247 5:0.659927 6:0.232146 7:0.0743289 8:0.296882 9:0.14271 10:0.638794 11:4.01183 12:4.96757 13:0.183472 14:0.564348 15:0 16:0.193601 17:0.0848273 18:0.0743289 19:0.122523 20:0.238375 21:0.440045 22:3.39627 23:4.96757 24:0.183472 25:0.386243 26:0 27:0.193601 28:0.0783709 29:0.0246005 30:0.102361 31:0.0620245 32:0.857525 33:2.86842 34:2.46685 35:0.190227 36:0.386702 37:0.0988895 38:0.100387 39:0.144451 40:0.123183 41:0.267466 42:0.0121851 43:0.749894 44:2.16357 45:1.59857 46:0.190227 47:0.564348 48:0.100387 49:0.193601 0:0 
0.001923894279599605 1:0.00753322 2:0.0487957 3:0.00183105 4:0.553683 5:0.703605 6:0.240151 7:0.00295311 8:0.237269 9:0.929247 10:0.93989 11:4.56977 12:4.42859 13:0.315321 14:0.489631 15:0 16:0.143698 17:0.0765669 18:0.00295311 19:0.07952 20:0 21:0.504408 22:3.10071 23:4.42859 24:0.0930202 25:0.315321 26:0 27:0.143698 28:0.0981797 29:0.0743605 30:0.17254 31:0 32:0.915909 33:2.64126 34:2.81254 35:0.0581549 36:0.407344 37:0.0550896 38:0.0722906 39:0.084044 40:0.146651 41:0.230695 42:0 43:0.949927 44:2.28331 45:2.35619 46:0.024702 47:0.465078 48:0.017201 49:0.143698 0:0 
0.0009450216040181013 1:0.486594 2:0.475692 3:0.0376892 4:0.461111 5:0.603436 6:0.302183 7:0.155107 8:0.447048 9:0.0946432 10:0.830121 11:4.58662 12:4.9368 13:0.445463 14:0.663222 15:0 16:0.294163 17:0.145995 18:0.155107 19:0.0333268 20:0.378397 21:0.344108 22:3.20816 23:4.9368 24:0.144377 25:0.445463 26:0 27:0.294163 28:0.120106 29:0.0388674 30:0.121719 31:0.435622 32:0.905133 33:2.77591 34:3.01119 35:0.144377 36:0.552902 37:0.124186 38:0.176436 39:0.134759 40:0.159771 41:0.270105 42:0.119252 43:0.902485 44:1.97885 45:1.81369 46:0.249348 47:0.663222 48:0.124186 49:0.294163 0:0 
-0.003088253995449088 1:0.25526 2:0.231812 3:0.0553026 4:0.698498 5:0.881513 6:0.129037 7:0.0466001 8:0.172796 9:0.0958777 10:0.631716 11:3.84418 12:3.38271 13:0.100556 14:0.527567 15:0 16:0.0994839 17:0.163703 18:0.0466001 19:0.208993 20:0.0667904 21:0.794813 22:3.67655 23:3.38271 24:0.100556 25:0.505166 26:0 27:0.0994839 28:0.0892412 29:0.139953 30:0.143484 31:0.203762 32:0.565919 33:3.16073 34:3.43659 35:0.158179 36:0.373142 37:0.0994839 38:0.151835 39:0.337518 40:0.0604459 41:0.396234 42:0.0703339 43:0.606794 44:2.42319 45:2.99578 46:0.373142 47:0.527567 48:0.0871921 49:0.151835 0:0 
-0.004651958814126814 1:0.286269 2:0.247845 3:0.0493662 4:0.671592 5:0.815519 6:0.145886 7:0.042043 8:0.160035 9:0.350344 10:0.560937 11:3.85022 12:3.2587 13:0.107331 14:0.403281 15:0 16:0.0934615 17:0.16125 18:0.042043 19:0.164496 20:0.434531 21:0.745804 22:3.62698 23:3.2587 24:0.107331 25:0.382283 26:0 27:0.0934615 28:0.0824158 29:0.0976509 30:0.117705 31:0.243214 32:0.561156 33:3.03311 34:3.3103 35:0.165576 36:0.23812 37:0.0934615 38:0.137858 39:0.189536 40:0.0725044 41:0.243382 42:0.199766 43:0.622589 44:2.48524 45:2.90355 46:0.23812 47:0.403281 48:0.0785323 49:0.137858 0:0 
0.0009592290892836129 1:0.718919 2:0.589868 3:0.110751 4:1.53344 5:0.579699 6:0.307233 7:0.0423717 8:0.300952 9:0.525296 10:0.958776 11:4.87488 12:4.9741 13:0.509453 14:0.656326 15:0 16:0.231649 17:0.481832 18:0.0423717 19:0.440238 20:0.936073 21:0.468478 22:3.47855 23:4.9741 24:0.153317 25:0.509453 26:0 27:0.231649 28:0.36779 29:0.173365 30:0.540207 31:0.027459 32:0.932418 33:3.13649 34:3.28468 35:0.108465 36:0.650341 37:0.0890973 38:0.212377 39:0.330071 40:0.202862 41:0.514506 42:0.107652 43:0.940282 44:2.81485 45:2.69687 46:0.108465 47:0.656326 48:0.0456348 49:0.231649 0:0 
-0.00250197072051374 1:0.33686 2:0.291751 3:0.0475756 4:0.58906 5:0.843765 6:0.128157 7:0.0850704 8:0.203463 9:0.11941 10:0.807542 11:3.97676 12:3.68201 13:0.0468671 14:0.594104 15:0 16:0.228438 17:0.118562 18:0.0850704 19:0.17966 20:0.186714 21:0.951961 22:3.76239 23:3.68201 24:0.0468671 25:0.558059 26:0 27:0.228438 28:0.0655032 29:0.0614291 30:0.036544 31:0.441657 32:0.659515 33:3.16432 34:3.34909 35:0.185256 36:0.405791 37:0.0300412 38:0.207071 39:0.27102 40:0.146756 41:0.401545 42:0.121878 43:0.909017 44:2.36432 45:2.51051 46:0.405791 47:0.594104 48:0.207071 49:0.228438 0:0 
-0.005078151798739747 1:0.353287 2:0.298763 3:0.0422817 4:0.587486 5:0.84806 6:0.135798 7:0.092797 8:0.218847 9:0.113444 10:0.833966 11:3.94921 12:3.69062 13:0.0387176 14:0.58404 15:0 16:0.100876 17:0.119981 18:0.092797 19:0.193086 20:0.158238 21:0.951057 22:3.77179 23:3.69062 24:0.0387176 25:0.549574 26:0 27:0.100876 28:0.0705121 29:0.0760902 30:0.0292234 31:0.377329 32:0.661716 33:3.16861 34:3.37897 35:0.184822 36:0.39122 37:0.0232542 38:0.0913831 39:0.387978 40:0.0368215 41:0.382228 42:0.534819 43:0.654267 44:2.37224 45:3.03544 46:0.39122 47:0.58404 48:0.0913831 49:0.100876 0:0 
-0.001563276530073464 1:0.352852 2:0.298189 3:0.0460815 4:0.590242 5:0.844633 6:0.0787943 7:0.263662 8:0.341247 9:0.0145918 10:0.967736 11:1.71597 12:1.68599 13:0.0487431 14:0.540044 15:0.158291 16:0.361302 17:0.124298 18:0.0997325 19:0.21551 20:0.0985873 21:0.859023 22:3.96429 23:3.74904 24:0.0402704 25:0.585592 26:0 27:0.361302 28:0.115381 29:0.0997325 30:0.194456 31:0.152027 32:0.977689 33:3.78604 34:3.74904 35:0.0402704 36:0.554301 37:0 38:0.361302 39:0.263101 40:0.133633 41:0.383127 42:0.118168 43:0.896536 44:2.39805 45:2.56617 46:0.0487431 47:0.585592 48:0.158291 49:0.231654 0:0 
-0.002598358983672579 1:0.37982 2:0.325361 3:0.0437927 4:0.598454 5:0.86727 6:0.357984 7:0.054163 8:0.39858 9:0.215582 10:0.68927 11:2.32395 12:2.89276 13:0.380322 14:0.59863 15:0.0938149 16:0.104038 17:0.171678 18:0.0521943 19:0.221092 20:0.0914828 21:0.725487 22:3.98752 23:3.51415 24:0.0671413 25:0.59863 26:0 27:0.104038 28:0.113358 29:0.0521943 30:0.158918 31:0.134552 32:0.917623 33:3.65714 34:3.51415 35:0.0671413 36:0.531519 37:0 38:0.104038 39:0.0524069 40:0.0396624 41:0.0207293 42:0.649381 43:0.688896 44:3.12325 45:3.28275 46:0.169705 47:0.380322 48:0.0234657 49:0.0938149 0:0 
0.005651907651208619 1:0 2:0 3:0 4:0.64304 5:0.567925 6:0.20923 7:0.0768013 8:0.132429 9:1 10:0.701132 11:3.43431 12:2.83492 13:0.355124 14:0.520186 15:0 16:0.162857 17:0.145893 18:0.0768013 19:0.222695 20:0 21:0.919482 22:2.64105 23:2.83492 24:0.130912 25:0.355124 26:0 27:0.162857 28:0.113948 29:0.239658 30:0.353606 31:0 32:0.919493 33:2.4891 34:2.53234 35:0.0341503 36:0.486036 37:0.0110997 38:0.162857 39:0.159198 40:0.228559 41:0.387757 42:0 43:0.876019 44:2.12187 45:2.27863 46:0.0341503 47:0.520186 48:0.0110997 49:0.151757 0:0 
-0.0002153819992831905 1:0.385738 2:0.332277 3:0.0426418 4:0.593815 5:0.862898 6:0.0844732 7:0.299622 8:0.383294 9:0.0109012 10:0.913861 11:1.78714 12:1.70284 13:0.0424685 14:0.577739 15:0.170725 16:0.350202 17:0.170961 18:0.0527114 19:0.219931 20:0.105648 21:0.73818 22:4.0259 23:3.57094 24:0.0679842 25:0.61511 26:0 27:0.350202 28:0.112768 29:0.0527114 30:0.157135 31:0.150285 32:0.938917 33:3.6787 34:3.57094 35:0.0679842 36:0.54715 37:0 38:0.350202 39:0.0618375 40:0.0421857 41:0.0247227 42:0.74108 43:0.679544 44:3.14159 45:3.31535 46:0.174482 47:0.392536 48:0.0225552 49:0.332118 0:0 
-0.003229673595810752 1:0.18516 2:0.231454 3:0.00876726 4:0.238465 5:0.638188 6:0.0989769 7:0.0986231 8:0.0309279 9:0.453573 10:0.308501 11:3.11067 12:4.06165 13:0.0818667 14:0.202612 15:0.0169409 16:0.11789 17:0.0967467 18:0.0505868 19:0.139136 20:0.149234 21:0.858846 22:4.8113 23:4.54724 24:0.130606 25:0.185484 26:0.0485303 27:0.0701564 28:0.112427 29:0.107777 30:0.196196 31:0.153488 32:0.985149 33:4.35675 34:4.37615 35:0.138145 36:0.207487 37:0.0169409 38:0.126509 39:0.0571392 40:0.019851 41:0.0570389 42:0.445961 43:0.427787 44:1.8875 45:0.622032 46:0.0818667 47:0.207487 48:0.0701564 49:0.126509 0:0 
-0.001579907353940656 1:0.447264 2:0.384076 3:0.120397 4:1.37094 5:0.810108 6:0.129823 7:0.22868 8:0.353952 9:0.0381446 10:0.549608 11:4.64453 12:4.07655 13:0.142448 14:1.03252 15:0 16:0.838826 17:0.0736568 18:0.22868 19:0.268237 20:0.0800665 21:0.896454 22:3.96991 23:4.07655 24:0.142448 25:0.925 26:0 27:0.838826 28:0.317434 29:0.511997 30:0.341996 31:0.207579 32:0.402323 33:2.8436 34:1.51461 35:0.47337 36:0.644888 37:0 38:0.728192 39:0.186901 40:0.511997 41:0.679551 42:0.0447261 43:0.963189 44:1.5544 45:1.51461 46:0.00775659 47:1.03129 48:0 49:0.728192 0:0 
-0.003080810588457124 1:0.751368 2:0.643738 3:0.0244904 4:0.462516 5:0.693673 6:0.0582616 7:0.377995 8:0.435973 9:0.004501 10:0.629791 11:4.64369 12:4.93344 13:0.561037 14:0.80565 15:0.469681 16:0.552489 17:0.0755949 18:0.196018 19:0.234379 20:0.0971109 21:0.629667 22:2.43161 23:1.99167 24:0.00562805 25:0.566612 26:0 27:0.52305 28:0.0877597 29:0.196018 30:0.281761 31:0.0253412 32:0.833066 33:2.18245 34:1.99167 35:0.074754 36:0.639958 37:0 38:0.52305 39:0.258764 40:0.218842 41:0.471995 42:0.0531397 43:0.951884 44:1.68097 45:1.61142 46:0.190241 47:0.80565 48:0.0297199 49:0.552489 0:0 
0.002591935181943107 1:0 2:0 3:0 4:0.394691 5:0.599212 6:0.185811 7:0.0412288 8:0.144582 9:1 10:0.392454 11:3.19081 12:4.75346 13:0.0207548 14:0.389019 15:0.0573392 16:0.0824666 17:0.124099 18:0.0412378 19:0.165337 20:0 21:0.895803 22:2.60943 23:2.83786 24:0.0207548 25:0.409773 26:0.00552133 27:0.0824666 28:0.080258 29:0.0357164 30:0.115974 31:0 32:0.947276 33:2.28467 34:2.17634 35:0.0286075 36:0.360411 37:0.00552133 38:0.0769453 39:0.260547 40:0.0161104 41:0.244437 42:1 43:0.877371 44:1.57705 45:1.75065 46:0.360411 47:0.409773 48:0.0196061 49:0.0573392 0:0 
-0.008090072401992335 1:0.694524 2:0.634011 3:0.0401688 4:0.578276 5:0.806079 6:0.155067 7:0.106054 8:0.156129 9:0.386312 10:0.48086 11:3.40556 12:2.21018 13:0.141656 14:0.459806 15:0.0753108 16:0.087185 17:0.0692677 18:0.144762 19:0.206361 20:0.0584275 21:0.742392 22:2.77617 23:2.9681 24:0.0453527 25:0.319949 26:0.0723998 27:0.114639 28:0.0747467 29:0.174896 30:0.244895 31:0.0403447 32:0.998254 33:2.54952 34:2.55088 35:0.0453527 36:0.274675 37:0.0443432 38:0.0753108 39:0.309068 40:0.190208 41:0.498818 42:0.0173852 43:0.825482 44:2.03898 45:2.31455 46:0.274675 47:0.459806 48:0.0443432 49:0.114639 0:0 
-0.0003848688119865523 1:0.524102 2:0.390741 3:0.0156021 4:0.481041 5:0.743736 6:0.204619 7:0.0278389 8:0.231424 9:0.081676 10:0.578543 11:4.56388 12:5.70681 13:0.0799394 14:0.581305 15:0 16:0.201888 17:0.163498 18:0.0278389 19:0.186151 20:0.183145 21:0.427748 22:4.11234 23:5.70681 24:0.0799394 25:0.505589 26:0 27:0.201888 28:0.0594504 29:0.10282 30:0.0613222 31:0.172768 32:0.440719 33:3.18053 34:3.76024 35:0.142322 36:0.388712 37:0.0831236 38:0.247536 39:0.231139 40:0.175101 41:0.396521 42:0.08033 43:0.823893 44:1.93617 45:1.63649 46:0.388712 47:0.581305 48:0.201888 49:0.247536 0:0 
-0.005502582215413743 1:0.412502 2:0.330106 3:0.114212 4:0.711711 5:0.856914 6:0.211773 7:0.0097705 8:0.219706 9:0.194249 10:0.55184 11:4.3075 12:3.3118 13:0.114744 14:0.505887 15:0 16:0.290059 17:0.191564 18:0.0097705 19:0.201313 20:0.020682 21:0.717279 22:3.91099 23:3.3118 24:0.114744 25:0.494593 26:0 27:0.290059 28:0.115303 29:0.149692 30:0.264989 31:0.00179668 32:0.931043 33:2.62311 34:2.6958 35:0.13553 36:0.464297 37:0.0468496 38:0.154856 39:0.166606 40:0.283294 41:0.295012 42:0.185608 43:0.871401 44:1.73502 45:1.79809 46:0.130664 47:0.505887 48:0.154856 49:0.290059 0:0 
-0.00319720436681444 1:0.386072 2:0.372514 3:0.126035 4:0.60784 5:0.891664 6:0.176375 7:0.156588 8:0.30598 9:0.137404 10:0.815448 11:3.01449 12:2.79155 13:0 14:0.359604 15:0 16:0.224268 17:0.329012 18:0.156588 19:0.425118 20:0.240196 21:0.63735 22:2.32024 23:2.79155 24:0.359604 25:0.545009 26:0 27:0.224268 28:0.207574 29:0.0942806 30:0.236743 31:0.337198 32:0.565003 33:3.82485 34:3.06069 35:0.0911352 36:0.545009 37:0 38:0.212141 39:0.227212 40:0.0942806 41:0.285494 42:0.244053 43:0.655294 44:3.67191 45:3.06069 46:0.0911352 47:0.521756 48:0 49:0.212141 0:0 
-0.002213586317552191 1:0.403143 2:0.393285 3:0.097525 4:0.571344 5:0.860657 6:0.0917972 7:0.156159 8:0.166244 9:0.182755 10:0.518838 11:4.13101 12:3.73328 13:0.157465 14:0.500245 15:0 16:0.386567 17:0.123108 18:0.156159 19:0.266314 20:0.0860602 21:0.966163 22:3.69014 23:3.73328 24:0.157465 25:0.514289 26:0 27:0.386567 28:0.230459 29:0.157091 30:0.349975 31:0.173352 32:0.782609 33:2.52384 34:2.83354 35:0.104902 36:0.426402 37:0.163622 38:0.257201 39:0.0868216 40:0.33126 41:0.411173 42:0.0292815 43:0.99092 44:2.37599 45:2.37112 46:0.104902 47:0.500245 48:0.218757 49:0.386567 0:0 
-0.003195657791041779 1:0.40596 2:0.398304 3:0.103744 4:0.572666 5:0.865353 6:0.0790498 7:0.138775 8:0.168365 9:0.154149 10:0.622271 11:4.03062 12:3.65359 13:0.151086 14:0.518804 15:0 16:0.206128 17:0.145915 18:0.138775 19:0.275224 20:0.0844516 21:0.98158 22:3.6807 23:3.65359 24:0.133128 25:0.494762 26:0 27:0.206128 28:0.0675071 29:0.29567 30:0.3213 31:0.0646083 32:0.597476 33:3.22804 34:3.42336 35:0.133128 36:0.404654 37:0.173697 38:0.264979 39:0.272437 40:0.182584 41:0.425668 42:0.141617 43:0.847406 44:2.38058 45:2.5919 46:0.404654 47:0.518804 48:0.206128 49:0.264979 0:0 
0.009589502889440327 1:0.742425 2:0.58587 3:0.139757 4:0.762545 5:0.814151 6:0.228123 7:0.267802 8:0.487431 9:0.0543973 10:0.859903 11:3.52991 12:3.71797 13:0.181483 14:0.478844 15:0 16:0.408461 17:0.314619 18:0.267802 19:0.515676 20:0.167907 21:0.641057 22:3.14159 23:3.71797 24:0.166407 25:0.328645 26:0 27:0.408461 28:0.202663 29:0.340915 30:0.52781 31:0.0588948 32:0.822728 33:2.75983 34:2.94711 35:0.166407 36:0.340057 37:0.209254 38:0.214354 39:0.113977 40:0.497251 41:0.497971 42:0.0730669 43:0.632996 44:2.35122 45:2.58385 46:0.178171 47:0.478844 48:0.209254 49:0.408461 0:0 
0.009039805290535659 1:0.741733 2:0.592007 3:0.146624 4:0.797107 5:0.816351 6:0.215793 7:0.283046 8:0.490749 9:0.0500438 10:0.856945 11:3.5234 12:3.70262 13:0.172541 14:0.566333 15:0 16:0.468223 17:0.305139 18:0.283046 19:0.523546 20:0.156873 21:0.637095 22:3.17036 23:3.70262 24:0.168815 25:0.444685 26:0 27:0.468223 28:0.204115 29:0.356918 30:0.548562 31:0.0505907 32:0.822154 33:2.77246 34:2.95087 35:0.168815 36:0.335074 37:0.196621 38:0.272102 39:0.11752 40:0.506322 41:0.514233 42:0.0733064 43:0.649919 44:2.38589 45:2.61587 46:0.153344 47:0.473734 48:0.147661 49:0.402443 0:0 
0.003351266701413333 1:0.919381 2:0.944787 3:0.1188 4:0.63785 5:0.629997 6:0.247924 7:0.614565 8:0.722535 9:0.107113 10:0.598388 11:3.42296 12:3.11929 13:0.368325 14:0.726882 15:0 16:0.281677 17:0.316167 18:0.614565 19:0.890522 20:0.0665125 21:0.859515 22:3.04472 23:3.11929 24:0.156769 25:0.492355 26:0 27:0.281677 28:0.190908 29:0.671701 30:0.818034 31:0.0527092 32:0.692098 33:2.84478 34:2.97345 35:0.156769 36:0.441519 37:0.10543 38:0.211335 39:0.458149 40:0.615586 41:0.985221 42:0.111203 43:0.660888 44:2.59061 45:2.7888 46:0.229027 47:0.726173 48:0.0963427 49:0.19294 0:0 
0.002566034037021797 1:1.28781 2:1.28515 3:0.15392 4:1.5552 5:0.60266 6:0.216243 7:0.827399 8:0.973898 9:0.0564752 10:0.715157 11:2.97206 12:2.77313 13:0.215137 14:0.468482 15:0 16:0.205753 17:0.313471 18:0.827399 19:1.13262 20:0.0234986 21:0.90798 22:2.84249 23:2.77313 24:0.188389 25:0.343322 26:0 27:0.205753 28:0.294356 29:0.902779 30:1.19143 31:0.0176982 32:0.972557 33:2.66706 34:2.64881 35:0.188389 36:0.38108 37:0.0966591 38:0.122357 39:0.194569 40:0.909397 41:1.08659 42:0.0257434 43:0.881674 44:2.49153 45:2.54683 46:0.204365 47:0.468482 48:0.0966591 49:0.205753 0:0 
0.001952633606208683 1:1.38801 2:1.25119 3:0.155035 4:1.49234 5:0.603197 6:0.225162 7:0.833627 8:0.995536 9:0.0547407 10:0.715988 11:2.91354 12:2.71299 13:0.20922 14:0.807423 15:0 16:0.430276 17:0.313608 18:0.833627 19:1.14248 20:0.0177531 21:0.927056 22:2.76923 23:2.71299 24:0.190953 25:0.786319 26:0 27:0.430276 28:0.314634 29:0.914352 30:1.22443 31:0.0160498 32:0.96216 33:2.61588 34:2.58951 35:0.190953 36:0.724628 37:0.10829 38:0.408375 39:0.210221 40:0.891432 41:1.08927 42:0.0229648 43:0.93023 44:2.43145 45:2.46737 46:0.225 47:0.502953 48:0.10829 49:0.320909 0:0 
0.002231459198512303 1:0.807351 2:1.16196 3:0.0799561 4:0.356375 5:0.568307 6:0.302936 7:0.200799 8:0.501354 9:0.0380529 10:0.730057 11:2.61338 12:2.33076 13:0.0390717 14:0.386453 15:0 16:0.128766 17:0.267424 18:0.200799 19:0.464473 20:0.0465613 21:0.959662 22:2.37825 23:2.33076 24:0.0390717 25:0.352482 26:0 27:0.128766 28:0.167274 29:0.170263 30:0.325804 31:0.0834165 32:0.990588 33:2.11882 34:2.1294 35:0.142028 36:0.21047 37:0.047169 38:0.0901219 39:0.0522634 40:0.0846422 41:0.136549 42:0.0180608 43:0.922687 44:1.88229 45:1.97005 46:0.21047 47:0.386453 48:0.0901219 49:0.128766 0:0 
0.006939464957500448 1:1.32466 2:0.94936 3:0.1105 4:0.388734 5:0.752515 6:0.233107 7:0.465607 8:0.414336 9:0.166696 10:0.385806 11:2.98543 12:2.68853 13:0.234249 14:0.462023 15:0 16:0.271958 17:0.14973 18:0.465607 19:0.57826 20:0.0605978 21:0.785231 22:2.83395 23:2.68853 24:0.234249 25:0.368509 26:0 27:0.271958 28:0.238321 29:0.522967 30:0.738391 31:0.0522703 32:0.894057 33:2.59011 34:2.49586 35:0.241909 36:0.462023 37:0.127844 38:0.210045 39:0.106864 40:0.471497 41:0.547454 42:0.0471378 43:0.872871 44:2.17756 45:2.28035 46:0.344176 47:0.44031 48:0.210045 49:0.271958 0:0 
-0.001755440483683007 1:0.723907 2:1.08548 3:0.248077 4:1.50726 5:0.786365 6:0.94635 7:0.190775 8:1.08186 9:0.228116 10:0.380856 11:3.92341 12:2.2687 13:0.529755 14:0.847404 15:0 16:0.67933 17:0.380141 18:0.190775 19:0.520805 20:0.193466 21:0.858103 22:2.53029 23:2.2687 24:0.221518 25:0.866063 26:0 27:0.67933 28:0.182018 29:0.138102 30:0.29929 31:0.133355 32:0.919959 33:1.92957 34:1.83441 35:0.221518 36:0.878011 37:0.0611274 38:0.677096 39:0.295094 40:0.715482 41:0.977022 42:0.0520882 43:0.816422 44:4.39064 45:4.30081 46:0.529755 47:0.878011 48:0.677096 49:0.67933 0:0 
-0.0003521865993861217 1:0.63237 2:1.01366 3:0.233802 4:1.54757 5:0.792193 6:0.402229 7:0.117753 8:0.491775 9:0.198957 10:0.607129 11:2.48696 12:1.92587 13:0.0958514 14:0.856656 15:0.00942691 16:0.732552 17:0.0784608 18:0.322484 19:0.398481 20:0.0173237 21:0.842707 22:2.25674 23:2.18379 24:0.0958514 25:0.873905 26:0.228012 27:0.692216 28:0.157285 29:0.120767 30:0.24797 31:0.172256 32:0.935908 33:1.89191 34:1.81255 35:0.151636 36:0.911142 37:0.00942691 38:0.729841 39:0.308928 40:0.767729 41:1.02541 42:0.0612251 43:0.965548 44:4.36754 45:4.35918 46:0.856656 47:0.911142 48:0.692216 49:0.732552 0:0 
-0.001530693657419203 1:0.641017 2:1.02116 3:0.237727 4:1.55224 5:0.793087 6:0.438224 7:0.0807085 8:0.499647 9:0.207454 10:0.476731 11:2.4988 12:1.78709 13:0.144097 14:0.825043 15:0.0361569 16:0.752849 17:0.0614025 18:0.303206 19:0.363279 20:0.0121931 21:0.752303 22:2.24319 23:2.15234 24:0.119025 25:0.843521 26:0.213749 27:0.698284 28:0.156145 29:0.111198 30:0.249067 31:0.141366 32:0.937666 33:1.89846 34:1.82612 35:0.119025 36:0.862909 37:0.0361569 38:0.739884 39:0.221974 40:0.778614 41:0.965833 42:0.0438081 43:0.841792 44:4.38465 45:4.34619 46:0.825043 47:0.862909 48:0.698284 49:0.752849 0:0 
-0.001751060932871298 1:0.403235 2:0.782584 3:0.180207 4:1.59663 5:0.782657 6:0.0829099 7:0.957632 8:1.03161 9:0.0119862 10:0.700012 11:4.06751 12:4.11973 13:0.133258 14:0.856992 15:0.0785778 16:0.906063 17:0.112068 18:0.989006 19:1.05455 20:0.028342 21:0.497556 22:3.97474 23:4.06599 24:0.133258 25:0.866276 26:0.0785778 27:0.936116 28:0.382237 29:0.0883327 30:0.448488 31:0.208466 32:0.563001 33:2.44016 34:1.83489 35:0.241692 36:0.710056 37:0.0201039 38:0.920916 39:0.159723 40:0.0682288 41:0.206915 42:0.216398 43:0.913541 44:1.91975 45:1.77943 46:0.241692 47:0.866276 48:0.0201039 49:0.936116 0:0 
0.0005753937546560089 1:0.63907 2:0.411437 3:0.0533828 4:0.499117 5:0.647892 6:0.221957 7:0.0886013 8:0.264591 9:0.291229 10:0.909366 11:3.44975 12:3.63362 13:0.379776 14:0.454685 15:0 16:0.293106 17:0.326406 18:0.0886013 19:0.251147 20:0.795315 21:0.483716 22:2.34796 23:3.63362 24:0.140181 25:0.379776 26:0 27:0.293106 28:0.0654133 29:0.206945 30:0.247776 31:0.071992 32:0.952892 33:1.70591 34:1.78835 35:0.022998 36:0.454685 37:0.0109908 38:0.293106 39:0.0534061 40:0.201361 41:0.232141 42:0.0643649 43:0.963226 44:1.29079 45:1.351 46:0.022998 47:0.442966 48:0.0109908 49:0.288275 0:0 
0.001192229724246875 1:0.74688 2:0.532273 3:0.109252 4:0.714937 5:0.724818 6:0.190143 7:0.182862 8:0.347508 9:0.12082 10:0.954699 11:2.95262 12:2.89209 13:0.27472 14:0.494278 15:0 16:0.29699 17:0.276059 18:0.182862 19:0.435818 20:0.125463 21:0.713049 22:2.39965 23:2.89209 24:0.236839 25:0.333324 26:0 27:0.29699 28:0.116682 29:0.30199 30:0.393848 31:0.0665297 32:0.886337 33:1.94144 34:2.13957 35:0.111985 36:0.435882 37:0.0484232 38:0.270878 39:0.0823371 40:0.302913 41:0.371693 42:0.0429704 43:0.90393 44:1.60412 45:1.76253 46:0.111985 47:0.494278 48:0.0484232 49:0.29699 0:0 
0.00236687639093692 1:0.994418 2:0.644848 3:0.166656 4:0.224453 5:0.603859 6:0.358299 7:0.184065 8:0.537737 9:0.0581504 10:0.946032 11:2.64206 12:2.53087 13:0.237146 14:0.569002 15:0 16:0.170429 17:0.382546 18:0.184065 19:0.557264 20:0.0837722 21:0.841517 22:2.1929 23:2.53087 24:0.165175 25:0.406806 26:0 27:0.170429 28:0.291322 29:0.191958 30:0.482765 31:0.0181028 32:0.948329 33:1.90286 34:2.00659 35:0.165175 36:0.363322 37:0.0909581 38:0.0961519 39:0.265465 40:0.167189 41:0.431909 42:0.0235399 43:0.879783 44:1.22797 45:1.46879 46:0.247626 47:0.569002 48:0.0909581 49:0.170429 0:0 
0.0105902137070998 1:0.717959 2:0.60641 3:0.111183 4:0.451734 5:0.62392 6:0.20895 7:0.179695 8:0.359648 9:0.133953 10:0.952065 11:4.84289 12:4.7603 13:0.104608 14:0.72862 15:0 16:0.263481 17:0.147162 18:0.179695 19:0.282978 20:0.149341 21:0.751488 22:4.36739 23:4.7603 24:0.104608 25:0.647954 26:0 27:0.263481 28:0.32955 29:0.0839723 30:0.398562 31:0.172925 32:0.745896 33:2.39586 34:3.03807 35:0.191242 36:0.661269 37:0 38:0.172629 39:0.315254 40:0.0839723 41:0.35 42:0.328458 43:0.590454 44:1.95432 45:3.03807 46:0.18813 47:0.685301 48:0 49:0.172629 0:0 
0.001493978669437506 1:0.0363695 2:0.135351 3:0.0119483 4:0.300835 5:0.755467 6:0.116759 7:0.0416899 8:0.138486 9:0.282725 10:0.86916 11:4.39064 12:4.1588 13:0.00189808 14:0.18178 15:0 16:0.0200041 17:0.125122 18:0.0416899 19:0.153807 20:0.225481 21:0.998926 22:4.16073 23:4.1588 24:0.0859828 25:0.0987219 26:0 27:0.0200041 28:0.167853 29:0.0375859 30:0.192791 31:0.245034 32:0.915078 33:3.895 34:3.75426 35:0.0987219 36:0.182783 37:0.00435745 38:0.0159351 39:0.125952 40:0.0216858 41:0.138247 42:0.287056 43:0.948521 44:4.46871 45:4.56758 46:0.00189808 47:0.182783 48:0.0159351 49:0.0200041 0:0 
0.01021664883194538 1:0.0792007 2:0.271892 3:0.0187302 4:0.504338 5:0.82535 6:0.076234 7:0.116365 8:0.161435 9:0.144018 10:0.630716 11:3.7465 12:3.65899 13:0.157885 14:0.242103 15:0 16:0.107106 17:0.190573 18:0.116365 19:0.272319 20:0.199082 21:0.816742 22:3.47349 23:3.65899 24:0.111833 25:0.414821 26:0 27:0.107106 28:0.0936862 29:0.0703735 30:0.161075 31:0.0702806 32:0.754588 33:3.27116 34:3.47392 35:0.111833 36:0.34006 37:0.0835651 38:0.141448 39:0.192382 40:0.108933 41:0.301314 42:0 43:0.689165 44:2.91893 45:3.57626 46:0.182286 47:0.414821 48:0.107106 49:0.141448 0:0 
-0.002423560531550773 1:0.558147 2:0.447824 3:0.0363159 4:0.888303 5:0.717555 6:0.0525877 7:0.357153 8:0.406247 9:0.0157528 10:0.921492 11:4.93106 12:4.98175 13:0.0552723 14:0.995453 15:0 16:0.639629 17:0.0671348 18:0.357153 19:0.379258 20:0.0548936 21:0.659041 22:4.7848 23:4.98175 24:0.0552723 25:0.951191 26:0 27:0.639629 28:0.294506 29:0.194877 30:0.251297 31:0.453052 32:0.467297 33:4.39877 34:5.33559 35:0.259075 36:0.703591 37:0.208894 38:0.476897 39:0.37671 40:0.286511 41:0.63509 42:0.107091 43:0.748541 44:2.33474 45:2.00859 46:0.703591 47:0.995453 48:0.476897 49:0.639629 0:0 
0.005449138392451786 1:0.544512 2:0.63764 3:0.0401292 4:0.68344 5:0.680746 6:0.143923 7:0.375761 8:0.366759 9:0.123945 10:0.81834 11:4.2464 12:4.11045 13:0.146886 14:0.363643 15:0 16:0.267582 17:0.123892 18:0.375761 19:0.491156 20:0.0334251 21:0.921557 22:4.05929 23:4.11045 24:0.159157 25:0.492575 26:0 27:0.267582 28:0.13336 29:0.466958 30:0.585654 31:0.0370255 32:0.821244 33:3.85568 34:3.92448 35:0.159157 36:0.59509 37:0.113832 38:0.371937 39:0.116249 40:0.132027 41:0.0382314 42:0.321136 43:0.7108 44:4.74656 45:4.30256 46:0.227646 47:0.59509 48:0 49:0.371937 0:0 
0.001907006733893223 1:0.567167 2:0.455756 3:0.0466661 4:0.755649 5:0.692858 6:0.117348 7:0.0241459 8:0.13924 9:0.126485 10:0.866524 11:5.05512 12:4.81408 13:0.238421 14:0.615665 15:0.150235 16:0.355927 17:0.155199 18:0.23385 19:0.366087 20:0.0886683 21:0.922261 22:4.17542 23:4.24693 24:0.181558 25:0.49318 26:0.108612 27:0.257989 28:0.160454 29:0.33203 30:0.492483 31:0.00037136 32:0.954497 33:3.87293 34:3.92 35:0.187961 36:0.615665 37:0.108612 38:0.355927 39:0.167639 40:0.126523 41:0.160511 42:0.390746 43:0.79586 44:4.63776 45:4.42983 46:0.137914 47:0.453147 48:0 49:0.21792 0:0 
0.001600326613967958 1:0.489047 2:0.416652 3:0.0532883 4:0.702406 5:0.72149 6:0.172256 7:0.166322 8:0.289854 9:0.176282 10:0.968319 11:4.36977 12:4.40355 13:0.174786 14:0.28849 15:0.0683126 16:0.126349 17:0.181262 18:0.234244 19:0.414956 20:0.0144009 21:0.959615 22:3.9806 23:4.03765 24:0.235715 25:0.479094 26:0.0683126 27:0.194252 28:0.187453 29:0.0457744 30:0.191349 31:0.434649 32:0.860161 33:4.828 34:4.66786 35:0.137101 36:0.479094 37:0 38:0.194252 39:0.223585 40:0.0457744 41:0.243218 42:0.331235 43:0.979206 44:4.6415 45:4.66786 46:0.137101 47:0.395383 48:0 49:0.194252 0:0 
0.0004055114745020239 1:0.402398 2:0.327947 3:0.0640686 4:0.618259 5:0.736806 6:0.195017 7:0.0670499 8:0.258617 9:0.0885554 10:0.881543 11:5.09788 12:4.90847 13:0.130844 14:0.426494 15:0 16:0.206833 17:0.227781 18:0.0670499 19:0.272163 20:0.238991 21:0.989568 22:4.8906 23:4.90847 24:0.130844 25:0.371664 26:0 27:0.206833 28:0.169225 29:0.0883604 30:0.224619 31:0.231832 32:0.992352 33:4.62401 34:4.63361 35:0.165509 36:0.260044 37:0.0975987 38:0.111988 39:0.0982029 40:0.173441 41:0.271069 42:0.0155876 43:0.961728 44:4.28099 45:4.22443 46:0.221872 47:0.426494 48:0.111988 49:0.206833 0:0 
0.004580522920379064 1:0.231664 2:0.526126 3:0.0581488 4:1.12283 5:0.861493 6:0.0942211 7:0.505495 8:0.580133 9:0.0338168 10:0.775293 11:3.88407 12:3.8413 13:0.0290105 14:0.583663 15:0 16:0.338222 17:0.0706245 18:0.505495 19:0.500576 20:0.044618 21:0.806801 22:3.78931 23:3.8413 24:0.153586 25:0.466813 26:0 27:0.338222 28:0.367302 29:0.3065 30:0.223914 31:0.47872 32:0.486706 33:3.5221 34:3.84162 35:0.459049 36:0.721271 37:0.220662 38:0.246902 39:0.127001 40:0.472617 41:0.595036 42:0.0202954 43:0.813989 44:4.24296 45:4.14653 46:0.185119 47:0.721271 48:0 49:0.338222 0:0 
0.002472848364181656 1:0.280636 2:0.577255 3:0.0557002 4:0.829261 5:0.655227 6:0.108979 7:0.0216694 8:0.11002 9:0.453262 10:0.949271 11:5.07474 12:4.95737 13:0.229571 14:0.528588 15:0 16:0.393643 17:0.288707 18:0.0216694 19:0.293021 20:0.424625 21:0.702216 22:4.18738 23:4.95737 24:0.181708 25:0.379616 26:0 27:0.393643 28:0.295264 29:0.137965 30:0.410794 31:0.152397 32:0.938856 33:3.89964 34:3.99942 35:0.181708 36:0.384188 37:0.127169 38:0.269352 39:0.254712 40:0.279517 41:0.523399 42:0.0612469 43:0.861951 44:3.54034 45:3.70976 46:0.143043 47:0.528588 48:0.129364 49:0.267919 0:0 
0.001128291982910076 1:0.208997 2:0.447996 3:0.0350952 4:0.703453 5:0.705704 6:0.1702 7:0.128418 8:0.0583491 9:0.706976 10:0.830134 11:4.36166 12:4.2746 13:0.0281995 14:0.417748 15:0 16:0.160399 17:0.140044 18:0.128418 19:0.209609 20:0.226107 21:0.671344 22:3.96479 23:4.2746 24:0.199644 25:0.236806 26:0 27:0.160399 28:0.252824 29:0.180573 30:0.432687 31:0.0215616 32:0.99193 33:2.89166 34:2.90429 35:0.236806 36:0.417748 37:0.157695 38:0.160399 39:0.0793068 40:0.0618986 41:0.0338828 42:0.601108 43:0.956115 44:4.38022 45:4.36912 46:0.0281995 47:0.413307 48:0.0665343 49:0.157695 0:0 
0.003212975019507382 1:0.315607 2:0.525316 3:0.0504887 4:0.805628 5:0.61212 6:0.220537 7:0.196683 8:0.391847 9:0.118439 10:0.535753 11:3.30674 12:4.06034 13:0.160357 14:0.343789 15:0.107175 16:0.127424 17:0.267488 18:0.155643 19:0.422728 20:0.0182202 21:0.948977 22:2.69328 23:2.6049 24:0.160357 25:0.439815 26:0.127424 27:0.151976 28:0.0733905 29:0.1138 30:0.178215 31:0.0788096 32:0.770227 33:4.76412 34:4.43638 35:0.280004 36:0.439815 37:0 38:0.151976 39:0.282672 40:0.1138 41:0.359057 42:0.226032 43:0.878029 44:4.18732 45:4.43638 46:0.179983 47:0.287686 48:0 49:0.151976 0:0 
0.003309380177250946 1:0.1007 2:0.287009 3:0.0323681 4:0.682793 5:0.600862 6:0.193629 7:0.158055 8:0.217529 9:0.331049 10:0.835451 11:4.46635 12:4.22754 13:0.226085 14:0.488428 15:0 16:0.26149 17:0.265731 18:0.158055 19:0.356002 20:0.243813 21:0.951047 22:4.15166 23:4.22754 24:0.226085 25:0.313611 26:0 27:0.26149 28:0.236892 29:0.300433 30:0.51938 31:0.073042 32:0.859704 33:3.91597 34:4.03907 35:0.107263 36:0.456252 37:0.102417 38:0.160103 39:0.148467 40:0.401975 41:0.550442 42:0.000290044 43:0.553433 44:3.76908 45:3.90102 46:0.107263 47:0.488428 48:0.102417 49:0.26149 0:0 
0.007395509348650129 1:0.403799 2:0.796578 3:0.0525665 4:0.784574 5:0.734916 6:0.185619 7:0.455417 8:0.630984 9:0.0357982 10:0.869619 11:3.64376 12:3.55093 13:0.179402 14:0.755392 15:0 16:0.493564 17:0.14745 18:0.455417 19:0.571744 20:0.056595 21:0.900866 22:3.47633 23:3.55093 24:0.183552 25:0.618933 26:0 27:0.493564 28:0.192706 29:0.14268 30:0.334372 31:0.0287736 32:0.899783 33:2.47692 34:2.63999 35:0.618933 36:0.830651 37:0.493564 38:0.49643 39:0.177268 40:0.383756 41:0.550542 42:0.0416177 43:0.747154 44:4.06889 45:3.9029 46:0.238728 47:0.830651 48:0 49:0.49643 0:0 
0.00682203740754416 1:1.15945 2:0.781586 3:0.0531087 4:1.15732 5:0.587228 6:0.236419 7:0.398293 8:0.250322 9:0.188627 10:0.452905 11:4.23931 12:3.42645 13:0.349956 14:0.478624 15:0 16:0.115442 17:0.304832 18:0.398293 19:0.683323 20:0.0660608 21:0.987803 22:3.40912 23:3.42645 24:0.0629806 25:0.478624 26:0 27:0.115442 28:0.272758 29:0.429233 30:0.67861 31:0.0652802 32:0.87786 33:3.0306 34:3.19257 35:0.0629806 36:0.470569 37:0.0498974 38:0.0891563 39:0.168521 40:0.392219 41:0.553696 42:0.0329473 43:0.845084 44:2.74522 45:2.93354 46:0.138183 47:0.349956 48:0.0891563 49:0.115442 0:0 
0.008349938847686238 1:0.133275 2:0.438517 3:0.00770743 4:0.992983 5:0.696648 6:0.216273 7:0.0647255 8:0.22073 9:0.431095 10:0.448095 11:4.7471 12:3.50036 13:0.314037 14:0.380209 15:0 16:0.0918059 17:0.236227 18:0.0647255 19:0.297061 20:0.0984248 21:0.919523 22:3.64688 23:3.50036 24:0.0865918 25:0.314037 26:0 27:0.0918059 28:0.229442 29:0.128737 30:0.356411 31:0.0422683 32:0.93046 33:2.84945 34:2.72826 35:0.0574223 36:0.380209 37:0.027782 38:0.0640261 39:0.164035 40:0.156519 41:0.320554 42:0 43:0.836522 44:2.08319 45:1.79503 46:0.0574223 47:0.350961 48:0.027782 49:0.0918059 0:0 
0.001461740643699929 1:1.10229 2:0.829369 3:0.0718814 4:0.99196 5:0.64893 6:0.161516 7:0.236452 8:0.391267 9:0.0482303 10:0.925481 11:3.14159 12:3.04301 13:0.204019 14:0.551874 15:0 16:0.231603 17:0.29832 18:0.236452 19:0.519995 20:0.0844227 21:0.856285 22:2.78227 23:3.04301 24:0.156065 25:0.547675 26:0 27:0.231603 28:0.116411 29:0.429852 30:0.528213 31:0.0416217 32:0.827046 33:2.44204 34:2.6072 35:0.156065 36:0.457404 37:0.231603 38:0.239335 39:0.253914 40:0.257099 41:0.35743 42:0.251405 43:0.488628 44:1.46751 45:2.39727 46:0.457404 47:0.551874 48:0.20455 49:0.239335 0:0 
0.002150150556684618 1:0.502822 2:0.518873 3:0.0472813 4:0.368726 5:0.584397 6:0.208417 7:0.127126 8:0.324912 9:0.103377 10:0.917288 11:4.97472 12:4.89825 13:0.117763 14:0.70468 15:0 16:0.285712 17:0.255353 18:0.127126 19:0.345711 20:0.203901 21:0.960359 22:4.8579 23:4.89825 24:0.117763 25:0.646258 26:0 27:0.285712 28:0.288178 29:0.0407747 30:0.303193 31:0.359791 32:0.913744 33:4.55997 34:4.68048 35:0.219529 36:0.444954 37:0.139462 38:0.15596 39:0.291245 40:0.186022 41:0.471996 42:0.0593357 43:0.787816 44:3.78431 45:4.11818 46:0.444954 47:0.70468 48:0.15596 49:0.285712 0:0 
-0.005821065603087927 1:0.740057 2:0.543459 3:0.069469 4:1.31073 5:0.938854 6:0.0893105 7:0.341058 8:0.395784 9:0.0612424 10:0.774357 11:4.13942 12:4.30192 13:0.196768 14:0.39192 15:0.182159 16:0.379562 17:0.0591023 18:0.314311 19:0.34312 20:0.0500717 21:0.743832 22:3.55008 23:3.68337 24:0.165731 25:0.199905 26:0.0624697 27:0.2119 28:0.15993 29:0.288711 30:0.365031 31:0.138906 32:0.689141 33:3.20729 34:3.50442 35:0.0361726 36:0.359501 37:0.0624697 38:0.232132 39:0.0575137 40:0.325739 41:0.382261 42:0.00959102 43:0.939461 44:3.06579 45:3.10255 46:0.0361726 47:0.39192 48:0.151732 49:0.379562 0:0 
0.0004540760322471636 1:0.0313782 2:0.149751 3:0.00591278 4:0.305199 5:0.642606 6:0.203822 7:0.107356 8:0.25292 9:0.285026 10:0.831136 11:3.20426 12:3.45429 13:0.143594 14:0.352819 15:0 16:0.131267 17:0.0777989 18:0.107356 19:0.112298 20:0.230059 21:0.48231 22:2.33409 23:3.45429 24:0.128803 25:0.232359 26:0 27:0.131267 28:0.0949645 29:0.0727725 30:0.0222049 31:0.987645 32:0.77895 33:2.0825 34:2.46999 35:0.0302123 36:0.266113 37:0.0347231 38:0.0966956 39:0.0624545 40:0.0100663 41:0.0523882 42:1 43:0.86133 44:1.90809 45:2.01894 46:0.0302123 47:0.287302 48:0.0339894 49:0.0972968 0:0 
0.0006670342081059354 1:0.708352 2:0.766138 3:0.0926061 4:0.854102 5:0.592527 6:0.285544 7:0.063847 8:0.341077 9:0.148902 10:0.901645 11:5.10268 12:4.90826 13:0.435665 14:0.742969 15:0 16:0.355933 17:0.5233 18:0.063847 19:0.52835 20:0.455565 21:0.667251 22:4.12965 23:4.90826 24:0.223984 25:0.458484 26:0 27:0.355933 28:0.382322 29:0.236241 30:0.614265 31:0.0478072 32:0.919119 33:3.78071 34:3.92348 35:0.139103 36:0.626871 37:0.110346 38:0.263364 39:0.306607 40:0.316296 41:0.611954 42:0.0588365 43:0.966198 44:3.57822 45:3.62919 46:0.139103 47:0.694432 48:0.0357849 49:0.355933 0:0 
-0.005157283834376939 1:0.696513 2:0.473919 3:0.0695805 4:0.291127 5:0.93662 6:0.0532197 7:0.324385 8:0.360415 9:0.0364836 10:0.73991 11:4.41444 12:4.28361 13:0.103668 14:0.429833 15:0 16:0.273006 17:0.0769995 18:0.324385 19:0.374562 20:0.0533977 21:0.817702 22:4.16954 23:4.28361 24:0.103668 25:0.358858 26:0 27:0.273006 28:0.0871139 29:0.320212 30:0.322927 31:0.0864553 32:0.646252 33:3.54111 34:3.76459 35:0.162647 36:0.286647 37:0.152258 38:0.156761 39:0.115717 40:0.254743 41:0.342572 42:0.0814045 43:0.830605 44:3.16146 45:3.33338 46:0.162647 47:0.429833 48:0.156761 49:0.273006 0:0 
0.003489850270254314 1:0.833561 2:0.704281 3:0.1055 4:1.02086 5:0.65157 6:0.32326 7:0.221115 8:0.532357 9:0.081238 10:0.916136 11:4.95538 12:4.79136 13:0.169482 14:1.1661 15:0 16:0.3129 17:0.37826 18:0.221115 19:0.592312 20:0.0641022 21:0.928818 22:4.64633 23:4.79136 24:0.13237 25:1.18912 26:0 27:0.3129 28:0.209975 29:0.366612 30:0.567674 31:0.0422631 32:0.930912 33:4.39657 34:4.48359 35:0.13237 36:1.15097 37:0.170087 38:0.466771 39:0.281358 40:0.268242 41:0.548311 42:0.0223335 43:0.981003 44:3.87921 45:3.9099 46:0.313583 47:1.07829 48:0.209736 49:0.37408 0:0 
0.00359420658005747 1:0.977599 2:0.91304 3:0.0688808 4:0.491111 5:0.587595 6:0.267884 7:0.309206 8:0.396645 9:0.235482 10:0.733563 11:4.25229 12:3.87009 13:0.490663 14:0.552934 15:0 16:0.221554 17:0.458684 18:0.309206 19:0.765095 20:0.033102 21:0.874234 22:3.66371 23:3.87009 24:0.0825443 25:0.504838 26:0 27:0.221554 28:0.246129 29:0.530757 30:0.776848 31:0.00216939 32:0.660584 33:3.20432 34:3.54043 35:0.0818564 36:0.552934 37:0.0244938 38:0.221554 39:0.194384 40:0.510249 41:0.704307 42:0.00596285 43:0.793642 44:2.87556 45:3.08369 46:0.0818564 47:0.490663 48:0.0244938 49:0.201253 0:0 
0.002590225516980784 1:2.02412 2:1.21855 3:0.153958 4:0.401201 5:0.609681 6:0.199014 7:0.699657 8:0.77207 9:0.0804973 10:0.710238 11:2.18823 12:2.00547 13:0.18309 14:0.421129 15:0 16:0.155924 17:0.0655309 18:0.699657 19:0.754954 20:0.0154027 21:0.927688 22:1.93099 23:2.00547 24:0.171166 25:0.306022 26:0 27:0.155924 28:0.0662354 29:0.684323 30:0.68408 31:0.0308264 32:0.861825 33:1.76344 34:1.91957 35:0.146817 36:0.275482 37:0.0573096 38:0.0987493 39:0.0991521 40:0.665152 41:0.670614 42:0.0472274 43:0.839024 44:1.60974 45:1.77635 46:0.146817 47:0.421129 48:0.0987493 49:0.155924 0:0 
0.008865744510721165 1:1.78869 2:1.10893 3:0.162424 4:0.903832 5:0.614581 6:0.144361 7:0.749211 8:0.790549 9:0.057285 10:0.594299 11:2.50145 12:2.31519 13:0.312373 14:0.643246 15:0 16:0.305896 17:0.279263 18:0.749211 19:1.01868 20:0.0267213 21:0.930504 22:2.25413 23:2.31519 24:0.235334 25:0.621001 26:0 27:0.305896 28:0.37076 29:0.764589 30:1.0437 31:0.0872325 32:0.87515 33:2.07385 34:2.20629 35:0.160351 36:0.536742 37:0.0667517 38:0.284918 39:0.336032 40:0.736873 41:1.00238 42:0.0764692 43:0.822408 44:1.92158 45:2.10599 46:0.160351 47:0.526623 48:0.0768271 49:0.22912 0:0 
-0.0004957599893270528 1:0.718735 2:0.497956 3:0.0914095 4:0.548798 5:0.910034 6:0.111958 7:0.316279 8:0.316331 9:0.113264 10:0.582904 11:2.48105 12:2.21175 13:0.274823 14:0.463512 15:0.358609 16:0.546729 17:0.0806641 18:0.329862 19:0.351937 20:0.072639 21:0.651277 22:3.89404 23:4.10459 24:0.0638332 25:0.463512 26:0.078255 27:0.546729 28:0.0698515 29:0.318497 30:0.345217 31:0.0620525 32:0.645549 33:3.66854 34:3.90113 35:0.0638332 36:0.413948 37:0.078255 38:0.505423 39:0.229988 40:0.210766 41:0.400875 42:0.142939 43:0.827681 44:3.18807 45:3.44704 46:0.226306 47:0.289119 48:0.169837 49:0.358609 0:0 
-0.002572217213848612 1:0.969967 2:0.725124 3:0.25224 4:1.17645 5:0.694482 6:0.220451 7:0.727853 8:0.803492 9:0.0864545 10:0.707837 11:3.58878 12:3.37285 13:0.285673 14:0.933371 15:0 16:0.607474 17:0.223373 18:0.727853 19:0.840036 20:0.0788327 21:0.861011 22:3.2617 23:3.37285 24:0.285673 25:0.902582 26:0 27:0.607474 28:0.0660161 29:0.626256 30:0.591441 31:0.0293461 32:0.589988 33:2.82531 34:2.89733 35:0.404258 36:0.565815 37:0.329741 38:0.470368 39:0.246761 40:0.229772 41:0.235705 42:0.355628 43:0.551987 44:1.34732 45:2.47755 46:0.564916 47:0.933371 48:0.470368 49:0.607474 0:0 
-0.002141017611069856 1:1.59349 2:1.60941 3:0.380326 4:0.942345 5:0.752413 6:0.119686 7:0.70378 8:0.77341 9:0.0420304 10:0.655388 11:4.59947 12:4.40417 13:0.15016 14:1.61621 15:0 16:0.951007 17:0.0772534 18:0.70378 19:0.765547 20:0.0201246 21:0.879217 22:4.35804 23:4.40417 24:0.15016 25:1.50749 26:0 27:0.951007 28:1.14469 29:0.293912 30:1.30755 31:0.28224 32:0.834061 33:3.39579 34:3.8006 35:0.527122 36:1.35963 37:0.424588 38:0.504332 39:0.929727 40:0.514292 41:1.31189 42:0.187849 43:0.887226 44:2.93702 45:2.71294 46:0.527122 47:1.61621 48:0 49:0.951007 0:0 
-0.001454826727386308 1:1.08325 2:0.910568 3:0.201025 4:0.897026 5:0.871443 6:0.0768404 7:0.843569 8:0.915775 9:0.00951796 10:0.99451 11:3.96401 12:3.96551 13:0.92458 14:0.995997 15:0.919505 16:0.926201 17:0.240454 18:0.47911 19:0.677119 20:0.0764233 21:0.522319 22:2.98148 23:2.5924 24:0.0734296 25:0.92458 26:0 27:0.919505 28:0.254523 29:0.47911 30:0.710873 31:0.0574589 32:0.966288 33:2.56479 34:2.5924 35:0.0734296 36:0.995997 37:0 38:0.919505 39:0.111381 40:0.477267 41:0.391425 42:0.0523257 43:0.661928 44:2.10646 45:2.32188 46:0.397194 47:0.989448 48:0.0945259 49:0.926201 0:0 
-0.002406163701860767 1:0.677211 2:1.04503 3:0.0650622 4:0.530238 5:0.845477 6:0.147429 7:0.53552 8:0.680472 9:0.0141941 10:0.890504 11:3.9031 12:3.96647 13:0.16108 14:0.528702 15:0.121876 16:0.413559 17:0.0958128 18:0.62709 19:0.69734 20:0.0313747 21:0.507848 22:3.55215 23:3.8019 24:0.16108 25:0.546706 26:0.121876 27:0.532861 28:0.0658979 29:0.282446 30:0.22625 31:0.0433707 32:0.72656 33:1.92675 34:2.05894 35:0.387529 36:0.528702 37:0.34405 38:0.409157 39:0.137523 40:0.289318 41:0.40446 42:0.0701167 43:0.742367 44:4.42511 45:4.56287 46:0.387529 47:0.546706 48:0.356534 49:0.532861 0:0 
-0.006486100246741405 1:0.584259 2:0.982024 3:0.0549469 4:0.519222 5:0.850384 6:0.168737 7:0.44286 8:0.424247 9:0.123939 10:0.657075 11:4.21754 12:4.02235 13:0.269231 14:0.400942 15:0 16:0.250298 17:0.146994 18:0.44286 19:0.586701 20:0.0189129 21:0.810468 22:3.91083 23:4.02235 24:0.111176 25:0.29251 26:0 27:0.250298 28:0.0655563 29:0.58958 30:0.652141 31:0.0100581 32:0.821102 33:3.75746 34:3.81677 35:0.111176 36:0.376977 37:0.113331 38:0.228465 39:0.0501403 40:0.632326 41:0.612298 42:0.02352 43:0.522768 44:2.71991 45:3.07006 46:0.142487 47:0.400942 48:0.113331 49:0.250298 0:0 
-0.001833293017124715 1:0.771502 2:1.00616 3:0.0700727 4:0.494977 5:0.866939 6:0.0856232 7:0.442704 8:0.440472 9:0.061796 10:0.6535 11:4.39143 12:4.29497 13:0.417799 14:0.581961 15:0.367146 16:0.438206 17:0.112858 18:0.610062 19:0.710568 20:0.024825 21:0.491672 22:3.03658 23:2.68302 24:0.406378 25:0.603543 26:0.140028 27:0.438206 28:0.157018 29:0.47301 30:0.336696 31:0.0622576 32:0.551767 33:2.08148 34:2.45311 35:0.19907 36:0.417799 37:0.140028 38:0.368898 39:0.130845 40:0.268643 41:0.176095 42:0.136405 43:0.623732 44:1.74201 45:2.00343 46:0.19907 47:0.603543 48:0.223565 49:0.367146 0:0 
-0.001305667159814221 1:0.718133 2:1.00173 3:0.0685616 4:0.514647 5:0.854473 6:0.0539154 7:0.632891 8:0.677519 9:0.0147077 10:0.553707 11:3.57156 12:3.72031 13:0.359912 14:0.589909 15:0.177882 16:0.676797 17:0.169293 18:0.521261 19:0.368451 20:0.0529848 21:0.53572 22:2.15723 23:2.5527 24:0.231373 25:0.456926 26:0.177882 27:0.540004 28:0.0996739 29:0.339836 30:0.436552 31:0.0199244 32:0.939665 33:4.49486 34:4.51733 35:0.453035 36:0.589909 37:0.409205 38:0.548565 39:0.142048 40:0.122284 41:0.172661 42:0.302165 43:0.560956 44:1.79191 45:1.50547 46:0.231373 47:0.5806 48:0.409205 49:0.676797 0:0 
-0.0004728735820828185 1:1.1929 2:0.859606 3:0.223422 4:0.935274 5:0.892768 6:0.271802 7:0.407321 8:0.611124 9:0.115363 10:0.650418 11:4.62676 12:5.05748 13:1.01732 14:1.13204 15:0.854034 16:0.93604 17:0.100491 18:0.577094 19:0.668518 20:0.0213816 21:0.979953 22:2.82807 23:2.81984 24:0.249573 25:1.01732 26:0 27:0.854034 28:0.207762 29:0.577094 30:0.653528 31:0.100552 32:0.556929 33:2.32969 34:2.81984 35:0.118477 36:1.11832 37:0 38:0.854034 39:0.137424 40:0.56837 41:0.677391 42:0.0429521 43:0.898021 44:2.18834 45:2.13692 46:0.118477 47:1.13204 48:0.29898 49:0.93604 0:0 
-0.008358854835153388 1:1.20198 2:1.06361 3:0.178366 4:0.817904 5:0.933271 6:0.165706 7:0.285021 8:0.392016 9:0.121225 10:0.688608 11:3.9983 12:3.6306 13:0.219575 14:0.396159 15:0 16:0.231863 17:0.108818 18:0.285021 19:0.370781 20:0.0657035 21:0.826679 22:3.46702 23:3.6306 24:0.0311042 25:0.230992 26:0 27:0.231863 28:0.0514311 29:0.317955 30:0.367033 31:0.0143305 32:0.884648 33:3.34581 34:3.41597 35:0.0311042 36:0.241505 37:0.0501708 38:0.182741 39:0.0906975 40:0.313299 41:0.35152 42:0.0790956 43:0.659754 44:2.97165 45:3.25785 46:0.13021 47:0.360252 48:0.0501708 49:0.137704 0:0 
-0.02363630901438717 1:0.484631 2:0.449096 3:0.0524182 4:0.406471 5:0.92893 6:0.202604 7:0.189012 8:0.358328 9:0.137151 10:0.634922 11:4.06775 12:3.61249 13:0.0507943 14:0.397746 15:0 16:0.205106 17:0.129443 18:0.189012 19:0.263139 20:0.152926 21:0.811878 22:3.42539 23:3.61249 24:0.0337394 25:0.324329 26:0 27:0.205106 28:0.11543 29:0.174619 30:0.26618 31:0.104245 32:0.841171 33:3.29381 34:3.45314 35:0.0337394 36:0.356673 37:0.0527822 38:0.255385 39:0.0926351 40:0.199508 41:0.284132 42:0.0504314 43:0.833984 44:3.06025 45:3.1995 46:0.0857049 47:0.432732 48:0.0909002 49:0.34353 0:0 
-0.004339090462693408 1:0.287795 2:0.61555 3:0.0160662 4:1.13357 5:0.903505 6:0.932742 7:0.124153 8:0.898996 9:0.566648 10:0.437152 11:4.52877 12:3.67155 13:0.00703827 14:1.04958 15:0 16:0.148448 17:0.132234 18:0.124153 19:0.173917 20:0.273746 21:0.509213 22:4.06252 23:3.67155 24:0.275642 25:0.85377 26:0 27:0.148448 28:0.0803758 29:0.151647 30:0.218893 31:0.0771069 32:0.577444 33:3.03265 34:3.4664 35:0.275642 36:1.05255 37:0.0819152 38:0.201416 39:0.931789 40:0.208304 41:0.902212 42:0.509193 43:0.63738 44:4.57049 45:4.27938 46:0.00703827 47:1.05255 48:0.148448 49:0.201416 0:0 
-0.004747180807402226 1:1.10367 2:1.18134 3:0.304072 4:1.52562 5:0.828097 6:0.435848 7:0.331353 8:0.740309 9:0.097247 10:0.861665 11:2.78201 12:2.61795 13:0.0634617 14:0.662433 15:0 16:0.311855 17:0.374064 18:0.331353 19:0.683166 20:0.0852799 21:0.967919 22:2.65397 23:2.61795 24:0.0634617 25:0.599634 26:0 27:0.311855 28:0.109588 29:0.612063 30:0.538292 31:0.0449778 32:0.536314 33:2.47882 34:2.66874 35:0.166398 36:0.435245 37:0.305726 38:0.601214 39:0.1898 40:0.0805837 41:0.223193 42:0.309296 43:0.630087 44:2.04036 45:1.69142 46:0.435245 47:0.662433 48:0.311855 49:0.601214 0:0 
-0.000538461946745084 1:1.13657 2:0.772268 3:0.310255 4:1.34054 5:0.823227 6:0.104387 7:0.672667 8:0.696019 9:0.0473737 10:0.748962 11:4.32723 12:4.473 13:0.190509 14:1.35249 15:0.151019 16:1.24057 17:0.113217 18:0.631875 19:0.631488 20:0.0571273 21:0.66673 22:4.03897 23:4.18859 24:0.190509 25:1.22676 26:0.151019 27:1.13173 28:0.064997 29:0.737636 30:0.782052 31:0.0198909 32:0.730874 33:2.68639 34:2.74834 35:0.337388 36:1.28328 37:0.236172 38:1.24057 39:0.204136 40:0.589668 41:0.719613 42:0.0771191 43:0.592201 44:2.35161 45:2.55457 46:0.337388 47:1.35249 48:0.236172 49:1.17566 0:0 
-0.001722652088125865 1:0.724466 2:0.571344 3:0.140952 4:1.12906 5:0.857969 6:0.457042 7:0.0977505 8:0.451987 9:0.482121 10:0.388467 11:4.38573 12:2.89378 13:0.77811 14:0.865917 15:0.294222 16:0.356133 17:0.247767 18:0.417945 19:0.656661 20:0.0403471 21:0.94414 22:2.9146 23:2.95952 24:0.29542 25:0.77811 26:0 27:0.36128 28:0.250072 29:0.417945 30:0.591122 31:0.116175 32:0.541393 33:2.64612 34:2.95952 35:0.29542 36:0.802864 37:0 38:0.36128 39:0.238378 40:0.372809 41:0.600386 42:0.0477747 43:0.699194 44:1.88128 45:1.51821 46:0.306798 47:0.865917 48:0.294222 49:0.36128 0:0 
-0.004680779563870152 1:0.0976489 2:0.427549 3:0.00244141 4:1.6121 5:0.769807 6:0.0977969 7:0.123867 8:0.0288285 9:0.123618 10:0.84166 11:4.04014 12:4.14952 13:0.0875404 14:0.983156 15:0.0661609 16:0.0702465 17:0.120689 18:0.0601448 19:0.0666303 20:0.801673 21:0.859929 22:3.86325 23:3.92093 24:0.0890195 25:0.894313 26:0.00553624 27:0.0661609 28:1.01131 29:0.0581635 30:0.95816 31:0.863023 32:0.734036 33:3.59266 34:3.78509 35:0.894313 36:1.05919 37:0 38:0.0702465 39:0.0589208 40:0.0581635 41:0.116291 42:0.0373078 43:0.340736 44:2.7707 45:3.78509 46:0.0875404 47:1.05919 48:0 49:0.0702465 0:0 
-0.002838004879343865 1:0.804626 2:0.630308 3:0.158293 4:1.20787 5:0.858099 6:0.357586 7:0.116455 8:0.462675 9:0.123418 10:0.58153 11:5.12984 12:4.0718 13:0.33413 14:1.33232 15:0 16:0.410912 17:0.369973 18:0.116455 19:0.477818 20:0.107588 21:0.819091 22:4.46627 23:4.0718 24:0.33413 25:1.15142 26:0 27:0.410912 28:0.323357 29:0.381134 30:0.699455 31:0.0350634 32:0.918635 33:2.97012 34:3.04844 35:0.177846 36:0.958559 37:0 38:0.410912 39:0.32621 40:0.381134 41:0.684843 42:0.0743442 43:0.73001 44:2.819 45:3.04844 46:0.177846 47:1.01207 48:0 49:0.410912 0:0 
0.003320650151141069 1:0.153392 2:0.441381 3:0.0362396 4:0.343103 5:0.577933 6:0.210783 7:0.105131 8:0.249774 9:0.313718 10:0.774365 11:2.80187 12:2.5757 13:0.0771922 14:0.256959 15:0 16:0.0658716 17:0.248214 18:0.105131 19:0.309013 20:0.256937 21:0.965629 22:2.61469 23:2.5757 24:0.0771922 25:0.267928 26:0 27:0.0658716 28:0.160058 29:0.165594 30:0.266747 31:0.190706 32:0.965644 33:2.35936 34:2.39815 35:0.123372 36:0.158051 37:0.0421247 38:0.0658716 39:0.0704932 40:0.123661 41:0.194154 42:0 43:0.736231 44:1.35036 45:1.68201 46:0.158051 47:0.267928 48:0.0317364 49:0.0421247 0:0 
-0.0006323323010559379 1:1.03487 2:0.798127 3:0.275306 4:1.18271 5:0.906798 6:0.287111 7:0.283562 8:0.524222 9:0.130172 10:0.461446 11:4.41646 12:3.72451 13:0.83034 14:1.15734 15:0.345892 16:0.692815 17:0.318962 18:0.530196 19:0.749559 20:0.117585 21:0.698384 22:3.18533 23:3.44565 24:0.148843 25:0.912409 26:0 27:0.743383 28:0.428326 29:0.530196 30:0.776356 31:0.176148 32:0.595017 33:3.03069 34:3.44565 35:0.148843 36:0.920875 37:0 38:0.743383 39:0.522379 40:0.554158 41:0.828126 42:0.212936 43:0.419841 44:2.63091 45:3.10771 46:0.338823 47:1.0758 48:0.265587 49:0.57396 0:0 
-0.001122038794539286 1:1.01352 2:0.748966 3:0.284393 4:1.27897 5:0.935444 6:0.175377 7:0.354923 8:0.5303 9:8.49567e-05 10:0.797726 11:4.68158 12:4.45245 13:1.05277 14:1.21199 15:0.634572 16:1.05945 17:0.377377 18:0.524935 19:0.90173 20:0.00969315 21:0.933618 22:3.01966 23:3.07621 24:0.576148 25:1.05277 26:0 27:0.634572 28:0.561865 29:0.524935 30:0.884804 31:0.205061 32:0.443656 33:2.53018 34:3.07621 35:0.113769 36:1.21199 37:0 38:0.634572 39:0.0500264 40:0.84649 41:0.85314 42:0.0185743 43:0.491821 44:2.40133 45:2.47255 46:0.113769 47:1.20736 48:0.564885 49:1.05945 0:0 
0.009259683889263445 1:0.00809769 2:0.0555937 3:0.00362396 4:0.575533 5:0.738418 6:0.227281 7:0.282353 8:0.509634 9:0 10:0.843946 11:4.10639 12:4.37141 13:0.409123 14:0.617952 15:0.0840338 16:0.290986 17:0.121281 18:0.198319 19:0.136093 20:0.205237 21:0.924275 22:3.24013 23:3.32953 24:0.107927 25:0.409123 26:0.0840338 27:0.206952 28:0.0700352 29:0.080777 30:0.031528 31:0.328457 32:0.85754 33:2.99209 34:3.09401 35:0.107927 36:0.494863 37:0.0894075 38:0.201608 39:0.0996855 40:0.00863269 41:0.108318 42:0 43:0.585925 44:2.63072 45:2.84666 46:0.126853 47:0.617952 48:0.0894075 49:0.290986 0:0 
0.000827549563796552 1:0.371649 2:0.769365 3:0.0380129 4:0.535821 5:0.722156 6:0.244989 7:0.279086 8:0.523365 9:0.0155213 10:0.769061 11:4.03587 12:3.76976 13:0.463778 14:0.633403 15:0 16:0.455827 17:0.442698 18:0.279086 19:0.563131 20:0.281749 21:0.845428 22:3.45642 23:3.76976 24:0.163235 25:0.463778 26:0 27:0.455827 28:0.0825781 29:0.527937 30:0.566343 31:0.0425872 32:0.973766 33:3.35996 34:3.36932 35:0.0511718 36:0.602223 37:0.118439 38:0.455827 39:0.136262 40:0.416952 41:0.539725 42:0.0396888 43:0.917989 44:3.11714 45:3.17679 46:0.0511718 47:0.621155 48:0.118439 49:0.390311 0:0 
0.001153977796888978 1:0.349764 2:0.752511 3:0.0429535 4:0.552485 5:0.742275 6:0.256035 7:0.281151 8:0.534241 9:0.0318167 10:0.619238 11:3.91866 12:3.60524 13:0.6012 14:0.662992 15:0 16:0.412376 17:0.48844 18:0.281151 19:0.557912 20:0.339299 21:0.892496 22:3.3924 23:3.60524 24:0.0782284 25:0.6012 26:0 27:0.412376 28:0.115918 29:0.432553 30:0.52781 31:0.0440389 32:0.882843 33:3.16006 34:3.23314 35:0.0782284 36:0.642038 37:0.115948 38:0.383927 39:0.0642679 40:0.38048 41:0.386017 42:0.0532432 43:0.709969 44:2.98282 45:3.08303 46:0.191155 47:0.662992 48:0.115948 49:0.412376 0:0 
0.005824899799388092 1:0.0515201 2:0.144599 3:0.00656128 4:0.990097 5:0.724804 6:0.120633 7:0.113771 8:0.196237 9:0.190384 10:0.781579 11:4.80498 12:5.2667 13:0.374924 14:0.494153 15:0 16:0.251455 17:0.318146 18:0.113771 19:0.205509 20:0.943949 21:0.519464 22:4.13476 23:5.2667 24:0.0381864 25:0.374924 26:0 27:0.251455 28:0.191304 29:0.137692 30:0.32274 31:0.073428 32:0.863166 33:2.92487 34:2.64425 35:0.110272 36:0.494153 37:0.097584 38:0.251455 39:0.18645 40:0.0401148 41:0.226511 42:0.0149254 43:0.707812 44:2.10081 45:1.58449 46:0.0381864 47:0.403983 48:0.097584 49:0.153885 0:0 
