<?xml version="1.0"?>
<opencv_storage>
<opencv_ml_svm>
  <format>3</format>
  <svmType>EPS_SVR</svmType>
  <kernel>
    <type>RBF</type>
    <gamma>1.7122999999999999e+00</gamma></kernel>
  <C>6.3009999999999999e-01</C>
  <p>5.4800000000000001e-02</p>
  <term_criteria><epsilon>5.4800000000000001e-02</epsilon></term_criteria>
  <var_count>32</var_count>
  <sv_total>1969</sv_total>
  <support_vectors>
    <_>
      0. 0. 0. 0. 0. 0. 0. 0. 0. 0. 0. 0. 0. 0. 0. 0. 0. 0. 0. 0. 0. 0.
      0. 0. 0. 0. 0. 0. 0. 0. 0. 0.</_>
    <_>
      2.43965000e-01 2.45818004e-01 2.46965006e-01 2.61824995e-01
      2.83237010e-01 3.31099987e-01 4.34489995e-01 3.49025995e-01
      3.49072009e-01 3.20282996e-01 4.14391011e-01 3.81179005e-01
      4.02853996e-01 5.04528999e-01 9.78501022e-01 6.91344023e-01
      1.09717000e+00 7.22598016e-01 9.07817006e-01 6.61500990e-01
      7.14124024e-01 5.63404024e-01 5.12426019e-01 4.56198007e-01
      2.89588004e-01 2.83412009e-01 3.22957993e-01 3.82299006e-01
      3.99874002e-01 3.34915012e-01 2.81219989e-01 2.59869009e-01</_>
    <_>
      3.36097986e-01 3.30067009e-01 3.53201002e-01 3.63202989e-01
      3.57829005e-01 4.00256008e-01 4.30938989e-01 4.47450012e-01
      4.62042987e-01 4.77122009e-01 4.19111013e-01 3.93680990e-01
      4.36105013e-01 5.02591014e-01 1.26572001e+00 9.30010021e-01
      1.43741000e+00 1.32802999e+00 1.07168996e+00 1.04193997e+00
      6.51602983e-01 5.10703027e-01 4.67817992e-01 4.38032001e-01
      4.13114011e-01 3.96867007e-01 4.36922014e-01 6.11571014e-01
      4.95068997e-01 4.23768014e-01 3.83682996e-01 3.58682990e-01</_>
    <_>
      5.30503988e-01 3.72400999e-01 3.30796987e-01 3.27567995e-01
      4.12209004e-01 3.92495006e-01 4.24140006e-01 4.27336007e-01
      4.60934013e-01 5.13888001e-01 4.57168013e-01 4.21790987e-01
      4.36843991e-01 5.65882981e-01 1.45939004e+00 8.43645990e-01
      1.30834997e+00 8.63783002e-01 1.05841994e+00 1.04356003e+00
      9.57571030e-01 8.01986992e-01 8.53740990e-01 4.02262002e-01
      4.06989992e-01 4.15452003e-01 5.13885021e-01 6.44782007e-01
      7.39142001e-01 7.59494007e-01 7.67786026e-01 7.31896996e-01</_>
    <_>
      5.83636999e-01 5.36962986e-01 5.35458982e-01 5.07103980e-01
      4.19216007e-01 4.28552002e-01 4.56005991e-01 4.68787998e-01
      2.76428014e-01 2.04028994e-01 2.46024996e-01 2.86534995e-01
      4.76072013e-01 6.79926991e-01 7.71724999e-01 1.06077003e+00
      1.40095997e+00 1.12651002e+00 1.05016994e+00 9.97213006e-01
      6.94576025e-01 6.51687980e-01 5.08333981e-01 4.01032001e-01
      7.56564975e-01 6.92354977e-01 4.71917987e-01 4.27702993e-01
      4.96632993e-01 6.50816977e-01 7.23948002e-01 6.63417995e-01</_>
    <_>
      7.56393015e-01 7.40236998e-01 6.20042980e-01 4.94322985e-01
      4.96677011e-01 4.93966013e-01 5.04628003e-01 5.18486977e-01
      5.25139987e-01 4.75531995e-01 3.83938015e-01 4.02752995e-01
      4.84039992e-01 6.28435016e-01 1.19014001e+00 7.54041016e-01
      6.56467974e-01 1.40462995e+00 7.99690008e-01 9.08442974e-01
      1.19309998e+00 8.13727975e-01 8.72419000e-01 7.83357978e-01
      6.95469022e-01 6.47859991e-01 3.91678005e-01 3.59860986e-01
      3.96892011e-01 7.20803022e-01 7.40157008e-01 7.53179014e-01</_>
    <_>
      4.68302011e-01 4.00665998e-01 3.52670014e-01 3.80131990e-01
      4.46940988e-01 5.18092990e-01 5.50139010e-01 6.07465029e-01
      7.23715007e-01 1.15044999e+00 7.12939978e-01 5.80066025e-01
      6.39376998e-01 6.57397985e-01 8.44107985e-01 1.18796003e+00
      1.58153999e+00 8.86631012e-01 1.19772995e+00 1.63778996e+00
      7.40145028e-01 7.41985023e-01 6.61028028e-01 5.16158998e-01
      5.01116991e-01 4.03614998e-01 5.11314988e-01 7.06952989e-01
      6.84421003e-01 6.73749030e-01 6.67304993e-01 5.96342981e-01</_>
    <_>
      4.76817995e-01 4.09399003e-01 3.79999995e-01 3.76089007e-01
      4.41623002e-01 5.10473013e-01 5.34690022e-01 6.10876977e-01
      6.63918018e-01 8.85520995e-01 1.24003994e+00 5.33945978e-01
      5.76673985e-01 6.08267009e-01 7.92429984e-01 1.17164004e+00
      1.56534004e+00 8.57609987e-01 1.63829005e+00 8.34322989e-01
      1.19945002e+00 7.43395984e-01 7.47335017e-01 5.43148994e-01
      3.71555001e-01 4.09593999e-01 5.10372996e-01 7.34210014e-01
      7.11169004e-01 7.01713979e-01 6.87057018e-01 6.11075997e-01</_>
    <_>
      7.23315001e-01 4.85787988e-01 4.52681988e-01 4.26533997e-01
      4.43908006e-01 4.06480998e-01 3.75880986e-01 3.52250010e-01
      3.64042997e-01 4.08612013e-01 4.71843004e-01 4.46500003e-01
      1.07657003e+00 5.57048976e-01 5.23293018e-01 1.54535997e+00
      5.98446012e-01 1.09651995e+00 7.58238018e-01 1.15017998e+00
      7.72517025e-01 6.44080997e-01 5.18522978e-01 3.79166991e-01
      3.83147001e-01 4.58386987e-01 4.55639988e-01 6.60336971e-01
      7.28470981e-01 7.23571002e-01 7.32641995e-01 7.52013981e-01</_>
    <_>
      6.57020986e-01 6.51373029e-01 5.94438016e-01 4.44691002e-01
      4.15185988e-01 4.02965009e-01 4.24625009e-01 4.41350996e-01
      4.35779005e-01 4.62947994e-01 5.13525009e-01 4.97377008e-01
      4.28292990e-01 4.06224012e-01 5.81332982e-01 1.37289000e+00
      8.66732001e-01 1.28874004e+00 9.82237995e-01 9.89609003e-01
      9.23345983e-01 9.07315016e-01 6.76370025e-01 5.93294978e-01
      5.19068003e-01 4.58445996e-01 4.15522993e-01 4.14698005e-01
      4.67882991e-01 6.30430996e-01 7.18200982e-01 6.74975991e-01</_>
    <_>
      5.84556997e-01 5.77928007e-01 4.63654995e-01 4.34828013e-01
      3.89730006e-01 3.87219995e-01 4.10003990e-01 4.01454002e-01
      4.37923014e-01 4.74622995e-01 5.83893001e-01 5.69526017e-01
      5.78109980e-01 4.33126003e-01 6.23894989e-01 1.39549994e+00
      6.11443996e-01 1.04139996e+00 1.00768006e+00 9.10305977e-01
      7.88775027e-01 6.52441978e-01 6.16603017e-01 5.05300999e-01
      4.76675987e-01 4.46411014e-01 4.32199001e-01 4.49752003e-01
      5.19792974e-01 7.20812023e-01 6.48222983e-01 6.10064983e-01</_>
    <_>
      5.00178993e-01 5.01563013e-01 5.16438007e-01 5.52137971e-01
      5.55401027e-01 5.44806004e-01 5.74863017e-01 5.65021992e-01
      6.16434991e-01 5.15778005e-01 7.81480014e-01 7.07363009e-01
      6.68094993e-01 6.45053983e-01 6.47028029e-01 6.91139996e-01
      6.83360994e-01 6.38653994e-01 5.20353019e-01 4.90346014e-01
      4.89582986e-01 8.78154993e-01 5.80636978e-01 1.11620998e+00
      1.66086996e+00 1.57752001e+00 1.59853005e+00 1.16069996e+00
      8.50072980e-01 6.87035024e-01 6.04008019e-01 5.37979007e-01</_>
    <_>
      5.17678976e-01 5.03087997e-01 5.26970983e-01 5.52977026e-01
      6.01163983e-01 5.54623008e-01 6.79404020e-01 6.16324008e-01
      7.07484007e-01 7.06315994e-01 7.22362995e-01 6.79368019e-01
      6.48630977e-01 6.46537006e-01 6.68115973e-01 7.15573013e-01
      5.95861018e-01 5.76324999e-01 5.20844996e-01 5.09418011e-01
      5.22086978e-01 5.58468997e-01 6.41785979e-01 1.69951999e+00
      1.59157002e+00 1.55144000e+00 1.54780996e+00 1.13481998e+00
      8.29182029e-01 6.70934021e-01 5.83270013e-01 5.37344992e-01</_>
    <_>
      2.61765987e-01 2.70518988e-01 3.18385988e-01 3.71567011e-01
      4.11210001e-01 4.14819986e-01 3.86698991e-01 3.71701986e-01
      3.68907005e-01 3.72797996e-01 3.98840010e-01 4.23902988e-01
      1.94991007e-01 7.02458024e-01 6.38162017e-01 5.93626976e-01
      7.40170002e-01 6.09555006e-01 4.83455002e-01 4.40306991e-01
      3.89384001e-01 4.60927010e-01 5.46404004e-01 5.85385978e-01
      6.00753009e-01 6.08723998e-01 5.10546029e-01 5.90406001e-01
      5.56061983e-01 5.13177991e-01 3.90787989e-01 2.99966007e-01</_>
    <_>
      5.51267028e-01 4.18799013e-01 3.60258996e-01 3.62163007e-01
      3.93263012e-01 4.13592994e-01 4.39287990e-01 4.63885009e-01
      5.45686007e-01 5.51684976e-01 5.62900007e-01 5.16901016e-01
      5.77216029e-01 1.04631996e+00 1.35240996e+00 1.37045002e+00
      9.22460020e-01 1.31384003e+00 9.00958002e-01 1.11654997e+00
      6.99692011e-01 5.04540026e-01 4.80001986e-01 4.35768008e-01
      4.15623993e-01 4.06892002e-01 4.79380995e-01 6.41655982e-01
      7.28326023e-01 7.15900004e-01 7.23874986e-01 7.28655994e-01</_>
    <_>
      4.09837008e-01 4.10733998e-01 4.49393988e-01 4.79557008e-01
      5.56662977e-01 6.78901970e-01 6.90644026e-01 6.34371996e-01
      5.89348018e-01 5.95618010e-01 6.07430995e-01 6.49471998e-01
      4.74195987e-01 4.73760992e-01 7.72251010e-01 6.02835000e-01
      4.85013008e-01 4.47068006e-01 4.21680003e-01 4.28077012e-01
      4.51254010e-01 1.38831997e+00 1.20030999e+00 1.12674999e+00
      9.62166011e-01 9.43181992e-01 1.03771996e+00 8.70413005e-01
      6.77927971e-01 5.31584024e-01 4.69597012e-01 4.28885996e-01</_>
    <_>
      6.44595027e-01 6.47329986e-01 6.18745029e-01 4.61845011e-01
      3.75588000e-01 3.62403005e-01 3.97374004e-01 3.97040993e-01
      4.10443008e-01 4.03968006e-01 4.49561000e-01 5.22718012e-01
      5.81164002e-01 5.81357002e-01 5.43604016e-01 6.68304980e-01
      6.01392984e-01 9.80957985e-01 6.22902989e-01 5.63515007e-01
      6.44250989e-01 5.32772005e-01 6.08696997e-01 6.73850000e-01
      5.92543006e-01 5.14838994e-01 4.86764014e-01 4.15284991e-01
      4.55642015e-01 5.22988021e-01 6.52266026e-01 6.76469982e-01</_>
    <_>
      4.80580986e-01 4.55406010e-01 4.59739000e-01 3.96975994e-01
      3.97493988e-01 3.78697008e-01 4.01856989e-01 4.19155985e-01
      4.42671001e-01 4.61511999e-01 4.39435989e-01 4.42923009e-01
      5.52641988e-01 6.86432004e-01 8.20962012e-01 5.92548013e-01
      1.28663003e+00 5.55971026e-01 4.78868991e-01 5.50790012e-01
      5.25641978e-01 5.82738996e-01 5.60284019e-01 6.16798997e-01
      5.08862972e-01 4.14339006e-01 4.12611991e-01 4.50385004e-01
      4.45888013e-01 6.95098996e-01 6.21258974e-01 5.32664001e-01</_>
    <_>
      7.14441001e-01 5.87063015e-01 4.58097011e-01 4.13147002e-01
      3.77285004e-01 3.69401008e-01 3.84790987e-01 4.01903003e-01
      4.39285010e-01 5.32419026e-01 5.11489987e-01 5.00661016e-01
      4.65034008e-01 4.54153001e-01 4.91178006e-01 6.62144005e-01
      1.39416003e+00 5.83375990e-01 5.82912982e-01 5.60806990e-01
      5.50450027e-01 5.80528975e-01 5.99654973e-01 5.89734018e-01
      5.15986979e-01 4.58005995e-01 4.29996014e-01 4.31107998e-01
      4.60016996e-01 6.93587005e-01 7.02346981e-01 6.96621001e-01</_>
    <_>
      4.85114992e-01 4.05083001e-01 3.66335988e-01 3.61068994e-01
      3.74206990e-01 3.66813987e-01 4.13738996e-01 4.38315988e-01
      4.48329002e-01 4.17295009e-01 4.72600013e-01 4.82383013e-01
      6.75381005e-01 1.11128998e+00 1.01645994e+00 5.89228988e-01
      6.41686022e-01 5.85471988e-01 6.26923978e-01 6.16756022e-01
      6.03029013e-01 5.95978975e-01 4.48244989e-01 4.15724993e-01
      3.77602011e-01 3.38050008e-01 5.54687023e-01 7.03054011e-01
      7.34943986e-01 7.44804025e-01 7.39722013e-01 5.90888023e-01</_>
    <_>
      7.07292974e-01 6.79385006e-01 5.55544972e-01 4.69370008e-01
      3.86510998e-01 3.70757014e-01 3.76130015e-01 3.91968012e-01
      4.32058007e-01 4.79541987e-01 5.05223989e-01 4.42196012e-01
      4.73758996e-01 5.02665997e-01 5.68596005e-01 8.40385020e-01
      1.42421997e+00 5.94434023e-01 6.19060993e-01 5.87275028e-01
      6.06263995e-01 6.05765998e-01 6.13443017e-01 5.66480994e-01
      5.45503020e-01 4.48466986e-01 4.00272012e-01 3.68562996e-01
      4.62009013e-01 6.17703974e-01 6.57397985e-01 6.91237986e-01</_>
    <_>
      7.30583012e-01 7.24910975e-01 6.40919983e-01 5.47088981e-01
      4.53319997e-01 4.14694995e-01 4.06958014e-01 3.96306992e-01
      4.01544005e-01 4.30566996e-01 4.27275002e-01 4.17239994e-01
      4.07837003e-01 4.50242013e-01 6.04571998e-01 8.75129998e-01
      1.38536000e+00 7.06873000e-01 7.39535987e-01 1.31105995e+00
      9.13504004e-01 6.57615006e-01 6.32492006e-01 5.44353008e-01
      4.85498011e-01 4.37052995e-01 4.20185000e-01 4.04119015e-01
      3.40151995e-01 5.15533984e-01 7.15664983e-01 7.21226990e-01</_>
    <_>
      6.72106028e-01 5.93557000e-01 5.09226978e-01 4.34801996e-01
      4.10807997e-01 4.06991005e-01 3.93429995e-01 3.81175011e-01
      4.09437001e-01 4.13419008e-01 4.34307992e-01 4.54171985e-01
      5.20569026e-01 7.53862977e-01 1.36107004e+00 6.25837982e-01
      6.18220985e-01 1.05254996e+00 1.44537997e+00 9.54371989e-01
      8.25342000e-01 7.52306998e-01 6.65724993e-01 5.91602027e-01
      4.79667008e-01 4.12826985e-01 3.86660010e-01 4.20753986e-01
      7.07428992e-01 6.95627987e-01 6.92632020e-01 6.88902020e-01</_>
    <_>
      4.46108013e-01 3.86712015e-01 3.75638008e-01 3.75524998e-01
      3.97285014e-01 4.59235996e-01 5.82661986e-01 6.96475029e-01
      8.85972023e-01 1.15586996e+00 4.28122997e-01 5.01596987e-01
      6.79423988e-01 1.33369994e+00 7.19906986e-01 7.17037022e-01
      1.53318000e+00 1.44865000e+00 8.03192019e-01 1.30678999e+00
      7.72539020e-01 6.01271987e-01 4.72380996e-01 4.25552011e-01
      3.61894011e-01 4.23054010e-01 6.74690008e-01 6.99319005e-01
      7.16093004e-01 7.27042019e-01 6.46332026e-01 5.41492999e-01</_>
    <_>
      4.13194001e-01 3.61111999e-01 3.61476004e-01 3.86464000e-01
      4.23803002e-01 5.05602002e-01 6.31507993e-01 1.05507004e+00
      5.94807029e-01 4.63203013e-01 4.26634014e-01 4.56420004e-01
      6.24565005e-01 1.09344995e+00 8.72142017e-01 6.76401973e-01
      1.57971001e+00 1.51550996e+00 7.80645013e-01 1.33977997e+00
      7.59083986e-01 5.08774996e-01 4.63759989e-01 4.01237994e-01
      3.76666993e-01 5.28276980e-01 7.20412016e-01 7.25347996e-01
      7.27855980e-01 7.33385026e-01 6.10469997e-01 5.02789974e-01</_>
    <_>
      4.87958997e-01 4.11071986e-01 3.63366008e-01 3.54440004e-01
      3.97816002e-01 4.75506991e-01 5.46512008e-01 6.52104974e-01
      1.10643995e+00 5.67987025e-01 4.31006998e-01 4.51952994e-01
      5.22239983e-01 6.73479974e-01 1.28831005e+00 7.95690000e-01
      1.37910998e+00 7.75452971e-01 1.15486002e+00 7.98582971e-01
      1.16207004e+00 7.56901026e-01 5.13347983e-01 4.68281001e-01
      4.27165985e-01 3.64044994e-01 5.22554994e-01 7.09481001e-01
      7.28980005e-01 7.30347991e-01 7.39091992e-01 6.08537972e-01</_>
    <_>
      7.28653014e-01 6.79563999e-01 5.32967985e-01 4.37375993e-01
      3.53902996e-01 3.57333004e-01 3.75622004e-01 3.77427012e-01
      4.05104011e-01 4.71974999e-01 5.49100995e-01 4.79030997e-01
      4.45690989e-01 4.94502008e-01 5.53955019e-01 8.42377007e-01
      1.41673005e+00 6.00062013e-01 6.11083984e-01 6.15158021e-01
      6.16392016e-01 6.09189987e-01 5.86176991e-01 6.23090982e-01
      5.42514026e-01 4.30063993e-01 4.04644012e-01 3.68752986e-01
      5.05869985e-01 6.85036004e-01 7.14466989e-01 7.27675974e-01</_>
    <_>
      0. 0. 0. 0. 0. 0. 0. 0. 0. 0. 0. 0. 0. 0. 0. 0. 0. 0. 0. 0. 0. 0.
      0. 0. 0. 0. 0. 0. 0. 0. 0. 0.</_>
    <_>
      6.87546015e-01 7.01371014e-01 6.81028008e-01 6.97580993e-01
      7.16409028e-01 5.31684995e-01 4.48284000e-01 4.16489005e-01
      3.97031993e-01 4.09180999e-01 4.30353999e-01 4.75975990e-01
      5.49699008e-01 8.47741008e-01 7.62603998e-01 1.34424996e+00
      7.78485000e-01 1.47133005e+00 8.92525971e-01 1.06316996e+00
      5.25282979e-01 4.14339989e-01 4.08077002e-01 1.01014996e+00
      7.44042993e-01 6.08317971e-01 5.30507028e-01 4.48911995e-01
      4.25520003e-01 4.15569991e-01 4.20547992e-01 4.49218988e-01</_>
    <_>
      6.98786020e-01 7.84485996e-01 6.98222995e-01 3.55574995e-01
      5.04958987e-01 6.32924974e-01 6.47475004e-01 6.87380016e-01
      6.75642014e-01 6.27704024e-01 6.66499972e-01 5.72288990e-01
      6.30376995e-01 6.47853971e-01 6.02316022e-01 4.56714988e-01
      4.15096015e-01 9.42303002e-01 7.49585986e-01 6.27646029e-01
      5.24020016e-01 5.08576989e-01 4.75351989e-01 4.19339001e-01
      3.84259999e-01 3.85039002e-01 3.26496005e-01 3.48890990e-01
      4.61351991e-01 5.13445973e-01 6.80347025e-01 6.68794990e-01</_>
    <_>
      7.02350020e-01 7.41141975e-01 6.13645971e-01 5.58712006e-01
      5.33892989e-01 5.65256000e-01 5.20439029e-01 4.74390000e-01
      5.19484997e-01 5.19973993e-01 4.84784991e-01 5.45830011e-01
      5.03902018e-01 6.03733003e-01 5.83980024e-01 4.38751012e-01
      1.18201005e+00 8.74460995e-01 6.90410972e-01 5.83682001e-01
      4.57718998e-01 3.98849994e-01 3.72469991e-01 3.56157005e-01
      3.58251989e-01 3.51916999e-01 3.63020986e-01 3.56346995e-01
      4.24910009e-01 6.42763019e-01 7.34200001e-01 6.95737004e-01</_>
    <_>
      7.29133010e-01 6.25997007e-01 5.69085002e-01 5.27004004e-01
      5.26714981e-01 4.34951991e-01 4.46260005e-01 4.68205988e-01
      4.84649003e-01 4.48229015e-01 5.02781987e-01 4.68739986e-01
      5.22848010e-01 5.38654983e-01 4.62159991e-01 4.29798990e-01
      3.79640996e-01 8.54222000e-01 6.38855994e-01 5.41746020e-01
      4.77411002e-01 4.09047991e-01 3.66791993e-01 3.55859011e-01
      3.52957010e-01 3.67381006e-01 3.99064004e-01 4.31196988e-01
      4.96834993e-01 7.33994007e-01 7.03643024e-01 6.91097975e-01</_>
    <_>
      7.10298002e-01 6.64310992e-01 5.76384008e-01 5.29636025e-01
      5.41860998e-01 4.57170010e-01 4.50504005e-01 4.72202986e-01
      4.81516004e-01 4.29475993e-01 5.28603971e-01 4.61369991e-01
      4.90754008e-01 5.33150971e-01 4.71846014e-01 4.19883013e-01
      4.08329010e-01 8.19885015e-01 6.62214994e-01 5.63248992e-01
      4.57778007e-01 4.16723013e-01 3.67289007e-01 3.49631011e-01
      3.53610009e-01 3.68135005e-01 3.92848015e-01 4.13816988e-01
      4.94928986e-01 7.02310026e-01 7.06682980e-01 6.84049010e-01</_>
    <_>
      7.15708971e-01 7.04487026e-01 6.65412009e-01 6.31901979e-01
      5.24567008e-01 5.42756975e-01 5.51221013e-01 2.23529994e-01
      5.92851996e-01 5.28654993e-01 7.12531984e-01 5.92880011e-01
      5.82657993e-01 6.66061997e-01 6.60202980e-01 4.89701986e-01
      4.29113001e-01 9.48167026e-01 7.35678017e-01 6.02793992e-01
      5.36064029e-01 5.03822029e-01 4.61181015e-01 3.69114012e-01
      3.46125007e-01 3.58307987e-01 3.82586002e-01 4.05083001e-01
      4.73690003e-01 6.21966004e-01 7.00568020e-01 6.76396012e-01</_>
    <_>
      5.31280994e-01 4.09244001e-01 3.84548992e-01 3.79842997e-01
      3.77456009e-01 3.99165988e-01 3.97570997e-01 4.18210000e-01
      4.84748006e-01 4.76592988e-01 4.55314994e-01 4.76345986e-01
      4.66472000e-01 5.48165977e-01 7.90778995e-01 1.36154997e+00
      6.94957972e-01 1.30738997e+00 8.07290018e-01 6.74196005e-01
      5.79315007e-01 5.97193003e-01 5.75564027e-01 4.99211997e-01
      4.49972987e-01 4.30707991e-01 4.32989001e-01 5.25205016e-01
      6.74839020e-01 6.79597974e-01 6.94167018e-01 7.18019009e-01</_>
    <_>
      5.01618981e-01 4.18119997e-01 3.64789009e-01 3.49276006e-01
      3.62233996e-01 3.63947988e-01 3.98799002e-01 5.22893012e-01
      6.22045994e-01 4.53994989e-01 4.46572989e-01 4.56263006e-01
      5.62704980e-01 7.11888015e-01 1.21448004e+00 7.54810989e-01
      7.38718987e-01 1.53649998e+00 9.79130983e-01 8.28402996e-01
      7.59199023e-01 6.00838006e-01 5.31023979e-01 4.38216001e-01
      3.99152011e-01 3.55067015e-01 4.93548006e-01 7.20296025e-01
      7.07440972e-01 7.09554970e-01 7.19560981e-01 5.90573013e-01</_>
    <_>
      4.11985993e-01 3.66174012e-01 3.66286993e-01 3.76181990e-01
      3.92488986e-01 4.36260015e-01 4.74406987e-01 4.99893010e-01
      4.72240001e-01 4.25826997e-01 4.37471986e-01 4.66082007e-01
      7.13342011e-01 1.33958006e+00 7.05487013e-01 1.26002002e+00
      7.27831006e-01 1.25218999e+00 6.91911995e-01 1.19086003e+00
      7.32057989e-01 5.66031992e-01 4.93671000e-01 4.43237990e-01
      3.81958991e-01 5.34668982e-01 7.20272005e-01 7.34091997e-01
      7.44172990e-01 7.34588981e-01 6.14934027e-01 5.02973974e-01</_>
    <_>
      5.00976026e-01 3.98799002e-01 3.61479014e-01 3.62924010e-01
      3.98218006e-01 4.13029999e-01 4.38174009e-01 4.90559012e-01
      5.21869004e-01 4.63185012e-01 4.47979987e-01 4.56934988e-01
      5.47280014e-01 9.43391979e-01 1.30730999e+00 7.28177011e-01
      1.41365004e+00 1.32688999e+00 1.07353997e+00 9.88120019e-01
      1.06458998e+00 6.70831978e-01 4.64971006e-01 4.52425003e-01
      3.70490998e-01 3.71017009e-01 5.46959996e-01 7.06761003e-01
      7.29959011e-01 7.27237999e-01 7.34956980e-01 5.92136979e-01</_>
    <_>
      0. 0. 0. 0. 0. 0. 0. 0. 0. 0. 0. 0. 0. 0. 0. 0. 0. 0. 0. 0. 0. 0.
      0. 0. 0. 0. 0. 0. 0. 0. 0. 0.</_>
    <_>
      6.29942000e-01 5.00648975e-01 4.63037997e-01 4.76985991e-01
      4.07943010e-01 4.19827014e-01 3.78493994e-01 4.00900990e-01
      3.92520994e-01 4.01822001e-01 4.65065002e-01 5.99434018e-01
      9.61341977e-01 1.39226997e+00 5.73032022e-01 1.42928004e+00
      6.33823991e-01 1.21907997e+00 6.00039005e-01 1.16658998e+00
      7.69510984e-01 5.74020028e-01 5.02646983e-01 4.34751004e-01
      4.54737008e-01 4.19129014e-01 3.74134004e-01 6.80559993e-01
      7.06120014e-01 7.18006015e-01 7.35540986e-01 7.38063991e-01</_>
    <_>
      4.18505013e-01 4.20368999e-01 4.10685003e-01 3.94556999e-01
      3.96138996e-01 4.96533990e-01 6.33928001e-01 5.56191981e-01
      6.38449013e-01 7.41469026e-01 8.62375021e-01 8.32049012e-01
      6.10889971e-01 1.42314005e+00 7.01858997e-01 8.01874995e-01
      1.03629994e+00 1.19626999e+00 9.89623010e-01 7.99390018e-01
      6.45183027e-01 5.55293024e-01 4.72503006e-01 4.00781006e-01
      4.07465994e-01 5.72578013e-01 7.27536976e-01 7.10699975e-01
      7.17234015e-01 7.35006988e-01 6.18629992e-01 4.99606013e-01</_>
    <_>
      7.16009021e-01 6.78713024e-01 5.21480024e-01 4.05084997e-01
      3.69524986e-01 3.31104994e-01 3.61887991e-01 3.52100015e-01
      3.51732999e-01 4.41110998e-01 4.51099008e-01 6.34838998e-01
      6.75422013e-01 9.81015027e-01 4.05117989e-01 4.13542986e-01
      4.78154987e-01 8.09711993e-01 9.85817015e-01 5.75713992e-01
      1.02609003e+00 7.60694027e-01 7.59532988e-01 1.10301995e+00
      6.08651996e-01 4.69278991e-01 6.79103971e-01 3.81184012e-01
      4.76543009e-01 6.81770027e-01 7.11676002e-01 7.05972016e-01</_>
    <_>
      3.55673999e-01 4.19367999e-01 4.02292997e-01 3.95137012e-01
      4.00786996e-01 4.54003990e-01 5.14555991e-01 6.69863999e-01
      8.60706985e-01 1.10757995e+00 4.01401013e-01 4.96004999e-01
      6.39209986e-01 9.72750008e-01 6.95693016e-01 8.17839026e-01
      7.17226028e-01 1.13446999e+00 6.38610005e-01 9.58602011e-01
      6.19360983e-01 4.61100012e-01 3.98119986e-01 3.94529998e-01
      4.83595014e-01 7.16009974e-01 6.98974013e-01 6.96124971e-01
      7.11833000e-01 5.84272981e-01 4.51101005e-01 3.96225989e-01</_>
    <_>
      7.76666999e-01 6.79791987e-01 7.04259992e-01 7.19218016e-01
      5.68062007e-01 4.43868011e-01 3.68326008e-01 3.42622012e-01
      3.36647987e-01 3.41461986e-01 3.47779989e-01 3.69468004e-01
      4.07402992e-01 5.01675010e-01 6.36424005e-01 9.21162009e-01
      1.08592999e+00 4.03829992e-01 4.22345996e-01 4.92489994e-01
      9.92525995e-01 1.02430999e+00 7.28555977e-01 1.14234996e+00
      1.53893006e+00 9.29507971e-01 1.40126002e+00 8.97163987e-01
      5.90017974e-01 4.51368004e-01 4.14983004e-01 6.74457014e-01</_>
    <_>
      7.76666999e-01 6.79791987e-01 7.04259992e-01 7.19218016e-01
      5.68062007e-01 4.43868011e-01 3.68326008e-01 3.42622012e-01
      3.36647987e-01 3.41461986e-01 3.47779989e-01 3.69468004e-01
      4.07402992e-01 5.01675010e-01 6.36424005e-01 9.21162009e-01
      1.08592999e+00 4.03829992e-01 4.22345996e-01 4.92489994e-01
      9.92525995e-01 1.02430999e+00 7.28555977e-01 1.14234996e+00
      1.53893006e+00 9.29507971e-01 1.40126002e+00 8.97163987e-01
      5.90017974e-01 4.51368004e-01 4.14983004e-01 6.74457014e-01</_>
    <_>
      5.06102979e-01 4.13964987e-01 3.56359005e-01 3.52055013e-01
      3.81651998e-01 4.24138993e-01 4.38322008e-01 5.00579000e-01
      5.17847002e-01 6.00822985e-01 8.35983992e-01 1.10865998e+00
      4.33847010e-01 4.37004000e-01 5.39511025e-01 7.85960019e-01
      1.43812001e+00 7.25386024e-01 1.52085996e+00 1.52442002e+00
      1.04876006e+00 1.40017998e+00 9.57751989e-01 5.98276973e-01
      4.71956998e-01 4.25588012e-01 4.18141991e-01 5.83634019e-01
      5.80971003e-01 6.06911004e-01 6.39591992e-01 6.71034992e-01</_>
    <_>
      7.06389010e-01 6.98080003e-01 5.86373985e-01 5.66375971e-01
      5.24833977e-01 4.44003999e-01 4.66549993e-01 5.94892979e-01
      6.68815017e-01 6.32951975e-01 5.45049012e-01 5.23750007e-01
      4.99493003e-01 8.33392024e-01 8.25613976e-01 1.38670003e+00
      1.54022002e+00 7.61669993e-01 6.42804980e-01 5.40865004e-01
      4.92307991e-01 4.82266992e-01 5.04024982e-01 4.58274007e-01
      5.30010998e-01 5.69723010e-01 6.74986005e-01 6.89104974e-01
      6.23513997e-01 6.13075972e-01 6.14988983e-01 6.34760976e-01</_>
    <_>
      1.03811002e+00 1.04136002e+00 7.36374974e-01 7.68850982e-01
      7.04869986e-01 6.41134977e-01 9.24377024e-01 8.43638003e-01
      6.40371025e-01 1.00834000e+00 7.78716981e-01 7.92937994e-01
      7.23416984e-01 6.14255011e-01 5.59219003e-01 5.96502006e-01
      5.74181020e-01 6.46780014e-01 7.12379992e-01 8.70279014e-01
      7.78322995e-01 6.78566992e-01 5.77193975e-01 5.36301970e-01
      5.34973025e-01 5.42479992e-01 5.85496008e-01 7.00639009e-01
      8.01928997e-01 9.34958994e-01 1.14789999e+00 7.17315972e-01</_>
    <_>
      5.61758995e-01 7.08737016e-01 7.27756023e-01 7.11166978e-01
      7.08890021e-01 6.05552018e-01 4.86719996e-01 4.69572991e-01
      5.38291991e-01 5.43129027e-01 4.63930994e-01 5.56765020e-01
      9.04743016e-01 6.87204003e-01 9.68555987e-01 7.28417993e-01
      1.57389998e+00 1.36617994e+00 1.24224997e+00 6.39138997e-01
      5.51056981e-01 9.89253998e-01 8.37294996e-01 6.42574012e-01
      5.71901977e-01 4.88907993e-01 4.50617999e-01 4.67096001e-01
      4.35245007e-01 4.16999012e-01 3.91395986e-01 4.40737009e-01</_>
    <_>
      6.72533989e-01 7.27370024e-01 7.19560027e-01 7.11360991e-01
      7.37075984e-01 4.60007012e-01 4.35232997e-01 4.28146005e-01
      4.58701015e-01 4.58593994e-01 6.62051022e-01 8.15256000e-01
      1.31015003e+00 7.33547986e-01 1.42680001e+00 7.74510026e-01
      1.48441005e+00 7.01246023e-01 9.68707025e-01 5.74891984e-01
      4.35716003e-01 3.99181992e-01 8.87512982e-01 6.93733990e-01
      5.86993992e-01 5.39011002e-01 5.07900000e-01 5.40575981e-01
      5.07493019e-01 4.90972012e-01 5.00208974e-01 5.62591016e-01</_>
    <_>
      6.96646988e-01 6.75029993e-01 6.87476993e-01 6.57351971e-01
      5.11192977e-01 4.54295993e-01 4.06147987e-01 4.23720002e-01
      4.53630000e-01 4.56265002e-01 4.81727004e-01 5.64783990e-01
      7.51100004e-01 1.35965002e+00 9.27254975e-01 1.23413002e+00
      1.47403002e+00 1.41665995e+00 6.06217027e-01 4.35999990e-01
      3.60733002e-01 9.83097017e-01 7.52183974e-01 6.09785020e-01
      5.26865005e-01 4.53236014e-01 4.05741990e-01 3.95004988e-01
      3.74662012e-01 3.90834004e-01 4.61398005e-01 7.19304979e-01</_>
    <_>
      5.63166022e-01 5.36881983e-01 5.75525999e-01 6.70903027e-01
      6.85288012e-01 4.39933002e-01 3.85789007e-01 4.60247010e-01
      5.19905984e-01 5.07727981e-01 5.36359012e-01 5.94910979e-01
      8.21121991e-01 1.30142999e+00 1.04884005e+00 1.41228998e+00
      1.48240995e+00 1.40459001e+00 4.81449008e-01 3.60275000e-01
      3.60233992e-01 8.34348023e-01 6.89244986e-01 5.50767004e-01
      4.85725999e-01 4.22953010e-01 3.94984990e-01 3.84052992e-01
      3.69697988e-01 3.99619013e-01 3.66589010e-01 5.18525004e-01</_>
    <_>
      8.42662990e-01 5.07169008e-01 7.65712023e-01 5.10874987e-01
      5.73486984e-01 3.27852994e-01 7.18541980e-01 4.23974007e-01
      8.23094010e-01 7.82890975e-01 6.64349973e-01 5.70751011e-01
      5.23742020e-01 5.04647970e-01 5.31158984e-01 5.64675987e-01
      6.07502997e-01 7.13814020e-01 7.91364014e-01 6.40760005e-01
      5.69934011e-01 5.09585023e-01 4.86966014e-01 4.94459003e-01
      5.35079002e-01 5.69137990e-01 7.14591980e-01 8.53928983e-01
      1.12882996e+00 1.26856005e+00 1.29605997e+00 7.66912997e-01</_>
    <_>
      5.92917025e-01 6.99908018e-01 6.81406021e-01 6.83951020e-01
      7.27674007e-01 5.07866979e-01 4.73437011e-01 4.91138011e-01
      4.81527001e-01 5.36629021e-01 5.81408978e-01 5.95377982e-01
      9.20273006e-01 1.04088998e+00 8.52216005e-01 1.23134005e+00
      1.13032997e+00 8.49447012e-01 7.14240015e-01 4.90139991e-01
      6.71894014e-01 6.03042006e-01 5.39407015e-01 5.20648003e-01
      5.10954976e-01 4.53168988e-01 3.91391009e-01 3.68313998e-01
      4.00674999e-01 3.99554014e-01 4.71926004e-01 4.62942004e-01</_>
    <_>
      1.25425005e+00 1.15251994e+00 1.04251003e+00 1.05026996e+00
      7.30261981e-01 4.94843006e-01 3.50448012e-01 2.75698006e-01
      2.97288001e-01 3.71834010e-01 4.72891003e-01 5.60733020e-01
      6.50120974e-01 6.36016011e-01 7.47861981e-01 7.02575982e-01
      6.14202976e-01 5.63440025e-01 5.73839009e-01 5.68104029e-01
      5.70176005e-01 6.73105001e-01 6.28409982e-01 4.10874993e-01
      3.41544986e-01 4.31033999e-01 4.66371000e-01 4.82071996e-01
      5.43156028e-01 6.17114007e-01 7.47259974e-01 9.07271981e-01</_>
    <_>
      5.34332991e-01 7.30352998e-01 7.11013973e-01 7.16354012e-01
      7.45639980e-01 5.34543991e-01 4.23498988e-01 3.79117996e-01
      3.49296004e-01 3.55747014e-01 4.81260985e-01 4.53191012e-01
      6.27040029e-01 1.02250004e+00 6.34571016e-01 1.13908005e+00
      9.94175017e-01 6.94109976e-01 1.13445997e+00 4.32927012e-01
      4.02859002e-01 7.38206983e-01 5.87590992e-01 5.40084004e-01
      5.06605983e-01 4.37083989e-01 4.86638993e-01 3.66957992e-01
      3.40941012e-01 3.41250002e-01 4.13895994e-01 4.34372991e-01</_>
    <_>
      4.77591991e-01 4.38703001e-01 2.79022008e-01 2.87640005e-01
      4.52571988e-01 1.31816998e-01 5.03265977e-01 5.17494023e-01
      6.18982017e-01 5.71067989e-01 5.59406996e-01 5.59300005e-01
      5.51662982e-01 6.39146984e-01 6.80554986e-01 5.16659021e-01
      4.54454005e-01 2.62548000e-01 1.79010004e-01 1.26851007e-01
      1.44058004e-01 1.82045996e-01 1.87115997e-01 2.04859003e-01
      2.52330005e-01 2.07439005e-01 2.21384004e-01 2.71605998e-01
      3.33822012e-01 1.40710998e+00 9.49692011e-01 6.32269025e-01</_>
    <_>
      7.12603986e-01 6.92588985e-01 7.01273978e-01 7.36644983e-01
      4.71320987e-01 4.70014006e-01 4.74236012e-01 5.24671972e-01
      5.57368994e-01 6.15038991e-01 6.11522973e-01 7.59706020e-01
      9.26082015e-01 9.77110028e-01 1.45846999e+00 1.47970998e+00
      9.11131978e-01 6.28922999e-01 4.07954007e-01 3.55161011e-01
      7.44054019e-01 7.08245993e-01 5.25873005e-01 4.80163008e-01
      4.67159003e-01 4.80435014e-01 3.88644993e-01 3.77613008e-01
      4.11179006e-01 4.09336001e-01 4.84266013e-01 5.84640980e-01</_>
    <_>
      6.99656010e-01 7.15101004e-01 7.03104973e-01 7.34757006e-01
      6.58073008e-01 4.99687999e-01 4.27222013e-01 4.46835011e-01
      5.22553027e-01 5.52192986e-01 5.59558988e-01 5.82054019e-01
      7.68086016e-01 8.40762019e-01 1.44309998e+00 1.28803003e+00
      7.04899013e-01 9.83129025e-01 5.38158000e-01 7.07731009e-01
      6.35194004e-01 5.09166002e-01 4.85370994e-01 5.08364975e-01
      4.49355006e-01 4.05530989e-01 3.75676990e-01 4.53559011e-01
      3.96131992e-01 4.04666990e-01 4.53424007e-01 5.48972011e-01</_>
    <_>
      5.61280012e-01 5.45067012e-01 5.60868979e-01 5.94371974e-01
      6.88309014e-01 6.98859990e-01 5.53696990e-01 4.82161999e-01
      4.19308990e-01 4.17569995e-01 4.02107000e-01 3.80732000e-01
      4.69799995e-01 5.56406021e-01 7.26686001e-01 1.16068006e+00
      1.51341999e+00 1.42911005e+00 1.43522000e+00 1.36480999e+00
      9.39043999e-01 7.20610976e-01 5.69494009e-01 5.06124020e-01
      4.64498997e-01 4.35541004e-01 3.95328999e-01 4.09990996e-01
      4.71578985e-01 5.45041978e-01 6.61751986e-01 6.15957022e-01</_>
    <_>
      6.53764009e-01 6.22690022e-01 6.48819029e-01 6.84038997e-01
      6.62488997e-01 4.78422999e-01 4.03966993e-01 4.15001005e-01
      4.23083991e-01 4.13969010e-01 4.39837992e-01 4.55403000e-01
      4.99754012e-01 7.16630995e-01 8.79565001e-01 1.17842996e+00
      1.48466003e+00 1.00391996e+00 9.75314975e-01 5.64912975e-01
      4.78767991e-01 6.08287990e-01 5.87849975e-01 6.52540028e-01
      4.25588995e-01 5.35504997e-01 4.64203000e-01 4.82125998e-01
      7.11310983e-01 6.56522989e-01 7.11763978e-01 6.90322995e-01</_>
    <_>
      5.06816030e-01 6.43320024e-01 7.11355984e-01 6.94846988e-01
      7.01066971e-01 7.46927977e-01 4.87933993e-01 4.90188003e-01
      4.66156006e-01 4.75739002e-01 6.23028994e-01 6.32167995e-01
      7.95902014e-01 1.13893998e+00 7.23106027e-01 1.41788995e+00
      1.08160996e+00 5.87104976e-01 1.27420998e+00 6.80015028e-01
      7.02055991e-01 6.82079971e-01 6.46863997e-01 5.08881986e-01
      4.69543010e-01 5.10357976e-01 4.42232013e-01 3.91811013e-01
      3.64015996e-01 3.67379993e-01 3.95076007e-01 4.72593009e-01</_>
    <_>
      4.15237993e-01 4.05252010e-01 4.21315998e-01 4.32215989e-01
      4.72891986e-01 5.56915998e-01 4.48706001e-01 4.21651989e-01
      4.22830999e-01 4.92675990e-01 5.29672027e-01 6.03879988e-01
      6.93643987e-01 1.07336998e+00 7.41378009e-01 1.37164998e+00
      9.96837020e-01 6.52774990e-01 1.31884003e+00 6.62820995e-01
      4.68585014e-01 9.56382990e-01 8.33768010e-01 7.39093006e-01
      6.00612998e-01 5.68693995e-01 4.87489015e-01 4.27495986e-01
      4.23157007e-01 4.00590986e-01 4.09595013e-01 4.45964009e-01</_>
    <_>
      3.73677999e-01 3.60808015e-01 3.73315006e-01 3.88520986e-01
      4.12579000e-01 4.62706000e-01 5.44384003e-01 4.30085987e-01
      4.00593996e-01 4.28397000e-01 4.41549003e-01 5.92979014e-01
      6.00755990e-01 7.60047019e-01 1.29333997e+00 7.84054995e-01
      1.43836999e+00 1.22662997e+00 6.81429982e-01 1.22095001e+00
      6.21551991e-01 4.74878013e-01 4.27264005e-01 8.72024000e-01
      7.86049008e-01 6.45178020e-01 5.86004972e-01 5.07974982e-01
      4.74783987e-01 4.12685007e-01 3.81233007e-01 4.00597006e-01</_>
    <_>
      4.56012011e-01 4.78101999e-01 4.92664009e-01 5.47232985e-01
      6.20308995e-01 5.53884983e-01 3.97406995e-01 4.05104995e-01
      4.55486000e-01 5.17998993e-01 5.44430971e-01 6.80703998e-01
      9.45536017e-01 1.26568997e+00 1.08120000e+00 8.33269000e-01
      1.51690996e+00 1.36126006e+00 7.94327974e-01 5.43479979e-01
      4.47288007e-01 4.29621994e-01 8.93518984e-01 7.26464987e-01
      6.36897981e-01 5.55944979e-01 5.01069009e-01 4.40845013e-01
      3.92264992e-01 3.88240993e-01 4.23384994e-01 4.56777990e-01</_>
    <_>
      5.94524026e-01 7.11714983e-01 7.04329014e-01 6.94638014e-01
      7.08415985e-01 5.09425998e-01 4.00602013e-01 4.21532005e-01
      4.67424989e-01 4.84409988e-01 5.08776009e-01 6.75916016e-01
      7.87488997e-01 1.22704005e+00 8.32796991e-01 9.99285996e-01
      1.49875998e+00 9.12626028e-01 9.83025014e-01 5.79775989e-01
      4.52984989e-01 4.25677001e-01 9.57749009e-01 7.90295005e-01
      6.51657999e-01 5.61435997e-01 5.03633976e-01 4.48219001e-01
      3.96988988e-01 3.98883998e-01 4.38618988e-01 5.09392023e-01</_>
    <_>
      6.68338001e-01 7.31745005e-01 7.16380000e-01 7.10447013e-01
      7.00317979e-01 4.96389002e-01 4.13740993e-01 3.95927012e-01
      4.41363007e-01 5.07022977e-01 5.42450011e-01 7.27442026e-01
      1.00413001e+00 7.18891025e-01 1.33662999e+00 8.52083027e-01
      1.51234996e+00 1.37409997e+00 7.47812986e-01 5.19603014e-01
      4.64641005e-01 4.57213014e-01 8.69592011e-01 7.06721008e-01
      6.03747010e-01 5.25103986e-01 4.84762013e-01 4.32841986e-01
      3.84454012e-01 4.11442012e-01 4.49638009e-01 5.31117022e-01</_>
    <_>
      7.16325998e-01 7.23275006e-01 7.10313022e-01 7.15142012e-01
      6.36283994e-01 3.88734996e-01 4.08877999e-01 4.53727990e-01
      4.69875991e-01 5.26968002e-01 5.72215974e-01 6.87431991e-01
      1.16568995e+00 6.10175014e-01 1.29578996e+00 7.53476977e-01
      1.43954003e+00 1.36138999e+00 9.27523971e-01 6.43155992e-01
      4.71107006e-01 4.42555010e-01 4.45816994e-01 8.65915000e-01
      7.21713006e-01 6.62719011e-01 5.68062007e-01 5.35809994e-01
      4.95570004e-01 4.52427000e-01 5.21214008e-01 6.12966001e-01</_>
    <_>
      6.12842023e-01 6.23885989e-01 6.23795986e-01 4.79826987e-01
      3.83996993e-01 3.70739013e-01 3.21132004e-01 3.23543996e-01
      3.28552991e-01 3.52021992e-01 4.02155995e-01 4.73589987e-01
      5.81308007e-01 8.26709986e-01 1.20880997e+00 3.44280005e-01
      8.08292985e-01 8.90209019e-01 8.41533005e-01 7.07844019e-01
      6.65582001e-01 6.93580985e-01 5.79329014e-01 4.74644989e-01
      1.07933998e+00 1.11653996e+00 9.84890997e-01 8.76452029e-01
      5.67443013e-01 6.85323000e-01 6.57646000e-01 6.36596978e-01</_>
    <_>
      6.73783004e-01 5.25018990e-01 4.15019006e-01 3.30808014e-01
      3.28483999e-01 3.29890996e-01 3.37458014e-01 3.67330998e-01
      4.30606991e-01 6.30756974e-01 7.29062021e-01 8.11767995e-01
      8.27008009e-01 8.49623978e-01 8.59490991e-01 8.94960999e-01
      9.75090981e-01 6.40497983e-01 6.07263982e-01 6.19435012e-01
      5.97009003e-01 5.65954983e-01 5.45929015e-01 5.15371978e-01
      4.14694995e-01 4.17892009e-01 6.13224983e-01 6.50490999e-01
      6.17977023e-01 5.87539017e-01 5.96871018e-01 6.48687005e-01</_>
    <_>
      7.42693007e-01 7.19058990e-01 7.12306976e-01 7.13692009e-01
      4.21775997e-01 4.17533994e-01 3.93068999e-01 3.84196013e-01
      4.24302995e-01 4.95124996e-01 5.59413016e-01 7.38415003e-01
      1.03413999e+00 6.09027028e-01 1.19419003e+00 5.02955973e-01
      1.25572002e+00 1.15605998e+00 9.73097980e-01 5.53798020e-01
      4.34765995e-01 4.07085001e-01 3.74772996e-01 3.89660001e-01
      8.48478019e-01 6.79292977e-01 6.39420986e-01 5.71874022e-01
      5.85711002e-01 5.66344023e-01 6.13986015e-01 7.26274014e-01</_>
    <_>
      6.86675012e-01 5.02831995e-01 3.96746993e-01 3.20630014e-01
      3.71279001e-01 3.26593995e-01 3.56905013e-01 4.38286006e-01
      4.10364985e-01 7.21270025e-01 7.24596024e-01 9.16667998e-01
      7.23519981e-01 7.61201024e-01 7.33648002e-01 7.83425987e-01
      9.24170017e-01 4.04727012e-01 4.58061993e-01 5.19065022e-01
      5.17076015e-01 5.14360011e-01 3.96890014e-01 3.25612992e-01
      3.49350989e-01 4.17919993e-01 5.76654017e-01 6.63085997e-01
      6.53019011e-01 6.64026976e-01 7.02816010e-01 7.33608007e-01</_>
    <_>
      6.09609008e-01 6.08132005e-01 6.27002001e-01 6.88368022e-01
      6.79241002e-01 5.19765973e-01 4.96134996e-01 4.83042002e-01
      4.79258001e-01 4.47638988e-01 4.90552992e-01 5.22821009e-01
      6.01291001e-01 8.73023987e-01 7.80301988e-01 5.24106979e-01
      9.98179018e-01 7.16342986e-01 9.01417971e-01 5.47941029e-01
      6.12447977e-01 6.71786010e-01 5.07794023e-01 3.90338987e-01
      5.36228001e-01 4.82026994e-01 4.69987988e-01 5.98125994e-01
      5.80668986e-01 5.73394001e-01 6.55398011e-01 6.48819029e-01</_>
    <_>
      6.33176029e-01 6.76522017e-01 6.13992989e-01 4.84674007e-01
      4.40283000e-01 4.32179004e-01 4.35290992e-01 5.15497029e-01
      6.86595976e-01 8.06496024e-01 9.57256973e-01 1.09434998e+00
      1.03424001e+00 1.05151999e+00 1.01517999e+00 1.12248003e+00
      7.57458985e-01 7.90926993e-01 6.33994997e-01 5.19302011e-01
      5.58207989e-01 5.08489013e-01 4.96969014e-01 4.86818999e-01
      3.58610988e-01 4.75760013e-01 4.49501991e-01 5.04323006e-01
      6.59144998e-01 6.21379972e-01 5.86543977e-01 5.89448988e-01</_>
    <_>
      7.07323015e-01 6.97179973e-01 7.24440992e-01 4.92599994e-01
      4.74308997e-01 4.62666988e-01 5.20933986e-01 5.00495017e-01
      5.44538021e-01 5.93194008e-01 5.77198029e-01 5.29872000e-01
      5.01348019e-01 4.81366992e-01 5.06586015e-01 4.77463990e-01
      1.24267995e+00 7.65110016e-01 4.55733001e-01 3.85246009e-01
      4.65478987e-01 5.13912022e-01 5.31430006e-01 4.52589005e-01
      4.22484994e-01 4.00061995e-01 4.07288998e-01 4.16446000e-01
      4.40934986e-01 5.02981007e-01 6.08577013e-01 7.30940998e-01</_>
    <_>
      4.37348008e-01 4.01737988e-01 3.96180987e-01 4.03281987e-01
      4.35575992e-01 4.76117015e-01 4.02038008e-01 3.84829998e-01
      3.97962987e-01 4.59522992e-01 4.98569995e-01 6.57864988e-01
      8.74243021e-01 1.13810003e+00 1.34596002e+00 1.35101998e+00
      1.50045002e+00 1.02973998e+00 8.74379992e-01 8.33190024e-01
      4.23707992e-01 5.03718019e-01 4.79485005e-01 4.85855013e-01
      4.78529990e-01 4.73073006e-01 4.65330988e-01 4.19737011e-01
      4.21133012e-01 5.46953022e-01 6.08861029e-01 5.12189984e-01</_>
    <_>
      7.06614971e-01 6.92130983e-01 7.23284006e-01 4.70358014e-01
      4.58333999e-01 4.83197004e-01 4.56095994e-01 4.96461004e-01
      5.57865024e-01 5.91251016e-01 5.62292993e-01 5.26234984e-01
      5.07386982e-01 5.15357018e-01 5.19918025e-01 4.79911000e-01
      1.33954000e+00 9.79124010e-01 4.92891997e-01 3.97105992e-01
      3.98019999e-01 5.16713977e-01 5.17139971e-01 4.93245006e-01
      4.36129004e-01 4.26898986e-01 4.09648001e-01 4.23749000e-01
      4.43260014e-01 5.16102016e-01 6.21932030e-01 7.28105009e-01</_>
    <_>
      6.12411022e-01 6.13798022e-01 6.40444994e-01 6.87668979e-01
      6.65062010e-01 4.55769986e-01 3.01182002e-01 2.66808987e-01
      1.97282001e-01 1.85662001e-01 1.78628996e-01 1.86112002e-01
      2.23152995e-01 2.95601994e-01 3.74686003e-01 4.74516004e-01
      7.70331025e-01 1.44930005e+00 1.84204996e+00 1.42241001e+00
      4.81537014e-01 3.34702998e-01 3.09619009e-01 2.58964002e-01
      5.06942987e-01 3.55031013e-01 1.81572005e-01 5.43585002e-01
      6.19432986e-01 6.63882017e-01 6.16101027e-01 6.05157971e-01</_>
    <_>
      5.85039020e-01 5.73149025e-01 6.04993999e-01 6.54076993e-01
      6.90114021e-01 5.78545988e-01 4.78363991e-01 4.30521011e-01
      3.61496001e-01 3.29843014e-01 3.18538994e-01 3.46834004e-01
      3.92293006e-01 4.47376013e-01 6.05081022e-01 8.36951971e-01
      1.22063005e+00 1.49775004e+00 3.73582006e-01 6.29827023e-01
      7.67978013e-01 4.91840005e-01 5.27817011e-01 4.70672011e-01
      3.49886000e-01 3.55540991e-01 3.77757013e-01 4.13576990e-01
      4.51806992e-01 4.85096008e-01 6.92171991e-01 6.50555015e-01</_>
    <_>
      5.17439008e-01 6.07729018e-01 6.10913992e-01 6.25944018e-01
      6.80401981e-01 6.69385016e-01 5.05658984e-01 4.00839001e-01
      3.85414988e-01 4.15284008e-01 4.56312001e-01 5.00685990e-01
      5.87756991e-01 1.11052001e+00 6.60569012e-01 1.34078002e+00
      7.47419000e-01 1.30507004e+00 9.67172980e-01 1.03529000e+00
      5.67905009e-01 4.21317011e-01 4.10250008e-01 4.77703005e-01
      5.37751973e-01 4.63425010e-01 4.47016001e-01 4.30619001e-01
      4.02236015e-01 3.91685009e-01 3.93260002e-01 4.32747006e-01</_>
    <_>
      6.30954981e-01 6.23219013e-01 6.61984026e-01 6.79203987e-01
      6.99425995e-01 6.01967990e-01 5.14437020e-01 4.32579011e-01
      3.84465992e-01 2.98694015e-01 2.82090008e-01 2.75873989e-01
      3.06039006e-01 3.62720996e-01 5.20510972e-01 7.17683017e-01
      1.40398002e+00 1.60168004e+00 1.12573004e+00 2.63392001e-01
      4.83570993e-01 6.84970021e-01 6.87754989e-01 5.58090985e-01
      3.84835988e-01 3.24009001e-01 3.39002013e-01 3.36021006e-01
      3.39345008e-01 5.57488024e-01 6.47001982e-01 6.55493021e-01</_>
    <_>
      5.39581001e-01 6.88377976e-01 7.01224029e-01 6.83776975e-01
      7.11718976e-01 7.25198984e-01 5.19388974e-01 5.07604003e-01
      5.39797008e-01 5.44888020e-01 5.87589979e-01 5.89223027e-01
      7.05855012e-01 1.19231999e+00 6.73147023e-01 1.33379996e+00
      7.97688007e-01 1.23415005e+00 1.25387001e+00 9.52848971e-01
      5.21844983e-01 6.57350004e-01 6.09606028e-01 6.18137002e-01
      5.39964020e-01 5.33298016e-01 5.28748989e-01 4.86918986e-01
      4.64139998e-01 4.46478993e-01 4.54050004e-01 4.71614003e-01</_>
    <_>
      5.67412019e-01 5.78688025e-01 5.89506984e-01 5.32082975e-01
      6.60887003e-01 7.04859972e-01 6.32248998e-01 4.85000014e-01
      4.55482990e-01 4.15814012e-01 3.07556987e-01 2.81998992e-01
      2.94182003e-01 3.24811995e-01 5.89425027e-01 7.01866984e-01
      9.00690973e-01 9.21505988e-01 2.92861998e-01 4.14099991e-01
      7.72647023e-01 3.97906989e-01 3.93597990e-01 3.56539011e-01
      3.52378994e-01 3.15333992e-01 3.21496993e-01 2.57690996e-01
      2.08355993e-01 2.21901998e-01 2.46148005e-01 2.77868003e-01</_>
    <_>
      6.60919011e-01 6.62244022e-01 6.62566006e-01 6.94104016e-01
      6.86155975e-01 4.73215997e-01 4.38116997e-01 4.79153007e-01
      4.49667990e-01 4.98932004e-01 5.28867006e-01 5.56080997e-01
      7.04298019e-01 1.34847999e+00 8.13371003e-01 7.63427973e-01
      1.48013997e+00 1.38733995e+00 9.12083030e-01 5.32630026e-01
      4.49472010e-01 4.17198986e-01 1.06842005e+00 8.36304009e-01
      6.43508017e-01 5.65762997e-01 4.84584987e-01 4.43010986e-01
      4.18323994e-01 4.36834008e-01 4.53615010e-01 5.28883994e-01</_>
    <_>
      6.64052010e-01 6.58325016e-01 6.30739987e-01 6.48546994e-01
      6.95966005e-01 5.73192000e-01 4.68309999e-01 4.70450014e-01
      5.33011019e-01 5.36526024e-01 5.69139004e-01 6.52324975e-01
      9.34584975e-01 1.24401999e+00 1.04565001e+00 8.63366008e-01
      1.45938003e+00 1.32231998e+00 8.28731000e-01 4.78830010e-01
      3.96793008e-01 4.34953004e-01 9.77056026e-01 7.59256005e-01
      6.15074992e-01 5.12154996e-01 4.73154992e-01 4.29509997e-01
      4.14701015e-01 4.28505987e-01 4.59749013e-01 5.25156021e-01</_>
    <_>
      7.17239022e-01 6.56494021e-01 6.66090012e-01 7.29183018e-01
      7.02225983e-01 4.76339012e-01 4.57825005e-01 4.97503012e-01
      5.44698000e-01 5.22087991e-01 5.79885006e-01 7.72835016e-01
      1.29048002e+00 8.89684975e-01 1.45905995e+00 1.47959006e+00
      7.65226007e-01 1.26982999e+00 5.25838971e-01 4.04624999e-01
      4.25164014e-01 5.06125987e-01 8.42401981e-01 6.23485029e-01
      5.40772974e-01 4.82690990e-01 4.27870005e-01 4.17807013e-01
      4.20033991e-01 4.47286993e-01 5.01227021e-01 5.93854010e-01</_>
    <_>
      6.44466996e-01 6.70992017e-01 6.42638981e-01 6.76025987e-01
      7.60468006e-01 5.83871007e-01 6.38369977e-01 5.84052980e-01
      5.95803976e-01 5.53245008e-01 6.00359023e-01 6.35949016e-01
      8.36952984e-01 1.30007005e+00 9.30911005e-01 8.74737978e-01
      1.50013995e+00 9.99364972e-01 1.01124001e+00 4.62251991e-01
      4.30283993e-01 4.22549009e-01 5.80295980e-01 7.23719001e-01
      5.96688986e-01 4.90765005e-01 5.48762977e-01 4.59930986e-01
      4.69341993e-01 4.18772995e-01 5.15854001e-01 5.13337016e-01</_>
    <_>
      6.19504988e-01 6.90853000e-01 6.65241003e-01 6.76732004e-01
      7.39323020e-01 5.83321989e-01 4.37545002e-01 4.30150986e-01
      4.30934995e-01 4.51934993e-01 4.93773013e-01 5.40439010e-01
      7.68795013e-01 1.24916995e+00 9.17391002e-01 1.33012998e+00
      1.50971997e+00 9.94768977e-01 1.07008004e+00 4.88404989e-01
      4.15060997e-01 4.03347999e-01 9.27635014e-01 8.26664984e-01
      6.46142006e-01 5.74858010e-01 4.95449990e-01 4.37785000e-01
      3.93721014e-01 4.45589989e-01 4.71179992e-01 4.92567003e-01</_>
    <_>
      4.61037010e-01 3.94075006e-01 3.84573996e-01 3.64762008e-01
      3.56389999e-01 3.75346005e-01 4.42665011e-01 4.39271003e-01
      4.63131994e-01 4.10768002e-01 3.57383013e-01 5.96361995e-01
      3.08647007e-01 4.40898001e-01 4.49559003e-01 4.55401987e-01
      5.46500027e-01 5.38586020e-01 5.43210030e-01 7.34739006e-01
      8.15434992e-01 6.91437006e-01 6.45855010e-01 6.25451028e-01
      6.17389023e-01 5.66676021e-01 3.22338015e-01 3.10941994e-01
      3.03207010e-01 3.22255999e-01 6.91615999e-01 5.54767013e-01</_>
    <_>
      6.53379977e-01 6.91716015e-01 6.67414010e-01 6.79129004e-01
      7.40195990e-01 4.99392003e-01 4.59100008e-01 4.49184000e-01
      4.67090994e-01 4.85004008e-01 5.15631020e-01 6.22192979e-01
      8.54385018e-01 7.53117979e-01 9.19722974e-01 1.21249998e+00
      1.47461998e+00 1.36932003e+00 9.53925014e-01 5.34096003e-01
      4.34545010e-01 4.08906996e-01 1.01782000e+00 8.00267994e-01
      6.56278014e-01 5.40389001e-01 4.85531986e-01 4.52939987e-01
      4.34056997e-01 4.41096991e-01 4.62366998e-01 5.37445009e-01</_>
    <_>
      6.98301971e-01 7.10529029e-01 6.91488028e-01 6.92140996e-01
      6.85389996e-01 4.85175014e-01 5.17652988e-01 4.22262996e-01
      3.80580992e-01 3.82312000e-01 4.27307010e-01 5.30348003e-01
      6.27435029e-01 1.12129998e+00 5.33986986e-01 1.05747998e+00
      5.80803990e-01 1.31975996e+00 5.77775002e-01 1.16592002e+00
      4.96096998e-01 4.39292014e-01 3.62361997e-01 3.71742010e-01
      5.79177976e-01 5.42829990e-01 4.54154015e-01 4.09684986e-01
      4.17517990e-01 4.75488991e-01 4.86804008e-01 5.91943026e-01</_>
    <_>
      6.12145007e-01 7.17904985e-01 7.10690022e-01 7.05224991e-01
      7.39974022e-01 6.43698990e-01 3.64244014e-01 3.64086986e-01
      3.60026002e-01 3.96793991e-01 4.97521996e-01 5.83429992e-01
      6.98372006e-01 1.16211998e+00 5.60559988e-01 1.08888996e+00
      8.38002026e-01 1.30681002e+00 9.13832009e-01 8.09204996e-01
      4.82706010e-01 3.72150987e-01 3.61591011e-01 3.85354012e-01
      4.55253989e-01 4.46978003e-01 3.81532013e-01 3.69082987e-01
      3.56647998e-01 4.17115003e-01 4.19313997e-01 4.76181000e-01</_>
    <_>
      7.04515994e-01 7.37513006e-01 7.25036025e-01 7.24552989e-01
      6.23973012e-01 4.10546005e-01 5.40443003e-01 5.03705978e-01
      4.70881999e-01 5.25066018e-01 7.57605016e-01 1.21105003e+00
      5.70451021e-01 9.73948002e-01 8.23740005e-01 1.15243006e+00
      6.15375996e-01 1.25863004e+00 6.83017015e-01 4.43242997e-01
      3.82824987e-01 3.65509987e-01 4.91685987e-01 4.82342988e-01
      4.32181001e-01 3.94984007e-01 3.80021006e-01 4.01401997e-01
      3.92720014e-01 4.16563988e-01 4.55500007e-01 5.94365001e-01</_>
    <_>
      5.00981987e-01 5.86944997e-01 7.19505012e-01 7.17335999e-01
      7.05290973e-01 7.03314006e-01 6.17775977e-01 4.87884998e-01
      4.50412005e-01 4.22899991e-01 4.48116988e-01 5.74405015e-01
      8.79580021e-01 8.13012004e-01 7.02103972e-01 1.45199001e+00
      7.30831027e-01 1.45091999e+00 7.16578007e-01 1.25541997e+00
      6.39380991e-01 4.74200994e-01 4.30326998e-01 4.33483988e-01
      5.56065023e-01 5.58067977e-01 4.53947008e-01 4.19315010e-01
      3.92470002e-01 3.92511994e-01 3.78161013e-01 4.26160991e-01</_>
    <_>
      5.82359016e-01 7.30350018e-01 7.05640018e-01 6.97167993e-01
      7.14690983e-01 6.08002007e-01 4.74202991e-01 4.52234000e-01
      4.47414994e-01 4.40461010e-01 4.65404987e-01 5.55971980e-01
      7.51590014e-01 1.16425002e+00 6.81096971e-01 1.29376996e+00
      7.83423007e-01 1.32193005e+00 1.05449998e+00 8.44789028e-01
      4.55841005e-01 4.26672995e-01 4.98302996e-01 4.76036012e-01
      5.36356986e-01 5.01065016e-01 4.34096992e-01 4.21698987e-01
      4.09911007e-01 4.13906991e-01 4.36820000e-01 4.68309999e-01</_>
    <_>
      6.53281987e-01 6.82860017e-01 6.60830975e-01 5.49556971e-01
      4.96596992e-01 4.16294008e-01 3.77907991e-01 3.49337995e-01
      3.74897003e-01 3.90451998e-01 4.73823994e-01 5.75573027e-01
      6.45331979e-01 8.02505016e-01 6.05455995e-01 2.82739997e-01
      6.22650981e-01 5.34195006e-01 5.06308019e-01 7.02843010e-01
      5.54536998e-01 4.69745994e-01 4.84714001e-01 4.21723992e-01
      4.22006011e-01 4.51160997e-01 4.27527010e-01 6.10404015e-01
      7.33335972e-01 7.24735022e-01 6.85270011e-01 6.53032005e-01</_>
    <_>
      6.75055027e-01 6.76851988e-01 7.18783975e-01 5.25747001e-01
      4.19465989e-01 3.34053993e-01 2.85696000e-01 2.43854001e-01
      2.30380997e-01 2.41916001e-01 2.41925001e-01 2.58480996e-01
      3.37769985e-01 6.11970007e-01 2.83172011e-01 2.42317006e-01
      1.30961001e+00 7.16879010e-01 8.61442029e-01 4.89302009e-01
      3.14013004e-01 2.75231987e-01 2.68292010e-01 2.84170985e-01
      4.02211010e-01 3.12240988e-01 4.26277012e-01 3.84036988e-01
      4.43412989e-01 4.60301012e-01 6.60040021e-01 6.90460980e-01</_>
    <_>
      5.84903002e-01 6.02678001e-01 6.39343023e-01 5.90749025e-01
      3.91799986e-01 3.19076002e-01 2.66263008e-01 2.42964998e-01
      2.45735005e-01 2.23042995e-01 2.19997004e-01 2.61177003e-01
      3.53462011e-01 4.15069997e-01 6.58151984e-01 1.51561999e+00
      8.18890989e-01 4.69879001e-01 5.72759986e-01 5.30797005e-01
      4.05434012e-01 3.67379010e-01 5.12583017e-01 4.60408986e-01
      4.27987009e-01 4.12844002e-01 4.53312993e-01 4.85058993e-01
      8.27986002e-01 6.78261995e-01 6.29994988e-01 5.95632017e-01</_>
    <_>
      7.04998016e-01 6.27022982e-01 3.92614007e-01 2.41848007e-01
      1.81214005e-01 1.57585993e-01 1.24003001e-01 1.22192003e-01
      1.13217004e-01 1.22390002e-01 1.27784997e-01 1.45464003e-01
      2.38404006e-01 3.23190004e-01 4.42923993e-01 1.08047998e+00
      1.33820999e+00 3.55206996e-01 2.49198005e-01 2.32686996e-01
      3.86224002e-01 1.72473997e-01 1.58233002e-01 5.15793979e-01
      5.04435003e-01 4.85783994e-01 1.29687995e-01 1.49609998e-01
      4.40665990e-01 5.99569023e-01 6.91282988e-01 6.92371011e-01</_>
    <_>
      6.16641998e-01 6.37369990e-01 6.16517007e-01 5.11255026e-01
      3.68939996e-01 2.50625998e-01 2.14380994e-01 1.95418000e-01
      1.73317999e-01 2.12337002e-01 2.49630004e-01 2.98339993e-01
      3.47272992e-01 5.21620989e-01 9.15030003e-01 1.60415995e+00
      1.81991005e+00 1.36576998e+00 8.07380974e-01 2.55409986e-01
      2.74479985e-01 2.68979996e-01 2.68112987e-01 2.39983007e-01
      2.21654996e-01 2.33695000e-01 2.38105997e-01 2.85584986e-01
      4.09913987e-01 6.22838020e-01 5.79521000e-01 5.90449989e-01</_>
    <_>
      7.00568020e-01 6.38197005e-01 5.68171978e-01 5.31962991e-01
      5.21421015e-01 5.00544012e-01 5.49338996e-01 6.01309001e-01
      6.65934980e-01 8.43231976e-01 1.13044000e+00 1.36280000e+00
      9.01138008e-01 9.91478980e-01 6.43546999e-01 1.09961998e+00
      9.89094973e-01 4.99226004e-01 9.02496994e-01 9.36522007e-01
      1.02353001e+00 9.16203022e-01 8.31761003e-01 6.31145000e-01
      5.82935989e-01 5.41166008e-01 5.33335984e-01 5.04742026e-01
      5.32172024e-01 5.64087987e-01 5.76062977e-01 6.41327977e-01</_>
    <_>
      6.73403978e-01 7.20656991e-01 6.23475015e-01 4.71226990e-01
      5.03076017e-01 4.05366987e-01 4.06356007e-01 3.77272993e-01
      1.90090999e-01 5.15434027e-01 4.92502987e-01 6.40964985e-01
      7.41636992e-01 7.79210985e-01 8.18377018e-01 1.18735003e+00
      1.29279995e+00 8.03339005e-01 5.82827985e-01 4.53422010e-01
      4.10147995e-01 3.39352012e-01 3.29537988e-01 3.26532990e-01
      3.46318990e-01 3.64060998e-01 3.88886005e-01 3.65271002e-01
      3.72756988e-01 4.71421003e-01 6.09673977e-01 6.27699971e-01</_>
    <_>
      7.37118006e+00 7.37118006e+00 7.37118006e+00 7.37118006e+00
      7.37118006e+00 7.37118006e+00 7.37118006e+00 7.37118006e+00
      7.37118006e+00 7.37118006e+00 7.37118006e+00 7.37118006e+00
      7.37118006e+00 7.37118006e+00 7.37118006e+00 7.37118006e+00
      7.37118006e+00 7.37118006e+00 7.37118006e+00 7.37118006e+00
      7.37118006e+00 7.37118006e+00 7.37118006e+00 7.37118006e+00
      7.37118006e+00 7.37118006e+00 7.37118006e+00 7.37118006e+00
      7.37118006e+00 7.37118006e+00 7.37118006e+00 7.37118006e+00</_>
    <_>
      7.27563024e-01 7.52095997e-01 8.27223003e-01 7.77314007e-01
      8.63346994e-01 6.93602979e-01 7.65860975e-01 7.27603018e-01
      6.68009967e-02 8.62895012e-01 8.49089980e-01 8.84833992e-01
      8.87243986e-01 1.00503004e+00 1.11821997e+00 8.58199000e-01
      3.51155996e-01 9.34952974e-01 8.24386001e-01 9.12939012e-01
      9.36477005e-01 8.95339012e-01 7.86176026e-01 7.47660995e-01
      7.56935000e-01 7.77208984e-01 7.91170001e-01 7.84249008e-01
      7.36217976e-01 7.07091987e-01 6.96485996e-01 7.06337988e-01</_>
    <_>
      5.92738986e-01 1.13273001e+00 7.11196005e-01 7.15421975e-01
      7.95666993e-01 8.15416992e-01 7.62421012e-01 7.78944016e-01
      8.25933993e-01 9.38081026e-01 8.09513986e-01 9.63422000e-01
      9.94808972e-01 1.06752002e+00 1.23881996e+00 1.12799001e+00
      1.36960995e+00 1.05021000e+00 9.85894024e-01 9.53402996e-01
      9.72146988e-01 8.83639991e-01 7.85459995e-01 7.38976002e-01
      7.75951982e-01 8.12874973e-01 7.91815996e-01 7.03161001e-01
      6.12864017e-01 5.57002008e-01 5.44903994e-01 5.45293987e-01</_>
    <_>
      6.25913978e-01 6.23346984e-01 6.45116985e-01 7.10065007e-01
      9.08197999e-01 8.24464023e-01 7.24291980e-01 6.81730986e-01
      7.01784015e-01 6.78313017e-01 7.74047017e-01 9.44087982e-01
      8.66932988e-01 8.34900022e-01 1.01480997e+00 4.92866009e-01
      8.44523013e-01 9.14689004e-01 1.08642995e+00 8.27426016e-01
      8.13511014e-01 8.63986015e-01 8.39468002e-01 7.80126989e-01
      8.05182993e-01 6.71283007e-01 6.56108022e-01 7.10690022e-01
      7.62274981e-01 7.61119008e-01 7.17510998e-01 6.44876003e-01</_>
    <_>
      5.83572984e-01 5.95220983e-01 6.92950010e-01 7.43043005e-01
      8.09818983e-01 6.95599020e-01 6.97193027e-01 8.29043984e-01
      7.32365012e-01 7.19159007e-01 7.95650005e-01 7.25431979e-01
      7.02826023e-01 8.86491001e-01 9.67427015e-01 8.37801993e-01
      6.67306036e-02 8.17758024e-01 6.71513975e-01 1.02533996e+00
      8.83751988e-01 7.34452009e-01 6.93370998e-01 6.76748991e-01
      6.48636997e-01 6.12823009e-01 6.92568004e-01 6.78937018e-01
      7.07111001e-01 7.39795029e-01 6.67824984e-01 6.12833977e-01</_>
    <_>
      0. 0. 0. 0. 0. 0. 0. 0. 0. 0. 0. 0. 0. 0. 0. 0. 0. 0. 0. 0. 0. 0.
      0. 0. 0. 0. 0. 0. 0. 0. 0. 0.</_>
    <_>
      5.12956977e-01 4.90114003e-01 4.87951010e-01 5.04603982e-01
      5.30058026e-01 4.90976006e-01 4.79506999e-01 5.87891996e-01
      6.53397977e-01 6.29213989e-01 7.51154006e-01 1.04481995e+00
      9.99284983e-01 1.01771998e+00 5.41971028e-01 5.01841009e-01
      4.77928013e-01 4.61899996e-01 5.81098020e-01 8.40939999e-01
      7.40746975e-01 6.69241011e-01 6.80994987e-01 7.62816012e-01
      6.76249027e-01 6.13095999e-01 5.75109005e-01 4.87203002e-01
      4.87028986e-01 5.16972005e-01 5.52801013e-01 5.57802975e-01</_>
    <_>
      7.32032001e-01 7.56047010e-01 6.71235025e-01 6.04445994e-01
      6.40856028e-01 7.77086020e-01 7.59791017e-01 8.50596011e-01
      8.10660005e-01 3.81368995e-01 1.06404996e+00 9.85315025e-01
      1.10881996e+00 8.20870996e-01 3.73403013e-01 5.81358016e-01
      7.92953014e-01 7.71386027e-01 7.05066025e-01 6.14822984e-01
      5.90927005e-01 6.04999006e-01 6.16110981e-01 6.07419014e-01
      6.39967024e-01 6.69367015e-01 7.73110986e-01 6.87080979e-01
      6.52760029e-01 6.60136998e-01 7.11537004e-01 7.67345011e-01</_>
    <_>
      6.86684012e-01 6.77739978e-01 6.68999016e-01 6.51194990e-01
      6.75817013e-01 7.26379991e-01 6.74359977e-01 6.83220983e-01
      8.11214983e-01 8.17551970e-01 1.02875996e+00 8.42894018e-01
      1.07157004e+00 9.50378001e-01 7.12185979e-01 6.50123000e-01
      8.55279982e-01 8.43536973e-01 7.69152999e-01 6.60959005e-01
      6.43257976e-01 6.39081001e-01 6.59626007e-01 6.30207002e-01
      5.65195024e-01 4.81887013e-01 4.33292001e-01 4.05400008e-01
      4.04783994e-01 4.23794001e-01 4.74525988e-01 6.10845983e-01</_>
    <_>
      7.92146027e-01 6.45762026e-01 9.03689027e-01 8.26213002e-01
      8.19981992e-01 7.38292992e-01 6.63551986e-01 6.63049996e-01
      6.55300975e-01 7.15803027e-01 1.22715998e+00 1.21902001e+00
      1.75619996e+00 1.84273005e+00 1.94107997e+00 1.69147003e+00
      1.55830002e+00 1.57716000e+00 9.50339973e-01 7.04936028e-01
      6.73972011e-01 6.68739974e-01 6.68802977e-01 7.30799973e-01
      7.65854001e-01 6.86783016e-01 7.04979002e-01 8.42734993e-01
      9.20764983e-01 1.03101003e+00 9.41429019e-01 1.09739006e+00</_>
    <_>
      4.72622007e-01 4.48101014e-01 4.14972991e-01 3.75930011e-01
      3.94840002e-01 4.03376997e-01 5.28226972e-01 6.52710974e-01
      7.04137981e-01 6.54510975e-01 6.96681976e-01 6.41411006e-01
      4.08589989e-01 2.42918000e-01 2.32580006e-01 5.46765983e-01
      4.66244996e-01 4.67777997e-01 7.20880985e-01 4.62323010e-01
      5.91763020e-01 7.19995975e-01 6.91103995e-01 6.93913996e-01
      4.53164011e-01 3.83866996e-01 3.65007997e-01 3.51541013e-01
      3.78246009e-01 4.33925003e-01 4.78141010e-01 5.20723999e-01</_>
    <_>
      7.31941998e-01 7.03230977e-01 4.32559013e-01 3.65332991e-01
      2.87752986e-01 3.85181010e-01 4.89890993e-01 4.39541996e-01
      4.23110008e-01 4.49539989e-01 4.35458004e-01 4.46289986e-01
      4.96735990e-01 4.89066005e-01 4.96636003e-01 8.60119998e-01
      1.45868003e+00 9.58886027e-01 3.80820990e-01 6.83296025e-01
      6.34324014e-01 7.44419992e-01 8.86600971e-01 8.51553023e-01
      7.56507993e-01 7.54217029e-01 7.46704996e-01 7.63384998e-01
      8.27876985e-01 8.17973971e-01 2.94768006e-01 7.38659978e-01</_>
    <_>
      4.40899998e-01 5.03359020e-01 6.72656000e-01 8.83336008e-01
      1.14592004e+00 1.47824001e+00 1.46027005e+00 1.38072002e+00
      8.56608987e-01 6.85468972e-01 5.77521026e-01 5.09706974e-01
      4.95557994e-01 4.70714003e-01 4.60891992e-01 4.81281012e-01
      5.35745978e-01 6.16136014e-01 6.63318992e-01 6.07751012e-01
      5.61523974e-01 5.53490996e-01 5.77699006e-01 6.20060980e-01
      6.87895000e-01 5.96737027e-01 5.21538973e-01 4.32381004e-01
      4.01971012e-01 4.07774001e-01 4.18197989e-01 4.19887006e-01</_>
    <_>
      7.04254985e-01 6.96569979e-01 7.25540996e-01 6.31426990e-01
      3.86496007e-01 3.39675993e-01 2.85452008e-01 2.45101005e-01
      2.24049002e-01 1.98606998e-01 1.97922006e-01 1.92560002e-01
      2.23961994e-01 2.69883007e-01 2.68278986e-01 3.02080005e-01
      7.91131973e-01 1.02100003e+00 1.05525005e+00 9.16760027e-01
      7.41262019e-01 7.25906014e-01 6.95523977e-01 5.12507021e-01
      4.95162010e-01 4.88981009e-01 5.34348011e-01 4.63447005e-01
      3.79189014e-01 3.19469988e-01 3.38009000e-01 3.64661992e-01</_>
    <_>
      3.36753011e-01 3.17739010e-01 3.30577999e-01 3.49355996e-01
      3.66436005e-01 3.64564002e-01 3.65134001e-01 3.53327006e-01
      3.70662987e-01 3.66950989e-01 5.20942986e-01 5.97176015e-01
      9.37479019e-01 1.20044994e+00 1.19379997e+00 1.19698000e+00
      1.56186998e+00 9.34589028e-01 6.92503989e-01 5.14017999e-01
      4.37267989e-01 3.89665991e-01 3.73760015e-01 3.75907004e-01
      3.92259985e-01 4.35460001e-01 5.22130013e-01 6.59438014e-01
      6.33364975e-01 4.98883992e-01 4.12580013e-01 3.67403001e-01</_>
    <_>
      0. 0. 0. 0. 0. 0. 0. 0. 0. 0. 0. 0. 0. 0. 0. 0. 0. 0. 0. 0. 0. 0.
      0. 0. 0. 0. 0. 0. 0. 0. 0. 0.</_>
    <_>
      0. 0. 0. 0. 0. 0. 0. 0. 0. 0. 0. 0. 0. 0. 0. 0. 0. 0. 0. 0. 0. 0.
      0. 0. 0. 0. 0. 0. 0. 0. 0. 0.</_>
    <_>
      2.96339005e-01 6.66218996e-01 7.19838023e-01 9.23078001e-01
      7.99862981e-01 5.89978993e-01 5.10370016e-01 3.22167009e-01
      2.86477000e-01 2.96905011e-01 2.98563987e-01 2.88893998e-01
      3.48924011e-01 3.92127991e-01 8.39784026e-01 1.58248997e+00
      1.85036004e+00 1.19518995e+00 8.49943995e-01 5.66222012e-01
      4.18754011e-01 3.19440007e-01 2.94977009e-01 2.77016014e-01
      2.93990999e-01 3.19678009e-01 3.58029991e-01 5.02681971e-01
      5.74990988e-01 7.42603004e-01 1.54302999e-01 7.04007983e-01</_>
    <_>
      6.95928991e-01 7.23661005e-01 7.42738008e-01 4.79003996e-01
      3.30440015e-01 3.02123010e-01 2.71811008e-01 2.38936007e-01
      2.59395003e-01 2.61801988e-01 2.60535002e-01 2.79437006e-01
      4.19165999e-01 4.85444993e-01 8.82932007e-01 1.15888000e+00
      1.22070003e+00 9.85074997e-01 6.16114974e-01 3.68337989e-01
      2.78501004e-01 2.59281009e-01 2.66638994e-01 2.63467014e-01
      2.48563007e-01 2.67578989e-01 2.65352011e-01 3.47552001e-01
      4.62832004e-01 7.32697010e-01 7.32322991e-01 7.02023029e-01</_>
    <_>
      4.31364000e-01 4.28283006e-01 4.31425005e-01 4.54088002e-01
      5.11249006e-01 4.68252987e-01 5.23092985e-01 3.41751993e-01
      5.12055993e-01 3.20277005e-01 3.33052993e-01 4.05770987e-01
      3.62585992e-01 4.15295005e-01 5.36678016e-01 7.90602028e-01
      9.83816028e-01 9.38987970e-01 9.67975974e-01 7.60833025e-01
      6.39037013e-01 5.68473995e-01 5.79477012e-01 4.45472002e-01
      4.39393014e-01 3.48856002e-01 3.85789007e-01 3.83579999e-01
      4.01933998e-01 3.12029004e-01 4.53287989e-01 4.61721003e-01</_>
    <_>
      6.87740028e-01 7.37102985e-01 8.01806986e-01 7.47617006e-01
      6.68190002e-01 7.03842998e-01 6.57858014e-01 6.71109974e-01
      6.73232973e-01 6.92708015e-01 6.80146992e-01 7.09394991e-01
      1.06062996e+00 8.86422992e-01 1.07135999e+00 1.23232996e+00
      9.06343997e-01 5.81313014e-01 5.97365022e-01 6.15855992e-01
      6.66732013e-01 6.44724011e-01 5.67700982e-01 5.92845023e-01
      9.33264017e-01 1.29999995e+00 1.26706004e+00 8.64982009e-01
      8.11083972e-01 7.00999975e-01 6.60372972e-01 6.65337026e-01</_>
    <_>
      0. 0. 0. 0. 0. 0. 0. 0. 0. 0. 0. 0. 0. 0. 0. 0. 0. 0. 0. 0. 0. 0.
      0. 0. 0. 0. 0. 0. 0. 0. 0. 0.</_>
    <_>
      4.38028008e-01 4.21261996e-01 4.01861012e-01 2.25866005e-01
      4.20100003e-01 4.71552014e-01 1.56545997e+00 1.44683003e+00
      1.03066003e+00 8.78757000e-01 2.81316996e-01 7.35966027e-01
      7.45984018e-01 7.51806974e-01 6.77968979e-01 4.39186990e-01
      4.57814008e-01 5.38165987e-01 1.76885998e+00 1.84054995e+00
      8.27530026e-01 5.22319973e-01 8.97475004e-01 8.32423985e-01
      7.75101006e-01 2.21374005e-01 3.54535997e-01 3.59488994e-01
      3.59616011e-01 3.87692988e-01 4.51615989e-01 4.86036003e-01</_>
    <_>
      3.60298008e-01 3.39437008e-01 3.37269992e-01 3.56730014e-01
      3.99462998e-01 4.59780008e-01 3.47503990e-01 3.62259001e-01
      3.22476000e-01 2.60455996e-01 2.92587012e-01 3.15320998e-01
      3.39181006e-01 4.00884002e-01 6.56974018e-01 7.95787990e-01
      1.32656002e+00 5.74716985e-01 1.26549995e+00 3.51042002e-01
      2.87184000e-01 2.88976997e-01 2.41765007e-01 2.32543007e-01
      2.29922995e-01 2.27255002e-01 2.51192987e-01 2.70895004e-01
      2.30958998e-01 2.67342001e-01 3.00300986e-01 3.48325014e-01</_>
    <_>
      0. 0. 0. 0. 0. 0. 0. 0. 0. 0. 0. 0. 0. 0. 0. 0. 0. 0. 0. 0. 0. 0.
      0. 0. 0. 0. 0. 0. 0. 0. 0. 0.</_>
    <_>
      3.54467988e-01 4.63485986e-01 4.38834012e-01 3.49444002e-01
      2.38681003e-01 2.24032000e-01 1.82815000e-01 1.82635993e-01
      1.91062003e-01 2.48310000e-01 3.19209993e-01 3.77164006e-01
      7.40530014e-01 9.17321980e-01 1.18777001e+00 1.30482996e+00
      3.03550988e-01 3.16468000e-01 3.40674996e-01 2.33137995e-01
      1.83715001e-01 1.78599998e-01 1.83424994e-01 2.59041995e-01
      4.15407985e-01 4.05144006e-01 5.11277989e-02 6.92619979e-01
      9.99276996e-01 1.01068997e+00 9.04938996e-01 4.03580993e-01</_>
    <_>
      6.64551973e-01 5.96355975e-01 5.85790992e-01 6.31604016e-01
      6.62639976e-01 5.23738980e-01 3.60123992e-01 3.05238992e-01
      2.70157009e-01 2.53984988e-01 2.50773996e-01 2.52209008e-01
      2.57447988e-01 2.73180008e-01 3.41253012e-01 3.91348004e-01
      5.07359982e-01 1.54194999e+00 1.43498003e+00 1.02491999e+00
      6.50565982e-01 5.39928019e-01 4.20237988e-01 3.83163989e-01
      3.70027989e-01 3.86914998e-01 3.98375005e-01 4.07350004e-01
      4.65822995e-01 5.07731974e-01 5.66442013e-01 7.48317003e-01</_>
    <_>
      6.17007017e-01 6.43978000e-01 6.96923971e-01 7.07755983e-01
      5.87512016e-01 4.78226006e-01 3.92242014e-01 3.70647013e-01
      3.30547005e-01 3.23338985e-01 3.41300994e-01 3.69029999e-01
      4.37287986e-01 5.58368027e-01 7.85382986e-01 8.48419011e-01
      1.18242002e+00 9.83961999e-01 9.13223028e-01 8.66927981e-01
      7.22342014e-01 6.76396012e-01 5.75369000e-01 5.52630007e-01
      5.04583001e-01 4.83117014e-01 4.67657000e-01 4.64794010e-01
      5.22958994e-01 5.83582997e-01 7.34094024e-01 6.43371999e-01</_>
    <_>
      6.22756004e-01 6.60661995e-01 6.58712983e-01 4.77761000e-01
      3.65592003e-01 3.42420995e-01 2.85239011e-01 2.75047004e-01
      2.61076003e-01 4.37458009e-01 3.16666991e-01 4.46033001e-01
      5.82590997e-01 6.15692973e-01 5.37711024e-01 7.44112015e-01
      3.69414985e-01 8.90565991e-01 6.03137016e-01 5.42120993e-01
      5.09674013e-01 2.19890997e-01 1.92300007e-01 2.10488006e-01
      2.35486001e-01 2.60286987e-01 3.11524004e-01 3.37511986e-01
      3.93202007e-01 6.06435001e-01 6.38608992e-01 5.90673029e-01</_>
    <_>
      6.63554013e-01 6.03625000e-01 5.51819026e-01 5.09989977e-01
      5.14640987e-01 6.08178973e-01 5.31333029e-01 4.95213985e-01
      5.03210008e-01 5.53617001e-01 5.91877997e-01 6.69359982e-01
      7.70617008e-01 8.94424021e-01 1.04402995e+00 1.23644996e+00
      1.50111997e+00 7.90700972e-01 5.64387023e-01 4.82814997e-01
      4.39283013e-01 4.60559994e-01 5.46541989e-01 7.03926027e-01
      6.30401015e-01 5.86538017e-01 5.59298992e-01 5.47140002e-01
      5.40926993e-01 5.52762985e-01 6.22128010e-01 6.61047995e-01</_>
    <_>
      3.42426986e-01 2.93718994e-01 2.74518013e-01 2.61633009e-01
      2.43782997e-01 2.45884001e-01 2.70253986e-01 3.11006993e-01
      3.81209999e-01 5.68714023e-01 5.88334978e-01 6.30070984e-01
      6.93108022e-01 8.15149009e-01 1.85003996e-01 4.89547014e-01
      2.44023994e-01 2.27688000e-01 2.11546004e-01 1.50088000e+00
      1.12978005e+00 8.37100983e-01 5.22695005e-01 3.98606002e-01
      2.91884989e-01 2.62174010e-01 2.34596997e-01 2.37994999e-01
      2.55160004e-01 2.91828007e-01 3.36053014e-01 3.71643007e-01</_>
    <_>
      3.33676010e-01 3.68611008e-01 3.32298994e-01 3.07619989e-01
      2.74556994e-01 2.58884996e-01 2.38446996e-01 2.52357990e-01
      2.85890996e-01 3.26007992e-01 4.24394011e-01 6.25223994e-01
      6.05737984e-01 1.06166005e+00 1.18175006e+00 1.53617001e+00
      1.40706003e+00 4.94673997e-01 7.15710998e-01 1.04279006e+00
      1.09483004e+00 9.22034979e-01 9.61512029e-01 5.81125021e-01
      3.87098014e-01 2.85777986e-01 2.68644989e-01 2.28075996e-01
      2.18408003e-01 2.25639001e-01 2.34178007e-01 2.65114009e-01</_>
    <_>
      5.13409972e-01 4.44319010e-01 4.16496009e-01 5.09856999e-01
      6.01931989e-01 5.66830993e-01 5.49628973e-01 5.89909017e-01
      6.53003991e-01 6.87961996e-01 6.46642029e-01 5.44323027e-01
      4.40456003e-01 4.16709006e-01 6.51444972e-01 1.47162998e+00
      1.57457995e+00 1.48801005e+00 1.45239997e+00 1.01118004e+00
      7.41340995e-01 4.97568995e-01 4.61780995e-01 4.18392986e-01
      4.17970002e-01 4.10394013e-01 4.62054998e-01 5.47932029e-01
      6.35699987e-01 7.40598023e-01 8.23183000e-01 7.94135988e-01</_>
    <_>
      5.57677984e-01 7.29077995e-01 7.16561019e-01 6.59322977e-01
      6.45841002e-01 3.07249010e-01 6.84412003e-01 3.91131014e-01
      2.33830005e-01 5.45691013e-01 6.11114979e-01 4.56268996e-01
      4.09702986e-01 4.48973000e-01 4.97319013e-01 4.19869006e-01
      3.11017007e-01 2.78192997e-01 3.36773008e-01 5.71447015e-01
      1.07921004e+00 5.30430973e-01 6.23148978e-01 4.51474011e-01
      4.49252009e-01 5.92850029e-01 1.85697004e-01 2.52775013e-01
      1.64918005e-01 2.59815991e-01 4.57892001e-01 4.48433012e-01</_>
    <_>
      6.67478025e-01 7.20557988e-01 7.54637003e-01 6.12195015e-01
      3.23469013e-01 2.96658009e-01 2.97473013e-01 2.82763004e-01
      3.17101002e-01 3.56272995e-01 3.76780987e-01 6.43688977e-01
      6.63800001e-01 3.10824007e-01 2.96685994e-01 6.56588972e-01
      8.00557971e-01 7.40225971e-01 4.88770992e-01 2.86572993e-01
      2.96552002e-01 2.77803987e-01 2.78833985e-01 3.37633014e-01
      3.98510009e-01 3.34046990e-01 4.30943996e-01 5.41585028e-01
      5.10043025e-01 4.98914003e-01 6.77951992e-01 6.58823013e-01</_>
    <_>
      1.64937997e+00 1.46897995e+00 9.47717011e-01 1.07879996e+00
      1.03041005e+00 7.98608005e-01 6.90239012e-01 5.12322009e-01
      3.33658010e-01 8.82543027e-01 9.32542980e-01 1.06453001e+00
      1.07001996e+00 9.14260983e-01 8.09275985e-01 7.63360977e-01
      7.45260000e-01 7.72561014e-01 8.35843027e-01 9.58822012e-01
      8.97184014e-01 8.18162024e-01 8.82211983e-01 8.80264997e-01
      8.43719006e-01 8.84187996e-01 9.90794003e-01 7.05747008e-01
      6.50995016e-01 5.02411008e-01 6.67993009e-01 1.06365001e+00</_>
    <_>
      1.31334007e-01 4.97372001e-01 4.85368013e-01 5.61832011e-01
      5.99745989e-01 1.32175997e-01 1.08929999e-01 1.09104998e-01
      9.65977013e-02 7.18891025e-02 8.28934982e-02 4.08363998e-01
      4.23152000e-01 4.63366985e-01 6.63461983e-01 8.43232989e-01
      1.32999003e+00 8.77269030e-01 6.18683994e-01 6.35968983e-01
      5.53493023e-01 4.64011997e-01 5.59853971e-01 6.49167001e-01
      6.48292005e-01 6.54712021e-01 5.67866027e-01 1.61829993e-01
      5.36076009e-01 4.96888012e-01 4.24192011e-01 4.42636013e-01</_>
    <_>
      7.41429985e-01 7.19708979e-01 6.98638022e-01 6.50339007e-01
      6.07254982e-01 5.34146011e-01 4.80690002e-01 5.06335020e-01
      5.50119996e-01 5.13741016e-01 8.79472017e-01 8.52041006e-01
      5.09187996e-01 1.00642002e+00 9.39792991e-01 9.25617993e-01
      1.27129996e+00 1.58468997e+00 8.76236022e-01 1.11854994e+00
      8.17344010e-01 6.99959993e-01 6.35315001e-01 5.06783009e-01
      5.06438017e-01 5.89309990e-01 6.62135005e-01 6.54172003e-01
      5.61218977e-01 4.62828994e-01 6.90030992e-01 7.59104013e-01</_>
    <_>
      0. 0. 0. 0. 0. 0. 0. 0. 0. 0. 0. 0. 0. 0. 0. 0. 0. 0. 0. 0. 0. 0.
      0. 0. 0. 0. 0. 0. 0. 0. 0. 0.</_>
    <_>
      8.82839978e-01 9.47830975e-01 1.71538994e-01 4.50577997e-02
      5.05845994e-02 1.04407001e+00 4.64837998e-01 2.39642993e-01
      2.82606006e-01 4.35220987e-01 4.57145005e-01 2.73355007e-01
      4.55060989e-01 1.12256996e-01 2.59463996e-01 4.93196994e-01
      5.80201030e-01 6.40463978e-02 6.13547005e-02 5.25215007e-02
      3.54980007e-02 6.55453980e-01 7.49490023e-01 3.02868009e-01
      2.62214005e-01 5.00607014e-01 5.79007983e-01 4.75077003e-01
      3.47651988e-01 2.59389997e-01 1.97923005e-01 2.04251006e-01</_>
    <_>
      1.32012993e-01 1.48482993e-01 1.61651999e-01 1.44159004e-01
      2.11348996e-01 2.87054002e-01 3.43688995e-01 5.31231999e-01
      7.57147014e-01 2.17657998e-01 2.34509006e-01 3.95015001e-01
      2.26976007e-01 1.33990005e-01 1.46319997e+00 1.68964005e+00
      1.73203003e+00 1.41228005e-01 1.10502005e+00 8.56739998e-01
      2.91940004e-01 2.82752991e-01 2.75236011e-01 2.63406992e-01
      2.18005002e-01 1.81593999e-01 1.56919003e-01 1.41416997e-01
      1.19736001e-01 1.15488999e-01 1.20558999e-01 1.26277000e-01</_>
    <_>
      0. 0. 0. 0. 0. 0. 0. 0. 0. 0. 0. 0. 0. 0. 0. 0. 0. 0. 0. 0. 0. 0.
      0. 0. 0. 0. 0. 0. 0. 0. 0. 0.</_>
    <_>
      0. 0. 0. 0. 0. 0. 0. 0. 0. 0. 0. 0. 0. 0. 0. 0. 0. 0. 0. 0. 0. 0.
      0. 0. 0. 0. 0. 0. 0. 0. 0. 0.</_>
    <_>
      4.81799006e-01 4.75432009e-01 5.19927979e-01 5.66312015e-01
      6.20631993e-01 4.14146990e-01 4.18644011e-01 4.96879995e-01
      3.58624011e-01 7.13225007e-01 6.15529001e-01 8.25613976e-01
      5.13195992e-01 4.43076015e-01 7.65230000e-01 8.46853018e-01
      1.49512994e+00 8.96381021e-01 6.00760996e-01 4.59318995e-01
      3.56426001e-01 3.20611000e-01 3.24360013e-01 3.33635002e-01
      3.53008986e-01 3.83814991e-01 4.90621001e-01 5.94407976e-01
      6.79678977e-01 6.52673006e-01 5.76793015e-01 5.03817022e-01</_>
    <_>
      6.09160006e-01 5.60926974e-01 3.46365005e-01 3.08670998e-01
      2.81158000e-01 2.95491993e-01 3.13573986e-01 4.80008006e-01
      4.65065986e-01 4.72460002e-01 5.51990986e-01 3.48479986e-01
      3.29975009e-01 4.50020999e-01 4.00656998e-01 3.41098994e-01
      5.17643988e-01 4.48258996e-01 3.98719013e-01 3.17362994e-01
      6.34116009e-02 1.40136003e-01 1.42851993e-01 1.66462004e-01
      7.24395990e-01 7.33717024e-01 4.25291985e-01 3.66243988e-01
      6.73608005e-01 6.95122004e-01 6.50363028e-01 2.93462008e-01</_>
    <_>
      5.10393023e-01 8.64637017e-01 8.47177982e-01 7.81719029e-01
      6.80675983e-01 1.59438998e-01 5.39502978e-01 7.30484009e-01
      7.55990028e-01 7.69033015e-01 7.16888011e-01 7.12522984e-01
      7.52599001e-01 6.74932003e-01 5.26094973e-01 4.86909986e-01
      1.01187997e-01 5.81641018e-01 7.20139980e-01 1.23827004e+00
      1.56677997e+00 1.87787998e+00 2.03267002e+00 2.07357001e+00
      1.91504002e+00 1.78065002e+00 1.25741994e+00 1.35447001e+00
      1.30412996e+00 1.04777001e-01 7.76328027e-01 7.41744995e-01</_>
    <_>
      7.46725023e-01 6.91811979e-01 6.06748998e-01 5.80612004e-01
      5.74464023e-01 2.39869997e-01 5.37320971e-01 5.85233986e-01
      6.12855017e-01 7.12339997e-01 7.53636003e-01 7.95912981e-01
      1.01382005e+00 5.93459010e-01 6.25328004e-01 1.80008993e-01
      1.75035998e-01 9.85441029e-01 1.00884998e+00 6.96740985e-01
      4.95079994e-01 4.38564986e-01 4.88431990e-01 4.55148995e-01
      4.66318995e-01 4.77849007e-01 4.53368992e-01 5.09088993e-01
      5.73825002e-01 7.49337971e-01 6.60740972e-01 7.13060975e-01</_>
    <_>
      6.34993970e-01 6.39526010e-01 1.89362004e-01 6.76002979e-01
      5.61653018e-01 5.86844027e-01 5.55886984e-01 5.81085026e-01
      5.79729974e-01 5.77730000e-01 6.91129982e-01 7.78950989e-01
      9.40737009e-01 1.18529999e+00 1.00766003e+00 1.18836999e+00
      9.66603994e-01 1.94286004e-01 1.05710995e+00 9.10100996e-01
      7.65313983e-01 4.95615989e-01 4.45033014e-01 5.88147998e-01
      5.69097996e-01 4.36845005e-01 5.29460013e-01 5.84224999e-01
      5.85767984e-01 6.73097014e-01 6.75036013e-01 6.35024011e-01</_>
    <_>
      6.67171001e-01 4.99352008e-01 6.46739006e-01 6.43314004e-01
      5.87777972e-01 7.51170993e-01 7.23394990e-01 7.33121991e-01
      7.69234002e-01 7.31818974e-01 7.04892993e-01 6.77932978e-01
      6.77897990e-01 6.25150025e-01 5.37971020e-01 4.74433005e-01
      4.74954993e-01 4.90651011e-01 6.12411976e-01 8.52415979e-01
      8.89513016e-01 8.22279990e-01 7.50612974e-01 7.05290020e-01
      6.96687996e-01 6.83542013e-01 6.70053005e-01 6.90838993e-01
      7.56599009e-01 7.92716980e-01 9.41420972e-01 8.86717021e-01</_>
    <_>
      6.51116014e-01 6.70120001e-01 7.32957006e-01 6.10264003e-01
      5.06982028e-01 4.66722012e-01 3.97426009e-01 3.58282000e-01
      3.81604999e-01 3.43306005e-01 2.65350997e-01 3.01928014e-01
      5.49183011e-01 4.57531005e-01 3.58300000e-01 9.39800978e-01
      1.05934000e+00 8.20568025e-01 3.21646005e-01 1.80280000e-01
      1.26500994e-01 3.37552011e-01 3.41197997e-01 3.01512003e-01
      3.29542994e-01 3.65442008e-01 4.23108011e-01 4.27628994e-01
      9.94123966e-02 1.41855001e-01 6.77083015e-01 2.89252996e-01</_>
    <_>
      8.08597028e-01 6.48719013e-01 4.87771988e-01 4.84919995e-01
      4.53682005e-01 4.53972995e-01 4.85415995e-01 3.20840001e-01
      4.13042992e-01 5.69144011e-01 6.73066020e-01 5.00162005e-01
      6.81182981e-01 1.05663002e-01 4.29969989e-02 1.74628004e-01
      2.62203008e-01 6.84572980e-02 5.90193987e-01 7.50360012e-01
      8.38365018e-01 6.46274984e-01 8.48601997e-01 2.03409001e-01
      8.10151026e-02 7.97581002e-02 4.28772986e-01 6.67864025e-01
      6.24809980e-01 3.18962991e-01 7.64524996e-01 7.05892026e-01</_>
    <_>
      5.53764999e-01 6.05561018e-01 6.64704025e-01 5.92489004e-01
      4.26865995e-01 3.65292013e-01 3.30431998e-01 3.53130996e-01
      4.13080007e-01 4.92516994e-01 6.58073008e-01 7.61812985e-01
      7.80270994e-01 1.31511998e+00 6.54717982e-01 7.11252987e-01
      8.56706023e-01 1.23854005e+00 9.39116001e-01 6.34434998e-01
      4.89437014e-01 4.16045994e-01 4.02224004e-01 3.27100009e-01
      3.58153999e-01 3.96748990e-01 4.75441992e-01 5.45387983e-01
      5.63901007e-01 5.60602009e-01 5.48236012e-01 5.47572970e-01</_>
    <_>
      4.74068999e-01 5.19474030e-01 5.54962993e-01 6.13520026e-01
      5.40382981e-01 4.74698991e-01 4.38740999e-01 4.15354997e-01
      4.35784012e-01 4.21997994e-01 4.63658005e-01 5.12085021e-01
      5.51074982e-01 6.89204991e-01 7.69134998e-01 9.88813996e-01
      1.95304000e+00 2.22831011e+00 8.76869977e-01 6.53491974e-01
      5.57255030e-01 4.61012006e-01 4.08030987e-01 4.11238015e-01
      4.22334999e-01 4.36123013e-01 4.85536993e-01 5.74374974e-01
      6.02589011e-01 5.27235985e-01 4.81328011e-01 4.67992008e-01</_>
    <_>
      6.80216980e+00 6.80216980e+00 6.80216980e+00 6.80216980e+00
      6.80216980e+00 6.80216980e+00 6.80216980e+00 6.80216980e+00
      6.80216980e+00 6.80216980e+00 6.80216980e+00 6.80216980e+00
      6.80216980e+00 6.80216980e+00 6.80216980e+00 6.80216980e+00
      6.80216980e+00 6.80216980e+00 6.80216980e+00 6.80216980e+00
      6.80216980e+00 6.80216980e+00 6.80216980e+00 6.80216980e+00
      6.80216980e+00 6.80216980e+00 6.80216980e+00 6.80216980e+00
      6.80216980e+00 6.80216980e+00 6.80216980e+00 6.80216980e+00</_>
    <_>
      5.89900017e-01 5.56616008e-01 4.90328014e-01 3.98840994e-01
      3.47723991e-01 3.06811005e-01 2.71762013e-01 2.47134000e-01
      2.50068992e-01 2.89442003e-01 3.65489006e-01 5.13599992e-01
      8.12991023e-01 7.13418007e-01 5.57078004e-01 4.16772991e-01
      1.35042000e+00 4.65178996e-01 1.43104994e+00 1.17251003e+00
      1.05976999e+00 9.72653985e-01 8.68290007e-01 7.67931998e-01
      7.18514979e-01 6.66459978e-01 5.96706986e-01 5.36650002e-01
      4.66383994e-01 5.19316971e-01 8.26093972e-01 6.29310012e-01</_>
    <_>
      4.30040985e-01 4.00341004e-01 3.86714011e-01 4.14887011e-01
      4.94475991e-01 6.16522014e-01 7.66399980e-01 6.87026024e-01
      6.52660012e-01 6.33751988e-01 6.42629981e-01 6.62392974e-01
      6.88515007e-01 7.48445988e-01 8.20905983e-01 9.30814028e-01
      1.12501001e+00 8.49110007e-01 8.19580019e-01 4.32635009e-01
      3.90329987e-01 4.57460999e-01 5.35085022e-01 5.14756024e-01
      5.25775015e-01 5.48705995e-01 5.86642027e-01 6.43292010e-01
      7.17881024e-01 6.98884010e-01 5.79949021e-01 4.92680997e-01</_>
    <_>
      7.11835980e-01 5.43201983e-01 1.56256998e+00 1.56647003e+00
      1.13374996e+00 9.50887978e-01 8.64084005e-01 8.13587010e-01
      7.40680993e-01 6.28589988e-01 5.59403002e-01 5.26642978e-01
      5.02985001e-01 4.68510985e-01 4.21781987e-01 4.57134008e-01
      7.14434981e-01 5.13806999e-01 4.99004006e-01 5.27527988e-01
      5.26000023e-01 4.93133008e-01 4.55256999e-01 4.10575986e-01
      3.66892993e-01 3.26009989e-01 2.91482002e-01 2.73970008e-01
      3.73071015e-01 5.17942011e-01 7.28604972e-01 7.21396983e-01</_>
    <_>
      6.68586016e-01 6.57768011e-01 6.80073023e-01 7.16256022e-01
      5.38239002e-01 4.23615009e-01 3.40249985e-01 2.93983996e-01
      2.76773989e-01 2.56098986e-01 2.64082998e-01 2.92650014e-01
      3.27001005e-01 4.15199012e-01 5.00992000e-01 7.85254002e-01
      1.16055000e+00 1.12053001e+00 1.11266994e+00 6.06742024e-01
      4.21382993e-01 3.08402002e-01 3.20695013e-01 2.95325011e-01
      2.55932003e-01 2.40400001e-01 2.47976005e-01 2.60275006e-01
      3.17716002e-01 3.50297004e-01 5.04583001e-01 7.02719986e-01</_>
    <_>
      4.89522994e-01 4.46837008e-01 3.57248008e-01 3.00094992e-01
      2.81500012e-01 2.57010013e-01 2.54040003e-01 2.59043992e-01
      2.61896014e-01 3.11051995e-01 4.25233990e-01 4.80679989e-01
      6.42740011e-01 5.76359987e-01 4.92350996e-01 4.40533012e-01
      4.22948003e-01 4.30402994e-01 4.42135006e-01 3.65756989e-01
      3.46971989e-01 3.22919011e-01 2.88987994e-01 2.94779986e-01
      2.94934988e-01 3.49862009e-01 4.22562003e-01 6.09049976e-01
      9.31282997e-01 1.56843996e+00 1.55789995e+00 1.05333996e+00</_>
    <_>
      7.83285999e+00 7.83285999e+00 7.83285999e+00 7.83285999e+00
      7.83285999e+00 7.83285999e+00 7.83285999e+00 7.83285999e+00
      7.83285999e+00 7.83285999e+00 7.83285999e+00 7.83285999e+00
      7.83285999e+00 7.83285999e+00 7.83285999e+00 7.83285999e+00
      7.83285999e+00 7.83285999e+00 7.83285999e+00 7.83285999e+00
      7.83285999e+00 7.83285999e+00 7.83285999e+00 7.83285999e+00
      7.83285999e+00 7.83285999e+00 7.83285999e+00 7.83285999e+00
      7.83285999e+00 7.83285999e+00 7.83285999e+00 7.83285999e+00</_>
    <_>
      0. 0. 0. 0. 0. 0. 0. 0. 0. 0. 0. 0. 0. 0. 0. 0. 0. 0. 0. 0. 0. 0.
      0. 0. 0. 0. 0. 0. 0. 0. 0. 0.</_>
    <_>
      3.01526994e-01 2.35066995e-01 2.13826999e-01 1.99042007e-01
      1.95557997e-01 2.02305004e-01 2.54914999e-01 2.85656005e-01
      2.76537001e-01 2.55659014e-01 2.38058001e-01 2.21004993e-01
      2.13462994e-01 2.26812005e-01 2.37048998e-01 2.74583995e-01
      2.97868997e-01 2.65758991e-01 2.35496998e-01 2.62340009e-01
      2.46453002e-01 1.99256003e-01 2.27039993e-01 2.59032011e-01
      3.55693012e-01 3.99102002e-01 6.63236022e-01 7.17840016e-01
      7.05519021e-01 7.23396003e-01 5.10766029e-01 3.78500998e-01</_>
    <_>
      4.53198999e-01 4.00148004e-01 4.01190013e-01 3.76985997e-01
      3.41158986e-01 3.34977001e-01 3.01654011e-01 2.96323001e-01
      3.25865000e-01 3.70591998e-01 4.44943994e-01 5.29806018e-01
      6.88848019e-01 7.80439019e-01 9.43347991e-01 1.02550006e+00
      3.73829991e-01 3.88222992e-01 3.95372003e-01 4.16819990e-01
      4.46619987e-01 5.60230017e-01 6.80939019e-01 6.59695983e-01
      6.40034020e-01 6.18097007e-01 6.20058000e-01 6.11063004e-01
      6.44538999e-01 6.61617994e-01 3.83172989e-01 3.76576006e-01</_>
    <_>
      5.15944004e-01 4.00958002e-01 3.55230004e-01 3.60536993e-01
      2.80681998e-01 2.58399993e-01 2.37049997e-01 2.20896006e-01
      3.36596996e-01 3.61757994e-01 4.38917994e-01 4.62740988e-01
      6.03722990e-01 7.35356987e-01 8.75760019e-01 9.62938011e-01
      2.75849998e-01 2.70052999e-01 2.92093992e-01 2.97540992e-01
      3.05179000e-01 3.91501993e-01 4.75340992e-01 6.12824023e-01
      6.15886986e-01 5.95030010e-01 6.17232978e-01 6.24333978e-01
      2.35642999e-01 4.67337996e-01 4.95193005e-01 5.42833984e-01</_>
    <_>
      3.90325010e-01 1.33401006e-01 5.98095000e-01 9.11265016e-01
      9.80593979e-01 8.02675009e-01 6.79669023e-01 7.25750029e-01
      6.01107001e-01 4.75410998e-01 4.39624012e-01 3.25385988e-01
      6.09393001e-01 1.12037003e+00 9.99680996e-01 1.26638997e+00
      1.26209998e+00 1.38832998e+00 3.78392011e-01 3.05056989e-01
      2.51193997e-02 4.75569010e-01 6.48805976e-01 9.03518021e-01
      1.13437998e+00 1.64069998e+00 1.43731999e+00 1.17632997e+00
      1.04152000e+00 9.52623010e-01 7.99018025e-01 5.83238006e-01</_>
    <_>
      2.35330999e-01 6.42899990e-01 8.48895013e-01 7.38978028e-01
      5.85033000e-01 6.44493997e-01 5.95945001e-01 2.81154990e-01
      4.49508995e-01 9.26068008e-01 9.99096990e-01 9.05592978e-01
      8.32578003e-01 7.66112030e-01 8.13194990e-01 9.69150007e-01
      1.11178005e+00 1.19848001e+00 3.50802004e-01 2.00369999e-01
      2.11567998e-01 2.54882008e-01 2.68274993e-01 6.34347975e-01
      9.42649007e-01 1.56601000e+00 1.72407997e+00 1.41466999e+00
      1.23348999e+00 1.18315005e+00 9.33133006e-01 7.31245995e-01</_>
    <_>
      1.08647001e+00 1.17703998e+00 4.45726991e-01 2.68716991e-01
      2.08678007e-01 2.21134007e-01 2.93458015e-01 5.08857012e-01
      8.53664994e-01 1.54851997e+00 1.82988000e+00 1.50928998e+00
      1.33071995e+00 1.23883998e+00 1.00165999e+00 2.64459997e-01
      2.41861001e-01 9.72844005e-01 9.31972027e-01 8.18410993e-01
      8.96786988e-01 8.97991002e-01 3.01400006e-01 2.89943993e-01
      4.89668995e-01 9.40374017e-01 8.24262977e-01 8.03045988e-01
      7.90614009e-01 5.15821993e-01 8.07268977e-01 9.11978006e-01</_>
    <_>
      6.34172976e-01 4.50394988e-01 3.76850992e-01 2.74194986e-01
      2.36425996e-01 2.70871997e-01 2.51666993e-01 2.60935009e-01
      3.02637011e-01 3.60060990e-01 4.39841986e-01 7.01268971e-01
      1.01027000e+00 1.34809995e+00 1.42316997e+00 1.45975006e+00
      1.58275998e+00 9.37574029e-01 3.16899002e-01 2.96979010e-01
      2.93051988e-01 2.60073006e-01 2.29502007e-01 2.53210008e-01
      2.80878007e-01 2.99802989e-01 3.84644002e-01 4.50765997e-01
      6.88252985e-01 6.68357015e-01 6.76604986e-01 6.69740975e-01</_>
    <_>
      2.67461985e-01 2.95973003e-01 3.66997004e-01 4.86728013e-01
      4.62415993e-01 4.45396990e-01 4.98593003e-01 5.74154019e-01
      6.05840027e-01 5.07533014e-01 5.29995024e-01 4.21279997e-01
      4.63375986e-01 4.65705007e-01 4.17257011e-01 5.20681024e-01
      9.46632981e-01 7.74788976e-01 4.50264990e-01 9.18314993e-01
      6.55644000e-01 4.24852014e-01 3.75997990e-01 4.14950997e-01
      4.30996001e-01 4.11693990e-01 3.17476988e-01 2.78712004e-01
      2.47300997e-01 2.34868005e-01 2.38670006e-01 2.42963001e-01</_>
    <_>
      6.57073975e-01 6.79296017e-01 6.85851991e-01 6.05238974e-01
      4.67016011e-01 4.30745989e-01 4.99408007e-01 6.09148026e-01
      6.48837984e-01 6.42356992e-01 6.43140018e-01 6.57952011e-01
      6.57109022e-01 6.93328977e-01 6.71500027e-01 6.85027003e-01
      1.12206995e+00 7.43405998e-01 5.65084994e-01 5.11608005e-01
      5.55103004e-01 6.55116022e-01 6.51372015e-01 5.02614975e-01
      4.40237999e-01 3.95772010e-01 3.56606007e-01 3.33667994e-01
      3.68104011e-01 4.37169999e-01 5.24483025e-01 6.12550020e-01</_>
    <_>
      5.62626004e-01 6.72483981e-01 7.17809975e-01 7.27889001e-01
      6.99792981e-01 6.63542986e-01 4.39343989e-01 4.03658003e-01
      4.06132996e-01 4.47452009e-01 5.54892004e-01 5.82027018e-01
      5.93006015e-01 5.88162005e-01 5.68627000e-01 6.07831001e-01
      5.89784980e-01 1.14047003e+00 7.37757981e-01 5.38704991e-01
      4.68737006e-01 4.57626998e-01 5.32253027e-01 5.80626011e-01
      5.78092992e-01 4.62720990e-01 4.22412008e-01 4.00303990e-01
      3.85356009e-01 3.81745011e-01 3.97601992e-01 4.66484010e-01</_>
    <_>
      5.62626004e-01 6.72483981e-01 7.17809975e-01 7.27889001e-01
      6.99792981e-01 6.63542986e-01 4.39343989e-01 4.03658003e-01
      4.06132996e-01 4.47452009e-01 5.54892004e-01 5.82027018e-01
      5.93006015e-01 5.88162005e-01 5.68627000e-01 6.07831001e-01
      5.89784980e-01 1.14047003e+00 7.37757981e-01 5.38704991e-01
      4.68737006e-01 4.57626998e-01 5.32253027e-01 5.80626011e-01
      5.78092992e-01 4.62720990e-01 4.22412008e-01 4.00303990e-01
      3.85356009e-01 3.81745011e-01 3.97601992e-01 4.66484010e-01</_>
    <_>
      5.72655022e-01 6.92310989e-01 7.13117003e-01 7.15749979e-01
      7.06350029e-01 6.08563006e-01 3.81143987e-01 4.45899993e-01
      4.63227004e-01 5.26542008e-01 6.24270022e-01 6.20042026e-01
      5.70181012e-01 5.72230995e-01 5.60002983e-01 6.04647994e-01
      1.42793000e+00 1.17467999e+00 7.42392004e-01 5.65576971e-01
      4.81887996e-01 4.59592015e-01 5.32714009e-01 5.67714989e-01
      5.40849984e-01 4.56930995e-01 4.16954994e-01 3.95298988e-01
      3.85607988e-01 3.84923995e-01 4.07330990e-01 4.92141992e-01</_>
    <_>
      6.45609021e-01 6.78173006e-01 6.82244003e-01 6.93611979e-01
      6.34648025e-01 4.00801003e-01 4.44323003e-01 4.88243014e-01
      5.60499012e-01 5.88811994e-01 6.22868001e-01 5.72613001e-01
      6.34486020e-01 5.77892005e-01 6.28868997e-01 5.16286016e-01
      1.40620995e+00 1.01598001e+00 5.83063006e-01 4.64399993e-01
      4.40434009e-01 5.33860981e-01 5.85575998e-01 5.57639003e-01
      4.85170007e-01 4.33299989e-01 4.08870012e-01 3.74421000e-01
      3.69280010e-01 3.82578999e-01 4.34150010e-01 5.33710003e-01</_>
    <_>
      7.53314018e-01 8.12098026e-01 6.91573977e-01 5.85399985e-01
      5.30629992e-01 5.06833971e-01 6.09597981e-01 6.77901983e-01
      7.43378997e-01 7.20597029e-01 7.18388021e-01 5.85839987e-01
      5.10241985e-01 5.49697995e-01 5.91934979e-01 6.41951025e-01
      1.60995996e+00 1.44368005e+00 1.29708004e+00 1.07669997e+00
      7.88245022e-01 6.55770004e-01 6.15453005e-01 5.44421017e-01
      5.73674023e-01 5.33985972e-01 6.53594971e-01 6.26011014e-01
      5.87000012e-01 6.39977992e-01 6.32384002e-01 6.98194027e-01</_>
    <_>
      0. 0. 0. 0. 0. 0. 0. 0. 0. 0. 0. 0. 0. 0. 0. 0. 0. 0. 0. 0. 0. 0.
      0. 0. 0. 0. 0. 0. 0. 0. 0. 0.</_>
    <_>
      0. 0. 0. 0. 0. 0. 0. 0. 0. 0. 0. 0. 0. 0. 0. 0. 0. 0. 0. 0. 0. 0.
      0. 0. 0. 0. 0. 0. 0. 0. 0. 0.</_>
    <_>
      0. 0. 0. 0. 0. 0. 0. 0. 0. 0. 0. 0. 0. 0. 0. 0. 0. 0. 0. 0. 0. 0.
      0. 0. 0. 0. 0. 0. 0. 0. 0. 0.</_>
    <_>
      7.20718026e-01 6.22904003e-01 2.43718997e-01 5.61771989e-01
      6.57014012e-01 5.72956026e-01 7.74497986e-01 7.55716026e-01
      7.50786006e-01 7.68224001e-01 5.67919016e-01 4.67455000e-01
      4.01066005e-01 4.12416011e-01 4.55359012e-01 5.99008024e-01
      8.55525017e-01 8.21793973e-01 6.80442989e-01 5.29564023e-01
      4.70436007e-01 4.50500995e-01 4.26602006e-01 4.21422988e-01
      2.81432986e-01 1.94116995e-01 2.51919001e-01 5.52911997e-01
      6.96227014e-01 6.65274978e-01 6.35644019e-01 6.58791006e-01</_>
    <_>
      5.40898979e-01 5.58113992e-01 5.31819999e-01 6.66794002e-01
      5.70671976e-01 6.19063020e-01 5.50270975e-01 5.83923995e-01
      6.68190002e-01 6.62236989e-01 7.43079007e-01 7.03728974e-01
      5.87327003e-01 5.33107996e-01 4.86331999e-01 6.16554022e-01
      6.40645027e-01 7.05227971e-01 6.85064971e-01 6.80648029e-01
      6.97755992e-01 7.25332975e-01 5.29302001e-01 4.72162992e-01
      5.10097027e-01 6.76168025e-01 7.78626978e-01 8.81205976e-01
      1.00762999e+00 7.89304018e-01 6.27250016e-01 6.28956020e-01</_>
    <_>
      7.16448009e-01 7.05035985e-01 7.00143993e-01 6.84064984e-01
      6.49456024e-01 4.59904999e-01 3.85345995e-01 3.79768997e-01
      3.25419009e-01 4.41947013e-01 4.91533011e-01 5.03847003e-01
      5.01774013e-01 5.58670998e-01 6.31322980e-01 5.70468009e-01
      1.03736997e+00 1.10127997e+00 3.99857014e-01 3.51072013e-01
      3.76554012e-01 4.02337015e-01 4.57576990e-01 5.02137005e-01
      5.21833003e-01 5.27409971e-01 3.92928004e-01 3.66834015e-01
      3.44660014e-01 3.71526003e-01 4.56517011e-01 4.60981995e-01</_>
    <_>
      6.94975972e-01 7.19502985e-01 7.03287005e-01 7.10256994e-01
      5.93851984e-01 4.02453005e-01 4.06419009e-01 4.38419014e-01
      4.90496993e-01 5.45383990e-01 6.66842997e-01 5.75775027e-01
      5.55774987e-01 5.57919025e-01 5.96787989e-01 5.39395988e-01
      5.99887013e-01 1.05629003e+00 5.52806020e-01 5.18993020e-01
      4.41271007e-01 4.59062010e-01 5.47680974e-01 5.55594981e-01
      4.47970003e-01 4.12510991e-01 4.22172993e-01 3.90915990e-01
      3.75037998e-01 4.26514000e-01 5.44264972e-01 6.01354003e-01</_>
    <_>
      7.95572996e-01 8.20599973e-01 8.67456973e-01 8.87269974e-01
      8.99260998e-01 9.56358016e-01 6.08371019e-01 6.50601029e-01
      7.27307975e-01 7.02575028e-01 6.52465999e-01 6.61930025e-01
      6.62465990e-01 6.25133991e-01 5.68298995e-01 5.09800017e-01
      4.84674007e-01 4.96147990e-01 5.00710011e-01 5.77598989e-01
      6.42116010e-01 7.63194978e-01 1.05739999e+00 1.40819001e+00
      9.40581024e-01 8.05122018e-01 6.94986999e-01 5.89039981e-01
      5.72362006e-01 6.92183018e-01 8.26608002e-01 8.16676974e-01</_>
    <_>
      6.87218010e-01 7.03676999e-01 6.75770998e-01 6.90204978e-01
      7.22235024e-01 6.45982981e-01 5.66076994e-01 5.19465029e-01
      4.93447006e-01 4.84342992e-01 4.89205986e-01 4.98039007e-01
      5.67579985e-01 6.40320003e-01 8.67196023e-01 1.36310995e+00
      1.26551998e+00 9.22186017e-01 8.38451982e-01 7.11479008e-01
      6.44864976e-01 7.56763995e-01 8.15276980e-01 8.12602997e-01
      7.84465015e-01 8.94203007e-01 9.35799003e-01 9.13765013e-01
      7.57193029e-01 5.36056995e-01 4.67368007e-01 5.84962010e-01</_>
    <_>
      5.70680022e-01 6.29007995e-01 5.86036026e-01 5.87200999e-01
      4.29289997e-01 3.87784004e-01 4.67712998e-01 4.79986995e-01
      3.42648000e-01 3.65029991e-01 3.23985994e-01 3.35262001e-01
      3.47016990e-01 2.87743986e-01 3.19368005e-01 6.09733999e-01
      7.01404989e-01 6.92690015e-01 5.41885972e-01 4.24849004e-01
      3.40900987e-01 3.11340988e-01 3.13057005e-01 2.91373998e-01
      2.87072986e-01 2.93547988e-01 2.91016996e-01 3.70193005e-01
      4.59647000e-01 5.35211980e-01 5.12296975e-01 5.18499970e-01</_>
    <_>
      7.29812980e-01 6.82500005e-01 6.34456992e-01 6.62424982e-01
      4.95972991e-01 4.65498000e-01 6.27683997e-01 6.86748981e-01
      7.45850980e-01 6.60553992e-01 8.12116027e-01 8.25331986e-01
      3.30969989e-01 3.60810995e-01 3.79018992e-01 5.89407980e-01
      8.39168012e-01 8.66281986e-01 6.29339993e-01 4.35710013e-01
      3.89670998e-01 3.74505013e-01 3.63231987e-01 3.57479006e-01
      3.55376005e-01 3.71546000e-01 1.28900006e-01 4.23135012e-01
      5.16282976e-01 6.93679988e-01 6.39513016e-01 6.98548973e-01</_>
    <_>
      4.90182012e-01 5.38299024e-01 6.17608011e-01 7.21944988e-01
      5.69016993e-01 4.23355013e-01 4.63517010e-01 5.53267002e-01
      6.51982009e-01 6.33409023e-01 6.22325003e-01 6.31973028e-01
      5.71078002e-01 6.10702991e-01 6.23272002e-01 5.75554013e-01
      1.36579001e+00 1.23414004e+00 6.94570005e-01 6.96707010e-01
      5.32832980e-01 5.45104980e-01 5.53710997e-01 4.97126997e-01
      4.55390990e-01 4.23503011e-01 3.89782995e-01 3.78915995e-01
      3.75499010e-01 3.84539008e-01 4.41902012e-01 4.58716989e-01</_>
    <_>
      4.46898013e-01 4.69145000e-01 5.01151025e-01 5.56684017e-01
      6.73604012e-01 5.59940994e-01 4.00586009e-01 4.06435996e-01
      4.36966985e-01 5.03744006e-01 5.77754021e-01 5.93693018e-01
      5.75088978e-01 6.06875002e-01 5.75868011e-01 1.47231996e+00
      7.57950008e-01 7.43506014e-01 1.28064001e+00 6.19697988e-01
      5.18782973e-01 5.49893975e-01 5.34255028e-01 5.84321976e-01
      5.15070975e-01 4.53088999e-01 4.27442014e-01 4.16891009e-01
      4.10677999e-01 4.15353000e-01 4.29632008e-01 4.50354010e-01</_>
    <_>
      7.37330019e-01 7.20480025e-01 6.41417980e-01 7.16870010e-01
      7.84161985e-01 8.26933026e-01 7.44095027e-01 8.74576986e-01
      9.63319004e-01 9.70308006e-01 8.95152986e-01 9.60600019e-01
      9.88160014e-01 7.23303020e-01 6.49676025e-01 8.08308005e-01
      9.78792012e-01 1.04357004e+00 8.08475971e-01 6.39751017e-01
      5.66805005e-01 5.24719000e-01 5.03986001e-01 4.90433007e-01
      4.81844008e-01 5.22704005e-01 5.59737980e-01 1.87774003e-01
      7.32998013e-01 6.65835023e-01 6.49408996e-01 6.76235020e-01</_>
    <_>
      5.06069005e-01 5.12319028e-01 5.31759024e-01 5.58632016e-01
      6.12155974e-01 7.13279009e-01 5.50365984e-01 3.90275002e-01
      4.08221990e-01 4.35407013e-01 5.25375009e-01 5.90537012e-01
      6.04892015e-01 5.99030972e-01 1.55445004e+00 1.39578998e+00
      1.13189995e+00 6.42736018e-01 1.39503002e+00 1.09423995e+00
      1.00748003e+00 8.73381019e-01 5.46316981e-01 5.93554020e-01
      6.16993010e-01 5.52320004e-01 4.69662994e-01 4.52086985e-01
      4.44669992e-01 4.22206998e-01 4.05259997e-01 4.34201986e-01</_>
    <_>
      4.68037993e-01 4.77917999e-01 5.04266024e-01 5.47227025e-01
      6.14144981e-01 7.31808007e-01 5.49821019e-01 4.12492990e-01
      4.42892998e-01 4.53550011e-01 5.15614986e-01 5.80375016e-01
      6.08945012e-01 5.87984025e-01 5.88753998e-01 1.45817995e+00
      7.94573009e-01 6.70849025e-01 1.40346003e+00 1.25035000e+00
      5.80388010e-01 9.71606016e-01 1.07676005e+00 5.68753004e-01
      5.79635978e-01 5.44736981e-01 5.01743972e-01 4.64347988e-01
      4.55377012e-01 4.32406992e-01 4.23646986e-01 4.55401987e-01</_>
    <_>
