<?xml version="1.0"?>
<opencv_storage>
<opencv_ml_svm>
  <format>3</format>
  <svmType>EPS_SVR</svmType>
  <kernel>
    <type>RBF</type>
    <gamma>6.8489999999999995e-01</gamma></kernel>
  <C>5.0680000000000003e-01</C>
  <p>3.4200000000000001e-02</p>
  <term_criteria><epsilon>3.4200000000000001e-02</epsilon></term_criteria>
  <var_count>52</var_count>
  <sv_total>2333</sv_total>
  <support_vectors>
    <_>
      0. 0. 0. 0. 0. 0. 0. 0. 0. 0. 0. 0. 0. 0. 0. 8.66615963e+00 0. 0.
      0. 0. 0. 0. 0. 0. 0. 0. 0. 0. 0. 0. 0. 0. 0. 0. 0. 0. 0. 0. 0. 0.
      0. 0. 0. 0. 0. 0. 0. 0. 4.58366007e-01 3.70351005e+00
      1.43596995e+00 7.70617008e-01</_>
    <_>
      2.43965000e-01 2.47014999e-01 2.42898002e-01 2.46965006e-01
      2.55034000e-01 2.66539007e-01 2.81228006e-01 3.08185011e-01
      3.55787992e-01 4.34489995e-01 3.66602987e-01 3.40074986e-01
      3.52344990e-01 3.76134008e-01 3.91056001e-01 3.39253008e-01
      3.30716997e-01 3.79323006e-01 4.04572010e-01 4.49665993e-01
      5.61765015e-01 9.80597973e-01 7.38909006e-01 4.08253998e-01
      1.09717000e+00 8.06928992e-01 7.16651022e-01 8.86834979e-01
      8.41998994e-01 7.07315981e-01 7.09470987e-01 5.92172980e-01
      5.16058028e-01 5.03696024e-01 5.12486994e-01 3.85803998e-01
      2.94871002e-01 2.71678001e-01 2.82808989e-01 3.16053987e-01
      3.71288002e-01 3.65783006e-01 3.99874002e-01 3.61707985e-01
      3.08578998e-01 2.79430002e-01 2.61577010e-01 2.45819002e-01
      6.32902026e-01 1.33982003e+00 3.58502001e-01 6.58667028e-01</_>
    <_>
      4.53015000e-01 4.36430007e-01 3.43351007e-01 3.26353014e-01
      3.41585994e-01 3.61169010e-01 3.63855988e-01 3.61564010e-01
      4.06899989e-01 4.27760005e-01 4.30857986e-01 4.44231004e-01
      4.91917998e-01 5.10653973e-01 4.32628989e-01 4.24620986e-01
      4.51968998e-01 4.86057013e-01 4.95112002e-01 5.61926007e-01
      9.88922000e-01 1.41644001e+00 7.31212020e-01 6.65645003e-01
      1.29872000e+00 1.01921999e+00 1.27446997e+00 1.11792004e+00
      1.07839000e+00 9.40860987e-01 8.08098972e-01 8.16743016e-01
      6.02312028e-01 4.58575994e-01 4.14469004e-01 4.11720991e-01
      4.21604991e-01 4.24151003e-01 3.93916994e-01 5.22894025e-01
      6.17509007e-01 7.35448003e-01 7.39742994e-01 7.52295017e-01
      7.69114017e-01 7.59868026e-01 7.32981980e-01 6.32749975e-01
      2.97197998e-01 2.14652991e+00 4.44261014e-01 1.02403998e+00</_>
    <_>
      4.29295003e-01 3.47808987e-01 3.32221001e-01 3.23500007e-01
      3.36887985e-01 3.82827997e-01 4.14303988e-01 3.68061990e-01
      3.95776004e-01 4.37166005e-01 4.29969013e-01 4.51222986e-01
      4.86800998e-01 4.72458988e-01 4.72642988e-01 4.11805004e-01
      4.18635994e-01 4.26452011e-01 4.58027005e-01 6.46715999e-01
      1.41541004e+00 1.16329002e+00 7.42882013e-01 1.33500004e+00
      1.17917001e+00 7.56492019e-01 8.33658993e-01 1.08678997e+00
      9.39251006e-01 9.57415998e-01 8.47913027e-01 7.76134014e-01
      8.22148025e-01 5.01909971e-01 3.91525000e-01 4.02868003e-01
      4.16875005e-01 4.07086998e-01 4.22320992e-01 5.80186009e-01
      6.81662023e-01 7.33731985e-01 7.47040987e-01 7.63514996e-01
      7.66632974e-01 7.46313989e-01 7.30970979e-01 5.49344003e-01
      2.49032006e-01 2.16897988e+00 4.56441998e-01 9.88417983e-01</_>
    <_>
      6.11639977e-01 6.06257975e-01 5.88355005e-01 5.88711977e-01
      5.64859986e-01 5.46087980e-01 5.21960020e-01 5.29825985e-01
      5.11084974e-01 5.02367973e-01 5.12930989e-01 5.53431988e-01
      6.23652995e-01 6.59322023e-01 1.92921996e-01 2.18100995e-01
      2.19978005e-01 2.54251987e-01 3.35040003e-01 4.66798991e-01
      5.99308014e-01 6.78089023e-01 8.00087988e-01 9.71333027e-01
      1.30220997e+00 1.39573002e+00 1.11562002e+00 1.03375006e+00
      1.02785003e+00 1.02056003e+00 8.47235978e-01 6.76262021e-01
      6.58290982e-01 6.49093986e-01 4.77131009e-01 3.83215010e-01
      6.74081981e-01 7.47273982e-01 7.33717024e-01 5.50617993e-01
      4.66417015e-01 4.28167999e-01 4.63452011e-01 5.11500001e-01
      6.28045022e-01 6.98885977e-01 7.26566017e-01 6.98164999e-01
      2.55041987e-01 2.06964993e+00 4.74541008e-01 1.01906002e+00</_>
    <_>
      4.65043008e-01 4.34834003e-01 4.42119002e-01 4.32413995e-01
      4.41603988e-01 4.57841992e-01 4.68558997e-01 4.96416003e-01
      5.17145991e-01 4.80722010e-01 4.67831999e-01 3.97758007e-01
      3.53446007e-01 3.80903989e-01 4.24116999e-01 4.86918002e-01
      5.90795994e-01 9.07532990e-01 1.34587002e+00 9.46062982e-01
      5.53206027e-01 7.12809026e-01 1.47661996e+00 1.08521998e+00
      6.80881023e-01 1.43244004e+00 1.31621003e+00 9.62091029e-01
      7.50545025e-01 1.22850001e+00 1.21823001e+00 9.30688977e-01
      7.51841009e-01 6.44084990e-01 4.72360998e-01 3.95687014e-01
      3.84750009e-01 3.88590991e-01 5.43636024e-01 6.98740005e-01
      7.34808981e-01 7.37899005e-01 7.32617974e-01 7.44944990e-01
      7.39858985e-01 7.27420986e-01 6.21567011e-01 5.29736996e-01
      2.66047001e-01 2.21473002e+00 4.96928006e-01 1.12261999e+00</_>
    <_>
      5.45050979e-01 4.89295006e-01 4.94911999e-01 4.90720004e-01
      4.81187999e-01 4.91629004e-01 4.93339002e-01 5.17311990e-01
      5.23840010e-01 4.74597991e-01 4.40896004e-01 3.84039998e-01
      3.63970011e-01 3.87210011e-01 4.52008009e-01 5.37083030e-01
      6.18439019e-01 1.02521002e+00 1.34603000e+00 5.61453998e-01
      5.48272014e-01 7.24505007e-01 1.40368998e+00 9.86607015e-01
      6.67270005e-01 1.32658005e+00 1.34993005e+00 9.41631019e-01
      8.08492005e-01 8.28508973e-01 8.60859990e-01 7.51904011e-01
      6.88183010e-01 6.71411991e-01 6.22322023e-01 4.18853998e-01
      3.54707003e-01 3.59816998e-01 3.90910000e-01 6.18003011e-01
      7.37451971e-01 7.40225017e-01 7.39538014e-01 7.53091991e-01
      7.60493994e-01 7.43954003e-01 7.34831989e-01 6.44222021e-01
      3.17546010e-01 2.14884996e+00 4.39705998e-01 1.10878003e+00</_>
    <_>
      7.34713972e-01 7.32780993e-01 6.19876027e-01 5.18990993e-01
      4.44229007e-01 4.04924989e-01 3.61514002e-01 3.64385992e-01
      4.00884986e-01 4.19636995e-01 4.06518996e-01 4.13168997e-01
      4.59042996e-01 4.88386989e-01 5.52641988e-01 5.90561986e-01
      6.21590018e-01 5.98873973e-01 4.92646009e-01 4.55305010e-01
      4.84068990e-01 5.55203021e-01 7.28599012e-01 1.04025996e+00
      1.50592005e+00 7.52546012e-01 9.63137984e-01 6.74546003e-01
      7.02386022e-01 6.61687016e-01 6.29136980e-01 6.63415015e-01
      6.56684995e-01 6.66864991e-01 7.00542986e-01 6.66000009e-01
      5.70423007e-01 4.97125000e-01 4.69668001e-01 4.50069010e-01
      3.87511998e-01 3.79637003e-01 4.88429993e-01 5.78637004e-01
      7.29752004e-01 7.22222984e-01 7.27598011e-01 7.39371002e-01
      3.69138002e-01 2.24088001e+00 4.05508012e-01 9.18363988e-01</_>
    <_>
      6.34011984e-01 5.52034020e-01 4.52221006e-01 4.07007009e-01
      3.75631988e-01 3.79615992e-01 4.14644003e-01 3.93424004e-01
      3.66223991e-01 3.78917009e-01 4.68109995e-01 5.76484978e-01
      5.43757975e-01 5.05285978e-01 5.30200005e-01 5.45067012e-01
      6.14606023e-01 7.17850983e-01 6.98117971e-01 7.31966019e-01
      5.11973977e-01 6.06999993e-01 7.12320030e-01 9.95531023e-01
      1.44693995e+00 6.36242986e-01 6.32763982e-01 6.78626001e-01
      6.59435987e-01 6.34212971e-01 6.63573027e-01 6.59756005e-01
      6.51872993e-01 6.77760005e-01 6.48717999e-01 5.70194006e-01
      4.75394011e-01 4.59300995e-01 4.02862012e-01 3.98285002e-01
      4.51065987e-01 5.77109993e-01 6.94787025e-01 7.24528015e-01
      7.21122026e-01 7.23173976e-01 7.20990002e-01 7.27508008e-01
      3.57244015e-01 2.19711995e+00 3.78962994e-01 8.24213028e-01</_>
    <_>
      7.14190006e-01 7.16813982e-01 7.14299023e-01 7.07185984e-01
      5.62958002e-01 5.02389014e-01 4.40647990e-01 3.94771010e-01
      3.55239987e-01 3.55356008e-01 3.89409989e-01 4.30065989e-01
      4.68217999e-01 5.31005979e-01 5.48196971e-01 5.67387998e-01
      6.10728979e-01 6.71235979e-01 8.33146989e-01 1.17334998e+00
      1.13522995e+00 5.87889016e-01 5.56559026e-01 5.72503984e-01
      5.97005010e-01 6.73011005e-01 8.18463981e-01 9.38989997e-01
      1.21394002e+00 1.55016005e+00 7.46186018e-01 7.67193973e-01
      7.28815019e-01 6.87750995e-01 7.22992003e-01 6.85133994e-01
      7.25337982e-01 7.56762981e-01 6.78093016e-01 6.14566028e-01
      5.05648017e-01 4.74034011e-01 3.58870000e-01 4.07104999e-01
      4.79548991e-01 5.86516023e-01 7.21311986e-01 7.14631021e-01
      3.60967994e-01 1.88013005e+00 5.11757016e-01 9.51506019e-01</_>
    <_>
      4.60265994e-01 4.18053001e-01 3.75126004e-01 3.50778013e-01
      3.56741995e-01 3.98748010e-01 4.36917007e-01 5.12341022e-01
      5.36203027e-01 5.44373989e-01 5.68473995e-01 6.37504995e-01
      7.12974012e-01 9.19945002e-01 1.22492003e+00 1.13734996e+00
      6.32800996e-01 5.67528009e-01 6.14809990e-01 6.18676007e-01
      6.68200016e-01 8.34469020e-01 9.34327006e-01 1.32944000e+00
      1.57501996e+00 8.21018994e-01 8.68381977e-01 1.14850998e+00
      1.38199997e+00 1.69079006e+00 7.38551974e-01 7.39336014e-01
      7.17845976e-01 6.61028028e-01 5.48916996e-01 5.08566976e-01
      4.82293993e-01 3.81406009e-01 4.35860008e-01 5.11314988e-01
      6.88373029e-01 6.94086015e-01 6.82321012e-01 6.75189018e-01
      6.71738029e-01 6.67304993e-01 6.65706992e-01 5.27710021e-01
      3.74141008e-01 2.23176003e+00 5.18251002e-01 1.04202998e+00</_>
    <_>
      4.71383989e-01 4.22455013e-01 3.74639988e-01 3.64650011e-01
      3.58729005e-01 3.92120004e-01 4.32801008e-01 4.88485008e-01
      5.26205003e-01 5.35318971e-01 5.55799007e-01 6.20334029e-01
      6.61680996e-01 8.04050028e-01 9.85225022e-01 1.24246001e+00
      5.37355006e-01 5.31503022e-01 5.63503981e-01 5.89287996e-01
      6.26441002e-01 7.61596024e-01 8.88993025e-01 1.38348997e+00
      1.56194997e+00 7.62938976e-01 9.10031021e-01 1.59203005e+00
      8.42904985e-01 9.57719028e-01 1.19945002e+00 7.66842008e-01
      7.15260983e-01 7.47335017e-01 6.67913973e-01 5.07896006e-01
      3.71555001e-01 3.66203010e-01 4.42144006e-01 5.10372996e-01
      6.30325973e-01 7.26050019e-01 7.11169004e-01 7.03014016e-01
      6.94266021e-01 6.87057018e-01 6.90486014e-01 5.53730011e-01
      4.15634006e-01 2.23714995e+00 4.71527010e-01 1.10689998e+00</_>
    <_>
      4.04644996e-01 3.98018003e-01 4.18662995e-01 4.30119008e-01
      4.77369010e-01 4.77016985e-01 4.89647001e-01 5.35209000e-01
      5.41828990e-01 5.97643018e-01 5.71586013e-01 5.64949989e-01
      5.03759027e-01 4.54201013e-01 4.72458988e-01 4.80684012e-01
      5.18428028e-01 6.69444978e-01 1.05618000e+00 1.38963997e+00
      1.07322001e+00 6.46133006e-01 1.07116997e+00 1.50522995e+00
      7.48416007e-01 1.57410002e+00 1.04833996e+00 7.03076005e-01
      1.28278995e+00 9.52158988e-01 7.75433004e-01 6.92281008e-01
      5.50495028e-01 4.06435996e-01 3.71298999e-01 3.55275989e-01
      4.16040003e-01 5.38111985e-01 6.61486983e-01 7.26842999e-01
      7.21656024e-01 7.27195978e-01 7.31285989e-01 7.34098017e-01
      7.18540013e-01 6.01240993e-01 5.16369998e-01 4.44878012e-01
      4.36711997e-01 2.22662997e+00 5.12383997e-01 1.10551000e+00</_>
    <_>
      6.15387022e-01 5.23109972e-01 4.71408010e-01 4.64911014e-01
      4.63441998e-01 4.31306988e-01 4.37932998e-01 4.73414004e-01
      4.92651999e-01 5.18930972e-01 5.10501981e-01 5.00240028e-01
      4.70209986e-01 3.65878999e-01 3.96389008e-01 4.20682013e-01
      4.78206992e-01 7.05442011e-01 1.17881000e+00 9.09096003e-01
      5.71980000e-01 5.31602025e-01 1.25163996e+00 1.43786001e+00
      7.02235997e-01 1.43771005e+00 1.11531997e+00 7.35687017e-01
      6.70152009e-01 1.15418005e+00 1.19003999e+00 8.38958025e-01
      6.85158014e-01 6.23812020e-01 5.12547016e-01 4.13621008e-01
      4.28566992e-01 3.94322991e-01 4.01371986e-01 4.25927013e-01
      5.13011992e-01 6.96524978e-01 7.34659016e-01 7.26965010e-01
      7.27940023e-01 7.27082014e-01 7.33833015e-01 7.40504026e-01
      3.77719998e-01 2.19870996e+00 4.75434989e-01 9.62832987e-01</_>
    <_>
      6.57020986e-01 6.54775023e-01 6.45675004e-01 5.83212018e-01
      4.87673998e-01 4.17441994e-01 4.08012986e-01 4.07499999e-01
      3.99237007e-01 4.14970011e-01 3.90184999e-01 4.58912998e-01
      4.31995988e-01 4.31212991e-01 4.91176009e-01 5.10851026e-01
      4.93232995e-01 5.00822008e-01 4.17183995e-01 3.95595998e-01
      4.28135991e-01 5.60974002e-01 8.80910993e-01 1.43699002e+00
      8.63385022e-01 1.28590000e+00 1.23877001e+00 9.97942984e-01
      1.06169999e+00 9.82631028e-01 9.11450982e-01 9.26607013e-01
      7.93558002e-01 6.76370025e-01 6.76762998e-01 5.61959982e-01
      5.19068003e-01 5.05042017e-01 4.27823991e-01 4.12934989e-01
      4.15473014e-01 4.29084003e-01 4.56221014e-01 5.78539014e-01
      6.83288991e-01 7.18200982e-01 6.85913026e-01 6.66227996e-01
      3.31582993e-01 2.16340995e+00 5.96476018e-01 6.83506012e-01</_>
    <_>
      5.84556997e-01 5.77206016e-01 5.73135972e-01 4.63654995e-01
      4.23314989e-01 4.10136014e-01 3.85376990e-01 3.96939993e-01
      3.81880999e-01 4.10003990e-01 4.22342986e-01 4.00312990e-01
      4.32936996e-01 4.60505009e-01 4.84044999e-01 5.60117006e-01
      5.67569971e-01 5.85228026e-01 5.56894004e-01 3.91537994e-01
      5.32839000e-01 6.07073009e-01 1.41348004e+00 1.05341005e+00
      1.27564001e+00 1.08524001e+00 9.97708023e-01 1.00768006e+00
      9.58189011e-01 8.72182012e-01 7.81629980e-01 7.01159000e-01
      6.50695026e-01 6.06408000e-01 5.34596980e-01 5.00815988e-01
      4.68991011e-01 4.64506000e-01 4.38834995e-01 4.32199001e-01
      4.39776003e-01 4.59782004e-01 5.10883987e-01 6.66520000e-01
      6.93877995e-01 6.45606995e-01 6.15764022e-01 5.98944008e-01
      3.36836994e-01 2.10360003e+00 5.49670994e-01 6.87941015e-01</_>
    <_>
      6.38845980e-01 4.99280989e-01 4.12196994e-01 3.76854002e-01
      3.66789013e-01 3.71255010e-01 3.86574000e-01 3.76605004e-01
      3.81781012e-01 4.10560995e-01 4.08035994e-01 4.28595006e-01
      4.79606986e-01 5.25840998e-01 5.17242014e-01 5.04248023e-01
      4.94603992e-01 4.89491999e-01 4.75465000e-01 4.97361988e-01
      6.11576974e-01 1.40173995e+00 1.09801996e+00 6.73446000e-01
      1.48179996e+00 1.09435999e+00 1.32962000e+00 1.04341996e+00
      8.83610010e-01 8.52748990e-01 7.18198001e-01 5.61776996e-01
      5.12639999e-01 4.49535012e-01 4.31650996e-01 4.37159985e-01
      4.50421005e-01 4.49461013e-01 4.36558992e-01 4.27810997e-01
      4.86330003e-01 6.09992981e-01 7.09863007e-01 6.81870997e-01
      6.58479989e-01 6.49595022e-01 6.43917024e-01 6.41183019e-01
      3.11278999e-01 2.13872004e+00 5.86561978e-01 8.37589979e-01</_>
    <_>
      4.93959010e-01 5.03306985e-01 4.98600006e-01 5.03319979e-01
      5.31506002e-01 5.84056973e-01 5.43012977e-01 5.41902006e-01
      5.40485978e-01 5.43841004e-01 5.78236997e-01 5.78942001e-01
      6.09776974e-01 5.75354993e-01 5.52784026e-01 7.81480014e-01
      7.00214982e-01 6.97242975e-01 6.62262022e-01 6.43895984e-01
      6.45393014e-01 6.47028029e-01 6.76706016e-01 7.08784997e-01
      6.83360994e-01 6.32475972e-01 5.84743023e-01 5.12564003e-01
      4.95822012e-01 4.83009011e-01 1.29446006e+00 1.37917995e+00
      1.47869003e+00 1.64646995e+00 1.75957000e+00 1.66787004e+00
      1.65477002e+00 1.53287995e+00 1.53046000e+00 1.57957995e+00
      1.30674005e+00 1.01406002e+00 8.26867998e-01 7.07419991e-01
      6.40923023e-01 5.88446021e-01 5.43604016e-01 5.21369994e-01
      5.08361995e-01 2.44851995e+00 1.15077996e+00 1.58387005e-01</_>
    <_>
      5.11925995e-01 4.99339014e-01 5.03888011e-01 5.18027008e-01
      5.41958988e-01 5.65244973e-01 6.01163983e-01 5.97938001e-01
      5.81695974e-01 6.66944981e-01 6.56551003e-01 6.66211009e-01
      6.99714005e-01 6.55699015e-01 7.04201996e-01 7.22362995e-01
      7.01731026e-01 6.66154981e-01 6.41867995e-01 6.43169999e-01
      6.48371994e-01 6.62998974e-01 6.98072016e-01 7.06068993e-01
      5.95861018e-01 5.76712012e-01 5.59782028e-01 5.12875021e-01
      5.00697017e-01 1.32218003e+00 1.41204000e+00 1.50806999e+00
      1.61785996e+00 1.81167996e+00 1.71591997e+00 1.62200999e+00
      1.59157002e+00 1.48372996e+00 1.49600995e+00 1.53314996e+00
      1.24465001e+00 9.81598973e-01 8.03524017e-01 7.05923975e-01
      6.21079981e-01 5.78041971e-01 5.35655975e-01 5.18689990e-01
      5.25052011e-01 2.51787996e+00 1.14356005e+00 1.93671003e-01</_>
    <_>
      0. 0. 0. 0. 0. 0. 0. 0. 0. 0. 0. 0. 0. 0. 0. 0. 0. 0. 0. 0. 0.
      5.31024981e+00 5.02257013e+00 4.97181988e+00 0. 0. 0. 0. 0. 0. 0.
      0. 0. 0. 0. 0. 0. 0. 0. 0. 0. 0. 0. 0. 0. 0. 0. 0. 3.87777001e-01
      1.67768002e+00 6.20863020e-01 9.65708017e-01</_>
    <_>
      5.41783988e-01 4.38892990e-01 3.82842988e-01 3.60258996e-01
      3.54476988e-01 3.70943010e-01 3.88152987e-01 3.85771990e-01
      4.21714008e-01 4.39287990e-01 4.53368008e-01 4.86036986e-01
      5.30885994e-01 5.49691021e-01 5.46356022e-01 5.56872010e-01
      5.27948976e-01 5.00509024e-01 5.63673019e-01 7.16295004e-01
      1.37132001e+00 1.32642996e+00 7.09334016e-01 1.59735000e+00
      9.22460020e-01 1.50079000e+00 1.07755995e+00 8.57563972e-01
      1.35382998e+00 9.58148003e-01 6.79982007e-01 5.03893971e-01
      4.90750015e-01 4.71210003e-01 4.47921008e-01 4.23716992e-01
      4.09646988e-01 3.98645014e-01 4.20720994e-01 4.66542006e-01
      5.87378979e-01 7.05458999e-01 7.25380003e-01 7.16835976e-01
      7.15847015e-01 7.23874986e-01 7.27778971e-01 7.24322021e-01
      2.01289997e-01 2.32897997e+00 7.10768998e-01 8.39770973e-01</_>
    <_>
      5.32490015e-01 4.44220006e-01 4.06197995e-01 3.98532003e-01
      3.96910012e-01 3.98921013e-01 4.16976988e-01 4.32094008e-01
      4.36102986e-01 4.52010989e-01 4.85101998e-01 5.16241014e-01
      5.14235973e-01 5.05442023e-01 5.05737007e-01 4.47530001e-01
      4.18821990e-01 4.75768000e-01 5.83180010e-01 9.41751003e-01
      1.37921000e+00 8.59906971e-01 6.28390014e-01 1.51286995e+00
      9.47099984e-01 1.45415998e+00 1.08004999e+00 7.57423997e-01
      9.77563977e-01 1.22571003e+00 9.17464018e-01 6.96690977e-01
      5.02985001e-01 4.66764987e-01 4.57071990e-01 4.42440003e-01
      4.23355997e-01 4.26438004e-01 4.33600008e-01 4.91313010e-01
      6.29016995e-01 7.16148019e-01 6.99544013e-01 6.98024988e-01
      7.02497005e-01 7.17794001e-01 7.20979989e-01 6.80576980e-01
      1.86076999e-01 2.25010991e+00 6.59575999e-01 8.25787008e-01</_>
    <_>
      1.10426998e+00 1.32852006e+00 1.36206996e+00 1.46782005e+00
      1.52695000e+00 1.30515003e+00 1.02409005e+00 7.98253000e-01
      7.02822983e-01 6.03403986e-01 5.60817003e-01 5.34718990e-01
      4.79777008e-01 4.72131014e-01 4.42721009e-01 4.49009001e-01
      4.46218997e-01 4.69413012e-01 5.19263029e-01 5.23036003e-01
      4.58346009e-01 4.88609999e-01 5.77575028e-01 6.07025981e-01
      6.23299003e-01 6.16734982e-01 6.03523016e-01 6.01763010e-01
      6.17323995e-01 6.51760995e-01 6.93801999e-01 7.31302977e-01
      6.23199999e-01 5.70747972e-01 4.78224009e-01 4.77335006e-01
      5.20377994e-01 5.10708988e-01 4.48612988e-01 5.11919975e-01
      4.99027014e-01 4.83020991e-01 6.61882997e-01 6.64438009e-01
      7.07385004e-01 1.02186000e+00 9.64998007e-01 9.57846999e-01
      2.99320996e-01 2.23528004e+00 8.20352972e-01 4.96594012e-01</_>
    <_>
      4.09837008e-01 4.05503005e-01 4.16346014e-01 4.38944995e-01
      4.52463001e-01 4.88243014e-01 5.44821978e-01 6.26904011e-01
      7.22747982e-01 6.90644026e-01 6.50997996e-01 6.14144981e-01
      5.89348018e-01 5.87031007e-01 5.84685028e-01 6.07430995e-01
      6.35752976e-01 6.28362000e-01 4.50785995e-01 4.43605006e-01
      5.24272978e-01 7.72251010e-01 6.30729020e-01 5.62223971e-01
      4.85013008e-01 4.64738011e-01 1.25217998e+00 1.25392997e+00
      1.29173994e+00 1.33150005e+00 1.41140997e+00 1.44734001e+00
      1.32517004e+00 1.19465005e+00 1.14011002e+00 9.85351980e-01
      9.62166011e-01 9.50169981e-01 9.77491975e-01 1.01759005e+00
      9.74933028e-01 7.73581028e-01 6.42179012e-01 5.55471003e-01
      4.93128002e-01 4.64244992e-01 4.36181992e-01 4.22562003e-01
      3.90495986e-01 1.80207002e+00 8.61377001e-01 2.14037001e-01</_>
    <_>
      5.58485985e-01 4.48583990e-01 3.82750005e-01 3.70047003e-01
      3.69657993e-01 3.76246989e-01 3.89189988e-01 3.88974994e-01
      4.07929003e-01 4.28330988e-01 4.56001014e-01 4.85399991e-01
      5.30826986e-01 5.29787004e-01 5.26277006e-01 5.15012026e-01
      4.96077001e-01 4.84454989e-01 5.68154991e-01 6.98202014e-01
      1.29068005e+00 1.32763004e+00 7.07677007e-01 1.59560001e+00
      9.59168017e-01 1.53896999e+00 1.07830000e+00 7.56888986e-01
      1.29278004e+00 1.09947002e+00 7.64440000e-01 5.86876988e-01
      4.70494986e-01 4.60373014e-01 4.40717012e-01 4.15212005e-01
      3.94941002e-01 3.93599004e-01 4.14620996e-01 4.68272001e-01
      5.81184030e-01 6.93717003e-01 7.16126025e-01 7.12226987e-01
      7.17730999e-01 7.24991977e-01 7.31321990e-01 7.23379016e-01
      1.92668006e-01 2.33824992e+00 6.86748981e-01 8.57237995e-01</_>
    <_>
      4.43657994e-01 4.12618011e-01 3.99603009e-01 4.04388011e-01
      3.96459997e-01 3.93233001e-01 4.08924997e-01 4.10674006e-01
      4.34350997e-01 4.58900988e-01 4.88047987e-01 5.16463995e-01
      4.77441013e-01 4.35559988e-01 4.11734015e-01 3.88240993e-01
      3.90091985e-01 4.50134009e-01 5.28446019e-01 8.06333005e-01
      1.34733999e+00 9.00990009e-01 7.36558974e-01 1.52779996e+00
      9.39320982e-01 1.44231999e+00 1.10291004e+00 8.11187029e-01
      1.37354004e+00 1.00391996e+00 8.79324973e-01 6.49694979e-01
      5.30400991e-01 4.84102011e-01 4.62810010e-01 4.45717990e-01
      4.45425987e-01 4.46209013e-01 4.63001013e-01 5.45682013e-01
      6.99441016e-01 7.14793980e-01 7.01170027e-01 7.04891026e-01
      7.12832987e-01 7.25739002e-01 6.75863981e-01 5.53587019e-01
      2.32972994e-01 2.23358011e+00 5.72974980e-01 8.80267978e-01</_>
    <_>
      6.44595027e-01 6.42260015e-01 6.51932001e-01 6.18745029e-01
      4.88115013e-01 4.16166008e-01 3.71205986e-01 3.62453997e-01
      3.66326004e-01 3.79727006e-01 3.88511986e-01 3.89261007e-01
      4.08713013e-01 4.03842002e-01 4.19510990e-01 4.45490003e-01
      4.65997010e-01 5.60306013e-01 5.69393992e-01 5.61125994e-01
      5.52088976e-01 5.26777983e-01 6.00277007e-01 6.21131003e-01
      1.22802997e+00 1.03148997e+00 9.40355003e-01 6.13197029e-01
      5.51141024e-01 6.06146991e-01 6.38595998e-01 5.84317982e-01
      5.54867983e-01 6.04049981e-01 6.37404978e-01 6.64381027e-01
      5.92543006e-01 5.51697016e-01 5.08388996e-01 4.85736012e-01
      4.22318012e-01 4.41668004e-01 4.55642015e-01 4.71594989e-01
      5.41336000e-01 6.52266026e-01 6.97712004e-01 6.59555972e-01
      3.47460985e-01 1.87544000e+00 3.87475014e-01 5.67837000e-01</_>
    <_>
      4.80580986e-01 4.57783014e-01 4.53622013e-01 4.54825997e-01
      4.24744993e-01 3.85246009e-01 3.97493988e-01 3.72640014e-01
      3.90666991e-01 3.96075010e-01 4.11475986e-01 4.05912995e-01
      4.32778001e-01 4.51992989e-01 4.63847011e-01 4.36888993e-01
      4.30714995e-01 4.66733992e-01 5.36374986e-01 6.25697017e-01
      7.45589972e-01 8.12308013e-01 8.49635005e-01 8.40502977e-01
      1.27928996e+00 6.75105989e-01 4.84158993e-01 4.71383005e-01
      5.30574024e-01 5.38841009e-01 5.16972005e-01 5.77982008e-01
      5.66048980e-01 5.57821989e-01 6.25275016e-01 5.63880026e-01
      5.08862972e-01 4.60667014e-01 3.96757990e-01 4.12611991e-01
      4.24360991e-01 4.38986003e-01 4.36365992e-01 5.66407979e-01
      7.48955011e-01 6.21258974e-01 5.51594019e-01 5.13234973e-01
      4.87403989e-01 1.90249002e+00 3.89903992e-01 6.55157030e-01</_>
    <_>
      7.14441001e-01 6.58299983e-01 5.42950988e-01 4.48475003e-01
      4.08885986e-01 3.90987992e-01 3.72123003e-01 3.81143987e-01
      3.83646011e-01 3.76004994e-01 3.83024991e-01 4.13949996e-01
      4.30456996e-01 4.77095991e-01 5.23104012e-01 4.99962986e-01
      4.82966006e-01 5.13315976e-01 4.25026000e-01 4.94383007e-01
      4.20605004e-01 4.75425988e-01 5.65909982e-01 8.37831974e-01
      1.36896002e+00 5.73958993e-01 5.36053002e-01 5.72807014e-01
      5.73562026e-01 5.42841971e-01 5.50450027e-01 5.74828029e-01
      5.72511971e-01 5.74854016e-01 5.93533993e-01 5.44880986e-01
      5.03063977e-01 4.71096009e-01 4.46525991e-01 4.24017996e-01
      4.12313998e-01 4.33366001e-01 4.54773009e-01 6.24626994e-01
      7.23316014e-01 7.00087011e-01 6.91091001e-01 6.99752986e-01
      3.29896986e-01 2.09348989e+00 4.58723009e-01 6.50584996e-01</_>
    <_>
      7.22379029e-01 6.22955024e-01 5.26665986e-01 4.63153005e-01
      4.00168985e-01 3.70326996e-01 3.59046012e-01 3.53460997e-01
      3.60280991e-01 3.58770996e-01 3.68690014e-01 3.94668013e-01
      4.13776010e-01 4.51754004e-01 5.30789018e-01 5.63961983e-01
      5.83175004e-01 5.39547980e-01 4.88972992e-01 4.12270010e-01
      4.35487002e-01 5.08921981e-01 6.01984024e-01 1.00107002e+00
      1.37915003e+00 6.11939013e-01 5.36620021e-01 5.69190025e-01
      6.05717003e-01 5.69653988e-01 5.65455973e-01 6.16677999e-01
      6.09790981e-01 6.30982995e-01 6.35451019e-01 5.67616999e-01
      5.21049976e-01 4.86806989e-01 4.52104986e-01 3.87421995e-01
      3.77070010e-01 3.85538995e-01 4.97114986e-01 6.36363029e-01
      7.21751988e-01 7.13249981e-01 7.15942025e-01 7.21269011e-01
      2.00255007e-01 2.11730003e+00 4.60332006e-01 6.84701025e-01</_>
    <_>
      7.10116029e-01 6.94805980e-01 5.85938990e-01 5.13364017e-01
      4.57471997e-01 4.01116997e-01 3.68921012e-01 3.66706014e-01
      3.66623998e-01 3.70139003e-01 3.81435007e-01 3.92284006e-01
      4.04603004e-01 4.79075015e-01 5.73785007e-01 5.63998997e-01
      5.23966014e-01 4.42025989e-01 4.26582992e-01 4.28653985e-01
      4.65835005e-01 5.31608999e-01 6.65739000e-01 1.00972998e+00
      1.46180999e+00 5.99622011e-01 5.34664989e-01 5.65149009e-01
      6.07573986e-01 5.69401979e-01 5.46729028e-01 6.03344977e-01
      5.97600996e-01 6.10777020e-01 6.28261983e-01 5.88183999e-01
      5.34268022e-01 4.64013010e-01 4.35328007e-01 4.03189987e-01
      4.06535000e-01 3.74725997e-01 4.71693993e-01 5.93744993e-01
      7.16471016e-01 7.10734010e-01 7.23850012e-01 7.19452977e-01
      1.27425998e-01 2.16830993e+00 4.40658003e-01 6.85566008e-01</_>
    <_>
      4.85114992e-01 4.14739013e-01 3.75788987e-01 3.62661004e-01
      3.61431986e-01 3.60792011e-01 3.69033009e-01 3.56577992e-01
      3.61341000e-01 4.02494013e-01 4.17504013e-01 4.19746995e-01
      4.16731000e-01 3.94134998e-01 4.31441009e-01 4.61504012e-01
      4.59612012e-01 4.86465007e-01 6.36871994e-01 8.47422004e-01
      1.34396005e+00 1.45266998e+00 6.13189995e-01 5.85155010e-01
      6.25909984e-01 6.18866980e-01 5.82024992e-01 6.11995995e-01
      6.24630988e-01 6.10439003e-01 6.03029013e-01 6.14708006e-01
      5.41617990e-01 4.48244989e-01 4.21386987e-01 4.06567991e-01
      3.66849005e-01 3.49528015e-01 4.47858006e-01 5.64256012e-01
      7.07865000e-01 7.15860009e-01 7.34943986e-01 7.41878986e-01
      7.41945982e-01 7.36467004e-01 6.19601011e-01 5.47707975e-01
      9.77654979e-02 2.21416998e+00 5.05228996e-01 6.90608978e-01</_>
    <_>
      7.04150021e-01 6.93458021e-01 6.29962981e-01 5.44142008e-01
      4.98317987e-01 4.49490994e-01 3.81081998e-01 3.71589988e-01
      3.64468008e-01 3.76130015e-01 3.76448989e-01 3.97327989e-01
      4.21397001e-01 4.36740011e-01 4.81498003e-01 4.83260989e-01
      4.38634992e-01 4.31459993e-01 4.50753987e-01 4.88113999e-01
      5.14392972e-01 5.60028017e-01 6.92843974e-01 1.04727995e+00
      1.41747999e+00 6.10979974e-01 5.92495024e-01 6.11763000e-01
      6.04713023e-01 5.70062995e-01 5.86314023e-01 5.98802984e-01
      6.04851007e-01 6.08797014e-01 5.96632004e-01 5.48932016e-01
      5.45503020e-01 4.70254987e-01 4.19310987e-01 4.00272012e-01
      3.77083987e-01 3.52602988e-01 4.51521009e-01 6.03874981e-01
      6.31927013e-01 6.52387977e-01 6.79866016e-01 6.95465028e-01
      8.20219964e-02 2.11560011e+00 5.28182983e-01 6.36721015e-01</_>
    <_>
      7.30583012e-01 7.33124971e-01 7.04313993e-01 6.31771028e-01
      5.66196024e-01 4.89800990e-01 4.52991992e-01 4.14375991e-01
      4.10957992e-01 4.00570989e-01 3.94190013e-01 3.94277006e-01
      3.93099010e-01 4.11684006e-01 4.21896011e-01 4.16240007e-01
      4.09334987e-01 4.02135015e-01 4.05434996e-01 4.18172985e-01
      4.69025999e-01 5.81888020e-01 6.73076987e-01 9.90585029e-01
      1.37834001e+00 6.93529010e-01 6.61936998e-01 7.29187012e-01
      1.09469998e+00 1.07614005e+00 9.13504004e-01 6.79225981e-01
      7.07823992e-01 6.73648000e-01 5.52688003e-01 5.21036983e-01
      4.85498011e-01 4.73416001e-01 4.47292000e-01 4.08814996e-01
      4.30200011e-01 3.60197991e-01 3.37017000e-01 4.21768993e-01
      5.77575982e-01 7.11166978e-01 7.10718989e-01 7.22765028e-01
      1.52609006e-01 2.00903010e+00 5.87324023e-01 5.45624018e-01</_>
    <_>
      6.38261020e-01 5.74756026e-01 5.30750990e-01 4.68394995e-01
      4.22363013e-01 4.05580997e-01 3.92057002e-01 3.92459989e-01
      3.91429007e-01 3.67689997e-01 3.78495991e-01 3.99857014e-01
      4.16813999e-01 4.14187014e-01 4.16878015e-01 4.30298001e-01
      4.46134001e-01 4.80904013e-01 5.39853990e-01 7.59921014e-01
      1.00221002e+00 1.43533003e+00 1.39547002e+00 6.14646018e-01
      5.97128987e-01 7.70564020e-01 1.30537999e+00 1.50557995e+00
      9.25734997e-01 8.13934982e-01 5.37533998e-01 5.53523004e-01
      5.71258008e-01 5.97285986e-01 5.75864971e-01 5.07579982e-01
      4.54162002e-01 4.09913987e-01 3.81303012e-01 3.54353011e-01
      4.61459011e-01 5.74193001e-01 6.78420007e-01 6.90039992e-01
      7.19771028e-01 7.31317997e-01 7.38157988e-01 7.21855998e-01
      1.59078002e-01 2.19787002e+00 6.31470978e-01 8.21898997e-01</_>
    <_>
      4.35157001e-01 3.95449013e-01 3.73282999e-01 3.68580997e-01
      3.66214007e-01 3.77714992e-01 3.91369998e-01 4.09981012e-01
      4.90236998e-01 5.60257018e-01 6.28341019e-01 6.95438981e-01
      8.54665995e-01 1.12454998e+00 1.03775001e+00 4.39545989e-01
      4.58191991e-01 5.05896986e-01 6.56463027e-01 1.00553000e+00
      1.43183994e+00 7.09903002e-01 6.89589024e-01 1.07529998e+00
      1.53069997e+00 7.65788019e-01 1.43436003e+00 7.97852993e-01
      7.99524009e-01 1.22508001e+00 7.72539020e-01 6.30446970e-01
      5.15459001e-01 4.65231001e-01 4.46224004e-01 4.01845008e-01
      3.61894011e-01 3.53509009e-01 4.91975993e-01 6.83683991e-01
      7.01780975e-01 7.05739021e-01 7.12611973e-01 7.25208998e-01
      7.30466008e-01 6.40913010e-01 5.57549000e-01 4.99314994e-01
      2.06409007e-01 2.20603991e+00 7.76363015e-01 6.73808992e-01</_>
    <_>
      4.07005012e-01 3.69874001e-01 3.50993007e-01 3.57888997e-01
      3.67228001e-01 3.90799999e-01 4.19414014e-01 4.64863986e-01
      5.33964992e-01 6.24327004e-01 7.74416029e-01 1.15149999e+00
      8.88464987e-01 4.83092010e-01 4.25696999e-01 4.22172010e-01
      4.25132990e-01 4.99796003e-01 6.00988984e-01 7.28308022e-01
      1.28921998e+00 1.51214004e+00 6.48918986e-01 1.06639004e+00
      1.57541001e+00 8.26609015e-01 1.54411995e+00 7.75108993e-01
      7.56136000e-01 1.40897000e+00 7.46756017e-01 5.65949023e-01
      4.79306012e-01 4.56743985e-01 4.08825994e-01 3.79891992e-01
      3.70983005e-01 4.57670987e-01 5.75820029e-01 7.20412016e-01
      7.18577027e-01 7.23586977e-01 7.22849011e-01 7.30023980e-01
      7.09366977e-01 5.95879018e-01 5.21924019e-01 4.67556000e-01
      1.85653999e-01 2.24717999e+00 8.51291001e-01 6.51042998e-01</_>
    <_>
      4.58829999e-01 3.87834013e-01 3.59562993e-01 3.50064009e-01
      3.57418001e-01 3.62260014e-01 3.85919988e-01 4.19853985e-01
      4.80852008e-01 5.44304013e-01 6.21928990e-01 8.21888030e-01
      1.19920003e+00 5.47855020e-01 4.31012988e-01 4.28575009e-01
      4.42512006e-01 4.66174006e-01 5.01510024e-01 6.39514983e-01
      9.74613011e-01 1.43053997e+00 6.52352989e-01 7.07020998e-01
      1.47253001e+00 7.32573986e-01 1.42428994e+00 1.20524001e+00
      6.88493013e-01 1.30960000e+00 1.20677996e+00 7.07336009e-01
      5.59360027e-01 4.95983988e-01 4.62956011e-01 4.37581986e-01
      4.10874009e-01 3.66970986e-01 4.57854986e-01 6.01556003e-01
      7.03209996e-01 7.06816971e-01 7.12575972e-01 7.15461016e-01
      7.19573975e-01 6.86439991e-01 5.81561029e-01 4.91555989e-01
      2.12847993e-01 2.14926004e+00 8.05548012e-01 6.71478987e-01</_>
    <_>
      7.28255987e-01 6.51090026e-01 5.78522027e-01 4.97332990e-01
      4.70093995e-01 4.38246995e-01 4.25541013e-01 4.17645991e-01
      4.01152998e-01 3.86781991e-01 3.96093994e-01 4.47385997e-01
      4.40649003e-01 4.36955005e-01 4.53810006e-01 4.84091997e-01
      5.36530972e-01 5.61680019e-01 6.19412005e-01 6.04870021e-01
      4.20955002e-01 5.04653990e-01 1.07121003e+00 1.18176997e+00
      4.51463014e-01 8.75311017e-01 9.14220989e-01 4.60911006e-01
      4.47941005e-01 5.09755015e-01 5.42604029e-01 4.90913987e-01
      4.47699010e-01 4.00819004e-01 4.64693993e-01 5.08576989e-01
      4.66917008e-01 4.27304000e-01 4.37622994e-01 4.18891996e-01
      3.84243995e-01 4.08472002e-01 4.60750014e-01 7.26911008e-01
      7.08006024e-01 6.98307991e-01 7.02637970e-01 7.13582993e-01
      1.70041993e-01 1.95094001e+00 5.29358983e-01 4.13729012e-01</_>
    <_>
      7.28653014e-01 7.15570986e-01 6.02557003e-01 5.17068982e-01
      4.52194989e-01 4.00893003e-01 3.53902996e-01 3.44906002e-01
      3.57208997e-01 3.70424986e-01 3.66647989e-01 3.76390994e-01
      4.05104011e-01 4.36087012e-01 4.98622000e-01 5.25673985e-01
      4.88433987e-01 4.50401992e-01 4.41807002e-01 4.74988997e-01
      4.92552996e-01 5.27933002e-01 6.91483021e-01 9.94827986e-01
      1.40910006e+00 1.17773998e+00 5.82615018e-01 5.89828014e-01
      6.15709007e-01 6.06177986e-01 6.09964013e-01 6.01078987e-01
      5.98226011e-01 5.86176991e-01 6.04896009e-01 5.89298010e-01
      5.42514026e-01 4.64201003e-01 3.93359989e-01 3.97491008e-01
      3.77328008e-01 3.88814002e-01 5.02875984e-01 6.46515012e-01
      6.94657981e-01 7.09124029e-01 7.17710018e-01 7.27855027e-01
      9.61285979e-02 2.14749002e+00 4.79638010e-01 7.92244017e-01</_>
    <_>
      0. 0. 0. 0. 0. 0. 0. 0. 0. 0. 0. 0. 0. 0. 0. 3.74234009e+00
      3.48098993e+00 3.55261993e+00 3.53198004e+00 0. 0. 0. 0. 0. 0. 0.
      0. 0. 0. 0. 0. 0. 0. 0. 0. 0. 0. 0. 0. 0. 0. 0. 0. 0. 0. 0. 0. 0.
      3.73786002e-01 3.02985001e+00 1.06269002e+00 4.95936006e-01</_>
    <_>
      6.98786020e-01 6.98697984e-01 7.12535977e-01 7.04037011e-01
      6.06750011e-01 3.41863006e-01 5.04958987e-01 6.21163011e-01
      6.34953022e-01 6.47475004e-01 6.62406981e-01 6.82331979e-01
      6.54210985e-01 5.90870976e-01 6.44569993e-01 6.56089008e-01
      6.02029026e-01 5.37472010e-01 6.00575984e-01 6.42889977e-01
      6.36218011e-01 5.93612015e-01 5.28963983e-01 4.02258009e-01
      1.11449003e+00 1.00531006e+00 8.28399003e-01 7.49585986e-01
      6.74722016e-01 5.88590026e-01 5.24020016e-01 5.09640992e-01
      4.90691990e-01 4.75351989e-01 4.61162001e-01 3.92666996e-01
      3.70709985e-01 3.72637004e-01 3.51797014e-01 3.22847009e-01
      3.42355013e-01 3.83965999e-01 4.49304014e-01 5.20717025e-01
      5.60814977e-01 6.79114997e-01 6.68124974e-01 6.74844027e-01
      1.86232999e-01 1.77897000e+00 4.80069995e-01 4.68796015e-01</_>
    <_>
      6.98786020e-01 6.98697984e-01 7.12535977e-01 7.04037011e-01
      6.06750011e-01 3.41863006e-01 5.04958987e-01 6.21163011e-01
      6.34953022e-01 6.47475004e-01 6.62406981e-01 6.82331979e-01
      6.54210985e-01 5.90870976e-01 6.44569993e-01 6.56089008e-01
      6.02029026e-01 5.37472010e-01 6.00575984e-01 6.42889977e-01
      6.36218011e-01 5.93612015e-01 5.28963983e-01 4.02258009e-01
      1.11449003e+00 1.00531006e+00 8.28399003e-01 7.49585986e-01
      6.74722016e-01 5.88590026e-01 5.24020016e-01 5.09640992e-01
      4.90691990e-01 4.75351989e-01 4.61162001e-01 3.92666996e-01
      3.70709985e-01 3.72637004e-01 3.51797014e-01 3.22847009e-01
      3.42355013e-01 3.83965999e-01 4.49304014e-01 5.20717025e-01
      5.60814977e-01 6.79114997e-01 6.68124974e-01 6.74844027e-01
      1.86232999e-01 1.77897000e+00 4.80069995e-01 4.68796015e-01</_>
    <_>
      7.01475024e-01 6.93382025e-01 7.02856004e-01 7.57592022e-01
      6.67845011e-01 6.02882981e-01 5.68238020e-01 5.36719978e-01
      5.33896983e-01 5.54358006e-01 5.58296978e-01 4.95301992e-01
      4.66524005e-01 4.97148991e-01 5.18958986e-01 5.22789001e-01
      4.82798994e-01 4.93928999e-01 5.39653003e-01 5.20754993e-01
      5.01290023e-01 5.94964981e-01 6.02623999e-01 5.48364997e-01
      4.65389013e-01 4.02006000e-01 1.17726004e+00 9.11983013e-01
      8.07639003e-01 6.79772019e-01 5.94823003e-01 5.20663977e-01
      4.48745996e-01 4.14855987e-01 3.89580995e-01 3.63703012e-01
      3.50710005e-01 3.39614004e-01 3.37736011e-01 3.54157001e-01
      3.53118986e-01 3.58725995e-01 3.56386989e-01 3.67457002e-01
      4.39862013e-01 5.61255991e-01 7.11656988e-01 7.26071000e-01
      1.81365997e-01 1.85081995e+00 5.25346994e-01 3.45921993e-01</_>
    <_>
      6.76688015e-01 6.75493002e-01 7.32194006e-01 7.24542975e-01
      6.71727002e-01 6.47809029e-01 6.46799028e-01 5.65276027e-01
      5.13633013e-01 5.16250014e-01 5.37320971e-01 5.56599975e-01
      5.66506982e-01 5.99048972e-01 5.78662992e-01 5.12061000e-01
      5.60151994e-01 7.43407011e-01 6.50403976e-01 5.08445978e-01
      5.76092005e-01 6.37054026e-01 6.59859002e-01 6.17470980e-01
      5.22167981e-01 4.50998008e-01 1.11517000e+00 9.77876008e-01
      8.10455978e-01 7.07579017e-01 6.33508980e-01 5.55709004e-01
      5.35736978e-01 5.05517006e-01 4.84890014e-01 4.53864008e-01
      3.75285000e-01 3.42723995e-01 3.47552001e-01 3.40175986e-01
      3.65476996e-01 3.68918985e-01 3.97538990e-01 4.39787000e-01
      4.95159000e-01 5.92240989e-01 7.26912975e-01 6.94904983e-01
      1.75790995e-01 1.74703002e+00 4.77521002e-01 4.55392987e-01</_>
    <_>
      4.17519987e-01 3.74406010e-01 3.52344990e-01 3.47871006e-01
      3.60049009e-01 3.83480996e-01 3.99152994e-01 4.09153014e-01
      4.22556996e-01 4.36100006e-01 4.82419997e-01 5.01443028e-01
      4.76882994e-01 4.42653000e-01 4.38138992e-01 4.48671997e-01
      4.61300999e-01 5.16393006e-01 7.03759015e-01 1.20387006e+00
      1.32964003e+00 7.93650985e-01 6.65641010e-01 1.41770995e+00
      1.06087995e+00 1.34963000e+00 1.09096003e+00 6.75189018e-01
      1.16184998e+00 1.05422997e+00 7.84741998e-01 6.96494997e-01
      4.75037009e-01 4.58613992e-01 4.08142000e-01 3.70490998e-01
      3.59499007e-01 4.15910006e-01 5.38891017e-01 7.08015025e-01
      7.09102988e-01 7.23652005e-01 7.38323987e-01 7.24889994e-01
      7.23222017e-01 6.22648001e-01 5.44164002e-01 4.92251009e-01
      1.67170003e-01 2.09998012e+00 7.54386008e-01 7.93168008e-01</_>
    <_>
      3.92621994e-01 3.47124994e-01 3.41491997e-01 3.51990014e-01
      3.57199013e-01 3.65094006e-01 3.66236001e-01 3.77076000e-01
      4.11152989e-01 4.66107994e-01 4.87417012e-01 4.68250006e-01
      4.56479996e-01 4.25738007e-01 4.23610985e-01 4.37647015e-01
      4.60171014e-01 5.90753019e-01 7.31531024e-01 1.38408995e+00
      1.37814999e+00 6.50219977e-01 6.64933980e-01 1.49799001e+00
      7.40853012e-01 1.40874004e+00 1.26914001e+00 6.49846017e-01
      1.32025003e+00 1.27223003e+00 8.08852971e-01 6.08859003e-01
      5.00433981e-01 4.54582006e-01 4.37664002e-01 3.64071995e-01
      3.89373004e-01 4.75286990e-01 5.76186001e-01 6.99899018e-01
      7.09834993e-01 7.23502994e-01 7.24164009e-01 7.18527019e-01
      6.59402013e-01 5.66860020e-01 5.02236009e-01 4.11709011e-01
      1.66198999e-01 2.17895007e+00 7.30697989e-01 8.70218992e-01</_>
    <_>
      0. 0. 0. 0. 0. 0. 0. 0. 0. 0. 0. 0. 0. 0. 0. 4.86350012e+00
      4.45358992e+00 4.35583019e+00 4.34603024e+00 0. 0. 0. 0. 0. 0. 0.
      0. 0. 0. 0. 0. 0. 0. 0. 0. 0. 0. 0. 0. 0. 0. 0. 0. 0. 0. 0. 0. 0.
      3.05689991e-01 3.40996003e+00 1.44995999e+00 1.10096002e+00</_>
    <_>
      4.08297986e-01 3.93909991e-01 4.06711012e-01 4.10685003e-01
      3.72628987e-01 4.01614010e-01 3.95635009e-01 4.22437996e-01
      6.47925019e-01 6.26214981e-01 5.55983007e-01 5.62399983e-01
      6.39899015e-01 6.91594005e-01 7.74003983e-01 8.78008008e-01
      9.48409021e-01 5.30948997e-01 5.99828005e-01 1.27661002e+00
      1.38987005e+00 6.95654988e-01 6.55389011e-01 1.44182003e+00
      1.02879000e+00 1.33138001e+00 1.11342001e+00 9.64313984e-01
      9.58434999e-01 7.28515029e-01 6.40155017e-01 5.98791003e-01
      5.02474010e-01 4.72503006e-01 4.39965993e-01 3.93047005e-01
      4.07465994e-01 4.48217988e-01 6.00304008e-01 7.27536976e-01
      7.14492977e-01 7.06798017e-01 7.17234015e-01 7.26447999e-01
      7.28263021e-01 5.96682012e-01 5.23568988e-01 4.54508007e-01
      1.88246995e-01 2.16025996e+00 6.77941024e-01 5.62884986e-01</_>
    <_>
      3.48769009e-01 3.74933004e-01 3.94014001e-01 3.93384993e-01
      4.02918994e-01 3.84799004e-01 3.97174001e-01 4.09083009e-01
      4.64648992e-01 5.76183021e-01 6.44455016e-01 6.92525983e-01
      8.44090998e-01 1.07227004e+00 4.44952995e-01 3.95514995e-01
      4.41383988e-01 5.32195985e-01 6.30028009e-01 7.35587001e-01
      1.42411005e+00 6.95693016e-01 7.61056006e-01 1.58975005e+00
      7.17226028e-01 1.54210997e+00 9.44581985e-01 6.38610005e-01
      1.31636000e+00 8.34073007e-01 6.09420002e-01 4.91999000e-01
      4.28110987e-01 3.92958999e-01 3.78360987e-01 3.88491988e-01
      5.06519020e-01 6.21923983e-01 7.21819997e-01 6.98974013e-01
      6.92937016e-01 6.97632015e-01 7.09004998e-01 6.40353024e-01
      5.38294017e-01 4.51101005e-01 4.00180995e-01 3.67888004e-01
      4.55466986e-01 2.12965989e+00 5.18469989e-01 8.53586972e-01</_>
    <_>
      3.44143003e-01 3.24339002e-01 3.33292991e-01 3.32231998e-01
      3.37884992e-01 3.45339000e-01 3.63858014e-01 3.74552995e-01
      4.11780000e-01 4.72593009e-01 5.44444025e-01 6.28405988e-01
      8.30837011e-01 1.11052001e+00 1.06809998e+00 4.00400013e-01
      4.04036999e-01 4.19440001e-01 4.73675996e-01 5.41656017e-01
      9.03707027e-01 1.40537000e+00 5.60325027e-01 7.30938017e-01
      1.52708995e+00 8.05779994e-01 1.57077003e+00 9.54024017e-01
      7.57564008e-01 1.39504004e+00 9.98420000e-01 7.79648006e-01
      5.94860971e-01 5.15452027e-01 4.21541005e-01 4.14983004e-01
      6.00118995e-01 8.74109983e-01 7.53377974e-01 6.77636981e-01
      6.88382983e-01 7.00464010e-01 7.11338997e-01 7.12768018e-01
      5.44537008e-01 4.56571013e-01 4.01717991e-01 3.62401009e-01
      4.95043010e-01 1.75459003e+00 5.74091971e-01 9.24528003e-01</_>
    <_>
      7.06389010e-01 6.72399998e-01 5.39979994e-01 5.43844998e-01
      5.31795025e-01 5.82754016e-01 4.92475986e-01 4.41390991e-01
      4.22455996e-01 4.44595009e-01 4.50500011e-01 6.99205995e-01
      6.38323009e-01 6.04955971e-01 5.84164977e-01 5.06938994e-01
      5.16390979e-01 4.97720003e-01 4.64675009e-01 8.23958993e-01
      7.89327025e-01 7.93807983e-01 1.19904995e+00 1.39104998e+00
      1.53065002e+00 7.78563023e-01 7.33524978e-01 6.35104001e-01
      5.56285977e-01 5.21345019e-01 4.92307991e-01 4.73221987e-01
      4.60837007e-01 4.91658002e-01 4.54991996e-01 4.60855007e-01
      5.30010998e-01 5.38663983e-01 5.89690983e-01 6.74986005e-01
      7.04268992e-01 6.70095980e-01 6.23513997e-01 6.12544000e-01
      6.00655019e-01 6.05381012e-01 6.20539010e-01 6.68125987e-01
      3.58998001e-01 2.27770996e+00 7.73011982e-01 2.57963002e-01</_>
    <_>
      1.03811002e+00 1.02135003e+00 1.08354998e+00 7.36374974e-01
      7.75088012e-01 7.20117986e-01 7.04869986e-01 5.80163002e-01
      8.15367997e-01 9.18408990e-01 9.68398988e-01 1.18637002e+00
      1.25661004e+00 1.07014000e+00 1.00978994e+00 1.00583994e+00
      7.89896011e-01 7.78015971e-01 6.86945975e-01 6.40810013e-01
      6.02217972e-01 5.59219003e-01 5.91844022e-01 5.82287014e-01
      5.74181020e-01 5.94325006e-01 6.78875029e-01 7.04333007e-01
      8.44045997e-01 8.40017974e-01 7.63248026e-01 7.00640976e-01
      6.24509990e-01 5.69144011e-01 5.44089019e-01 5.28804004e-01
      5.26601017e-01 5.31607985e-01 5.52416027e-01 5.77844977e-01
      6.36510015e-01 7.21071005e-01 7.66754985e-01 8.94105971e-01
      1.13619006e+00 1.19536996e+00 1.36791003e+00 1.13621998e+00
      4.69561994e-01 1.93709004e+00 6.65651023e-01 5.83979011e-01</_>
    <_>
      6.67766988e-01 7.29067981e-01 7.21782029e-01 7.16147006e-01
      7.08685994e-01 7.12018013e-01 7.22567022e-01 5.83414972e-01
      4.31239009e-01 4.13765997e-01 4.11311001e-01 4.31809008e-01
      4.46538001e-01 4.47394997e-01 4.74774987e-01 6.41022027e-01
      7.15183973e-01 9.69887972e-01 1.30416000e+00 6.27894998e-01
      8.62940013e-01 1.41708004e+00 6.89036012e-01 1.01199996e+00
      1.48441005e+00 5.71290016e-01 1.31298006e+00 9.68707025e-01
      6.20370984e-01 5.30121028e-01 4.35716003e-01 3.95480007e-01
      9.85481024e-01 8.81371975e-01 7.75880992e-01 6.37980998e-01
      5.86993992e-01 5.53905010e-01 5.27173996e-01 5.07900000e-01
      5.17008007e-01 5.28890014e-01 5.07493019e-01 4.95916009e-01
      4.88510996e-01 4.96392012e-01 5.30089021e-01 5.89616001e-01
      2.68862993e-01 2.22357011e+00 6.20305002e-01 7.42479980e-01</_>
    <_>
      7.10882008e-01 6.96138024e-01 6.90433025e-01 6.91186011e-01
      7.09510028e-01 6.96308017e-01 6.18547022e-01 4.63600010e-01
      4.35364991e-01 4.32538003e-01 4.50365007e-01 4.54304010e-01
      4.31456000e-01 4.44032013e-01 4.65557992e-01 5.05463004e-01
      5.74244022e-01 6.92923009e-01 9.61193025e-01 1.27768004e+00
      6.74953997e-01 1.00408995e+00 1.44476998e+00 9.62035000e-01
      1.48756003e+00 9.47807014e-01 1.27989995e+00 7.45989978e-01
      5.47160983e-01 4.47167993e-01 4.13576990e-01 8.03948998e-01
      9.68165994e-01 8.17348003e-01 7.14600980e-01 6.11082971e-01
      5.60612977e-01 5.24636984e-01 4.88799006e-01 4.44326997e-01
      4.67377007e-01 4.42333013e-01 4.46949989e-01 4.02785987e-01
      4.04067993e-01 4.39792007e-01 5.11161029e-01 6.43509984e-01
      2.04027995e-01 2.20798993e+00 7.52499998e-01 4.99756008e-01</_>
    <_>
      7.11310983e-01 7.02311993e-01 7.00239003e-01 7.12570012e-01
      7.37524986e-01 6.68186009e-01 5.27278006e-01 4.80271012e-01
      4.68456000e-01 4.77800995e-01 4.66073006e-01 4.66987014e-01
      4.55700010e-01 4.44164008e-01 4.94605988e-01 5.06371975e-01
      6.11820996e-01 7.12881029e-01 9.26065028e-01 1.28881001e+00
      6.77007020e-01 9.77753997e-01 1.40956998e+00 9.95944023e-01
      1.43918002e+00 1.32211006e+00 1.09827995e+00 6.02679014e-01
      4.43226993e-01 4.11668986e-01 3.85069013e-01 9.05516028e-01
      9.08347011e-01 7.67039001e-01 6.23247027e-01 5.81094027e-01
      6.04664981e-01 4.93371010e-01 4.48507011e-01 4.37498987e-01
      4.34754997e-01 4.27377999e-01 4.37826008e-01 4.16491985e-01
      3.93137008e-01 4.67189997e-01 5.60851991e-01 7.26447999e-01
      1.76756993e-01 2.15792990e+00 7.43806005e-01 4.80955988e-01</_>
    <_>
      6.32561982e-01 6.46300972e-01 6.72472000e-01 7.16504991e-01
      6.71490014e-01 5.61946988e-01 4.93189007e-01 4.68405992e-01
      4.55520004e-01 4.39617991e-01 4.37236995e-01 4.46976006e-01
      4.70349997e-01 4.86097008e-01 4.89023000e-01 4.98306006e-01
      6.37247026e-01 7.32595026e-01 1.00646996e+00 7.02732980e-01
      8.29775989e-01 1.37115002e+00 1.20507002e+00 1.46364999e+00
      1.15780997e+00 1.05613995e+00 5.71033001e-01 4.29358989e-01
      3.82348001e-01 3.58336985e-01 9.24404025e-01 9.17564988e-01
      7.82909989e-01 6.47216022e-01 5.50116003e-01 5.27869999e-01
      4.76417989e-01 4.55385000e-01 4.38876987e-01 4.26147014e-01
      4.19696987e-01 3.91822010e-01 3.89349014e-01 3.98892999e-01
      4.37945992e-01 5.17639995e-01 6.31640017e-01 6.29939973e-01
      1.77754998e-01 2.13023996e+00 7.37019002e-01 4.49811995e-01</_>
    <_>
      6.87838018e-01 6.75915003e-01 6.71854973e-01 6.79605007e-01
      6.70023024e-01 6.12845004e-01 5.02232015e-01 4.52544987e-01
      4.31037992e-01 4.01730001e-01 4.07752991e-01 4.14754987e-01
      4.32440013e-01 4.50242996e-01 4.44471002e-01 4.72746998e-01
      4.81519014e-01 5.71106970e-01 6.61661029e-01 1.07909000e+00
      6.91600025e-01 8.97017002e-01 1.41726995e+00 9.70210016e-01
      1.47403002e+00 1.26142001e+00 1.22019005e+00 6.06217027e-01
      4.78103012e-01 4.05730993e-01 3.60733002e-01 9.61291015e-01
      9.48755026e-01 7.44062006e-01 6.38279974e-01 5.85901022e-01
      5.18233001e-01 4.67887998e-01 4.40629005e-01 4.01434004e-01
      3.93415004e-01 3.84002000e-01 3.69053006e-01 3.81188005e-01
      4.10335988e-01 4.52546000e-01 5.64939022e-01 7.13962972e-01
      2.04271004e-01 2.19569993e+00 7.16205001e-01 5.98692000e-01</_>
    <_>
      5.63166022e-01 5.31845987e-01 5.42846978e-01 5.70946991e-01
      6.32089972e-01 7.18590975e-01 6.85288012e-01 4.71123993e-01
      4.10872996e-01 3.83713007e-01 4.47901011e-01 4.24434990e-01
      4.98560011e-01 4.97617990e-01 4.88339990e-01 5.17852008e-01
      5.85870028e-01 7.40935981e-01 8.24064016e-01 1.18104005e+00
      7.85840988e-01 1.02102005e+00 1.46253002e+00 1.06991005e+00
      1.48275995e+00 1.20053005e+00 6.63112998e-01 4.70705003e-01
      3.74408007e-01 3.43544006e-01 3.48634005e-01 8.87865007e-01
      7.75058985e-01 6.84861004e-01 5.68212986e-01 5.33671975e-01
      4.85725999e-01 4.35386002e-01 4.07620013e-01 3.94569993e-01
      3.86207998e-01 3.75117987e-01 3.69697988e-01 3.81256014e-01
      3.77415001e-01 3.66589010e-01 4.01066005e-01 5.09756029e-01
      4.84344006e-01 2.03818011e+00 7.34853983e-01 4.91966009e-01</_>
    <_>
      7.01152027e-01 6.58380985e-01 6.53374016e-01 6.62563980e-01
      6.90666974e-01 6.74476027e-01 5.22060990e-01 4.71704990e-01
      4.42357004e-01 4.23916012e-01 5.02569020e-01 4.95270014e-01
      5.13989985e-01 5.00460029e-01 5.60391009e-01 5.47969997e-01
      7.55581975e-01 8.32651973e-01 9.69045997e-01 1.27218997e+00
      8.36245000e-01 1.35712004e+00 1.36591005e+00 1.41191995e+00
      9.69992995e-01 1.18912995e+00 4.91582990e-01 5.86606026e-01
      3.57358009e-01 9.14849997e-01 8.24186981e-01 7.41927028e-01
      6.27909005e-01 5.88801980e-01 5.02309978e-01 5.14976025e-01
      4.31077003e-01 3.94643009e-01 3.81350011e-01 3.90664995e-01
      3.52382988e-01 3.45831007e-01 3.44808996e-01 3.62928003e-01
      4.11217004e-01 4.46346015e-01 5.22158980e-01 5.46589017e-01
      4.38163996e-01 2.08903003e+00 6.94778979e-01 4.79048014e-01</_>
    <_>
      4.77591991e-01 4.51137006e-01 4.10019010e-01 2.79022008e-01
      2.35981002e-01 2.87867993e-01 4.52571988e-01 4.81133997e-01
      4.86685008e-01 5.03265977e-01 5.10443985e-01 5.17023027e-01
      6.18982017e-01 5.84819973e-01 5.16296029e-01 5.41562974e-01
      5.47950983e-01 5.71030021e-01 5.83970010e-01 6.15604997e-01
      6.16687000e-01 5.45140982e-01 5.47735989e-01 4.72418994e-01
      4.44040000e-01 2.35220000e-01 1.90918997e-01 1.26851007e-01
      1.00589998e-01 1.00014001e-01 7.37281963e-02 1.37046993e-01
      1.55589998e-01 1.86238006e-01 1.77554995e-01 1.89233005e-01
      2.10969999e-01 2.17797995e-01 6.31443024e-01 6.49905026e-01
      8.31628025e-01 1.55393004e+00 1.38524997e+00 1.42329001e+00
      1.33369994e+00 1.21527004e+00 9.34046984e-01 5.27023017e-01
      2.63474993e-02 7.76270986e-01 5.65990984e-01 1.33719003e+00</_>
    <_>
      6.93706989e-01 7.21040010e-01 7.06227005e-01 7.00553000e-01
      7.14223027e-01 7.38803029e-01 6.52098000e-01 4.93180990e-01
      4.79016989e-01 4.27222013e-01 4.31349009e-01 4.56230998e-01
      5.10918021e-01 4.98088986e-01 5.69440007e-01 5.58089018e-01
      5.65370023e-01 6.47125006e-01 7.55549014e-01 7.38601029e-01
      9.98901010e-01 1.42324996e+00 1.04942000e+00 1.45822001e+00
      6.94346011e-01 1.37292004e+00 6.29438996e-01 5.38158000e-01
      6.84549987e-01 7.23662972e-01 6.15099013e-01 5.22144973e-01
      5.24637997e-01 4.85370994e-01 5.01172006e-01 5.14787018e-01
      4.43693012e-01 4.04821008e-01 3.90691996e-01 3.75676990e-01
      3.97873998e-01 4.40919995e-01 3.90504986e-01 3.90767992e-01
      4.12175000e-01 4.53424007e-01 5.14447987e-01 6.02603972e-01
      5.62892973e-01 2.17168999e+00 6.33172989e-01 6.30607009e-01</_>
    <_>
      5.57174027e-01 5.31947017e-01 5.38936973e-01 5.51047027e-01
      5.77300012e-01 6.13900006e-01 6.63693011e-01 6.95428014e-01
      5.91875017e-01 5.25889993e-01 4.83195990e-01 4.54605997e-01
      4.17742014e-01 4.02330995e-01 3.89889002e-01 3.87809992e-01
      3.68479013e-01 3.67536008e-01 4.07950997e-01 4.70743001e-01
      5.60172975e-01 6.60992026e-01 8.53102028e-01 1.21239996e+00
      1.51341999e+00 1.43598998e+00 1.42243004e+00 1.43522000e+00
      1.40286005e+00 1.15728998e+00 9.39043999e-01 7.63007998e-01
      6.66022003e-01 5.69494009e-01 5.14818013e-01 4.88855004e-01
      4.52683002e-01 4.21869010e-01 4.16554004e-01 3.95328999e-01
      3.86821002e-01 4.00866002e-01 4.60604012e-01 5.24149001e-01
      6.11990988e-01 6.61751986e-01 6.23971999e-01 5.87194026e-01
      1.62186995e-01 2.15550995e+00 5.98650992e-01 1.18364000e+00</_>
    <_>
      6.40901029e-01 6.33894026e-01 6.25684977e-01 6.39849007e-01
      6.58374012e-01 6.87726021e-01 6.53596997e-01 4.94217992e-01
      4.33934987e-01 3.90204996e-01 4.03876990e-01 4.04008001e-01
      4.11401004e-01 3.99416000e-01 3.91898006e-01 4.29951996e-01
      4.39108998e-01 4.59430993e-01 4.90496010e-01 6.21343017e-01
      6.64829016e-01 8.48052025e-01 1.06595004e+00 1.42472994e+00
      1.47564995e+00 1.39779997e+00 9.18637991e-01 9.70138013e-01
      6.71467006e-01 4.59405988e-01 7.10965991e-01 6.80137992e-01
      5.69787025e-01 5.81561029e-01 4.85444009e-01 5.11609018e-01
      4.25588995e-01 5.25030971e-01 5.24267018e-01 4.64203000e-01
      4.67853993e-01 5.11600971e-01 7.01497972e-01 6.58783019e-01
      6.61101997e-01 7.11763978e-01 7.02517986e-01 6.66204989e-01
      2.34621003e-01 2.18495989e+00 7.66753972e-01 3.81345004e-01</_>
    <_>
      5.81220984e-01 6.24804974e-01 6.26100004e-01 6.29324973e-01
      6.51190996e-01 6.84777975e-01 7.17467010e-01 5.74880004e-01
      4.60925013e-01 4.18940008e-01 4.45089012e-01 3.89577001e-01
      3.69798005e-01 3.57852995e-01 4.12348986e-01 4.89829004e-01
      4.69814986e-01 5.50125003e-01 8.75813007e-01 1.05141997e+00
      8.15734982e-01 8.94926012e-01 1.49937999e+00 1.04218996e+00
      1.52983999e+00 9.87136006e-01 1.42695999e+00 7.95008004e-01
      7.96512008e-01 4.36827987e-01 7.95720994e-01 1.00050998e+00
      7.65200973e-01 6.42441988e-01 5.84004998e-01 5.72893977e-01
      5.40040016e-01 5.04227996e-01 4.56752986e-01 4.42387998e-01
      4.43809986e-01 3.89654011e-01 3.71217996e-01 3.58291000e-01
      3.73564988e-01 4.03613001e-01 4.38825011e-01 5.35996020e-01
      5.16300023e-01 2.16351008e+00 6.48635030e-01 7.19334006e-01</_>
    <_>
      4.66859013e-01 4.69377011e-01 4.74159002e-01 4.92834002e-01
      5.11886001e-01 5.55469990e-01 6.18126988e-01 5.60316980e-01
      4.07133996e-01 4.27816004e-01 4.36924994e-01 4.61787999e-01
      4.67882007e-01 4.88981009e-01 5.17013013e-01 5.71289003e-01
      6.28947020e-01 6.65364027e-01 9.14667010e-01 1.26093996e+00
      6.97843015e-01 1.08193004e+00 1.43695998e+00 1.08124006e+00
      1.50576997e+00 9.47431028e-01 1.33178997e+00 7.76032984e-01
      5.60245991e-01 4.72178012e-01 8.20905983e-01 8.35346997e-01
      7.77643025e-01 7.09703028e-01 6.22119009e-01 6.12825990e-01
      5.64539015e-01 5.05199015e-01 4.74058002e-01 4.33091998e-01
      4.21676010e-01 3.96072000e-01 4.01428998e-01 4.07916993e-01
      4.20462996e-01 4.51947987e-01 4.92906988e-01 4.71949995e-01
      5.48475981e-01 1.93281996e+00 6.29154027e-01 7.34636009e-01</_>
    <_>
      4.15237993e-01 4.03039992e-01 4.07245994e-01 4.17809010e-01
      4.21811014e-01 4.37604994e-01 4.72891986e-01 5.22278011e-01
      5.78800023e-01 4.43856001e-01 4.21550006e-01 4.05066997e-01
      4.18816000e-01 4.49308008e-01 5.06569982e-01 5.23485005e-01
      5.58691978e-01 6.01704001e-01 6.81035995e-01 8.70898008e-01
      1.24188995e+00 7.23156989e-01 1.08290994e+00 1.42783999e+00
      9.89991009e-01 1.46531999e+00 8.23185980e-01 1.31884003e+00
      7.67772973e-01 5.76443017e-01 4.68585014e-01 9.34005022e-01
      8.67846012e-01 8.33768010e-01 7.66638994e-01 6.71145022e-01
      6.00612998e-01 5.84146976e-01 5.26374996e-01 4.87489015e-01
      4.43024993e-01 4.19759005e-01 4.23157007e-01 3.97513002e-01
      3.99776012e-01 4.09595013e-01 4.31230009e-01 4.35842991e-01
      5.35847008e-01 1.91620004e+00 6.31263018e-01 7.16587007e-01</_>
    <_>
      3.67413014e-01 3.74413013e-01 3.76960993e-01 3.95797014e-01
      4.15452987e-01 4.48621988e-01 4.98654991e-01 5.47285020e-01
      4.26907986e-01 3.84826988e-01 4.01499003e-01 4.08852994e-01
      4.31143999e-01 4.36352998e-01 4.95990008e-01 5.68657994e-01
      5.97021997e-01 6.34057999e-01 8.44600976e-01 1.30123997e+00
      6.65477991e-01 1.03884006e+00 1.45009995e+00 1.00615001e+00
      1.49394000e+00 6.93973005e-01 1.32295001e+00 7.95515001e-01
      6.07697010e-01 4.87944007e-01 4.41224009e-01 1.06575000e+00
      8.70742977e-01 8.73796999e-01 7.74680972e-01 6.48213983e-01
      6.19093001e-01 5.65333009e-01 5.15616000e-01 4.88599986e-01
      4.66136009e-01 4.15030986e-01 3.82468998e-01 3.84467006e-01
      3.96153986e-01 3.98930997e-01 3.74103993e-01 3.61532003e-01
      4.99586999e-01 1.89644003e+00 6.49372995e-01 7.57097006e-01</_>
    <_>
      7.12679982e-01 7.15510011e-01 7.17058003e-01 7.10313022e-01
      7.04648018e-01 7.12716997e-01 6.15101993e-01 3.99857014e-01
      3.80935013e-01 4.01573002e-01 4.38416004e-01 4.55222994e-01
      4.51270998e-01 4.98102009e-01 5.19123971e-01 5.72215974e-01
      6.20425999e-01 7.88929999e-01 1.13369000e+00 1.18277001e+00
      7.71127999e-01 1.33055997e+00 1.20036995e+00 1.00676000e+00
      1.43954003e+00 6.00127995e-01 1.31493998e+00 9.27523971e-01
      7.08274007e-01 5.46405017e-01 4.71107006e-01 4.33654010e-01
      4.26232994e-01 9.86271977e-01 9.03806984e-01 8.47718000e-01
      7.21713006e-01 6.70203984e-01 6.23503983e-01 5.68062007e-01
      5.37859023e-01 5.21749973e-01 4.89607006e-01 4.50827003e-01
      4.62843001e-01 5.17600000e-01 5.81812024e-01 6.45319998e-01
      2.01453999e-01 2.15182996e+00 6.43512011e-01 7.07391977e-01</_>
    <_>
      6.50179982e-01 6.34395003e-01 6.23533010e-01 6.10921025e-01
      5.99205017e-01 6.23126984e-01 6.02716029e-01 4.99211997e-01
      4.13289011e-01 3.72323006e-01 3.49009991e-01 3.31699997e-01
      3.16955000e-01 2.99470007e-01 3.08232009e-01 3.20472002e-01
      3.35691005e-01 3.53837013e-01 3.73145014e-01 4.10109997e-01
      4.77416009e-01 5.60087025e-01 6.54397011e-01 9.10795987e-01
      1.18662000e+00 4.06857014e-01 7.50289023e-01 8.03924024e-01
      9.49633002e-01 8.45142007e-01 8.29174995e-01 6.77944005e-01
      6.83969021e-01 6.65917993e-01 6.83332980e-01 6.99554980e-01
      5.79329014e-01 4.84072000e-01 9.74337995e-01 1.07078004e+00
      1.12286997e+00 1.07964003e+00 9.80876029e-01 9.06094015e-01
      8.47890973e-01 7.88360000e-01 6.09272003e-01 6.65766001e-01
      3.28801006e-01 1.46357000e+00 4.18462008e-01 9.87740993e-01</_>
    <_>
      5.73598027e-01 6.00606024e-01 6.29229009e-01 6.68065012e-01
      6.67281985e-01 4.84127998e-01 4.27625000e-01 3.49366009e-01
      3.20968986e-01 3.20926011e-01 3.16971987e-01 3.19674999e-01
      3.26709002e-01 3.44258010e-01 3.67330998e-01 3.96656990e-01
      5.77013016e-01 6.17684007e-01 6.63659990e-01 8.48309994e-01
      8.02794993e-01 7.80839980e-01 8.17056000e-01 8.22122991e-01
      8.28933001e-01 8.71905982e-01 8.62061977e-01 9.62689996e-01
      7.33821988e-01 5.14832020e-01 5.43908000e-01 6.09414995e-01
      6.10776007e-01 6.19951010e-01 6.02989972e-01 5.55181026e-01
      5.27363002e-01 5.40211976e-01 5.25864005e-01 4.19898987e-01
      4.12010014e-01 4.42750007e-01 5.21965981e-01 6.26637995e-01
      6.40139997e-01 6.15144014e-01 5.91261029e-01 5.77077985e-01
      3.29840004e-01 1.53648996e+00 4.53319997e-01 6.11241996e-01</_>
    <_>
      7.38695979e-01 7.21822977e-01 7.13312984e-01 7.12306976e-01
      7.15879023e-01 4.95261014e-01 4.21775997e-01 4.18370008e-01
      3.93846005e-01 3.86332005e-01 3.73371005e-01 3.92955989e-01
      4.15614009e-01 4.51249003e-01 4.93137985e-01 5.50363004e-01
      6.80330992e-01 8.87977004e-01 1.03053999e+00 5.11763990e-01
      6.89400971e-01 1.18526995e+00 4.59394008e-01 7.94713020e-01
      1.25382996e+00 4.74296004e-01 1.18604004e+00 9.63634014e-01
      6.01988971e-01 5.10887980e-01 4.34765995e-01 4.06706005e-01
      3.74947995e-01 3.74772996e-01 9.40685987e-01 8.85536015e-01
      8.39361012e-01 7.05910027e-01 6.68613970e-01 6.40859008e-01
      5.93855977e-01 5.73400974e-01 5.85711002e-01 5.64083993e-01
      5.64649999e-01 6.13986015e-01 6.95527971e-01 7.52188981e-01
      1.29526004e-01 2.00541997e+00 6.48057997e-01 3.49561006e-01</_>
    <_>
      5.97787023e-01 4.29659009e-01 3.83017987e-01 3.27336997e-01
      3.15153986e-01 3.25619012e-01 3.46114010e-01 3.15450996e-01
      3.03642005e-01 3.75214010e-01 4.09552008e-01 3.73145998e-01
      4.03663993e-01 6.87874973e-01 7.26478994e-01 9.54312980e-01
      8.33114982e-01 9.12501991e-01 6.87330008e-01 6.81168020e-01
      7.30955005e-01 7.21782982e-01 7.36522019e-01 8.22338998e-01
      8.07577014e-01 3.19523007e-01 4.24822003e-01 4.39500988e-01
      5.32857001e-01 5.44596016e-01 5.25479019e-01 5.06353021e-01
      5.00671029e-01 5.03216028e-01 3.22095990e-01 3.49270999e-01
      3.60606998e-01 3.79364997e-01 4.63782012e-01 6.17999017e-01
      6.65795028e-01 6.48985982e-01 6.32649004e-01 6.50982022e-01
      6.73448026e-01 7.01517999e-01 7.28600025e-01 6.89383984e-01
      3.24752003e-01 1.60072005e+00 4.13809001e-01 6.25593007e-01</_>
    <_>
      6.17049992e-01 6.20728016e-01 6.51575983e-01 6.79533005e-01
      5.84765017e-01 5.50230980e-01 4.76087987e-01 4.79097009e-01
      4.48641002e-01 4.56039011e-01 3.91586006e-01 4.42824006e-01
      3.81157994e-01 4.54264998e-01 4.89286005e-01 5.06232977e-01
      5.72609007e-01 5.62889993e-01 8.69346976e-01 7.12463975e-01
      7.86503017e-01 1.07297003e+00 8.50760996e-01 8.17083001e-01
      8.09426010e-01 8.47612977e-01 8.86533976e-01 5.46588004e-01
      5.98726988e-01 6.50582016e-01 6.47603989e-01 4.94177997e-01
      4.11875010e-01 3.90190005e-01 5.15711010e-01 5.36511004e-01
      4.81032997e-01 4.75632012e-01 4.41011012e-01 5.93635976e-01
      5.82723975e-01 5.54123998e-01 5.60844004e-01 6.04390025e-01
      6.59861028e-01 6.28261030e-01 6.09609008e-01 6.01643026e-01
      3.41894001e-01 1.52758002e+00 4.63124990e-01 5.67104995e-01</_>
    <_>
      6.68632984e-01 6.43612027e-01 5.11012018e-01 4.94383991e-01
      4.43305999e-01 4.26602989e-01 4.22495008e-01 4.26295996e-01
      4.32374001e-01 4.69727993e-01 5.05976975e-01 6.82206988e-01
      7.35445023e-01 9.01701987e-01 1.09499002e+00 1.08297002e+00
      1.09800005e+00 1.00234997e+00 1.01382995e+00 1.03406000e+00
      1.01176000e+00 1.10933006e+00 1.15354002e+00 1.18769002e+00
      7.91328013e-01 7.84224987e-01 6.09345019e-01 4.92141992e-01
      5.64915001e-01 5.67566991e-01 5.08489013e-01 5.02578020e-01
      4.98804003e-01 4.73331988e-01 4.98887002e-01 5.05771995e-01
      4.75760013e-01 4.43951994e-01 4.45706010e-01 4.84205991e-01
      6.34648979e-01 6.43777013e-01 6.13928974e-01 5.94555974e-01
      5.79505980e-01 5.84331989e-01 6.00337982e-01 6.19615972e-01
      3.81446004e-01 1.78795004e+00 6.42472982e-01 5.97908974e-01</_>
    <_>
      7.22217977e-01 7.28359997e-01 7.11907983e-01 7.00765014e-01
      6.97579980e-01 7.10344970e-01 5.78351021e-01 4.15080994e-01
      3.96214008e-01 3.94268006e-01 4.09310997e-01 4.20883000e-01
      4.48906004e-01 4.79791999e-01 5.06699026e-01 5.53369999e-01
      5.98612010e-01 6.58492982e-01 7.55237997e-01 8.98495018e-01
      9.64537024e-01 1.44228995e+00 9.26006019e-01 1.46705997e+00
      7.48353004e-01 1.33065999e+00 8.39836001e-01 5.89581013e-01
      4.75749999e-01 4.26602989e-01 7.38478005e-01 7.72831976e-01
      7.36373007e-01 6.90877020e-01 6.44340992e-01 6.48557007e-01
      5.64863026e-01 4.87690985e-01 4.78419989e-01 4.67925012e-01
      4.39545006e-01 4.16287988e-01 4.02182996e-01 3.98433000e-01
      4.45187986e-01 4.97424006e-01 5.57542026e-01 6.13871992e-01
      2.37987995e-01 2.20953012e+00 7.15376973e-01 5.09526014e-01</_>
    <_>
      6.89495981e-01 6.69866025e-01 6.63477004e-01 6.62207007e-01
      6.81232989e-01 5.49053013e-01 4.39368010e-01 4.25803989e-01
      4.34597999e-01 4.30483013e-01 4.18157995e-01 4.32808995e-01
      4.63432997e-01 4.72283989e-01 5.11834025e-01 5.22602975e-01
      5.05370021e-01 4.70889002e-01 5.23488998e-01 5.48655987e-01
      7.92602003e-01 1.01055002e+00 1.35525000e+00 1.39231002e+00
      5.46961010e-01 1.29233003e+00 9.40612018e-01 5.87698996e-01
      4.77079004e-01 3.96919012e-01 3.91285002e-01 4.42387998e-01
      4.87652004e-01 5.11250019e-01 5.03926992e-01 4.69148010e-01
      4.49734986e-01 4.46168989e-01 4.27195013e-01 4.23081994e-01
      4.18390989e-01 4.26770002e-01 4.29895014e-01 4.88968998e-01
      4.99442011e-01 5.73463023e-01 6.32180989e-01 7.10470974e-01
      2.10023001e-01 2.11891007e+00 6.79091990e-01 4.71091986e-01</_>
    <_>
      7.07323015e-01 6.92077994e-01 6.96202993e-01 7.20797002e-01
      6.38610005e-01 4.65030998e-01 4.57534999e-01 4.57688004e-01
      4.57949996e-01 4.97465014e-01 4.94608015e-01 4.84234989e-01
      5.23065984e-01 5.61518013e-01 5.86167991e-01 5.51751018e-01
      5.20655990e-01 5.35250008e-01 4.88041997e-01 4.51213986e-01
      4.86508012e-01 5.06586015e-01 4.80908006e-01 4.82517987e-01
      1.21828997e+00 1.14918005e+00 5.75595021e-01 4.46745008e-01
      3.94481003e-01 3.94989014e-01 4.65478987e-01 4.99067008e-01
      5.21601975e-01 5.22193015e-01 4.72943008e-01 4.33591992e-01
      4.16752011e-01 3.98909003e-01 3.98501009e-01 4.04704988e-01
      4.08645004e-01 4.17043000e-01 4.34157014e-01 4.80794013e-01
      5.25327027e-01 6.03838027e-01 6.83784008e-01 7.32093990e-01
      1.84076995e-01 1.97328997e+00 4.99267012e-01 3.38162988e-01</_>
    <_>
      4.09164011e-01 4.24306005e-01 4.46381986e-01 4.40468013e-01
      3.80531996e-01 3.68129998e-01 3.65179002e-01 3.81114006e-01
      3.86772990e-01 4.49016988e-01 4.55083996e-01 6.01011992e-01
      6.78637981e-01 7.90394008e-01 9.85804021e-01 1.21017003e+00
      1.35314000e+00 1.44314003e+00 1.39655006e+00 1.41960001e+00
      1.04062998e+00 1.03779995e+00 1.17426002e+00 1.05852997e+00
      8.37266982e-01 7.87802994e-01 4.91829008e-01 5.17058015e-01
      4.79485005e-01 4.68612999e-01 4.80358988e-01 4.78529990e-01
      4.97729987e-01 4.78630990e-01 4.65330988e-01 4.48118001e-01
      4.16253000e-01 4.06919986e-01 5.08045018e-01 6.47772014e-01
      5.97146988e-01 5.26178002e-01 4.62320000e-01 4.26618993e-01
      4.01872009e-01 3.85791987e-01 3.84501010e-01 3.87894005e-01
      3.75299007e-01 2.15746999e+00 8.73875022e-01 5.36635995e-01</_>
    <_>
      6.99782014e-01 6.93907976e-01 6.97384000e-01 7.23284006e-01
      6.30155981e-01 4.27762002e-01 4.48745012e-01 4.76334006e-01
      4.67637986e-01 4.56095994e-01 4.87484992e-01 5.11462986e-01
      5.51894009e-01 5.73493004e-01 5.84031999e-01 5.57871997e-01
      5.16659975e-01 5.13738990e-01 4.99107987e-01 4.70324010e-01
      5.08626997e-01 5.14236987e-01 4.74810988e-01 4.76538002e-01
      1.32201004e+00 1.19424999e+00 6.42175019e-01 4.80235010e-01
      4.26524013e-01 4.02566999e-01 3.98019999e-01 4.91728008e-01
      5.04013002e-01 5.17139971e-01 5.15527010e-01 4.46532995e-01
      4.32121992e-01 4.24750000e-01 4.17535007e-01 4.09648001e-01
      4.12212014e-01 4.30045992e-01 4.40050006e-01 4.90298986e-01
      5.40682018e-01 6.17366016e-01 7.14058995e-01 7.18122005e-01
      1.88695997e-01 2.04798007e+00 4.72021997e-01 4.54975009e-01</_>
    <_>
      6.19147003e-01 6.36783004e-01 6.52463019e-01 5.36215007e-01
      3.94968987e-01 3.05565000e-01 2.25934997e-01 1.31732002e-01
      1.30324006e-01 1.11359999e-01 1.11861996e-01 1.13086000e-01
      1.03533998e-01 9.65188965e-02 1.01512000e-01 1.02479003e-01
      1.05627999e-01 1.25249997e-01 1.86699003e-01 2.23495007e-01
      3.02702993e-01 3.25850010e-01 3.72224987e-01 1.01879001e+00
      1.47492003e+00 1.15129995e+00 1.13487995e+00 1.15978003e+00
      1.24484003e+00 1.19041002e+00 7.78820992e-01 7.28866994e-01
      7.01492012e-01 6.73788011e-01 6.61984026e-01 6.43949986e-01
      6.37356997e-01 5.79003990e-01 6.08815014e-01 5.09230018e-01
      4.71583992e-01 7.24200010e-01 6.89666986e-01 6.39855981e-01
      6.01638973e-01 5.84966004e-01 6.03106022e-01 6.05720997e-01
      6.43659011e-02 1.40846002e+00 4.61371988e-01 1.25074995e+00</_>
    <_>
      6.74422979e-01 7.16655016e-01 7.03585982e-01 6.99868977e-01
      7.04816997e-01 7.18625009e-01 6.55817986e-01 4.28748995e-01
      3.80739003e-01 3.78338009e-01 3.85266006e-01 3.90314996e-01
      3.94629002e-01 3.92401993e-01 4.23186004e-01 4.63674009e-01
      5.19322991e-01 5.63251019e-01 5.37742019e-01 5.43920994e-01
      5.44902027e-01 4.95095998e-01 1.48806000e+00 1.05181003e+00
      6.77096009e-01 6.58927023e-01 1.35420001e+00 1.04017997e+00
      6.42652988e-01 5.15698016e-01 4.41525012e-01 4.19183999e-01
      3.99354011e-01 5.03938973e-01 5.26656985e-01 5.16906023e-01
      4.65716004e-01 4.51034009e-01 4.46561009e-01 4.13765997e-01
      3.92663985e-01 4.05874997e-01 4.05687004e-01 4.12135988e-01
      4.18377012e-01 4.43232000e-01 5.24532974e-01 5.90973020e-01
      2.12977007e-01 2.07354999e+00 6.17109001e-01 6.50216997e-01</_>
    <_>
      6.89435005e-01 7.05084026e-01 5.34879029e-01 4.83774006e-01
      4.73940015e-01 4.64785010e-01 4.45775002e-01 4.42286998e-01
      4.38784003e-01 4.42586005e-01 4.51296985e-01 4.99469995e-01
      5.68714976e-01 6.26194000e-01 7.10568011e-01 8.90204012e-01
      9.15983021e-01 8.72780979e-01 8.37967992e-01 8.17588985e-01
      8.44197989e-01 8.89416993e-01 6.55098021e-01 7.31963992e-01
      9.01507974e-01 9.50782001e-01 8.36678982e-01 8.84985983e-01
      6.21430993e-01 6.23826027e-01 5.41567028e-01 6.03022993e-01
      6.20580971e-01 5.72591007e-01 5.90923011e-01 5.49960017e-01
      5.65805018e-01 6.98767006e-01 6.98732972e-01 6.69887006e-01
      6.64300978e-01 6.61359012e-01 6.41722023e-01 6.08578980e-01
      5.99346995e-01 6.04377985e-01 6.06833994e-01 6.29112005e-01
      3.13728005e-01 1.59188998e+00 4.98436987e-01 5.00899971e-01</_>
    <_>
      6.01580024e-01 6.09260023e-01 6.20083988e-01 6.19567990e-01
      6.56414986e-01 6.75993979e-01 6.30621016e-01 4.38353986e-01
      3.28343004e-01 2.74773985e-01 2.24225998e-01 2.21180007e-01
      1.82368994e-01 1.82595000e-01 1.66242003e-01 1.60198003e-01
      1.74501002e-01 1.80579007e-01 1.98909000e-01 2.30031997e-01
      2.70889997e-01 3.29430014e-01 4.23458993e-01 5.66170990e-01
      7.70331025e-01 1.45459998e+00 1.44604003e+00 1.84204996e+00
      1.64520001e+00 1.34862995e+00 4.81537014e-01 7.69842982e-01
      6.57630980e-01 2.83748001e-01 5.48947990e-01 3.78520995e-01
      5.06942987e-01 5.26970983e-01 5.35438001e-01 5.36377013e-01
      5.38394988e-01 5.31305015e-01 6.09116018e-01 6.44662976e-01
      6.71899974e-01 6.56365991e-01 6.21565998e-01 5.98035991e-01
      6.87780008e-02 1.38481998e+00 5.68028986e-01 1.34045005e+00</_>
    <_>
      5.39581001e-01 6.31518006e-01 7.22172022e-01 6.98270023e-01
      6.82718992e-01 6.89045012e-01 7.03974009e-01 7.40477979e-01
      6.75598025e-01 5.10397971e-01 4.95054007e-01 5.01634002e-01
      5.32217979e-01 5.31683028e-01 5.50629973e-01 5.75052023e-01
      5.75803995e-01 5.97778022e-01 7.06722021e-01 9.78187978e-01
      1.17949998e+00 6.56584978e-01 1.05823004e+00 1.31544995e+00
      7.28851020e-01 1.36838996e+00 5.84411979e-01 1.22770000e+00
      1.17912996e+00 6.93998992e-01 5.21844983e-01 5.30501008e-01
      7.24884987e-01 6.09606028e-01 6.05260015e-01 5.94000995e-01
      5.39964020e-01 5.17073989e-01 5.37577987e-01 5.28748989e-01
      4.96825993e-01 4.74914014e-01 4.59693015e-01 4.50325012e-01
      4.46568996e-01 4.54050004e-01 4.63447988e-01 4.85801995e-01
      5.35005987e-01 2.10264993e+00 7.03951001e-01 5.05370021e-01</_>
    <_>
      6.34768009e-01 6.54671013e-01 6.40929997e-01 6.47063971e-01
      6.59695983e-01 6.91924989e-01 6.98655009e-01 5.79169989e-01
      4.55561996e-01 4.40057993e-01 4.35252994e-01 4.45562989e-01
      4.46943998e-01 4.52250004e-01 4.81200993e-01 5.00002980e-01
      5.48232019e-01 6.84980989e-01 7.63001025e-01 1.27112997e+00
      7.18218982e-01 1.04823005e+00 1.42627001e+00 8.67057025e-01
      1.49013996e+00 7.15354025e-01 1.41209996e+00 1.00713003e+00
      6.34835005e-01 5.03293991e-01 4.44631994e-01 4.47227001e-01
      5.07166028e-01 9.95141983e-01 8.71365011e-01 7.12158978e-01
      6.92232013e-01 5.88708997e-01 5.02313972e-01 4.59232002e-01
      4.19308007e-01 4.10313994e-01 4.03293997e-01 3.91672999e-01
      3.95572990e-01 4.21079010e-01 4.55608010e-01 5.27994990e-01
      4.17133003e-01 2.16924000e+00 7.84027994e-01 4.93211001e-01</_>
    <_>
      6.07311010e-01 6.76626027e-01 6.67443991e-01 6.62158012e-01
      6.72901988e-01 6.96470976e-01 7.21807003e-01 5.78594983e-01
      5.08396029e-01 4.43616003e-01 4.49440002e-01 4.59417999e-01
      4.78769988e-01 4.87295985e-01 5.09085000e-01 5.00648975e-01
      5.33533990e-01 6.30511999e-01 7.97221005e-01 1.12781000e+00
      7.01044977e-01 8.44317019e-01 1.42824996e+00 7.99232006e-01
      1.49085999e+00 6.85461998e-01 1.37814999e+00 9.27855015e-01
      6.29458010e-01 5.23639977e-01 4.80545014e-01 4.54474002e-01
      4.93441999e-01 1.06658995e+00 9.41947997e-01 8.16516995e-01
      6.66265011e-01 6.18987978e-01 5.22882998e-01 4.82367009e-01
      4.48448002e-01 4.24376994e-01 4.05290008e-01 4.09422010e-01
      4.05532002e-01 4.23276991e-01 4.67613012e-01 5.28235972e-01
      3.63411009e-01 2.18619990e+00 7.58065999e-01 5.08050025e-01</_>
    <_>
      6.33117020e-01 6.88392997e-01 6.48204982e-01 6.39064014e-01
      6.44652009e-01 6.63695991e-01 7.17920005e-01 6.79467976e-01
      4.31174994e-01 3.96836996e-01 3.80925000e-01 4.11453992e-01
      4.21063006e-01 4.36646014e-01 4.67999995e-01 5.34067988e-01
      5.31912029e-01 6.29248977e-01 9.36092973e-01 1.28999996e+00
      8.69287014e-01 1.07512999e+00 1.43393004e+00 1.03258002e+00
      1.54928994e+00 6.97870016e-01 1.33287001e+00 8.10974002e-01
      5.24167001e-01 4.58324999e-01 4.09074992e-01 3.99955988e-01
      8.64557028e-01 9.85615015e-01 8.37135971e-01 6.84557974e-01
      6.63770020e-01 5.58915973e-01 4.93097007e-01 4.64592993e-01
      4.33144003e-01 4.22778994e-01 4.25844014e-01 4.11505997e-01
      4.21259999e-01 4.49184000e-01 4.74079013e-01 5.26661992e-01
      3.98369014e-01 2.19232988e+00 7.65707016e-01 4.03075993e-01</_>
    <_>
      6.26856029e-01 6.16065979e-01 6.10283017e-01 5.98178983e-01
      6.04759991e-01 6.38119996e-01 6.75559998e-01 6.83842003e-01
      6.58486009e-01 6.14772022e-01 5.58587015e-01 4.94354010e-01
      4.59461004e-01 4.25877005e-01 3.81552994e-01 3.58772993e-01
      3.40674996e-01 3.44473004e-01 3.64675999e-01 3.88687998e-01
      4.26609993e-01 4.95907009e-01 5.91639996e-01 7.73636997e-01
      9.63165998e-01 9.30516005e-01 9.21293974e-01 9.12348986e-01
      9.03730989e-01 9.32558000e-01 9.18305993e-01 8.96875024e-01
      7.81462014e-01 6.96520984e-01 6.06777012e-01 5.48780024e-01
      4.93616015e-01 4.52244014e-01 4.19692010e-01 3.92845005e-01
      3.66952002e-01 3.44740987e-01 3.58971000e-01 3.93658012e-01
      4.79387999e-01 5.34363985e-01 5.61002016e-01 6.16005003e-01
      1.70061007e-01 1.57991004e+00 3.79720986e-01 9.92021024e-01</_>
    <_>
      5.73312998e-01 5.80258012e-01 6.06863022e-01 6.38209999e-01
      6.75993025e-01 6.93786979e-01 6.14491999e-01 5.58676004e-01
      4.90112007e-01 4.37169999e-01 4.27933991e-01 3.93664986e-01
      3.61822009e-01 3.47245991e-01 3.40537995e-01 3.48255992e-01
      3.85158986e-01 4.15077001e-01 4.56465006e-01 5.01628995e-01
      6.26509011e-01 8.55969012e-01 1.26753998e+00 1.28845000e+00
      1.31089997e+00 1.25364995e+00 1.26485002e+00 1.33570004e+00
      1.07481003e+00 7.95256019e-01 6.78183019e-01 6.24136984e-01
      5.46558976e-01 4.85069007e-01 4.31903988e-01 4.10194993e-01
      3.90722007e-01 3.74408007e-01 3.71264011e-01 3.67087990e-01
      4.39011991e-01 4.71901000e-01 5.10356009e-01 6.05430007e-01
      6.64864004e-01 6.23010993e-01 5.97581983e-01 5.66177011e-01
      2.17297003e-01 1.97583997e+00 5.04281998e-01 1.18092000e+00</_>
    <_>
      7.13361979e-01 6.64097011e-01 6.43774986e-01 6.66090012e-01
      6.87596023e-01 7.42697001e-01 6.90003991e-01 4.84183013e-01
      4.65454996e-01 4.55671012e-01 4.69045997e-01 5.16709030e-01
      5.18099010e-01 4.95649993e-01 5.17449021e-01 5.80829978e-01
      6.78600013e-01 9.36340988e-01 1.28547001e+00 7.12166011e-01
      1.00549996e+00 1.45246005e+00 1.04972005e+00 1.48460996e+00
      7.57964015e-01 1.42894006e+00 8.14432025e-01 5.18894017e-01
      4.47447985e-01 3.97983998e-01 4.11386997e-01 4.71035987e-01
      9.92727995e-01 8.34545016e-01 6.73816979e-01 6.04137003e-01
      5.37400007e-01 4.87976998e-01 4.52672005e-01 4.27870005e-01
      4.15307999e-01 4.14427012e-01 4.14546996e-01 4.31026012e-01
      4.50235009e-01 4.96549010e-01 5.54995000e-01 6.44379020e-01
      4.37647998e-01 2.16137004e+00 8.15339029e-01 3.50073993e-01</_>
    <_>
      6.38324022e-01 6.96362019e-01 6.54267013e-01 6.40456975e-01
      6.55584991e-01 6.85890019e-01 7.49550998e-01 6.30217016e-01
      5.96087992e-01 6.15309000e-01 5.75475991e-01 5.68742990e-01
      5.80896974e-01 5.14780998e-01 5.73298991e-01 5.86535990e-01
      6.40883982e-01 6.40545011e-01 8.34821999e-01 1.18315005e+00
      6.65455997e-01 9.25899029e-01 1.39058006e+00 9.65041995e-01
      1.49820006e+00 6.27068996e-01 1.38358998e+00 1.06245005e+00
      5.50877988e-01 4.52533990e-01 4.23761010e-01 4.48334008e-01
      4.61185992e-01 9.83467996e-01 9.28519011e-01 6.77645028e-01
      5.88491976e-01 5.30274987e-01 4.88000989e-01 5.34986973e-01
      4.64962006e-01 4.41558987e-01 4.71473008e-01 4.13257003e-01
      4.49918985e-01 5.11816978e-01 5.44121981e-01 5.48223019e-01
      4.32720989e-01 2.22028995e+00 7.87922025e-01 3.22362989e-01</_>
    <_>
      4.35166001e-01 3.85787010e-01 3.57445002e-01 3.64125013e-01
      3.66162986e-01 3.40698004e-01 3.36607009e-01 3.45234990e-01
      3.94419998e-01 4.17755991e-01 4.29513991e-01 4.24921989e-01
      4.11256999e-01 6.08594000e-01 3.53520989e-01 3.21969002e-01
      5.44265985e-01 6.43787026e-01 6.88268006e-01 7.01938987e-01
      4.18240011e-01 4.44707006e-01 4.38178986e-01 4.39337999e-01
      5.15987992e-01 5.37164986e-01 5.34026980e-01 5.43210030e-01
      7.61254013e-01 7.25452006e-01 8.06935012e-01 7.02178001e-01
      6.67007983e-01 6.45855010e-01 6.17725015e-01 6.16886973e-01
      6.12084985e-01 6.23185992e-01 3.63245994e-01 3.22338015e-01
      3.06311011e-01 2.93677002e-01 3.03207010e-01 3.10885012e-01
      7.94399977e-01 6.74749970e-01 5.31593978e-01 5.39812028e-01
      1.73316002e-01 1.34605002e+00 4.10515010e-01 4.24475998e-01</_>
    <_>
      5.98594010e-01 6.87144995e-01 7.20875978e-01 7.01295018e-01
      6.90778017e-01 6.86065972e-01 6.94060028e-01 6.98177993e-01
      4.70326990e-01 4.70795006e-01 4.77862000e-01 4.40854013e-01
      4.09622997e-01 3.75889987e-01 3.62917006e-01 3.84954989e-01
      4.14213002e-01 4.50646013e-01 5.58030009e-01 6.05189979e-01
      8.52922976e-01 1.12128997e+00 4.94783998e-01 6.61108971e-01
      1.20103002e+00 5.75461984e-01 9.20342982e-01 1.19007003e+00
      5.03215015e-01 1.18455994e+00 8.81990016e-01 5.37855983e-01
      4.57711995e-01 3.97410989e-01 3.74765992e-01 3.53518993e-01
      3.71556014e-01 5.84280014e-01 5.70578992e-01 5.44964015e-01
      4.67321992e-01 4.19434994e-01 4.05811995e-01 4.13987011e-01
      4.32249010e-01 4.87273008e-01 4.78430003e-01 5.12036026e-01
      2.03044996e-01 2.14661002e+00 6.81142986e-01 4.45329994e-01</_>
    <_>
      6.12145007e-01 6.85082972e-01 7.17086971e-01 7.05866992e-01
      7.02903986e-01 7.03158021e-01 7.39974022e-01 6.33948982e-01
      3.82598013e-01 3.56949002e-01 3.56709987e-01 3.49211007e-01
      3.54716003e-01 3.79281014e-01 4.25350010e-01 4.94504988e-01
      5.47674000e-01 6.21199012e-01 6.93059981e-01 1.14679003e+00
      1.17727995e+00 5.56254029e-01 6.99980021e-01 1.35303998e+00
      8.24120998e-01 1.14828002e+00 6.30394995e-01 5.87520003e-01
      1.28046000e+00 6.38234019e-01 4.75118011e-01 3.95179987e-01
      3.63137990e-01 3.58361989e-01 3.69462013e-01 4.61861998e-01
      4.46152002e-01 4.52013999e-01 4.24856991e-01 3.81532013e-01
      3.72664988e-01 3.71986002e-01 3.56647998e-01 3.96346986e-01
      4.07891005e-01 4.19313997e-01 4.46554989e-01 5.20183980e-01
      1.67996004e-01 2.15630007e+00 6.55130029e-01 6.73493028e-01</_>
    <_>
      7.04515994e-01 7.28881001e-01 7.35516012e-01 7.20510006e-01
      7.20021009e-01 7.22902000e-01 6.18126988e-01 4.16047990e-01
      3.79404992e-01 4.87740993e-01 4.70744997e-01 3.64349991e-01
      4.47064996e-01 4.98088986e-01 5.34797013e-01 7.61066973e-01
      9.30585980e-01 1.20825005e+00 5.70451021e-01 6.93400979e-01
      1.26487005e+00 8.24747026e-01 7.67974973e-01 1.41893005e+00
      5.74878991e-01 1.23572004e+00 1.12690997e+00 6.73668981e-01
      4.89715010e-01 4.00819987e-01 3.82824987e-01 3.58877003e-01
      3.90686989e-01 4.91685987e-01 4.85276014e-01 4.68050987e-01
      4.32181001e-01 4.03591990e-01 3.92329991e-01 3.80021006e-01
      3.95406008e-01 4.01656985e-01 3.92720014e-01 3.98380011e-01
      4.25072014e-01 4.55500007e-01 5.50200999e-01 6.58999979e-01
      2.06081003e-01 2.20872998e+00 6.34362996e-01 7.32550979e-01</_>
    <_>
      5.00981987e-01 5.62325001e-01 5.98164976e-01 7.19505012e-01
      7.10210025e-01 7.04527020e-01 7.05290973e-01 6.92240000e-01
      7.06474006e-01 6.08009994e-01 3.99468005e-01 4.48857009e-01
      4.29654986e-01 4.26050007e-01 4.02121007e-01 4.32200998e-01
      5.76918006e-01 5.93617976e-01 8.54246020e-01 1.34993005e+00
      7.78397977e-01 6.49518013e-01 1.02543998e+00 1.45556998e+00
      7.20646977e-01 1.57800996e+00 6.74721003e-01 6.52912974e-01
      1.34341002e+00 1.65075004e+00 6.34039998e-01 4.95137006e-01
      4.50338006e-01 4.30326998e-01 4.11282986e-01 5.16786993e-01
      5.56065023e-01 5.51957011e-01 5.28312981e-01 4.48123008e-01
      4.24349993e-01 4.18042004e-01 3.92470002e-01 3.90248001e-01
      3.87962997e-01 3.78161013e-01 3.96833003e-01 4.45248991e-01
      2.44758993e-01 2.29818010e+00 7.53495991e-01 7.90432990e-01</_>
    <_>
      5.77224016e-01 6.82407022e-01 7.18228996e-01 7.05640018e-01
      6.95833981e-01 6.94378972e-01 7.08905995e-01 7.13723004e-01
      5.01995981e-01 4.64769006e-01 4.51359004e-01 4.52461988e-01
      4.43535000e-01 4.37436014e-01 4.32444006e-01 4.64091986e-01
      5.47092974e-01 5.84059000e-01 7.63866007e-01 8.90605986e-01
      1.14621997e+00 7.22661972e-01 9.63056982e-01 1.30180001e+00
      7.04312027e-01 1.37322998e+00 5.79780996e-01 1.18553996e+00
      1.12855995e+00 5.98312020e-01 4.55841005e-01 4.12074000e-01
      4.39377010e-01 4.98302996e-01 4.74137992e-01 4.91293997e-01
      5.29950023e-01 5.24767995e-01 4.67795014e-01 4.34096992e-01
      4.28514987e-01 4.14135009e-01 4.09911007e-01 4.05441999e-01
      4.16924000e-01 4.36820000e-01 4.53112006e-01 4.93636996e-01
      2.97226995e-01 2.10449004e+00 6.99662030e-01 5.41468024e-01</_>
    <_>
      5.77224016e-01 6.82407022e-01 7.18228996e-01 7.05640018e-01
      6.95833981e-01 6.94378972e-01 7.08905995e-01 7.13723004e-01
      5.01995981e-01 4.64769006e-01 4.51359004e-01 4.52461988e-01
      4.43535000e-01 4.37436014e-01 4.32444006e-01 4.64091986e-01
      5.47092974e-01 5.84059000e-01 7.63866007e-01 8.90605986e-01
      1.14621997e+00 7.22661972e-01 9.63056982e-01 1.30180001e+00
      7.04312027e-01 1.37322998e+00 5.79780996e-01 1.18553996e+00
      1.12855995e+00 5.98312020e-01 4.55841005e-01 4.12074000e-01
      4.39377010e-01 4.98302996e-01 4.74137992e-01 4.91293997e-01
      5.29950023e-01 5.24767995e-01 4.67795014e-01 4.34096992e-01
      4.28514987e-01 4.14135009e-01 4.09911007e-01 4.05441999e-01
      4.16924000e-01 4.36820000e-01 4.53112006e-01 4.93636996e-01
      2.97226995e-01 2.10449004e+00 6.99662030e-01 5.41468024e-01</_>
    <_>
      6.53281987e-01 6.69099987e-01 6.79746985e-01 5.87634981e-01
      5.43870986e-01 5.08279979e-01 4.52620000e-01 4.26887006e-01
      3.91418010e-01 3.68099988e-01 3.43131006e-01 3.39361012e-01
      3.52391988e-01 3.57075006e-01 3.83224010e-01 4.64843005e-01
      5.15473008e-01 5.57365000e-01 6.21421993e-01 7.48134017e-01
      1.15073001e+00 1.18074000e+00 1.22308004e+00 1.01653004e+00
      1.05305004e+00 1.15948999e+00 5.27872980e-01 6.76385999e-01
      7.06264973e-01 7.02587008e-01 5.37411988e-01 5.30638993e-01
      4.72779006e-01 4.84714001e-01 3.52470994e-01 4.00379002e-01
      4.12957013e-01 4.48269010e-01 4.48029995e-01 4.27527010e-01
      5.55315018e-01 7.46573985e-01 7.19505012e-01 7.57404983e-01
      7.14377999e-01 6.79655015e-01 6.58119977e-01 6.50223970e-01
      2.97567010e-01 1.54745996e+00 6.76681995e-01 3.54434997e-01</_>
    <_>
      6.66894972e-01 6.91712976e-01 5.51010013e-01 5.09158015e-01
      4.19164002e-01 3.48030001e-01 2.99153000e-01 2.61999011e-01
      2.34217003e-01 2.09832996e-01 2.20849007e-01 2.07540005e-01
      2.25483999e-01 2.23232999e-01 2.25409001e-01 2.38904998e-01
      2.59357005e-01 3.63436013e-01 4.63817000e-01 6.57711029e-01
      9.86554027e-01 1.65146995e+00 1.54323995e+00 6.81587994e-01
      7.25082994e-01 8.89284015e-01 8.23243976e-01 4.64697987e-01
      2.97755003e-01 2.77785987e-01 2.75231987e-01 2.77402997e-01
      2.63642997e-01 2.66615987e-01 3.00846994e-01 4.15374011e-01
      4.27516997e-01 4.18422997e-01 3.84436995e-01 3.66402000e-01
      4.01692986e-01 4.58355010e-01 4.60301012e-01 5.90214014e-01
      6.81798995e-01 6.57458007e-01 6.58836007e-01 6.52814984e-01
      1.12979002e-01 2.35527992e+00 5.93924999e-01 1.24027002e+00</_>
    <_>
      5.72553992e-01 5.90182006e-01 6.05114996e-01 6.15043998e-01
      5.83765984e-01 4.33530003e-01 3.54104996e-01 3.18015009e-01
      2.61388987e-01 2.31452003e-01 2.17675999e-01 2.23660007e-01
      2.29230002e-01 2.10611999e-01 2.11092994e-01 2.10667998e-01
      2.14847997e-01 2.40246996e-01 2.94651985e-01 3.62305999e-01
      4.55222994e-01 6.00143015e-01 9.47035015e-01 1.51561999e+00
      1.42832994e+00 6.60192013e-01 5.07616997e-01 5.58685005e-01
      5.70612013e-01 4.90509987e-01 3.81051004e-01 5.67471981e-01
      5.42539001e-01 5.00415027e-01 4.70636994e-01 4.31921005e-01
      4.23213005e-01 4.12030011e-01 4.33133006e-01 4.43078995e-01
      4.66075003e-01 4.79918003e-01 8.27986002e-01 7.03782022e-01
      6.49173021e-01 5.99735975e-01 5.82729995e-01 5.73857009e-01
      6.26012981e-02 2.00303006e+00 5.21641016e-01 8.90043020e-01</_>
    <_>
      6.01025999e-01 6.12232029e-01 6.28063023e-01 6.67097986e-01
      6.86448991e-01 6.94370985e-01 6.41893983e-01 5.69643021e-01
      4.84474987e-01 4.20955002e-01 3.79572988e-01 3.60015988e-01
      3.38081986e-01 3.32215995e-01 3.26512009e-01 3.61916006e-01
      3.76733005e-01 3.85657012e-01 3.96430999e-01 4.64428008e-01
      5.42061985e-01 6.83951974e-01 9.95925009e-01 1.55791998e+00
      1.62102997e+00 1.55990005e+00 1.54800999e+00 1.18324006e+00
      1.06608999e+00 8.05769026e-01 6.88386023e-01 5.31997979e-01
      5.63067973e-01 5.42961001e-01 5.34852028e-01 5.28153002e-01
      4.98360991e-01 4.95692998e-01 4.57816005e-01 4.41204011e-01
      4.10517007e-01 4.18148994e-01 3.85816991e-01 5.26679993e-01
      6.52638018e-01 6.92964971e-01 6.51238024e-01 6.04839981e-01
      1.01438001e-01 2.28358006e+00 8.98847997e-01 8.46354008e-01</_>
    <_>
      6.88439012e-01 6.37499988e-01 5.00746012e-01 3.25792998e-01
      2.07123995e-01 1.65463001e-01 1.46390006e-01 1.46191999e-01
      1.06949002e-01 1.06949002e-01 1.03413001e-01 8.89609009e-02
      1.01295002e-01 1.10806003e-01 1.11970998e-01 1.17043003e-01
      1.24150001e-01 1.34707004e-01 1.34531006e-01 2.41075993e-01
      2.71919996e-01 4.24730986e-01 7.16534019e-01 1.23812997e+00
      1.33820999e+00 4.73046988e-01 3.45526993e-01 2.49198005e-01
      2.38618001e-01 2.20001996e-01 3.87818992e-01 4.15358007e-01
      5.09195983e-01 6.04641020e-01 6.68996990e-01 5.18625021e-01
      5.03180027e-01 4.88644004e-01 4.70631987e-01 4.22084004e-01
      4.83511001e-01 4.41798002e-01 4.40665990e-01 5.01424015e-01
      6.91617012e-01 6.76757991e-01 6.68963015e-01 6.86810970e-01
      8.65463987e-02 1.99485004e+00 6.22223020e-01 8.41426015e-01</_>
    <_>
      6.75577998e-01 6.67741001e-01 6.67478025e-01 6.87511981e-01
      7.01171994e-01 7.15815008e-01 6.53501987e-01 4.73803014e-01
      3.95218015e-01 3.46738011e-01 3.41859996e-01 2.80052006e-01
      2.57066995e-01 2.54763007e-01 2.73975998e-01 2.92351991e-01
      3.00999999e-01 3.21310014e-01 3.33846003e-01 3.96501005e-01
      3.87080997e-01 5.39620996e-01 6.79675996e-01 1.12645996e+00
      1.30060995e+00 1.28535998e+00 1.28237998e+00 1.13080001e+00
      7.61601985e-01 4.69500989e-01 3.94854993e-01 2.83452004e-01
      2.90890992e-01 2.88100004e-01 2.82696992e-01 2.76400000e-01
      2.64138013e-01 2.53219992e-01 2.51280993e-01 2.51235008e-01
      2.60462999e-01 2.75873989e-01 3.03241998e-01 3.39249998e-01
      4.03286010e-01 5.08587003e-01 6.04103029e-01 6.97818995e-01
      2.75586993e-01 2.01855993e+00 7.81946003e-01 6.13779008e-01</_>
    <_>
      5.83528996e-01 6.13008022e-01 6.26825988e-01 5.71690023e-01
      4.55552012e-01 3.92347008e-01 2.97495991e-01 2.50364006e-01
      2.09533006e-01 1.94762006e-01 1.79434001e-01 1.58433005e-01
      1.63455993e-01 1.74021006e-01 1.96705997e-01 2.22645998e-01
      2.75413007e-01 3.10707986e-01 3.37280989e-01 3.91750991e-01
      5.09428978e-01 7.78506994e-01 1.54120004e+00 1.60404003e+00
      1.81991005e+00 1.54769003e+00 1.13352001e+00 7.80354977e-01
      2.55241007e-01 2.77123004e-01 2.60881990e-01 2.85176992e-01
      2.76378989e-01 2.68112987e-01 2.43031994e-01 2.28608996e-01
      2.21654996e-01 2.26693004e-01 2.20872998e-01 2.38105997e-01
      2.36753002e-01 3.03216010e-01 6.24657989e-01 6.18595004e-01
      5.86825013e-01 5.79521000e-01 5.61465979e-01 5.79396009e-01
      5.62803000e-02 1.49435997e+00 7.65949011e-01 1.42075002e+00</_>
    <_>
      7.00568020e-01 6.37251973e-01 5.93683004e-01 5.59033990e-01
      5.25803030e-01 5.00262022e-01 5.04772007e-01 4.91340011e-01
      5.05908012e-01 5.16511023e-01 5.64786017e-01 5.93523979e-01
      6.33642018e-01 7.86997020e-01 8.76272976e-01 9.90316987e-01
      1.19194996e+00 1.37353003e+00 1.18982005e+00 1.09850001e+00
      7.71471977e-01 7.90506005e-01 1.07282996e+00 9.75706995e-01
      9.85786974e-01 4.77632999e-01 9.10369992e-01 9.02496994e-01
      7.60837018e-01 9.53242004e-01 1.02163994e+00 9.25130010e-01
      8.66572976e-01 8.31761003e-01 6.70695007e-01 6.21133983e-01
      5.82935989e-01 5.59723973e-01 5.30543983e-01 5.21223009e-01
      5.03216982e-01 4.98551011e-01 5.23167014e-01 5.52531004e-01
      5.68265975e-01 5.76062977e-01 6.13853991e-01 6.60286009e-01
      5.37781000e-01 1.94608998e+00 6.57058001e-01 4.30382997e-01</_>
    <_>
      6.73403978e-01 7.02506006e-01 6.76449001e-01 5.63314021e-01
      4.51788008e-01 4.71226990e-01 4.87058014e-01 3.71711999e-01
      3.95274997e-01 3.95071000e-01 3.68467003e-01 3.60850990e-01
      3.82256001e-01 5.06582975e-01 4.77972001e-01 4.43524987e-01
      6.16737008e-01 5.91019988e-01 7.12899029e-01 7.65614986e-01
      7.41689980e-01 8.03526998e-01 1.01270998e+00 1.21357000e+00
      1.28618002e+00 9.40330982e-01 6.84578001e-01 5.82827985e-01
      5.02907991e-01 4.28508013e-01 4.10147995e-01 3.65242004e-01
      3.42474014e-01 3.29537988e-01 3.25785011e-01 3.27807009e-01
      3.38077992e-01 3.49090993e-01 3.72334987e-01 3.88886005e-01
      3.82299006e-01 3.65878999e-01 3.72756988e-01 4.06556994e-01
      5.98146975e-01 6.01104021e-01 6.06369019e-01 6.28234029e-01
      3.57782990e-01 2.00835991e+00 6.90232992e-01 1.98870003e-01</_>
    <_>
      7.37118006e+00 7.37118006e+00 7.37118006e+00 7.37118006e+00
      7.37118006e+00 7.37118006e+00 7.37118006e+00 7.37118006e+00
      7.37118006e+00 7.37118006e+00 7.37118006e+00 7.37118006e+00
      7.37118006e+00 7.37118006e+00 7.37118006e+00 7.37118006e+00
      7.37118006e+00 7.37118006e+00 7.37118006e+00 7.37118006e+00
      7.37118006e+00 7.37118006e+00 7.37118006e+00 7.37118006e+00
      8.32485974e-01 8.30367982e-01 1.11370003e+00 1.05709004e+00
      9.86467004e-01 9.47869003e-01 9.36353028e-01 9.02458012e-01
      8.87766004e-01 7.37118006e+00 7.37118006e+00 7.37118006e+00
      7.37118006e+00 7.37118006e+00 7.37118006e+00 7.37118006e+00
      7.37118006e+00 7.37118006e+00 7.37118006e+00 7.37118006e+00
      7.37118006e+00 7.37118006e+00 7.37118006e+00 7.37118006e+00
      7.35998973e-02 6.52377009e-01 2.79062003e-01 2.87126988e-01</_>
    <_>
      0. 0. 0. 0. 0. 0. 0. 0. 0. 0. 0. 0. 0. 0. 3.89720988e+00
      4.17591000e+00 4.18547010e+00 4.22775984e+00 4.28302002e+00 0. 0.
      0. 0. 0. 0. 0. 0. 0. 0. 0. 0. 0. 0. 0. 0. 0. 0. 0. 0. 0. 0. 0. 0.
      0. 0. 0. 0. 0. 6.26583993e-01 1.94684994e+00 8.98678005e-01
      5.10784984e-01</_>
    <_>
      0. 0. 0. 0. 0. 0. 0. 0. 0. 0. 0. 0. 0. 0. 0. 0. 0. 4.38992977e+00
      4.42569017e+00 4.59530020e+00 0. 0. 0. 0. 0. 0. 0. 0. 0. 0. 0. 0.
      0. 0. 0. 0. 0. 0. 0. 0. 0. 0. 0. 0. 0. 0. 0. 0. 6.22430980e-01
      1.98122001e+00 7.48499990e-01 4.35640991e-01</_>
    <_>
      6.06271982e-01 6.49477005e-01 7.07234025e-01 7.54903972e-01
      7.53636003e-01 7.18173027e-01 7.09483981e-01 7.42654026e-01
      7.41253972e-01 7.51296997e-01 7.01200008e-01 7.18347013e-01
      7.50786006e-01 8.55189979e-01 7.65290022e-01 7.32271016e-01
      7.99156010e-01 8.80397022e-01 9.58863020e-01 1.03606999e+00
      9.04358029e-01 1.00672996e+00 9.45590973e-01 7.88982987e-01
      6.73265994e-01 6.13373995e-01 8.80252004e-01 7.44095981e-01
      7.00015008e-01 6.18614972e-01 7.59585977e-01 6.96200013e-01
      6.62360013e-01 6.39658988e-01 6.77309990e-01 6.52525008e-01
      6.42219007e-01 6.88704014e-01 7.47729003e-01 6.96991026e-01
      6.97772026e-01 6.96587026e-01 6.16840005e-01 5.73494971e-01
      5.39946020e-01 5.21604002e-01 5.18157005e-01 5.32869995e-01
      5.75323999e-01 1.71027005e+00 5.33025980e-01 2.38567993e-01</_>
    <_>
      6.15095019e-01 6.16097987e-01 6.19889021e-01 6.74301982e-01
      7.36328006e-01 7.73599029e-01 7.47648001e-01 7.13061988e-01
      6.91730976e-01 6.99042976e-01 7.18370974e-01 7.06804991e-01
      7.15792000e-01 7.78124988e-01 6.91254020e-01 7.54364014e-01
      8.83426011e-01 7.98069000e-01 7.87459016e-01 8.53128016e-01
      9.39679027e-01 1.01933002e+00 1.13791001e+00 1.05524004e+00
      1.09800994e+00 8.97386014e-01 7.85856009e-01 6.35412991e-01
      9.23207998e-01 8.67573023e-01 8.32597971e-01 6.22933984e-01
      7.91714013e-01 7.38550007e-01 6.39513016e-01 6.08617008e-01
      6.35536015e-01 6.71272993e-01 6.87767982e-01 6.85943007e-01
      6.89158976e-01 6.80889010e-01 6.77363992e-01 7.22310007e-01
      7.36365020e-01 7.41828024e-01 6.77055001e-01 6.36817992e-01
      6.12739980e-01 1.85168004e+00 5.52820027e-01 3.51262003e-01</_>
    <_>
      5.31570017e-01 5.52801013e-01 5.69159985e-01 5.39610028e-01
      5.04737020e-01 4.89286989e-01 4.87473011e-01 4.87951010e-01
      4.96257007e-01 5.11041999e-01 5.30058026e-01 5.00985026e-01
      4.52704012e-01 5.73581994e-01 5.67236006e-01 5.88366985e-01
      6.42947018e-01 6.48504972e-01 6.97013974e-01 7.45352030e-01
      1.04477000e+00 1.01731002e+00 9.89574015e-01 9.71427977e-01
      1.03332996e+00 5.26808977e-01 4.73733991e-01 4.81779993e-01
      4.70275015e-01 4.51559007e-01 4.67433006e-01 5.67987978e-01
      6.58033013e-01 8.46557975e-01 7.30997980e-01 6.65458977e-01
      6.75379992e-01 6.76876009e-01 7.14298010e-01 7.06448019e-01
      6.76249027e-01 6.23742998e-01 5.86292028e-01 5.75109005e-01
      5.72472990e-01 4.81038004e-01 4.87028986e-01 5.13803005e-01
      5.91719985e-01 1.35670996e+00 5.08655012e-01 4.60563004e-01</_>
    <_>
      4.82634991e-01 5.66704988e-01 6.34325981e-01 6.56338990e-01
      6.68522000e-01 6.64106011e-01 6.61087990e-01 6.36040986e-01
      6.29853010e-01 6.62609994e-01 7.09118009e-01 7.17922986e-01
      6.63047016e-01 6.90873981e-01 6.07026994e-01 8.05794001e-01
      8.04221988e-01 9.03587997e-01 1.01915002e+00 1.05939996e+00
      9.57282007e-01 1.07138002e+00 1.00165999e+00 8.41647983e-01
      7.10036993e-01 6.39759004e-01 6.88364983e-01 8.42267990e-01
      5.93442976e-01 8.26188028e-01 7.48968005e-01 6.88499987e-01
      6.50518000e-01 6.43257976e-01 6.31186008e-01 6.39541984e-01
      6.59626007e-01 6.12003028e-01 6.42742991e-01 5.49723029e-01
      4.96933997e-01 4.53049004e-01 4.23159987e-01 3.99093986e-01
      3.93593013e-01 3.96596014e-01 4.07959998e-01 4.31883007e-01
      2.91121006e-01 1.65936005e+00 5.77096999e-01 3.52600992e-01</_>
    <_>
      7.92146027e-01 6.88888013e-01 6.07995987e-01 8.98456991e-01
      8.68723989e-01 7.73097992e-01 8.10599029e-01 7.71241009e-01
      7.11259007e-01 6.63551986e-01 6.39564991e-01 6.54281020e-01
      6.45796001e-01 6.83486998e-01 6.97795987e-01 1.22715998e+00
      1.23061001e+00 1.66041005e+00 1.75619996e+00 1.80149996e+00
      1.87502003e+00 1.94107997e+00 1.75893998e+00 1.61205006e+00
      1.55830002e+00 1.56570995e+00 1.59992003e+00 7.99685001e-01
      7.14245021e-01 6.94916010e-01 6.73972011e-01 6.70315981e-01
      6.58998013e-01 6.51363015e-01 6.76356018e-01 7.36455023e-01
      7.65854001e-01 7.08410978e-01 6.84198022e-01 6.89567029e-01
      8.14116001e-01 8.23346972e-01 9.00662005e-01 1.00100005e+00
      1.04013002e+00 9.21736002e-01 1.01608002e+00 1.05281997e+00
      5.36472976e-01 3.03501010e+00 1.17741001e+00 8.27948987e-01</_>
    <_>
      4.42640007e-01 4.85260993e-01 5.85205972e-01 6.68878019e-01
      6.85958982e-01 6.88941002e-01 6.65508986e-01 6.48045003e-01
      6.44109011e-01 6.28935993e-01 6.48368001e-01 7.17464983e-01
      7.55263984e-01 7.33313024e-01 7.06963003e-01 6.74778998e-01
      8.62515986e-01 8.72497976e-01 9.81176972e-01 1.07437003e+00
      8.35636020e-01 1.03824997e+00 1.12132001e+00 9.50528979e-01
      7.40220010e-01 6.18151009e-01 9.51511979e-01 8.67458999e-01
      8.20712984e-01 7.24014997e-01 8.11371028e-01 7.11831987e-01
      6.57334030e-01 6.34319007e-01 6.34679973e-01 6.30838990e-01
